// #### Generated By: http://www.cufonfonts.com ####
/*!
 * The following copyright notice may not be removed under any circumstances.
 * 
 * Copyright:
 * Copyright (c) Mark Simonson 2009. All rights reserved.
 * 
 * Trademark:
 * Anonymous Pro is a trademark of Mark Simonson.
 * 
 * Designer:
 * Mark Simonson
 * 
 * Vendor URL:
 * http://www.ms-studio.com
 */
Cufon.registerFont({"w":1118,"face":{"font-family":"Anonymous Pro","font-weight":400,"font-stretch":"normal","units-per-em":"2048","panose-1":"2 6 6 9 3 2 2 0 5 4","ascent":"1733","descent":"-315","x-height":"23","bbox":"-165 -1853.43 1147 395.042","underline-thickness":"123","underline-position":"-126","unicode-range":"U+0020-U+FB02"},"glyphs":{" ":{},"#":{"d":"932,-594r-221,0r0,221r-117,0r0,-221r-256,0r0,221r-117,0r0,-221r-221,0r0,-117r221,0r0,-264r-221,0r0,-102r221,0r0,-228r117,0r0,228r256,0r0,-228r117,0r0,228r221,0r0,102r-221,0r0,264r221,0r0,117xm594,-711r0,-264r-256,0r0,264r256,0"},"$":{"d":"397,-631v-176,-71,-354,-128,-354,-362v0,-210,155,-307,354,-334r0,-164r138,0r0,164v196,33,325,159,356,356r-143,25v-19,-120,-90,-233,-213,-254r0,471v121,45,211,98,273,155v87,80,119,234,66,362v-53,128,-172,211,-339,228r0,170r-138,0r0,-170v-218,-29,-355,-154,-397,-358r129,-33v33,137,117,247,268,271r0,-527xm535,-104v137,-16,215,-95,215,-224v0,-142,-99,-199,-215,-254r0,478xm397,-1202v-119,20,-213,81,-213,207v0,127,108,173,213,219r0,-426"},"%":{"d":"-1,-976v-80,-210,108,-414,328,-330v111,42,191,186,135,330v-43,110,-188,194,-330,134v-61,-26,-109,-72,-133,-134xm932,-1272r-836,1299r-94,-60r838,-1302xm609,-460v221,-82,413,116,331,329v-42,110,-187,191,-331,135v-110,-43,-193,-189,-133,-331v26,-61,70,-110,133,-133xm229,-922v83,0,150,-69,150,-151v0,-83,-67,-152,-150,-152v-82,0,-149,69,-149,152v0,82,67,151,149,151xm707,-78v82,0,151,-69,151,-151v0,-83,-69,-150,-151,-150v-83,0,-150,67,-150,150v0,82,67,151,150,151"},"&":{"d":"700,-317v59,-79,100,-177,125,-281r131,33v-27,127,-86,245,-157,338r157,147r-94,107r-157,-154v-109,104,-313,201,-503,122v-127,-52,-227,-158,-227,-329v0,-173,77,-272,175,-348v-68,-88,-125,-177,-130,-309v-10,-246,214,-396,456,-315v114,38,196,124,196,274v0,226,-193,281,-332,377xm123,-334v0,126,96,227,223,225v114,-2,202,-49,266,-108r-374,-365v-65,59,-115,127,-115,248xm348,-1204v-157,3,-218,164,-168,320v12,40,36,84,74,134v92,-56,199,-102,252,-193v16,-27,24,-58,24,-93v2,-103,-80,-170,-182,-168"},"'":{"d":"559,-1305r-43,469r-102,0r-41,-469r186,0"},"(":{"d":"705,-1413v-225,187,-400,451,-400,846v0,289,100,502,229,675v49,65,106,122,171,173r-72,90v-253,-205,-445,-500,-445,-938v0,-437,193,-731,445,-936"},")":{"d":"631,-565v0,-396,-177,-661,-402,-848r72,-90v252,207,447,497,447,938v0,319,-114,556,-258,745v-55,71,-118,135,-189,191r-72,-90v224,-188,402,-450,402,-846"},"*":{"d":"897,-1024r-342,184r342,189r-55,94r-332,-203r14,387r-116,0r14,-387r-332,203r-55,-94r342,-189r-342,-184r55,-96r332,205r-14,-390r116,0r-14,390r332,-205"},"+":{"d":"932,-606r-408,0r0,407r-116,0r0,-407r-408,0r0,-117r408,0r0,-407r116,0r0,407r408,0r0,117"},",":{"d":"610,-186r-274,559r-96,0r186,-559r184,0"},"-":{"d":"745,-420r-559,0r0,-117r559,0r0,117"},".":{"d":"559,0r-186,0r0,-186r186,0r0,186"},"\/":{"d":"905,-1303r-766,1543r-98,-52r766,-1542"},"0":{"d":"750,-1024v-57,-105,-138,-186,-283,-186v-117,0,-204,52,-269,150v-98,149,-121,465,-59,681xm186,-268v66,117,160,176,281,176v115,0,201,-52,267,-150v97,-144,121,-458,61,-669xm80,-183v-147,-215,-147,-715,2,-937v78,-116,197,-211,385,-207v370,8,500,303,500,676v0,284,-84,508,-267,617v-122,72,-345,74,-466,0v-63,-39,-112,-88,-154,-149"},"1":{"d":"745,0r-559,0r0,-117r211,0r0,-891v-50,104,-151,191,-265,237v-42,17,-87,26,-132,26r0,-142v169,-17,290,-143,358,-269v27,-50,39,-100,39,-149r138,0r0,1188r210,0r0,117"},"2":{"d":"10,-856v-1,-293,164,-475,459,-471v185,2,317,80,381,207v49,96,41,252,-10,337v-45,75,-97,135,-166,205r-455,461r551,0r0,-256r117,0r0,373r-848,0r0,-121r583,-594v58,-68,119,-135,123,-252v4,-158,-122,-243,-276,-243v-222,0,-333,129,-332,354r-127,0"},"3":{"d":"639,-690v173,27,281,141,281,330v0,191,-120,301,-264,355v-168,63,-381,10,-480,-74v-79,-67,-139,-167,-149,-300r133,-18v11,191,144,303,336,303v132,0,220,-67,264,-159v15,-32,22,-68,22,-107v3,-220,-159,-260,-381,-258r0,-117v187,-5,352,-47,357,-232v4,-147,-113,-245,-262,-243v-200,2,-326,106,-322,317r-129,0v7,-281,170,-434,451,-434v182,0,308,80,368,207v20,44,31,96,31,153v-1,160,-106,256,-256,277"},"4":{"d":"932,0r-559,0r0,-117r211,0r0,-256r-584,0r0,-119r547,-813r174,0r0,813r211,0r0,119r-211,0r0,256r211,0r0,117xm584,-492r0,-651r-439,651r439,0"},"5":{"d":"186,-780v96,-108,309,-156,478,-88v164,66,274,204,274,430v0,218,-123,357,-285,425v-107,45,-254,48,-366,8v-160,-57,-266,-182,-283,-382r133,-21v22,184,126,314,324,314v168,0,269,-87,317,-210v53,-135,6,-309,-67,-381v-56,-55,-137,-100,-244,-99v-123,1,-220,56,-281,131r-137,0r0,-652r817,0r0,117r-680,0r0,408"},"6":{"d":"924,-633v44,113,45,273,-2,383v-69,163,-214,273,-437,273v-373,0,-493,-301,-493,-674v0,-294,112,-516,310,-621v69,-37,150,-55,243,-55v129,0,237,45,323,135r-90,80v-91,-111,-281,-125,-418,-58v-164,80,-240,261,-241,504v36,-114,137,-193,253,-226v257,-73,477,65,552,259xm485,-94v214,-5,336,-134,336,-350v0,-212,-116,-351,-329,-351v-164,0,-270,81,-318,201v-52,131,-13,314,58,392v57,62,135,111,253,108"},"7":{"d":"395,0v-1,-535,125,-912,393,-1188r-622,0r0,256r-117,0r0,-373r871,0r0,121v-206,221,-330,459,-365,832v-9,106,-15,223,-16,352r-144,0"},"8":{"d":"922,-474v92,306,-133,501,-455,497v-211,-3,-366,-73,-438,-215v-38,-75,-51,-191,-17,-282v41,-110,127,-198,260,-216v-114,-16,-187,-97,-216,-193v-96,-326,239,-513,573,-421v151,41,266,142,266,331v0,113,-62,197,-136,247v-29,20,-63,32,-100,36v134,18,229,104,263,216xm467,-748v171,0,291,-72,291,-225v0,-156,-125,-237,-291,-237v-166,0,-291,81,-291,237v0,153,120,225,291,225xm467,-631v-192,0,-338,72,-338,264v0,232,240,313,466,257v118,-29,210,-109,210,-257v0,-192,-146,-264,-338,-264"},"9":{"d":"817,-639v-61,191,-327,306,-561,211v-164,-67,-279,-208,-279,-432v0,-230,117,-368,286,-434v130,-50,313,-40,420,24v182,109,261,333,261,617v0,294,-114,516,-312,621v-70,37,-150,55,-241,55v-129,0,-237,-45,-323,-136r90,-80v53,60,129,99,233,99v306,0,421,-232,426,-545xm451,-1210v-214,0,-336,133,-336,350v0,212,116,350,329,350v213,0,342,-124,342,-338v0,-219,-111,-362,-335,-362"},":":{"d":"559,-745r-186,0r0,-187r186,0r0,187xm559,0r-186,0r0,-186r186,0r0,186"},";":{"d":"559,-745r-186,0r0,-187r186,0r0,187xm610,-186r-274,559r-96,0r186,-559r184,0"},"<":{"d":"788,-231r-77,79r-512,-512r512,-512r77,80r-432,432"},"=":{"d":"932,-825r-932,0r0,-119r932,0r0,119xm932,-385r-932,0r0,-117r932,0r0,117"},">":{"d":"733,-664r-512,512r-78,-79r432,-433r-432,-432r78,-80"},"?":{"d":"559,0r-186,0r0,-186r186,0r0,186xm557,-1327v205,0,352,115,352,305v0,280,-263,331,-360,526v-18,37,-29,77,-29,123r-145,0v14,-282,258,-354,365,-543v20,-33,30,-68,30,-106v0,-123,-81,-190,-211,-188v-171,3,-249,108,-268,264r-123,-19v23,-217,150,-362,389,-362"},"@":{"d":"467,-37v123,0,218,-45,281,-117r43,48v-85,86,-193,129,-324,129v-372,0,-500,-300,-500,-674v0,-285,83,-511,267,-619v122,-72,342,-73,464,0v184,109,269,333,269,619v0,132,-31,261,-106,325v-27,24,-59,35,-97,35v-68,1,-124,-67,-121,-141r0,-49v-48,127,-127,190,-237,190v-188,0,-259,-152,-259,-340v0,-165,66,-287,181,-342v111,-53,215,-40,315,41r0,-53r102,0r0,553v-3,63,68,54,93,18v73,-106,64,-312,36,-464v-27,-149,-95,-264,-202,-336v-104,-70,-306,-68,-411,0v-158,103,-222,308,-222,563v0,193,37,343,111,451v74,108,179,163,317,163xm406,-387v216,0,247,-210,237,-442v-86,-89,-173,-124,-276,-67v-80,44,-117,142,-117,265v0,131,44,244,156,244"},"A":{"d":"995,0r-147,0r-123,-373r-516,0r-121,373r-147,0r434,-1305r186,0xm686,-494r-219,-673r-219,673r438,0"},"B":{"d":"442,-1305v254,2,443,79,443,338v0,135,-68,228,-203,277v165,51,248,156,248,317v-1,265,-187,374,-465,373r-416,0r0,-1305r393,0xm186,-745v258,-3,563,41,562,-222v-1,-260,-304,-219,-562,-221r0,443xm465,-117v190,1,328,-76,328,-256v1,-189,-135,-257,-328,-258r-279,0r0,514r279,0"},"C":{"d":"481,-1327v164,0,282,59,334,174r0,-152r117,0r0,428r-117,0v-5,-156,-90,-258,-205,-307v-97,-42,-228,-29,-304,24v-171,121,-220,428,-172,706v23,133,80,244,172,310v46,34,104,50,175,50v163,0,276,-98,340,-295r119,47v-62,205,-206,364,-459,365v-191,1,-308,-90,-387,-206v-151,-223,-150,-714,0,-937v79,-118,196,-208,387,-207"},"D":{"d":"858,-1108v149,205,156,700,2,914v-80,112,-200,195,-387,194r-424,0r0,-1305r424,0v185,-1,305,86,385,197xm473,-117v261,-7,365,-237,365,-534v0,-171,-32,-303,-96,-397v-64,-94,-154,-140,-269,-140r-287,0r0,1071r287,0"},"E":{"d":"883,0r-834,0r0,-1305r834,0r0,117r-697,0r0,467r514,0r0,117r-514,0r0,487r697,0r0,117"},"F":{"d":"883,-1188r-697,0r0,467r514,0r0,117r-514,0r0,604r-137,0r0,-1305r834,0r0,117"},"G":{"d":"481,-1327v164,0,282,59,334,174r0,-152r117,0r0,428r-117,0v-4,-158,-89,-258,-205,-307v-97,-42,-228,-29,-304,24v-171,121,-220,428,-172,706v23,133,80,244,172,310v46,34,104,50,175,50v242,0,338,-210,357,-465r-289,0r0,-117r434,0v3,299,-80,532,-271,644v-122,72,-342,70,-463,-2v-183,-109,-269,-331,-269,-617v0,-285,85,-512,269,-619v64,-37,141,-57,232,-57"},"H":{"d":"883,0r-138,0r0,-604r-559,0r0,604r-137,0r0,-1305r137,0r0,584r559,0r0,-584r138,0r0,1305"},"I":{"d":"745,0r-559,0r0,-117r211,0r0,-1071r-211,0r0,-117r559,0r0,117r-210,0r0,1071r210,0r0,117"},"J":{"d":"455,-94v228,0,290,-179,290,-404r0,-807r138,0r0,807v0,314,-125,521,-428,521v-255,0,-402,-144,-457,-365r119,-45v49,187,136,293,338,293"},"K":{"d":"926,0r-168,0r-434,-639r-138,154r0,485r-137,0r0,-1305r137,0r0,635r559,-635r181,0r-512,570"},"L":{"d":"883,0r-834,0r0,-1305r137,0r0,1188r697,0r0,117"},"M":{"d":"883,0r-138,0r0,-1087r-231,673r-98,0r-230,-673r0,1087r-137,0r0,-1305r178,0r238,682r240,-682r178,0r0,1305"},"N":{"d":"883,0r-170,0r-527,-1104r0,1104r-137,0r0,-1305r193,0r503,1053r0,-1053r138,0r0,1305"},"O":{"d":"698,-1270v237,135,319,515,242,872v-51,238,-187,421,-473,421v-372,0,-500,-300,-500,-674v0,-286,86,-510,269,-619v122,-72,339,-70,462,0xm755,-274v107,-198,95,-611,-21,-786v-57,-86,-137,-150,-267,-150v-289,0,-363,269,-363,559v0,221,54,412,186,507v89,64,266,66,353,0v46,-35,84,-77,112,-130"},"P":{"d":"479,-1305v271,-1,451,112,451,373v0,263,-179,373,-449,373r-295,0r0,559r-137,0r0,-1305r430,0xm481,-676v184,-1,312,-72,312,-256v0,-184,-129,-256,-312,-256r-295,0r0,512r295,0"},"Q":{"d":"932,367v-166,13,-330,-8,-414,-83v-67,-60,-112,-147,-127,-268v-308,-47,-424,-316,-424,-667v0,-286,86,-510,269,-619v122,-72,339,-70,462,0v234,133,316,511,246,860v-46,227,-170,400,-416,428v31,172,105,233,297,236r107,-4r0,117xm467,-94v325,0,405,-408,345,-755v-33,-193,-123,-361,-345,-361v-289,0,-363,269,-363,559v0,173,31,310,94,409v63,99,153,148,269,148"},"R":{"d":"479,-1305v271,-1,451,112,451,373v0,234,-159,344,-379,367r393,565r-174,0r-381,-559r-203,0r0,559r-137,0r0,-1305r430,0xm479,-676v186,-1,309,-71,309,-256v0,-183,-124,-255,-309,-256r-293,0r0,512r293,0"},"S":{"d":"654,-1130v-138,-130,-490,-103,-474,139v11,167,182,193,309,246v192,80,410,143,410,405v0,182,-117,287,-256,337v-192,69,-422,-2,-502,-136r0,139r-116,0r0,-397r116,0v7,151,104,240,221,281v192,66,400,-13,400,-216v0,-192,-180,-229,-324,-284v-186,-71,-395,-124,-395,-375v0,-174,113,-268,251,-313v181,-59,386,0,451,135r0,-136r121,0r0,373r-121,0v-1,-87,-43,-153,-91,-198"},"T":{"d":"932,-864r-117,0r0,-324r-280,0r0,1071r210,0r0,117r-559,0r0,-117r211,0r0,-1071r-280,0r0,324r-117,0r0,-441r932,0r0,441"},"U":{"d":"465,-94v212,0,280,-163,280,-371r0,-840r138,0r0,840v-2,297,-123,488,-418,488v-297,0,-416,-193,-416,-490r0,-838r137,0r0,840v2,206,68,371,279,371"},"V":{"d":"995,-1305r-436,1305r-186,0r-432,-1305r145,0r381,1166r379,-1166r149,0"},"W":{"d":"995,-1305r-235,1305r-162,0r-133,-637r-135,637r-160,0r-233,-1305r145,0r184,1074r131,-701r135,0r132,701r184,-1074r147,0"},"X":{"d":"954,0r-370,0r0,-117r88,0r-205,-428r-207,428r88,0r0,117r-371,0r0,-117r127,0r283,-540r-278,-531r-109,0r0,-117r373,0r0,117r-109,0r203,418r197,-418r-105,0r0,-117r373,0r0,117r-113,0r-272,531r280,540r127,0r0,117"},"Y":{"d":"952,-1188r-106,0r-311,625r0,446r210,0r0,117r-559,0r0,-117r211,0r0,-446r-311,-625r-106,0r0,-117r368,0r0,117r-108,0r227,492r225,-492r-108,0r0,-117r368,0r0,117"},"Z":{"d":"887,0r-838,0r0,-117r656,-1071r-539,0r0,320r-117,0r0,-437r817,0r0,117r-649,1071r553,0r0,-325r117,0r0,442"},"[":{"d":"745,373r-372,0r0,-1864r372,0r0,111r-262,0r0,1640r262,0r0,113"},"\\":{"d":"997,188r-98,52r-766,-1543r98,-51"},"]":{"d":"559,373r-373,0r0,-113r263,0r0,-1640r-263,0r0,-111r373,0r0,1864"},"^":{"d":"748,-559r-97,0r-184,-498r-182,498r-97,0r187,-746r184,0"},"_":{"d":"1118,186r-1118,0r0,-110r1118,0r0,110"},"`":{"d":"700,-1077r-41,65r-430,-243r66,-109"},"a":{"d":"373,23v-221,5,-375,-76,-375,-275v0,-324,430,-326,747,-291v1,-72,0,-136,-29,-179v-48,-71,-136,-114,-243,-116v-148,-3,-260,45,-356,103r-62,-103v109,-65,247,-120,418,-116v234,5,410,104,410,344r0,610r-138,0r0,-156v-82,100,-203,175,-372,179xm166,-341v-96,122,38,256,207,247v163,-9,279,-73,345,-170v34,-51,26,-94,27,-166v-211,-23,-483,-34,-579,89"},"b":{"d":"186,-846v71,-59,158,-108,275,-108v231,0,373,119,438,292v44,118,44,277,0,394v-66,173,-206,291,-438,291v-118,0,-205,-45,-275,-107r0,84r-137,0r0,-1305r137,0r0,459xm186,-215v69,75,149,121,275,121v222,0,332,-150,332,-371v0,-225,-109,-373,-332,-373v-105,0,-197,42,-275,125r0,498"},"c":{"d":"492,-94v141,1,255,-63,309,-150r96,66v-76,118,-213,203,-405,201v-235,-2,-385,-119,-456,-290v-48,-115,-47,-277,-3,-395v65,-175,208,-292,440,-292v139,0,246,59,293,157r0,-135r123,0r0,373r-123,0v-8,-176,-117,-279,-293,-279v-225,0,-336,148,-336,373v0,175,83,287,207,342v44,19,93,29,148,29"},"d":{"d":"471,-954v115,0,207,44,274,106r0,-340r-186,0r0,-117r324,0r0,1305r-138,0r0,-86v-68,62,-158,109,-274,109v-234,0,-376,-116,-441,-291v-43,-117,-43,-276,0,-394v65,-176,206,-292,441,-292xm745,-715v-68,-75,-151,-123,-276,-123v-223,0,-334,149,-334,373v0,224,111,373,334,373v105,0,197,-42,276,-125r0,-498"},"e":{"d":"893,-178v-90,123,-203,201,-406,201v-234,0,-384,-120,-455,-290v-48,-114,-48,-275,-4,-393v65,-174,208,-294,441,-294v323,0,469,209,473,536r-805,0v17,189,147,324,350,324v138,0,257,-67,310,-150xm797,-535v-19,-224,-220,-360,-450,-281v-115,39,-189,143,-208,281r658,0"},"f":{"d":"932,-1200v-118,-19,-271,-14,-332,56v-41,47,-65,115,-65,212r397,0r0,117r-397,0r0,698r210,0r0,117r-559,0r0,-117r211,0r0,-698r-211,0r0,-117r211,0v1,-259,136,-396,400,-395v53,0,95,3,135,10r0,117"},"g":{"d":"467,-954v117,2,210,44,278,106r0,-84r138,0r0,922v-2,205,-110,324,-265,378v-127,44,-311,33,-416,-25v-64,-36,-122,-85,-169,-150r96,-74v55,84,170,153,309,153v184,0,309,-96,307,-278r0,-100v-81,72,-174,108,-278,108v-288,0,-472,-180,-469,-467v3,-230,107,-382,273,-453v58,-24,123,-36,196,-36xm467,-115v125,-3,211,-49,278,-125r0,-475v-67,-76,-153,-123,-278,-123v-223,0,-332,151,-332,373v0,213,113,353,332,350"},"h":{"d":"745,-575v-1,-164,-65,-266,-229,-263v-173,4,-264,123,-308,262v-16,50,-22,103,-22,158r0,418r-137,0r0,-1305r137,0r0,607v66,-171,184,-256,353,-256v229,0,344,126,344,379r0,575r-138,0r0,-575"},"i":{"d":"559,-1118r-186,0r0,-187r186,0r0,187xm745,0r-559,0r0,-117r211,0r0,-698r-211,0r0,-117r349,0r0,815r210,0r0,117"},"j":{"d":"745,-1118r-186,0r0,-187r186,0r0,187xm721,0v0,239,-130,395,-373,395v-164,0,-279,-67,-344,-202r105,-72v44,92,112,157,239,158v176,2,236,-104,236,-279r0,-815r-211,0r0,-117r348,0r0,932"},"k":{"d":"930,0r-195,0r-381,-418r-168,154r0,264r-137,0r0,-1305r137,0r0,875r531,-502r196,0r-467,428"},"l":{"d":"745,0r-559,0r0,-117r211,0r0,-1071r-211,0r0,-117r349,0r0,1188r210,0r0,117"},"m":{"d":"702,-954v170,2,230,105,230,284r0,670r-137,0r0,-670v0,-93,-28,-168,-109,-168v-52,0,-90,27,-114,82v-24,55,-37,131,-37,230r0,526r-138,0r0,-670v0,-93,-29,-168,-110,-168v-140,0,-150,166,-150,312r0,526r-137,0r0,-932r137,0r0,135v29,-105,91,-157,187,-157v91,0,153,46,186,137v45,-91,109,-137,192,-137"},"n":{"d":"745,-575v-1,-164,-65,-266,-229,-263v-173,4,-264,123,-308,262v-16,50,-22,103,-22,158r0,418r-137,0r0,-932r137,0r0,234v66,-171,184,-256,353,-256v229,0,344,126,344,379r0,575r-138,0r0,-575"},"o":{"d":"922,-660v46,118,46,279,0,395v-70,173,-219,288,-455,288v-233,0,-384,-116,-453,-288v-46,-116,-46,-277,0,-395v68,-175,218,-294,453,-294v237,0,386,119,455,294xm726,-199v81,-77,122,-265,70,-411v-47,-132,-154,-228,-329,-228v-175,0,-279,96,-327,228v-51,145,-5,330,69,411v80,87,266,137,405,77v44,-19,80,-46,112,-77"},"p":{"d":"459,23v-116,0,-204,-46,-273,-107r0,457r-137,0r0,-1305r137,0r0,86v170,-169,480,-115,616,28v109,115,170,361,96,551v-67,171,-207,290,-439,290xm186,-215v69,75,147,121,273,121v223,0,336,-148,336,-371v0,-224,-113,-373,-336,-373v-125,0,-204,48,-273,123r0,500"},"q":{"d":"745,-84v-68,62,-156,107,-272,107v-232,0,-372,-119,-439,-290v-45,-116,-46,-278,0,-395v66,-174,205,-292,439,-292v97,0,187,36,272,108r0,-86r138,0r0,1305r-138,0r0,-457xm745,-715v-68,-75,-147,-123,-272,-123v-223,0,-336,149,-336,373v0,170,72,287,191,342v42,19,90,29,145,29v125,0,204,-46,272,-121r0,-500"},"r":{"d":"881,-801v-89,-45,-236,-52,-326,-1v-123,69,-207,200,-207,384r0,301r211,0r0,117r-559,0r0,-117r211,0r0,-698r-211,0r0,-117r348,0r0,234v73,-209,239,-285,480,-247v35,6,68,17,98,32"},"s":{"d":"801,-737v-123,-99,-355,-134,-533,-67v-53,20,-106,54,-106,122v0,95,104,109,192,126v190,37,415,39,514,166v51,65,49,202,-2,268v-117,153,-429,177,-658,108v-84,-25,-157,-57,-218,-97r61,-118v120,74,238,135,410,135v206,0,309,-53,309,-160v0,-131,-182,-123,-309,-145v-203,-36,-436,-53,-436,-283v0,-213,214,-268,436,-272v168,-3,293,41,395,110"},"t":{"d":"482,-114v163,71,340,-48,345,-208r115,25v-13,238,-267,387,-514,293v-131,-50,-217,-163,-217,-338r0,-473r-211,0r0,-117r211,0r0,-373r137,0r0,373r397,0r0,117r-397,0r0,473v2,113,53,193,134,228"},"u":{"d":"186,-356v1,164,66,265,230,262v173,-3,262,-123,306,-262v16,-50,23,-103,23,-158r0,-418r138,0r0,932r-138,0r0,-233v-65,171,-183,256,-352,256v-229,0,-344,-126,-344,-379r0,-576r137,0r0,576"},"v":{"d":"963,-932r-404,932r-184,0r-406,-932r164,0r334,817r332,-817r164,0"},"w":{"d":"963,-932r-189,932r-160,0r-149,-684r-141,684r-160,0r-191,-932r146,0r135,746r145,-746r136,0r149,746r135,-746r144,0"},"x":{"d":"954,0r-385,0r0,-121r82,0r-184,-270r-182,270r75,0r0,121r-380,0r0,-121r145,0r256,-352r-246,-336r-135,0r0,-123r383,0r0,123r-86,0r170,254r172,-254r-94,0r0,-123r387,0r0,123r-131,0r-246,336r256,352r143,0r0,121"},"y":{"d":"25,242v71,31,209,64,259,4v47,-57,69,-146,101,-219r-416,-959r162,0r336,815r330,-815r164,0r-504,1168v-52,175,-280,187,-459,124"},"z":{"d":"887,0r-840,0r0,-117r635,-698r-516,0r0,256r-117,0r0,-373r815,0r0,117r-635,698r541,0r0,-256r117,0r0,373"},"{":{"d":"481,-782v-9,114,-71,201,-172,225v101,24,172,108,172,223r0,424v0,113,57,170,170,170r92,0r0,113v-230,17,-370,-77,-370,-283r0,-424v0,-112,-62,-168,-187,-168r0,-112v125,0,187,-56,187,-168r0,-430v6,-173,105,-272,278,-279r92,0r0,111r-92,0v-113,0,-170,56,-170,168r0,430"},"|":{"d":"535,186r-138,0r0,-1677r138,0r0,1677"},"}":{"d":"621,-557v-100,-26,-175,-109,-175,-225r0,-430v0,-112,-56,-168,-167,-168r-93,0r0,-111v78,0,148,-4,205,21v96,43,168,124,168,258r0,430v0,112,61,168,184,168r0,112v-123,0,-184,56,-184,168r0,426v-2,135,-71,218,-168,260v-57,24,-128,21,-205,21r0,-113r93,0v111,0,167,-56,167,-168r0,-426v9,-115,72,-201,175,-223"},"~":{"d":"592,-582v30,32,91,30,122,0v61,-59,71,-176,87,-286r135,14v-13,171,-61,315,-170,389v-59,40,-155,42,-218,9v-104,-54,-130,-188,-208,-266v-32,-32,-90,-31,-122,0v-61,60,-72,174,-87,284r-135,-15v13,-169,62,-316,169,-389v57,-39,157,-40,219,-8v105,54,133,187,208,268"},"\u00c4":{"d":"995,0r-147,0r-123,-373r-516,0r-121,373r-147,0r434,-1305r186,0xm686,-494r-219,-673r-219,673r438,0xm745,-1489r-186,0r0,-187r186,0r0,187xm373,-1489r-187,0r0,-187r187,0r0,187"},"\u00c5":{"d":"356,-1251v-85,-41,-143,-170,-97,-287v38,-99,169,-173,296,-120v78,32,135,102,137,208v1,93,-52,162,-114,197r417,1253r-147,0r-123,-373r-516,0r-121,373r-147,0xm686,-494r-219,-673r-219,673r438,0xm467,-1585v-71,0,-135,64,-135,135v0,71,64,135,135,135v71,0,135,-64,135,-135v0,-71,-64,-135,-135,-135"},"\u00c7":{"d":"481,-1327v164,0,282,59,334,174r0,-152r117,0r0,428r-117,0v-5,-156,-90,-258,-205,-307v-97,-42,-228,-29,-304,24v-171,121,-220,428,-172,706v23,133,80,244,172,310v46,34,104,50,175,50v163,0,276,-98,340,-295r119,47v-56,185,-179,329,-381,358v11,213,-117,355,-317,355r0,-117v142,1,208,-80,202,-234v-342,-29,-464,-308,-464,-671v0,-285,85,-512,269,-619v64,-37,141,-57,232,-57"},"\u00c9":{"d":"883,0r-834,0r0,-1305r834,0r0,117r-697,0r0,467r514,0r0,117r-514,0r0,487r697,0r0,117xm711,-1626r-432,243r-37,-65r403,-287"},"\u00d1":{"d":"883,0r-170,0r-527,-1104r0,1104r-137,0r0,-1305r193,0r503,1053r0,-1053r138,0r0,1305xm846,-1600v-60,105,-142,158,-246,158v-105,0,-146,-63,-211,-99v-91,-51,-180,1,-231,93r-80,-47v61,-104,143,-156,246,-156v105,0,146,62,210,98v91,51,180,0,232,-94"},"\u00d6":{"d":"698,-1270v237,135,319,515,242,872v-51,238,-187,421,-473,421v-372,0,-500,-300,-500,-674v0,-286,86,-510,269,-619v122,-72,339,-70,462,0xm755,-274v107,-198,95,-611,-21,-786v-57,-86,-137,-150,-267,-150v-289,0,-363,269,-363,559v0,221,54,412,186,507v89,64,266,66,353,0v46,-35,84,-77,112,-130xm745,-1489r-186,0r0,-187r186,0r0,187xm373,-1489r-187,0r0,-187r187,0r0,187"},"\u00dc":{"d":"465,-94v212,0,280,-163,280,-371r0,-840r138,0r0,840v-2,297,-123,488,-418,488v-297,0,-416,-193,-416,-490r0,-838r137,0r0,840v2,206,68,371,279,371xm745,-1489r-186,0r0,-187r186,0r0,187xm373,-1489r-187,0r0,-187r187,0r0,187"},"\u00e1":{"d":"375,23v-221,5,-375,-76,-375,-275v0,-324,430,-326,747,-291v1,-72,0,-136,-29,-179v-48,-71,-136,-114,-243,-116v-148,-3,-260,45,-356,103r-62,-103v109,-65,247,-120,418,-116v234,5,410,104,410,344r0,610r-138,0r0,-156v-82,100,-203,175,-372,179xm168,-341v-96,122,38,256,207,247v163,-9,279,-73,345,-170v34,-51,26,-94,27,-166v-211,-23,-483,-34,-579,89xm711,-1254r-432,243r-37,-65r403,-287"},"\u00e0":{"d":"375,23v-221,5,-375,-76,-375,-275v0,-324,430,-326,747,-291v1,-72,0,-136,-29,-179v-48,-71,-136,-114,-243,-116v-148,-3,-260,45,-356,103r-62,-103v109,-65,247,-120,418,-116v234,5,410,104,410,344r0,610r-138,0r0,-156v-82,100,-203,175,-372,179xm168,-341v-96,122,38,256,207,247v163,-9,279,-73,345,-170v34,-51,26,-94,27,-166v-211,-23,-483,-34,-579,89xm700,-1077r-41,65r-430,-243r66,-109"},"\u00e2":{"d":"375,23v-221,5,-375,-76,-375,-275v0,-324,430,-326,747,-291v1,-72,0,-136,-29,-179v-48,-71,-136,-114,-243,-116v-148,-3,-260,45,-356,103r-62,-103v109,-65,247,-120,418,-116v234,5,410,104,410,344r0,610r-138,0r0,-156v-82,100,-203,175,-372,179xm168,-341v-96,122,38,256,207,247v163,-9,279,-73,345,-170v34,-51,26,-94,27,-166v-211,-23,-483,-34,-579,89xm764,-1080r-53,67r-242,-205r-246,207r-53,-65r297,-291"},"\u00e4":{"d":"375,23v-221,5,-375,-76,-375,-275v0,-324,430,-326,747,-291v1,-72,0,-136,-29,-179v-48,-71,-136,-114,-243,-116v-148,-3,-260,45,-356,103r-62,-103v109,-65,247,-120,418,-116v234,5,410,104,410,344r0,610r-138,0r0,-156v-82,100,-203,175,-372,179xm168,-341v-96,122,38,256,207,247v163,-9,279,-73,345,-170v34,-51,26,-94,27,-166v-211,-23,-483,-34,-579,89xm745,-1118r-186,0r0,-187r186,0r0,187xm373,-1118r-187,0r0,-187r187,0r0,187"},"\u00e3":{"d":"375,23v-221,5,-375,-76,-375,-275v0,-324,430,-326,747,-291v1,-72,0,-136,-29,-179v-48,-71,-136,-114,-243,-116v-148,-3,-260,45,-356,103r-62,-103v109,-65,247,-120,418,-116v234,5,410,104,410,344r0,610r-138,0r0,-156v-82,100,-203,175,-372,179xm168,-341v-96,122,38,256,207,247v163,-9,279,-73,345,-170v34,-51,26,-94,27,-166v-211,-23,-483,-34,-579,89xm846,-1228v-60,105,-142,158,-246,158v-105,0,-146,-63,-211,-99v-91,-51,-180,1,-231,93r-80,-47v61,-104,143,-156,246,-156v105,0,146,62,210,98v91,51,180,0,232,-94"},"\u00e5":{"d":"375,23v-221,5,-375,-76,-375,-275v0,-324,430,-326,747,-291v1,-72,0,-136,-29,-179v-48,-71,-136,-114,-243,-116v-148,-3,-260,45,-356,103r-62,-103v109,-65,247,-120,418,-116v234,5,410,104,410,344r0,610r-138,0r0,-156v-82,100,-203,175,-372,179xm168,-341v-96,122,38,256,207,247v163,-9,279,-73,345,-170v34,-51,26,-94,27,-166v-211,-23,-483,-34,-579,89xm555,-1049v-199,74,-367,-103,-296,-296v36,-99,167,-170,296,-120v99,38,171,169,119,297v-22,55,-64,98,-119,119xm467,-1392v-72,0,-135,64,-135,136v0,71,64,135,135,135v71,0,135,-64,135,-135v0,-72,-63,-136,-135,-136"},"\u00e7":{"d":"492,-94v141,1,255,-63,309,-150r96,66v-69,106,-181,180,-338,196v11,212,-118,353,-317,353r0,-117v142,1,208,-80,202,-234v-273,-28,-444,-191,-444,-485v0,-231,107,-384,276,-453v59,-24,125,-36,197,-36v139,0,246,59,293,157r0,-135r123,0r0,373r-123,0v-8,-176,-117,-279,-293,-279v-225,0,-336,148,-336,373v0,175,83,287,207,342v44,19,93,29,148,29"},"\u00e9":{"d":"893,-178v-90,123,-203,201,-406,201v-234,0,-384,-120,-455,-290v-48,-114,-48,-275,-4,-393v65,-174,208,-294,441,-294v323,0,469,209,473,536r-805,0v17,189,147,324,350,324v138,0,257,-67,310,-150xm797,-535v-19,-224,-220,-360,-450,-281v-115,39,-189,143,-208,281r658,0xm711,-1254r-432,243r-37,-65r403,-287"},"\u00e8":{"d":"893,-178v-90,123,-203,201,-406,201v-234,0,-384,-120,-455,-290v-48,-114,-48,-275,-4,-393v65,-174,208,-294,441,-294v323,0,469,209,473,536r-805,0v17,189,147,324,350,324v138,0,257,-67,310,-150xm797,-535v-19,-224,-220,-360,-450,-281v-115,39,-189,143,-208,281r658,0xm700,-1077r-41,65r-430,-243r66,-109"},"\u00ea":{"d":"893,-178v-90,123,-203,201,-406,201v-234,0,-384,-120,-455,-290v-48,-114,-48,-275,-4,-393v65,-174,208,-294,441,-294v323,0,469,209,473,536r-805,0v17,189,147,324,350,324v138,0,257,-67,310,-150xm797,-535v-19,-224,-220,-360,-450,-281v-115,39,-189,143,-208,281r658,0xm764,-1080r-53,67r-242,-205r-246,207r-53,-65r297,-291"},"\u00eb":{"d":"893,-178v-90,123,-203,201,-406,201v-234,0,-384,-120,-455,-290v-48,-114,-48,-275,-4,-393v65,-174,208,-294,441,-294v323,0,469,209,473,536r-805,0v17,189,147,324,350,324v138,0,257,-67,310,-150xm797,-535v-19,-224,-220,-360,-450,-281v-115,39,-189,143,-208,281r658,0xm745,-1118r-186,0r0,-187r186,0r0,187xm373,-1118r-187,0r0,-187r187,0r0,187"},"\u00ed":{"d":"745,0r-559,0r0,-117r211,0r0,-694r-211,0r0,-121r349,0r0,815r210,0r0,117xm711,-1254r-432,243r-37,-65r403,-287"},"\u00ec":{"d":"745,0r-559,0r0,-117r211,0r0,-694r-211,0r0,-121r349,0r0,815r210,0r0,117xm700,-1077r-41,65r-430,-243r66,-109"},"\u00ee":{"d":"745,0r-559,0r0,-117r211,0r0,-694r-211,0r0,-121r349,0r0,815r210,0r0,117xm764,-1080r-53,67r-242,-205r-246,207r-53,-65r297,-291"},"\u00ef":{"d":"745,0r-559,0r0,-117r211,0r0,-694r-211,0r0,-121r349,0r0,815r210,0r0,117xm745,-1118r-186,0r0,-187r186,0r0,187xm373,-1118r-187,0r0,-187r187,0r0,187"},"\u00f1":{"d":"745,-575v-1,-164,-65,-266,-229,-263v-173,4,-264,123,-308,262v-16,50,-22,103,-22,158r0,418r-137,0r0,-932r137,0r0,234v66,-171,184,-256,353,-256v229,0,344,126,344,379r0,575r-138,0r0,-575xm846,-1228v-60,105,-142,158,-246,158v-105,0,-146,-63,-211,-99v-91,-51,-180,1,-231,93r-80,-47v61,-104,143,-156,246,-156v105,0,146,62,210,98v91,51,180,0,232,-94"},"\u00f3":{"d":"922,-660v46,118,46,279,0,395v-70,173,-219,288,-455,288v-233,0,-384,-116,-453,-288v-46,-116,-46,-277,0,-395v68,-175,218,-294,453,-294v237,0,386,119,455,294xm726,-199v81,-77,122,-265,70,-411v-47,-132,-154,-228,-329,-228v-175,0,-279,96,-327,228v-51,145,-5,330,69,411v80,87,266,137,405,77v44,-19,80,-46,112,-77xm711,-1254r-432,243r-37,-65r403,-287"},"\u00f2":{"d":"922,-660v46,118,46,279,0,395v-70,173,-219,288,-455,288v-233,0,-384,-116,-453,-288v-46,-116,-46,-277,0,-395v68,-175,218,-294,453,-294v237,0,386,119,455,294xm726,-199v81,-77,122,-265,70,-411v-47,-132,-154,-228,-329,-228v-175,0,-279,96,-327,228v-51,145,-5,330,69,411v80,87,266,137,405,77v44,-19,80,-46,112,-77xm700,-1077r-41,65r-430,-243r66,-109"},"\u00f4":{"d":"922,-660v46,118,46,279,0,395v-70,173,-219,288,-455,288v-233,0,-384,-116,-453,-288v-46,-116,-46,-277,0,-395v68,-175,218,-294,453,-294v237,0,386,119,455,294xm726,-199v81,-77,122,-265,70,-411v-47,-132,-154,-228,-329,-228v-175,0,-279,96,-327,228v-51,145,-5,330,69,411v80,87,266,137,405,77v44,-19,80,-46,112,-77xm764,-1080r-53,67r-242,-205r-246,207r-53,-65r297,-291"},"\u00f6":{"d":"922,-660v46,118,46,279,0,395v-70,173,-219,288,-455,288v-233,0,-384,-116,-453,-288v-46,-116,-46,-277,0,-395v68,-175,218,-294,453,-294v237,0,386,119,455,294xm726,-199v81,-77,122,-265,70,-411v-47,-132,-154,-228,-329,-228v-175,0,-279,96,-327,228v-51,145,-5,330,69,411v80,87,266,137,405,77v44,-19,80,-46,112,-77xm745,-1118r-186,0r0,-187r186,0r0,187xm373,-1118r-187,0r0,-187r187,0r0,187"},"\u00f5":{"d":"922,-660v46,118,46,279,0,395v-70,173,-219,288,-455,288v-233,0,-384,-116,-453,-288v-46,-116,-46,-277,0,-395v68,-175,218,-294,453,-294v237,0,386,119,455,294xm726,-199v81,-77,122,-265,70,-411v-47,-132,-154,-228,-329,-228v-175,0,-279,96,-327,228v-51,145,-5,330,69,411v80,87,266,137,405,77v44,-19,80,-46,112,-77xm846,-1228v-60,105,-142,158,-246,158v-105,0,-146,-63,-211,-99v-91,-51,-180,1,-231,93r-80,-47v61,-104,143,-156,246,-156v105,0,146,62,210,98v91,51,180,0,232,-94"},"\u00fa":{"d":"186,-356v1,164,66,265,230,262v173,-3,262,-123,306,-262v16,-50,23,-103,23,-158r0,-418r138,0r0,932r-138,0r0,-233v-65,171,-183,256,-352,256v-229,0,-344,-126,-344,-379r0,-576r137,0r0,576xm711,-1255r-432,243r-37,-65r403,-287"},"\u00f9":{"d":"186,-356v1,164,66,265,230,262v173,-3,262,-123,306,-262v16,-50,23,-103,23,-158r0,-418r138,0r0,932r-138,0r0,-233v-65,171,-183,256,-352,256v-229,0,-344,-126,-344,-379r0,-576r137,0r0,576xm700,-1079r-41,65r-430,-243r66,-109"},"\u00fb":{"d":"186,-356v1,164,66,265,230,262v173,-3,262,-123,306,-262v16,-50,23,-103,23,-158r0,-418r138,0r0,932r-138,0r0,-233v-65,171,-183,256,-352,256v-229,0,-344,-126,-344,-379r0,-576r137,0r0,576xm764,-1081r-53,67r-242,-205r-246,207r-53,-65r297,-291"},"\u00fc":{"d":"186,-356v1,164,66,265,230,262v173,-3,262,-123,306,-262v16,-50,23,-103,23,-158r0,-418r138,0r0,932r-138,0r0,-233v-65,171,-183,256,-352,256v-229,0,-344,-126,-344,-379r0,-576r137,0r0,576xm745,-1118r-186,0r0,-187r186,0r0,187xm373,-1118r-187,0r0,-187r187,0r0,187"},"\u2020":{"d":"745,-969r-237,-14r12,610r-110,0r14,-610r-238,14r0,-112r238,14r-14,-238r110,0r-12,238r237,-14r0,112"},"\u00b0":{"d":"110,-855v-84,-77,-148,-257,-80,-407v58,-128,167,-229,343,-229v174,0,287,101,343,229v39,90,39,201,0,290v-57,127,-169,227,-343,227v-114,0,-200,-53,-263,-110xm263,-1378v-123,48,-212,204,-149,370v46,123,206,209,367,148v123,-47,212,-206,151,-367v-47,-123,-209,-214,-369,-151"},"\u00a2":{"d":"905,-362v-74,111,-197,190,-370,200r0,162r-138,0r0,-170v-227,-39,-393,-219,-389,-481v4,-274,155,-431,389,-479r0,-175r138,0r0,166v173,7,296,89,370,199r-96,66v-53,-80,-150,-141,-274,-148r0,743v124,-10,221,-67,274,-149xm397,-1010v-154,36,-252,176,-252,359v0,184,99,322,252,360r0,-719"},"\u00a3":{"d":"111,-117v87,-4,125,-77,125,-162r0,-315r-187,0r0,-117r187,0v5,-141,-13,-294,22,-405v47,-149,215,-256,404,-194v102,34,166,120,190,235r-125,28v-25,-101,-62,-160,-164,-163v-137,-3,-190,94,-190,235r0,264r186,0r0,117r-186,0r0,270v1,98,-33,174,-92,207r206,0v181,0,308,-74,383,-223r109,59v-78,176,-253,281,-492,281r-438,0r0,-117r62,0"},"\u00a7":{"d":"512,70v157,0,272,-75,272,-234v0,-131,-92,-188,-186,-233v-163,-78,-374,-117,-477,-255v-34,-46,-53,-104,-53,-177v0,-123,53,-200,135,-261v-76,-53,-137,-126,-135,-253v2,-175,106,-272,244,-309v298,-81,568,55,601,333r-129,21v-27,-169,-128,-261,-317,-261v-147,0,-262,64,-262,216v0,115,97,158,186,198v168,76,376,124,477,269v34,49,54,111,54,188v0,113,-47,198,-115,258v65,57,117,133,115,254v-3,181,-112,293,-254,336v-311,94,-596,-63,-648,-338r127,-33v36,178,157,281,365,281xm336,-1018v-78,39,-131,89,-131,187v0,111,83,158,165,198v98,48,225,78,324,129v48,-39,90,-94,90,-172v0,-114,-71,-171,-148,-216v-87,-51,-204,-82,-300,-126"},"\u2022":{"d":"296,-296v-84,-77,-149,-259,-80,-408v58,-128,167,-228,343,-228v174,0,286,101,343,228v40,90,40,201,0,290v-58,126,-169,228,-343,228v-113,0,-200,-52,-263,-110"},"\u00b6":{"d":"907,0r-137,0r0,-559r-235,0r0,559r-138,0r0,-567v-244,-26,-366,-148,-366,-365v0,-249,166,-373,499,-373r377,0r0,1305xm770,-682r0,-506r-235,0r0,506r235,0xm397,-1178v-139,23,-227,96,-227,246v0,134,76,214,227,240r0,-486"},"\u00df":{"d":"426,-1327v192,3,314,99,319,287v4,151,-95,203,-177,271v-38,32,-47,79,-4,109v147,101,368,149,368,392v0,146,-98,226,-212,268v-91,34,-226,28,-310,-5v-48,-19,-94,-46,-138,-81r78,-104v63,57,123,96,230,96v119,0,219,-55,213,-176v-8,-169,-188,-187,-293,-264v-51,-37,-103,-81,-103,-164v-1,-182,211,-166,211,-342v0,-105,-61,-172,-182,-170v-198,3,-240,166,-240,364r0,846r-137,0r0,-844v1,-275,92,-487,377,-483"},"\u00ae":{"d":"1073,-1153v59,131,60,298,3,433v-84,194,-248,347,-515,347v-257,0,-428,-143,-514,-329v-61,-131,-64,-312,-3,-447v86,-192,252,-342,517,-342v261,0,427,150,512,338xm1014,-737v51,-116,53,-266,1,-384v-75,-169,-221,-304,-454,-304v-232,0,-383,131,-457,299v-51,118,-51,271,0,389v75,170,223,299,457,299v231,0,379,-131,453,-299xm854,-1055v0,115,-77,203,-192,211r204,248r-186,0r-174,-242r-35,0r0,242r-143,0r0,-676r268,0v148,5,258,67,258,217xm596,-948v69,2,117,-42,117,-107v0,-65,-45,-108,-117,-108r-125,0r0,215r125,0"},"\u00a9":{"d":"346,-745v0,132,81,243,219,243v93,0,158,-33,195,-100r106,72v-78,134,-278,185,-448,120v-129,-49,-215,-162,-215,-335v0,-171,88,-281,211,-335v44,-19,95,-28,151,-28v137,0,237,49,301,147r-106,72v-37,-67,-102,-100,-195,-100v-136,0,-219,108,-219,244xm1077,-966v59,133,61,298,3,434v-84,194,-250,348,-517,348v-257,0,-428,-145,-514,-330v-61,-131,-63,-311,-3,-446v86,-192,251,-345,517,-345v261,0,429,149,514,339xm1018,-549v52,-118,52,-267,0,-385v-76,-169,-222,-305,-455,-305v-231,0,-382,133,-457,301v-52,117,-51,272,0,389v75,169,223,299,457,299v231,0,380,-132,455,-299"},"\u2122":{"d":"1118,-745r-110,0r0,-394r-129,334r-78,0r-129,-334r0,394r-111,0r0,-560r158,0r121,328r121,-328r157,0r0,560xm465,-1192r-176,0r0,447r-113,0r0,-447r-176,0r0,-113r465,0r0,113"},"\u00b4":{"d":"711,-1255r-432,243r-37,-65r403,-287"},"\u00a8":{"d":"745,-1118r-186,0r0,-187r186,0r0,187xm373,-1118r-187,0r0,-187r187,0r0,187"},"\u2260":{"d":"932,-373r-545,0r-90,187r-111,0r90,-187r-276,0r0,-112r330,0r162,-336r-492,0r0,-111r545,0r90,-186r110,0r-90,186r277,0r0,111r-330,0r-162,336r492,0r0,112"},"\u00c6":{"d":"932,0r-506,0r0,-373r-233,0r-111,373r-145,0r395,-1305r600,0r0,121r-367,0r0,457r277,0r0,121r-277,0r0,483r367,0r0,123xm426,-494r0,-659r-197,659r197,0"},"\u00d8":{"d":"467,23v-187,0,-303,-78,-379,-193r-133,141r0,-159r78,-84v-102,-240,-84,-657,47,-848v79,-116,198,-208,387,-207v184,0,301,83,377,197r135,-146r0,160r-82,86v106,236,88,653,-43,847v-78,116,-197,206,-387,206xm180,-268v53,99,138,178,287,174v286,-7,362,-266,362,-557v0,-100,-11,-190,-34,-271xm750,-1032v-57,-101,-140,-178,-283,-178v-330,0,-382,358,-355,697v4,46,13,90,25,132"},"\u221e":{"d":"713,-895v145,0,237,98,237,244v0,147,-90,245,-237,245v-127,0,-183,-58,-242,-157v-62,99,-109,157,-242,157v-145,0,-237,-99,-237,-245v0,-146,90,-244,237,-244v133,0,180,60,242,160v60,-99,114,-160,242,-160xm715,-492v80,0,145,-79,145,-159v0,-89,-63,-156,-145,-156v-85,0,-152,52,-201,156v49,106,116,159,201,159xm82,-651v0,83,62,159,145,159v86,0,153,-53,201,-159v-47,-104,-114,-156,-201,-156v-80,-1,-145,71,-145,156"},"\u00b1":{"d":"932,-608r-410,0r0,422r-112,0r0,-422r-410,0r0,-113r410,0r0,-409r112,0r0,409r410,0r0,113xm932,0r-932,0r0,-113r932,0r0,113"},"\u2264":{"d":"788,-231r-77,77r-512,-510r512,-512r77,78r-432,434xm932,0r-746,0r0,-113r746,0r0,113"},"\u2265":{"d":"920,-664r-512,510r-78,-77r432,-433r-432,-434r78,-78xm932,0r-746,0r0,-113r746,0r0,113"},"\u00a5":{"d":"932,-408r-397,0r0,408r-136,0r0,-408r-399,0r0,-120r399,0r0,-35r-108,-215r-291,0r0,-121r229,0r-204,-406r153,0r289,596r2,0r289,-596r153,0r-204,406r225,0r0,121r-287,0r-110,215r0,35r397,0r0,120"},"\u00b5":{"d":"186,-358v1,164,66,267,230,264v173,-4,262,-123,306,-262v16,-50,23,-103,23,-158r0,-418r138,0r0,932r-138,0r0,-236v-64,173,-181,259,-352,259v-82,0,-151,-19,-207,-56r0,406r-137,0r0,-1305r137,0r0,574"},"\u2202":{"d":"430,23v-260,2,-453,-123,-450,-377v2,-164,103,-258,218,-328v140,-85,331,-138,529,-170v-107,-174,-297,-281,-508,-358r45,-117v268,106,514,246,630,503v63,141,75,365,20,520v-69,197,-224,325,-484,327xm117,-354v1,165,135,263,313,260v295,-5,413,-240,375,-548v-4,-34,-14,-66,-25,-97v-254,30,-489,97,-614,247v-34,41,-49,87,-49,138"},"\u2211":{"d":"883,0r-840,0r0,-117r328,-536r-328,-535r0,-117r840,0r0,441r-121,0r0,-324r-555,0r325,535r-325,536r555,0r0,-325r121,0r0,442"},"\u220f":{"d":"932,-1188r-187,0r0,1188r-137,0r0,-1188r-284,0r0,1188r-138,0r0,-1188r-186,0r0,-117r932,0r0,117"},"\u03c0":{"d":"823,23v-141,0,-239,-85,-239,-230r0,-602r-236,0v0,265,-14,534,-43,809r-139,0v28,-260,45,-526,45,-809r-211,0r0,-123r932,0r0,123r-211,0r0,602v-9,99,122,134,199,92r26,113v-27,17,-68,25,-123,25"},"\u222b":{"d":"799,-1698v44,0,91,5,133,10r0,113v-43,-6,-82,-6,-133,-6v-178,2,-264,78,-264,264r0,1333v0,253,-133,379,-398,379v-45,0,-90,-3,-133,-8r0,-115v45,6,78,7,133,7v176,-2,260,-79,260,-263r0,-1333v0,-254,134,-381,402,-381"},"\u00aa":{"d":"35,-1235v120,-92,413,-126,562,-31v57,38,103,94,103,187r0,520r-141,0r0,-111v-100,111,-234,157,-397,115v-95,-25,-170,-88,-170,-205v0,-249,315,-277,567,-244r0,-75v-4,-95,-92,-127,-186,-127v-127,0,-203,24,-283,80xm133,-760v0,151,272,105,351,46v34,-26,75,-55,75,-99r0,-80v-170,-20,-426,-29,-426,133xm700,-256r-700,0r0,-117r700,0r0,117"},"\u00ba":{"d":"736,-1092v40,94,41,224,0,319v-58,137,-178,232,-363,232v-186,0,-304,-94,-361,-229v-39,-93,-40,-228,0,-322v57,-136,173,-233,361,-233v186,0,306,97,363,233xm119,-932v-8,194,169,330,355,256v93,-37,155,-126,155,-256v0,-164,-94,-276,-256,-276v-162,0,-247,112,-254,276xm745,-256r-745,0r0,-117r745,0r0,117"},"\u03a9":{"d":"211,-231v-194,-125,-285,-443,-199,-729v61,-204,198,-367,455,-367v257,0,396,164,457,367v87,289,-8,600,-203,729r0,114r211,0r0,117r-348,0r0,-291v198,-77,278,-352,216,-616v-38,-164,-134,-307,-333,-307v-196,0,-290,145,-329,307v-63,260,14,540,210,616r0,291r-348,0r0,-117r211,0r0,-114"},"\u00e6":{"d":"674,23v-115,0,-203,-86,-225,-193v-42,99,-108,189,-244,193v-156,4,-243,-123,-242,-277v2,-234,184,-329,426,-299v8,-143,-11,-287,-141,-287v-74,0,-135,71,-170,131r-86,-84v55,-84,134,-161,256,-161v114,0,187,51,213,147v34,-139,268,-198,375,-91v98,97,117,292,118,480r-428,0v0,111,13,191,39,240v26,49,65,74,117,74v77,0,118,-50,137,-123r117,37v-43,129,-107,213,-262,213xm807,-539v0,-109,-12,-185,-32,-232v-40,-92,-162,-90,-209,-3v-25,45,-40,123,-40,235r281,0xm100,-244v2,72,43,145,119,140v106,-7,170,-87,170,-197r0,-137v-159,-23,-293,36,-289,194"},"\u00f8":{"d":"467,23v-160,0,-279,-57,-361,-142r-149,119r0,-119r92,-74v-77,-124,-93,-317,-35,-467v67,-176,218,-294,453,-294v160,0,277,58,358,143r152,-121r0,119r-94,76v81,127,98,321,39,472v-68,173,-219,288,-455,288xm209,-201v60,62,140,110,258,107v226,-5,352,-142,352,-369v0,-71,-14,-134,-43,-190xm725,-731v-59,-61,-142,-108,-258,-107v-175,1,-279,96,-327,228v-36,101,-30,245,16,331"},"\u00bf":{"d":"559,-1305r186,0r0,187r-186,0r0,-187xm561,23v-206,0,-352,-115,-352,-306v0,-279,265,-331,361,-525v18,-36,28,-77,28,-124r145,0v-14,281,-256,356,-365,543v-19,33,-30,68,-30,106v0,122,82,189,211,189v171,0,248,-116,268,-264r123,18v-23,217,-150,363,-389,363"},"\u00a1":{"d":"561,0r51,-938r82,0r51,938r-184,0xm559,-1305r186,0r0,187r-186,0r0,-187"},"\u00ac":{"d":"932,-186r-113,0r0,-447r-819,0r0,-112r932,0r0,559"},"\u221a":{"d":"932,-1008r-285,0r-301,1008r-104,0r-219,-725r106,-33r166,594r270,-954r367,0r0,110"},"\u0192":{"d":"932,-1196v-117,-19,-271,-14,-332,54v-41,45,-65,113,-65,210r397,0r0,117r-397,0r0,831v0,253,-133,379,-398,379v-45,0,-90,-3,-133,-8r0,-115v45,6,78,7,133,7v176,-2,260,-79,260,-263r0,-831r-211,0r0,-117r211,0v1,-259,136,-392,400,-391v53,0,95,3,135,10r0,117"},"\u2248":{"d":"952,-905v-76,133,-180,200,-311,200v-135,0,-185,-74,-265,-123v-23,-15,-51,-22,-85,-22v-86,0,-156,46,-211,137r-100,-59v76,-131,180,-197,311,-197v135,0,187,75,267,125v23,15,50,23,83,23v86,0,156,-48,211,-144xm952,-530v-76,133,-180,200,-311,200v-135,0,-185,-73,-265,-122v-23,-15,-51,-23,-85,-23v-86,0,-156,46,-211,137r-100,-59v76,-131,180,-197,311,-197v135,0,187,75,267,125v23,15,50,23,83,23v86,0,156,-48,211,-144"},"\u2206":{"d":"995,0r-1054,0r434,-1305r186,0xm809,-117r-342,-1048r-342,1048r684,0"},"\u00ab":{"d":"788,-229r-77,79r-326,-327r326,-330r77,80r-245,250xm418,-229r-80,79r-324,-327r324,-330r80,80r-248,250"},"\u00bb":{"d":"920,-477r-328,327r-78,-77r248,-250r-248,-250r78,-78xm545,-477r-324,327r-80,-77r248,-250r-248,-250r80,-78"},"\u2026":{"d":"932,0r-187,0r0,-186r187,0r0,186xm559,0r-186,0r0,-186r186,0r0,186xm186,0r-186,0r0,-186r186,0r0,186"},"\u00a0":{},"\u00c0":{"d":"995,0r-147,0r-123,-373r-516,0r-121,373r-147,0r434,-1305r186,0xm686,-494r-219,-673r-219,673r438,0xm700,-1450r-41,65r-430,-243r66,-109"},"\u00c3":{"d":"995,0r-147,0r-123,-373r-516,0r-121,373r-147,0r434,-1305r186,0xm686,-494r-219,-673r-219,673r438,0xm846,-1600v-60,105,-142,158,-246,158v-105,0,-146,-63,-211,-99v-91,-51,-180,1,-231,93r-80,-47v61,-104,143,-156,246,-156v105,0,146,62,210,98v91,51,180,0,232,-94"},"\u00d5":{"d":"698,-1270v237,135,319,515,242,872v-51,238,-187,421,-473,421v-372,0,-500,-300,-500,-674v0,-286,86,-510,269,-619v122,-72,339,-70,462,0xm755,-274v107,-198,95,-611,-21,-786v-57,-86,-137,-150,-267,-150v-289,0,-363,269,-363,559v0,221,54,412,186,507v89,64,266,66,353,0v46,-35,84,-77,112,-130xm846,-1600v-60,105,-142,158,-246,158v-105,0,-146,-63,-211,-99v-91,-51,-180,1,-231,93r-80,-47v61,-104,143,-156,246,-156v105,0,146,62,210,98v91,51,180,0,232,-94"},"\u0152":{"d":"350,-135v97,-160,73,-494,67,-743v-3,-119,-22,-223,-67,-291v-35,-55,-117,-55,-152,0v-98,158,-78,495,-69,743v4,118,24,223,69,291v36,54,118,55,152,0xm449,-133v-38,93,-59,156,-175,156v-192,0,-288,-225,-288,-674v0,-451,96,-676,288,-676v116,0,137,63,175,156r0,-134r483,0r0,117r-373,0r0,467r283,0r0,117r-283,0r0,487r373,0r0,117r-483,0r0,-133"},"\u0153":{"d":"453,-760v26,-117,89,-194,217,-194v261,0,280,275,284,536r-428,0v0,111,13,191,39,240v26,49,65,74,117,74v78,0,112,-47,127,-127r127,41v-45,142,-130,213,-254,213v-119,0,-194,-67,-227,-201v-29,134,-100,201,-213,201v-186,0,-279,-163,-279,-488v0,-326,93,-489,279,-489v109,0,180,65,211,194xm807,-539v0,-101,-9,-176,-27,-226v-18,-50,-55,-75,-110,-75v-55,0,-92,26,-111,79v-19,53,-30,127,-33,222r281,0xm383,-465v0,-250,-47,-375,-141,-375v-95,0,-142,125,-142,375v0,251,47,377,142,377v94,0,141,-126,141,-377"},"\u2013":{"d":"0,-424r0,-108r932,0r0,108r-932,0"},"\u2014":{"d":"1026,-424r-1118,0r0,-108r1118,0r0,108"},"\u201c":{"d":"932,-745r-320,0v4,-122,-14,-253,20,-349v43,-122,137,-207,300,-209r0,117v-146,-2,-211,90,-203,254r203,0r0,187xm373,-745r-318,0v0,-177,-14,-359,79,-456v54,-57,129,-103,239,-102r0,117v-145,-2,-209,90,-201,254r201,0r0,187"},"\u201d":{"d":"0,-1305r319,0v-4,122,13,253,-20,349v-43,123,-136,206,-299,208r0,-116v146,2,211,-90,203,-254r-203,0r0,-187xm559,-1305r318,0v0,177,14,359,-79,456v-54,57,-129,102,-239,101r0,-116v145,2,209,-90,201,-254r-201,0r0,-187"},"\u2018":{"d":"745,-745r-319,0v4,-122,-14,-253,20,-349v43,-122,137,-206,299,-209r0,117v-145,-2,-210,90,-202,254r202,0r0,187"},"\u2019":{"d":"186,-1305r320,0v-4,122,14,253,-20,349v-43,122,-137,206,-300,208r0,-116v146,2,211,-90,203,-254r-203,0r0,-187"},"\u00f7":{"d":"559,-944r-186,0r0,-186r186,0r0,186xm559,-199r-186,0r0,-186r186,0r0,186xm932,-606r-932,0r0,-117r932,0r0,117"},"\u25ca":{"d":"950,-467r-485,483r-483,-483r483,-485xm819,-467r-354,-354r-354,354r354,354"},"\u00ff":{"d":"25,242v71,31,209,64,259,4v47,-57,69,-146,101,-219r-416,-959r162,0r336,815r330,-815r164,0r-504,1168v-52,175,-280,187,-459,124xm745,-1118r-186,0r0,-187r186,0r0,187xm373,-1118r-187,0r0,-187r187,0r0,187"},"\u0178":{"d":"952,-1188r-106,0r-311,625r0,446r210,0r0,117r-559,0r0,-117r211,0r0,-446r-311,-625r-106,0r0,-117r368,0r0,117r-108,0r227,492r225,-492r-108,0r0,-117r368,0r0,117xm745,-1489r-186,0r0,-187r186,0r0,187xm373,-1489r-187,0r0,-187r187,0r0,187"},"\u2044":{"d":"932,-1272r-836,1299r-94,-60r838,-1302"},"\u20ac":{"d":"567,-94v144,0,222,-145,252,-281r121,33v-34,125,-83,215,-144,276v-93,92,-267,118,-392,52v-144,-76,-211,-240,-240,-432r-164,0r0,-113r154,0v-3,-58,-3,-126,0,-186r-154,0r0,-113r166,0v29,-192,95,-356,238,-432v124,-66,300,-41,392,51v61,60,110,151,144,276r-121,31v-31,-137,-107,-278,-252,-278v-67,0,-123,29,-169,88v-46,59,-77,147,-95,264r256,0r0,113r-268,0v-3,58,-3,126,0,186r268,0r0,113r-256,0v17,119,49,207,95,265v46,58,102,87,169,87"},"\u2039":{"d":"604,-229r-78,79r-327,-327r327,-330r78,80r-248,250"},"\u203a":{"d":"733,-477r-325,327r-80,-77r247,-250r-247,-250r80,-78"},"\ufb01":{"d":"745,-1196v-116,-19,-270,-14,-331,54v-41,45,-66,113,-66,210r559,0r0,815r211,0r0,117r-1118,0r0,-117r211,0r0,-698r-211,0r0,-117r211,0v0,-259,136,-392,399,-391v53,0,96,3,135,10r0,117xm770,-117r0,-698r-422,0r0,698r422,0"},"\ufb02":{"d":"610,-1323v127,0,205,10,297,35r0,1171r211,0r0,117r-1118,0r0,-117r211,0r0,-698r-211,0r0,-117r211,0v0,-259,136,-392,399,-391xm770,-1192v-45,-8,-95,-15,-160,-14v-181,2,-262,86,-262,274r211,0r0,117r-211,0r0,698r422,0r0,-1075"},"\u2021":{"d":"745,-412r-237,-14r12,240r-110,0r14,-240r-238,14r0,-110r238,12r0,-473r-238,14r0,-112r238,14r-14,-238r110,0r-12,238r237,-14r0,112r-237,-14r0,473r237,-12r0,110"},"\u00b7":{"d":"559,-385r-186,0r0,-186r186,0r0,186"},"\u201a":{"d":"559,-186r-43,469r-102,0r-41,-469r186,0"},"\u201e":{"d":"745,-185r-40,465r-103,0r-43,-465r186,0xm373,-185r-43,465r-101,0r-43,-465r187,0"},"\u2030":{"d":"664,-1276r-568,1313r-102,-41r573,-1315xm178,-926v73,1,98,-73,98,-149v0,-77,-25,-150,-98,-150v-71,0,-98,74,-98,150v0,75,27,149,98,149xm180,-823v-137,0,-200,-118,-200,-252v0,-135,62,-252,200,-252v139,0,201,117,201,252v0,134,-63,252,-201,252xm492,-80v73,1,98,-73,98,-149v0,-77,-25,-150,-98,-150v-72,0,-99,74,-99,150v0,76,27,149,99,149xm494,23v-138,0,-201,-118,-201,-252v0,-135,62,-252,201,-252v138,0,200,117,200,252v0,134,-63,252,-200,252xm913,-80v74,1,99,-73,99,-149v0,-77,-25,-150,-99,-150v-71,0,-98,74,-98,150v0,75,27,149,98,149xm915,23v-137,0,-200,-118,-200,-252v0,-135,62,-252,200,-252v139,0,201,117,201,252v0,134,-63,252,-201,252"},"\u00c2":{"d":"995,0r-147,0r-123,-373r-516,0r-121,373r-147,0r434,-1305r186,0xm686,-494r-219,-673r-219,673r438,0xm764,-1452r-53,67r-242,-205r-246,207r-53,-65r297,-291"},"\u00ca":{"d":"883,0r-834,0r0,-1305r834,0r0,117r-697,0r0,467r514,0r0,117r-514,0r0,487r697,0r0,117xm764,-1452r-53,67r-242,-205r-246,207r-53,-65r297,-291"},"\u00c1":{"d":"995,0r-147,0r-123,-373r-516,0r-121,373r-147,0r434,-1305r186,0xm686,-494r-219,-673r-219,673r438,0xm711,-1626r-432,243r-37,-65r403,-287"},"\u00cb":{"d":"883,0r-834,0r0,-1305r834,0r0,117r-697,0r0,467r514,0r0,117r-514,0r0,487r697,0r0,117xm745,-1489r-186,0r0,-187r186,0r0,187xm373,-1489r-187,0r0,-187r187,0r0,187"},"\u00c8":{"d":"883,0r-834,0r0,-1305r834,0r0,117r-697,0r0,467r514,0r0,117r-514,0r0,487r697,0r0,117xm700,-1450r-41,65r-430,-243r66,-109"},"\u00cd":{"d":"745,0r-559,0r0,-117r211,0r0,-1071r-211,0r0,-117r559,0r0,117r-210,0r0,1071r210,0r0,117xm711,-1626r-432,243r-37,-65r403,-287"},"\u00ce":{"d":"745,0r-559,0r0,-117r211,0r0,-1071r-211,0r0,-117r559,0r0,117r-210,0r0,1071r210,0r0,117xm764,-1452r-53,67r-242,-205r-246,207r-53,-65r297,-291"},"\u00cf":{"d":"745,0r-559,0r0,-117r211,0r0,-1071r-211,0r0,-117r559,0r0,117r-210,0r0,1071r210,0r0,117xm745,-1489r-186,0r0,-187r186,0r0,187xm373,-1489r-187,0r0,-187r187,0r0,187"},"\u00cc":{"d":"745,0r-559,0r0,-117r211,0r0,-1071r-211,0r0,-117r559,0r0,117r-210,0r0,1071r210,0r0,117xm700,-1450r-41,65r-430,-243r66,-109"},"\u00d3":{"d":"698,-1270v237,135,319,515,242,872v-51,238,-187,421,-473,421v-372,0,-500,-300,-500,-674v0,-286,86,-510,269,-619v122,-72,339,-70,462,0xm755,-274v107,-198,95,-611,-21,-786v-57,-86,-137,-150,-267,-150v-289,0,-363,269,-363,559v0,221,54,412,186,507v89,64,266,66,353,0v46,-35,84,-77,112,-130xm711,-1626r-432,243r-37,-65r403,-287"},"\u00d4":{"d":"698,-1270v237,135,319,515,242,872v-51,238,-187,421,-473,421v-372,0,-500,-300,-500,-674v0,-286,86,-510,269,-619v122,-72,339,-70,462,0xm755,-274v107,-198,95,-611,-21,-786v-57,-86,-137,-150,-267,-150v-289,0,-363,269,-363,559v0,221,54,412,186,507v89,64,266,66,353,0v46,-35,84,-77,112,-130xm764,-1452r-53,67r-242,-205r-246,207r-53,-65r297,-291"},"\uf8ff":{"d":"819,-1343v4,188,-101,310,-264,325v1,-177,89,-286,264,-325xm944,-645v0,142,75,242,184,283v-40,116,-110,248,-201,319v-33,27,-69,41,-106,41v-90,-1,-144,-52,-235,-53v-88,-1,-136,55,-221,55v-119,0,-198,-120,-251,-216v-78,-141,-147,-350,-92,-549v40,-145,124,-264,302,-269v98,-3,161,47,254,47v96,0,157,-53,256,-53v98,0,183,44,256,133v-97,82,-146,169,-146,262"},"\u00d2":{"d":"698,-1270v237,135,319,515,242,872v-51,238,-187,421,-473,421v-372,0,-500,-300,-500,-674v0,-286,86,-510,269,-619v122,-72,339,-70,462,0xm755,-274v107,-198,95,-611,-21,-786v-57,-86,-137,-150,-267,-150v-289,0,-363,269,-363,559v0,221,54,412,186,507v89,64,266,66,353,0v46,-35,84,-77,112,-130xm700,-1450r-41,65r-430,-243r66,-109"},"\u00da":{"d":"465,-94v212,0,280,-163,280,-371r0,-840r138,0r0,840v-2,297,-123,488,-418,488v-297,0,-416,-193,-416,-490r0,-838r137,0r0,840v2,206,68,371,279,371xm711,-1626r-432,243r-37,-65r403,-287"},"\u00db":{"d":"465,-94v212,0,280,-163,280,-371r0,-840r138,0r0,840v-2,297,-123,488,-418,488v-297,0,-416,-193,-416,-490r0,-838r137,0r0,840v2,206,68,371,279,371xm764,-1452r-53,67r-242,-205r-246,207r-53,-65r297,-291"},"\u00d9":{"d":"465,-94v212,0,280,-163,280,-371r0,-840r138,0r0,840v-2,297,-123,488,-418,488v-297,0,-416,-193,-416,-490r0,-838r137,0r0,840v2,206,68,371,279,371xm700,-1450r-41,65r-430,-243r66,-109"},"\u0131":{"d":"745,0r-559,0r0,-117r211,0r0,-694r-211,0r0,-121r349,0r0,815r210,0r0,117"},"\u02c6":{"d":"764,-1081r-53,67r-242,-205r-246,207r-53,-65r297,-291"},"\u02dc":{"d":"846,-1229v-60,105,-142,158,-246,158v-105,0,-146,-63,-211,-99v-91,-51,-180,1,-231,93r-80,-47v61,-104,143,-156,246,-156v105,0,146,62,210,98v91,51,180,0,232,-94"},"\u00af":{"d":"745,-1106r-559,0r0,-113r559,0r0,113"},"\u02d8":{"d":"752,-1210v-147,155,-423,155,-570,0r78,-76v122,125,292,125,414,0"},"\u02d9":{"d":"559,-1118r-186,0r0,-187r186,0r0,187"},"\u02da":{"d":"555,-1050v-199,74,-367,-103,-296,-296v36,-99,167,-170,296,-120v99,38,171,169,119,297v-22,55,-64,98,-119,119xm467,-1393v-72,0,-135,64,-135,136v0,71,64,135,135,135v71,0,135,-64,135,-135v0,-72,-63,-136,-135,-136"},"\u00b8":{"d":"559,0v16,223,-111,370,-317,371r0,-117v149,2,212,-90,202,-254r115,0"},"\u02dd":{"d":"682,-1024r-141,0r141,-375r186,0xm309,-1024r-139,0r139,-375r187,0"},"\u02db":{"d":"831,121v-2,97,89,171,189,168r0,90v-154,3,-268,-83,-268,-227v-1,-90,44,-146,92,-191r37,39v-33,30,-50,70,-50,121"},"\u02c7":{"d":"764,-1296r-297,284r-297,-288r53,-68r246,207r242,-203"},"!":{"d":"557,-1305r-51,938r-82,0r-51,-938r184,0xm559,0r-186,0r0,-186r186,0r0,186"},"\"":{"d":"745,-1305r-40,465r-103,0r-43,-465r186,0xm373,-1305r-43,465r-101,0r-43,-465r187,0"},"\u00a4":{"d":"467,-1141v129,0,235,42,309,101r117,-117r80,78r-117,116v61,77,102,183,102,314v0,130,-41,235,-100,311r115,115r-80,78r-115,-113v-76,59,-181,96,-311,96v-132,0,-236,-41,-313,-100r-115,117r-78,-78r115,-117v-124,-145,-131,-470,2,-621r-117,-118r78,-78r117,119v85,-69,188,-103,311,-103xm117,-649v0,226,124,368,350,368v226,0,352,-141,352,-368v0,-175,-81,-291,-205,-347v-84,-38,-210,-38,-294,0v-124,56,-203,173,-203,347"},"\u00a6":{"d":"535,186r-138,0r0,-745r138,0r0,745xm535,-745r-138,0r0,-746r138,0r0,746"},"\u00ad":{"d":"932,-606r-932,0r0,-117r932,0r0,117"},"\u00b2":{"d":"244,-1317v110,0,206,68,205,166v-2,115,-99,167,-169,237r-79,78r147,0r0,-73r98,0r0,164r-405,0r0,-78r252,-240v31,-31,47,-61,47,-88v1,-49,-46,-72,-96,-72v-77,0,-115,46,-115,138r-102,0v0,-155,72,-232,217,-232"},"\u00b3":{"d":"227,-1315v112,0,196,61,197,164v0,51,-22,88,-66,111v51,35,76,79,76,131v0,98,-97,176,-207,176v-136,0,-212,-68,-229,-203r106,-14v10,82,51,123,123,123v49,0,102,-37,99,-82v-4,-76,-29,-73,-117,-76r0,-100v71,0,106,-22,106,-66v0,-49,-29,-74,-88,-74v-75,0,-112,41,-112,123r-105,0v-4,-133,90,-213,217,-213"},"\u00b9":{"d":"389,-745r-289,0r0,-91r90,0r0,-290v-27,67,-93,127,-190,125r0,-99v112,-11,184,-86,190,-205r109,0r0,469r90,0r0,91"},"\u00bc":{"d":"932,-1272r-836,1299r-94,-60r838,-1302xm389,-745r-289,0r0,-91r90,0r0,-290v-27,67,-93,127,-190,125r0,-99v112,-11,184,-86,190,-205r109,0r0,469r90,0r0,91xm932,0r-287,0r0,-90r92,0r0,-60r-250,0r0,-75r244,-334r111,0r0,317r90,0r0,92r-90,0r0,60r90,0r0,90xm737,-242r0,-159r-119,159r119,0"},"\u00bd":{"d":"932,-1272r-836,1299r-94,-60r838,-1302xm729,-571v110,0,206,68,205,165v-1,116,-98,167,-168,237r-80,79r148,0r0,-74r98,0r0,164r-406,0r0,-78r252,-239v31,-32,47,-62,47,-89v0,-48,-46,-72,-96,-71v-77,0,-115,46,-115,137r-102,0v0,-154,72,-231,217,-231xm389,-745r-289,0r0,-91r90,0r0,-290v-27,67,-93,127,-190,125r0,-99v112,-11,184,-86,190,-205r109,0r0,469r90,0r0,91"},"\u00be":{"d":"227,-1315v112,0,196,61,197,164v0,51,-22,88,-66,111v51,35,76,79,76,131v0,98,-97,176,-207,176v-136,0,-212,-68,-229,-203r106,-14v10,82,51,123,123,123v49,0,102,-37,99,-82v-4,-76,-29,-73,-117,-76r0,-100v71,0,106,-22,106,-66v0,-49,-29,-74,-88,-74v-75,0,-112,41,-112,123r-105,0v-4,-133,90,-213,217,-213xm932,-1272r-836,1299r-94,-60r838,-1302xm932,0r-287,0r0,-90r92,0r0,-60r-250,0r0,-75r244,-334r111,0r0,317r90,0r0,92r-90,0r0,60r90,0r0,90xm737,-242r0,-159r-119,159r119,0"},"\u00d0":{"d":"862,-1108v150,209,146,706,-8,916v-80,109,-199,192,-381,192r-424,0r0,-606r-166,0r0,-117r166,0r0,-582r424,0v189,-1,308,84,389,197xm742,-257v125,-168,125,-623,0,-791v-68,-91,-154,-140,-269,-140r-287,0r0,465r254,0r0,117r-254,0r0,489r287,0v115,0,201,-49,269,-140"},"\u00d7":{"d":"836,-954r-291,290r291,291r-80,78r-289,-291r-291,291r-78,-78r289,-291r-289,-290r78,-78r291,291r289,-291"},"\u00dd":{"d":"952,-1188r-106,0r-311,625r0,446r210,0r0,117r-559,0r0,-117r211,0r0,-446r-311,-625r-106,0r0,-117r368,0r0,117r-108,0r227,492r225,-492r-108,0r0,-117r368,0r0,117xm711,-1626r-432,243r-37,-65r403,-287"},"\u00de":{"d":"930,-664v0,249,-167,373,-500,373r-244,0r0,291r-137,0r0,-1305r137,0r0,269r244,0v333,0,500,124,500,372xm430,-406v214,0,361,-67,361,-258v0,-169,-120,-254,-361,-254r-244,0r0,512r244,0"},"\u00f0":{"d":"430,23v-260,1,-453,-123,-450,-377v2,-164,103,-258,218,-328v140,-85,331,-138,529,-170v-55,-96,-141,-165,-233,-227r-183,182r-78,-80r160,-160v-55,-30,-111,-51,-174,-73r45,-117v78,30,151,63,219,98r144,-143r78,80r-121,123v200,131,366,308,366,632v0,267,-112,442,-303,521v-64,26,-136,39,-217,39xm117,-354v1,165,135,263,313,260v295,-5,413,-240,375,-548v-4,-34,-14,-66,-25,-97v-254,30,-489,97,-614,247v-34,41,-49,87,-49,138"},"\u00fd":{"d":"25,242v71,31,209,64,259,4v47,-57,69,-146,101,-219r-416,-959r162,0r336,815r330,-815r164,0r-504,1168v-52,175,-280,187,-459,124xm711,-1255r-432,243r-37,-65r403,-287"},"\u00fe":{"d":"900,-668v45,115,46,285,1,401v-65,174,-205,292,-440,292v-100,0,-192,-33,-275,-99r0,447r-137,0r0,-1678r137,0r0,449v171,-155,489,-109,618,34v39,44,73,94,96,154xm461,-86v227,0,334,-154,334,-379v0,-227,-109,-377,-334,-377v-104,0,-196,42,-275,127r0,500v79,86,171,129,275,129"},"\u0100":{"d":"995,0r-147,0r-123,-373r-516,0r-121,373r-147,0r434,-1305r186,0xm686,-494r-219,-673r-219,673r438,0xm745,-1477r-559,0r0,-113r559,0r0,113"},"\u0101":{"d":"375,23v-221,5,-375,-76,-375,-275v0,-324,430,-326,747,-291v1,-72,0,-136,-29,-179v-48,-71,-136,-114,-243,-116v-148,-3,-260,45,-356,103r-62,-103v109,-65,247,-120,418,-116v234,5,410,104,410,344r0,610r-138,0r0,-156v-82,100,-203,175,-372,179xm168,-341v-96,122,38,256,207,247v163,-9,279,-73,345,-170v34,-51,26,-94,27,-166v-211,-23,-483,-34,-579,89xm745,-1105r-559,0r0,-113r559,0r0,113"},"\u0102":{"d":"995,0r-147,0r-123,-373r-516,0r-121,373r-147,0r434,-1305r186,0xm686,-494r-219,-673r-219,673r438,0xm752,-1581v-147,155,-423,155,-570,0r78,-76v122,125,292,125,414,0"},"\u0103":{"d":"375,23v-221,5,-375,-76,-375,-275v0,-324,430,-326,747,-291v1,-72,0,-136,-29,-179v-48,-71,-136,-114,-243,-116v-148,-3,-260,45,-356,103r-62,-103v109,-65,247,-120,418,-116v234,5,410,104,410,344r0,610r-138,0r0,-156v-82,100,-203,175,-372,179xm168,-341v-96,122,38,256,207,247v163,-9,279,-73,345,-170v34,-51,26,-94,27,-166v-211,-23,-483,-34,-579,89xm752,-1209v-147,155,-423,155,-570,0r78,-76v122,125,292,125,414,0"},"\u0104":{"d":"946,121v-2,97,89,171,189,168r0,90v-154,3,-269,-83,-269,-227v-1,-66,25,-114,54,-152r-72,0r-123,-373r-516,0r-121,373r-147,0r434,-1305r186,0r434,1305v-33,30,-49,70,-49,121xm686,-494r-219,-673r-219,673r438,0"},"\u0105":{"d":"473,-954v234,5,410,104,410,344r0,610v-27,27,-52,70,-52,121v-2,97,89,171,189,168r0,90v-154,3,-268,-83,-268,-227v0,-66,24,-114,53,-152r-60,0r0,-156v-82,100,-203,175,-372,179v-221,5,-375,-76,-375,-275v0,-324,430,-326,747,-291v1,-72,0,-136,-29,-179v-48,-71,-136,-114,-243,-116v-148,-3,-260,45,-356,103r-62,-103v109,-65,247,-120,418,-116xm166,-341v-96,122,38,256,207,247v163,-9,279,-73,345,-170v34,-51,26,-94,27,-166v-211,-23,-483,-34,-579,89"},"\u0106":{"d":"481,-1327v164,0,282,59,334,174r0,-152r117,0r0,428r-117,0v-5,-156,-90,-258,-205,-307v-97,-42,-228,-29,-304,24v-171,121,-220,428,-172,706v23,133,80,244,172,310v46,34,104,50,175,50v163,0,276,-98,340,-295r119,47v-62,205,-206,364,-459,365v-191,1,-308,-90,-387,-206v-151,-223,-150,-714,0,-937v79,-118,196,-208,387,-207xm711,-1626r-432,243r-37,-65r403,-287"},"\u0107":{"d":"492,-94v141,1,255,-63,309,-150r96,66v-76,118,-213,203,-405,201v-235,-2,-385,-119,-456,-290v-48,-115,-47,-277,-3,-395v65,-175,208,-292,440,-292v139,0,246,59,293,157r0,-135r123,0r0,373r-123,0v-8,-176,-117,-279,-293,-279v-225,0,-336,148,-336,373v0,175,83,287,207,342v44,19,93,29,148,29xm711,-1254r-432,243r-37,-65r403,-287"},"\u0108":{"d":"481,-1327v164,0,282,59,334,174r0,-152r117,0r0,428r-117,0v-5,-156,-90,-258,-205,-307v-97,-42,-228,-29,-304,24v-171,121,-220,428,-172,706v23,133,80,244,172,310v46,34,104,50,175,50v163,0,276,-98,340,-295r119,47v-62,205,-206,364,-459,365v-191,1,-308,-90,-387,-206v-151,-223,-150,-714,0,-937v79,-118,196,-208,387,-207xm764,-1452r-53,67r-242,-205r-246,207r-53,-65r297,-291"},"\u0109":{"d":"492,-94v141,1,255,-63,309,-150r96,66v-76,118,-213,203,-405,201v-235,-2,-385,-119,-456,-290v-48,-115,-47,-277,-3,-395v65,-175,208,-292,440,-292v139,0,246,59,293,157r0,-135r123,0r0,373r-123,0v-8,-176,-117,-279,-293,-279v-225,0,-336,148,-336,373v0,175,83,287,207,342v44,19,93,29,148,29xm764,-1080r-53,67r-242,-205r-246,207r-53,-65r297,-291"},"\u010a":{"d":"481,-1327v164,0,282,59,334,174r0,-152r117,0r0,428r-117,0v-5,-156,-90,-258,-205,-307v-97,-42,-228,-29,-304,24v-171,121,-220,428,-172,706v23,133,80,244,172,310v46,34,104,50,175,50v163,0,276,-98,340,-295r119,47v-62,205,-206,364,-459,365v-191,1,-308,-90,-387,-206v-151,-223,-150,-714,0,-937v79,-118,196,-208,387,-207xm559,-1489r-186,0r0,-187r186,0r0,187"},"\u010b":{"d":"492,-94v141,1,255,-63,309,-150r96,66v-76,118,-213,203,-405,201v-235,-2,-385,-119,-456,-290v-48,-115,-47,-277,-3,-395v65,-175,208,-292,440,-292v139,0,246,59,293,157r0,-135r123,0r0,373r-123,0v-8,-176,-117,-279,-293,-279v-225,0,-336,148,-336,373v0,175,83,287,207,342v44,19,93,29,148,29xm559,-1118r-186,0r0,-187r186,0r0,187"},"\u010c":{"d":"481,-1327v164,0,282,59,334,174r0,-152r117,0r0,428r-117,0v-5,-156,-90,-258,-205,-307v-97,-42,-228,-29,-304,24v-171,121,-220,428,-172,706v23,133,80,244,172,310v46,34,104,50,175,50v163,0,276,-98,340,-295r119,47v-62,205,-206,364,-459,365v-191,1,-308,-90,-387,-206v-151,-223,-150,-714,0,-937v79,-118,196,-208,387,-207xm764,-1667r-297,284r-297,-288r53,-68r246,207r242,-203"},"\u010d":{"d":"492,-94v141,1,255,-63,309,-150r96,66v-76,118,-213,203,-405,201v-235,-2,-385,-119,-456,-290v-48,-115,-47,-277,-3,-395v65,-175,208,-292,440,-292v139,0,246,59,293,157r0,-135r123,0r0,373r-123,0v-8,-176,-117,-279,-293,-279v-225,0,-336,148,-336,373v0,175,83,287,207,342v44,19,93,29,148,29xm764,-1295r-297,284r-297,-288r53,-68r246,207r242,-203"},"\u010e":{"d":"858,-1108v149,205,156,700,2,914v-80,112,-200,195,-387,194r-424,0r0,-1305r424,0v185,-1,305,86,385,197xm473,-117v261,-7,365,-237,365,-534v0,-171,-32,-303,-96,-397v-64,-94,-154,-140,-269,-140r-287,0r0,1071r287,0xm764,-1671r-297,284r-297,-288r53,-68r246,207r242,-203"},"\u010f":{"d":"385,-954v96,0,172,46,223,106r0,-340r-186,0r0,-117r323,0r0,1305r-137,0r0,-86v-52,60,-127,109,-223,109v-270,0,-385,-212,-385,-488v0,-217,79,-379,224,-453v48,-24,101,-36,161,-36xm608,-715v-52,-72,-112,-123,-215,-123v-234,0,-295,287,-241,520v28,121,98,226,241,226v82,0,154,-42,215,-125r0,-498xm1065,-1304r-84,465r-101,0r0,-465r185,0"},"\u0110":{"d":"862,-1108v150,209,146,706,-8,916v-80,109,-199,192,-381,192r-424,0r0,-606r-166,0r0,-117r166,0r0,-582r424,0v189,-1,308,84,389,197xm742,-257v125,-168,125,-623,0,-791v-68,-91,-154,-140,-269,-140r-287,0r0,465r254,0r0,117r-254,0r0,489r287,0v115,0,201,-49,269,-140"},"\u0111":{"d":"471,-954v115,0,207,44,274,106r0,-153r-186,0r0,-117r186,0r0,-187r138,0r0,187r186,0r0,117r-186,0r0,1001r-138,0r0,-86v-68,62,-158,109,-274,109v-234,0,-376,-116,-441,-291v-43,-117,-43,-276,0,-394v65,-176,206,-292,441,-292xm745,-715v-68,-75,-151,-123,-276,-123v-223,0,-334,149,-334,373v0,224,111,373,334,373v105,0,197,-42,276,-125r0,-498"},"\u0112":{"d":"883,0r-834,0r0,-1305r834,0r0,117r-697,0r0,467r514,0r0,117r-514,0r0,487r697,0r0,117xm745,-1477r-559,0r0,-113r559,0r0,113"},"\u0113":{"d":"893,-178v-90,123,-203,201,-406,201v-234,0,-384,-120,-455,-290v-48,-114,-48,-275,-4,-393v65,-174,208,-294,441,-294v323,0,469,209,473,536r-805,0v17,189,147,324,350,324v138,0,257,-67,310,-150xm797,-535v-19,-224,-220,-360,-450,-281v-115,39,-189,143,-208,281r658,0xm745,-1105r-559,0r0,-113r559,0r0,113"},"\u0114":{"d":"883,0r-834,0r0,-1305r834,0r0,117r-697,0r0,467r514,0r0,117r-514,0r0,487r697,0r0,117xm752,-1581v-147,155,-423,155,-570,0r78,-76v122,125,292,125,414,0"},"\u0115":{"d":"893,-178v-90,123,-203,201,-406,201v-234,0,-384,-120,-455,-290v-48,-114,-48,-275,-4,-393v65,-174,208,-294,441,-294v323,0,469,209,473,536r-805,0v17,189,147,324,350,324v138,0,257,-67,310,-150xm797,-535v-19,-224,-220,-360,-450,-281v-115,39,-189,143,-208,281r658,0xm752,-1209v-147,155,-423,155,-570,0r78,-76v122,125,292,125,414,0"},"\u0116":{"d":"883,0r-834,0r0,-1305r834,0r0,117r-697,0r0,467r514,0r0,117r-514,0r0,487r697,0r0,117xm559,-1489r-186,0r0,-187r186,0r0,187"},"\u0117":{"d":"893,-178v-90,123,-203,201,-406,201v-234,0,-384,-120,-455,-290v-48,-114,-48,-275,-4,-393v65,-174,208,-294,441,-294v323,0,469,209,473,536r-805,0v17,189,147,324,350,324v138,0,257,-67,310,-150xm797,-535v-19,-224,-220,-360,-450,-281v-115,39,-189,143,-208,281r658,0xm559,-1118r-186,0r0,-187r186,0r0,187"},"\u0118":{"d":"836,121v-2,97,88,171,188,168r0,90v-154,3,-268,-83,-268,-227v0,-66,24,-114,53,-152r-760,0r0,-1305r834,0r0,117r-697,0r0,467r514,0r0,117r-514,0r0,487r697,0v2,38,-4,83,2,117v-33,30,-49,70,-49,121"},"\u0119":{"d":"487,-94v138,0,257,-67,310,-150r96,66v-63,87,-141,146,-234,176v-27,26,-47,73,-47,123v-2,97,89,171,189,168r0,90v-180,7,-309,-123,-257,-301v7,-22,17,-43,29,-62v-270,35,-462,-90,-541,-283v-47,-114,-48,-275,-4,-393v65,-174,208,-294,441,-294v323,0,469,209,473,536r-805,0v17,189,147,324,350,324xm797,-535v-19,-224,-220,-360,-450,-281v-115,39,-189,143,-208,281r658,0"},"\u011a":{"d":"883,0r-834,0r0,-1305r834,0r0,117r-697,0r0,467r514,0r0,117r-514,0r0,487r697,0r0,117xm764,-1667r-297,284r-297,-288r53,-68r246,207r242,-203"},"\u011b":{"d":"893,-178v-90,123,-203,201,-406,201v-234,0,-384,-120,-455,-290v-48,-114,-48,-275,-4,-393v65,-174,208,-294,441,-294v323,0,469,209,473,536r-805,0v17,189,147,324,350,324v138,0,257,-67,310,-150xm797,-535v-19,-224,-220,-360,-450,-281v-115,39,-189,143,-208,281r658,0xm764,-1295r-297,284r-297,-288r53,-68r246,207r242,-203"},"\u011c":{"d":"481,-1327v164,0,282,59,334,174r0,-152r117,0r0,428r-117,0v-4,-158,-89,-258,-205,-307v-97,-42,-228,-29,-304,24v-171,121,-220,428,-172,706v23,133,80,244,172,310v46,34,104,50,175,50v242,0,338,-210,357,-465r-289,0r0,-117r434,0v3,299,-80,532,-271,644v-122,72,-342,70,-463,-2v-183,-109,-269,-331,-269,-617v0,-285,85,-512,269,-619v64,-37,141,-57,232,-57xm764,-1452r-53,67r-242,-205r-246,207r-53,-65r297,-291"},"\u011d":{"d":"467,-954v117,2,210,44,278,106r0,-84r138,0r0,922v-2,205,-110,324,-265,378v-127,44,-311,33,-416,-25v-64,-36,-122,-85,-169,-150r96,-74v55,84,170,153,309,153v184,0,309,-96,307,-278r0,-100v-81,72,-174,108,-278,108v-288,0,-472,-180,-469,-467v3,-230,107,-382,273,-453v58,-24,123,-36,196,-36xm467,-115v125,-3,211,-49,278,-125r0,-475v-67,-76,-153,-123,-278,-123v-223,0,-332,151,-332,373v0,213,113,353,332,350xm764,-1080r-53,67r-242,-205r-246,207r-53,-65r297,-291"},"\u011e":{"d":"481,-1327v164,0,282,59,334,174r0,-152r117,0r0,428r-117,0v-4,-158,-89,-258,-205,-307v-97,-42,-228,-29,-304,24v-171,121,-220,428,-172,706v23,133,80,244,172,310v46,34,104,50,175,50v242,0,338,-210,357,-465r-289,0r0,-117r434,0v3,299,-80,532,-271,644v-122,72,-342,70,-463,-2v-183,-109,-269,-331,-269,-617v0,-285,85,-512,269,-619v64,-37,141,-57,232,-57xm752,-1581v-147,155,-423,155,-570,0r78,-76v122,125,292,125,414,0"},"\u011f":{"d":"467,-954v117,2,210,44,278,106r0,-84r138,0r0,922v-2,205,-110,324,-265,378v-127,44,-311,33,-416,-25v-64,-36,-122,-85,-169,-150r96,-74v55,84,170,153,309,153v184,0,309,-96,307,-278r0,-100v-81,72,-174,108,-278,108v-288,0,-472,-180,-469,-467v3,-230,107,-382,273,-453v58,-24,123,-36,196,-36xm467,-115v125,-3,211,-49,278,-125r0,-475v-67,-76,-153,-123,-278,-123v-223,0,-332,151,-332,373v0,213,113,353,332,350xm752,-1209v-147,155,-423,155,-570,0r78,-76v122,125,292,125,414,0"},"\u0120":{"d":"481,-1327v164,0,282,59,334,174r0,-152r117,0r0,428r-117,0v-4,-158,-89,-258,-205,-307v-97,-42,-228,-29,-304,24v-171,121,-220,428,-172,706v23,133,80,244,172,310v46,34,104,50,175,50v242,0,338,-210,357,-465r-289,0r0,-117r434,0v3,299,-80,532,-271,644v-122,72,-342,70,-463,-2v-183,-109,-269,-331,-269,-617v0,-285,85,-512,269,-619v64,-37,141,-57,232,-57xm559,-1489r-186,0r0,-187r186,0r0,187"},"\u0121":{"d":"467,-954v117,2,210,44,278,106r0,-84r138,0r0,922v-2,205,-110,324,-265,378v-127,44,-311,33,-416,-25v-64,-36,-122,-85,-169,-150r96,-74v55,84,170,153,309,153v184,0,309,-96,307,-278r0,-100v-81,72,-174,108,-278,108v-288,0,-472,-180,-469,-467v3,-230,107,-382,273,-453v58,-24,123,-36,196,-36xm467,-115v125,-3,211,-49,278,-125r0,-475v-67,-76,-153,-123,-278,-123v-223,0,-332,151,-332,373v0,213,113,353,332,350xm559,-1118r-186,0r0,-187r186,0r0,187"},"\u0122":{"d":"610,104r-172,269r-127,0r84,-269r215,0xm481,-1327v164,0,282,59,334,174r0,-152r117,0r0,428r-117,0v-4,-158,-89,-258,-205,-307v-97,-42,-228,-29,-304,24v-171,121,-220,428,-172,706v23,133,80,244,172,310v46,34,104,50,175,50v242,0,338,-210,357,-465r-289,0r0,-117r434,0v3,299,-80,532,-271,644v-122,72,-342,70,-463,-2v-183,-109,-269,-331,-269,-617v0,-285,85,-512,269,-619v64,-37,141,-57,232,-57"},"\u0123":{"d":"283,-1118r274,-373r96,0r-186,373r-184,0xm467,-954v117,2,210,44,278,106r0,-84r138,0r0,922v-2,205,-110,324,-265,378v-127,44,-311,33,-416,-25v-64,-36,-122,-85,-169,-150r96,-74v55,84,170,153,309,153v184,0,309,-96,307,-278r0,-100v-81,72,-174,108,-278,108v-288,0,-472,-180,-469,-467v3,-230,107,-382,273,-453v58,-24,123,-36,196,-36xm467,-115v125,-3,211,-49,278,-125r0,-475v-67,-76,-153,-123,-278,-123v-223,0,-332,151,-332,373v0,213,113,353,332,350"},"\u0124":{"d":"883,0r-138,0r0,-604r-559,0r0,604r-137,0r0,-1305r137,0r0,584r559,0r0,-584r138,0r0,1305xm764,-1452r-53,67r-242,-205r-246,207r-53,-65r297,-291"},"\u0125":{"d":"745,-575v-1,-164,-65,-266,-229,-263v-173,4,-264,123,-308,262v-16,50,-22,103,-22,158r0,418r-137,0r0,-1305r137,0r0,607v66,-171,184,-256,353,-256v229,0,344,126,344,379r0,575r-138,0r0,-575xm764,-1454r-53,67r-242,-205r-246,207r-53,-65r297,-291"},"\u0126":{"d":"883,-1096r188,0r0,113r-188,0r0,983r-138,0r0,-604r-559,0r0,604r-137,0r0,-983r-186,0r0,-113r186,0r0,-209r137,0r0,209r559,0r0,-209r138,0r0,209xm745,-721r0,-262r-559,0r0,262r559,0"},"\u0127":{"d":"745,-575v-1,-164,-65,-266,-229,-263v-173,4,-264,123,-308,262v-16,50,-22,103,-22,158r0,418r-137,0r0,-1006r-186,0r0,-112r186,0r0,-187r137,0r0,187r187,0r0,112r-187,0r0,308v66,-171,184,-256,353,-256v229,0,344,126,344,379r0,575r-138,0r0,-575"},"\u0128":{"d":"745,0r-559,0r0,-117r211,0r0,-1071r-211,0r0,-117r559,0r0,117r-210,0r0,1071r210,0r0,117xm846,-1600v-60,105,-142,158,-246,158v-105,0,-146,-63,-211,-99v-91,-51,-180,1,-231,93r-80,-47v61,-104,143,-156,246,-156v105,0,146,62,210,98v91,51,180,0,232,-94"},"\u0129":{"d":"745,0r-559,0r0,-117r211,0r0,-694r-211,0r0,-121r349,0r0,815r210,0r0,117xm846,-1228v-60,105,-142,158,-246,158v-105,0,-146,-63,-211,-99v-91,-51,-180,1,-231,93r-80,-47v61,-104,143,-156,246,-156v105,0,146,62,210,98v91,51,180,0,232,-94"},"\u012a":{"d":"745,0r-559,0r0,-117r211,0r0,-1071r-211,0r0,-117r559,0r0,117r-210,0r0,1071r210,0r0,117xm745,-1477r-559,0r0,-113r559,0r0,113"},"\u012b":{"d":"745,0r-559,0r0,-117r211,0r0,-694r-211,0r0,-121r349,0r0,815r210,0r0,117xm745,-1105r-559,0r0,-113r559,0r0,113"},"\u012c":{"d":"745,0r-559,0r0,-117r211,0r0,-1071r-211,0r0,-117r559,0r0,117r-210,0r0,1071r210,0r0,117xm752,-1581v-147,155,-423,155,-570,0r78,-76v122,125,292,125,414,0"},"\u012d":{"d":"745,0r-559,0r0,-117r211,0r0,-694r-211,0r0,-121r349,0r0,815r210,0r0,117xm752,-1209v-147,155,-423,155,-570,0r78,-76v122,125,292,125,414,0"},"\u012e":{"d":"696,121v-2,97,89,171,189,168r0,90v-154,3,-269,-83,-269,-227v-1,-66,25,-114,54,-152r-484,0r0,-117r211,0r0,-1071r-211,0r0,-117r559,0r0,117r-210,0r0,1071r210,0r0,117v-33,30,-49,70,-49,121"},"\u012f":{"d":"696,121v-2,97,89,171,189,168r0,90v-154,3,-269,-83,-269,-227v-1,-66,25,-114,54,-152r-484,0r0,-117r211,0r0,-698r-211,0r0,-117r349,0r0,815r210,0r0,117v-33,30,-49,70,-49,121xm559,-1118r-186,0r0,-187r186,0r0,187"},"\u0130":{"d":"745,0r-559,0r0,-117r211,0r0,-1071r-211,0r0,-117r559,0r0,117r-210,0r0,1071r210,0r0,117xm559,-1489r-186,0r0,-187r186,0r0,187"},"\u0132":{"d":"932,-125v0,314,-125,520,-428,520v-141,0,-252,-43,-334,-129r86,-96v57,68,136,109,248,109v228,0,291,-180,291,-404r0,-1180r137,0r0,1180xm559,0r-559,0r0,-117r211,0r0,-1071r-211,0r0,-117r559,0r0,117r-210,0r0,1071r210,0r0,117"},"\u0133":{"d":"373,-1118r-187,0r0,-187r187,0r0,187xm559,0r-559,0r0,-117r211,0r0,-698r-211,0r0,-117r348,0r0,815r211,0r0,117xm932,-1118r-187,0r0,-187r187,0r0,187xm907,0v0,239,-129,395,-372,395v-164,0,-279,-67,-345,-202r105,-72v46,92,113,157,240,158v174,1,235,-103,235,-279r0,-815r-211,0r0,-117r348,0r0,932"},"\u0134":{"d":"455,-94v228,0,290,-179,290,-404r0,-807r138,0r0,807v0,314,-125,521,-428,521v-255,0,-402,-144,-457,-365r119,-45v49,187,136,293,338,293xm764,-1452r-53,67r-242,-205r-246,207r-53,-65r297,-291"},"\u0135":{"d":"721,0v0,239,-130,395,-373,395v-164,0,-279,-67,-344,-202r105,-72v44,92,112,157,239,158v176,2,236,-104,236,-279r0,-815r-211,0r0,-117r348,0r0,932xm856,-1081r-53,67r-242,-205r-246,207r-53,-65r297,-291"},"\u0136":{"d":"610,104r-172,269r-127,0r84,-269r215,0xm926,0r-168,0r-434,-639r-138,154r0,485r-137,0r0,-1305r137,0r0,635r559,-635r181,0r-512,570"},"\u0137":{"d":"610,104r-172,269r-127,0r84,-269r215,0xm930,0r-195,0r-381,-418r-168,154r0,264r-137,0r0,-1305r137,0r0,875r531,-502r196,0r-467,428"},"\u0138":{"d":"930,0r-195,0r-381,-418r-168,154r0,264r-137,0r0,-932r137,0r0,502r531,-502r196,0r-467,428"},"\u0139":{"d":"883,0r-834,0r0,-1305r137,0r0,1188r697,0r0,117xm711,-1626r-432,243r-37,-65r403,-287"},"\u013a":{"d":"745,0r-559,0r0,-117r211,0r0,-1071r-211,0r0,-117r349,0r0,1188r210,0r0,117xm711,-1628r-432,243r-37,-65r403,-287"},"\u013b":{"d":"610,104r-172,269r-127,0r84,-269r215,0xm883,0r-834,0r0,-1305r137,0r0,1188r697,0r0,117"},"\u013c":{"d":"610,104r-172,269r-127,0r84,-269r215,0xm745,0r-559,0r0,-117r211,0r0,-1071r-211,0r0,-117r349,0r0,1188r210,0r0,117"},"\u013d":{"d":"883,0r-834,0r0,-1305r137,0r0,1188r697,0r0,117xm795,-1305r-84,465r-101,0r0,-465r185,0"},"\u013e":{"d":"745,0r-559,0r0,-117r211,0r0,-1071r-211,0r0,-117r349,0r0,1188r210,0r0,117xm930,-1305r-84,465r-101,0r0,-465r185,0"},"\u013f":{"d":"883,0r-834,0r0,-1305r137,0r0,1188r697,0r0,117xm745,-571r-186,0r0,-186r186,0r0,186"},"\u0140":{"d":"745,0r-559,0r0,-117r211,0r0,-1071r-211,0r0,-117r349,0r0,1188r210,0r0,117xm1118,-385r-186,0r0,-186r186,0r0,186"},"\u0141":{"d":"883,0r-834,0r0,-563r-211,69r0,-127r211,-69r0,-615r137,0r0,568r211,-70r0,127r-211,70r0,491r697,0r0,119"},"\u0142":{"d":"397,-690r0,-496r-211,0r0,-119r349,0r0,568r210,-70r0,127r-210,70r0,491r210,0r0,119r-559,0r0,-119r211,0r0,-444r-211,69r0,-127"},"\u0143":{"d":"883,0r-170,0r-527,-1104r0,1104r-137,0r0,-1305r193,0r503,1053r0,-1053r138,0r0,1305xm711,-1626r-432,243r-37,-65r403,-287"},"\u0144":{"d":"745,-575v-1,-164,-65,-266,-229,-263v-173,4,-264,123,-308,262v-16,50,-22,103,-22,158r0,418r-137,0r0,-932r137,0r0,234v66,-171,184,-256,353,-256v229,0,344,126,344,379r0,575r-138,0r0,-575xm711,-1254r-432,243r-37,-65r403,-287"},"\u0145":{"d":"610,104r-172,269r-127,0r84,-269r215,0xm883,0r-170,0r-527,-1104r0,1104r-137,0r0,-1305r193,0r503,1053r0,-1053r138,0r0,1305"},"\u0146":{"d":"610,104r-172,269r-127,0r84,-269r215,0xm745,-575v-1,-164,-65,-266,-229,-263v-173,4,-264,123,-308,262v-16,50,-22,103,-22,158r0,418r-137,0r0,-932r137,0r0,234v66,-171,184,-256,353,-256v229,0,344,126,344,379r0,575r-138,0r0,-575"},"\u0147":{"d":"883,0r-170,0r-527,-1104r0,1104r-137,0r0,-1305r193,0r503,1053r0,-1053r138,0r0,1305xm764,-1667r-297,284r-297,-288r53,-68r246,207r242,-203"},"\u0148":{"d":"745,-575v-1,-164,-65,-266,-229,-263v-173,4,-264,123,-308,262v-16,50,-22,103,-22,158r0,418r-137,0r0,-932r137,0r0,234v66,-171,184,-256,353,-256v229,0,344,126,344,379r0,575r-138,0r0,-575xm764,-1295r-297,284r-297,-288r53,-68r246,207r242,-203"},"\u0149":{"d":"745,-575v-1,-164,-65,-266,-229,-263v-173,4,-264,123,-308,262v-16,50,-22,103,-22,158r0,418r-137,0r0,-932r137,0r0,234v66,-171,184,-256,353,-256v229,0,344,126,344,379r0,575r-138,0r0,-575xm186,-1583r-84,465r-101,0r0,-465r185,0"},"\u014a":{"d":"207,170v78,118,334,149,440,37v41,-43,70,-102,84,-170r-545,-1141r0,1104r-137,0r0,-1305r193,0r503,1053r0,-1053r138,0r0,1180v0,314,-125,520,-428,520v-141,0,-252,-43,-334,-129"},"\u014b":{"d":"883,0v0,239,-130,398,-373,395v-60,0,-113,-9,-158,-26r35,-119v30,17,79,29,123,29v176,2,235,-103,235,-279r0,-575v-1,-164,-65,-266,-229,-263v-173,4,-264,123,-308,262v-16,50,-22,103,-22,158r0,418r-137,0r0,-932r137,0r0,234v66,-171,184,-256,353,-256v229,0,344,126,344,379r0,575"},"\u014c":{"d":"698,-1270v237,135,319,515,242,872v-51,238,-187,421,-473,421v-372,0,-500,-300,-500,-674v0,-286,86,-510,269,-619v122,-72,339,-70,462,0xm755,-274v107,-198,95,-611,-21,-786v-57,-86,-137,-150,-267,-150v-289,0,-363,269,-363,559v0,221,54,412,186,507v89,64,266,66,353,0v46,-35,84,-77,112,-130xm745,-1477r-559,0r0,-113r559,0r0,113"},"\u014d":{"d":"922,-660v46,118,46,279,0,395v-70,173,-219,288,-455,288v-233,0,-384,-116,-453,-288v-46,-116,-46,-277,0,-395v68,-175,218,-294,453,-294v237,0,386,119,455,294xm726,-199v81,-77,122,-265,70,-411v-47,-132,-154,-228,-329,-228v-175,0,-279,96,-327,228v-51,145,-5,330,69,411v80,87,266,137,405,77v44,-19,80,-46,112,-77xm745,-1105r-559,0r0,-113r559,0r0,113"},"\u014e":{"d":"698,-1270v237,135,319,515,242,872v-51,238,-187,421,-473,421v-372,0,-500,-300,-500,-674v0,-286,86,-510,269,-619v122,-72,339,-70,462,0xm755,-274v107,-198,95,-611,-21,-786v-57,-86,-137,-150,-267,-150v-289,0,-363,269,-363,559v0,221,54,412,186,507v89,64,266,66,353,0v46,-35,84,-77,112,-130xm752,-1581v-147,155,-423,155,-570,0r78,-76v122,125,292,125,414,0"},"\u014f":{"d":"922,-660v46,118,46,279,0,395v-70,173,-219,288,-455,288v-233,0,-384,-116,-453,-288v-46,-116,-46,-277,0,-395v68,-175,218,-294,453,-294v237,0,386,119,455,294xm726,-199v81,-77,122,-265,70,-411v-47,-132,-154,-228,-329,-228v-175,0,-279,96,-327,228v-51,145,-5,330,69,411v80,87,266,137,405,77v44,-19,80,-46,112,-77xm752,-1209v-147,155,-423,155,-570,0r78,-76v122,125,292,125,414,0"},"\u0150":{"d":"698,-1270v237,135,319,515,242,872v-51,238,-187,421,-473,421v-372,0,-500,-300,-500,-674v0,-286,86,-510,269,-619v122,-72,339,-70,462,0xm755,-274v107,-198,95,-611,-21,-786v-57,-86,-137,-150,-267,-150v-289,0,-363,269,-363,559v0,221,54,412,186,507v89,64,266,66,353,0v46,-35,84,-77,112,-130xm682,-1395r-141,0r141,-375r186,0xm309,-1395r-139,0r139,-375r187,0"},"\u0151":{"d":"922,-660v46,118,46,279,0,395v-70,173,-219,288,-455,288v-233,0,-384,-116,-453,-288v-46,-116,-46,-277,0,-395v68,-175,218,-294,453,-294v237,0,386,119,455,294xm726,-199v81,-77,122,-265,70,-411v-47,-132,-154,-228,-329,-228v-175,0,-279,96,-327,228v-51,145,-5,330,69,411v80,87,266,137,405,77v44,-19,80,-46,112,-77xm682,-1023r-141,0r141,-375r186,0xm309,-1023r-139,0r139,-375r187,0"},"\u0154":{"d":"479,-1305v271,-1,451,112,451,373v0,234,-159,344,-379,367r393,565r-174,0r-381,-559r-203,0r0,559r-137,0r0,-1305r430,0xm479,-676v186,-1,309,-71,309,-256v0,-183,-124,-255,-309,-256r-293,0r0,512r293,0xm711,-1626r-432,243r-37,-65r403,-287"},"\u0155":{"d":"881,-801v-89,-45,-236,-52,-326,-1v-123,69,-207,200,-207,384r0,301r211,0r0,117r-559,0r0,-117r211,0r0,-698r-211,0r0,-117r348,0r0,234v73,-209,239,-285,480,-247v35,6,68,17,98,32xm711,-1255r-432,243r-37,-65r403,-287"},"\u0156":{"d":"610,104r-172,269r-127,0r84,-269r215,0xm479,-1305v271,-1,451,112,451,373v0,234,-159,344,-379,367r393,565r-174,0r-381,-559r-203,0r0,559r-137,0r0,-1305r430,0xm479,-676v186,-1,309,-71,309,-256v0,-183,-124,-255,-309,-256r-293,0r0,512r293,0"},"\u0157":{"d":"610,104r-172,269r-127,0r84,-269r215,0xm881,-801v-89,-45,-236,-52,-326,-1v-123,69,-207,200,-207,384r0,301r211,0r0,117r-559,0r0,-117r211,0r0,-698r-211,0r0,-117r348,0r0,234v73,-209,239,-285,480,-247v35,6,68,17,98,32"},"\u0158":{"d":"479,-1305v271,-1,451,112,451,373v0,234,-159,344,-379,367r393,565r-174,0r-381,-559r-203,0r0,559r-137,0r0,-1305r430,0xm479,-676v186,-1,309,-71,309,-256v0,-183,-124,-255,-309,-256r-293,0r0,512r293,0xm764,-1667r-297,284r-297,-288r53,-68r246,207r242,-203"},"\u0159":{"d":"881,-801v-89,-45,-236,-52,-326,-1v-123,69,-207,200,-207,384r0,301r211,0r0,117r-559,0r0,-117r211,0r0,-698r-211,0r0,-117r348,0r0,234v73,-209,239,-285,480,-247v35,6,68,17,98,32xm764,-1296r-297,284r-297,-288r53,-68r246,207r242,-203"},"\u015a":{"d":"654,-1130v-138,-130,-490,-103,-474,139v11,167,182,193,309,246v192,80,410,143,410,405v0,182,-117,287,-256,337v-192,69,-422,-2,-502,-136r0,139r-116,0r0,-397r116,0v7,151,104,240,221,281v192,66,400,-13,400,-216v0,-192,-180,-229,-324,-284v-186,-71,-395,-124,-395,-375v0,-174,113,-268,251,-313v181,-59,386,0,451,135r0,-136r121,0r0,373r-121,0v-1,-87,-43,-153,-91,-198xm711,-1626r-432,243r-37,-65r403,-287"},"\u015b":{"d":"801,-737v-123,-99,-355,-134,-533,-67v-53,20,-106,54,-106,122v0,95,104,109,192,126v190,37,415,39,514,166v51,65,49,202,-2,268v-117,153,-429,177,-658,108v-84,-25,-157,-57,-218,-97r61,-118v120,74,238,135,410,135v206,0,309,-53,309,-160v0,-131,-182,-123,-309,-145v-203,-36,-436,-53,-436,-283v0,-213,214,-268,436,-272v168,-3,293,41,395,110xm711,-1255r-432,243r-37,-65r403,-287"},"\u015c":{"d":"654,-1130v-138,-130,-490,-103,-474,139v11,167,182,193,309,246v192,80,410,143,410,405v0,182,-117,287,-256,337v-192,69,-422,-2,-502,-136r0,139r-116,0r0,-397r116,0v7,151,104,240,221,281v192,66,400,-13,400,-216v0,-192,-180,-229,-324,-284v-186,-71,-395,-124,-395,-375v0,-174,113,-268,251,-313v181,-59,386,0,451,135r0,-136r121,0r0,373r-121,0v-1,-87,-43,-153,-91,-198xm764,-1452r-53,67r-242,-205r-246,207r-53,-65r297,-291"},"\u015d":{"d":"801,-737v-123,-99,-355,-134,-533,-67v-53,20,-106,54,-106,122v0,95,104,109,192,126v190,37,415,39,514,166v51,65,49,202,-2,268v-117,153,-429,177,-658,108v-84,-25,-157,-57,-218,-97r61,-118v120,74,238,135,410,135v206,0,309,-53,309,-160v0,-131,-182,-123,-309,-145v-203,-36,-436,-53,-436,-283v0,-213,214,-268,436,-272v168,-3,293,41,395,110xm764,-1081r-53,67r-242,-205r-246,207r-53,-65r297,-291"},"\u015e":{"d":"654,-1130v-138,-130,-490,-103,-474,139v11,167,182,193,309,246v192,80,410,143,410,405v0,164,-95,259,-209,316v-41,20,-84,33,-131,40v11,213,-117,355,-317,355r0,-117v142,1,208,-80,202,-234v-133,-11,-245,-68,-303,-159r0,139r-116,0r0,-397r116,0v7,151,104,240,221,281v192,66,400,-13,400,-216v0,-192,-180,-229,-324,-284v-186,-71,-395,-124,-395,-375v0,-174,113,-268,251,-313v181,-59,386,0,451,135r0,-136r121,0r0,373r-121,0v-1,-87,-43,-153,-91,-198"},"\u015f":{"d":"801,-737v-123,-99,-355,-134,-533,-67v-53,20,-106,54,-106,122v0,95,104,109,192,126v190,37,417,38,514,166v26,33,39,77,39,132v0,194,-169,252,-348,274v11,213,-117,355,-317,355r0,-117v141,1,207,-79,202,-231v-171,-7,-344,-59,-454,-134r61,-118v120,74,238,135,410,135v206,0,309,-53,309,-160v0,-131,-182,-123,-309,-145v-203,-36,-436,-53,-436,-283v0,-213,214,-268,436,-272v168,-3,293,41,395,110"},"\u0160":{"d":"654,-1130v-138,-130,-490,-103,-474,139v11,167,182,193,309,246v192,80,410,143,410,405v0,182,-117,287,-256,337v-192,69,-422,-2,-502,-136r0,139r-116,0r0,-397r116,0v7,151,104,240,221,281v192,66,400,-13,400,-216v0,-192,-180,-229,-324,-284v-186,-71,-395,-124,-395,-375v0,-174,113,-268,251,-313v181,-59,386,0,451,135r0,-136r121,0r0,373r-121,0v-1,-87,-43,-153,-91,-198xm764,-1667r-297,284r-297,-288r53,-68r246,207r242,-203"},"\u0161":{"d":"801,-737v-123,-99,-355,-134,-533,-67v-53,20,-106,54,-106,122v0,95,104,109,192,126v190,37,415,39,514,166v51,65,49,202,-2,268v-117,153,-429,177,-658,108v-84,-25,-157,-57,-218,-97r61,-118v120,74,238,135,410,135v206,0,309,-53,309,-160v0,-131,-182,-123,-309,-145v-203,-36,-436,-53,-436,-283v0,-213,214,-268,436,-272v168,-3,293,41,395,110xm764,-1296r-297,284r-297,-288r53,-68r246,207r242,-203"},"\u0162":{"d":"610,104r-172,269r-127,0r84,-269r215,0xm932,-864r-117,0r0,-324r-280,0r0,1071r210,0r0,117r-559,0r0,-117r211,0r0,-1071r-280,0r0,324r-117,0r0,-441r932,0r0,441"},"\u0163":{"d":"610,104r-172,269r-127,0r84,-269r215,0xm482,-114v163,71,340,-48,345,-208r115,25v-13,238,-267,387,-514,293v-131,-50,-217,-163,-217,-338r0,-473r-211,0r0,-117r211,0r0,-373r137,0r0,373r397,0r0,117r-397,0r0,473v2,113,53,193,134,228"},"\u0164":{"d":"932,-864r-117,0r0,-324r-280,0r0,1071r210,0r0,117r-559,0r0,-117r211,0r0,-1071r-280,0r0,324r-117,0r0,-441r932,0r0,441xm764,-1667r-297,284r-297,-288r53,-68r246,207r242,-203"},"\u0165":{"d":"482,-114v163,71,340,-48,345,-208r115,25v-13,238,-267,387,-514,293v-131,-50,-217,-163,-217,-338r0,-473r-211,0r0,-117r211,0r0,-373r137,0r0,373r397,0r0,117r-397,0r0,473v2,113,53,193,134,228xm930,-1492r-84,465r-101,0r0,-465r185,0"},"\u0166":{"d":"745,-608r-210,0r0,491r210,0r0,117r-559,0r0,-117r211,0r0,-491r-211,0r0,-113r211,0r0,-467r-280,0r0,324r-117,0r0,-441r932,0r0,441r-117,0r0,-324r-280,0r0,467r210,0r0,113"},"\u0167":{"d":"942,-297v-13,238,-267,387,-514,293v-131,-50,-214,-163,-217,-338r0,-104r-211,0r0,-113r211,0r0,-256r-211,0r0,-117r211,0r0,-373r137,0r0,373r397,0r0,117r-397,0r0,256r211,0r0,113r-211,0v-13,198,41,347,230,352v138,3,239,-100,249,-228"},"\u0168":{"d":"465,-94v212,0,280,-163,280,-371r0,-840r138,0r0,840v-2,297,-123,488,-418,488v-297,0,-416,-193,-416,-490r0,-838r137,0r0,840v2,206,68,371,279,371xm846,-1600v-60,105,-142,158,-246,158v-105,0,-146,-63,-211,-99v-91,-51,-180,1,-231,93r-80,-47v61,-104,143,-156,246,-156v105,0,146,62,210,98v91,51,180,0,232,-94"},"\u0169":{"d":"186,-356v1,164,66,265,230,262v173,-3,262,-123,306,-262v16,-50,23,-103,23,-158r0,-418r138,0r0,932r-138,0r0,-233v-65,171,-183,256,-352,256v-229,0,-344,-126,-344,-379r0,-576r137,0r0,576xm846,-1229v-60,105,-142,158,-246,158v-105,0,-146,-63,-211,-99v-91,-51,-180,1,-231,93r-80,-47v61,-104,143,-156,246,-156v105,0,146,62,210,98v91,51,180,0,232,-94"},"\u016a":{"d":"465,-94v212,0,280,-163,280,-371r0,-840r138,0r0,840v-2,297,-123,488,-418,488v-297,0,-416,-193,-416,-490r0,-838r137,0r0,840v2,206,68,371,279,371xm745,-1477r-559,0r0,-113r559,0r0,113"},"\u016b":{"d":"186,-356v1,164,66,265,230,262v173,-3,262,-123,306,-262v16,-50,23,-103,23,-158r0,-418r138,0r0,932r-138,0r0,-233v-65,171,-183,256,-352,256v-229,0,-344,-126,-344,-379r0,-576r137,0r0,576xm745,-1106r-559,0r0,-113r559,0r0,113"},"\u016c":{"d":"465,-94v212,0,280,-163,280,-371r0,-840r138,0r0,840v-2,297,-123,488,-418,488v-297,0,-416,-193,-416,-490r0,-838r137,0r0,840v2,206,68,371,279,371xm752,-1581v-147,155,-423,155,-570,0r78,-76v122,125,292,125,414,0"},"\u016d":{"d":"186,-356v1,164,66,265,230,262v173,-3,262,-123,306,-262v16,-50,23,-103,23,-158r0,-418r138,0r0,932r-138,0r0,-233v-65,171,-183,256,-352,256v-229,0,-344,-126,-344,-379r0,-576r137,0r0,576xm752,-1210v-147,155,-423,155,-570,0r78,-76v122,125,292,125,414,0"},"\u016e":{"d":"465,-94v212,0,280,-163,280,-371r0,-840r138,0r0,840v-2,297,-123,488,-418,488v-297,0,-416,-193,-416,-490r0,-838r137,0r0,840v2,206,68,371,279,371xm555,-1421v-199,74,-367,-103,-296,-296v36,-99,167,-170,296,-120v99,38,171,169,119,297v-22,55,-64,98,-119,119xm467,-1764v-72,0,-135,64,-135,136v0,71,64,135,135,135v71,0,135,-64,135,-135v0,-72,-63,-136,-135,-136"},"\u016f":{"d":"186,-356v1,164,66,265,230,262v173,-3,262,-123,306,-262v16,-50,23,-103,23,-158r0,-418r138,0r0,932r-138,0r0,-233v-65,171,-183,256,-352,256v-229,0,-344,-126,-344,-379r0,-576r137,0r0,576xm555,-1050v-199,74,-367,-103,-296,-296v36,-99,167,-170,296,-120v99,38,171,169,119,297v-22,55,-64,98,-119,119xm467,-1393v-72,0,-135,64,-135,136v0,71,64,135,135,135v71,0,135,-64,135,-135v0,-72,-63,-136,-135,-136"},"\u0170":{"d":"465,-94v212,0,280,-163,280,-371r0,-840r138,0r0,840v-2,297,-123,488,-418,488v-297,0,-416,-193,-416,-490r0,-838r137,0r0,840v2,206,68,371,279,371xm682,-1395r-141,0r141,-375r186,0xm309,-1395r-139,0r139,-375r187,0"},"\u0171":{"d":"186,-356v1,164,66,265,230,262v173,-3,262,-123,306,-262v16,-50,23,-103,23,-158r0,-418r138,0r0,932r-138,0r0,-233v-65,171,-183,256,-352,256v-229,0,-344,-126,-344,-379r0,-576r137,0r0,576xm682,-1024r-141,0r141,-375r186,0xm309,-1024r-139,0r139,-375r187,0"},"\u0172":{"d":"492,152v0,-58,15,-97,38,-134v-330,34,-481,-167,-481,-485r0,-838r137,0r0,840v2,206,68,371,279,371v212,0,280,-163,280,-371r0,-840r138,0r0,840v-1,237,-81,409,-262,465v-33,30,-50,70,-50,121v-2,97,89,171,189,168r0,90v-154,3,-268,-83,-268,-227"},"\u0173":{"d":"834,121v-2,97,88,171,188,168r0,90v-154,3,-268,-83,-268,-227v0,-66,24,-114,53,-152r-62,0r0,-233v-65,171,-183,256,-352,256v-229,0,-344,-126,-344,-379r0,-576r137,0r0,576v1,164,66,265,230,262v173,-3,262,-123,306,-262v16,-50,23,-103,23,-158r0,-418r138,0r0,932v-33,30,-49,70,-49,121"},"\u0174":{"d":"995,-1305r-235,1305r-162,0r-133,-637r-135,637r-160,0r-233,-1305r145,0r184,1074r131,-701r135,0r132,701r184,-1074r147,0xm764,-1452r-53,67r-242,-205r-246,207r-53,-65r297,-291"},"\u0175":{"d":"963,-932r-189,932r-160,0r-149,-684r-141,684r-160,0r-191,-932r146,0r135,746r145,-746r136,0r149,746r135,-746r144,0xm764,-1081r-53,67r-242,-205r-246,207r-53,-65r297,-291"},"\u0176":{"d":"952,-1188r-106,0r-311,625r0,446r210,0r0,117r-559,0r0,-117r211,0r0,-446r-311,-625r-106,0r0,-117r368,0r0,117r-108,0r227,492r225,-492r-108,0r0,-117r368,0r0,117xm764,-1452r-53,67r-242,-205r-246,207r-53,-65r297,-291"},"\u0177":{"d":"25,242v71,31,209,64,259,4v47,-57,69,-146,101,-219r-416,-959r162,0r336,815r330,-815r164,0r-504,1168v-52,175,-280,187,-459,124xm764,-1081r-53,67r-242,-205r-246,207r-53,-65r297,-291"},"\u0179":{"d":"887,0r-838,0r0,-117r656,-1071r-539,0r0,320r-117,0r0,-437r817,0r0,117r-649,1071r553,0r0,-325r117,0r0,442xm711,-1628r-432,243r-37,-65r403,-287"},"\u017a":{"d":"887,0r-840,0r0,-117r635,-698r-516,0r0,256r-117,0r0,-373r815,0r0,117r-635,698r541,0r0,-256r117,0r0,373xm711,-1254r-432,243r-37,-65r403,-287"},"\u017b":{"d":"887,0r-838,0r0,-117r656,-1071r-539,0r0,320r-117,0r0,-437r817,0r0,117r-649,1071r553,0r0,-325r117,0r0,442xm559,-1491r-186,0r0,-187r186,0r0,187"},"\u017c":{"d":"887,0r-840,0r0,-117r635,-698r-516,0r0,256r-117,0r0,-373r815,0r0,117r-635,698r541,0r0,-256r117,0r0,373xm559,-1118r-186,0r0,-187r186,0r0,187"},"\u017d":{"d":"887,0r-838,0r0,-117r656,-1071r-539,0r0,320r-117,0r0,-437r817,0r0,117r-649,1071r553,0r0,-325r117,0r0,442xm764,-1669r-297,284r-297,-288r53,-68r246,207r242,-203"},"\u017e":{"d":"887,0r-840,0r0,-117r635,-698r-516,0r0,256r-117,0r0,-373r815,0r0,117r-635,698r541,0r0,-256r117,0r0,373xm764,-1295r-297,284r-297,-288r53,-68r246,207r242,-203"},"\u017f":{"d":"797,-1210v-181,2,-262,90,-262,278r0,815r210,0r0,117r-559,0r0,-117r211,0r0,-698r-211,0r0,-117r211,0v1,-259,136,-396,400,-395v53,0,95,3,135,10r0,117v-44,-6,-82,-10,-135,-10"},"\u01fc":{"d":"932,0r-506,0r0,-373r-233,0r-111,373r-145,0r395,-1305r600,0r0,121r-367,0r0,457r277,0r0,121r-277,0r0,483r367,0r0,123xm426,-494r0,-659r-197,659r197,0xm711,-1630r-432,243r-37,-65r403,-287"},"\u01fd":{"d":"674,23v-115,0,-203,-86,-225,-193v-42,99,-108,189,-244,193v-156,4,-243,-123,-242,-277v2,-234,184,-329,426,-299v8,-143,-11,-287,-141,-287v-74,0,-135,71,-170,131r-86,-84v55,-84,134,-161,256,-161v114,0,187,51,213,147v34,-139,268,-198,375,-91v98,97,117,292,118,480r-428,0v0,111,13,191,39,240v26,49,65,74,117,74v77,0,118,-50,137,-123r117,37v-43,129,-107,213,-262,213xm807,-539v0,-109,-12,-185,-32,-232v-40,-92,-162,-90,-209,-3v-25,45,-40,123,-40,235r281,0xm100,-244v2,72,43,145,119,140v106,-7,170,-87,170,-197r0,-137v-159,-23,-293,36,-289,194xm711,-1257r-432,243r-37,-65r403,-287"},"\u01fe":{"d":"467,23v-187,0,-303,-78,-379,-193r-133,141r0,-159r78,-84v-102,-240,-84,-657,47,-848v79,-116,198,-208,387,-207v184,0,301,83,377,197r135,-146r0,160r-82,86v106,236,88,653,-43,847v-78,116,-197,206,-387,206xm180,-268v53,99,138,178,287,174v286,-7,362,-266,362,-557v0,-100,-11,-190,-34,-271xm750,-1032v-57,-101,-140,-178,-283,-178v-330,0,-382,358,-355,697v4,46,13,90,25,132xm711,-1630r-432,243r-37,-65r403,-287"},"\u01ff":{"d":"467,23v-160,0,-279,-57,-361,-142r-149,119r0,-119r92,-74v-77,-124,-93,-317,-35,-467v67,-176,218,-294,453,-294v160,0,277,58,358,143r152,-121r0,119r-94,76v81,127,98,321,39,472v-68,173,-219,288,-455,288xm209,-201v60,62,140,110,258,107v226,-5,352,-142,352,-369v0,-71,-14,-134,-43,-190xm725,-731v-59,-61,-142,-108,-258,-107v-175,1,-279,96,-327,228v-36,101,-30,245,16,331xm711,-1257r-432,243r-37,-65r403,-287"},"\u0218":{"d":"610,104r-172,269r-127,0r84,-269r215,0xm654,-1130v-138,-130,-490,-103,-474,139v11,167,182,193,309,246v192,80,410,143,410,405v0,182,-117,287,-256,337v-192,69,-422,-2,-502,-136r0,139r-116,0r0,-397r116,0v7,151,104,240,221,281v192,66,400,-13,400,-216v0,-192,-180,-229,-324,-284v-186,-71,-395,-124,-395,-375v0,-174,113,-268,251,-313v181,-59,386,0,451,135r0,-136r121,0r0,373r-121,0v-1,-87,-43,-153,-91,-198"},"\u0219":{"d":"610,104r-172,269r-127,0r84,-269r215,0xm801,-737v-123,-99,-355,-134,-533,-67v-53,20,-106,54,-106,122v0,95,104,109,192,126v190,37,415,39,514,166v51,65,49,202,-2,268v-117,153,-429,177,-658,108v-84,-25,-157,-57,-218,-97r61,-118v120,74,238,135,410,135v206,0,309,-53,309,-160v0,-131,-182,-123,-309,-145v-203,-36,-436,-53,-436,-283v0,-213,214,-268,436,-272v168,-3,293,41,395,110"},"\u021a":{"d":"610,104r-172,269r-127,0r84,-269r215,0xm932,-864r-117,0r0,-324r-280,0r0,1071r210,0r0,117r-559,0r0,-117r211,0r0,-1071r-280,0r0,324r-117,0r0,-441r932,0r0,441"},"\u021b":{"d":"610,104r-172,269r-127,0r84,-269r215,0xm482,-114v163,71,340,-48,345,-208r115,25v-13,238,-267,387,-514,293v-131,-50,-217,-163,-217,-338r0,-473r-211,0r0,-117r211,0r0,-373r137,0r0,373r397,0r0,117r-397,0r0,473v2,113,53,193,134,228"},"\u0384":{"d":"582,-1583r-84,465r-101,0r0,-465r185,0"},"\u0385":{"d":"582,-1583r-84,465r-101,0r0,-465r185,0xm932,-1118r-187,0r0,-187r187,0r0,187xm186,-1118r-186,0r0,-187r186,0r0,187"},"\u0386":{"d":"995,0r-147,0r-123,-373r-516,0r-121,373r-147,0r434,-1305r186,0xm686,-494r-219,-673r-219,673r438,0xm210,-1583r-84,465r-101,0r0,-465r185,0"},"\u0388":{"d":"883,0r-834,0r0,-1305r834,0r0,117r-697,0r0,467r514,0r0,117r-514,0r0,487r697,0r0,117xm24,-1583r-84,465r-101,0r0,-465r185,0"},"\u0389":{"d":"24,-1583r-84,465r-101,0r0,-465r185,0xm883,0r-138,0r0,-604r-559,0r0,604r-137,0r0,-1305r137,0r0,584r559,0r0,-584r138,0r0,1305"},"\u038a":{"d":"208,-1583r-84,465r-101,0r0,-465r185,0xm745,0r-559,0r0,-117r211,0r0,-1071r-211,0r0,-117r559,0r0,117r-210,0r0,1071r210,0r0,117"},"\u038c":{"d":"698,-1270v237,135,319,515,242,872v-51,238,-187,421,-473,421v-372,0,-500,-300,-500,-674v0,-286,86,-510,269,-619v122,-72,339,-70,462,0xm755,-274v107,-198,95,-611,-21,-786v-57,-86,-137,-150,-267,-150v-289,0,-363,269,-363,559v0,221,54,412,186,507v89,64,266,66,353,0v46,-35,84,-77,112,-130xm20,-1583r-84,465r-101,0r0,-465r185,0"},"\u038e":{"d":"952,-1188r-106,0r-311,625r0,446r210,0r0,117r-559,0r0,-117r211,0r0,-446r-311,-625r-106,0r0,-117r368,0r0,117r-108,0r227,492r225,-492r-108,0r0,-117r368,0r0,117xm20,-1583r-84,465r-101,0r0,-465r185,0"},"\u038f":{"d":"211,-231v-194,-125,-285,-443,-199,-729v61,-204,198,-367,455,-367v257,0,396,164,457,367v87,289,-8,600,-203,729r0,114r211,0r0,117r-348,0r0,-291v198,-77,278,-352,216,-616v-38,-164,-134,-307,-333,-307v-196,0,-290,145,-329,307v-63,260,14,540,210,616r0,291r-348,0r0,-117r211,0r0,-114xm20,-1583r-84,465r-101,0r0,-465r185,0"},"\u0390":{"d":"623,23v-139,-5,-226,-87,-226,-230r0,-604r-211,0r0,-121r349,0r0,725v0,75,35,113,106,113v33,0,58,-6,76,-17r28,109v-33,17,-68,27,-122,25xm582,-1583r-84,465r-101,0r0,-465r185,0xm932,-1118r-187,0r0,-187r187,0r0,187xm186,-1118r-186,0r0,-187r186,0r0,187"},"\u0391":{"d":"995,0r-147,0r-123,-373r-516,0r-121,373r-147,0r434,-1305r186,0xm686,-494r-219,-673r-219,673r438,0"},"\u0392":{"d":"442,-1305v254,2,443,79,443,338v0,135,-68,228,-203,277v165,51,248,156,248,317v-1,265,-187,374,-465,373r-416,0r0,-1305r393,0xm186,-745v258,-3,563,41,562,-222v-1,-260,-304,-219,-562,-221r0,443xm465,-117v190,1,328,-76,328,-256v1,-189,-135,-257,-328,-258r-279,0r0,514r279,0"},"\u0393":{"d":"49,-1305r883,0r0,117r-746,0r0,1188r-137,0r0,-1305"},"\u0394":{"d":"995,0r-1054,0r434,-1305r186,0xm809,-117r-342,-1048r-342,1048r684,0"},"\u0395":{"d":"883,0r-834,0r0,-1305r834,0r0,117r-697,0r0,467r514,0r0,117r-514,0r0,487r697,0r0,117"},"\u0396":{"d":"887,0r-838,0r0,-117r656,-1071r-539,0r0,320r-117,0r0,-437r817,0r0,117r-649,1071r553,0r0,-325r117,0r0,442"},"\u0397":{"d":"883,0r-138,0r0,-604r-559,0r0,604r-137,0r0,-1305r137,0r0,584r559,0r0,-584r138,0r0,1305"},"\u0398":{"d":"229,-711r471,0r0,117r-471,0r0,-117xm698,-1270v237,135,319,515,242,872v-51,238,-187,421,-473,421v-372,0,-500,-300,-500,-674v0,-286,86,-510,269,-619v122,-72,339,-70,462,0xm755,-274v107,-198,95,-611,-21,-786v-57,-86,-137,-150,-267,-150v-289,0,-363,269,-363,559v0,221,54,412,186,507v89,64,266,66,353,0v46,-35,84,-77,112,-130"},"\u0399":{"d":"745,0r-559,0r0,-117r211,0r0,-1071r-211,0r0,-117r559,0r0,117r-210,0r0,1071r210,0r0,117"},"\u039a":{"d":"926,0r-168,0r-434,-639r-138,154r0,485r-137,0r0,-1305r137,0r0,635r559,-635r181,0r-512,570"},"\u039b":{"d":"848,0r-381,-1165r-379,1165r-147,0r434,-1305r186,0r434,1305r-147,0"},"\u039c":{"d":"883,0r-138,0r0,-1087r-231,673r-98,0r-230,-673r0,1087r-137,0r0,-1305r178,0r238,682r240,-682r178,0r0,1305"},"\u039d":{"d":"883,0r-170,0r-527,-1104r0,1104r-137,0r0,-1305r193,0r503,1053r0,-1053r138,0r0,1305"},"\u039e":{"d":"0,-301r121,0r0,184r690,0r0,-184r121,0r0,301r-932,0r0,-301xm811,-1188r-690,0r0,187r-121,0r0,-304r932,0r0,304r-121,0r0,-187xm229,-711r471,0r0,117r-471,0r0,-117"},"\u039f":{"d":"698,-1270v237,135,319,515,242,872v-51,238,-187,421,-473,421v-372,0,-500,-300,-500,-674v0,-286,86,-510,269,-619v122,-72,339,-70,462,0xm755,-274v107,-198,95,-611,-21,-786v-57,-86,-137,-150,-267,-150v-289,0,-363,269,-363,559v0,221,54,412,186,507v89,64,266,66,353,0v46,-35,84,-77,112,-130"},"\u03a0":{"d":"883,0r-138,0r0,-1188r-559,0r0,1188r-137,0r0,-1305r834,0r0,1305"},"\u03a1":{"d":"479,-1305v271,-1,451,112,451,373v0,263,-179,373,-449,373r-295,0r0,559r-137,0r0,-1305r430,0xm481,-676v184,-1,312,-72,312,-256v0,-184,-129,-256,-312,-256r-295,0r0,512r295,0"},"\u03a3":{"d":"883,0r-840,0r0,-117r328,-536r-328,-535r0,-117r840,0r0,441r-121,0r0,-324r-555,0r325,535r-325,536r555,0r0,-325r121,0r0,442"},"\u03a4":{"d":"932,-864r-117,0r0,-324r-280,0r0,1071r210,0r0,117r-559,0r0,-117r211,0r0,-1071r-280,0r0,324r-117,0r0,-441r932,0r0,441"},"\u03a5":{"d":"952,-1188r-106,0r-311,625r0,446r210,0r0,117r-559,0r0,-117r211,0r0,-446r-311,-625r-106,0r0,-117r368,0r0,117r-108,0r227,492r225,-492r-108,0r0,-117r368,0r0,117"},"\u03a6":{"d":"840,-988v96,101,154,332,86,515v-61,164,-192,277,-391,301r0,172r-138,0r0,-174v-197,-24,-327,-135,-387,-299v-39,-110,-39,-256,0,-365v60,-166,190,-277,387,-305r0,-162r138,0r0,162v131,14,232,78,305,155xm535,-293v213,-24,335,-259,265,-495v-37,-126,-127,-211,-265,-236r0,731xm397,-1024v-176,36,-278,163,-280,369v-2,192,107,338,280,362r0,-731"},"\u03a7":{"d":"954,0r-370,0r0,-117r88,0r-205,-428r-207,428r88,0r0,117r-371,0r0,-117r127,0r283,-540r-278,-531r-109,0r0,-117r373,0r0,117r-109,0r203,418r197,-418r-105,0r0,-117r373,0r0,117r-113,0r-272,531r280,540r127,0r0,117"},"\u03a8":{"d":"535,-442v154,-36,209,-180,210,-365r0,-498r138,0r0,498v-1,269,-106,456,-348,483r0,324r-138,0r0,-324v-244,-27,-348,-215,-348,-485r0,-496r137,0r0,498v2,184,55,331,211,365r0,-863r138,0r0,863"},"\u03aa":{"d":"745,0r-559,0r0,-117r211,0r0,-1071r-211,0r0,-117r559,0r0,117r-210,0r0,1071r210,0r0,117xm745,-1491r-186,0r0,-187r186,0r0,187xm373,-1491r-187,0r0,-187r187,0r0,187"},"\u03ab":{"d":"745,-1491r-186,0r0,-187r186,0r0,187xm373,-1491r-187,0r0,-187r187,0r0,187xm952,-1188r-106,0r-311,625r0,446r210,0r0,117r-559,0r0,-117r211,0r0,-446r-311,-625r-106,0r0,-117r368,0r0,117r-108,0r227,492r225,-492r-108,0r0,-117r368,0r0,117"},"\u03ac":{"d":"274,-803v-178,115,-174,559,0,674v63,41,160,47,221,0v96,-74,148,-209,189,-338v-41,-128,-93,-263,-189,-336v-61,-47,-158,-41,-221,0xm735,-270v-46,160,-160,293,-346,293v-212,0,-319,-137,-365,-308v-50,-183,-13,-407,71,-519v63,-83,153,-151,294,-150v186,2,300,132,346,292r56,-270r147,0r-131,465r131,467r-147,0xm582,-1583r-84,465r-101,0r0,-465r185,0"},"\u03ad":{"d":"205,-473v-155,-12,-246,-183,-160,-319v71,-113,224,-162,410,-162v209,0,334,69,415,200r-102,70v-56,-94,-159,-156,-313,-154v-95,0,-169,15,-223,44v-70,38,-106,98,-67,168v63,111,270,95,449,94r0,116v-181,1,-388,-20,-460,98v-45,74,-3,140,74,179v61,30,140,45,239,45v163,0,270,-51,334,-148r96,66v-85,133,-214,199,-430,199v-194,0,-352,-53,-431,-167v-24,-36,-36,-75,-36,-120v2,-109,100,-192,205,-209xm582,-1583r-84,465r-101,0r0,-465r185,0"},"\u03ae":{"d":"12,-930v125,-61,298,2,291,156v41,-100,125,-182,266,-180v221,3,314,138,314,376r0,951r-138,0r0,-951v0,-139,-45,-260,-176,-260v-153,0,-245,132,-245,306r0,532r-138,0r0,-748v5,-83,-79,-110,-147,-75xm582,-1583r-84,465r-101,0r0,-465r185,0"},"\u03af":{"d":"623,23v-139,-5,-226,-87,-226,-230r0,-604r-211,0r0,-121r349,0r0,725v0,75,35,113,106,113v33,0,58,-6,76,-17r28,109v-33,17,-68,27,-122,25xm582,-1583r-84,465r-101,0r0,-465r185,0"},"\u03b0":{"d":"848,-950v71,166,119,417,58,628v-56,194,-190,345,-439,345v-258,0,-418,-122,-418,-381r0,-574r137,0r0,574v6,168,113,262,281,262v234,0,328,-189,328,-416v0,-154,-27,-273,-80,-385xm582,-1583r-84,465r-101,0r0,-465r185,0xm932,-1118r-187,0r0,-187r187,0r0,187xm186,-1118r-186,0r0,-187r186,0r0,187"},"\u03b1":{"d":"274,-803v-178,115,-174,559,0,674v63,41,160,47,221,0v96,-74,148,-209,189,-338v-41,-128,-93,-263,-189,-336v-61,-47,-158,-41,-221,0xm735,-270v-46,160,-160,293,-346,293v-212,0,-319,-137,-365,-308v-50,-183,-13,-407,71,-519v63,-83,153,-151,294,-150v186,2,300,132,346,292r56,-270r147,0r-131,465r131,467r-147,0"},"\u03b2":{"d":"655,-684v157,49,281,144,281,330v0,189,-117,294,-263,348v-54,19,-114,29,-179,29v-140,0,-225,-35,-308,-97r0,447r-137,0r0,-1311v6,-189,112,-305,256,-360v101,-39,242,-39,340,0v130,51,236,148,236,313v0,155,-97,260,-226,301xm186,-215v76,81,161,119,308,121v176,3,305,-96,305,-260v0,-174,-139,-268,-336,-264r-90,0r0,-117r90,0v177,4,280,-92,280,-250v0,-180,-190,-265,-375,-209v-106,32,-182,116,-182,256r0,723"},"\u03b3":{"d":"475,-88v144,-239,246,-518,277,-844r139,0v-55,379,-170,717,-356,973r0,332r-138,0r0,-330r-397,-975r158,0"},"\u03b4":{"d":"489,-1210v-84,0,-160,36,-155,118v4,77,83,116,144,158v141,97,289,188,370,346v50,98,52,250,11,356v-60,152,-187,255,-396,255v-206,0,-339,-103,-395,-255v-53,-145,-36,-287,54,-411v57,-78,139,-150,251,-211v-80,-60,-176,-107,-176,-238v0,-154,128,-235,292,-235v122,0,200,22,277,74r-61,98v-59,-41,-123,-54,-216,-55xm176,-403v0,186,94,309,287,309v191,0,289,-124,289,-312v0,-188,-136,-295,-281,-374v-145,81,-295,185,-295,377"},"\u03b5":{"d":"205,-473v-155,-12,-246,-183,-160,-319v71,-113,224,-162,410,-162v209,0,334,69,415,200r-102,70v-56,-94,-159,-156,-313,-154v-95,0,-169,15,-223,44v-70,38,-106,98,-67,168v63,111,270,95,449,94r0,116v-181,1,-388,-20,-460,98v-45,74,-3,140,74,179v61,30,140,45,239,45v163,0,270,-51,334,-148r96,66v-85,133,-214,199,-430,199v-194,0,-352,-53,-431,-167v-24,-36,-36,-75,-36,-120v2,-109,100,-192,205,-209"},"\u03b6":{"d":"614,291v92,-33,156,-83,156,-176v0,-116,-125,-110,-235,-121v-128,-13,-262,-30,-352,-91v-112,-76,-185,-198,-181,-399v3,-169,91,-297,187,-397v117,-121,279,-226,450,-295r-453,0r0,-117r746,0r0,117v-321,88,-592,250,-738,498v-68,116,-70,266,-19,378v60,130,200,173,372,187v185,15,364,40,360,240v-3,142,-104,238,-233,280"},"\u03b7":{"d":"12,-930v125,-61,298,2,291,156v41,-100,125,-182,266,-180v221,3,314,138,314,376r0,951r-138,0r0,-951v0,-139,-45,-260,-176,-260v-153,0,-245,132,-245,306r0,532r-138,0r0,-748v5,-83,-79,-110,-147,-75"},"\u03b8":{"d":"796,-1138v134,222,133,746,-2,973v-64,109,-164,188,-327,188v-256,0,-360,-180,-403,-401v-49,-252,-26,-593,76,-759v68,-110,160,-190,327,-190v166,0,263,80,329,189xm336,-133v68,51,195,50,263,0v118,-87,149,-272,157,-473r-576,0v5,202,40,385,156,473xm598,-1174v-67,-48,-195,-48,-262,0v-115,82,-151,256,-156,451r576,0v-8,-194,-42,-368,-158,-451"},"\u03b9":{"d":"623,23v-139,-5,-226,-87,-226,-230r0,-604r-211,0r0,-121r349,0r0,725v0,75,35,113,106,113v33,0,58,-6,76,-17r28,109v-33,17,-68,27,-122,25"},"\u03ba":{"d":"930,0r-195,0r-381,-418r-168,154r0,264r-137,0r0,-932r137,0r0,502r531,-502r196,0r-467,428"},"\u03bb":{"d":"284,-1178v-49,-59,-190,-27,-259,4r-27,-118v113,-42,242,-49,349,-4v47,20,82,64,110,129r504,1167r-164,0r-330,-815r-336,815r-162,0r416,-958v-32,-73,-53,-163,-101,-220"},"\u03bc":{"d":"813,23v-104,-2,-184,-69,-184,-181v-27,99,-127,183,-256,181v-87,-1,-162,-50,