// #### Generated By: http://www.cufonfonts.com ####
/*!
 * The following copyright notice may not be removed under any circumstances.
 * 
 * Copyright:
 * Copyright (c) 2007, Stephen G. Hartke (lastname at gmail dot com). Licensed
 * under OFL 1.1 with Reserved Font Name Aurulent.
 * 
 * License information:
 * http://scripts.sil.org/ofl
 */
Cufon.registerFont({"w":710,"face":{"font-family":"Aurulent Sans","font-weight":400,"font-stretch":"normal","units-per-em":"1000","panose-1":"2 0 5 3 0 0 0 0 0 0","ascent":"800","descent":"-200","x-height":"12","bbox":"-75 -1001 926 205","underline-thickness":"71","underline-position":"-1","stemh":"71","stemv":"95","unicode-range":"U+0020-U+201D"},"glyphs":{" ":{"w":250},"!":{"d":"174,-565r-9,370r-76,0r-9,-370r0,-158r94,0r0,158xm174,0r-94,0r0,-95r94,0r0,95","w":255},"\"":{"d":"310,-770v3,87,-3,166,-14,240r-67,0v-10,-74,-17,-152,-14,-240r95,0xm135,-770v3,87,-3,166,-14,240r-67,0v-10,-74,-17,-152,-14,-240r95,0","w":350},"#":{"d":"392,-445r-122,0r-32,167r122,0xm615,-495r-9,50r-147,0r-32,167r147,0r-9,50r-148,0r-43,228r-67,0r44,-228r-123,0r-43,228r-67,0r44,-228r-147,0r9,-50r147,0r32,-167r-147,0r9,-50r148,0r43,-228r67,0r-44,228r123,0r43,-228r67,0r-44,228r147,0","w":630},"$":{"d":"298,71r-53,0r0,-71v-66,-2,-140,-23,-205,-62r0,-77v66,39,140,66,205,68r0,-263v-90,-28,-205,-85,-205,-208v0,-99,89,-167,205,-179r0,-73r53,0r0,71v50,2,109,15,165,37r0,88v-54,-22,-110,-45,-165,-52r0,233v117,45,194,105,194,213v0,113,-84,186,-194,201r0,74xm245,-436r0,-215v-59,7,-110,40,-110,96v0,66,67,102,110,119xm298,-311r0,236v58,-12,99,-49,99,-111v0,-60,-38,-96,-99,-125","w":532},"%":{"d":"581,-57v95,-1,94,-239,0,-240v-95,1,-94,239,0,240xm726,-177v0,92,-59,177,-145,177v-87,0,-145,-85,-145,-177v0,-93,58,-177,145,-177v86,0,145,84,145,177xm185,-426v95,-1,94,-239,0,-240v-95,1,-94,239,0,240xm330,-546v0,93,-58,177,-145,177v-86,0,-145,-84,-145,-177v0,-92,59,-177,145,-177v87,0,145,85,145,177xm687,-741r-515,759r-93,0r515,-759r93,0","w":765},"&":{"d":"463,-48v-133,128,-423,65,-423,-156v0,-114,85,-199,160,-220v-30,-45,-46,-97,-46,-144v0,-100,72,-173,162,-173v87,0,160,69,160,163v0,90,-69,167,-138,197r131,199v23,-53,34,-116,34,-180r79,0v0,91,-22,181,-66,250r73,112r-93,0xm288,-450v62,-30,93,-78,93,-131v0,-48,-26,-89,-66,-89v-88,0,-78,160,-27,220xm135,-203v-2,171,204,186,287,95r-172,-248v-77,28,-115,83,-115,153","w":630},"'":{"d":"134,-770v2,94,-2,181,-11,264r-72,0v-9,-83,-13,-170,-11,-264r94,0","w":175},"(":{"d":"250,129r-81,0v-61,-144,-129,-304,-129,-444v0,-140,68,-300,129,-444r81,0v-61,142,-115,289,-115,444v0,155,54,302,115,444","w":250},")":{"d":"210,-315v0,140,-68,300,-129,444r-81,0v61,-142,115,-289,115,-444v0,-155,-54,-302,-115,-444r81,0v61,144,129,304,129,444","w":250},"*":{"d":"448,-282r-33,58v-54,-30,-100,-67,-150,-101v3,54,12,107,12,160r0,20r-66,0v-2,-63,8,-119,12,-180v-45,30,-86,64,-133,91r-17,10r-33,-58v50,-31,108,-54,162,-79v-54,-27,-112,-48,-162,-80r33,-58v54,30,100,67,150,101v-3,-54,-12,-107,-12,-160r0,-20r66,0v2,63,-8,119,-12,180v45,-30,86,-64,133,-91r17,-10r33,58v-50,31,-108,54,-162,79v54,27,112,48,162,80","w":488},"+":{"d":"534,-259r-208,0r0,199r-78,0r0,-199r-208,0r0,-72r208,0r0,-199r78,0r0,199r208,0r0,72","w":575},",":{"d":"174,-32r-71,174r-59,0v13,-78,40,-142,36,-237r94,0r0,63","w":255},"-":{"d":"260,-259r-220,0r0,-72r220,0r0,72","w":300},".":{"d":"174,0r-94,0r0,-95r94,0r0,95","w":255},"\/":{"d":"279,-759r-199,888r-81,0r199,-888r81,0","w":278},"0":{"d":"275,-53v119,-14,135,-191,135,-310v0,-120,-16,-294,-135,-309v-118,14,-135,191,-135,309v0,121,16,295,135,310xm275,-743v96,0,240,72,240,380v0,310,-144,381,-240,381v-96,0,-240,-71,-240,-381v0,-308,144,-380,240,-380","w":550},"1":{"d":"494,0r-388,0r0,-71r153,0r0,-572r-153,60r0,-71r172,-75r76,0r0,658r140,0r0,71","w":550},"2":{"d":"470,-539v0,196,-288,286,-336,468r336,0r0,71r-430,0r0,-78v71,-211,335,-281,335,-461v0,-74,-61,-133,-135,-133v-64,0,-126,20,-182,51r0,-79v56,-31,119,-43,182,-43v123,0,230,86,230,204","w":550},"3":{"d":"393,-205v0,-110,-113,-153,-230,-143r0,-71v114,10,212,-37,212,-132v0,-56,-23,-121,-115,-121v-56,0,-110,15,-162,36r0,-81v51,-20,107,-26,162,-26v133,0,210,79,210,192v0,81,-62,137,-143,163v150,26,161,149,161,183v0,137,-97,223,-228,223v-61,0,-123,-7,-180,-30r0,-82v58,24,118,41,180,41v81,0,133,-61,133,-152","w":550},"4":{"d":"438,0r-95,0r0,-218r-333,0r0,-71r333,-436r95,0r0,436r67,0r0,71r-67,0r0,218xm105,-289r238,0r0,-312","w":550},"5":{"d":"175,-457v262,7,313,143,313,238v0,95,-49,237,-301,237v-37,0,-74,-2,-109,-16r0,-80v128,51,318,34,315,-141v0,-53,-21,-107,-67,-132v-67,-37,-142,-37,-230,-35r0,-339r374,0r0,71r-295,0r0,197","w":550},"6":{"d":"415,-225v0,-79,-42,-174,-121,-174v-86,0,-156,68,-156,154v0,97,49,192,137,192v110,0,140,-78,140,-172xm294,-464v126,0,216,88,216,239v0,194,-129,243,-235,243v-74,0,-142,-39,-179,-103v-49,-83,-56,-182,-56,-278v0,-99,13,-201,73,-280v76,-99,226,-130,350,-70r0,80v-41,-23,-85,-39,-132,-39v-78,0,-190,46,-196,281v38,-45,95,-73,159,-73","w":550},"7":{"d":"510,-640v-128,176,-240,393,-281,640r-96,0v48,-245,165,-467,301,-640r-394,0r0,-85r470,0r0,85","w":550},"8":{"d":"396,-574v0,-63,-56,-112,-121,-112v-65,0,-121,49,-121,112v0,72,76,110,146,135v56,-23,96,-74,96,-135xm415,-187v0,-89,-79,-152,-165,-183v-71,28,-115,103,-115,183v0,81,61,148,140,148v79,0,140,-67,140,-148xm510,-187v0,119,-110,205,-235,205v-125,0,-235,-86,-235,-205v0,-95,69,-171,159,-206v-73,-39,-130,-100,-130,-181v0,-101,98,-169,206,-169v108,0,206,68,206,169v0,75,-58,130,-130,158v91,48,159,129,159,229","w":550},"9":{"d":"135,-500v0,79,42,174,121,174v86,0,156,-68,156,-154v0,-97,-49,-192,-137,-192v-110,0,-140,78,-140,172xm40,-500v0,-194,129,-243,235,-243v74,0,142,39,179,103v49,83,56,182,56,277v0,100,-13,202,-73,281v-76,99,-226,130,-350,70r0,-80v41,23,85,39,132,39v78,0,190,-46,196,-281v-38,45,-95,73,-159,73v-126,0,-216,-88,-216,-239","w":550},":":{"d":"174,-435r-94,0r0,-95r94,0r0,95xm174,0r-94,0r0,-95r94,0r0,95","w":255},";":{"d":"174,-435r-94,0r0,-95r94,0r0,95xm174,-32r-71,174r-59,0v13,-78,40,-142,36,-237r94,0r0,63","w":255},"<":{"d":"508,-55r-468,-225r0,-30r468,-225r0,81r-324,159r324,159r0,81","w":547},"=":{"d":"534,-188r-494,0r0,-71r494,0r0,71xm534,-331r-494,0r0,-71r494,0r0,71","w":575},">":{"d":"508,-280r-468,225r0,-81r324,-159r-324,-159r0,-81r468,225r0,30","w":547},"?":{"d":"285,0r-95,0r0,-95r95,0r0,95xm510,-569v0,154,-235,150,-225,327r0,47r-95,0v-2,-61,1,-113,26,-153v53,-90,199,-108,199,-211v0,-75,-77,-111,-162,-111v-63,0,-132,20,-195,53r0,-78v155,-89,452,-49,452,126","w":550},"@":{"d":"566,-519v-7,-54,-35,-139,-176,-139v-164,0,-263,114,-263,361v0,285,126,396,346,349r0,62v-26,7,-54,9,-79,9v-203,0,-346,-121,-346,-421v0,-299,143,-419,345,-419v78,0,144,18,190,59v65,58,65,143,65,228r0,365r-79,0r0,-52v-115,102,-277,58,-278,-170v0,-208,140,-243,213,-243v23,0,44,4,62,11xm528,-483v-91,0,-151,66,-151,183v0,170,109,202,192,124r0,-300v-13,-5,-27,-7,-41,-7","w":735},"A":{"d":"648,0r-100,0r-76,-202r-305,0r-74,202r-83,0r265,-725r100,0xm444,-277r-127,-336r-123,336r250,0","w":658},"B":{"d":"388,-381v134,30,186,118,186,197v0,55,-21,103,-65,134v-107,77,-268,43,-429,50r0,-725v153,7,302,-27,403,48v48,36,66,88,66,133v0,65,-45,137,-161,163xm180,-75v135,1,292,18,294,-113v0,-43,-20,-82,-52,-110v-68,-58,-144,-44,-242,-46r0,269xm247,-419v91,9,203,-31,202,-124v0,-27,-10,-58,-38,-79v-57,-44,-144,-24,-231,-28r0,231r67,0","w":615},"C":{"d":"35,-362v0,-238,129,-381,337,-381v70,0,146,16,218,43r0,85v-126,-52,-281,-90,-375,8v-60,62,-70,156,-70,245v0,88,10,182,70,244v104,106,263,53,375,-17r0,93v-69,39,-146,60,-222,60v-202,0,-333,-143,-333,-380","w":630},"D":{"d":"480,-157v88,-103,91,-302,7,-412v-84,-110,-168,-75,-307,-81r0,575v131,-3,213,19,300,-82xm557,-619v120,131,118,387,-6,513v-135,136,-270,100,-471,106r0,-725v206,8,345,-38,477,106","w":687},"E":{"d":"570,0r-490,0r0,-725r478,0r0,75r-378,0r0,224r305,0r0,75r-305,0r0,276r390,0r0,75","w":598},"F":{"d":"542,-650r-362,0r0,224r292,0r0,75r-292,0r0,351r-100,0r0,-725r462,0r0,75","w":582},"G":{"d":"35,-362v0,-240,139,-381,352,-381v75,0,155,17,231,44r0,83v-134,-50,-297,-89,-398,9v-63,62,-75,155,-75,245v0,89,12,182,75,244v73,72,188,73,298,39r0,-191r-93,0r0,-75r193,0r0,316v-77,26,-156,47,-235,47v-209,0,-348,-144,-348,-380","w":657},"H":{"d":"630,0r-100,0r0,-325r-350,0r0,325r-100,0r0,-725r100,0r0,325r350,0r0,-325r100,0r0,725"},"I":{"d":"180,0r-100,0r0,-725r100,0r0,725","w":260},"J":{"d":"148,-57v104,0,128,-92,128,-193r0,-475r100,0r0,454v0,86,-2,170,-56,230v-61,67,-205,73,-310,35r0,-83v44,15,93,32,138,32","w":456},"K":{"d":"592,0r-100,0r-273,-326r-39,44r0,282r-100,0r0,-725r100,0r0,324r291,-324r106,0r-306,341","w":615},"L":{"d":"538,0r-458,0r0,-725r100,0r0,650r358,0r0,75","w":548},"M":{"d":"752,0r-100,0r0,-613r-190,562r-100,0r-199,-561r0,612r-83,0r0,-725r143,0r197,554r187,-554r145,0r0,725","w":831},"N":{"d":"163,0r-83,0r0,-725r100,0r367,591r0,-591r83,0r0,725r-100,0r-367,-591r0,591"},"O":{"d":"623,-363v0,-89,-12,-183,-76,-245v-85,-82,-241,-82,-326,0v-64,62,-76,156,-76,245v0,90,12,184,76,246v85,82,241,82,326,0v64,-62,76,-156,76,-246xm384,-743v209,0,349,145,349,380v0,239,-142,381,-349,381v-211,0,-349,-146,-349,-381v0,-235,140,-380,349,-380","w":767},"P":{"d":"532,-671v103,81,94,235,-4,321v-92,81,-208,58,-348,61r0,289r-100,0r0,-725v170,8,343,-32,452,54xm180,-364v110,-6,209,24,277,-41v61,-59,66,-158,2,-211v-66,-55,-174,-29,-279,-34r0,286","w":632},"Q":{"d":"533,-105v71,-56,90,-154,90,-258v0,-89,-12,-183,-76,-245v-85,-82,-241,-82,-326,0v-64,62,-76,156,-76,245v0,90,12,184,76,246v61,59,155,75,247,47v-35,-62,-79,-97,-132,-111r19,-73v90,25,155,97,178,149xm384,-743v209,0,349,145,349,380v0,149,-58,273,-165,335v41,72,97,108,160,108r0,75v-109,0,-196,-81,-228,-154v-263,70,-465,-87,-465,-364v0,-235,140,-380,349,-380","w":767},"R":{"d":"568,-513v0,43,-10,180,-183,214r241,299r-116,0r-234,-289r-96,0r0,289r-100,0r0,-725v161,7,317,-27,420,55v50,40,68,99,68,157xm180,-364v95,-2,181,14,242,-39v62,-54,66,-157,5,-212v-59,-54,-151,-31,-247,-35r0,286","w":629},"S":{"d":"562,-199v0,233,-330,268,-522,157r0,-93v81,45,169,78,255,78v85,0,167,-33,167,-118v0,-70,-55,-110,-165,-145r-45,-15v-166,-55,-212,-103,-212,-191v0,-224,286,-259,472,-174r0,85v-68,-27,-138,-53,-212,-53v-77,0,-160,28,-160,114v0,66,49,84,167,123r46,14v152,50,209,123,209,218","w":602},"T":{"d":"578,-650r-234,0r0,650r-100,0r0,-650r-234,0r0,-75r568,0r0,75","w":587},"U":{"d":"630,-277v0,86,1,173,-71,232v-105,87,-303,87,-408,1v-73,-59,-71,-147,-71,-233r0,-448r100,0r0,466v0,58,-1,118,46,159v66,59,193,59,259,0v46,-41,45,-101,45,-159r0,-466r100,0r0,448"},"V":{"d":"336,-114r219,-611r83,0r-260,725r-100,0r-268,-725r100,0","w":648},"W":{"d":"926,-725r-173,725r-124,0r-163,-573r-149,573r-126,0r-181,-725r100,0r153,613r159,-613r100,0r175,612r146,-612r83,0","w":936},"X":{"d":"645,0r-114,0r-211,-293r-218,293r-101,0r270,-361r-263,-364r114,0r206,286r213,-286r100,0r-263,354","w":648},"Y":{"d":"373,0r-100,0r0,-290r-263,-435r100,0r221,365r214,-365r83,0r-255,435r0,290","w":638},"Z":{"d":"574,0r-534,0r0,-93r432,-557r-416,0r0,-75r518,0r0,93r-432,557r432,0r0,75","w":613},"[":{"d":"258,129r-218,0r0,-888r218,0r0,72r-123,0r0,744r123,0r0,72","w":268},"\\":{"d":"279,129r-81,0r-199,-888r81,0","w":278},"]":{"d":"228,-759r0,888r-218,0r0,-72r123,0r0,-744r-123,0r0,-72r218,0","w":268},"^":{"d":"501,-362r-89,0r-155,-281r-155,281r-89,0r200,-361r88,0","w":515},"_":{"d":"500,71r-500,0r0,-71r500,0r0,71","w":500},"`":{"d":"170,-593r-59,1r-72,-131r0,-47r95,-1v-4,75,24,119,36,178","w":222},"a":{"d":"42,-134v0,-149,172,-177,320,-175v-2,-91,15,-162,-110,-162v-58,0,-118,15,-175,39r0,-73v60,-26,124,-37,188,-37v191,0,192,105,192,209r0,333r-95,0r0,-70v-48,48,-107,82,-174,82v-89,0,-146,-61,-146,-146xm362,-252v-102,-4,-225,15,-225,113v0,48,33,80,85,80v54,0,100,-34,140,-77r0,-116","w":522},"b":{"d":"505,-303v0,146,-56,315,-278,315v-41,0,-100,-5,-152,-29r0,-753r95,0r0,315v38,-52,95,-87,163,-87v77,0,172,44,172,239xm231,-59v135,0,169,-112,169,-231v0,-139,-44,-181,-101,-181v-58,0,-106,42,-129,98r0,307v20,5,40,7,61,7","w":542},"c":{"d":"137,-265v0,126,50,206,162,206v50,0,105,-16,159,-32r0,77v-54,16,-110,26,-159,26v-159,0,-257,-97,-257,-277v0,-179,97,-277,258,-277v48,0,104,8,158,22r0,75v-54,-13,-110,-26,-157,-26v-114,0,-164,79,-164,206","w":499},"d":{"d":"37,-249v0,-234,150,-293,278,-293v16,0,36,1,57,4r0,-232r95,0r0,770r-95,0r0,-65v-35,46,-86,77,-146,77v-89,0,-189,-67,-189,-261xm372,-464v-139,-27,-229,28,-230,208v0,139,53,197,117,197v53,0,95,-40,113,-92r0,-313","w":542},"e":{"d":"147,-325r248,0v-8,-97,-54,-146,-117,-146v-60,0,-115,44,-131,146xm309,12v-170,0,-272,-88,-272,-281v0,-207,131,-273,236,-273v117,0,235,94,218,288r-349,0v-2,233,170,211,338,169r0,71v-58,17,-117,26,-171,26","w":534},"f":{"d":"95,-530v2,-165,33,-252,170,-252v34,0,60,6,85,14r0,73v-22,-7,-47,-16,-74,-16v-85,0,-86,86,-86,181r95,0r0,71r-95,0r0,459r-95,0r0,-459r-71,0r0,-71r71,0","w":340},"g":{"d":"252,-231v93,0,111,-54,111,-120v0,-69,-22,-120,-111,-120v-97,0,-110,65,-110,120v0,69,20,120,110,120xm37,-351v0,-78,53,-191,215,-191v39,0,79,7,113,24v33,-36,77,-60,126,-60r0,72v-29,0,-57,5,-81,18v112,120,62,326,-158,329v-23,0,-46,-3,-69,-9v-46,52,6,81,80,95r93,18v59,11,144,31,144,120v0,103,-132,129,-263,129v-47,0,-123,-4,-195,-23r0,-83v83,23,168,34,244,34v62,0,120,-8,120,-50v0,-41,-60,-48,-76,-51r-94,-18v-57,-11,-148,-31,-148,-114v0,-31,16,-59,39,-80v-59,-35,-90,-98,-90,-160","w":515},"h":{"d":"396,-347v0,-69,-2,-124,-74,-124v-65,0,-117,48,-152,109r0,362r-95,0r0,-770r95,0r0,324v48,-57,112,-96,188,-96v135,0,133,121,133,213r0,329r-95,0r0,-347","w":565},"i":{"d":"170,-630r-95,0r0,-95r95,0r0,95xm170,0r-95,0r0,-530r95,0r0,530","w":245},"j":{"d":"169,-630r-95,0r0,-95r95,0r0,95xm1,134v73,0,73,-69,73,-146r0,-518r95,0r0,490v0,128,0,245,-154,245v-37,0,-64,-7,-90,-16r0,-74v23,9,49,19,76,19","w":245},"k":{"d":"477,0r-96,0r-181,-227r-30,36r0,191r-95,0r0,-770r95,0r0,461r183,-221r99,0r-196,235","w":492},"l":{"d":"170,0r-95,0r0,-770r95,0r0,770","w":245},"m":{"d":"369,-346v5,-61,-14,-125,-75,-125v-56,0,-98,41,-124,94r0,377r-95,0r0,-530r95,0r0,64v40,-46,94,-76,157,-76v52,0,105,20,125,90v41,-54,98,-90,167,-90v139,0,136,131,136,214r0,328r-95,0r0,-346v0,-58,0,-125,-74,-125v-56,0,-98,41,-124,94r1,377r-94,0r0,-346","w":830},"n":{"d":"396,-347v0,-69,-2,-124,-74,-124v-65,0,-117,48,-152,109r0,362r-95,0r0,-530r95,0r0,84v48,-57,112,-96,188,-96v135,0,133,121,133,213r0,329r-95,0r0,-347","w":565},"o":{"d":"416,-265v0,-60,-5,-123,-46,-168v-47,-50,-135,-50,-182,0v-41,45,-46,108,-46,168v0,60,5,123,46,168v47,50,135,50,182,0v41,-45,46,-108,46,-168xm279,-542v145,0,242,109,242,277v0,167,-95,277,-242,277v-145,0,-242,-109,-242,-277v0,-167,95,-277,242,-277","w":559},"p":{"d":"505,-303v0,146,-56,315,-278,315v-17,0,-36,0,-57,-3r0,184r-95,0r0,-723r95,0r0,75v38,-52,95,-87,163,-87v77,0,172,44,172,239xm231,-59v135,0,169,-112,169,-231v0,-139,-44,-181,-101,-181v-58,0,-106,42,-129,98r0,307v20,5,40,7,61,7","w":542},"q":{"d":"37,-249v0,-234,150,-293,278,-293v38,0,98,5,152,29r0,706r-95,0r0,-258v-35,46,-86,77,-146,77v-89,0,-189,-67,-189,-261xm372,-464v-139,-27,-229,28,-230,208v0,139,53,197,117,197v53,0,95,-40,113,-92r0,-313","w":542},"r":{"d":"398,-450v-111,-28,-197,32,-228,122r0,328r-95,0r0,-530r95,0r0,101v45,-78,116,-128,228,-109r0,88","w":410},"s":{"d":"444,-159v0,101,-87,171,-221,171v-33,0,-102,-3,-164,-31r0,-77v62,27,130,37,174,37v72,0,116,-31,116,-80v0,-79,-101,-82,-163,-105v-69,-26,-127,-74,-127,-145v0,-92,95,-153,208,-153v41,0,92,8,142,22r0,76v-50,-14,-100,-27,-145,-27v-58,0,-111,21,-111,66v0,67,105,74,162,95v67,25,129,66,129,151","w":485},"t":{"d":"190,-173v0,63,1,114,64,114v19,0,47,-4,68,-8r0,71v-31,5,-62,8,-89,8v-134,0,-138,-77,-138,-203r0,-268r-71,0r0,-71r71,0r0,-120r95,0r0,120r132,0r0,71r-132,0r0,286","w":334},"u":{"d":"170,-185v0,62,1,126,75,126v65,0,116,-47,151,-108r0,-363r95,0r0,530r-95,0r0,-84v-48,57,-111,96,-185,96v-139,0,-136,-131,-136,-215r0,-327r95,0r0,345","w":565},"v":{"d":"259,-110r146,-420r79,0r-185,530r-95,0r-194,-530r95,0","w":495},"w":{"d":"710,-530r-132,530r-109,0r-103,-386r-108,386r-105,0r-143,-530r85,0r114,424r118,-424r85,0r114,424r105,-424r79,0","w":720},"x":{"d":"484,0r-95,0r-148,-209r-145,209r-93,0r191,-275r-180,-255r95,0r144,203r141,-203r93,0r-188,269","w":495},"y":{"d":"484,-530r-253,723r-79,0r59,-168r-201,-555r95,0r154,418r146,-418r79,0","w":495},"z":{"d":"458,0r-416,0r0,-80r312,-379r-300,0r0,-71r404,0r0,80r-312,379r312,0r0,71","w":499},"{":{"d":"113,-315v24,19,52,57,52,82r0,204v2,57,45,95,113,86r0,72v-112,10,-191,-61,-191,-158r0,-198v-14,-31,-43,-52,-77,-52r0,-72v34,0,63,-21,77,-52r0,-198v3,-96,80,-168,191,-158r0,72v-68,-8,-113,28,-113,86r0,204v0,25,-26,62,-52,82","w":287},"|":{"d":"158,129r-78,0r0,-888r78,0r0,888","w":238},"}":{"d":"175,-315v-24,-19,-52,-57,-52,-82r0,-204v-2,-57,-45,-95,-113,-86r0,-72v112,-10,191,61,191,158r0,198v14,31,43,52,77,52r0,72v-34,0,-63,21,-77,52r0,198v-3,96,-80,168,-191,158r0,-72v68,8,113,-28,113,-86r0,-204v0,-25,26,-62,52,-82","w":287},"~":{"d":"179,-384v94,0,144,107,210,107v42,0,50,-48,50,-89r95,0v0,87,-61,160,-139,160v-94,0,-144,-107,-210,-107v-42,0,-50,48,-50,89r-95,0v0,-87,61,-160,139,-160","w":575},"\u00a0":{"w":250},"\u00a8":{"d":"497,-630r-95,0r0,-95r95,0r0,95xm308,-630r-95,0r0,-95r95,0r0,95"},"\u00af":{"d":"497,-630r-284,0r0,-71r284,0r0,71"},"\u00b4":{"d":"230,-761r-114,160r-57,0r76,-160r95,0","w":270},"\u00c0":{"d":"373,-796r-57,0r-114,-160r95,0xm648,0r-100,0r-76,-202r-305,0r-74,202r-83,0r265,-725r100,0xm444,-277r-127,-336r-123,336r250,0","w":658},"\u00c1":{"d":"430,-956r-114,160r-57,0r76,-160r95,0xm648,0r-100,0r-76,-202r-305,0r-74,202r-83,0r265,-725r100,0xm444,-277r-127,-336r-123,336r250,0","w":658},"\u00c2":{"d":"473,-796r-76,0r-81,-90r-81,90r-76,0r110,-142r94,0xm648,0r-100,0r-76,-202r-305,0r-74,202r-83,0r265,-725r100,0xm444,-277r-127,-336r-123,336r250,0","w":658},"\u00c4":{"d":"458,-825r-95,0r0,-95r95,0r0,95xm269,-825r-95,0r0,-95r95,0r0,95xm648,0r-100,0r-76,-202r-305,0r-74,202r-83,0r265,-725r100,0xm444,-277r-127,-336r-123,336r250,0","w":658},"\u00c5":{"d":"373,-894v0,-32,-26,-57,-57,-57v-31,0,-57,25,-57,57v0,31,26,56,57,56v31,0,57,-25,57,-56xm430,-894v0,59,-53,104,-114,104v-61,0,-114,-45,-114,-104v0,-60,53,-104,114,-104v61,0,114,44,114,104xm648,0r-100,0r-76,-202r-305,0r-74,202r-83,0r265,-725r100,0xm444,-277r-127,-336r-123,336r250,0","w":658},"\u00c8":{"d":"376,-796r-57,0r-114,-160r95,0xm570,0r-490,0r0,-725r478,0r0,75r-378,0r0,224r305,0r0,75r-305,0r0,276r390,0r0,75","w":598},"\u00c9":{"d":"433,-956r-114,160r-57,0r76,-160r95,0xm570,0r-490,0r0,-725r478,0r0,75r-378,0r0,224r305,0r0,75r-305,0r0,276r390,0r0,75","w":598},"\u00ca":{"d":"476,-796r-76,0r-81,-90r-81,90r-76,0r110,-142r94,0xm570,0r-490,0r0,-725r478,0r0,75r-378,0r0,224r305,0r0,75r-305,0r0,276r390,0r0,75","w":598},"\u00cb":{"d":"461,-825r-95,0r0,-95r95,0r0,95xm272,-825r-95,0r0,-95r95,0r0,95xm570,0r-490,0r0,-725r478,0r0,75r-378,0r0,224r305,0r0,75r-305,0r0,276r390,0r0,75","w":598},"\u00cc":{"d":"187,-796r-57,0r-114,-160r95,0xm180,0r-100,0r0,-725r100,0r0,725","w":260},"\u00cd":{"d":"244,-956r-114,160r-57,0r76,-160r95,0xm180,0r-100,0r0,-725r100,0r0,725","w":260},"\u00ce":{"d":"287,-796r-76,0r-81,-90r-81,90r-76,0r110,-142r94,0xm180,0r-100,0r0,-725r100,0r0,725","w":260},"\u00cf":{"d":"272,-825r-95,0r0,-95r95,0r0,95xm83,-825r-95,0r0,-95r95,0r0,95xm180,0r-100,0r0,-725r100,0r0,725","w":260},"\u00d0":{"d":"480,-157v88,-103,91,-302,7,-412v-84,-110,-168,-75,-307,-81r0,250r166,0r0,75r-166,0r0,250v131,-3,213,19,300,-82xm557,-619v120,131,118,387,-6,513v-135,136,-270,100,-471,106r0,-325r-72,0r0,-75r72,0r0,-325v206,8,345,-38,477,106","w":687},"\u00d2":{"d":"441,-796r-57,0r-114,-160r95,0xm623,-363v0,-89,-12,-183,-76,-245v-85,-82,-241,-82,-326,0v-64,62,-76,156,-76,245v0,90,12,184,76,246v85,82,241,82,326,0v64,-62,76,-156,76,-246xm384,-743v209,0,349,145,349,380v0,239,-142,381,-349,381v-211,0,-349,-146,-349,-381v0,-235,140,-380,349,-380","w":767},"\u00d3":{"d":"498,-956r-114,160r-57,0r76,-160r95,0xm623,-363v0,-89,-12,-183,-76,-245v-85,-82,-241,-82,-326,0v-64,62,-76,156,-76,245v0,90,12,184,76,246v85,82,241,82,326,0v64,-62,76,-156,76,-246xm384,-743v209,0,349,145,349,380v0,239,-142,381,-349,381v-211,0,-349,-146,-349,-381v0,-235,140,-380,349,-380","w":767},"\u00d4":{"d":"541,-796r-76,0r-81,-90r-81,90r-76,0r110,-142r94,0xm623,-363v0,-89,-12,-183,-76,-245v-85,-82,-241,-82,-326,0v-64,62,-76,156,-76,245v0,90,12,184,76,246v85,82,241,82,326,0v64,-62,76,-156,76,-246xm384,-743v209,0,349,145,349,380v0,239,-142,381,-349,381v-211,0,-349,-146,-349,-381v0,-235,140,-380,349,-380","w":767},"\u00d6":{"d":"526,-825r-95,0r0,-95r95,0r0,95xm337,-825r-95,0r0,-95r95,0r0,95xm623,-363v0,-89,-12,-183,-76,-245v-85,-82,-241,-82,-326,0v-64,62,-76,156,-76,245v0,90,12,184,76,246v85,82,241,82,326,0v64,-62,76,-156,76,-246xm384,-743v209,0,349,145,349,380v0,239,-142,381,-349,381v-211,0,-349,-146,-349,-381v0,-235,140,-380,349,-380","w":767},"\u00d9":{"d":"412,-796r-57,0r-114,-160r95,0xm630,-277v0,86,1,173,-71,232v-105,87,-303,87,-408,1v-73,-59,-71,-147,-71,-233r0,-448r100,0r0,466v0,58,-1,118,46,159v66,59,193,59,259,0v46,-41,45,-101,45,-159r0,-466r100,0r0,448"},"\u00da":{"d":"469,-956r-114,160r-57,0r76,-160r95,0xm630,-277v0,86,1,173,-71,232v-105,87,-303,87,-408,1v-73,-59,-71,-147,-71,-233r0,-448r100,0r0,466v0,58,-1,118,46,159v66,59,193,59,259,0v46,-41,45,-101,45,-159r0,-466r100,0r0,448"},"\u00db":{"d":"512,-796r-76,0r-81,-90r-81,90r-76,0r110,-142r94,0xm630,-277v0,86,1,173,-71,232v-105,87,-303,87,-408,1v-73,-59,-71,-147,-71,-233r0,-448r100,0r0,466v0,58,-1,118,46,159v66,59,193,59,259,0v46,-41,45,-101,45,-159r0,-466r100,0r0,448"},"\u00dc":{"d":"497,-825r-95,0r0,-95r95,0r0,95xm308,-825r-95,0r0,-95r95,0r0,95xm630,-277v0,86,1,173,-71,232v-105,87,-303,87,-408,1v-73,-59,-71,-147,-71,-233r0,-448r100,0r0,466v0,58,-1,118,46,159v66,59,193,59,259,0v46,-41,45,-101,45,-159r0,-466r100,0r0,448"},"\u00dd":{"d":"433,-956r-114,160r-57,0r76,-160r95,0xm373,0r-100,0r0,-290r-263,-435r100,0r221,365r214,-365r83,0r-255,435r0,290","w":638},"\u00de":{"d":"180,0r-100,0r0,-725r100,0r0,138v137,3,263,-18,352,54v102,83,94,234,-4,321v-92,81,-208,58,-348,61r0,151xm180,-512r0,286r161,0v124,0,161,-88,161,-153v0,-66,-39,-133,-161,-133r-161,0","w":632},"\u00df":{"d":"497,-628v0,116,-144,172,-144,240v1,44,68,68,108,88v63,30,115,64,115,143v0,96,-77,169,-198,169v-29,0,-89,-2,-141,-29r0,-81v53,27,111,39,149,39v62,0,95,-35,95,-71v0,-58,-79,-80,-127,-103v-57,-28,-96,-82,-96,-142v0,-122,144,-164,144,-251v0,-85,-139,-110,-198,-55v-33,30,-34,71,-34,113r0,568r-95,0r0,-550v0,-69,1,-137,58,-184v111,-93,364,-43,364,106","w":617},"\u00e0":{"d":"317,-601r-57,0r-114,-160r95,0xm42,-134v0,-149,172,-177,320,-175v-2,-91,15,-162,-110,-162v-58,0,-118,15,-175,39r0,-73v60,-26,124,-37,188,-37v191,0,192,105,192,209r0,333r-95,0r0,-70v-48,48,-107,82,-174,82v-89,0,-146,-61,-146,-146xm362,-252v-102,-4,-225,15,-225,113v0,48,33,80,85,80v54,0,100,-34,140,-77r0,-116","w":522},"\u00e1":{"d":"374,-761r-114,160r-57,0r76,-160r95,0xm42,-134v0,-149,172,-177,320,-175v-2,-91,15,-162,-110,-162v-58,0,-118,15,-175,39r0,-73v60,-26,124,-37,188,-37v191,0,192,105,192,209r0,333r-95,0r0,-70v-48,48,-107,82,-174,82v-89,0,-146,-61,-146,-146xm362,-252v-102,-4,-225,15,-225,113v0,48,33,80,85,80v54,0,100,-34,140,-77r0,-116","w":522},"\u00e2":{"d":"417,-601r-76,0r-81,-90r-81,90r-76,0r110,-142r94,0xm42,-134v0,-149,172,-177,320,-175v-2,-91,15,-162,-110,-162v-58,0,-118,15,-175,39r0,-73v60,-26,124,-37,188,-37v191,0,192,105,192,209r0,333r-95,0r0,-70v-48,48,-107,82,-174,82v-89,0,-146,-61,-146,-146xm362,-252v-102,-4,-225,15,-225,113v0,48,33,80,85,80v54,0,100,-34,140,-77r0,-116","w":522},"\u00e4":{"d":"402,-630r-95,0r0,-95r95,0r0,95xm213,-630r-95,0r0,-95r95,0r0,95xm42,-134v0,-149,172,-177,320,-175v-2,-91,15,-162,-110,-162v-58,0,-118,15,-175,39r0,-73v60,-26,124,-37,188,-37v191,0,192,105,192,209r0,333r-95,0r0,-70v-48,48,-107,82,-174,82v-89,0,-146,-61,-146,-146xm362,-252v-102,-4,-225,15,-225,113v0,48,33,80,85,80v54,0,100,-34,140,-77r0,-116","w":522},"\u00e5":{"d":"317,-699v0,-32,-26,-57,-57,-57v-31,0,-57,25,-57,57v0,31,26,56,57,56v31,0,57,-25,57,-56xm374,-699v0,59,-53,104,-114,104v-61,0,-114,-45,-114,-104v0,-60,53,-104,114,-104v61,0,114,44,114,104xm42,-134v0,-149,172,-177,320,-175v-2,-91,15,-162,-110,-162v-58,0,-118,15,-175,39r0,-73v60,-26,124,-37,188,-37v191,0,192,105,192,209r0,333r-95,0r0,-70v-48,48,-107,82,-174,82v-89,0,-146,-61,-146,-146xm362,-252v-102,-4,-225,15,-225,113v0,48,33,80,85,80v54,0,100,-34,140,-77r0,-116","w":522},"\u00e8":{"d":"342,-601r-57,0r-114,-160r95,0xm147,-325r248,0v-8,-97,-54,-146,-117,-146v-60,0,-115,44,-131,146xm309,12v-170,0,-272,-88,-272,-281v0,-207,131,-273,236,-273v117,0,235,94,218,288r-349,0v-2,233,170,211,338,169r0,71v-58,17,-117,26,-171,26","w":534},"\u00e9":{"d":"399,-761r-114,160r-57,0r76,-160r95,0xm147,-325r248,0v-8,-97,-54,-146,-117,-146v-60,0,-115,44,-131,146xm309,12v-170,0,-272,-88,-272,-281v0,-207,131,-273,236,-273v117,0,235,94,218,288r-349,0v-2,233,170,211,338,169r0,71v-58,17,-117,26,-171,26","w":534},"\u00ea":{"d":"442,-601r-76,0r-81,-90r-81,90r-76,0r110,-142r94,0xm147,-325r248,0v-8,-97,-54,-146,-117,-146v-60,0,-115,44,-131,146xm309,12v-170,0,-272,-88,-272,-281v0,-207,131,-273,236,-273v117,0,235,94,218,288r-349,0v-2,233,170,211,338,169r0,71v-58,17,-117,26,-171,26","w":534},"\u00eb":{"d":"427,-630r-95,0r0,-95r95,0r0,95xm238,-630r-95,0r0,-95r95,0r0,95xm147,-325r248,0v-8,-97,-54,-146,-117,-146v-60,0,-115,44,-131,146xm309,12v-170,0,-272,-88,-272,-281v0,-207,131,-273,236,-273v117,0,235,94,218,288r-349,0v-2,233,170,211,338,169r0,71v-58,17,-117,26,-171,26","w":534},"\u00ec":{"d":"180,-601r-57,0r-114,-160r95,0xm170,0r-95,0r0,-530r95,0r0,530","w":245},"\u00ed":{"d":"236,-761r-114,160r-57,0r76,-160r95,0xm170,0r-95,0r0,-530r95,0r0,530","w":245},"\u00ee":{"d":"279,-601r-76,0r-81,-90r-81,90r-76,0r110,-142r94,0xm170,0r-95,0r0,-530r95,0r0,530","w":245},"\u00ef":{"d":"264,-630r-95,0r0,-95r95,0r0,95xm75,-630r-95,0r0,-95r95,0r0,95xm170,0r-95,0r0,-530r95,0r0,530","w":245},"\u00f0":{"d":"516,-263v0,213,-124,275,-237,275v-113,0,-237,-62,-237,-274v0,-215,126,-273,230,-273v30,0,56,5,79,16v-22,-37,-49,-71,-80,-101r-128,46r-15,-42r104,-38v-36,-28,-75,-51,-119,-68r66,-39v49,20,94,46,134,78r129,-47r16,42r-107,39v103,99,165,237,165,386xm421,-265v0,-161,-58,-213,-136,-213v-85,0,-148,62,-148,210v0,150,65,209,142,209v77,0,142,-59,142,-206","w":559},"\u00f2":{"d":"336,-601r-57,0r-114,-160r95,0xm416,-265v0,-60,-5,-123,-46,-168v-47,-50,-135,-50,-182,0v-41,45,-46,108,-46,168v0,60,5,123,46,168v47,50,135,50,182,0v41,-45,46,-108,46,-168xm279,-542v145,0,242,109,242,277v0,167,-95,277,-242,277v-145,0,-242,-109,-242,-277v0,-167,95,-277,242,-277","w":559},"\u00f3":{"d":"393,-761r-114,160r-57,0r76,-160r95,0xm416,-265v0,-60,-5,-123,-46,-168v-47,-50,-135,-50,-182,0v-41,45,-46,108,-46,168v0,60,5,123,46,168v47,50,135,50,182,0v41,-45,46,-108,46,-168xm279,-542v145,0,242,109,242,277v0,167,-95,277,-242,277v-145,0,-242,-109,-242,-277v0,-167,95,-277,242,-277","w":559},"\u00f4":{"d":"436,-601r-76,0r-81,-90r-81,90r-76,0r110,-142r94,0xm416,-265v0,-60,-5,-123,-46,-168v-47,-50,-135,-50,-182,0v-41,45,-46,108,-46,168v0,60,5,123,46,168v47,50,135,50,182,0v41,-45,46,-108,46,-168xm279,-542v145,0,242,109,242,277v0,167,-95,277,-242,277v-145,0,-242,-109,-242,-277v0,-167,95,-277,242,-277","w":559},"\u00f6":{"d":"421,-630r-95,0r0,-95r95,0r0,95xm232,-630r-95,0r0,-95r95,0r0,95xm416,-265v0,-60,-5,-123,-46,-168v-47,-50,-135,-50,-182,0v-41,45,-46,108,-46,168v0,60,5,123,46,168v47,50,135,50,182,0v41,-45,46,-108,46,-168xm279,-542v145,0,242,109,242,277v0,167,-95,277,-242,277v-145,0,-242,-109,-242,-277v0,-167,95,-277,242,-277","w":559},"\u00f9":{"d":"340,-601r-57,0r-114,-160r95,0xm170,-185v0,62,1,126,75,126v65,0,116,-47,151,-108r0,-363r95,0r0,530r-95,0r0,-84v-48,57,-111,96,-185,96v-139,0,-136,-131,-136,-215r0,-327r95,0r0,345","w":565},"\u00fa":{"d":"397,-761r-114,160r-57,0r76,-160r95,0xm170,-185v0,62,1,126,75,126v65,0,116,-47,151,-108r0,-363r95,0r0,530r-95,0r0,-84v-48,57,-111,96,-185,96v-139,0,-136,-131,-136,-215r0,-327r95,0r0,345","w":565},"\u00fb":{"d":"440,-601r-76,0r-81,-90r-81,90r-76,0r110,-142r94,0xm170,-185v0,62,1,126,75,126v65,0,116,-47,151,-108r0,-363r95,0r0,530r-95,0r0,-84v-48,57,-111,96,-185,96v-139,0,-136,-131,-136,-215r0,-327r95,0r0,345","w":565},"\u00fc":{"d":"425,-630r-95,0r0,-95r95,0r0,95xm236,-630r-95,0r0,-95r95,0r0,95xm170,-185v0,62,1,126,75,126v65,0,116,-47,151,-108r0,-363r95,0r0,530r-95,0r0,-84v-48,57,-111,96,-185,96v-139,0,-136,-131,-136,-215r0,-327r95,0r0,345","w":565},"\u00fd":{"d":"361,-761r-114,160r-57,0r76,-160r95,0xm484,-530r-253,723r-79,0r59,-168r-201,-555r95,0r154,418r146,-418r79,0","w":495},"\u00fe":{"d":"505,-303v0,146,-56,315,-278,315v-17,0,-36,0,-57,-3r0,184r-95,0r0,-963r95,0r0,315v38,-52,95,-87,163,-87v77,0,172,44,172,239xm231,-59v135,0,169,-112,169,-231v0,-139,-44,-181,-101,-181v-58,0,-106,42,-129,98r0,307v20,5,40,7,61,7","w":542},"\u00ff":{"d":"389,-630r-95,0r0,-95r95,0r0,95xm200,-630r-95,0r0,-95r95,0r0,95xm484,-530r-253,723r-79,0r59,-168r-201,-555r95,0r154,418r146,-418r79,0","w":495},"\u0100":{"d":"458,-825r-284,0r0,-71r284,0r0,71xm648,0r-100,0r-76,-202r-305,0r-74,202r-83,0r265,-725r100,0xm444,-277r-127,-336r-123,336r250,0","w":658},"\u0101":{"d":"402,-630r-284,0r0,-71r284,0r0,71xm42,-134v0,-149,172,-177,320,-175v-2,-91,15,-162,-110,-162v-58,0,-118,15,-175,39r0,-73v60,-26,124,-37,188,-37v191,0,192,105,192,209r0,333r-95,0r0,-70v-48,48,-107,82,-174,82v-89,0,-146,-61,-146,-146xm362,-252v-102,-4,-225,15,-225,113v0,48,33,80,85,80v54,0,100,-34,140,-77r0,-116","w":522},"\u0102":{"d":"455,-903v0,64,-68,100,-139,100v-71,0,-139,-36,-139,-100r76,0v0,28,31,43,63,43v32,0,63,-15,63,-43r76,0xm648,0r-100,0r-76,-202r-305,0r-74,202r-83,0r265,-725r100,0xm444,-277r-127,-336r-123,336r250,0","w":658},"\u0103":{"d":"399,-708v0,64,-68,100,-139,100v-71,0,-139,-36,-139,-100r76,0v0,28,31,43,63,43v32,0,63,-15,63,-43r76,0xm42,-134v0,-149,172,-177,320,-175v-2,-91,15,-162,-110,-162v-58,0,-118,15,-175,39r0,-73v60,-26,124,-37,188,-37v191,0,192,105,192,209r0,333r-95,0r0,-70v-48,48,-107,82,-174,82v-89,0,-146,-61,-146,-146xm362,-252v-102,-4,-225,15,-225,113v0,48,33,80,85,80v54,0,100,-34,140,-77r0,-116","w":522},"\u0106":{"d":"479,-956r-114,160r-57,0r76,-160r95,0xm35,-362v0,-238,129,-381,337,-381v70,0,146,16,218,43r0,85v-126,-52,-281,-90,-375,8v-60,62,-70,156,-70,245v0,88,10,182,70,244v104,106,263,53,375,-17r0,93v-69,39,-146,60,-222,60v-202,0,-333,-143,-333,-380","w":630},"\u0107":{"d":"406,-761r-114,160r-57,0r76,-160r95,0xm137,-265v0,126,50,206,162,206v50,0,105,-16,159,-32r0,77v-54,16,-110,26,-159,26v-159,0,-257,-97,-257,-277v0,-179,97,-277,258,-277v48,0,104,8,158,22r0,75v-54,-13,-110,-26,-157,-26v-114,0,-164,79,-164,206","w":499},"\u0108":{"d":"522,-796r-76,0r-81,-90r-81,90r-76,0r110,-142r94,0xm35,-362v0,-238,129,-381,337,-381v70,0,146,16,218,43r0,85v-126,-52,-281,-90,-375,8v-60,62,-70,156,-70,245v0,88,10,182,70,244v104,106,263,53,375,-17r0,93v-69,39,-146,60,-222,60v-202,0,-333,-143,-333,-380","w":630},"\u0109":{"d":"449,-601r-76,0r-81,-90r-81,90r-76,0r110,-142r94,0xm137,-265v0,126,50,206,162,206v50,0,105,-16,159,-32r0,77v-54,16,-110,26,-159,26v-159,0,-257,-97,-257,-277v0,-179,97,-277,258,-277v48,0,104,8,158,22r0,75v-54,-13,-110,-26,-157,-26v-114,0,-164,79,-164,206","w":499},"\u010a":{"d":"412,-825r-94,0r0,-95r94,0r0,95xm35,-362v0,-238,129,-381,337,-381v70,0,146,16,218,43r0,85v-126,-52,-281,-90,-375,8v-60,62,-70,156,-70,245v0,88,10,182,70,244v104,106,263,53,375,-17r0,93v-69,39,-146,60,-222,60v-202,0,-333,-143,-333,-380","w":630},"\u010b":{"d":"339,-630r-94,0r0,-95r94,0r0,95xm137,-265v0,126,50,206,162,206v50,0,105,-16,159,-32r0,77v-54,16,-110,26,-159,26v-159,0,-257,-97,-257,-277v0,-179,97,-277,258,-277v48,0,104,8,158,22r0,75v-54,-13,-110,-26,-157,-26v-114,0,-164,79,-164,206","w":499},"\u010c":{"d":"35,-362v0,-238,129,-381,337,-381v70,0,146,16,218,43r0,85v-126,-52,-281,-90,-375,8v-60,62,-70,156,-70,245v0,88,10,182,70,244v104,106,263,53,375,-17r0,93v-69,39,-146,60,-222,60v-202,0,-333,-143,-333,-380xm365,-848r81,-90r76,0r-110,142r-94,0r-110,-142r76,0","w":630},"\u010d":{"d":"137,-265v0,126,50,206,162,206v50,0,105,-16,159,-32r0,77v-54,16,-110,26,-159,26v-159,0,-257,-97,-257,-277v0,-179,97,-277,258,-277v48,0,104,8,158,22r0,75v-54,-13,-110,-26,-157,-26v-114,0,-164,79,-164,206xm292,-653r81,-90r76,0r-110,142r-94,0r-110,-142r76,0","w":499},"\u010e":{"d":"480,-157v88,-103,91,-302,7,-412v-84,-110,-168,-75,-307,-81r0,575v131,-3,213,19,300,-82xm557,-619v120,131,118,387,-6,513v-135,136,-270,100,-471,106r0,-725v206,8,345,-38,477,106xm344,-848r81,-90r76,0r-110,142r-94,0r-110,-142r76,0","w":687},"\u010f":{"d":"37,-249v0,-234,150,-293,278,-293v16,0,36,1,57,4r0,-232r95,0r0,770r-95,0r0,-65v-35,46,-86,77,-146,77v-89,0,-189,-67,-189,-261xm271,-893r81,-90r76,0r-110,142r-94,0r-110,-142r76,0xm372,-464v-139,-27,-229,28,-230,208v0,139,53,197,117,197v53,0,95,-40,113,-92r0,-313","w":542},"\u0112":{"d":"461,-825r-284,0r0,-71r284,0r0,71xm570,0r-490,0r0,-725r478,0r0,75r-378,0r0,224r305,0r0,75r-305,0r0,276r390,0r0,75","w":598},"\u0113":{"d":"427,-630r-284,0r0,-71r284,0r0,71xm147,-325r248,0v-8,-97,-54,-146,-117,-146v-60,0,-115,44,-131,146xm309,12v-170,0,-272,-88,-272,-281v0,-207,131,-273,236,-273v117,0,235,94,218,288r-349,0v-2,233,170,211,338,169r0,71v-58,17,-117,26,-171,26","w":534},"\u0114":{"d":"458,-903v0,64,-68,100,-139,100v-71,0,-139,-36,-139,-100r76,0v0,28,31,43,63,43v32,0,63,-15,63,-43r76,0xm570,0r-490,0r0,-725r478,0r0,75r-378,0r0,224r305,0r0,75r-305,0r0,276r390,0r0,75","w":598},"\u0115":{"d":"424,-708v0,64,-68,100,-139,100v-71,0,-139,-36,-139,-100r76,0v0,28,31,43,63,43v32,0,63,-15,63,-43r76,0xm147,-325r248,0v-8,-97,-54,-146,-117,-146v-60,0,-115,44,-131,146xm309,12v-170,0,-272,-88,-272,-281v0,-207,131,-273,236,-273v117,0,235,94,218,288r-349,0v-2,233,170,211,338,169r0,71v-58,17,-117,26,-171,26","w":534},"\u0116":{"d":"366,-825r-94,0r0,-95r94,0r0,95xm570,0r-490,0r0,-725r478,0r0,75r-378,0r0,224r305,0r0,75r-305,0r0,276r390,0r0,75","w":598},"\u0117":{"d":"331,-630r-94,0r0,-95r94,0r0,95xm147,-325r248,0v-8,-97,-54,-146,-117,-146v-60,0,-115,44,-131,146xm309,12v-170,0,-272,-88,-272,-281v0,-207,131,-273,236,-273v117,0,235,94,218,288r-349,0v-2,233,170,211,338,169r0,71v-58,17,-117,26,-171,26","w":534},"\u011a":{"d":"570,0r-490,0r0,-725r478,0r0,75r-378,0r0,224r305,0r0,75r-305,0r0,276r390,0r0,75xm319,-848r81,-90r76,0r-110,142r-94,0r-110,-142r76,0","w":598},"\u011b":{"d":"285,-653r81,-90r76,0r-110,142r-94,0r-110,-142r76,0xm147,-325r248,0v-8,-97,-54,-146,-117,-146v-60,0,-115,44,-131,146xm309,12v-170,0,-272,-88,-272,-281v0,-207,131,-273,236,-273v117,0,235,94,218,288r-349,0v-2,233,170,211,338,169r0,71v-58,17,-117,26,-171,26","w":534},"\u011c":{"d":"537,-796r-76,0r-81,-90r-81,90r-76,0r110,-142r94,0xm35,-362v0,-240,139,-381,352,-381v75,0,155,17,231,44r0,83v-134,-50,-297,-89,-398,9v-63,62,-75,155,-75,245v0,89,12,182,75,244v73,72,188,73,298,39r0,-191r-93,0r0,-75r193,0r0,316v-77,26,-156,47,-235,47v-209,0,-348,-144,-348,-380","w":657},"\u011d":{"d":"414,-601r-76,0r-81,-90r-81,90r-76,0r110,-142r94,0xm252,-231v93,0,111,-54,111,-120v0,-69,-22,-120,-111,-120v-97,0,-110,65,-110,120v0,69,20,120,110,120xm37,-351v0,-78,53,-191,215,-191v39,0,79,7,113,24v33,-36,77,-60,126,-60r0,72v-29,0,-57,5,-81,18v112,120,62,326,-158,329v-23,0,-46,-3,-69,-9v-46,52,6,81,80,95r93,18v59,11,144,31,144,120v0,103,-132,129,-263,129v-47,0,-123,-4,-195,-23r0,-83v83,23,168,34,244,34v62,0,120,-8,120,-50v0,-41,-60,-48,-76,-51r-94,-18v-57,-11,-148,-31,-148,-114v0,-31,16,-59,39,-80v-59,-35,-90,-98,-90,-160","w":515},"\u0120":{"d":"427,-825r-94,0r0,-95r94,0r0,95xm35,-362v0,-240,139,-381,352,-381v75,0,155,17,231,44r0,83v-134,-50,-297,-89,-398,9v-63,62,-75,155,-75,245v0,89,12,182,75,244v73,72,188,73,298,39r0,-191r-93,0r0,-75r193,0r0,316v-77,26,-156,47,-235,47v-209,0,-348,-144,-348,-380","w":657},"\u0121":{"d":"304,-630r-94,0r0,-95r94,0r0,95xm252,-231v93,0,111,-54,111,-120v0,-69,-22,-120,-111,-120v-97,0,-110,65,-110,120v0,69,20,120,110,120xm37,-351v0,-78,53,-191,215,-191v39,0,79,7,113,24v33,-36,77,-60,126,-60r0,72v-29,0,-57,5,-81,18v112,120,62,326,-158,329v-23,0,-46,-3,-69,-9v-46,52,6,81,80,95r93,18v59,11,144,31,144,120v0,103,-132,129,-263,129v-47,0,-123,-4,-195,-23r0,-83v83,23,168,34,244,34v62,0,120,-8,120,-50v0,-41,-60,-48,-76,-51r-94,-18v-57,-11,-148,-31,-148,-114v0,-31,16,-59,39,-80v-59,-35,-90,-98,-90,-160","w":515},"\u0124":{"d":"512,-796r-76,0r-81,-90r-81,90r-76,0r110,-142r94,0xm630,0r-100,0r0,-325r-350,0r0,325r-100,0r0,-725r100,0r0,325r350,0r0,-325r100,0r0,725"},"\u0125":{"d":"440,-841r-76,0r-81,-90r-81,90r-76,0r110,-142r94,0xm396,-347v0,-69,-2,-124,-74,-124v-65,0,-117,48,-152,109r0,362r-95,0r0,-770r95,0r0,324v48,-57,112,-96,188,-96v135,0,133,121,133,213r0,329r-95,0r0,-347","w":565},"\u012a":{"d":"272,-825r-284,0r0,-71r284,0r0,71xm180,0r-100,0r0,-725r100,0r0,725","w":260},"\u012b":{"d":"264,-630r-284,0r0,-71r284,0r0,71xm170,0r-95,0r0,-530r95,0r0,530","w":245},"\u012c":{"d":"269,-903v0,64,-68,100,-139,100v-71,0,-139,-36,-139,-100r76,0v0,28,31,43,63,43v32,0,63,-15,63,-43r76,0xm180,0r-100,0r0,-725r100,0r0,725","w":260},"\u012d":{"d":"261,-708v0,64,-68,100,-139,100v-71,0,-139,-36,-139,-100r76,0v0,28,31,43,63,43v32,0,63,-15,63,-43r76,0xm170,0r-95,0r0,-530r95,0r0,530","w":245},"\u0130":{"d":"177,-825r-94,0r0,-95r94,0r0,95xm180,0r-100,0r0,-725r100,0r0,725","w":260},"\u0131":{"d":"170,0r-95,0r0,-530r95,0r0,530","w":245},"\u0134":{"d":"385,-796r-76,0r-81,-90r-81,90r-76,0r110,-142r94,0xm148,-57v104,0,128,-92,128,-193r0,-475r100,0r0,454v0,86,-2,170,-56,230v-61,67,-205,73,-310,35r0,-83v44,15,93,32,138,32","w":456},"\u0135":{"d":"279,-601r-76,0r-81,-90r-81,90r-76,0r110,-142r94,0xm1,134v73,0,73,-69,73,-146r0,-518r95,0r0,490v0,128,0,245,-154,245v-37,0,-64,-7,-90,-16r0,-74v23,9,49,19,76,19","w":245},"\u0139":{"d":"388,-956r-114,160r-57,0r76,-160r95,0xm538,0r-458,0r0,-725r100,0r0,650r358,0r0,75","w":548},"\u013a":{"d":"236,-1001r-114,160r-57,0r76,-160r95,0xm170,0r-95,0r0,-770r95,0r0,770","w":245},"\u013d":{"d":"538,0r-458,0r0,-725r100,0r0,650r358,0r0,75xm274,-848r81,-90r76,0r-110,142r-94,0r-110,-142r76,0","w":548},"\u013e":{"d":"170,0r-95,0r0,-770r95,0r0,770xm122,-893r81,-90r76,0r-110,142r-94,0r-110,-142r76,0","w":245},"\u0143":{"d":"469,-956r-114,160r-57,0r76,-160r95,0xm163,0r-83,0r0,-725r100,0r367,591r0,-591r83,0r0,725r-100,0r-367,-591r0,591"},"\u0144":{"d":"397,-761r-114,160r-57,0r76,-160r95,0xm396,-347v0,-69,-2,-124,-74,-124v-65,0,-117,48,-152,109r0,362r-95,0r0,-530r95,0r0,84v48,-57,112,-96,188,-96v135,0,133,121,133,213r0,329r-95,0r0,-347","w":565},"\u0147":{"d":"163,0r-83,0r0,-725r100,0r367,591r0,-591r83,0r0,725r-100,0r-367,-591r0,591xm355,-848r81,-90r76,0r-110,142r-94,0r-110,-142r76,0"},"\u0148":{"d":"396,-347v0,-69,-2,-124,-74,-124v-65,0,-117,48,-152,109r0,362r-95,0r0,-530r95,0r0,84v48,-57,112,-96,188,-96v135,0,133,121,133,213r0,329r-95,0r0,-347xm283,-653r81,-90r76,0r-110,142r-94,0r-110,-142r76,0","w":565},"\u014c":{"d":"526,-825r-284,0r0,-71r284,0r0,71xm623,-363v0,-89,-12,-183,-76,-245v-85,-82,-241,-82,-326,0v-64,62,-76,156,-76,245v0,90,12,184,76,246v85,82,241,82,326,0v64,-62,76,-156,76,-246xm384,-743v209,0,349,145,349,380v0,239,-142,381,-349,381v-211,0,-349,-146,-349,-381v0,-235,140,-380,349,-380","w":767},"\u014d":{"d":"421,-630r-284,0r0,-71r284,0r0,71xm416,-265v0,-60,-5,-123,-46,-168v-47,-50,-135,-50,-182,0v-41,45,-46,108,-46,168v0,60,5,123,46,168v47,50,135,50,182,0v41,-45,46,-108,46,-168xm279,-542v145,0,242,109,242,277v0,167,-95,277,-242,277v-145,0,-242,-109,-242,-277v0,-167,95,-277,242,-277","w":559},"\u014e":{"d":"523,-903v0,64,-68,100,-139,100v-71,0,-139,-36,-139,-100r76,0v0,28,31,43,63,43v32,0,63,-15,63,-43r76,0xm623,-363v0,-89,-12,-183,-76,-245v-85,-82,-241,-82,-326,0v-64,62,-76,156,-76,245v0,90,12,184,76,246v85,82,241,82,326,0v64,-62,76,-156,76,-246xm384,-743v209,0,349,145,349,380v0,239,-142,381,-349,381v-211,0,-349,-146,-349,-381v0,-235,140,-380,349,-380","w":767},"\u014f":{"d":"418,-708v0,64,-68,100,-139,100v-71,0,-139,-36,-139,-100r76,0v0,28,31,43,63,43v32,0,63,-15,63,-43r76,0xm416,-265v0,-60,-5,-123,-46,-168v-47,-50,-135,-50,-182,0v-41,45,-46,108,-46,168v0,60,5,123,46,168v47,50,135,50,182,0v41,-45,46,-108,46,-168xm279,-542v145,0,242,109,242,277v0,167,-95,277,-242,277v-145,0,-242,-109,-242,-277v0,-167,95,-277,242,-277","w":559},"\u0150":{"d":"408,-956r-114,160r-57,0r76,-160r95,0xm574,-956r-114,160r-57,0r76,-160r95,0xm623,-363v0,-89,-12,-183,-76,-245v-85,-82,-241,-82,-326,0v-64,62,-76,156,-76,245v0,90,12,184,76,246v85,82,241,82,326,0v64,-62,76,-156,76,-246xm384,-743v209,0,349,145,349,380v0,239,-142,381,-349,381v-211,0,-349,-146,-349,-381v0,-235,140,-380,349,-380","w":767},"\u0151":{"d":"303,-761r-114,160r-57,0r76,-160r95,0xm469,-761r-114,160r-57,0r76,-160r95,0xm416,-265v0,-60,-5,-123,-46,-168v-47,-50,-135,-50,-182,0v-41,45,-46,108,-46,168v0,60,5,123,46,168v47,50,135,50,182,0v41,-45,46,-108,46,-168xm279,-542v145,0,242,109,242,277v0,167,-95,277,-242,277v-145,0,-242,-109,-242,-277v0,-167,95,-277,242,-277","w":559},"\u0154":{"d":"428,-956r-114,160r-57,0r76,-160r95,0xm568,-513v0,43,-10,180,-183,214r241,299r-116,0r-234,-289r-96,0r0,289r-100,0r0,-725v161,7,317,-27,420,55v50,40,68,99,68,157xm180,-364v95,-2,181,14,242,-39v62,-54,66,-157,5,-212v-59,-54,-151,-31,-247,-35r0,286","w":629},"\u0155":{"d":"350,-761r-114,160r-57,0r76,-160r95,0xm398,-450v-111,-28,-197,32,-228,122r0,328r-95,0r0,-530r95,0r0,101v45,-78,116,-128,228,-109r0,88","w":410},"\u0158":{"d":"568,-513v0,43,-10,180,-183,214r241,299r-116,0r-234,-289r-96,0r0,289r-100,0r0,-725v161,7,317,-27,420,55v50,40,68,99,68,157xm314,-848r81,-90r76,0r-110,142r-94,0r-110,-142r76,0xm180,-364v95,-2,181,14,242,-39v62,-54,66,-157,5,-212v-59,-54,-151,-31,-247,-35r0,286","w":629},"\u0159":{"d":"398,-450v-111,-28,-197,32,-228,122r0,328r-95,0r0,-530r95,0r0,101v45,-78,116,-128,228,-109r0,88xm237,-653r81,-90r76,0r-110,142r-94,0r-110,-142r76,0","w":410},"\u015a":{"d":"415,-956r-114,160r-57,0r76,-160r95,0xm562,-199v0,233,-330,268,-522,157r0,-93v81,45,169,78,255,78v85,0,167,-33,167,-118v0,-70,-55,-110,-165,-145r-45,-15v-166,-55,-212,-103,-212,-191v0,-224,286,-259,472,-174r0,85v-68,-27,-138,-53,-212,-53v-77,0,-160,28,-160,114v0,66,49,84,167,123r46,14v152,50,209,123,209,218","w":602},"\u015b":{"d":"357,-761r-114,160r-57,0r76,-160r95,0xm444,-159v0,101,-87,171,-221,171v-33,0,-102,-3,-164,-31r0,-77v62,27,130,37,174,37v72,0,116,-31,116,-80v0,-79,-101,-82,-163,-105v-69,-26,-127,-74,-127,-145v0,-92,95,-153,208,-153v41,0,92,8,142,22r0,76v-50,-14,-100,-27,-145,-27v-58,0,-111,21,-111,66v0,67,105,74,162,95v67,25,129,66,129,151","w":485},"\u015c":{"d":"458,-796r-76,0r-81,-90r-81,90r-76,0r110,-142r94,0xm562,-199v0,233,-330,268,-522,157r0,-93v81,45,169,78,255,78v85,0,167,-33,167,-118v0,-70,-55,-110,-165,-145r-45,-15v-166,-55,-212,-103,-212,-191v0,-224,286,-259,472,-174r0,85v-68,-27,-138,-53,-212,-53v-77,0,-160,28,-160,114v0,66,49,84,167,123r46,14v152,50,209,123,209,218","w":602},"\u015d":{"d":"400,-601r-76,0r-81,-90r-81,90r-76,0r110,-142r94,0xm444,-159v0,101,-87,171,-221,171v-33,0,-102,-3,-164,-31r0,-77v62,27,130,37,174,37v72,0,116,-31,116,-80v0,-79,-101,-82,-163,-105v-69,-26,-127,-74,-127,-145v0,-92,95,-153,208,-153v41,0,92,8,142,22r0,76v-50,-14,-100,-27,-145,-27v-58,0,-111,21,-111,66v0,67,105,74,162,95v67,25,129,66,129,151","w":485},"\u0164":{"d":"578,-650r-234,0r0,650r-100,0r0,-650r-234,0r0,-75r568,0r0,75xm294,-848r81,-90r76,0r-110,142r-94,0r-110,-142r76,0","w":587},"\u0165":{"d":"190,-173v0,63,1,114,64,114v19,0,47,-4,68,-8r0,71v-31,5,-62,8,-89,8v-134,0,-138,-77,-138,-203r0,-268r-71,0r0,-71r71,0r0,-120r95,0r0,120r132,0r0,71r-132,0r0,286xm167,-893r81,-90r76,0r-110,142r-94,0r-110,-142r76,0","w":334},"\u016a":{"d":"497,-825r-284,0r0,-71r284,0r0,71xm630,-277v0,86,1,173,-71,232v-105,87,-303,87,-408,1v-73,-59,-71,-147,-71,-233r0,-448r100,0r0,466v0,58,-1,118,46,159v66,59,193,59,259,0v46,-41,45,-101,45,-159r0,-466r100,0r0,448"},"\u016b":{"d":"425,-630r-284,0r0,-71r284,0r0,71xm170,-185v0,62,1,126,75,126v65,0,116,-47,151,-108r0,-363r95,0r0,530r-95,0r0,-84v-48,57,-111,96,-185,96v-139,0,-136,-131,-136,-215r0,-327r95,0r0,345","w":565},"\u016c":{"d":"494,-903v0,64,-68,100,-139,100v-71,0,-139,-36,-139,-100r76,0v0,28,31,43,63,43v32,0,63,-15,63,-43r76,0xm630,-277v0,86,1,173,-71,232v-105,87,-303,87,-408,1v-73,-59,-71,-147,-71,-233r0,-448r100,0r0,466v0,58,-1,118,46,159v66,59,193,59,259,0v46,-41,45,-101,45,-159r0,-466r100,0r0,448"},"\u016d":{"d":"422,-708v0,64,-68,100,-139,100v-71,0,-139,-36,-139,-100r76,0v0,28,31,43,63,43v32,0,63,-15,63,-43r76,0xm170,-185v0,62,1,126,75,126v65,0,116,-47,151,-108r0,-363r95,0r0,530r-95,0r0,-84v-48,57,-111,96,-185,96v-139,0,-136,-131,-136,-215r0,-327r95,0r0,345","w":565},"\u016e":{"d":"412,-894v0,-32,-26,-57,-57,-57v-31,0,-57,25,-57,57v0,31,26,56,57,56v31,0,57,-25,57,-56xm469,-894v0,59,-53,104,-114,104v-61,0,-114,-45,-114,-104v0,-60,53,-104,114,-104v61,0,114,44,114,104xm630,-277v0,86,1,173,-71,232v-105,87,-303,87,-408,1v-73,-59,-71,-147,-71,-233r0,-448r100,0r0,466v0,58,-1,118,46,159v66,59,193,59,259,0v46,-41,45,-101,45,-159r0,-466r100,0r0,448"},"\u016f":{"d":"340,-699v0,-32,-26,-57,-57,-57v-31,0,-57,25,-57,57v0,31,26,56,57,56v31,0,57,-25,57,-56xm397,-699v0,59,-53,104,-114,104v-61,0,-114,-45,-114,-104v0,-60,53,-104,114,-104v61,0,114,44,114,104xm170,-185v0,62,1,126,75,126v65,0,116,-47,151,-108r0,-363r95,0r0,530r-95,0r0,-84v-48,57,-111,96,-185,96v-139,0,-136,-131,-136,-215r0,-327r95,0r0,345","w":565},"\u0170":{"d":"379,-956r-114,160r-57,0r76,-160r95,0xm545,-956r-114,160r-57,0r76,-160r95,0xm630,-277v0,86,1,173,-71,232v-105,87,-303,87,-408,1v-73,-59,-71,-147,-71,-233r0,-448r100,0r0,466v0,58,-1,118,46,159v66,59,193,59,259,0v46,-41,45,-101,45,-159r0,-466r100,0r0,448"},"\u0171":{"d":"306,-761r-114,160r-57,0r76,-160r95,0xm472,-761r-114,160r-57,0r76,-160r95,0xm170,-185v0,62,1,126,75,126v65,0,116,-47,151,-108r0,-363r95,0r0,530r-95,0r0,-84v-48,57,-111,96,-185,96v-139,0,-136,-131,-136,-215r0,-327r95,0r0,345","w":565},"\u0174":{"d":"625,-796r-76,0r-81,-90r-81,90r-76,0r110,-142r94,0xm926,-725r-173,725r-124,0r-163,-573r-149,573r-126,0r-181,-725r100,0r153,613r159,-613r100,0r175,612r146,-612r83,0","w":936},"\u0175":{"d":"517,-601r-76,0r-81,-90r-81,90r-76,0r110,-142r94,0xm710,-530r-132,530r-109,0r-103,-386r-108,386r-105,0r-143,-530r85,0r114,424r118,-424r85,0r114,424r105,-424r79,0","w":720},"\u0176":{"d":"476,-796r-76,0r-81,-90r-81,90r-76,0r110,-142r94,0xm373,0r-100,0r0,-290r-263,-435r100,0r221,365r214,-365r83,0r-255,435r0,290","w":638},"\u0177":{"d":"404,-601r-76,0r-81,-90r-81,90r-76,0r110,-142r94,0xm484,-530r-253,723r-79,0r59,-168r-201,-555r95,0r154,418r146,-418r79,0","w":495},"\u0178":{"d":"461,-825r-95,0r0,-95r95,0r0,95xm272,-825r-95,0r0,-95r95,0r0,95xm373,0r-100,0r0,-290r-263,-435r100,0r221,365r214,-365r83,0r-255,435r0,290","w":638},"\u0179":{"d":"421,-956r-114,160r-57,0r76,-160r95,0xm574,0r-534,0r0,-93r432,-557r-416,0r0,-75r518,0r0,93r-432,557r432,0r0,75","w":613},"\u017a":{"d":"364,-761r-114,160r-57,0r76,-160r95,0xm458,0r-416,0r0,-80r312,-379r-300,0r0,-71r404,0r0,80r-312,379r312,0r0,71","w":499},"\u017b":{"d":"353,-825r-94,0r0,-95r94,0r0,95xm574,0r-534,0r0,-93r432,-557r-416,0r0,-75r518,0r0,93r-432,557r432,0r0,75","w":613},"\u017c":{"d":"296,-630r-94,0r0,-95r94,0r0,95xm458,0r-416,0r0,-80r312,-379r-300,0r0,-71r404,0r0,80r-312,379r312,0r0,71","w":499},"\u017d":{"d":"574,0r-534,0r0,-93r432,-557r-416,0r0,-75r518,0r0,93r-432,557r432,0r0,75xm307,-848r81,-90r76,0r-110,142r-94,0r-110,-142r76,0","w":613},"\u017e":{"d":"458,0r-416,0r0,-80r312,-379r-300,0r0,-71r404,0r0,80r-312,379r312,0r0,71xm250,-653r81,-90r76,0r-110,142r-94,0r-110,-142r76,0","w":499},"\u01cd":{"d":"648,0r-100,0r-76,-202r-305,0r-74,202r-83,0r265,-725r100,0xm316,-848r81,-90r76,0r-110,142r-94,0r-110,-142r76,0xm444,-277r-127,-336r-123,336r250,0","w":658},"\u01ce":{"d":"42,-134v0,-149,172,-177,320,-175v-2,-91,15,-162,-110,-162v-58,0,-118,15,-175,39r0,-73v60,-26,124,-37,188,-37v191,0,192,105,192,209r0,333r-95,0r0,-70v-48,48,-107,82,-174,82v-89,0,-146,-61,-146,-146xm260,-653r81,-90r76,0r-110,142r-94,0r-110,-142r76,0xm362,-252v-102,-4,-225,15,-225,113v0,48,33,80,85,80v54,0,100,-34,140,-77r0,-116","w":522},"\u01cf":{"d":"180,0r-100,0r0,-725r100,0r0,725xm130,-848r81,-90r76,0r-110,142r-94,0r-110,-142r76,0","w":260},"\u01d0":{"d":"170,0r-95,0r0,-530r95,0r0,530xm122,-653r81,-90r76,0r-110,142r-94,0r-110,-142r76,0","w":245},"\u01d1":{"d":"623,-363v0,-89,-12,-183,-76,-245v-85,-82,-241,-82,-326,0v-64,62,-76,156,-76,245v0,90,12,184,76,246v85,82,241,82,326,0v64,-62,76,-156,76,-246xm384,-743v209,0,349,145,349,380v0,239,-142,381,-349,381v-211,0,-349,-146,-349,-381v0,-235,140,-380,349,-380xm384,-848r81,-90r76,0r-110,142r-94,0r-110,-142r76,0","w":767},"\u01d2":{"d":"416,-265v0,-60,-5,-123,-46,-168v-47,-50,-135,-50,-182,0v-41,45,-46,108,-46,168v0,60,5,123,46,168v47,50,135,50,182,0v41,-45,46,-108,46,-168xm279,-542v145,0,242,109,242,277v0,167,-95,277,-242,277v-145,0,-242,-109,-242,-277v0,-167,95,-277,242,-277xm279,-653r81,-90r76,0r-110,142r-94,0r-110,-142r76,0","w":559},"\u01d3":{"d":"630,-277v0,86,1,173,-71,232v-105,87,-303,87,-408,1v-73,-59,-71,-147,-71,-233r0,-448r100,0r0,466v0,58,-1,118,46,159v66,59,193,59,259,0v46,-41,45,-101,45,-159r0,-466r100,0r0,448xm355,-848r81,-90r76,0r-110,142r-94,0r-110,-142r76,0"},"\u01d4":{"d":"170,-185v0,62,1,126,75,126v65,0,116,-47,151,-108r0,-363r95,0r0,530r-95,0r0,-84v-48,57,-111,96,-185,96v-139,0,-136,-131,-136,-215r0,-327r95,0r0,345xm283,-653r81,-90r76,0r-110,142r-94,0r-110,-142r76,0","w":565},"\u01e6":{"d":"35,-362v0,-240,139,-381,352,-381v75,0,155,17,231,44r0,83v-134,-50,-297,-89,-398,9v-63,62,-75,155,-75,245v0,89,12,182,75,244v73,72,188,73,298,39r0,-191r-93,0r0,-75r193,0r0,316v-77,26,-156,47,-235,47v-209,0,-348,-144,-348,-380xm380,-848r81,-90r76,0r-110,142r-94,0r-110,-142r76,0","w":657},"\u01e7":{"d":"252,-231v93,0,111,-54,111,-120v0,-69,-22,-120,-111,-120v-97,0,-110,65,-110,120v0,69,20,120,110,120xm37,-351v0,-78,53,-191,215,-191v39,0,79,7,113,24v33,-36,77,-60,126,-60r0,72v-29,0,-57,5,-81,18v112,120,62,326,-158,329v-23,0,-46,-3,-69,-9v-46,52,6,81,80,95r93,18v59,11,144,31,144,120v0,103,-132,129,-263,129v-47,0,-123,-4,-195,-23r0,-83v83,23,168,34,244,34v62,0,120,-8,120,-50v0,-41,-60,-48,-76,-51r-94,-18v-57,-11,-148,-31,-148,-114v0,-31,16,-59,39,-80v-59,-35,-90,-98,-90,-160xm257,-653r81,-90r76,0r-110,142r-94,0r-110,-142r76,0","w":515},"\u01e8":{"d":"592,0r-100,0r-273,-326r-39,44r0,282r-100,0r0,-725r100,0r0,324r291,-324r106,0r-306,341xm307,-848r81,-90r76,0r-110,142r-94,0r-110,-142r76,0","w":615},"\u01e9":{"d":"477,0r-96,0r-181,-227r-30,36r0,191r-95,0r0,-770r95,0r0,461r183,-221r99,0r-196,235xm246,-893r81,-90r76,0r-110,142r-94,0r-110,-142r76,0","w":492},"\u01f0":{"d":"1,134v73,0,73,-69,73,-146r0,-518r95,0r0,490v0,128,0,245,-154,245v-37,0,-64,-7,-90,-16r0,-74v23,9,49,19,76,19xm122,-653r81,-90r76,0r-110,142r-94,0r-110,-142r76,0","w":245},"\u0237":{"d":"1,134v73,0,73,-69,73,-146r0,-518r95,0r0,490v0,128,0,245,-154,245v-37,0,-64,-7,-90,-16r0,-74v23,9,49,19,76,19","w":245},"\u02c6":{"d":"512,-601r-76,0r-81,-90r-81,90r-76,0r110,-142r94,0"},"\u02c7":{"d":"355,-653r81,-90r76,0r-110,142r-94,0r-110,-142r76,0"},"\u02d8":{"d":"494,-708v0,64,-68,100,-139,100v-71,0,-139,-36,-139,-100r76,0v0,28,31,43,63,43v32,0,63,-15,63,-43r76,0"},"\u02d9":{"d":"174,-630r-94,0r0,-95r94,0r0,95","w":255},"\u02da":{"d":"412,-699v0,-32,-26,-57,-57,-57v-31,0,-57,25,-57,57v0,31,26,56,57,56v31,0,57,-25,57,-56xm469,-699v0,59,-53,104,-114,104v-61,0,-114,-45,-114,-104v0,-60,53,-104,114,-104v61,0,114,44,114,104"},"\u02dd":{"d":"230,-761r-114,160r-57,0r76,-160r95,0xm396,-761r-114,160r-57,0r76,-160r95,0","w":436},"\u2018":{"d":"150,-770v-13,78,-40,142,-36,237r-94,0r0,-63r71,-174r59,0","w":215},"\u2019":{"d":"194,-707r-71,174r-59,0v13,-78,40,-142,36,-237r94,0r0,63","w":215},"\u201c":{"d":"346,-770v-13,78,-40,142,-36,237r-95,0r0,-63r71,-174r60,0xm171,-770v-13,78,-40,142,-36,237r-95,0r0,-63r71,-174r60,0","w":390},"\u201d":{"d":"350,-707r-71,174r-60,0v13,-78,40,-142,36,-237r95,0r0,63xm175,-707r-71,174r-60,0v13,-78,40,-142,36,-237r95,0r0,63","w":390}}});
