// #### Generated By: http://www.cufonfonts.com ####
/*!
 * The following copyright notice may not be removed under any circumstances.
 * 
 * Copyright:
 * Caviar Dreams © Lauren Thompson (Nymphont) 2009. All rights reserved.
 * 
 * Description:
 * This font was created using FontCreator 5.6 from High-Logic.com
 * 
 * Designer:
 * Lauren Thompson
 * 
 * License information:
 * http://novelhunter.com.googlepages.com/nymphont.html
 */
Cufon.registerFont({"w":1291,"face":{"font-family":"Caviar Dreams","font-weight":300,"font-stretch":"normal","units-per-em":"2048","panose-1":"2 11 2 2 2 2 4 2 5 4","ascent":"1638","descent":"-410","x-height":"27","bbox":"-74 -1892 2784 375","underline-thickness":"150","underline-position":"-142","unicode-range":"U+0020-U+2122"},"glyphs":{" ":{"w":708},"\u00a0":{"w":708},"!":{"d":"215,-165v48,0,90,41,90,89v0,49,-42,90,-90,90v-48,0,-90,-41,-90,-90v0,-48,42,-89,90,-89xm258,-1600r0,1324r-90,0r0,-1324r90,0","w":430},"\"":{"d":"125,-997r0,-600r90,0r0,600r-90,0xm360,-997r0,-600r90,0r0,600r-90,0","w":575},"#":{"d":"763,-985r230,0r111,-445r90,0r-111,445r445,0r-23,90r-445,0r-57,230r445,0r-23,90r-445,0r-111,445r-90,0r111,-445r-230,0r-111,445r-90,0r111,-445r-445,0r23,-90r445,0r57,-230r-445,0r23,-90r445,0r111,-445r90,0xm970,-895r-230,0r-57,230r230,0","w":1653},"$":{"d":"556,-189v144,-19,270,-160,270,-319v0,-175,-138,-288,-270,-348r0,667xm466,-1413v-91,13,-171,103,-169,203v2,115,83,177,169,225r0,-428xm911,-508v0,206,-166,387,-355,406r0,140r-90,0r0,-139v-181,-10,-343,-169,-366,-344r82,-30v12,147,139,276,284,288r0,-704v-132,-57,-253,-153,-256,-319v-3,-145,120,-277,256,-289r0,-163r90,0r0,165v100,16,193,94,222,189r-78,31v-22,-63,-78,-117,-144,-133r0,464v176,67,355,214,355,438","w":1011},"%":{"d":"1107,-1314r-918,1311r-74,-51r918,-1311xm311,-1215v125,0,231,106,231,231v0,125,-106,231,-231,231v-125,0,-231,-106,-231,-231v0,-125,106,-231,231,-231xm455,-984v0,-78,-67,-144,-144,-144v-78,0,-144,66,-144,144v0,78,66,144,144,144v77,0,144,-67,144,-144xm911,-615v125,0,231,106,231,231v0,125,-106,231,-231,231v-125,0,-231,-106,-231,-231v0,-125,106,-231,231,-231xm1055,-384v0,-78,-67,-144,-144,-144v-78,0,-144,66,-144,144v0,78,66,144,144,144v77,0,144,-67,144,-144","w":1221},"&":{"d":"163,-456v0,208,178,386,386,386v169,0,321,-122,366,-261v-66,-19,-149,-132,-213,-169v-63,-36,-136,11,-136,77v0,71,57,98,136,84r-9,82v-121,29,-214,-50,-214,-166v0,-130,142,-217,265,-152v38,20,148,136,189,157v90,47,195,-16,194,-112v-1,-94,-83,-150,-182,-121r-1,-89v186,-47,335,145,241,315v-36,65,-94,103,-182,110v-52,177,-243,334,-454,334v-255,0,-474,-220,-474,-475v0,-241,172,-430,381,-493v-103,-48,-223,-160,-223,-333v0,-180,157,-337,339,-337v142,0,278,99,316,218r-81,32v-30,-86,-128,-162,-235,-162v-134,0,-249,114,-249,249v0,127,121,244,201,276v40,15,90,23,150,24r0,84r-72,2v-146,27,-256,81,-329,161v-73,80,-110,173,-110,279","w":1304},"'":{"d":"125,-997r0,-600r90,0r0,600r-90,0","w":340},"(":{"d":"603,117v-315,-120,-503,-465,-503,-917v0,-293,68,-524,204,-694v87,-110,187,-184,299,-223r0,89v-264,128,-425,421,-425,828v0,411,161,699,425,832r0,85","w":703},")":{"d":"525,-800v0,-408,-160,-699,-425,-828r0,-89v315,119,503,466,503,917v0,293,-68,524,-204,694v-88,110,-187,184,-299,223r0,-85v263,-132,425,-422,425,-832","w":703},"*":{"d":"445,-1384r174,-122r52,74r-193,135r193,135r-52,74r-174,-122r0,213r-90,0r0,-214r-175,123r-52,-74r193,-135r-193,-135r52,-74r175,123r0,-214r90,0r0,213","w":800},"+":{"d":"480,-547r-355,0r0,-90r355,0r0,-355r90,0r0,355r355,0r0,90r-355,0r0,355r-90,0r0,-355","w":1050},",":{"d":"279,-166r-185,385r-84,0r103,-385r166,0","w":379},"-":{"d":"125,-637r590,0r0,90r-590,0r0,-90","w":840},"\u00ad":{"d":"125,-637r590,0r0,90r-590,0r0,-90","w":840},".":{"d":"190,-165v48,0,90,41,90,89v0,49,-42,90,-90,90v-48,0,-90,-41,-90,-90v0,-48,42,-89,90,-89","w":380},"\/":{"d":"674,-1600r103,0r-725,1600r-102,0","w":727},"0":{"d":"625,-68v244,0,454,-209,454,-453r0,-530v7,-244,-210,-453,-454,-453v-244,0,-454,209,-454,453r0,530v-7,244,210,453,454,453xm625,-1600v296,0,549,254,549,549r0,530v8,295,-254,549,-549,549v-294,0,-549,-255,-549,-549r0,-530v-8,-294,255,-549,549,-549","w":1250},"1":{"d":"717,-1600r0,1600r-90,0r0,-1442r-95,0r123,-158r62,0","w":1250},"2":{"d":"622,-1622v257,0,477,221,477,478v0,131,-46,245,-137,344v-139,151,-338,281,-506,410v-105,80,-172,179,-198,300r841,0r0,90r-943,0v31,-207,103,-351,212,-434v183,-139,374,-263,528,-433v72,-80,109,-172,109,-277v0,-206,-177,-383,-383,-383v-193,0,-366,158,-380,341r-91,-33v28,-215,236,-403,471,-403","w":1250},"3":{"d":"622,-73v206,0,389,-177,383,-383v-8,-249,-188,-396,-436,-437r-75,-2r0,-90v150,-4,197,-32,282,-121v47,-49,69,-108,69,-176v0,-133,-113,-246,-246,-246v-107,0,-203,75,-233,163r-86,-34v38,-124,175,-223,319,-223v184,0,342,158,342,340v0,95,-25,170,-76,224v-51,54,-98,90,-142,108v205,62,376,255,376,494v0,257,-220,478,-477,478v-235,0,-443,-188,-471,-403r91,-33v15,183,187,341,380,341","w":1250},"4":{"d":"833,-1600r90,0r0,1042r153,0r0,90r-153,0r0,468r-90,0r0,-468r-660,0xm833,-1406r-505,848r505,0r0,-848","w":1250},"5":{"d":"181,-281v99,165,388,262,606,141v149,-83,253,-213,253,-422v0,-228,-153,-397,-337,-457v-152,-49,-295,-30,-460,21r-72,-63r184,-507r0,-32r500,0r0,90r-425,0r-148,407v125,-45,310,-56,447,-6v149,55,263,146,336,284v72,136,87,275,43,433v-74,263,-368,477,-709,376v-120,-36,-214,-101,-282,-194","w":1250},"6":{"d":"628,-975v-244,0,-454,210,-454,454v0,244,210,453,454,453v244,0,454,-209,454,-453v0,-244,-210,-454,-454,-454xm628,28v-290,0,-549,-248,-549,-532r-6,0v7,-235,63,-428,170,-577v110,-156,263,-340,423,-519r124,0r-42,50v-175,196,-314,367,-417,513v-22,31,-42,63,-59,97v101,-87,219,-131,356,-131v296,0,549,254,549,550v0,295,-254,549,-549,549","w":1250},"7":{"d":"828,-1046v-175,196,-314,367,-417,513v-103,146,-157,324,-164,533r-94,0v7,-235,63,-428,170,-577v107,-149,239,-312,396,-488v157,-176,249,-324,275,-445r-841,0r0,-90r943,0v-4,173,-93,358,-268,554","w":1250},"8":{"d":"201,-456v-4,219,186,408,425,381v238,26,423,-163,423,-381v0,-245,-183,-392,-424,-435v-242,44,-419,189,-424,435xm1143,-456v0,269,-229,505,-518,476v-291,29,-518,-208,-518,-476v0,-238,172,-432,376,-494v-44,-18,-91,-54,-142,-108v-51,-54,-76,-129,-76,-224v1,-193,162,-340,378,-340v184,0,342,158,342,340v0,95,-25,170,-76,224v-51,54,-98,90,-142,108v205,62,376,255,376,494xm889,-1282v1,-139,-117,-245,-265,-245v-147,0,-263,107,-263,245v0,126,119,241,198,273v20,7,42,13,66,17v93,-16,126,-44,195,-114v47,-48,69,-108,69,-176","w":1250},"9":{"d":"622,-597v244,0,454,-210,454,-454v0,-244,-210,-453,-454,-453v-244,0,-454,209,-454,453v0,244,210,454,454,454xm622,-1600v290,0,549,248,549,532r6,0v-7,235,-63,428,-170,577v-110,156,-263,340,-423,519r-124,0r42,-50v175,-196,314,-367,417,-513v22,-31,42,-63,59,-97v-101,87,-219,131,-356,131v-296,0,-549,-254,-549,-550v0,-295,254,-549,549,-549","w":1250},":":{"d":"215,-165v48,0,90,41,90,89v0,49,-42,90,-90,90v-48,0,-90,-41,-90,-90v0,-48,42,-89,90,-89xm215,-782v48,0,90,41,90,89v0,49,-42,90,-90,90v-48,0,-90,-41,-90,-90v0,-48,42,-89,90,-89","w":430},";":{"d":"352,-166r-185,385r-84,0r103,-385r166,0xm215,-782v48,0,90,41,90,89v0,49,-42,90,-90,90v-48,0,-90,-41,-90,-90v0,-48,42,-89,90,-89","w":477},"\u037e":{"d":"352,-166r-185,385r-84,0r103,-385r166,0xm215,-782v48,0,90,41,90,89v0,49,-42,90,-90,90v-48,0,-90,-41,-90,-90v0,-48,42,-89,90,-89","w":477},"<":{"d":"1249,-145r-1149,-418r1149,-418r0,96r-886,322r886,322r0,96","w":1349},"=":{"d":"125,-797r800,0r0,90r-800,0r0,-90xm125,-477r800,0r0,90r-800,0r0,-90","w":1050},">":{"d":"100,-241r886,-322r-886,-322r0,-96r1149,418r-1149,418r0,-96","w":1349},"?":{"d":"467,-1540v199,0,338,138,338,339v0,49,-12,98,-35,146v-41,85,-112,159,-203,237v-115,99,-217,213,-217,395v0,43,8,86,23,129r-83,29v-44,-127,-35,-247,21,-362v53,-111,141,-200,241,-289v94,-84,162,-150,162,-286v0,-149,-103,-250,-249,-250v-147,0,-241,101,-250,246r-88,-4v12,-197,142,-330,340,-330xm326,-165v48,0,90,41,90,89v0,49,-42,90,-90,90v-48,0,-90,-41,-90,-90v0,-48,42,-89,90,-89","w":956},"@":{"d":"816,-269v131,0,248,-99,272,-214r0,-132v-24,-115,-141,-215,-272,-215v-151,0,-279,131,-279,282v0,150,129,279,279,279xm1204,-130v-103,-6,-128,-73,-118,-183v-81,85,-171,127,-272,127v-194,0,-364,-170,-364,-362v0,-195,169,-365,364,-365v101,0,191,42,272,127r0,-114r81,0r0,648v12,29,30,43,55,43v29,0,70,-37,122,-111v52,-74,78,-149,78,-227v0,-326,-283,-608,-608,-608v-326,0,-606,283,-606,608v0,326,281,606,606,606v115,0,198,-16,251,-49r57,60v-80,47,-183,70,-308,70v-368,0,-689,-320,-689,-687v0,-368,321,-689,689,-689v369,0,687,321,687,689v0,148,-148,426,-297,417","w":1626},"A":{"d":"890,-703r-244,-671r-244,671r488,0xm923,-613r-554,0r-223,613r-96,0r596,-1637r595,1637r-95,0","k":{"\u2019":196,"Y":291,"V":291,"T":133}},"B":{"d":"976,-551v0,283,-238,551,-516,551r-310,0r0,-1600r284,-1v159,-5,298,139,298,298v0,83,-42,160,-127,231v75,15,143,61,211,132v105,109,160,237,160,389xm881,-551v0,-244,-210,-461,-454,-454r-187,0r0,915r220,1v225,-9,421,-228,421,-462xm646,-1303v0,-118,-95,-207,-212,-207r-194,0r0,409r217,0v104,-8,189,-90,189,-202","w":1066},"C":{"d":"217,-800v0,392,336,728,727,728v185,0,346,-61,483,-183r68,61v-156,142,-340,213,-551,213v-441,0,-819,-378,-819,-819v0,-440,378,-819,819,-819v211,0,395,71,551,213r-68,62v-137,-122,-298,-183,-483,-183v-391,0,-727,337,-727,727","w":1595},"D":{"d":"240,-1506r0,1413v241,1,423,-65,554,-192v282,-271,282,-758,0,-1030v-131,-126,-313,-192,-554,-191xm150,-1600v31,1,74,2,97,2v263,0,465,76,612,218v317,307,316,853,0,1160v-166,161,-398,227,-709,220r0,-1600","w":1199},"E":{"d":"950,-1600r0,90r-710,0r0,665r710,0r0,90r-710,0r0,665r710,0r0,90r-800,0r0,-1600r800,0","w":1075},"F":{"d":"850,-1600r0,90r-610,0r0,665r610,0r0,90r-610,0r0,755r-90,0r0,-1600r700,0","w":975,"k":{".":460,",":433}},"G":{"d":"217,-800v0,392,336,728,727,728v172,0,324,-53,455,-159r0,-488r90,0r0,520v-152,145,-334,218,-545,218v-441,0,-819,-378,-819,-819v0,-440,378,-819,819,-819v211,0,395,71,551,213r-68,62v-137,-122,-298,-183,-483,-183v-391,0,-727,337,-727,727","w":1620},"H":{"d":"240,-717r0,717r-90,0r0,-1600r90,0r0,793r670,0r0,-793r90,0r0,1600r-90,0r0,-717r-670,0","w":1150},"I":{"d":"260,-1600r0,1600r-90,0r0,-1600r90,0","w":430},"J":{"d":"416,-76v110,0,196,-89,196,-213r0,-1311r90,0r0,1326v5,161,-131,288,-286,288v-149,0,-293,-135,-291,-273r89,-23v-4,113,92,206,202,206","w":857},"K":{"d":"240,-775r0,775r-90,0r0,-1600r90,0r0,681r511,-681r116,0r-480,644r620,956r-111,0r-568,-884","w":1097},"L":{"d":"150,0r0,-1600r90,0r0,1510r620,0r0,90r-710,0","w":950,"k":{"\u2019":385,"y":127,"Y":322,"V":322,"T":165}},"M":{"d":"253,-1600r601,1040r600,-1040r103,0r-4,7r0,1593r-90,0r0,-1437r-609,1054r-610,-1054r0,1437r-90,0r0,-1593r-4,-7r103,0","w":1707},"N":{"d":"150,-1600r99,0r822,1423r0,-1423r90,0r0,1600r-90,0r-831,-1437r0,1437r-90,0r0,-1600","w":1311},"O":{"d":"946,-1623v441,0,821,380,821,821v0,441,-380,821,-821,821v-441,0,-821,-380,-821,-821v0,-441,380,-821,821,-821xm1675,-802v0,-392,-337,-729,-729,-729v-392,0,-729,337,-729,729v0,392,337,730,729,730v392,0,729,-338,729,-730","w":1892},"P":{"d":"1034,-1078v0,281,-242,531,-522,523r-272,0r0,555r-90,0r0,-1600r420,0v251,28,464,254,464,522xm943,-1078v0,-232,-200,-431,-431,-431r-272,0r0,863r272,0v231,6,431,-200,431,-432","w":1089,"k":{".":574,",":547}},"Q":{"d":"1675,-802v0,-392,-337,-729,-729,-729v-392,0,-729,337,-729,729v0,392,337,730,729,730v392,0,729,-338,729,-730xm1057,81v-107,0,-183,76,-197,173r-91,0v14,-116,75,-189,168,-235v-435,8,-812,-383,-812,-821v0,-441,380,-821,821,-821v441,0,821,380,821,821v0,389,-299,735,-639,802v91,11,249,162,366,162v82,0,139,-59,145,-139r91,0v-11,131,-101,222,-234,228v-150,7,-287,-170,-439,-170","w":1892},"R":{"d":"943,-1078v0,-232,-200,-431,-431,-431r-272,0r0,863r272,0v231,6,431,-200,431,-432xm1034,-1078v0,245,-184,461,-396,509r369,569r-111,0r-357,-556r-299,1r0,555r-90,0r0,-1600r420,0v251,28,464,254,464,522","w":1089},"S":{"d":"518,-70v208,0,389,-179,386,-386v-3,-223,-179,-364,-356,-430v-190,-72,-362,-172,-369,-396v-6,-180,157,-337,339,-337v142,0,278,99,316,218r-81,32v-30,-86,-128,-162,-235,-162v-134,0,-254,114,-249,249v6,165,123,246,261,299v225,87,458,246,462,527v4,255,-219,475,-474,475v-232,0,-440,-187,-468,-398r85,-31v16,181,189,340,383,340","w":1042},"T":{"d":"545,-1510r0,1510r-90,0r0,-1510r-405,0r0,-90r900,0r0,90r-405,0","w":1000,"k":{"\u0150":201,"\u0119":197,"y":182,"w":257,"u":257,"s":222,"r":257,"o":197,"i":232,"e":197,"c":197,"a":232,"O":201,"A":157,";":222,":":232,".":207,"-":232,",":180}},"U":{"d":"673,-77v232,0,431,-200,431,-431r0,-1092r91,0r0,1150v-28,251,-254,464,-522,464v-281,0,-523,-241,-523,-522r0,-1092r91,0r0,1092v-6,231,200,431,432,431","w":1345},"V":{"d":"145,-1600r500,1374r500,-1374r96,0r-596,1637r-595,-1637r95,0","k":{"\u0119":142,"o":142,"e":142,"a":177,"A":322,";":135,":":145,".":372,"-":177,",":377}},"W":{"d":"520,-76v117,0,225,-73,271,-164r0,-1360r90,0r0,1360v46,91,154,164,271,164v161,0,305,-140,305,-302r0,-1222r90,0r0,1230v1,206,-186,384,-395,384v-127,0,-246,-65,-316,-156v-69,90,-190,156,-316,156v-209,0,-395,-179,-395,-384r0,-1230r90,0r0,1222v-5,162,144,302,305,302","w":1672},"X":{"d":"50,0r507,-879r-416,-721r103,0r364,632r366,-632r103,0r-418,721r509,879r-103,0r-457,-790r-456,790r-102,0","w":1218},"Y":{"d":"600,-647r-550,-953r103,0r492,853r493,-853r103,0r-551,953r0,647r-90,0r0,-647","k":{"\u0119":299,"v":102,"u":202,"q":341,"p":202,"o":299,"e":299,"a":366,"A":291,";":292,":":303,".":341,"-":366,",":314}},"Z":{"d":"1022,-1510r-872,0r0,-90r1027,0r-873,1510r873,0r0,90r-1027,0","w":1327},"[":{"d":"215,285r220,0r0,90r-310,0r0,-1975r310,0r0,90r-220,0r0,1795","w":560},"\\":{"d":"777,0r-102,0r-725,-1600r103,0","w":727},"]":{"d":"345,-1510r-220,0r0,-90r310,0r0,1975r-310,0r0,-90r220,0r0,-1795","w":560},"^":{"d":"513,-1600r308,534r-104,0r-256,-443r-256,443r-105,0r309,-534r104,0","w":921},"_":{"d":"25,30r1000,0r0,90r-1000,0r0,-90","w":1050},"`":{"d":"316,-1287r163,187r-84,0r-245,-187r166,0","w":629},"a":{"d":"674,-1071v181,0,352,96,446,228r0,-139r90,0r0,982r-90,0r0,-200v-94,131,-265,228,-446,228v-294,0,-549,-255,-549,-549v0,-295,254,-550,549,-550xm674,-68v218,0,412,-170,446,-364r0,-178v-33,-195,-227,-365,-446,-365v-244,0,-454,210,-454,454v0,244,210,453,454,453","w":1360},"b":{"d":"685,28v-180,0,-351,-97,-445,-227r0,199r-90,0r0,-1600r90,0r0,756v94,-130,265,-227,445,-227v296,0,549,254,549,550v0,295,-254,549,-549,549xm685,-975v-217,0,-410,168,-445,360r0,188v36,191,228,359,445,359v244,0,454,-209,454,-453v0,-244,-210,-454,-454,-454","w":1359},"c":{"d":"639,-68v141,0,271,-68,353,-168r95,34v-94,132,-266,230,-448,230v-295,0,-549,-255,-549,-550v0,-294,255,-549,549,-549v182,0,353,98,448,229r-95,35v-80,-100,-213,-168,-353,-168v-243,0,-453,210,-453,453v0,243,210,454,453,454","w":1177},"d":{"d":"674,-1071v181,0,352,96,446,228r0,-757r90,0r0,1600r-90,0r0,-200v-94,131,-265,228,-446,228v-294,0,-549,-255,-549,-549v0,-295,254,-550,549,-550xm674,-68v218,0,412,-170,446,-364r0,-178v-33,-195,-227,-365,-446,-365v-244,0,-454,210,-454,454v0,244,210,453,454,453","w":1360},"e":{"d":"90,-522v0,-294,255,-549,549,-549v163,0,316,75,406,179r-708,708v85,77,185,116,302,116v141,0,271,-68,353,-168r95,34v-94,132,-266,230,-448,230v-295,0,-549,-255,-549,-550xm639,-975v-243,0,-453,210,-453,453v0,103,30,194,90,272r635,-635v-78,-60,-169,-90,-272,-90","w":1177},"f":{"d":"554,-1414v-130,-63,-274,45,-274,172r0,260r200,0r0,90r-200,0r0,892r-90,0r0,-892r-100,0r0,-90r100,0r0,-266v5,-181,196,-325,392,-246","w":523},"g":{"d":"674,-67v217,0,408,-167,445,-358r0,-190v-35,-192,-228,-360,-445,-360v-244,0,-454,210,-454,454v0,244,210,454,454,454xm312,56v81,99,213,168,353,168v233,0,443,-196,452,-419v-96,129,-264,223,-443,223v-294,0,-549,-255,-549,-549v0,-296,254,-549,549,-549v181,0,352,95,446,227r0,-139r90,0r0,763v8,291,-255,539,-545,539v-182,0,-354,-98,-448,-230","w":1364},"h":{"d":"514,-951v-118,0,-232,79,-274,170r0,781r-90,0r0,-1600r90,0r0,669v76,-73,167,-110,274,-110v226,0,394,165,395,384r0,657r-90,0r0,-649v5,-162,-144,-302,-305,-302","w":1059},"i":{"d":"260,-982r0,982r-90,0r0,-982r90,0xm215,-1330v48,0,90,41,90,89v0,49,-42,90,-90,90v-48,0,-90,-41,-90,-90v0,-48,42,-89,90,-89","w":430},"j":{"d":"49,138v81,-9,121,-55,121,-136r0,-984r90,0r0,982v0,141,-70,217,-211,228r0,-90xm215,-1330v48,0,90,41,90,89v0,49,-42,90,-90,90v-48,0,-90,-41,-90,-90v0,-48,42,-89,90,-89","w":455},"k":{"d":"629,-982r-242,300r386,682r-112,0r-333,-610r-88,109r0,501r-90,0r0,-1400r90,0r0,755r273,-337r116,0","w":823},"l":{"d":"240,-1600r0,1600r-90,0r0,-1600r90,0","w":390},"m":{"d":"441,-950v-104,0,-201,84,-201,184r0,766r-90,0r0,-982r90,0r0,23v56,-54,123,-81,201,-81v103,0,199,58,246,135v48,-75,144,-135,247,-135v155,0,291,130,291,282r0,758r-90,0r1,-758v-2,-104,-96,-192,-202,-192v-110,0,-202,94,-202,206r0,744r-90,0r1,-758v-2,-104,-96,-192,-202,-192","w":1375},"n":{"d":"526,-951v-127,0,-245,92,-286,188r0,763r-90,0r0,-982r90,0r0,63v82,-81,177,-122,286,-122v226,0,394,165,395,384r0,657r-90,0r0,-649v5,-162,-144,-302,-305,-302","w":1071},"o":{"d":"90,-521v0,-295,254,-550,549,-550v296,0,549,254,549,550v0,295,-254,549,-549,549v-294,0,-549,-255,-549,-549xm639,-975v-244,0,-454,210,-454,454v0,244,210,453,454,453v244,0,454,-209,454,-453v0,-244,-210,-454,-454,-454","w":1278},"p":{"d":"685,28v-180,0,-351,-97,-445,-227r0,574r-90,0r0,-1357r90,0r0,138v94,-129,265,-226,445,-226v296,0,549,253,549,549v0,295,-254,549,-549,549xm685,-975v-217,0,-410,168,-445,360r0,188v35,192,228,360,445,360v244,0,454,-210,454,-454v0,-244,-210,-454,-454,-454","w":1334},"q":{"d":"649,-1070v181,0,352,95,446,227r0,-139r90,0r0,1357r-90,0r0,-575v-94,131,-265,228,-446,228v-294,0,-549,-255,-549,-549v0,-296,254,-549,549,-549xm649,-67v219,0,413,-170,446,-365r0,-178v-33,-195,-227,-365,-446,-365v-244,0,-454,210,-454,454v0,244,210,454,454,454","w":1335},"r":{"d":"150,-982r90,0r0,179v63,-94,200,-205,309,-202r0,98v-57,3,-115,34,-176,95v-85,85,-133,186,-133,305r0,507r-90,0r0,-982","w":599,"k":{"-":109}},"s":{"d":"406,-66v108,0,202,-93,202,-203v0,-55,-20,-103,-59,-142v-21,-21,-63,-55,-129,-94v-75,-44,-130,-77,-159,-106v-46,-46,-69,-101,-69,-166v0,-127,109,-237,235,-237v121,0,227,95,224,212r-78,31v-11,-91,-54,-150,-146,-152v-78,-2,-152,67,-146,146v7,103,56,122,149,179v83,51,146,88,182,124v57,57,85,126,85,205v0,158,-134,293,-291,293v-149,0,-293,-135,-291,-273r89,-23v-4,113,92,206,202,206","w":802},"t":{"d":"290,-982r0,-418r90,0r0,418r200,0r0,90r-200,0r0,892r-90,0r0,-892r-200,0r0,-90r200,0","w":670},"u":{"d":"949,-370v-1,219,-169,384,-394,384v-236,0,-405,-161,-405,-384r0,-614r90,0r0,606v-3,165,145,302,314,302v161,0,305,-140,305,-302r0,-606r90,0r0,614","w":1099},"v":{"d":"532,-164r378,-818r104,0r-482,1009r-482,-1009r104,0","w":1064,"k":{".":208,",":213}},"w":{"d":"441,-76v104,0,201,-83,201,-184r0,-722r90,0r0,700v-4,113,92,206,202,206v105,0,201,-91,201,-192r0,-714r90,0r0,714v-1,152,-137,282,-291,282v-102,0,-197,-60,-246,-134v-49,73,-145,134,-247,134v-154,0,-291,-130,-291,-282r0,-714r90,0r-1,714v3,103,96,192,202,192","w":1375},"x":{"d":"741,-982r-256,443r311,539r-104,0r-256,-443r-256,443r-105,0r312,-539r-256,-443r104,0r201,347r200,-347r105,0","w":871},"y":{"d":"930,-982r-649,1357r-88,0r265,-556r-383,-801r102,0r326,704r326,-704r101,0","w":1005,"k":{".":219,",":223}},"z":{"d":"657,-878r-507,0r0,-90r662,0r-508,878r546,0r0,90r-700,0","w":1000},"{":{"d":"418,40v0,-68,21,-149,20,-224v-2,-168,-55,-284,-170,-347v-62,-34,-94,-50,-143,-41r0,-81v50,10,81,-7,143,-41v116,-63,170,-178,170,-347v0,-120,-37,-239,-4,-351v35,-120,149,-222,307,-205r0,75v-171,-16,-249,104,-249,275v0,73,20,145,19,213v-4,213,-85,351,-241,421v155,72,238,208,241,422v1,68,-19,140,-19,213v0,173,78,288,249,276r0,74v-13,2,-25,3,-38,3v-181,-13,-285,-139,-285,-335","w":866},"|":{"d":"240,-1600r0,1975r-90,0r0,-1975r90,0","w":390},"}":{"d":"448,-1266v0,68,-21,150,-20,225v2,168,55,284,170,347v62,34,94,50,143,41r0,81v-50,-10,-81,7,-143,41v-116,63,-168,178,-170,347v-1,75,20,156,20,224v0,197,-103,322,-285,335v-13,0,-25,-1,-38,-3r0,-74v171,12,249,-104,249,-276v0,-73,-20,-145,-19,-213v3,-213,86,-351,241,-422v-156,-70,-238,-208,-241,-421v-1,-68,19,-140,19,-213v0,-172,-77,-290,-249,-275r0,-75v13,-2,25,-3,38,-3v181,13,285,138,285,334","w":866},"~":{"d":"365,-873v-97,0,-142,84,-150,180r-90,-14v15,-140,89,-253,234,-253v71,0,164,33,279,99v126,72,216,109,273,109v97,0,144,-82,150,-180r91,14v-19,139,-88,253,-235,253v-70,0,-163,-33,-278,-99v-127,-73,-218,-109,-274,-109","w":1277},"\u00a1":{"d":"215,-1439v-48,0,-90,-41,-90,-89v0,-49,42,-90,90,-90v48,0,90,41,90,90v0,48,-42,89,-90,89xm172,-4r0,-1324r90,0r0,1324r-90,0","w":430},"\u00a2":{"d":"99,-1062v0,-215,170,-407,362,-439r0,-161r90,0r0,154v148,-3,284,83,361,192r-87,33v-62,-80,-165,-137,-274,-136r0,714v109,1,211,-57,274,-136r87,32v-76,110,-213,196,-361,193r0,154r-90,0r0,-161v-192,-31,-362,-224,-362,-439xm461,-1410v-146,31,-273,181,-273,348v0,167,128,316,273,348r0,-696","w":1013},"\u00a3":{"d":"532,-1511v-179,0,-314,140,-301,326v5,75,27,164,78,256v52,95,98,187,122,284r197,0r0,90r-180,0v27,203,-33,326,-163,492v83,-30,165,-45,246,-45v110,0,227,39,331,39v53,0,104,-6,151,-18r17,89v-54,13,-110,20,-168,20v-110,0,-252,-45,-356,-43v-140,3,-217,61,-319,104r-87,-103v83,-73,135,-123,156,-149v90,-109,125,-227,100,-386r-228,0r0,-90r209,0v-17,-63,-40,-128,-75,-189v-78,-138,-127,-238,-127,-381v0,-213,171,-391,396,-388v252,3,460,249,370,517r-86,-29v66,-209,-89,-396,-283,-396","w":1130},"\u00a4":{"d":"303,-1462v138,-119,369,-119,506,0r139,-139r64,64r-139,139v119,138,119,369,0,506r139,139r-64,64r-139,-139v-138,119,-369,119,-506,0r-139,139r-64,-64r139,-139v-119,-138,-119,-369,0,-506r-139,-139r64,-64xm872,-1145v0,-179,-137,-316,-316,-316v-179,0,-316,137,-316,316v0,178,136,316,316,316v179,0,316,-137,316,-316","w":1112},"\u00a5":{"d":"650,-755r488,-845r103,0r-489,845r294,0r0,90r-346,0r-10,18r0,102r356,0r0,90r-356,0r0,455r-90,0r0,-455r-354,0r0,-90r354,0r0,-102r-10,-18r-344,0r0,-90r292,0r-488,-845r103,0r487,845r10,0"},"\u00a6":{"d":"240,-1600r0,849r-90,0r0,-849r90,0xm240,-474r0,849r-90,0r0,-849r90,0","w":390},"\u00a7":{"d":"881,-345v7,-9,16,-19,26,-29v42,-42,63,-116,63,-223v0,-223,-180,-362,-356,-430v-154,-59,-270,-122,-337,-250v-7,9,-16,19,-26,29v-42,42,-63,116,-63,223v0,223,180,362,356,430v154,59,270,122,337,250xm100,-1025v-2,-171,56,-278,150,-337v-39,-221,134,-395,334,-398v142,-2,278,99,316,218r-81,32v-30,-86,-128,-162,-235,-162v-134,0,-254,114,-249,249v6,165,123,246,261,299v225,87,459,246,462,527v2,171,-56,278,-150,337v39,221,-134,395,-334,398v-142,2,-278,-99,-316,-218r81,-32v30,86,128,162,235,162v134,0,254,-114,249,-249v-6,-165,-123,-246,-261,-299v-225,-87,-459,-246,-462,-527","w":1158},"\u00a8":{"d":"215,-1330v48,0,90,41,90,89v0,49,-42,90,-90,90v-48,0,-90,-41,-90,-90v0,-48,42,-89,90,-89xm515,-1330v48,0,90,41,90,89v0,49,-42,90,-90,90v-48,0,-90,-41,-90,-90v0,-48,42,-89,90,-89","w":730},"\u00a9":{"d":"711,-341v82,0,160,-41,206,-101r68,25v-57,84,-161,145,-274,145v-178,0,-331,-153,-331,-331v0,-178,153,-331,331,-331v113,0,217,61,274,145r-68,25v-45,-61,-124,-101,-206,-101v-140,0,-262,121,-262,262v0,140,122,262,262,262xm700,-1204v322,0,600,279,600,601v0,323,-278,601,-600,601v-323,0,-601,-278,-601,-601v0,-323,278,-601,601,-601xm1229,-603v0,-285,-245,-530,-529,-530v-286,0,-530,245,-530,530v0,284,245,530,530,530v284,0,529,-246,529,-530","w":1405},"\u00ab":{"d":"444,-462r436,-460r0,104r-331,356r331,356r0,105xm100,-462r429,-460r0,104r-331,356r331,356r0,105","w":980},"\u00ae":{"d":"772,-1182v0,-101,-88,-189,-189,-189r-116,0r0,378r116,0v101,3,189,-88,189,-189xm581,-1543v-228,0,-424,196,-424,424v0,196,138,364,311,410v86,22,183,18,262,-12r-138,-215r-125,0r0,155r-55,0r0,-644r198,0v117,14,217,118,217,244v0,110,-85,215,-175,236r130,200v122,-66,222,-214,222,-374v0,-228,-196,-424,-423,-424xm581,-1600v257,0,480,223,480,481v0,198,-115,356,-279,435v-324,156,-682,-107,-682,-435v0,-259,222,-481,481,-481","w":1161},"\u00af":{"d":"125,-1327r590,0r0,90r-590,0r0,-90","w":840},"\u00b0":{"d":"381,-1600v125,0,231,106,231,231v0,125,-106,231,-231,231v-125,0,-231,-106,-231,-231v0,-125,106,-231,231,-231xm541,-1369v0,-86,-74,-160,-160,-160v-86,0,-160,74,-160,160v0,86,74,160,160,160v86,0,160,-74,160,-160","w":762},"\u00b1":{"d":"480,-547r-355,0r0,-90r355,0r0,-355r90,0r0,355r355,0r0,90r-355,0r0,355r-90,0r0,-355xm125,-90r800,0r0,90r-800,0r0,-90","w":1050},"\u00b4":{"d":"479,-1287r-245,187r-84,0r163,-187r166,0","w":629},"\u00b5":{"d":"514,-81v136,0,263,-102,294,-219r0,-682r88,0r0,982r-88,0r0,-111v-131,151,-424,165,-568,10r0,476r-90,0r0,-1357r90,0r0,731v41,91,156,170,274,170","w":1046},"\u00b6":{"d":"51,-1169v0,-268,212,-522,464,-522r571,-1r0,90r-88,0r0,1977r-90,0r0,-1977r-93,0r0,1977r-90,0r0,-1021r-152,0v-281,8,-522,-242,-522,-523","w":1135},"\u00b7":{"d":"202,-876v41,0,76,35,76,76v0,41,-35,76,-76,76v-42,0,-77,-34,-77,-76v0,-42,35,-76,77,-76","w":403},"\u2219":{"d":"202,-876v41,0,76,35,76,76v0,41,-35,76,-76,76v-42,0,-77,-34,-77,-76v0,-42,35,-76,77,-76","w":403},"\u00b8":{"d":"204,193v55,18,150,-3,128,-70v-35,-43,-87,-34,-160,-29r57,-94r70,0r-12,35v94,3,144,14,144,83v0,94,-80,141,-186,135v-35,-2,-62,-10,-82,-23","w":582},"\u00bb":{"d":"100,-1r0,-105r331,-356r-331,-356r0,-104r436,460xm451,-1r0,-105r331,-356r-331,-356r0,-104r429,460","w":980},"\u00bf":{"d":"489,-64v-199,0,-338,-138,-338,-339v0,-49,12,-98,35,-146v41,-85,112,-159,203,-237v115,-99,217,-213,217,-395v0,-43,-8,-86,-23,-129r83,-29v44,127,35,247,-21,362v-53,111,-141,200,-241,289v-94,84,-162,150,-162,286v0,149,103,250,249,250v147,0,241,-101,250,-246r88,4v-12,197,-142,330,-340,330xm630,-1439v-48,0,-90,-41,-90,-89v0,-49,42,-90,90,-90v48,0,90,41,90,90v0,48,-42,89,-90,89","w":956},"\u00c0":{"d":"890,-703r-244,-671r-244,671r488,0xm923,-613r-554,0r-223,613r-96,0r596,-1637r595,1637r-95,0xm522,-1886r163,187r-84,0r-245,-187r166,0"},"\u00c1":{"d":"890,-703r-244,-671r-244,671r488,0xm923,-613r-554,0r-223,613r-96,0r596,-1637r595,1637r-95,0xm935,-1886r-245,187r-84,0r163,-187r166,0"},"\u00c2":{"d":"890,-703r-244,-671r-244,671r488,0xm923,-613r-554,0r-223,613r-96,0r596,-1637r595,1637r-95,0xm694,-1842r238,234r-104,0r-186,-143r-176,143r-105,0r229,-234r104,0"},"\u00c3":{"d":"890,-703r-244,-671r-244,671r488,0xm923,-613r-554,0r-223,613r-96,0r596,-1637r595,1637r-95,0xm525,-1818v81,-6,176,114,244,105v33,-5,57,-30,70,-84r69,0v-21,103,-50,151,-141,158v-80,6,-175,-115,-244,-105v-33,5,-57,30,-70,84r-70,0v22,-103,50,-151,142,-158"},"\u00c4":{"d":"890,-703r-244,-671r-244,671r488,0xm923,-613r-554,0r-223,613r-96,0r596,-1637r595,1637r-95,0xm496,-1838v48,0,90,41,90,89v0,49,-42,90,-90,90v-48,0,-90,-41,-90,-90v0,-48,42,-89,90,-89xm796,-1838v48,0,90,41,90,89v0,49,-42,90,-90,90v-48,0,-90,-41,-90,-90v0,-48,42,-89,90,-89"},"\u00c5":{"d":"890,-703r-244,-671r-244,671r488,0xm588,-1667v1,33,27,62,68,56v25,-4,47,-29,47,-56v0,-31,-27,-58,-57,-58v-31,0,-59,27,-58,58xm768,-1667v0,55,-43,106,-90,118r563,1549r-95,0r-223,-613r-554,0r-223,613r-96,0r564,-1549v-48,-12,-91,-62,-91,-118v0,-66,57,-123,123,-123v65,0,122,57,122,123"},"\u00c6":{"d":"1633,-845r0,90r-710,0r0,665r710,0r0,90r-800,0r0,-613r-339,0r-273,613r-96,0r696,-1600r812,0r0,90r-710,0r0,665r710,0xm833,-703r0,-712r-306,712r306,0","w":1758},"\u00c7":{"d":"897,203v55,18,150,-3,128,-70v-35,-43,-87,-34,-160,-29r52,-85v-426,-2,-792,-385,-792,-819v0,-440,378,-819,819,-819v211,0,395,71,551,213r-68,62v-137,-122,-298,-183,-483,-183v-391,0,-727,337,-727,727v0,392,336,728,727,728v185,0,346,-61,483,-183r68,61v-145,132,-313,203,-506,212r-9,27v94,3,144,14,144,83v0,94,-80,141,-186,135v-35,-2,-62,-10,-82,-23","w":1595},"\u00c8":{"d":"950,-1600r0,90r-710,0r0,665r710,0r0,90r-710,0r0,665r710,0r0,90r-800,0r0,-1600r800,0xm497,-1855r163,187r-84,0r-245,-187r166,0","w":1075},"\u00c9":{"d":"950,-1600r0,90r-710,0r0,665r710,0r0,90r-710,0r0,665r710,0r0,90r-800,0r0,-1600r800,0xm769,-1855r-245,187r-84,0r163,-187r166,0","w":1075},"\u00ca":{"d":"950,-1600r0,90r-710,0r0,665r710,0r0,90r-710,0r0,665r710,0r0,90r-800,0r0,-1600r800,0xm599,-1892r238,234r-104,0r-186,-143r-176,143r-105,0r229,-234r104,0","w":1075},"\u00cb":{"d":"950,-1600r0,90r-710,0r0,665r710,0r0,90r-710,0r0,665r710,0r0,90r-800,0r0,-1600r800,0xm400,-1848v48,0,90,41,90,89v0,49,-42,90,-90,90v-48,0,-90,-41,-90,-90v0,-48,42,-89,90,-89xm700,-1848v48,0,90,41,90,89v0,49,-42,90,-90,90v-48,0,-90,-41,-90,-90v0,-48,42,-89,90,-89","w":1075},"\u00cc":{"d":"260,-1600r0,1600r-90,0r0,-1600r90,0xm92,-1855r163,187r-84,0r-245,-187r166,0","w":430},"\u00cd":{"d":"260,-1600r0,1600r-90,0r0,-1600r90,0xm504,-1855r-245,187r-84,0r163,-187r166,0","w":430},"\u00ce":{"d":"260,-1600r0,1600r-90,0r0,-1600r90,0xm263,-1842r238,234r-104,0r-186,-143r-176,143r-105,0r229,-234r104,0","w":430},"\u00cf":{"d":"260,-1600r0,1600r-90,0r0,-1600r90,0xm65,-1848v48,0,90,41,90,89v0,49,-42,90,-90,90v-48,0,-90,-41,-90,-90v0,-48,42,-89,90,-89xm365,-1848v48,0,90,41,90,89v0,49,-42,90,-90,90v-48,0,-90,-41,-90,-90v0,-48,42,-89,90,-89","w":430},"\u00d0":{"d":"210,-845r0,-755v32,1,67,2,97,2v263,0,465,76,612,218v317,307,316,853,0,1160v-166,161,-398,227,-709,220r0,-755r-160,0r0,-90r160,0xm300,-845r370,0r0,90r-370,0r0,662v241,1,423,-65,554,-192v282,-271,282,-758,0,-1030v-131,-126,-313,-192,-554,-191r0,661","w":1284},"\u00d1":{"d":"150,-1600r99,0r822,1423r0,-1423r90,0r0,1600r-90,0r-831,-1437r0,1437r-90,0r0,-1600xm535,-1818v81,-6,176,114,244,105v33,-5,57,-30,70,-84r69,0v-21,103,-50,151,-141,158v-80,6,-175,-115,-244,-105v-33,5,-57,30,-70,84r-70,0v22,-103,50,-151,142,-158","w":1311},"\u00d2":{"d":"946,-1623v441,0,821,380,821,821v0,441,-380,821,-821,821v-441,0,-821,-380,-821,-821v0,-441,380,-821,821,-821xm1675,-802v0,-392,-337,-729,-729,-729v-392,0,-729,337,-729,729v0,392,337,730,729,730v392,0,729,-338,729,-730xm893,-1855r163,187r-84,0r-245,-187r166,0","w":1892},"\u00d3":{"d":"946,-1623v441,0,821,380,821,821v0,441,-380,821,-821,821v-441,0,-821,-380,-821,-821v0,-441,380,-821,821,-821xm1675,-802v0,-392,-337,-729,-729,-729v-392,0,-729,337,-729,729v0,392,337,730,729,730v392,0,729,-338,729,-730xm1165,-1855r-245,187r-84,0r163,-187r166,0","w":1892},"\u00d4":{"d":"946,-1623v441,0,821,380,821,821v0,441,-380,821,-821,821v-441,0,-821,-380,-821,-821v0,-441,380,-821,821,-821xm1675,-802v0,-392,-337,-729,-729,-729v-392,0,-729,337,-729,729v0,392,337,730,729,730v392,0,729,-338,729,-730xm995,-1892r238,234r-104,0r-186,-143r-176,143r-105,0r229,-234r104,0","w":1892},"\u00d5":{"d":"946,-1623v441,0,821,380,821,821v0,441,-380,821,-821,821v-441,0,-821,-380,-821,-821v0,-441,380,-821,821,-821xm1675,-802v0,-392,-337,-729,-729,-729v-392,0,-729,337,-729,729v0,392,337,730,729,730v392,0,729,-338,729,-730xm826,-1838v81,-6,176,114,244,105v33,-5,57,-30,70,-84r69,0v-21,103,-50,151,-141,158v-80,6,-175,-115,-244,-105v-33,5,-57,30,-70,84r-70,0v22,-103,50,-151,142,-158","w":1892},"\u00d6":{"d":"946,-1623v441,0,821,380,821,821v0,441,-380,821,-821,821v-441,0,-821,-380,-821,-821v0,-441,380,-821,821,-821xm1675,-802v0,-392,-337,-729,-729,-729v-392,0,-729,337,-729,729v0,392,337,730,729,730v392,0,729,-338,729,-730xm796,-1848v48,0,90,41,90,89v0,49,-42,90,-90,90v-48,0,-90,-41,-90,-90v0,-48,42,-89,90,-89xm1096,-1848v48,0,90,41,90,89v0,49,-42,90,-90,90v-48,0,-90,-41,-90,-90v0,-48,42,-89,90,-89","w":1892},"\u00d7":{"d":"525,-528r-251,251r-64,-64r251,-251r-251,-251r64,-64r251,251r251,-251r63,64r-251,251r251,251r-63,64","w":1050},"\u00d8":{"d":"1213,-1483v-502,-192,-996,200,-996,681v0,275,172,530,380,643xm678,-121v502,194,997,-200,997,-681v0,-275,-171,-531,-380,-642xm125,-802v0,-441,380,-821,821,-821v110,0,212,19,306,57r86,-184r82,38r-86,184v69,37,133,86,193,145v160,161,240,354,240,581v0,441,-380,821,-821,821v-110,0,-212,-19,-306,-57r-86,184r-82,-38r86,-184v-69,-37,-133,-86,-192,-146v-161,-160,-241,-353,-241,-580","w":1892},"\u00d9":{"d":"673,-77v232,0,431,-200,431,-431r0,-1092r91,0r0,1150v-28,251,-254,464,-522,464v-281,0,-523,-241,-523,-522r0,-1092r91,0r0,1092v-6,231,200,431,432,431xm619,-1855r163,187r-84,0r-245,-187r166,0","w":1345},"\u00da":{"d":"673,-77v232,0,431,-200,431,-431r0,-1092r91,0r0,1150v-28,251,-254,464,-522,464v-281,0,-523,-241,-523,-522r0,-1092r91,0r0,1092v-6,231,200,431,432,431xm892,-1855r-245,187r-84,0r163,-187r166,0","w":1345},"\u00db":{"d":"673,-77v232,0,431,-200,431,-431r0,-1092r91,0r0,1150v-28,251,-254,464,-522,464v-281,0,-523,-241,-523,-522r0,-1092r91,0r0,1092v-6,231,200,431,432,431xm721,-1842r238,234r-104,0r-186,-143r-176,143r-105,0r229,-234r104,0","w":1345},"\u00dc":{"d":"673,-77v232,0,431,-200,431,-431r0,-1092r91,0r0,1150v-28,251,-254,464,-522,464v-281,0,-523,-241,-523,-522r0,-1092r91,0r0,1092v-6,231,200,431,432,431xm523,-1838v48,0,90,41,90,89v0,49,-42,90,-90,90v-48,0,-90,-41,-90,-90v0,-48,42,-89,90,-89xm823,-1838v48,0,90,41,90,89v0,49,-42,90,-90,90v-48,0,-90,-41,-90,-90v0,-48,42,-89,90,-89","w":1345},"\u00dd":{"d":"600,-647r-550,-953r103,0r492,853r493,-853r103,0r-551,953r0,647r-90,0r0,-647xm865,-1855r-245,187r-84,0r163,-187r166,0"},"\u00de":{"d":"1034,-801v0,281,-242,531,-522,523r-272,0r0,278r-90,0r0,-1600r90,0r0,277r330,0v251,28,464,254,464,522xm943,-801v0,-232,-200,-431,-431,-431r-272,0r0,863r272,0v231,6,431,-200,431,-432","w":1124},"\u00e0":{"d":"674,-1071v181,0,352,96,446,228r0,-139r90,0r0,982r-90,0r0,-200v-94,131,-265,228,-446,228v-294,0,-549,-255,-549,-549v0,-295,254,-550,549,-550xm674,-68v218,0,412,-170,446,-364r0,-178v-33,-195,-227,-365,-446,-365v-244,0,-454,210,-454,454v0,244,210,453,454,453xm614,-1287r163,187r-84,0r-245,-187r166,0","w":1360},"\u00e1":{"d":"674,-1071v181,0,352,96,446,228r0,-139r90,0r0,982r-90,0r0,-200v-94,131,-265,228,-446,228v-294,0,-549,-255,-549,-549v0,-295,254,-550,549,-550xm674,-68v218,0,412,-170,446,-364r0,-178v-33,-195,-227,-365,-446,-365v-244,0,-454,210,-454,454v0,244,210,453,454,453xm887,-1287r-245,187r-84,0r163,-187r166,0","w":1360},"\u00e2":{"d":"674,-1071v181,0,352,96,446,228r0,-139r90,0r0,982r-90,0r0,-200v-94,131,-265,228,-446,228v-294,0,-549,-255,-549,-549v0,-295,254,-550,549,-550xm674,-68v218,0,412,-170,446,-364r0,-178v-33,-195,-227,-365,-446,-365v-244,0,-454,210,-454,454v0,244,210,453,454,453xm716,-1324r238,234r-104,0r-186,-143r-176,143r-105,0r229,-234r104,0","w":1360},"\u00e3":{"d":"674,-1071v181,0,352,96,446,228r0,-139r90,0r0,982r-90,0r0,-200v-94,131,-265,228,-446,228v-294,0,-549,-255,-549,-549v0,-295,254,-550,549,-550xm674,-68v218,0,412,-170,446,-364r0,-178v-33,-195,-227,-365,-446,-365v-244,0,-454,210,-454,454v0,244,210,453,454,453xm547,-1300v81,-6,176,114,244,105v33,-5,57,-30,70,-84r69,0v-21,103,-50,151,-141,158v-80,6,-175,-115,-244,-105v-33,5,-57,30,-70,84r-70,0v22,-103,50,-151,142,-158","w":1360},"\u00e4":{"d":"674,-1071v181,0,352,96,446,228r0,-139r90,0r0,982r-90,0r0,-200v-94,131,-265,228,-446,228v-294,0,-549,-255,-549,-549v0,-295,254,-550,549,-550xm674,-68v218,0,412,-170,446,-364r0,-178v-33,-195,-227,-365,-446,-365v-244,0,-454,210,-454,454v0,244,210,453,454,453xm518,-1330v48,0,90,41,90,89v0,49,-42,90,-90,90v-48,0,-90,-41,-90,-90v0,-48,42,-89,90,-89xm818,-1330v48,0,90,41,90,89v0,49,-42,90,-90,90v-48,0,-90,-41,-90,-90v0,-48,42,-89,90,-89","w":1360},"\u00e5":{"d":"674,-68v218,0,412,-170,446,-364r0,-178v-33,-195,-227,-365,-446,-365v-244,0,-454,210,-454,454v0,244,210,453,454,453xm725,-1179v0,-31,-27,-58,-57,-58v-31,0,-58,27,-58,58v0,30,27,57,58,57v30,0,57,-27,57,-57xm790,-1179v0,48,-32,92,-69,110v161,8,312,105,399,226r0,-139r90,0r0,982r-90,0r0,-200v-94,131,-265,228,-446,228v-294,0,-549,-255,-549,-549v0,-280,229,-528,491,-547v-38,-17,-71,-63,-71,-111v0,-66,57,-123,123,-123v65,0,122,57,122,123","w":1360},"\u00e6":{"d":"1085,-610v-40,-207,-224,-365,-446,-365v-244,0,-454,210,-454,454v0,244,210,453,454,453v221,0,406,-158,446,-364r0,-178xm1544,-975v-150,0,-290,81,-369,188r0,124r798,0v-50,-172,-229,-312,-429,-312xm639,-1071v181,0,352,96,446,228r0,-139r90,0r0,54v205,-198,562,-187,758,18v93,97,144,208,148,338r-906,-1r0,317v78,107,220,188,369,188v147,0,283,-76,364,-181r96,34v-11,19,-36,45,-71,82v-195,206,-553,216,-758,18r0,115r-90,0r0,-200v-94,131,-265,228,-446,228v-294,0,-549,-255,-549,-549v0,-295,254,-550,549,-550","w":2171},"\u00e7":{"d":"596,200v55,18,150,-4,128,-70v-36,-43,-87,-34,-160,-29r44,-74v-277,-7,-518,-262,-518,-549v0,-294,255,-549,549,-549v182,0,353,98,448,229r-95,35v-80,-100,-213,-168,-353,-168v-243,0,-453,210,-453,453v0,243,210,454,453,454v141,0,271,-68,353,-168r95,34v-87,122,-241,222,-403,228r-6,16v96,3,139,15,145,84v-12,92,-81,140,-186,134v-35,-2,-62,-10,-83,-23","w":1177},"\u00e8":{"d":"90,-522v0,-294,255,-549,549,-549v163,0,316,75,406,179r-708,708v85,77,185,116,302,116v141,0,271,-68,353,-168r95,34v-94,132,-266,230,-448,230v-295,0,-549,-255,-549,-550xm639,-975v-243,0,-453,210,-453,453v0,103,30,194,90,272r635,-635v-78,-60,-169,-90,-272,-90xm580,-1287r163,187r-84,0r-245,-187r166,0","w":1266},"\u00e9":{"d":"90,-522v0,-294,255,-549,549,-549v163,0,316,75,406,179r-708,708v85,77,185,116,302,116v141,0,271,-68,353,-168r95,34v-94,132,-266,230,-448,230v-295,0,-549,-255,-549,-550xm639,-975v-243,0,-453,210,-453,453v0,103,30,194,90,272r635,-635v-78,-60,-169,-90,-272,-90xm852,-1287r-245,187r-84,0r163,-187r166,0","w":1266},"\u00ea":{"d":"90,-522v0,-294,255,-549,549,-549v163,0,316,75,406,179r-708,708v85,77,185,116,302,116v141,0,271,-68,353,-168r95,34v-94,132,-266,230,-448,230v-295,0,-549,-255,-549,-550xm639,-975v-243,0,-453,210,-453,453v0,103,30,194,90,272r635,-635v-78,-60,-169,-90,-272,-90xm682,-1324r238,234r-104,0r-186,-143r-176,143r-105,0r229,-234r104,0","w":1266},"\u00eb":{"d":"90,-522v0,-294,255,-549,549,-549v163,0,316,75,406,179r-708,708v85,77,185,116,302,116v141,0,271,-68,353,-168r95,34v-94,132,-266,230,-448,230v-295,0,-549,-255,-549,-550xm639,-975v-243,0,-453,210,-453,453v0,103,30,194,90,272r635,-635v-78,-60,-169,-90,-272,-90xm483,-1330v48,0,90,41,90,89v0,49,-42,90,-90,90v-48,0,-90,-41,-90,-90v0,-48,42,-89,90,-89xm783,-1330v48,0,90,41,90,89v0,49,-42,90,-90,90v-48,0,-90,-41,-90,-90v0,-48,42,-89,90,-89","w":1266},"\u00ec":{"d":"260,-982r0,982r-90,0r0,-982r90,0xm92,-1287r163,187r-84,0r-245,-187r166,0","w":430},"\u00ed":{"d":"260,-982r0,982r-90,0r0,-982r90,0xm504,-1287r-245,187r-84,0r163,-187r166,0","w":430},"\u00ee":{"d":"260,-982r0,982r-90,0r0,-982r90,0xm263,-1324r238,234r-104,0r-186,-143r-176,143r-105,0r229,-234r104,0","w":430},"\u00ef":{"d":"260,-982r0,982r-90,0r0,-982r90,0xm65,-1330v48,0,90,41,90,89v0,49,-42,90,-90,90v-48,0,-90,-41,-90,-90v0,-48,42,-89,90,-89xm365,-1330v48,0,90,41,90,89v0,49,-42,90,-90,90v-48,0,-90,-41,-90,-90v0,-48,42,-89,90,-89","w":430},"\u00f1":{"d":"526,-951v-127,0,-245,92,-286,188r0,763r-90,0r0,-982r90,0r0,63v82,-81,177,-122,286,-122v226,0,394,165,395,384r0,657r-90,0r0,-649v5,-162,-144,-302,-305,-302xm415,-1300v81,-6,176,114,244,105v33,-5,57,-30,70,-84r69,0v-21,103,-50,151,-141,158v-80,6,-175,-115,-244,-105v-33,5,-57,30,-70,84r-70,0v22,-103,50,-151,142,-158","w":1071},"\u00f2":{"d":"90,-521v0,-295,254,-550,549,-550v296,0,549,254,549,550v0,295,-254,549,-549,549v-294,0,-549,-255,-549,-549xm639,-975v-244,0,-454,210,-454,454v0,244,210,453,454,453v244,0,454,-209,454,-453v0,-244,-210,-454,-454,-454xm586,-1287r163,187r-84,0r-245,-187r166,0","w":1278},"\u00f3":{"d":"90,-521v0,-295,254,-550,549,-550v296,0,549,254,549,550v0,295,-254,549,-549,549v-294,0,-549,-255,-549,-549xm639,-975v-244,0,-454,210,-454,454v0,244,210,453,454,453v244,0,454,-209,454,-453v0,-244,-210,-454,-454,-454xm858,-1287r-245,187r-84,0r163,-187r166,0","w":1278},"\u00f4":{"d":"90,-521v0,-295,254,-550,549,-550v296,0,549,254,549,550v0,295,-254,549,-549,549v-294,0,-549,-255,-549,-549xm639,-975v-244,0,-454,210,-454,454v0,244,210,453,454,453v244,0,454,-209,454,-453v0,-244,-210,-454,-454,-454xm688,-1324r238,234r-104,0r-186,-143r-176,143r-105,0r229,-234r104,0","w":1278},"\u00f5":{"d":"90,-521v0,-295,254,-550,549,-550v296,0,549,254,549,550v0,295,-254,549,-549,549v-294,0,-549,-255,-549,-549xm639,-975v-244,0,-454,210,-454,454v0,244,210,453,454,453v244,0,454,-209,454,-453v0,-244,-210,-454,-454,-454xm519,-1300v81,-6,176,114,244,105v33,-5,57,-30,70,-84r69,0v-21,103,-50,151,-141,158v-80,6,-175,-115,-244,-105v-33,5,-57,30,-70,84r-70,0v22,-103,50,-151,142,-158","w":1278},"\u00f6":{"d":"90,-521v0,-295,254,-550,549,-550v296,0,549,254,549,550v0,295,-254,549,-549,549v-294,0,-549,-255,-549,-549xm639,-975v-244,0,-454,210,-454,454v0,244,210,453,454,453v244,0,454,-209,454,-453v0,-244,-210,-454,-454,-454xm489,-1330v48,0,90,41,90,89v0,49,-42,90,-90,90v-48,0,-90,-41,-90,-90v0,-48,42,-89,90,-89xm789,-1330v48,0,90,41,90,89v0,49,-42,90,-90,90v-48,0,-90,-41,-90,-90v0,-48,42,-89,90,-89","w":1278},"\u00f7":{"d":"125,-659r800,0r0,90r-800,0r0,-90xm525,-903v48,0,90,41,90,89v0,49,-42,90,-90,90v-48,0,-90,-41,-90,-90v0,-48,42,-89,90,-89xm525,-503v48,0,90,41,90,89v0,49,-42,90,-90,90v-48,0,-90,-41,-90,-90v0,-48,42,-89,90,-89","w":1050},"\u00f8":{"d":"827,-937v-312,-140,-642,106,-642,415v0,151,81,292,190,369xm451,-108v311,139,642,-105,642,-414v0,-150,-80,-291,-189,-369xm1188,-522v0,295,-254,549,-549,549v-86,0,-165,-17,-236,-52r-123,213r-79,-38r126,-220v-135,-93,-237,-268,-237,-452v0,-295,254,-550,549,-550v86,0,165,17,237,52r122,-212r79,41r-125,216v135,92,236,268,236,453","w":1278},"\u00f9":{"d":"949,-370v-1,219,-169,384,-394,384v-236,0,-405,-161,-405,-384r0,-614r90,0r0,606v-3,165,145,302,314,302v161,0,305,-140,305,-302r0,-606r90,0r0,614xm496,-1287r163,187r-84,0r-245,-187r166,0","w":1099},"\u00fa":{"d":"949,-370v-1,219,-169,384,-394,384v-236,0,-405,-161,-405,-384r0,-614r90,0r0,606v-3,165,145,302,314,302v161,0,305,-140,305,-302r0,-606r90,0r0,614xm769,-1287r-245,187r-84,0r163,-187r166,0","w":1099},"\u00fb":{"d":"949,-370v-1,219,-169,384,-394,384v-236,0,-405,-161,-405,-384r0,-614r90,0r0,606v-3,165,145,302,314,302v161,0,305,-140,305,-302r0,-606r90,0r0,614xm598,-1324r238,234r-104,0r-186,-143r-176,143r-105,0r229,-234r104,0","w":1099},"\u00fc":{"d":"949,-370v-1,219,-169,384,-394,384v-236,0,-405,-161,-405,-384r0,-614r90,0r0,606v-3,165,145,302,314,302v161,0,305,-140,305,-302r0,-606r90,0r0,614xm400,-1330v48,0,90,41,90,89v0,49,-42,90,-90,90v-48,0,-90,-41,-90,-90v0,-48,42,-89,90,-89xm700,-1330v48,0,90,41,90,89v0,49,-42,90,-90,90v-48,0,-90,-41,-90,-90v0,-48,42,-89,90,-89","w":1099},"\u00fd":{"d":"930,-982r-649,1357r-88,0r265,-556r-383,-801r102,0r326,704r326,-704r101,0xm722,-1287r-245,187r-84,0r163,-187r166,0","w":1005},"\u00fe":{"d":"660,-975v-211,0,-399,159,-441,342r0,224v42,183,230,342,441,342v244,0,454,-210,454,-454v0,-244,-210,-454,-454,-454xm660,28v-178,0,-345,-92,-441,-222r0,552r-90,0r0,-1758r90,0r0,551v95,-129,263,-221,441,-221v296,0,549,253,549,549v0,295,-254,549,-549,549","w":1334},"\u00ff":{"d":"930,-982r-649,1357r-88,0r265,-556r-383,-801r102,0r326,704r326,-704r101,0xm353,-1330v48,0,90,41,90,89v0,49,-42,90,-90,90v-48,0,-90,-41,-90,-90v0,-48,42,-89,90,-89xm653,-1330v48,0,90,41,90,89v0,49,-42,90,-90,90v-48,0,-90,-41,-90,-90v0,-48,42,-89,90,-89","w":1005},"\u0131":{"d":"260,-982r0,982r-90,0r0,-982r90,0","w":430},"\u02c6":{"d":"454,-1324r238,234r-104,0r-186,-143r-176,143r-105,0r229,-234r104,0","w":811},"\u02c7":{"d":"350,-1090r-229,-234r105,0r176,143r186,-143r104,0r-238,234r-104,0","w":811},"\u02c9":{"d":"150,-1227r590,0r0,70r-590,0r0,-70","w":890},"\u02d8":{"d":"675,-1338v-9,114,-113,212,-234,212v-120,0,-231,-105,-236,-212r74,0v10,75,80,139,162,139v80,0,153,-64,161,-139r73,0","w":880},"\u02d9":{"d":"202,-1303v41,0,76,35,76,76v0,41,-35,76,-76,76v-42,0,-77,-34,-77,-76v0,-42,35,-76,77,-76","w":403},"\u02da":{"d":"382,-1262v66,0,123,57,123,123v0,65,-57,122,-123,122v-66,0,-123,-57,-123,-122v0,-66,57,-123,123,-123xm439,-1139v0,-31,-27,-58,-57,-58v-31,0,-58,27,-58,58v0,30,27,57,58,57v30,0,57,-27,57,-57","w":762},"\u02db":{"d":"384,276v-88,0,-165,-78,-165,-166v0,-45,16,-82,48,-110r44,0v-20,45,-30,82,-30,110v-2,56,48,103,103,102v63,-1,94,-43,102,-106r54,21v3,83,-73,149,-156,149","w":761},"\u02dc":{"d":"292,-1300v81,-6,176,114,244,105v33,-5,57,-30,70,-84r69,0v-21,103,-50,151,-141,158v-80,6,-175,-115,-244,-105v-33,5,-57,30,-70,84r-70,0v22,-103,50,-151,142,-158","w":825},"\u02dd":{"d":"479,-1268r-245,187r-84,0r163,-187r166,0xm708,-1268r-245,187r-84,0r163,-187r166,0","w":858},"\u2013":{"d":"50,-637r771,0r0,90r-771,0r0,-90","w":871},"\u2014":{"d":"50,-637r1407,0r0,90r-1407,0r0,-90","w":1507},"\u2018":{"d":"140,-1285v-62,0,-114,-66,-83,-128r98,-198r65,0r-57,150v36,8,67,45,67,87v0,48,-42,89,-90,89","w":280},"\u2019":{"d":"140,-1611v62,0,114,66,83,128r-98,198r-65,0r57,-150v-36,-8,-67,-46,-67,-87v0,-48,42,-89,90,-89","w":280},"\u201a":{"d":"140,-163v62,0,114,66,83,128r-98,198r-65,0r57,-150v-36,-8,-67,-46,-67,-87v0,-48,42,-89,90,-89","w":280},"\u201c":{"d":"140,-1285v-62,0,-114,-66,-83,-128r98,-198r65,0r-57,150v36,8,67,45,67,87v0,48,-42,89,-90,89xm392,-1285v-62,0,-114,-66,-83,-128r98,-198r65,0r-57,150v36,8,67,45,67,87v0,48,-42,89,-90,89","w":532},"\u201d":{"d":"140,-1611v62,0,114,66,83,128r-98,198r-65,0r57,-150v-36,-8,-67,-46,-67,-87v0,-48,42,-89,90,-89xm392,-1611v62,0,114,66,83,128r-98,198r-65,0r57,-150v-36,-8,-67,-46,-67,-87v0,-48,42,-89,90,-89","w":532},"\u201e":{"d":"140,-163v62,0,114,66,83,128r-98,198r-65,0r57,-150v-36,-8,-67,-46,-67,-87v0,-48,42,-89,90,-89xm392,-163v62,0,114,66,83,128r-98,198r-65,0r57,-150v-36,-8,-67,-46,-67,-87v0,-48,42,-89,90,-89","w":532},"\u2020":{"d":"350,-1596r0,-218r58,0r0,218r250,0r0,58r-250,0r0,1365r-58,0r0,-1365r-250,0r0,-58r250,0","w":758},"\u2021":{"d":"350,-1538r-250,0r0,-58r250,0r0,-218r58,0r0,218r250,0r0,58r-250,0r0,485r250,0r0,58r-250,0r0,822r-58,0r0,-822r-250,0r0,-58r250,0r0,-485","w":758},"\u2022":{"d":"1260,-1298v0,-125,83,-182,186,-182v119,0,178,61,178,182v0,23,-17,69,-50,140v17,72,49,129,70,196r-406,0r0,-6v43,-101,64,-169,64,-204v-28,-60,-42,-102,-42,-126xm1480,2v45,0,28,-67,10,-94v-10,-15,-18,-33,-26,-50v-34,26,-46,78,-20,120v9,16,21,24,36,24xm1636,-602v-64,15,-93,10,-90,36r154,70v6,-5,21,-2,20,-14v-24,-45,-52,-76,-84,-92xm1182,-510r0,6r28,8r146,-70v3,-27,-24,-21,-84,-36v-23,0,-53,31,-90,92xm1258,-658r14,14r308,0r70,-6r0,-8r-392,0xm972,-826r-36,36v0,14,-3,31,8,34r0,8v24,-10,47,-24,42,-64xm1902,-812v0,21,19,43,56,64v11,-5,7,-26,8,-42r-50,-42v-9,0,-14,7,-14,20xm2000,-860r0,76v24,7,43,18,70,22v2,-46,-18,-72,-62,-98r-8,0xm832,-762v27,-4,46,-16,70,-22r0,-76r-8,0v-41,21,-62,54,-62,98xm1966,-896v-10,-4,-22,-21,-28,-6v-1,12,10,13,14,20xm950,-910v-4,10,-21,22,-6,28v12,1,13,-10,20,-14xm2084,-916v-5,-1,-7,1,-6,6v0,57,37,99,112,126v6,-3,7,-10,6,-20v-32,-47,-69,-84,-112,-112xm706,-804v-2,10,8,9,6,20v77,-29,114,-68,112,-132r-6,0v-43,28,-80,65,-112,112xm2036,-958v-17,2,-25,12,-28,28v7,4,8,15,20,14v7,-10,20,-13,22,-28xm874,-958v-14,0,-20,8,-22,20v10,7,13,20,28,22v5,-7,15,-9,14,-22xm2162,-986v-5,79,30,126,118,126r98,0r0,-14v-17,-20,-50,-39,-98,-56v0,-13,-28,-25,-84,-36v-12,-6,-18,-18,-34,-20xm544,-896v-7,11,-23,15,-20,36v105,4,184,2,216,-78r0,-48v-44,11,-77,33,-118,48v0,9,-26,23,-78,42xm782,-1014v-11,7,-4,32,-6,48v22,2,36,-4,34,-28v0,-7,-9,-13,-28,-20xm2092,-1008r0,28v7,9,15,17,34,14r0,-34r-20,-22xm2148,-1056r20,20r22,0r14,-14r-14,-48v-32,-4,-42,9,-42,42xm712,-1098r-14,56v6,8,22,6,36,6r14,-14r-22,-48r-14,0xm2350,-1120v-3,22,14,25,22,36r90,0v5,-7,15,-9,14,-22r-104,-20xm426,-1106v-1,13,9,15,14,22r90,0v8,-11,25,-14,22,-36v-6,-1,-17,3,-14,-6xm1006,-1196r0,20v45,303,111,466,196,490r-188,-510r-8,0xm1720,-728r8,0v65,0,121,-149,168,-448v-4,-32,-11,-48,-22,-48v-28,37,-79,191,-154,462r0,34xm2120,-1322r0,20r70,28v6,-17,17,-28,20,-48r-90,0xm692,-1322v2,20,14,31,20,48r70,-28r0,-20r-90,0xm1020,-1350r0,6r224,644r406,0v61,-169,125,-372,190,-608r-70,-112v-108,-167,-162,-258,-162,-274r-336,0xm1224,-1714r-64,84v-116,144,-181,237,-196,280v12,-2,10,8,22,6v0,-23,38,-60,90,-132r162,-224xm1630,-1708r182,288v37,56,67,84,90,84r28,-22r-258,-384xm1706,-1764r0,22v129,171,207,266,232,286r0,-6v-116,-175,-193,-275,-232,-302xm950,-1448r22,0v128,-152,207,-253,238,-302v-15,0,-22,-7,-22,-20r-6,0v-75,75,-112,126,-112,154v-80,88,-120,144,-120,168xm2098,2v44,-7,25,-68,8,-94v-10,-16,-18,-33,-26,-50v-50,29,-44,137,18,144xm442,-244v19,100,72,214,3,310v-32,45,-72,94,-127,142v41,-81,62,-138,48,-223v-11,-68,-22,-110,-30,-127v-57,31,-30,97,-36,170v3,19,11,22,40,30v-27,3,-75,53,-119,53v-24,0,-48,-17,-71,-51v18,-10,30,-12,36,-24r0,-180v0,-15,-11,-25,-34,-32v59,-28,101,-51,126,-68v12,1,20,21,22,54v45,-21,94,-36,142,-54xm1224,-244v-2,11,59,75,52,92r0,180v3,18,10,21,36,29r0,-201v0,-15,-11,-25,-34,-32v59,-28,101,-51,126,-68v9,20,19,37,28,52r138,-52v4,38,40,118,40,175v0,107,-100,154,-184,181v3,46,-14,87,40,88v-27,5,-72,55,-117,55v-25,0,-49,-18,-73,-53v18,-7,29,-13,36,-22r0,-121v-25,4,-65,41,-106,50v-17,0,-31,-12,-44,-37r0,-144v-3,-20,-14,-43,-34,-70v-25,35,-10,113,-14,170v3,19,11,22,40,30v-25,3,-68,41,-110,51v-17,0,-32,-12,-44,-37r0,-144v-3,-20,-14,-43,-34,-70v-36,31,-11,112,-18,170v2,12,8,23,22,30v-9,3,-63,53,-101,53v-24,0,-48,-17,-71,-51v11,-7,31,-13,36,-24r0,-180v0,-15,-11,-25,-34,-32v57,-28,99,-51,126,-68v12,1,20,21,22,54r112,-54v-2,4,30,43,40,58v42,-17,84,-38,124,-58xm1182,-1806r546,0v19,15,100,127,252,330v38,51,59,63,56,104r-50,182r14,42r-28,42r8,0v81,-35,120,-74,118,-140v-54,-72,4,-126,120,-126v69,0,139,47,210,140v45,37,131,75,258,112r0,28v-19,-1,-25,14,-14,22v0,29,-24,32,-56,34r-216,14v-21,-19,-57,-28,-106,-28r-62,-28r-8,22v17,56,57,84,120,84v34,9,113,4,98,-22v-5,-9,-15,-13,-14,-28r28,14v53,-14,135,2,188,-14r22,8r0,14v0,27,-68,50,-204,70r-126,-8r0,22v97,28,146,36,232,34r0,8v-69,91,-226,86,-350,34r0,8v0,24,53,54,160,90v0,19,-25,36,-76,36v-29,0,-93,-21,-190,-64v0,23,23,53,70,92r-20,14r-134,-42v3,25,16,40,22,62r-28,8v-25,0,-70,-42,-134,-126r-62,314r-742,0v-25,0,-53,-98,-84,-294v-49,63,-89,98,-120,106r-28,-8r22,-62r-8,0v-57,28,-101,42,-132,42r-14,-22v47,-28,70,-56,70,-84r-8,0v-85,43,-148,64,-188,64v-47,0,-70,-17,-70,-36v110,-43,163,-57,160,-98r-6,0v-103,53,-282,57,-344,-34r0,-8v87,2,134,-6,232,-34r0,-22r-140,8v-127,-23,-190,-46,-190,-70r0,-14r14,0r0,-8v53,15,135,0,190,14r34,-14v2,18,-16,17,-14,36v0,9,23,20,70,20v99,0,148,-43,148,-104r-8,-8v-35,19,-81,31,-140,36v0,7,-9,13,-28,20r-230,-14v-32,2,-50,-22,-36,-48r-20,-8r0,-28v149,-41,249,-88,294,-146v55,-71,106,-106,182,-106v114,0,163,56,112,126v9,88,52,135,112,134r-70,-302v16,0,38,-35,84,-90xm2572,60v18,-10,30,-12,36,-24r0,-148v-12,5,-25,12,-38,20v-21,-44,-4,-97,38,-108v-10,-138,33,-227,166,-232v-52,50,-55,142,-52,244v16,-7,31,-14,44,-22v21,45,4,103,-44,108v4,42,-15,117,26,119v9,0,21,-4,36,-11v-24,42,-53,103,-113,103v-28,0,-61,-16,-99,-49xm2514,-244v19,100,73,212,4,310v-32,45,-72,94,-128,142v41,-81,62,-138,48,-223v-11,-68,-22,-110,-30,-127v-54,33,-31,97,-36,170v3,19,11,22,40,30v-25,3,-73,53,-117,53v-25,0,-49,-17,-73,-51v18,-10,30,-12,36,-24r0,-180v0,-15,-11,-25,-34,-32v59,-28,101,-51,126,-68v12,1,20,21,22,54v45,-20,95,-36,142,-54xm2015,114v-72,7,-106,-137,-73,-212v30,-70,157,-116,246,-146v2,38,39,120,39,175v0,110,-119,174,-212,183xm1592,60v18,-10,30,-12,36,-24r0,-384v0,-15,-11,-26,-34,-34v59,-28,100,-46,125,-53v13,19,27,38,43,57v-13,3,-20,10,-20,22r0,160v42,-19,89,-33,132,-50v16,97,68,172,14,274v-26,48,-63,96,-122,140v35,-73,53,-124,36,-199v-13,-58,-26,-96,-34,-113v-12,8,-21,17,-26,26r0,146v3,19,11,22,40,30v-27,3,-75,53,-119,53v-24,0,-48,-17,-71,-51xm769,212v0,27,-32,53,-59,38v-18,-10,-31,-28,-42,-52v-1,-2,-3,-3,-5,-3v-36,28,-78,63,-114,60v-58,-5,-98,-42,-96,-96v2,-45,24,-77,69,-97v-19,-58,-8,-136,-8,-206v0,-15,-11,-25,-34,-32v59,-28,101,-51,126,-68v12,1,22,19,22,52r0,220v7,30,24,15,46,-2r0,-170v0,-15,-11,-25,-34,-32v59,-28,101,-51,126,-68v12,1,22,19,22,52r0,180v8,66,-149,123,-209,123v-34,0,-54,15,-55,48v-1,20,22,34,46,36v35,2,93,-45,131,-43v38,2,68,22,68,60","w":2934},"\u2026":{"d":"190,-165v48,0,90,41,90,89v0,49,-42,90,-90,90v-48,0,-90,-41,-90,-90v0,-48,42,-89,90,-89xm873,-165v48,0,90,41,90,89v0,49,-42,90,-90,90v-48,0,-90,-41,-90,-90v0,-48,42,-89,90,-89xm1556,-165v48,0,90,41,90,89v0,49,-42,90,-90,90v-48,0,-90,-41,-90,-90v0,-48,42,-89,90,-89","w":2148},"\u2039":{"d":"100,-462r429,-460r0,104r-331,356r331,356r0,105","w":629},"\u203a":{"d":"100,-1r0,-105r331,-356r-331,-356r0,-104r429,460","w":629},"\u2044":{"d":"1041,-1430r-917,1311r-74,-51r918,-1311","w":1091},"\u2215":{"d":"1041,-1430r-917,1311r-74,-51r918,-1311","w":1091},"\u20a3":{"d":"212,-468r0,-1132r700,0r0,90r-610,0r0,665r610,0r0,90r-610,0r0,287r288,0r0,90r-288,0r0,378r-90,0r0,-378r-162,0r0,-90r162,0","w":1012},"\u20a4":{"d":"506,-21v-140,3,-217,61,-319,104r-87,-103v83,-73,135,-123,156,-149v71,-84,107,-179,108,-286r-236,0r0,-90r229,0v-5,-40,-14,-80,-26,-120r-203,0r0,-90r171,0v-11,-27,-22,-54,-37,-79v-79,-138,-127,-238,-127,-381v0,-213,171,-391,396,-388v252,3,460,249,370,517r-86,-29v66,-209,-89,-396,-283,-396v-179,0,-314,140,-301,326v5,75,29,163,78,256v31,59,64,115,87,174r232,0r0,90r-202,0v11,39,18,79,23,120r179,0r0,90r-173,0v-4,132,-61,263,-170,392v83,-30,165,-45,246,-45v110,0,227,39,331,39v53,0,104,-6,151,-18r17,89v-54,13,-110,20,-168,20v-110,0,-252,-45,-356,-43","w":1130},"\u20ac":{"d":"817,28v-294,0,-558,-255,-549,-549r0,-64r-168,0r18,-90r150,0r0,-120r-126,0r18,-90r108,0r0,-166v-8,-294,255,-549,549,-549v152,0,281,54,388,161r-67,67v-89,-88,-196,-132,-321,-132v-244,0,-461,209,-454,453r0,166r657,0r-18,90r-639,0r0,120r615,0r-18,90r-597,0r0,64v-7,244,210,453,454,453v203,0,385,-149,435,-318r98,0v-50,220,-277,414,-533,414","w":1450},"\u2116":{"d":"1894,-1543r35,0r0,632r-710,0r0,-35r675,0r0,-597xm1289,-1329v0,116,88,198,213,198v126,0,213,-81,213,-198v0,-115,-88,-198,-213,-198v-126,0,-213,82,-213,198xm1791,-1329v-2,157,-130,275,-304,275v-149,0,-277,-127,-275,-275v2,-157,130,-275,304,-275v149,0,277,127,275,275xm125,-1600r99,0r822,1423r0,-1423r90,0r0,1600r-90,0r-831,-1437r0,1437r-90,0r0,-1600","w":2054},"\u2122":{"d":"497,-1556r-158,0r0,604r-57,0r0,-604r-182,0r0,-52r453,0r267,409r266,-409r65,0r-9,13r0,643r-56,0r0,-556r-266,410r-267,-410r0,556r-56,0r0,-604","w":1251},"\u00aa":{"d":"131,-944r575,0r0,31r-606,0r0,-628r31,0r0,597xm514,-1600v83,0,160,38,209,98r0,-55r55,0r0,486r-55,0r0,-85v-47,58,-128,98,-209,98v-146,0,-271,-125,-271,-271v0,-146,125,-271,271,-271xm514,-1116v102,0,194,-80,209,-170r0,-85v-15,-91,-107,-171,-209,-171v-115,0,-214,98,-214,213v0,116,99,213,214,213","w":878},"\u00ba":{"d":"300,-1329v0,124,93,213,229,213v135,0,228,-88,228,-213v0,-123,-93,-213,-228,-213v-136,0,-229,90,-229,213xm814,-1329v-2,155,-128,271,-300,271v-146,0,-273,-125,-271,-271v2,-155,128,-271,300,-271v146,0,273,125,271,271xm131,-944r575,0r0,31r-606,0r0,-628r31,0r0,597","w":914},"\u00f0":{"d":"639,-975v-244,0,-454,210,-454,454v0,244,210,453,454,453v244,0,454,-209,454,-453v0,-244,-210,-454,-454,-454xm90,-521v0,-315,269,-588,614,-547r-54,-60r-168,0r0,-90r87,0r-104,-115r128,0r115,115r164,0r0,90r-73,0r158,157v132,94,231,267,231,450v0,295,-254,549,-549,549v-294,0,-549,-255,-549,-549","w":1278},"\u0100":{"d":"890,-703r-244,-671r-244,671r488,0xm923,-613r-554,0r-223,613r-96,0r596,-1637r595,1637r-95,0xm351,-1745r590,0r0,70r-590,0r0,-70"},"\u0101":{"d":"674,-1071v181,0,352,96,446,228r0,-139r90,0r0,982r-90,0r0,-200v-94,131,-265,228,-446,228v-294,0,-549,-255,-549,-549v0,-295,254,-550,549,-550xm674,-68v218,0,412,-170,446,-364r0,-178v-33,-195,-227,-365,-446,-365v-244,0,-454,210,-454,454v0,244,210,453,454,453xm373,-1227r590,0r0,70r-590,0r0,-70","w":1360},"\u0102":{"d":"890,-703r-244,-671r-244,671r488,0xm923,-613r-554,0r-223,613r-96,0r596,-1637r595,1637r-95,0xm880,-1856v-9,114,-113,212,-234,212v-120,0,-231,-105,-236,-212r74,0v10,75,80,139,162,139v80,0,153,-64,161,-139r73,0"},"\u0103":{"d":"674,-1071v181,0,352,96,446,228r0,-139r90,0r0,982r-90,0r0,-200v-94,131,-265,228,-446,228v-294,0,-549,-255,-549,-549v0,-295,254,-550,549,-550xm674,-68v218,0,412,-170,446,-364r0,-178v-33,-195,-227,-365,-446,-365v-244,0,-454,210,-454,454v0,244,210,453,454,453xm902,-1338v-9,114,-113,212,-234,212v-120,0,-231,-105,-236,-212r74,0v10,75,80,139,162,139v80,0,153,-64,161,-139r73,0","w":1360},"\u0106":{"d":"217,-800v0,392,336,728,727,728v185,0,346,-61,483,-183r68,61v-156,142,-340,213,-551,213v-441,0,-819,-378,-819,-819v0,-440,378,-819,819,-819v211,0,395,71,551,213r-68,62v-137,-122,-298,-183,-483,-183v-391,0,-727,337,-727,727xm1179,-1855r-245,187r-84,0r163,-187r166,0","w":1595},"\u0107":{"d":"639,-68v141,0,271,-68,353,-168r95,34v-94,132,-266,230,-448,230v-295,0,-549,-255,-549,-550v0,-294,255,-549,549,-549v182,0,353,98,448,229r-95,35v-80,-100,-213,-168,-353,-168v-243,0,-453,210,-453,453v0,243,210,454,453,454xm878,-1287r-245,187r-84,0r163,-187r166,0","w":1177},"\u0108":{"d":"217,-800v0,392,336,728,727,728v185,0,346,-61,483,-183r68,61v-156,142,-340,213,-551,213v-441,0,-819,-378,-819,-819v0,-440,378,-819,819,-819v211,0,395,71,551,213r-68,62v-137,-122,-298,-183,-483,-183v-391,0,-727,337,-727,727xm999,-1892r238,234r-104,0r-186,-143r-176,143r-105,0r229,-234r104,0","w":1595},"\u0109":{"d":"639,-68v141,0,271,-68,353,-168r95,34v-94,132,-266,230,-448,230v-295,0,-549,-255,-549,-550v0,-294,255,-549,549,-549v182,0,353,98,448,229r-95,35v-80,-100,-213,-168,-353,-168v-243,0,-453,210,-453,453v0,243,210,454,453,454xm687,-1324r238,234r-104,0r-186,-143r-176,143r-105,0r229,-234r104,0","w":1177},"\u010a":{"d":"217,-800v0,392,336,728,727,728v185,0,346,-61,483,-183r68,61v-156,142,-340,213,-551,213v-441,0,-819,-378,-819,-819v0,-440,378,-819,819,-819v211,0,395,71,551,213r-68,62v-137,-122,-298,-183,-483,-183v-391,0,-727,337,-727,727xm947,-1824v41,0,76,35,76,76v0,41,-35,76,-76,76v-42,0,-77,-34,-77,-76v0,-42,35,-76,77,-76","w":1595},"\u010b":{"d":"639,-68v141,0,271,-68,353,-168r95,34v-94,132,-266,230,-448,230v-295,0,-549,-255,-549,-550v0,-294,255,-549,549,-549v182,0,353,98,448,229r-95,35v-80,-100,-213,-168,-353,-168v-243,0,-453,210,-453,453v0,243,210,454,453,454xm629,-1303v40,0,76,35,76,75v0,41,-35,77,-76,77v-42,0,-77,-35,-77,-77v0,-41,36,-75,77,-75","w":1177},"\u010c":{"d":"217,-800v0,392,336,728,727,728v185,0,346,-61,483,-183r68,61v-156,142,-340,213,-551,213v-441,0,-819,-378,-819,-819v0,-440,378,-819,819,-819v211,0,395,71,551,213r-68,62v-137,-122,-298,-183,-483,-183v-391,0,-727,337,-727,727xm875,-1658r-229,-234r105,0r176,143r186,-143r104,0r-238,234r-104,0","w":1595},"\u010d":{"d":"639,-68v141,0,271,-68,353,-168r95,34v-94,132,-266,230,-448,230v-295,0,-549,-255,-549,-550v0,-294,255,-549,549,-549v182,0,353,98,448,229r-95,35v-80,-100,-213,-168,-353,-168v-243,0,-453,210,-453,453v0,243,210,454,453,454xm583,-1090r-229,-234r105,0r176,143r186,-143r104,0r-238,234r-104,0","w":1177},"\u0110":{"d":"210,-845r0,-755v32,1,67,2,97,2v263,0,465,76,612,218v317,307,316,853,0,1160v-166,161,-398,227,-709,220r0,-755r-160,0r0,-90r160,0xm300,-845r370,0r0,90r-370,0r0,662v241,1,423,-65,554,-192v282,-271,282,-758,0,-1030v-131,-126,-313,-192,-554,-191r0,661","w":1284},"\u0111":{"d":"674,-68v218,0,412,-170,446,-364r0,-178v-33,-195,-227,-365,-446,-365v-244,0,-454,210,-454,454v0,244,210,453,454,453xm674,-1071v181,0,352,96,446,228r0,-440r-291,0r0,-90r291,0r0,-227r90,0r0,227r99,0r0,90r-99,0r0,1283r-90,0r0,-200v-94,131,-265,228,-446,228v-294,0,-549,-255,-549,-549v0,-295,254,-550,549,-550","w":1360},"\u0112":{"d":"950,-1600r0,90r-710,0r0,665r710,0r0,90r-710,0r0,665r710,0r0,90r-800,0r0,-1600r800,0xm255,-1755r590,0r0,70r-590,0r0,-70","w":1075},"\u0113":{"d":"90,-522v0,-294,255,-549,549,-549v163,0,316,75,406,179r-708,708v85,77,185,116,302,116v141,0,271,-68,353,-168r95,34v-94,132,-266,230,-448,230v-295,0,-549,-255,-549,-550xm639,-975v-243,0,-453,210,-453,453v0,103,30,194,90,272r635,-635v-78,-60,-169,-90,-272,-90xm338,-1227r590,0r0,70r-590,0r0,-70","w":1266},"\u0114":{"d":"950,-1600r0,90r-710,0r0,665r710,0r0,90r-710,0r0,665r710,0r0,90r-800,0r0,-1600r800,0xm785,-1856v-9,114,-113,212,-234,212v-120,0,-231,-105,-236,-212r74,0v10,75,80,139,162,139v80,0,153,-64,161,-139r73,0","w":1075},"\u0115":{"d":"90,-522v0,-294,255,-549,549,-549v163,0,316,75,406,179r-708,708v85,77,185,116,302,116v141,0,271,-68,353,-168r95,34v-94,132,-266,230,-448,230v-295,0,-549,-255,-549,-550xm639,-975v-243,0,-453,210,-453,453v0,103,30,194,90,272r635,-635v-78,-60,-169,-90,-272,-90xm868,-1338v-9,114,-113,212,-234,212v-120,0,-231,-105,-236,-212r74,0v10,75,80,139,162,139v80,0,153,-64,161,-139r73,0","w":1266},"\u0116":{"d":"950,-1600r0,90r-710,0r0,665r710,0r0,90r-710,0r0,665r710,0r0,90r-800,0r0,-1600r800,0xm551,-1824v41,0,76,35,76,76v0,41,-35,76,-76,76v-42,0,-77,-34,-77,-76v0,-42,35,-76,77,-76","w":1075},"\u0117":{"d":"90,-522v0,-294,255,-549,549,-549v163,0,316,75,406,179r-708,708v85,77,185,116,302,116v141,0,271,-68,353,-168r95,34v-94,132,-266,230,-448,230v-295,0,-549,-255,-549,-550xm639,-975v-243,0,-453,210,-453,453v0,103,30,194,90,272r635,-635v-78,-60,-169,-90,-272,-90xm634,-1303v41,0,76,35,76,76v0,41,-35,76,-76,76v-42,0,-77,-34,-77,-76v0,-42,35,-76,77,-76","w":1266},"\u0118":{"d":"695,234v-111,0,-202,-122,-149,-234r-396,0r0,-1600r800,0r0,90r-710,0r0,665r710,0r0,90r-710,0r0,665r710,0r0,90r-344,0v-37,85,7,170,89,170v64,0,94,-43,102,-106v17,9,41,11,55,23v1,79,-73,147,-157,147","w":1075},"\u0119":{"d":"1068,-663v-50,-172,-229,-312,-429,-312v-201,0,-382,146,-433,312r862,0xm738,234v-102,0,-189,-98,-158,-209v-261,-19,-490,-268,-490,-546v0,-295,254,-550,549,-550v277,0,535,227,537,499r-988,-1v-35,284,192,502,451,505v147,2,283,-76,364,-181r96,34v-11,19,-35,46,-71,82v-107,107,-235,160,-386,161v-25,76,27,143,96,143v65,0,94,-43,102,-107v17,9,40,12,55,24v1,79,-73,146,-157,146","w":1266},"\u011a":{"d":"950,-1600r0,90r-710,0r0,665r710,0r0,90r-710,0r0,665r710,0r0,90r-800,0r0,-1600r800,0xm495,-1658r-229,-234r105,0r176,143r186,-143r104,0r-238,234r-104,0","w":1075},"\u011b":{"d":"90,-522v0,-294,255,-549,549,-549v163,0,316,75,406,179r-708,708v85,77,185,116,302,116v141,0,271,-68,353,-168r95,34v-94,132,-266,230,-448,230v-295,0,-549,-255,-549,-550xm639,-975v-243,0,-453,210,-453,453v0,103,30,194,90,272r635,-635v-78,-60,-169,-90,-272,-90xm578,-1090r-229,-234r105,0r176,143r186,-143r104,0r-238,234r-104,0","w":1266},"\u011c":{"d":"217,-800v0,392,336,728,727,728v172,0,324,-53,455,-159r0,-488r90,0r0,520v-152,145,-334,218,-545,218v-441,0,-819,-378,-819,-819v0,-440,378,-819,819,-819v211,0,395,71,551,213r-68,62v-137,-122,-298,-183,-483,-183v-391,0,-727,337,-727,727xm979,-1892r238,234r-104,0r-186,-143r-176,143r-105,0r229,-234r104,0","w":1620},"\u011d":{"d":"674,-67v217,0,408,-167,445,-358r0,-190v-35,-192,-228,-360,-445,-360v-244,0,-454,210,-454,454v0,244,210,454,454,454xm312,56v81,99,213,168,353,168v233,0,443,-196,452,-419v-96,129,-264,223,-443,223v-294,0,-549,-255,-549,-549v0,-296,254,-549,549,-549v181,0,352,95,446,227r0,-139r90,0r0,763v8,291,-255,539,-545,539v-182,0,-354,-98,-448,-230xm716,-1324r238,234r-104,0r-186,-143r-176,143r-105,0r229,-234r104,0","w":1364},"\u011e":{"d":"217,-800v0,392,336,728,727,728v172,0,324,-53,455,-159r0,-488r90,0r0,520v-152,145,-334,218,-545,218v-441,0,-819,-378,-819,-819v0,-440,378,-819,819,-819v211,0,395,71,551,213r-68,62v-137,-122,-298,-183,-483,-183v-391,0,-727,337,-727,727xm1175,-1856v-9,114,-113,212,-234,212v-120,0,-231,-105,-236,-212r74,0v10,75,80,139,162,139v80,0,153,-64,161,-139r73,0","w":1620},"\u011f":{"d":"674,-67v217,0,408,-167,445,-358r0,-190v-35,-192,-228,-360,-445,-360v-244,0,-454,210,-454,454v0,244,210,454,454,454xm312,56v81,99,213,168,353,168v233,0,443,-196,452,-419v-96,129,-264,223,-443,223v-294,0,-549,-255,-549,-549v0,-296,254,-549,549,-549v181,0,352,95,446,227r0,-139r90,0r0,763v8,291,-255,539,-545,539v-182,0,-354,-98,-448,-230xm903,-1338v-9,114,-113,212,-234,212v-120,0,-231,-105,-236,-212r74,0v10,75,80,139,162,139v80,0,153,-64,161,-139r73,0","w":1364},"\u0120":{"d":"217,-800v0,392,336,728,727,728v172,0,324,-53,455,-159r0,-488r90,0r0,520v-152,145,-334,218,-545,218v-441,0,-819,-378,-819,-819v0,-440,378,-819,819,-819v211,0,395,71,551,213r-68,62v-137,-122,-298,-183,-483,-183v-391,0,-727,337,-727,727xm941,-1824v41,0,76,35,76,76v0,41,-35,76,-76,76v-42,0,-77,-34,-77,-76v0,-42,35,-76,77,-76","w":1620},"\u0121":{"d":"674,-67v217,0,408,-167,445,-358r0,-190v-35,-192,-228,-360,-445,-360v-244,0,-454,210,-454,454v0,244,210,454,454,454xm312,56v81,99,213,168,353,168v233,0,443,-196,452,-419v-96,129,-264,223,-443,223v-294,0,-549,-255,-549,-549v0,-296,254,-549,549,-549v181,0,352,95,446,227r0,-139r90,0r0,763v8,291,-255,539,-545,539v-182,0,-354,-98,-448,-230xm668,-1303v41,0,76,35,76,76v0,41,-35,76,-76,76v-42,0,-77,-34,-77,-76v0,-42,35,-76,77,-76","w":1364},"\u012c":{"d":"255,-1600r0,1600r-90,0r0,-1600r90,0xm445,-1856v-9,114,-113,212,-234,212v-120,0,-231,-105,-236,-212r74,0v10,75,80,139,162,139v80,0,153,-64,161,-139r73,0","w":420},"\u012d":{"d":"255,-982r0,982r-90,0r0,-982r90,0xm445,-1238v-9,114,-113,212,-234,212v-120,0,-231,-105,-236,-212r74,0v10,75,80,139,162,139v80,0,153,-64,161,-139r73,0","w":420},"\u013f":{"d":"150,0r0,-1600r90,0r0,1510r620,0r0,90r-710,0xm738,-876v41,0,76,35,76,76v0,41,-35,76,-76,76v-42,0,-77,-34,-77,-76v0,-42,35,-76,77,-76","w":950},"\u0140":{"d":"240,-1600r0,1600r-90,0r0,-1600r90,0xm417,-876v41,0,76,35,76,76v0,41,-35,76,-76,76v-42,0,-77,-34,-77,-76v0,-42,35,-76,77,-76","w":593},"\u0143":{"d":"150,-1600r99,0r822,1423r0,-1423r90,0r0,1600r-90,0r-831,-1437r0,1437r-90,0r0,-1600xm875,-1805r-245,187r-84,0r163,-187r166,0","w":1311},"\u0144":{"d":"526,-951v-127,0,-245,92,-286,188r0,763r-90,0r0,-982r90,0r0,63v82,-81,177,-122,286,-122v226,0,394,165,395,384r0,657r-90,0r0,-649v5,-162,-144,-302,-305,-302xm755,-1287r-245,187r-84,0r163,-187r166,0","w":1071},"\u0147":{"d":"150,-1600r99,0r822,1423r0,-1423r90,0r0,1600r-90,0r-831,-1437r0,1437r-90,0r0,-1600xm600,-1608r-229,-234r105,0r176,143r186,-143r104,0r-238,234r-104,0","w":1311},"\u0148":{"d":"526,-951v-127,0,-245,92,-286,188r0,763r-90,0r0,-982r90,0r0,63v82,-81,177,-122,286,-122v226,0,394,165,395,384r0,657r-90,0r0,-649v5,-162,-144,-302,-305,-302xm480,-1090r-229,-234r105,0r176,143r186,-143r104,0r-238,234r-104,0","w":1071},"\u014c":{"d":"946,-1623v441,0,821,380,821,821v0,441,-380,821,-821,821v-441,0,-821,-380,-821,-821v0,-441,380,-821,821,-821xm1675,-802v0,-392,-337,-729,-729,-729v-392,0,-729,337,-729,729v0,392,337,730,729,730v392,0,729,-338,729,-730xm651,-1745r590,0r0,70r-590,0r0,-70","w":1892},"\u014d":{"d":"90,-521v0,-295,254,-550,549,-550v296,0,549,254,549,550v0,295,-254,549,-549,549v-294,0,-549,-255,-549,-549xm639,-975v-244,0,-454,210,-454,454v0,244,210,453,454,453v244,0,454,-209,454,-453v0,-244,-210,-454,-454,-454xm344,-1199r590,0r0,70r-590,0r0,-70","w":1278},"\u014e":{"d":"946,-1623v441,0,821,380,821,821v0,441,-380,821,-821,821v-441,0,-821,-380,-821,-821v0,-441,380,-821,821,-821xm1675,-802v0,-392,-337,-729,-729,-729v-392,0,-729,337,-729,729v0,392,337,730,729,730v392,0,729,-338,729,-730xm1181,-1856v-9,114,-113,212,-234,212v-120,0,-231,-105,-236,-212r74,0v10,75,80,139,162,139v80,0,153,-64,161,-139r73,0","w":1892},"\u014f":{"d":"90,-521v0,-295,254,-550,549,-550v296,0,549,254,549,550v0,295,-254,549,-549,549v-294,0,-549,-255,-549,-549xm639,-975v-244,0,-454,210,-454,454v0,244,210,453,454,453v244,0,454,-209,454,-453v0,-244,-210,-454,-454,-454xm874,-1338v-9,114,-113,212,-234,212v-120,0,-231,-105,-236,-212r74,0v10,75,80,139,162,139v80,0,153,-64,161,-139r73,0","w":1278},"\u0150":{"d":"946,-1623v441,0,821,380,821,821v0,441,-380,821,-821,821v-441,0,-821,-380,-821,-821v0,-441,380,-821,821,-821xm1675,-802v0,-392,-337,-729,-729,-729v-392,0,-729,337,-729,729v0,392,337,730,729,730v392,0,729,-338,729,-730xm1056,-1836r-245,187r-84,0r163,-187r166,0xm1285,-1836r-245,187r-84,0r163,-187r166,0","w":1892},"\u0151":{"d":"90,-521v0,-295,254,-550,549,-550v296,0,549,254,549,550v0,295,-254,549,-549,549v-294,0,-549,-255,-549,-549xm639,-975v-244,0,-454,210,-454,454v0,244,210,453,454,453v244,0,454,-209,454,-453v0,-244,-210,-454,-454,-454xm749,-1268r-245,187r-84,0r163,-187r166,0xm978,-1268r-245,187r-84,0r163,-187r166,0","w":1278},"\u0152":{"d":"90,-802v0,-441,380,-821,821,-821v92,0,177,23,259,23r1000,0r0,90r-840,0v213,125,399,387,401,665r439,0r0,90r-439,0v-4,280,-193,540,-407,665r846,0r0,90r-1000,0v-81,13,-167,19,-259,19v-441,0,-821,-380,-821,-821xm182,-802v0,392,337,738,729,730v231,-5,395,-89,516,-214v150,-156,220,-311,212,-559v-10,-292,-220,-549,-469,-641v-504,-185,-988,207,-988,684","w":2295},"\u0153":{"d":"639,-975v-244,0,-454,210,-454,454v0,244,210,453,454,453v244,0,454,-209,454,-453v0,-244,-210,-454,-454,-454xm1929,-663v-50,-172,-229,-312,-429,-312v-153,0,-297,84,-374,196v19,37,34,75,45,116r758,0xm1070,-863v97,-123,259,-208,430,-208v277,0,535,227,537,499r-851,-1v9,122,-12,218,-61,310v79,109,222,195,375,195v147,0,283,-76,364,-181r96,34v-11,19,-35,46,-71,82v-107,107,-237,161,-389,161v-171,0,-333,-84,-430,-208v-97,123,-259,208,-431,208v-294,0,-549,-255,-549,-549v0,-295,254,-550,549,-550v172,0,333,84,431,208","w":2127},"\u0178":{"d":"600,-647r-550,-953r103,0r492,853r493,-853r103,0r-551,953r0,647r-90,0r0,-647xm496,-1848v48,0,90,41,90,89v0,49,-42,90,-90,90v-48,0,-90,-41,-90,-90v0,-48,42,-89,90,-89xm796,-1848v48,0,90,41,90,89v0,49,-42,90,-90,90v-48,0,-90,-41,-90,-90v0,-48,42,-89,90,-89"},"\u1ef2":{"d":"600,-647r-550,-953r103,0r492,853r493,-853r103,0r-551,953r0,647r-90,0r0,-647xm592,-1805r163,187r-84,0r-245,-187r166,0"},"\u1ef3":{"d":"930,-982r-649,1357r-88,0r265,-556r-383,-801r102,0r326,704r326,-704r101,0xm449,-1287r163,187r-84,0r-245,-187r166,0","w":1005},"\u2030":{"d":"1107,-1314r-918,1311r-74,-51r918,-1311xm311,-1215v125,0,231,106,231,231v0,125,-106,231,-231,231v-125,0,-231,-106,-231,-231v0,-125,106,-231,231,-231xm455,-984v0,-78,-67,-144,-144,-144v-78,0,-144,66,-144,144v0,78,66,144,144,144v77,0,144,-67,144,-144xm911,-615v125,0,231,106,231,231v0,125,-106,231,-231,231v-125,0,-231,-106,-231,-231v0,-125,106,-231,231,-231xm1055,-384v0,-78,-67,-144,-144,-144v-78,0,-144,66,-144,144v0,78,66,144,144,144v77,0,144,-67,144,-144xm1461,-615v125,0,231,106,231,231v0,125,-106,231,-231,231v-125,0,-231,-106,-231,-231v0,-125,106,-231,231,-231xm1605,-384v0,-78,-67,-144,-144,-144v-78,0,-144,66,-144,144v0,78,66,144,144,144v77,0,144,-67,144,-144","w":1772},"\u20a7":{"d":"864,-1078v0,-224,-172,-431,-388,-431r-245,0r0,863r245,0v215,5,388,-209,388,-432xm1459,-66v108,0,202,-93,202,-203v0,-55,-20,-103,-59,-142v-21,-21,-63,-55,-129,-94v-75,-44,-129,-77,-159,-106v-73,-70,-91,-187,-40,-281r-161,0r0,892r-90,0r0,-892r-106,0v-55,174,-238,337,-441,337r-245,0r0,555r-81,0r0,-1600r378,0v260,41,463,301,411,618r84,0r0,-418r90,0r0,418r248,0v35,-21,75,-32,119,-32v121,0,227,95,224,212r-78,31v-11,-91,-54,-150,-146,-152v-78,-2,-152,67,-146,146v7,103,56,122,149,179v83,51,146,88,182,124v57,57,85,126,85,205v0,158,-134,293,-291,293v-149,0,-293,-135,-291,-273r89,-23v-4,113,92,206,202,206","w":1855}}});
