// #### Generated By: http://www.cufonfonts.com ####
/*!
 * The following copyright notice may not be removed under any circumstances.
 * 
 * Copyright:
 * Copyright (c) 2003 by Bitstream, Inc. All Rights Reserved.
 * DejaVu changes are in public domain
 * 
 * 
 * Manufacturer:
 * DejaVu fonts team
 * 
 * Vendor URL:
 * http://dejavu.sourceforge.net
 * 
 * License information:
 * http://dejavu.sourceforge.net/wiki/index.php/License
 */
Cufon.registerFont({"w":1233,"face":{"font-family":"DejaVu Sans Mono","font-weight":400,"font-stretch":"normal","units-per-em":"2048","panose-1":"2 11 6 9 3 8 4 2 2 4","ascent":"1556","descent":"-492","x-height":"29","bbox":"-10 -2133 1312 573","underline-thickness":"90","underline-position":"-85","unicode-range":"U+0020-U+20B5"},"glyphs":{" ":{},"!":{"d":"516,-1493r203,0r0,655r-21,357r-161,0r-21,-357r0,-655xm516,-254r203,0r0,254r-203,0r0,-254"},"\"":{"d":"895,-1493r0,555r-174,0r0,-555r174,0xm512,-1493r0,555r-174,0r0,-555r174,0"},"#":{"d":"684,-1470r-104,415r245,0r105,-415r160,0r-105,415r244,0r0,154r-281,0r-84,334r250,0r0,153r-289,0r-104,414r-160,0r105,-414r-246,0r-105,414r-159,0r104,-414r-258,0r0,-153r297,0r84,-334r-266,0r0,-154r303,0r104,-415r160,0xm788,-901r-245,0r-84,334r246,0"},"$":{"d":"692,-146v140,-2,236,-81,234,-219v-2,-145,-92,-192,-234,-215r0,434xm592,-1183v-131,3,-223,80,-221,210v2,133,91,183,221,203r0,-413xm692,-750v238,35,422,140,422,379v0,220,-194,364,-421,369r-1,303r-100,0r-1,-301v-151,-8,-282,-42,-401,-92r0,-180v115,71,242,124,402,130r0,-458v-232,-36,-402,-129,-402,-363v0,-228,171,-344,402,-358r0,-235r100,0r1,235v117,8,223,29,325,61r0,173v-100,-50,-199,-86,-326,-94r0,431"},"%":{"d":"879,-504v-102,0,-183,83,-183,185v0,102,81,184,183,184v100,0,184,-84,184,-184v0,-100,-85,-185,-184,-185xm879,0v-177,0,-318,-142,-318,-319v0,-216,219,-388,439,-296v109,46,196,148,200,296v4,174,-146,319,-321,319xm121,-465r-35,-96r1042,-418r41,96xm352,-1296v-100,0,-184,83,-184,184v0,103,81,184,184,184v100,0,185,-84,185,-184v0,-100,-85,-184,-185,-184xm352,-793v-176,0,-319,-143,-319,-319v0,-217,219,-388,441,-296v111,46,194,146,198,296v5,174,-146,319,-320,319"},"&":{"d":"621,-1366v-119,-2,-209,58,-209,168v0,130,56,185,135,291r416,559v73,-86,84,-251,73,-412r164,0v5,234,-43,408,-149,531r170,229r-213,0r-78,-109v-99,83,-211,135,-375,138v-277,6,-504,-202,-498,-473v5,-226,123,-359,277,-471v-56,-82,-97,-162,-98,-281v-2,-208,155,-327,372,-324v100,1,183,20,266,47r0,183v-70,-47,-147,-75,-253,-76xm233,-475v-5,227,200,398,443,338v63,-16,124,-50,168,-86r-428,-580v-102,82,-179,173,-183,328"},"'":{"d":"702,-1493r0,555r-174,0r0,-555r174,0"},"(":{"d":"426,-643v0,-371,131,-646,299,-911r160,0v-153,264,-264,542,-264,911v0,367,112,649,264,913r-160,0v-169,-270,-299,-537,-299,-913"},")":{"d":"612,-643v0,-365,-112,-649,-264,-911r160,0v169,267,299,537,299,911v0,373,-131,647,-299,913r-160,0v152,-267,264,-545,264,-913"},"*":{"d":"1067,-1247r-358,194r358,195r-57,98r-336,-203r0,377r-115,0r0,-377r-336,203r-57,-98r358,-195r-358,-194r57,-99r336,203r0,-377r115,0r0,377r336,-203"},"+":{"d":"700,-1171r0,444r445,0r0,170r-445,0r0,444r-168,0r0,-444r-444,0r0,-170r444,0r0,-444r168,0"},",":{"d":"502,-303r252,0r0,207r-197,383r-154,0r99,-383r0,-207"},"-":{"d":"356,-643r521,0r0,164r-521,0r0,-164"},".":{"d":"489,-305r252,0r0,305r-252,0r0,-305"},"\/":{"d":"889,-1493r190,0r-786,1683r-191,0"},"0":{"d":"614,-616v-74,0,-131,-59,-131,-134v0,-71,61,-135,131,-135v72,0,136,63,136,135v0,73,-62,134,-136,134xm616,-1360v-94,0,-160,53,-210,152v-89,177,-89,749,0,925v50,99,116,152,210,152v95,0,162,-53,212,-152v89,-177,89,-749,0,-925v-50,-99,-117,-152,-212,-152xm616,-1520v159,0,275,69,362,196v158,232,158,925,0,1157v-87,127,-203,196,-362,196v-159,0,-275,-69,-361,-196v-158,-232,-157,-926,0,-1157v87,-127,202,-196,361,-196"},"1":{"d":"270,-170r314,0r0,-1141r-338,76r0,-184r336,-74r202,0r0,1323r310,0r0,170r-824,0r0,-170"},"2":{"d":"563,-1520v274,-5,491,161,486,422v-6,269,-202,426,-351,584r-325,344r686,0r0,170r-907,0r0,-170r327,-348v156,-169,250,-260,328,-410v26,-49,35,-102,35,-155v1,-167,-107,-270,-275,-267v-161,3,-280,61,-403,133r0,-204v119,-56,243,-97,399,-99"},"3":{"d":"1044,-1120v-1,182,-110,281,-268,321v181,47,303,172,303,387v0,289,-217,444,-522,441v-154,-2,-297,-31,-420,-74r0,-201v118,61,240,103,398,105v208,2,343,-93,344,-291v1,-181,-140,-286,-330,-283r-154,0r0,-166r154,0v170,2,295,-74,295,-231v0,-161,-111,-239,-279,-238v-144,2,-264,35,-383,80r0,-186v132,-34,246,-61,383,-64v270,-5,481,146,479,400"},"4":{"d":"735,-1309r-471,789r471,0r0,-789xm702,-1493r234,0r0,973r199,0r0,164r-199,0r0,356r-201,0r0,-356r-633,0r0,-191"},"5":{"d":"512,-817v-120,1,-221,29,-305,74r0,-750r756,0r0,170r-572,0r0,367v52,-19,108,-31,174,-31v307,-3,504,200,504,508v0,316,-211,508,-532,508v-154,0,-287,-20,-394,-64r0,-205v109,59,224,97,375,99v219,1,348,-121,348,-338v0,-215,-136,-340,-354,-338"},"6":{"d":"700,-1520v110,0,208,25,291,60r0,186v-77,-45,-168,-75,-282,-76v-128,0,-225,48,-291,144v-66,96,-99,239,-99,426v57,-120,165,-206,328,-207v298,-2,453,199,453,508v0,311,-163,509,-465,508v-173,0,-300,-63,-381,-187v-81,-124,-121,-320,-121,-587v0,-252,48,-445,145,-577v97,-132,238,-198,422,-198xm901,-479v0,-213,-74,-350,-270,-350v-185,0,-277,150,-277,350v0,200,92,350,277,350v195,0,270,-139,270,-350"},"7":{"d":"139,-1493r940,0r0,86r-534,1407r-211,0r520,-1323r-715,0r0,-170"},"8":{"d":"899,-420v0,-180,-104,-289,-283,-289v-180,0,-282,108,-282,289v0,180,104,291,282,291v182,0,283,-107,283,-291xm131,-399v0,-223,119,-354,309,-394v-157,-38,-272,-157,-274,-340v-1,-247,190,-387,450,-387v261,0,451,139,451,387v-1,183,-117,302,-274,340v190,41,308,170,309,392v1,278,-197,430,-486,430v-289,0,-485,-150,-485,-428xm616,-1364v-161,0,-249,89,-249,250v0,160,89,246,249,246v161,0,250,-86,250,-246v0,-163,-87,-250,-250,-250"},"9":{"d":"326,-1012v0,213,73,350,270,350v185,0,276,-150,276,-350v0,-200,-90,-350,-276,-350v-195,0,-270,139,-270,350xm526,29v-109,-1,-208,-25,-290,-60r0,-186v77,45,168,75,282,76v128,0,224,-49,290,-145v66,-96,99,-238,99,-425v-55,121,-164,206,-327,207v-298,1,-453,-200,-453,-510v0,-310,162,-507,465,-506v173,0,300,62,381,187v81,125,121,321,121,588v0,251,-49,443,-146,575v-97,132,-237,199,-422,199"},":":{"d":"489,-1063r252,0r0,303r-252,0r0,-303xm489,-305r252,0r0,305r-252,0r0,-305"},";":{"d":"502,-303r252,0r0,207r-197,383r-154,0r99,-383r0,-207xm489,-1063r252,0r0,303r-252,0r0,-303"},"<":{"d":"1145,-961r-850,320r850,317r0,183r-1057,-418r0,-166r1057,-418r0,182"},"=":{"d":"88,-524r1057,0r0,172r-1057,0r0,-172xm88,-930r1057,0r0,170r-1057,0r0,-170"},">":{"d":"88,-961r0,-182r1057,418r0,166r-1057,418r0,-183r850,-317"},"?":{"d":"633,-1520v233,-4,407,130,407,353v0,236,-253,331,-337,493v-34,65,-15,179,-19,273r-190,0v1,-116,-6,-241,30,-321v50,-114,231,-232,290,-342v81,-151,-47,-302,-216,-292v-142,8,-249,66,-354,137r0,-188v112,-67,227,-111,389,-113xm487,-254r203,0r0,254r-203,0r0,-254"},"@":{"d":"803,-260v150,0,235,-125,235,-285v0,-159,-85,-284,-235,-284v-150,0,-236,125,-236,284v0,160,85,285,236,285xm719,-1395v282,-1,459,202,459,490r0,770r-144,0r0,-111v-45,78,-133,131,-250,131v-222,2,-372,-197,-372,-430v0,-234,150,-432,372,-430v113,0,207,56,250,131v19,-243,-103,-409,-321,-409v-357,0,-537,318,-537,710v0,408,220,719,604,719v84,-1,152,-16,219,-41r48,135v-73,29,-152,48,-244,49v-487,3,-776,-359,-776,-862v0,-479,244,-850,692,-852"},"A":{"d":"616,-1315r-213,764r426,0xm494,-1493r245,0r457,1493r-209,0r-110,-389r-523,0r-108,389r-209,0"},"B":{"d":"934,-430v0,-205,-112,-283,-326,-283r-239,0r0,547r239,0v220,-2,326,-59,326,-264xm881,-1114v0,-167,-96,-213,-277,-213r-235,0r0,450r235,0v186,-1,277,-60,277,-237xm1137,-410v-3,296,-208,410,-529,410r-442,0r0,-1493r442,0v281,-2,477,118,477,379v0,189,-93,290,-262,315v191,26,316,174,314,389"},"C":{"d":"743,-135v137,0,246,-55,330,-125r0,207v-95,50,-195,82,-330,82v-414,0,-604,-326,-604,-774v0,-244,53,-435,159,-571v106,-136,255,-204,445,-204v135,1,236,32,330,82r0,207v-85,-70,-193,-125,-330,-125v-131,0,-225,54,-295,152v-126,178,-126,739,0,917v70,98,164,152,295,152"},"D":{"d":"893,-745v0,-411,-77,-572,-457,-582r-96,0r0,1161r96,0v377,-9,457,-172,457,-579xm1106,-745v0,492,-190,741,-666,745r-303,0r0,-1493r303,0v476,3,666,255,666,748"},"E":{"d":"197,-1493r886,0r0,170r-684,0r0,442r654,0r0,170r-654,0r0,541r703,0r0,170r-905,0r0,-1493"},"F":{"d":"233,-1493r879,0r0,170r-676,0r0,440r613,0r0,170r-613,0r0,713r-203,0r0,-1493"},"G":{"d":"702,-135v93,0,156,-21,209,-64r0,-401r-217,0r0,-166r410,0r0,643v-98,91,-227,152,-402,152v-411,0,-600,-329,-600,-774v0,-446,193,-775,605,-775v144,0,251,43,346,107r0,207v-93,-88,-190,-150,-346,-150v-131,0,-225,54,-295,152v-127,177,-127,744,-4,920v68,97,162,149,294,149"},"H":{"d":"137,-1493r203,0r0,612r553,0r0,-612r203,0r0,1493r-203,0r0,-711r-553,0r0,711r-203,0r0,-1493"},"I":{"d":"201,-1493r829,0r0,170r-313,0r0,1153r313,0r0,170r-829,0r0,-170r313,0r0,-1153r-313,0r0,-170"},"J":{"d":"498,29v-153,0,-269,-37,-389,-90r0,-236v104,92,219,162,389,162v219,0,256,-107,256,-352r0,-836r-381,0r0,-170r583,0r0,1006v-3,363,-109,516,-458,516"},"K":{"d":"137,-1493r203,0r0,664r631,-664r237,0r-581,610r598,883r-244,0r-487,-748r-154,164r0,584r-203,0r0,-1493"},"L":{"d":"215,-1493r203,0r0,1323r721,0r0,170r-924,0r0,-1493"},"M":{"d":"86,-1493r270,0r258,760r260,-760r271,0r0,1493r-187,0r0,-1319r-266,787r-153,0r-267,-787r0,1319r-186,0r0,-1493"},"N":{"d":"139,-1493r256,0r504,1229r0,-1229r195,0r0,1493r-256,0r-504,-1229r0,1229r-195,0r0,-1493"},"O":{"d":"838,-276v85,-157,85,-782,0,-939v-50,-91,-119,-141,-222,-141v-102,0,-170,49,-220,141v-85,157,-85,782,0,939v50,91,118,141,220,141v103,0,172,-50,222,-141xm1116,-745v0,260,-42,454,-124,582v-82,128,-207,192,-376,192v-169,0,-294,-64,-376,-191v-82,-127,-123,-322,-123,-583v0,-261,41,-455,123,-583v82,-128,208,-192,376,-192v169,0,294,64,376,192v82,128,124,322,124,583"},"P":{"d":"930,-1047v0,-180,-114,-280,-297,-280r-234,0r0,561r234,0v182,2,297,-102,297,-281xm1141,-1047v0,307,-188,448,-508,447r-234,0r0,600r-202,0r0,-1493r436,0v318,-2,508,141,508,446"},"Q":{"d":"1116,-745v0,352,-67,609,-276,725r200,190r-151,100r-234,-243v-192,13,-320,-56,-415,-190v-160,-225,-159,-941,0,-1165v88,-124,208,-192,376,-192v169,0,294,64,376,192v82,128,124,322,124,583xm838,-276v85,-157,85,-782,0,-939v-50,-91,-119,-141,-222,-141v-102,0,-170,49,-220,141v-85,157,-85,782,0,939v50,91,118,141,220,141v103,0,172,-50,222,-141"},"R":{"d":"1067,-1061v0,204,-122,332,-307,356v156,52,182,119,270,297r203,408r-217,0r-178,-377v-51,-107,-98,-174,-138,-207v-76,-62,-222,-44,-354,-47r0,631r-203,0r0,-1493r416,0v310,-2,507,137,508,432xm854,-1061v0,-178,-111,-266,-295,-266r-213,0r0,530r221,0v188,0,287,-80,287,-264"},"S":{"d":"631,-1520v142,2,262,34,381,78r0,205v-106,-67,-219,-116,-371,-119v-175,-3,-309,84,-309,246v0,169,91,200,258,238v162,37,336,89,412,178v62,72,96,165,96,286v-1,300,-200,439,-516,437v-162,-1,-298,-37,-424,-90r0,-215v130,81,246,138,424,141v188,3,323,-84,323,-260v0,-179,-93,-224,-262,-262v-267,-60,-504,-125,-504,-422v0,-273,210,-446,492,-441"},"T":{"d":"47,-1493r1139,0r0,170r-467,0r0,1323r-203,0r0,-1323r-469,0r0,-170"},"U":{"d":"147,-573r0,-920r203,0r0,1012v-15,241,57,346,266,346v147,0,240,-58,261,-190v4,-31,6,-82,6,-154r0,-1014r202,0r0,920v-3,266,-12,368,-127,485v-108,109,-347,150,-532,88v-118,-40,-215,-122,-250,-248v-18,-66,-29,-174,-29,-325"},"V":{"d":"616,-170r351,-1323r209,0r-437,1493r-245,0r-437,-1493r209,0"},"W":{"d":"0,-1493r197,0r143,1212r170,-802r211,0r172,804r143,-1214r197,0r-223,1493r-191,0r-203,-887r-202,887r-191,0"},"X":{"d":"86,-1493r217,0r328,563r334,-563r217,0r-447,702r479,791r-217,0r-366,-643r-395,643r-218,0r500,-791"},"Y":{"d":"37,-1493r215,0r364,659r363,-659r217,0r-479,823r0,670r-203,0r0,-670"},"Z":{"d":"178,-1493r969,0r0,154r-780,1169r802,0r0,170r-1013,0r0,-154r759,-1169r-737,0r0,-170"},"[":{"d":"463,-1556r424,0r0,143r-240,0r0,1540r240,0r0,143r-424,0r0,-1826"},"\\":{"d":"293,-1493r786,1683r-190,0r-787,-1683r191,0"},"]":{"d":"770,-1556r0,1826r-424,0r0,-143r240,0r0,-1540r-240,0r0,-143r424,0"},"^":{"d":"705,-1493r456,557r-178,0r-367,-395r-366,395r-178,0r456,-557r177,0"},"_":{"d":"1233,403r0,80r-1233,0r0,-80r1233,0"},"`":{"d":"477,-1638r281,376r-154,0r-325,-376r198,0"},"a":{"d":"547,-125v229,-2,339,-185,327,-438r-233,0v-190,0,-321,55,-324,225v-3,137,91,214,230,213xm215,-1069v171,-72,431,-114,615,-37v106,44,185,120,213,246v11,49,16,123,16,221r0,639r-185,0r0,-166v-74,124,-180,193,-366,195v-221,3,-377,-138,-375,-355v4,-272,198,-383,494,-381r247,0v6,-203,-80,-285,-282,-284v-147,2,-272,46,-377,106r0,-184"},"b":{"d":"649,-127v209,0,269,-189,269,-432v0,-143,-23,-250,-68,-323v-45,-73,-112,-109,-201,-109v-209,0,-272,189,-272,432v0,141,23,249,69,322v46,73,114,110,203,110xm676,29v-146,0,-244,-69,-299,-170r0,141r-184,0r0,-1556r184,0r0,579v54,-101,155,-170,301,-170v296,0,434,258,434,584v0,331,-137,592,-436,592"},"c":{"d":"748,-127v143,0,234,-46,313,-121r0,191v-88,51,-187,85,-313,86v-351,2,-553,-231,-553,-588v0,-358,202,-590,553,-588v127,1,222,35,313,86r0,193v-88,-77,-167,-123,-313,-123v-244,0,-359,173,-359,432v0,258,116,432,359,432"},"d":{"d":"559,-1147v146,0,246,68,299,170r0,-579r184,0r0,1556r-184,0r0,-141v-55,101,-153,170,-299,170v-298,0,-436,-262,-436,-592v0,-327,140,-584,436,-584xm586,-991v-209,0,-269,189,-269,432v0,143,23,250,68,323v45,73,112,109,201,109v208,0,273,-191,272,-432v0,-142,-24,-250,-70,-323v-46,-73,-113,-109,-202,-109"},"e":{"d":"651,-1147v298,0,466,228,461,541r0,90r-797,0v-4,243,128,392,365,389v153,-2,268,-51,389,-113r0,183v-120,49,-242,84,-391,86v-351,2,-555,-231,-555,-588v0,-340,200,-588,528,-588xm928,-660v-4,-201,-91,-331,-285,-331v-192,0,-305,143,-321,332"},"f":{"d":"494,-1120v-15,-283,77,-441,348,-436r221,0r0,153r-209,0v-136,2,-174,47,-176,184r0,99r385,0r0,143r-385,0r0,977r-184,0r0,-977r-299,0r0,-143r299,0"},"g":{"d":"317,-569v0,240,69,424,279,424v85,0,146,-38,194,-109v87,-129,87,-502,0,-630v-48,-70,-110,-107,-196,-107v-208,0,-277,183,-277,422xm553,-1147v158,0,247,65,305,176r0,-145r184,0r0,1044v1,326,-152,511,-469,512v-117,-1,-228,-23,-325,-55r0,-182v106,49,199,90,325,90v214,0,286,-120,285,-346r0,-125v-54,116,-146,186,-305,186v-285,0,-430,-264,-430,-577v0,-316,144,-578,430,-578"},"h":{"d":"711,-1147v252,0,340,177,340,453r0,694r-185,0r0,-694v-1,-184,-51,-293,-219,-293v-189,0,-268,148,-268,354r0,633r-184,0r0,-1556r184,0r0,604v60,-118,165,-195,332,-195"},"i":{"d":"256,-1120r471,0r0,977r365,0r0,143r-914,0r0,-143r365,0r0,-834r-287,0r0,-143xm543,-1556r184,0r0,233r-184,0r0,-233"},"j":{"d":"420,270v134,-3,180,-101,180,-250r0,-997r-317,0r0,-143r501,0r0,1140v2,244,-112,405,-344,406r-254,0r0,-156r234,0xm600,-1556r184,0r0,233r-184,0r0,-233"},"k":{"d":"236,-1556r190,0r0,901r483,-465r224,0r-441,422r510,698r-225,0r-414,-578r-137,129r0,449r-190,0r0,-1556"},"l":{"d":"801,0v-231,0,-346,-163,-346,-406r0,-1017r-295,0r0,-144r479,0r0,1161v0,148,47,250,180,250r215,0r0,156r-233,0"},"m":{"d":"471,-1147v112,0,171,54,205,141v41,-86,100,-141,213,-141v90,0,154,35,191,105v37,70,55,200,55,393r0,649r-168,0r0,-641v0,-158,-11,-256,-27,-295v-32,-81,-175,-72,-206,4v-17,42,-29,138,-29,291r0,641r-168,0r0,-641v0,-160,-12,-258,-29,-296v-34,-75,-173,-75,-204,5v-16,42,-28,138,-28,291r0,641r-167,0r0,-1120r167,0r0,96v39,-70,98,-123,195,-123"},"n":{"d":"711,-1147v252,0,340,177,340,453r0,694r-185,0r0,-694v-1,-184,-51,-293,-219,-293v-189,0,-268,148,-268,354r0,633r-184,0r0,-1120r184,0r0,168v60,-118,165,-195,332,-195"},"o":{"d":"901,-559v0,-249,-67,-432,-285,-432v-216,0,-285,185,-284,432v0,247,68,432,284,432v216,0,285,-185,285,-432xm137,-559v0,-355,146,-588,479,-588v332,0,480,234,480,588v0,356,-146,588,-480,588v-333,0,-479,-233,-479,-588"},"p":{"d":"674,29v-147,0,-246,-68,-299,-170r0,567r-185,0r0,-1546r185,0r0,143v55,-101,153,-170,299,-170v299,0,434,262,434,592v0,327,-137,584,-434,584xm647,-991v-209,0,-272,189,-272,432v0,141,26,247,69,322v83,144,317,142,404,1v82,-132,87,-518,0,-646v-48,-71,-112,-109,-201,-109"},"q":{"d":"600,-123v208,0,270,-190,270,-432v0,-142,-25,-248,-68,-323v-82,-144,-315,-141,-402,0v-82,132,-87,518,0,646v48,71,111,109,200,109xm571,-1143v146,0,244,69,299,170r0,-143r185,0r0,1546r-185,0r0,-569v-55,102,-152,172,-299,172v-295,0,-434,-259,-434,-584v0,-331,135,-592,434,-592"},"r":{"d":"915,-1147v101,0,174,26,240,70r0,188v-71,-55,-141,-88,-254,-88v-242,0,-354,165,-354,420r0,557r-185,0r0,-1120r185,0r0,219v55,-146,179,-246,368,-246"},"s":{"d":"637,-1147v131,0,237,25,336,66r0,180v-93,-54,-191,-92,-322,-92v-146,0,-248,36,-248,164v0,50,15,87,46,112v25,30,197,67,303,86v167,30,278,124,278,307v0,238,-190,356,-446,353v-138,-2,-251,-31,-371,-70r0,-190v114,58,230,104,375,106v146,2,252,-56,256,-188v3,-87,-93,-150,-253,-179v-207,-38,-375,-94,-374,-319v1,-231,172,-338,420,-336"},"t":{"d":"807,0v-277,-3,-377,-93,-377,-369r0,-608r-299,0r0,-143r299,0r0,-318r184,0r0,318r418,0r0,143r-418,0r0,608v2,164,50,222,211,222r207,0r0,147r-225,0"},"u":{"d":"535,29v-253,0,-340,-177,-340,-453r0,-694r184,0r0,694v1,183,52,293,219,293v190,0,268,-147,268,-354r0,-633r185,0r0,1118r-185,0r0,-168v-59,119,-166,197,-331,197"},"v":{"d":"100,-1120r191,0r325,940r326,-940r191,0r-398,1120r-237,0"},"w":{"d":"0,-1120r182,0r195,905r160,-578r157,0r162,578r195,-905r182,0r-262,1120r-176,0r-179,-614r-178,614r-176,0"},"x":{"d":"1118,-1120r-401,536r440,584r-213,0r-328,-449r-327,449r-213,0r440,-584r-401,-536r204,0r297,405r295,-405r207,0"},"y":{"d":"1153,-1120r-412,1068v-66,176,-110,283,-133,322v-55,94,-139,156,-276,156r-148,0r0,-154v97,0,188,7,236,-47v29,-33,70,-112,117,-243r-433,-1102r195,0r332,876r327,-876r195,0"},"z":{"d":"227,-1122r813,0r0,168r-643,804r643,0r0,150r-837,0r0,-170r643,-805r-619,0r0,-147"},"{":{"d":"717,-39v5,194,32,224,225,229r70,0r0,144r-64,0v-325,-7,-411,-55,-418,-369r0,-239v-3,-199,-52,-264,-247,-267r-62,0r0,-143r62,0v195,-3,247,-65,247,-264r0,-240v7,-314,93,-361,418,-368r64,0r0,143r-70,0v-192,5,-225,36,-225,229r0,248v-2,202,-44,285,-201,324v157,41,201,122,201,325r0,248"},"|":{"d":"702,-1565r0,2048r-172,0r0,-2048r172,0"},"}":{"d":"700,-35v-7,314,-92,362,-417,369r-62,0r0,-144r68,0v193,-5,227,-36,227,-229r0,-248v2,-203,44,-283,201,-325v-157,-39,-201,-122,-201,-324r0,-248v-5,-193,-34,-224,-227,-229r-68,0r0,-143r62,0v325,7,410,53,417,368r0,240v3,199,53,261,248,264r64,0r0,143r-64,0v-196,3,-248,67,-248,267r0,239"},"~":{"d":"864,-657v123,-3,199,-56,281,-123r0,174v-86,67,-166,111,-297,114v-154,3,-300,-127,-467,-122v-131,4,-210,52,-293,122r0,-174v91,-68,170,-109,307,-114v172,-6,316,127,469,123"},"\u00a0":{},"\u00a1":{"d":"516,-1239r0,-254r203,0r0,254r-203,0xm516,0r0,-655r21,-357r161,0r21,357r0,655r-203,0"},"\u00a2":{"d":"801,-1145v95,6,178,34,260,68r0,172v-77,-46,-158,-80,-260,-88r0,870v100,-9,184,-44,260,-90r0,172v-82,35,-164,61,-260,68r0,286r-103,0r0,-286v-299,-26,-485,-257,-485,-586v0,-325,189,-564,485,-586r0,-287r103,0r0,287xm698,-991v-189,18,-292,210,-292,432v0,224,103,412,292,432r0,-864"},"\u00a3":{"d":"817,-1520v104,0,191,25,275,58r0,184v-72,-51,-148,-88,-256,-88v-203,0,-260,143,-261,371r0,217r371,0r0,143r-371,0r0,465r537,0r0,170r-973,0r0,-170r236,0r0,-465r-199,0r0,-143r199,0r0,-238v0,-324,130,-504,442,-504"},"\u00a4":{"d":"653,-426v118,0,215,-99,215,-217v0,-118,-97,-213,-215,-213v-117,0,-215,96,-215,213v0,119,97,217,215,217xm653,-983v77,0,134,26,191,59r166,-166r90,93r-166,166v34,56,59,111,59,190v0,79,-25,133,-61,186r168,166r-94,94r-166,-167v-54,36,-107,61,-187,61v-77,0,-137,-25,-192,-57r-164,163r-92,-90r166,-166v-35,-58,-60,-112,-60,-190v0,-79,26,-136,62,-188r-168,-166r94,-95r166,168v54,-36,107,-61,188,-61"},"\u00a5":{"d":"37,-1493r215,0r364,659r363,-659r217,0r-330,561r252,0r0,111r-315,0r-86,151r0,35r401,0r0,111r-401,0r0,524r-203,0r0,-524r-399,0r0,-111r399,0r0,-35r-90,-151r-309,0r0,-111r243,0"},"\u00a6":{"d":"702,-1432r0,758r-172,0r0,-758r172,0xm702,-408r0,758r-172,0r0,-758r172,0"},"\u00a7":{"d":"631,-1520v113,2,212,24,305,58r0,164v-89,-41,-177,-76,-283,-78v-116,-3,-204,46,-204,151v0,60,68,128,205,205v130,72,278,168,317,219v41,53,65,111,65,178v0,144,-78,222,-184,283v68,59,118,118,119,225v2,200,-164,313,-377,310v-118,-2,-215,-25,-315,-58r0,-164v93,41,184,76,292,78v123,3,207,-49,215,-160v5,-69,-110,-165,-245,-239v-143,-79,-235,-145,-278,-196v-43,-51,-64,-111,-64,-179v0,-142,79,-227,184,-283v-70,-52,-119,-117,-119,-225v0,-186,165,-292,367,-289xm750,-410v65,-49,122,-94,122,-182v0,-51,-24,-99,-72,-144v-48,-45,-152,-112,-315,-200v-65,49,-123,94,-123,182v0,51,23,99,70,144v47,45,153,111,318,200"},"\u00a8":{"d":"319,-1552r203,0r0,202r-203,0r0,-202xm711,-1552r202,0r0,202r-202,0r0,-202"},"\u00a9":{"d":"637,-1116v88,0,163,16,227,45r0,108v-69,-33,-136,-54,-227,-55v-159,-1,-252,113,-252,277v0,174,97,275,270,274v84,-1,149,-20,209,-51r0,104v-64,29,-139,45,-227,45v-234,3,-387,-142,-387,-372v0,-231,154,-378,387,-375xm814,-1218v-117,-51,-277,-51,-394,0v-173,76,-318,234,-318,477v0,242,147,399,318,476v117,53,275,53,392,0v171,-77,318,-233,318,-476v0,-243,-143,-401,-316,-477xm381,-1313v141,-62,330,-62,471,0v208,91,381,281,381,572v0,291,-176,479,-382,571v-141,63,-328,63,-469,0v-206,-92,-382,-280,-382,-571v0,-290,174,-481,381,-572"},"\u00aa":{"d":"575,-817v151,-1,248,-120,236,-287v-182,3,-395,-24,-395,146v-1,88,68,142,159,141xm598,-1520v246,0,356,110,356,355r0,448r-143,0r0,-112v-59,78,-138,129,-262,131v-164,2,-281,-93,-279,-252v2,-189,152,-271,359,-269r182,0v0,-135,-92,-188,-236,-186v-90,1,-171,33,-243,68r0,-127v79,-33,166,-56,266,-56xm293,-592r668,0r0,123r-668,0r0,-123"},"\u00ab":{"d":"588,-1059r0,191r-301,268r301,268r0,191r-469,-418r0,-82xm1042,-1059r0,191r-301,268r301,268r0,191r-469,-418r0,-82"},"\u00ac":{"d":"88,-862r1057,0r0,491r-168,0r0,-319r-889,0r0,-172"},"\u00ad":{"d":"356,-643r521,0r0,164r-521,0r0,-164"},"\u00ae":{"d":"891,-901v0,104,-72,162,-168,178v46,22,80,75,115,131r114,186r-143,0v-53,-81,-124,-223,-187,-275v-30,-25,-78,-22,-130,-21r0,296r-130,0r0,-694r238,0v173,1,291,45,291,199xm758,-901v6,-131,-135,-114,-266,-115r0,232r102,0v108,-1,160,-21,164,-117xm381,-1313v141,-62,330,-62,471,0v208,91,381,281,381,572v0,291,-176,479,-382,571v-141,63,-328,63,-469,0v-206,-92,-382,-280,-382,-571v0,-290,174,-481,381,-572xm814,-1218v-117,-51,-277,-51,-394,0v-173,76,-318,234,-318,477v0,242,147,399,318,476v117,53,275,53,392,0v171,-77,318,-233,318,-476v0,-243,-143,-401,-316,-477"},"\u00af":{"d":"317,-1526r598,0r0,148r-598,0r0,-148"},"\u00b0":{"d":"299,-1200v0,-216,221,-390,441,-296v109,47,191,145,194,296v4,172,-147,315,-320,315v-176,0,-315,-139,-315,-315xm807,-1200v0,-102,-89,-191,-191,-191v-103,0,-190,88,-190,191v0,104,85,188,188,188v103,0,193,-86,193,-188"},"\u00b1":{"d":"88,-170r1057,0r0,170r-1057,0r0,-170xm700,-1171r0,329r445,0r0,170r-445,0r0,332r-168,0r0,-332r-444,0r0,-170r444,0r0,-329r168,0"},"\u00b2":{"d":"573,-1520v170,-3,312,85,314,240v0,38,-12,77,-37,116v-66,103,-262,277,-367,382r410,0r0,114r-571,0r0,-110v113,-115,288,-265,372,-384v28,-40,41,-78,41,-112v-1,-89,-84,-139,-182,-137v-88,3,-157,34,-225,72r0,-125v75,-32,150,-55,245,-56"},"\u00b3":{"d":"752,-1292v0,-165,-280,-126,-398,-72r0,-121v78,-19,152,-34,236,-35v169,-2,313,68,313,217v0,108,-74,161,-172,183v111,24,193,88,193,209v0,186,-159,260,-367,258v-88,0,-160,-17,-231,-41r0,-121v75,29,143,51,227,53v117,2,219,-46,219,-149v0,-135,-133,-157,-285,-150r0,-108v132,5,265,-5,265,-123"},"\u00b4":{"d":"756,-1638r198,0r-325,376r-154,0"},"\u00b5":{"d":"625,29v-138,0,-209,-59,-263,-156r0,555r-167,0r0,-1548r184,0r0,696v-1,174,70,293,231,293v186,0,257,-134,256,-336r0,-653r185,0r0,864v1,66,11,115,65,115v25,0,38,-11,66,-23r0,148v-43,26,-82,45,-140,45v-95,0,-135,-65,-149,-158v-55,95,-132,158,-268,158"},"\u00b6":{"d":"106,-1071v-2,-260,205,-422,476,-422r448,0r0,1690r-141,0r0,-1567r-191,0r0,1567r-141,0r0,-846v-264,-18,-448,-157,-451,-422"},"\u00b7":{"d":"489,-864r252,0r0,305r-252,0r0,-305"},"\u00b8":{"d":"670,178v-4,-70,-46,-117,-88,-178r118,0v58,66,109,121,109,215v0,131,-95,181,-238,180v-65,0,-122,-9,-176,-24r0,-131v78,41,283,64,275,-62"},"\u00b9":{"d":"362,-778r205,0r0,-611r-223,41r0,-116r229,-39r138,0r0,725r204,0r0,110r-553,0r0,-110"},"\u00ba":{"d":"834,-1108v0,-167,-67,-295,-218,-295v-150,0,-217,129,-217,295v0,166,67,293,217,293v148,0,218,-131,218,-293xm244,-1108v0,-239,141,-412,372,-412v232,0,373,173,373,412v0,239,-141,410,-373,410v-231,0,-372,-172,-372,-410xm276,-592r676,0r0,123r-676,0r0,-123"},"\u00bb":{"d":"647,-1059r469,418r0,82r-469,418r0,-191r301,-268r-301,-268r0,-191xm193,-1059r469,418r0,82r-469,418r0,-191r301,-268r-301,-268r0,-191"},"\u00bc":{"d":"51,-504r-24,-108r1060,-262r27,108xm815,-565r162,0r0,538r116,0r0,111r-116,0r0,186r-138,0r0,-186r-387,0r0,-121xm839,-440r-274,413r274,0r0,-413xm104,-934r205,0r0,-611r-223,41r0,-116r229,-39r138,0r0,725r204,0r0,110r-553,0r0,-110"},"\u00bd":{"d":"51,-504r-24,-108r1060,-262r27,108xm104,-934r205,0r0,-611r-223,41r0,-116r229,-39r138,0r0,725r204,0r0,110r-553,0r0,-110xm774,-582v170,-3,312,85,314,240v0,38,-12,77,-37,116v-66,103,-262,277,-367,382r410,0r0,114r-571,0r0,-110v113,-115,288,-265,372,-384v28,-40,41,-78,41,-112v-1,-89,-84,-139,-182,-137v-88,3,-157,34,-225,72r0,-125v75,-32,150,-55,245,-56"},"\u00be":{"d":"51,-504r-24,-108r1060,-262r27,108xm815,-565r162,0r0,538r116,0r0,111r-116,0r0,186r-138,0r0,-186r-387,0r0,-121xm839,-440r-274,413r274,0r0,-413xm525,-1448v0,-165,-280,-126,-398,-72r0,-121v78,-19,152,-34,236,-35v169,-2,313,68,313,217v0,108,-74,161,-172,183v111,24,193,88,193,209v0,186,-159,260,-367,258v-88,0,-160,-17,-231,-41r0,-121v75,29,143,51,227,53v117,2,219,-46,219,-149v0,-135,-133,-157,-285,-150r0,-108v132,5,265,-5,265,-123"},"\u00bf":{"d":"600,27v-233,4,-407,-130,-407,-353v0,-235,252,-329,335,-491v34,-66,18,-180,21,-275r190,0v-1,116,5,240,-31,320v-50,114,-231,233,-290,343v-81,151,48,302,217,292v142,-8,249,-66,354,-137r0,188v-112,67,-227,111,-389,113xm745,-1239r-202,0r0,-254r202,0r0,254"},"\u00c0":{"d":"561,-1899r197,264r-154,0r-227,-264r184,0xm616,-1315r-213,764r426,0xm494,-1493r245,0r457,1493r-209,0r-110,-389r-523,0r-108,389r-209,0"},"\u00c1":{"d":"672,-1899r186,0r-229,264r-154,0xm616,-1315r-213,764r426,0xm494,-1493r245,0r457,1493r-209,0r-110,-389r-523,0r-108,389r-209,0"},"\u00c2":{"d":"522,-1901r189,0r211,266r-140,0r-166,-178r-165,178r-140,0xm616,-1315r-213,764r426,0xm494,-1493r245,0r457,1493r-209,0r-110,-389r-523,0r-108,389r-209,0"},"\u00c3":{"d":"946,-1886v2,146,-101,248,-252,211v-62,-15,-134,-93,-207,-93v-52,0,-77,43,-75,101r-125,0v-5,-150,102,-248,255,-211v63,16,131,90,208,90v47,0,74,-45,71,-98r125,0xm616,-1315r-213,764r426,0xm494,-1493r245,0r457,1493r-209,0r-110,-389r-523,0r-108,389r-209,0"},"\u00c4":{"d":"319,-1870r203,0r0,203r-203,0r0,-203xm711,-1870r202,0r0,203r-202,0r0,-203xm616,-1315r-213,764r426,0xm494,-1493r245,0r457,1493r-209,0r-110,-389r-523,0r-108,389r-209,0"},"\u00c5":{"d":"616,-1475v82,0,152,-69,152,-151v0,-82,-70,-152,-152,-152v-84,0,-151,68,-151,152v0,82,69,151,151,151xm616,-1311r-213,760r426,0xm891,-1626v-2,106,-51,184,-123,227r428,1399r-209,0r-110,-389r-523,0r-108,389r-209,0r428,-1399v-71,-39,-121,-122,-123,-227v-3,-148,126,-275,274,-275v148,0,278,127,275,275"},"\u00c6":{"d":"1161,-1493r0,170r-338,0r0,442r307,0r0,170r-307,0r0,541r357,0r0,170r-543,0r0,-383r-352,0r-101,383r-184,0r410,-1493r751,0xm530,-1323r-202,772r309,0r0,-772r-107,0"},"\u00c7":{"d":"770,178v-4,-70,-46,-117,-88,-178r118,0v58,66,109,121,109,215v0,131,-95,181,-238,180v-65,0,-122,-9,-176,-24r0,-131v78,41,283,64,275,-62xm743,-135v137,0,246,-55,330,-125r0,207v-95,50,-195,82,-330,82v-414,0,-604,-326,-604,-774v0,-244,53,-435,159,-571v106,-136,255,-204,445,-204v135,1,236,32,330,82r0,207v-85,-70,-193,-125,-330,-125v-131,0,-225,54,-295,152v-126,178,-126,739,0,917v70,98,164,152,295,152"},"\u00c8":{"d":"579,-1899r197,264r-154,0r-227,-264r184,0xm197,-1493r886,0r0,170r-684,0r0,442r654,0r0,170r-654,0r0,541r703,0r0,170r-905,0r0,-1493"},"\u00c9":{"d":"690,-1899r186,0r-229,264r-154,0xm197,-1493r886,0r0,170r-684,0r0,442r654,0r0,170r-654,0r0,541r703,0r0,170r-905,0r0,-1493"},"\u00ca":{"d":"540,-1901r189,0r211,266r-140,0r-166,-178r-165,178r-140,0xm197,-1493r886,0r0,170r-684,0r0,442r654,0r0,170r-654,0r0,541r703,0r0,170r-905,0r0,-1493"},"\u00cb":{"d":"337,-1870r203,0r0,203r-203,0r0,-203xm729,-1870r202,0r0,203r-202,0r0,-203xm197,-1493r886,0r0,170r-684,0r0,442r654,0r0,170r-654,0r0,541r703,0r0,170r-905,0r0,-1493"},"\u00cc":{"d":"561,-1899r197,264r-154,0r-227,-264r184,0xm201,-1493r829,0r0,170r-313,0r0,1153r313,0r0,170r-829,0r0,-170r313,0r0,-1153r-313,0r0,-170"},"\u00cd":{"d":"672,-1899r186,0r-229,264r-154,0xm201,-1493r829,0r0,170r-313,0r0,1153r313,0r0,170r-829,0r0,-170r313,0r0,-1153r-313,0r0,-170"},"\u00ce":{"d":"522,-1901r189,0r211,266r-140,0r-166,-178r-165,178r-140,0xm201,-1493r829,0r0,170r-313,0r0,1153r313,0r0,170r-829,0r0,-170r313,0r0,-1153r-313,0r0,-170"},"\u00cf":{"d":"319,-1870r203,0r0,203r-203,0r0,-203xm711,-1870r202,0r0,203r-202,0r0,-203xm201,-1493r829,0r0,170r-313,0r0,1153r313,0r0,170r-829,0r0,-170r313,0r0,-1153r-313,0r0,-170"},"\u00d0":{"d":"1102,-745v0,492,-191,741,-666,745r-303,0r0,-709r-125,0r0,-149r125,0r0,-635r303,0v476,3,666,255,666,748xm893,-745v0,-411,-77,-572,-457,-582r-96,0r0,469r264,0r0,149r-264,0r0,543r96,0v377,-9,457,-172,457,-579"},"\u00d1":{"d":"946,-1890v2,146,-101,248,-252,211v-62,-15,-134,-93,-207,-93v-52,0,-77,43,-75,101r-125,0v-5,-150,102,-248,255,-211v63,16,131,90,208,90v47,0,74,-45,71,-98r125,0xm139,-1493r256,0r504,1229r0,-1229r195,0r0,1493r-256,0r-504,-1229r0,1229r-195,0r0,-1493"},"\u00d2":{"d":"561,-1899r197,264r-154,0r-227,-264r184,0xm838,-276v85,-157,85,-782,0,-939v-50,-91,-119,-141,-222,-141v-102,0,-170,49,-220,141v-85,157,-85,782,0,939v50,91,118,141,220,141v103,0,172,-50,222,-141xm1116,-745v0,260,-42,454,-124,582v-82,128,-207,192,-376,192v-169,0,-294,-64,-376,-191v-82,-127,-123,-322,-123,-583v0,-261,41,-455,123,-583v82,-128,208,-192,376,-192v169,0,294,64,376,192v82,128,124,322,124,583"},"\u00d3":{"d":"672,-1899r186,0r-229,264r-154,0xm838,-276v85,-157,85,-782,0,-939v-50,-91,-119,-141,-222,-141v-102,0,-170,49,-220,141v-85,157,-85,782,0,939v50,91,118,141,220,141v103,0,172,-50,222,-141xm1116,-745v0,260,-42,454,-124,582v-82,128,-207,192,-376,192v-169,0,-294,-64,-376,-191v-82,-127,-123,-322,-123,-583v0,-261,41,-455,123,-583v82,-128,208,-192,376,-192v169,0,294,64,376,192v82,128,124,322,124,583"},"\u00d4":{"d":"522,-1901r189,0r211,266r-140,0r-166,-178r-165,178r-140,0xm838,-276v85,-157,85,-782,0,-939v-50,-91,-119,-141,-222,-141v-102,0,-170,49,-220,141v-85,157,-85,782,0,939v50,91,118,141,220,141v103,0,172,-50,222,-141xm1116,-745v0,260,-42,454,-124,582v-82,128,-207,192,-376,192v-169,0,-294,-64,-376,-191v-82,-127,-123,-322,-123,-583v0,-261,41,-455,123,-583v82,-128,208,-192,376,-192v169,0,294,64,376,192v82,128,124,322,124,583"},"\u00d5":{"d":"946,-1886v2,146,-101,248,-252,211v-62,-15,-134,-93,-207,-93v-52,0,-77,43,-75,101r-125,0v-5,-150,102,-248,255,-211v63,16,131,90,208,90v47,0,74,-45,71,-98r125,0xm838,-276v85,-157,85,-782,0,-939v-50,-91,-119,-141,-222,-141v-102,0,-170,49,-220,141v-85,157,-85,782,0,939v50,91,118,141,220,141v103,0,172,-50,222,-141xm1116,-745v0,260,-42,454,-124,582v-82,128,-207,192,-376,192v-169,0,-294,-64,-376,-191v-82,-127,-123,-322,-123,-583v0,-261,41,-455,123,-583v82,-128,208,-192,376,-192v169,0,294,64,376,192v82,128,124,322,124,583"},"\u00d6":{"d":"319,-1870r203,0r0,203r-203,0r0,-203xm711,-1870r202,0r0,203r-202,0r0,-203xm838,-276v85,-157,85,-782,0,-939v-50,-91,-119,-141,-222,-141v-102,0,-170,49,-220,141v-85,157,-85,782,0,939v50,91,118,141,220,141v103,0,172,-50,222,-141xm1116,-745v0,260,-42,454,-124,582v-82,128,-207,192,-376,192v-169,0,-294,-64,-376,-191v-82,-127,-123,-322,-123,-583v0,-261,41,-455,123,-583v82,-128,208,-192,376,-192v169,0,294,64,376,192v82,128,124,322,124,583"},"\u00d7":{"d":"150,-293r350,-348r-350,-350r116,-117r350,350r351,-350r116,117r-350,350r348,348r-116,119r-349,-350r-348,350"},"\u00d8":{"d":"371,-303v35,95,123,167,245,168v103,0,173,-49,222,-141v66,-124,86,-545,47,-760xm842,-1190v-30,-100,-102,-165,-226,-166v-105,0,-174,51,-222,146v-55,107,-81,504,-56,739xm616,-1520v163,1,274,62,345,162r139,-201r100,74r-168,238v128,262,104,878,-40,1084v-87,125,-207,192,-376,192v-171,-1,-285,-60,-362,-162r-143,203r-103,-70r178,-252v-49,-115,-70,-312,-69,-493v0,-261,41,-455,123,-583v82,-128,208,-192,376,-192"},"\u00d9":{"d":"561,-1899r197,264r-154,0r-227,-264r184,0xm147,-573r0,-920r203,0r0,1012v-15,241,57,346,266,346v147,0,240,-58,261,-190v4,-31,6,-82,6,-154r0,-1014r202,0r0,920v-3,266,-12,368,-127,485v-108,109,-347,150,-532,88v-118,-40,-215,-122,-250,-248v-18,-66,-29,-174,-29,-325"},"\u00da":{"d":"672,-1899r186,0r-229,264r-154,0xm147,-573r0,-920r203,0r0,1012v-15,241,57,346,266,346v147,0,240,-58,261,-190v4,-31,6,-82,6,-154r0,-1014r202,0r0,920v-3,266,-12,368,-127,485v-108,109,-347,150,-532,88v-118,-40,-215,-122,-250,-248v-18,-66,-29,-174,-29,-325"},"\u00db":{"d":"522,-1901r189,0r211,266r-140,0r-166,-178r-165,178r-140,0xm147,-573r0,-920r203,0r0,1012v-15,241,57,346,266,346v147,0,240,-58,261,-190v4,-31,6,-82,6,-154r0,-1014r202,0r0,920v-3,266,-12,368,-127,485v-108,109,-347,150,-532,88v-118,-40,-215,-122,-250,-248v-18,-66,-29,-174,-29,-325"},"\u00dc":{"d":"319,-1870r203,0r0,203r-203,0r0,-203xm711,-1870r202,0r0,203r-202,0r0,-203xm147,-573r0,-920r203,0r0,1012v-15,241,57,346,266,346v147,0,240,-58,261,-190v4,-31,6,-82,6,-154r0,-1014r202,0r0,920v-3,266,-12,368,-127,485v-108,109,-347,150,-532,88v-118,-40,-215,-122,-250,-248v-18,-66,-29,-174,-29,-325"},"\u00dd":{"d":"672,-1899r186,0r-229,264r-154,0xm37,-1493r215,0r364,659r363,-659r217,0r-479,823r0,670r-203,0r0,-670"},"\u00de":{"d":"952,-795v0,-186,-118,-263,-315,-262r-234,0r0,525r234,0v198,1,315,-76,315,-263xm1165,-795v0,311,-181,428,-508,428r-254,0r0,367r-202,0r0,-1493r202,0r0,270r254,0v328,0,508,118,508,428"},"\u00df":{"d":"610,-1403v-170,1,-235,93,-235,270r0,1133r-187,0r0,-1137v1,-286,139,-418,426,-419v278,0,414,156,416,437v-174,15,-323,78,-323,238v0,114,100,153,180,205v99,65,170,120,207,175v37,55,55,121,55,198v-1,221,-181,335,-420,332v-102,-1,-190,-20,-270,-49r0,-164v85,34,166,59,268,61v130,2,235,-60,236,-178v0,-47,-12,-87,-33,-119v-55,-86,-295,-179,-356,-282v-27,-46,-46,-93,-46,-146v0,-196,137,-294,318,-334v-2,-144,-88,-222,-236,-221"},"\u00e0":{"d":"547,-125v229,-2,339,-185,327,-438r-233,0v-190,0,-321,55,-324,225v-3,137,91,214,230,213xm215,-1069v171,-72,431,-114,615,-37v106,44,185,120,213,246v11,49,16,123,16,221r0,639r-185,0r0,-166v-74,124,-180,193,-366,195v-221,3,-377,-138,-375,-355v4,-272,198,-383,494,-381r247,0v6,-203,-80,-285,-282,-284v-147,2,-272,46,-377,106r0,-184xm477,-1638r281,376r-154,0r-325,-376r198,0"},"\u00e1":{"d":"547,-125v229,-2,339,-185,327,-438r-233,0v-190,0,-321,55,-324,225v-3,137,91,214,230,213xm215,-1069v171,-72,431,-114,615,-37v106,44,185,120,213,246v11,49,16,123,16,221r0,639r-185,0r0,-166v-74,124,-180,193,-366,195v-221,3,-377,-138,-375,-355v4,-272,198,-383,494,-381r247,0v6,-203,-80,-285,-282,-284v-147,2,-272,46,-377,106r0,-184xm756,-1638r198,0r-325,376r-154,0"},"\u00e2":{"d":"543,-1638r147,0r246,376r-139,0r-181,-245r-180,245r-139,0xm547,-125v229,-2,339,-185,327,-438r-233,0v-190,0,-321,55,-324,225v-3,137,91,214,230,213xm215,-1069v171,-72,431,-114,615,-37v106,44,185,120,213,246v11,49,16,123,16,221r0,639r-185,0r0,-166v-74,124,-180,193,-366,195v-221,3,-377,-138,-375,-355v4,-272,198,-383,494,-381r247,0v6,-203,-80,-285,-282,-284v-147,2,-272,46,-377,106r0,-184"},"\u00e3":{"d":"946,-1591v6,182,-93,328,-265,268v-60,-21,-107,-103,-163,-131v-79,-40,-108,50,-107,145r-124,0v-6,-182,93,-328,265,-268v60,21,111,97,164,131v11,6,20,10,29,10v67,-7,73,-69,76,-155r125,0xm547,-125v229,-2,339,-185,327,-438r-233,0v-190,0,-321,55,-324,225v-3,137,91,214,230,213xm215,-1069v171,-72,431,-114,615,-37v106,44,185,120,213,246v11,49,16,123,16,221r0,639r-185,0r0,-166v-74,124,-180,193,-366,195v-221,3,-377,-138,-375,-355v4,-272,198,-383,494,-381r247,0v6,-203,-80,-285,-282,-284v-147,2,-272,46,-377,106r0,-184"},"\u00e4":{"d":"547,-125v229,-2,339,-185,327,-438r-233,0v-190,0,-321,55,-324,225v-3,137,91,214,230,213xm215,-1069v171,-72,431,-114,615,-37v106,44,185,120,213,246v11,49,16,123,16,221r0,639r-185,0r0,-166v-74,124,-180,193,-366,195v-221,3,-377,-138,-375,-355v4,-272,198,-383,494,-381r247,0v6,-203,-80,-285,-282,-284v-147,2,-272,46,-377,106r0,-184xm319,-1552r203,0r0,202r-203,0r0,-202xm711,-1552r202,0r0,202r-202,0r0,-202"},"\u00e5":{"d":"616,-1798v151,0,275,124,275,274v0,150,-125,275,-275,275v-150,0,-274,-126,-274,-275v0,-150,125,-274,274,-274xm616,-1372v83,0,152,-69,152,-152v0,-82,-69,-151,-152,-151v-83,0,-151,68,-151,151v0,84,67,152,151,152xm547,-125v229,-2,339,-185,327,-438r-233,0v-190,0,-321,55,-324,225v-3,137,91,214,230,213xm215,-1069v171,-72,431,-114,615,-37v106,44,185,120,213,246v11,49,16,123,16,221r0,639r-185,0r0,-166v-74,124,-180,193,-366,195v-221,3,-377,-138,-375,-355v4,-272,198,-383,494,-381r247,0v6,-203,-80,-285,-282,-284v-147,2,-272,46,-377,106r0,-184"},"\u00e6":{"d":"205,-311v-3,115,59,186,172,186v61,0,102,-24,129,-67v29,-46,40,-200,37,-322r-49,0v-201,4,-284,26,-289,203xm872,-993v-157,0,-163,152,-163,336r327,0v1,-182,-6,-336,-164,-336xm627,-1020v42,-79,134,-127,254,-127v116,0,196,42,247,119v55,82,77,305,72,514r-491,0r-2,84v2,192,42,305,213,305v116,0,197,-39,258,-102r0,172v-66,49,-152,83,-258,84v-146,0,-249,-56,-291,-160v-49,100,-129,159,-269,160v-211,0,-320,-122,-319,-336v0,-236,147,-352,391,-350r117,0v11,-185,-25,-338,-193,-336v-94,1,-183,39,-250,82r0,-168v86,-39,164,-68,269,-68v126,0,204,45,252,127"},"\u00e7":{"d":"774,178v-4,-70,-46,-117,-88,-178r118,0v58,66,109,121,109,215v0,131,-95,181,-238,180v-65,0,-122,-9,-176,-24r0,-131v78,41,283,64,275,-62xm748,-127v143,0,234,-46,313,-121r0,191v-88,51,-187,85,-313,86v-351,2,-553,-231,-553,-588v0,-358,202,-590,553,-588v127,1,222,35,313,86r0,193v-88,-77,-167,-123,-313,-123v-244,0,-359,173,-359,432v0,258,116,432,359,432"},"\u00e8":{"d":"651,-1147v298,0,466,228,461,541r0,90r-797,0v-4,243,128,392,365,389v153,-2,268,-51,389,-113r0,183v-120,49,-242,84,-391,86v-351,2,-555,-231,-555,-588v0,-340,200,-588,528,-588xm928,-660v-4,-201,-91,-331,-285,-331v-192,0,-305,143,-321,332xm491,-1638r281,376r-154,0r-325,-376r198,0"},"\u00e9":{"d":"651,-1147v298,0,466,228,461,541r0,90r-797,0v-4,243,128,392,365,389v153,-2,268,-51,389,-113r0,183v-120,49,-242,84,-391,86v-351,2,-555,-231,-555,-588v0,-340,200,-588,528,-588xm928,-660v-4,-201,-91,-331,-285,-331v-192,0,-305,143,-321,332xm770,-1638r198,0r-325,376r-154,0"},"\u00ea":{"d":"557,-1638r147,0r246,376r-139,0r-181,-245r-180,245r-139,0xm651,-1147v298,0,466,228,461,541r0,90r-797,0v-4,243,128,392,365,389v153,-2,268,-51,389,-113r0,183v-120,49,-242,84,-391,86v-351,2,-555,-231,-555,-588v0,-340,200,-588,528,-588xm928,-660v-4,-201,-91,-331,-285,-331v-192,0,-305,143,-321,332"},"\u00eb":{"d":"651,-1147v298,0,466,228,461,541r0,90r-797,0v-4,243,128,392,365,389v153,-2,268,-51,389,-113r0,183v-120,49,-242,84,-391,86v-351,2,-555,-231,-555,-588v0,-340,200,-588,528,-588xm928,-660v-4,-201,-91,-331,-285,-331v-192,0,-305,143,-321,332xm333,-1552r203,0r0,202r-203,0r0,-202xm725,-1552r202,0r0,202r-202,0r0,-202"},"\u00ec":{"d":"256,-1120r471,0r0,977r365,0r0,143r-914,0r0,-143r365,0r0,-834r-287,0r0,-143xm477,-1638r281,376r-154,0r-325,-376r198,0"},"\u00ed":{"d":"256,-1120r471,0r0,977r365,0r0,143r-914,0r0,-143r365,0r0,-834r-287,0r0,-143xm756,-1638r198,0r-325,376r-154,0"},"\u00ee":{"d":"543,-1638r147,0r246,376r-139,0r-181,-245r-180,245r-139,0xm256,-1120r471,0r0,977r365,0r0,143r-914,0r0,-143r365,0r0,-834r-287,0r0,-143"},"\u00ef":{"d":"256,-1120r471,0r0,977r365,0r0,143r-914,0r0,-143r365,0r0,-834r-287,0r0,-143xm343,-1552r203,0r0,202r-203,0r0,-202xm735,-1552r202,0r0,202r-202,0r0,-202"},"\u00f0":{"d":"137,-535v0,-360,188,-597,559,-557v-44,-61,-95,-120,-143,-178r-279,92r-30,-98r237,-80r-182,-200r219,0r127,145r289,-94r33,98r-250,80v131,141,227,275,288,402v61,127,91,257,91,390v0,337,-160,563,-480,564v-319,0,-479,-229,-479,-564xm616,-127v206,0,285,-178,285,-408v0,-149,-44,-295,-108,-383v-45,-17,-101,-26,-162,-26v-216,0,-299,171,-299,409v0,231,79,408,284,408"},"\u00f1":{"d":"946,-1591v6,182,-93,328,-265,268v-60,-21,-107,-103,-163,-131v-79,-40,-108,50,-107,145r-124,0v-6,-182,93,-328,265,-268v60,21,111,97,164,131v11,6,20,10,29,10v67,-7,73,-69,76,-155r125,0xm711,-1147v252,0,340,177,340,453r0,694r-185,0r0,-694v-1,-184,-51,-293,-219,-293v-189,0,-268,148,-268,354r0,633r-184,0r0,-1120r184,0r0,168v60,-118,165,-195,332,-195"},"\u00f2":{"d":"901,-559v0,-249,-67,-432,-285,-432v-216,0,-285,185,-284,432v0,247,68,432,284,432v216,0,285,-185,285,-432xm137,-559v0,-355,146,-588,479,-588v332,0,480,234,480,588v0,356,-146,588,-480,588v-333,0,-479,-233,-479,-588xm477,-1638r281,376r-154,0r-325,-376r198,0"},"\u00f3":{"d":"901,-559v0,-249,-67,-432,-285,-432v-216,0,-285,185,-284,432v0,247,68,432,284,432v216,0,285,-185,285,-432xm137,-559v0,-355,146,-588,479,-588v332,0,480,234,480,588v0,356,-146,588,-480,588v-333,0,-479,-233,-479,-588xm756,-1638r198,0r-325,376r-154,0"},"\u00f4":{"d":"543,-1638r147,0r246,376r-139,0r-181,-245r-180,245r-139,0xm901,-559v0,-249,-67,-432,-285,-432v-216,0,-285,185,-284,432v0,247,68,432,284,432v216,0,285,-185,285,-432xm137,-559v0,-355,146,-588,479,-588v332,0,480,234,480,588v0,356,-146,588,-480,588v-333,0,-479,-233,-479,-588"},"\u00f5":{"d":"946,-1591v6,182,-93,328,-265,268v-60,-21,-107,-103,-163,-131v-79,-40,-108,50,-107,145r-124,0v-6,-182,93,-328,265,-268v60,21,111,97,164,131v11,6,20,10,29,10v67,-7,73,-69,76,-155r125,0xm901,-559v0,-249,-67,-432,-285,-432v-216,0,-285,185,-284,432v0,247,68,432,284,432v216,0,285,-185,285,-432xm137,-559v0,-355,146,-588,479,-588v332,0,480,234,480,588v0,356,-146,588,-480,588v-333,0,-479,-233,-479,-588"},"\u00f6":{"d":"901,-559v0,-249,-67,-432,-285,-432v-216,0,-285,185,-284,432v0,247,68,432,284,432v216,0,285,-185,285,-432xm137,-559v0,-355,146,-588,479,-588v332,0,480,234,480,588v0,356,-146,588,-480,588v-333,0,-479,-233,-479,-588xm319,-1552r203,0r0,202r-203,0r0,-202xm711,-1552r202,0r0,202r-202,0r0,-202"},"\u00f7":{"d":"494,-395r245,0r0,245r-245,0r0,-245xm494,-1135r245,0r0,246r-245,0r0,-246xm88,-727r1057,0r0,170r-1057,0r0,-170"},"\u00f8":{"d":"616,-127v289,6,318,-371,261,-653r-463,559v44,58,107,92,202,94xm616,-991v-290,-5,-325,370,-260,651r461,-557v-44,-60,-104,-92,-201,-94xm616,29v-144,0,-244,-42,-317,-119r-160,186r-92,-76r170,-200v-52,-95,-80,-231,-80,-379v0,-355,146,-588,479,-588v141,0,242,40,318,111r147,-176r93,77r-164,195v58,92,86,226,86,381v0,356,-146,588,-480,588"},"\u00f9":{"d":"535,29v-253,0,-340,-177,-340,-453r0,-694r184,0r0,694v1,183,52,293,219,293v190,0,268,-147,268,-354r0,-633r185,0r0,1118r-185,0r0,-168v-59,119,-166,197,-331,197xm477,-1638r281,376r-154,0r-325,-376r198,0"},"\u00fa":{"d":"535,29v-253,0,-340,-177,-340,-453r0,-694r184,0r0,694v1,183,52,293,219,293v190,0,268,-147,268,-354r0,-633r185,0r0,1118r-185,0r0,-168v-59,119,-166,197,-331,197xm756,-1638r198,0r-325,376r-154,0"},"\u00fb":{"d":"543,-1638r147,0r246,376r-139,0r-181,-245r-180,245r-139,0xm535,29v-253,0,-340,-177,-340,-453r0,-694r184,0r0,694v1,183,52,293,219,293v190,0,268,-147,268,-354r0,-633r185,0r0,1118r-185,0r0,-168v-59,119,-166,197,-331,197"},"\u00fc":{"d":"535,29v-253,0,-340,-177,-340,-453r0,-694r184,0r0,694v1,183,52,293,219,293v190,0,268,-147,268,-354r0,-633r185,0r0,1118r-185,0r0,-168v-59,119,-166,197,-331,197xm319,-1552r203,0r0,202r-203,0r0,-202xm711,-1552r202,0r0,202r-202,0r0,-202"},"\u00fd":{"d":"1153,-1120r-412,1068v-66,176,-110,283,-133,322v-55,94,-139,156,-276,156r-148,0r0,-154v97,0,188,7,236,-47v29,-33,70,-112,117,-243r-433,-1102r195,0r332,876r327,-876r195,0xm756,-1638r198,0r-325,376r-154,0"},"\u00fe":{"d":"674,29v-147,0,-246,-68,-299,-170r0,567r-185,0r0,-1993r185,0r0,590v55,-101,153,-170,299,-170v299,0,434,262,434,592v0,327,-137,584,-434,584xm647,-991v-209,0,-272,189,-272,432v0,141,26,247,69,322v83,144,317,142,404,1v82,-132,87,-518,0,-646v-48,-71,-112,-109,-201,-109"},"\u00ff":{"d":"1153,-1120r-412,1068v-66,176,-110,283,-133,322v-55,94,-139,156,-276,156r-148,0r0,-154v97,0,188,7,236,-47v29,-33,70,-112,117,-243r-433,-1102r195,0r332,876r327,-876r195,0xm319,-1552r203,0r0,202r-203,0r0,-202xm711,-1552r202,0r0,202r-202,0r0,-202"},"\u0100":{"d":"317,-1840r598,0r0,148r-598,0r0,-148xm616,-1315r-213,764r426,0xm494,-1493r245,0r457,1493r-209,0r-110,-389r-523,0r-108,389r-209,0"},"\u0101":{"d":"317,-1526r598,0r0,148r-598,0r0,-148xm547,-125v229,-2,339,-185,327,-438r-233,0v-190,0,-321,55,-324,225v-3,137,91,214,230,213xm215,-1069v171,-72,431,-114,615,-37v106,44,185,120,213,246v11,49,16,123,16,221r0,639r-185,0r0,-166v-74,124,-180,193,-366,195v-221,3,-377,-138,-375,-355v4,-272,198,-383,494,-381r247,0v6,-203,-80,-285,-282,-284v-147,2,-272,46,-377,106r0,-184"},"\u0102":{"d":"930,-1901v-16,164,-129,242,-314,242v-186,0,-297,-77,-313,-242r119,0v18,77,93,112,194,111v105,0,173,-32,195,-111r119,0xm616,-1315r-213,764r426,0xm494,-1493r245,0r457,1493r-209,0r-110,-389r-523,0r-108,389r-209,0"},"\u0103":{"d":"930,-1608v-14,187,-117,287,-314,287v-196,0,-299,-101,-313,-287r119,0v15,102,78,150,194,150v116,0,177,-51,195,-150r119,0xm547,-125v229,-2,339,-185,327,-438r-233,0v-190,0,-321,55,-324,225v-3,137,91,214,230,213xm215,-1069v171,-72,431,-114,615,-37v106,44,185,120,213,246v11,49,16,123,16,221r0,639r-185,0r0,-166v-74,124,-180,193,-366,195v-221,3,-377,-138,-375,-355v4,-272,198,-383,494,-381r247,0v6,-203,-80,-285,-282,-284v-147,2,-272,46,-377,106r0,-184"},"\u0104":{"d":"875,215v0,-93,52,-149,108,-215r119,0v-44,62,-82,107,-88,180v-9,117,162,103,234,62r0,133v-44,11,-87,20,-136,20v-149,-1,-237,-43,-237,-180xm616,-1315r-213,764r426,0xm494,-1493r245,0r457,1493r-209,0r-110,-389r-523,0r-108,389r-209,0"},"\u0105":{"d":"765,215v0,-93,52,-149,108,-215r119,0v-44,62,-82,107,-88,180v-9,117,162,103,234,62r0,133v-44,11,-87,20,-136,20v-149,-1,-237,-43,-237,-180xm547,-125v229,-2,339,-185,327,-438r-233,0v-190,0,-321,55,-324,225v-3,137,91,214,230,213xm215,-1069v171,-72,431,-114,615,-37v106,44,185,120,213,246v11,49,16,123,16,221r0,639r-185,0r0,-166v-74,124,-180,193,-366,195v-221,3,-377,-138,-375,-355v4,-272,198,-383,494,-381r247,0v6,-203,-80,-285,-282,-284v-147,2,-272,46,-377,106r0,-184"},"\u0106":{"d":"762,-1899r186,0r-229,264r-154,0xm743,-135v137,0,246,-55,330,-125r0,207v-95,50,-195,82,-330,82v-414,0,-604,-326,-604,-774v0,-244,53,-435,159,-571v106,-136,255,-204,445,-204v135,1,236,32,330,82r0,207v-85,-70,-193,-125,-330,-125v-131,0,-225,54,-295,152v-126,178,-126,739,0,917v70,98,164,152,295,152"},"\u0107":{"d":"748,-127v143,0,234,-46,313,-121r0,191v-88,51,-187,85,-313,86v-351,2,-553,-231,-553,-588v0,-358,202,-590,553,-588v127,1,222,35,313,86r0,193v-88,-77,-167,-123,-313,-123v-244,0,-359,173,-359,432v0,258,116,432,359,432xm846,-1638r198,0r-325,376r-154,0"},"\u0108":{"d":"648,-1908r189,0r211,266r-140,0r-166,-178r-165,178r-140,0xm743,-135v137,0,246,-55,330,-125r0,207v-95,50,-195,82,-330,82v-414,0,-604,-326,-604,-774v0,-244,53,-435,159,-571v106,-136,255,-204,445,-204v135,1,236,32,330,82r0,207v-85,-70,-193,-125,-330,-125v-131,0,-225,54,-295,152v-126,178,-126,739,0,917v70,98,164,152,295,152"},"\u0109":{"d":"633,-1638r147,0r246,376r-139,0r-181,-245r-180,245r-139,0xm748,-127v143,0,234,-46,313,-121r0,191v-88,51,-187,85,-313,86v-351,2,-553,-231,-553,-588v0,-358,202,-590,553,-588v127,1,222,35,313,86r0,193v-88,-77,-167,-123,-313,-123v-244,0,-359,173,-359,432v0,258,116,432,359,432"},"\u010a":{"d":"588,-1872r205,0r0,205r-205,0r0,-205xm743,-135v137,0,246,-55,330,-125r0,207v-95,50,-195,82,-330,82v-414,0,-604,-326,-604,-774v0,-244,53,-435,159,-571v106,-136,255,-204,445,-204v135,1,236,32,330,82r0,207v-85,-70,-193,-125,-330,-125v-131,0,-225,54,-295,152v-126,178,-126,739,0,917v70,98,164,152,295,152"},"\u010b":{"d":"588,-1552r205,0r0,204r-205,0r0,-204xm748,-127v143,0,234,-46,313,-121r0,191v-88,51,-187,85,-313,86v-351,2,-553,-231,-553,-588v0,-358,202,-590,553,-588v127,1,222,35,313,86r0,193v-88,-77,-167,-123,-313,-123v-244,0,-359,173,-359,432v0,258,116,432,359,432"},"\u010c":{"d":"612,-1635r-211,-266r140,0r165,178r166,-178r140,0r-211,266r-189,0xm743,-135v137,0,246,-55,330,-125r0,207v-95,50,-195,82,-330,82v-414,0,-604,-326,-604,-774v0,-244,53,-435,159,-571v106,-136,255,-204,445,-204v135,1,236,32,330,82r0,207v-85,-70,-193,-125,-330,-125v-131,0,-225,54,-295,152v-126,178,-126,739,0,917v70,98,164,152,295,152"},"\u010d":{"d":"633,-1262r-246,-376r139,0r180,245r181,-245r139,0r-246,376r-147,0xm748,-127v143,0,234,-46,313,-121r0,191v-88,51,-187,85,-313,86v-351,2,-553,-231,-553,-588v0,-358,202,-590,553,-588v127,1,222,35,313,86r0,193v-88,-77,-167,-123,-313,-123v-244,0,-359,173,-359,432v0,258,116,432,359,432"},"\u010e":{"d":"444,-1629r-211,-266r140,0r165,178r166,-178r140,0r-211,266r-189,0xm893,-745v0,-411,-77,-572,-457,-582r-96,0r0,1161r96,0v377,-9,457,-172,457,-579xm1106,-745v0,492,-190,741,-666,745r-303,0r0,-1493r303,0v476,3,666,255,666,748"},"\u010f":{"d":"1114,-1557r198,0r-113,376r-154,0xm559,-1147v146,0,246,68,299,170r0,-579r184,0r0,1556r-184,0r0,-141v-55,101,-153,170,-299,170v-298,0,-436,-262,-436,-592v0,-327,140,-584,436,-584xm586,-991v-209,0,-269,189,-269,432v0,143,23,250,68,323v45,73,112,109,201,109v208,0,273,-191,272,-432v0,-142,-24,-250,-70,-323v-46,-73,-113,-109,-202,-109"},"\u0110":{"d":"1102,-745v0,492,-191,741,-666,745r-303,0r0,-709r-125,0r0,-149r125,0r0,-635r303,0v476,3,666,255,666,748xm893,-745v0,-411,-77,-572,-457,-582r-96,0r0,469r264,0r0,149r-264,0r0,543r96,0v377,-9,457,-172,457,-579"},"\u0111":{"d":"559,-1147v146,0,246,68,299,170r0,-309r-305,0r0,-121r305,0r0,-149r184,0r0,149r191,0r0,121r-191,0r0,1286r-184,0r0,-141v-55,101,-153,170,-299,170v-298,0,-436,-262,-436,-592v0,-327,140,-584,436,-584xm586,-991v-209,0,-269,189,-269,432v0,143,23,250,68,323v45,73,112,109,201,109v208,0,273,-191,272,-432v0,-142,-24,-250,-70,-323v-46,-73,-113,-109,-202,-109"},"\u0112":{"d":"335,-1840r598,0r0,148r-598,0r0,-148xm197,-1493r886,0r0,170r-684,0r0,442r654,0r0,170r-654,0r0,541r703,0r0,170r-905,0r0,-1493"},"\u0113":{"d":"352,-1526r598,0r0,148r-598,0r0,-148xm651,-1147v298,0,466,228,461,541r0,90r-797,0v-4,243,128,392,365,389v153,-2,268,-51,389,-113r0,183v-120,49,-242,84,-391,86v-351,2,-555,-231,-555,-588v0,-340,200,-588,528,-588xm928,-660v-4,-201,-91,-331,-285,-331v-192,0,-305,143,-321,332"},"\u0114":{"d":"948,-1901v-16,164,-129,242,-314,242v-186,0,-297,-77,-313,-242r119,0v18,77,93,112,194,111v105,0,173,-32,195,-111r119,0xm197,-1493r886,0r0,170r-684,0r0,442r654,0r0,170r-654,0r0,541r703,0r0,170r-905,0r0,-1493"},"\u0115":{"d":"944,-1608v-14,187,-117,287,-314,287v-196,0,-299,-101,-313,-287r119,0v15,102,78,150,194,150v116,0,177,-51,195,-150r119,0xm651,-1147v298,0,466,228,461,541r0,90r-797,0v-4,243,128,392,365,389v153,-2,268,-51,389,-113r0,183v-120,49,-242,84,-391,86v-351,2,-555,-231,-555,-588v0,-340,200,-588,528,-588xm928,-660v-4,-201,-91,-331,-285,-331v-192,0,-305,143,-321,332"},"\u0116":{"d":"531,-1872r205,0r0,205r-205,0r0,-205xm197,-1493r886,0r0,170r-684,0r0,442r654,0r0,170r-654,0r0,541r703,0r0,170r-905,0r0,-1493"},"\u0117":{"d":"527,-1552r205,0r0,204r-205,0r0,-204xm651,-1147v298,0,466,228,461,541r0,90r-797,0v-4,243,128,392,365,389v153,-2,268,-51,389,-113r0,183v-120,49,-242,84,-391,86v-351,2,-555,-231,-555,-588v0,-340,200,-588,528,-588xm928,-660v-4,-201,-91,-331,-285,-331v-192,0,-305,143,-321,332"},"\u0118":{"d":"725,215v0,-93,52,-149,108,-215r119,0v-44,62,-82,107,-88,180v-9,117,162,103,234,62r0,133v-44,11,-87,20,-136,20v-149,-1,-237,-43,-237,-180xm197,-1493r886,0r0,170r-684,0r0,442r654,0r0,170r-654,0r0,541r703,0r0,170r-905,0r0,-1493"},"\u0119":{"d":"666,215v0,-93,52,-149,108,-215r119,0v-44,62,-82,107,-88,180v-9,117,162,103,234,62r0,133v-44,11,-87,20,-136,20v-149,-1,-237,-43,-237,-180xm651,-1147v298,0,466,228,461,541r0,90r-797,0v-4,243,128,392,365,389v153,-2,268,-51,389,-113r0,183v-120,49,-242,84,-391,86v-351,2,-555,-231,-555,-588v0,-340,200,-588,528,-588xm928,-660v-4,-201,-91,-331,-285,-331v-192,0,-305,143,-321,332"},"\u011a":{"d":"558,-1629r-211,-266r140,0r165,178r166,-178r140,0r-211,266r-189,0xm197,-1493r886,0r0,170r-684,0r0,442r654,0r0,170r-654,0r0,541r703,0r0,170r-905,0r0,-1493"},"\u011b":{"d":"578,-1257r-246,-376r139,0r180,245r181,-245r139,0r-246,376r-147,0xm651,-1147v298,0,466,228,461,541r0,90r-797,0v-4,243,128,392,365,389v153,-2,268,-51,389,-113r0,183v-120,49,-242,84,-391,86v-351,2,-555,-231,-555,-588v0,-340,200,-588,528,-588xm928,-660v-4,-201,-91,-331,-285,-331v-192,0,-305,143,-321,332"},"\u011c":{"d":"522,-1901r189,0r211,266r-140,0r-166,-178r-165,178r-140,0xm702,-135v93,0,156,-21,209,-64r0,-401r-217,0r0,-166r410,0r0,643v-98,91,-227,152,-402,152v-411,0,-600,-329,-600,-774v0,-446,193,-775,605,-775v144,0,251,43,346,107r0,207v-93,-88,-190,-150,-346,-150v-131,0,-225,54,-295,152v-127,177,-127,744,-4,920v68,97,162,149,294,149"},"\u011d":{"d":"543,-1638r147,0r246,376r-139,0r-181,-245r-180,245r-139,0xm317,-569v0,240,69,424,279,424v85,0,146,-38,194,-109v87,-129,87,-502,0,-630v-48,-70,-110,-107,-196,-107v-208,0,-277,183,-277,422xm553,-1147v158,0,247,65,305,176r0,-145r184,0r0,1044v1,326,-152,511,-469,512v-117,-1,-228,-23,-325,-55r0,-182v106,49,199,90,325,90v214,0,286,-120,285,-346r0,-125v-54,116,-146,186,-305,186v-285,0,-430,-264,-430,-577v0,-316,144,-578,430,-578"},"\u011e":{"d":"980,-1901v-16,164,-129,242,-314,242v-186,0,-297,-77,-313,-242r119,0v18,77,93,112,194,111v105,0,173,-32,195,-111r119,0xm702,-135v93,0,156,-21,209,-64r0,-401r-217,0r0,-166r410,0r0,643v-98,91,-227,152,-402,152v-411,0,-600,-329,-600,-774v0,-446,193,-775,605,-775v144,0,251,43,346,107r0,207v-93,-88,-190,-150,-346,-150v-131,0,-225,54,-295,152v-127,177,-127,744,-4,920v68,97,162,149,294,149"},"\u011f":{"d":"930,-1608v-14,187,-117,287,-314,287v-196,0,-299,-101,-313,-287r119,0v15,102,78,150,194,150v116,0,177,-51,195,-150r119,0xm317,-569v0,240,69,424,279,424v85,0,146,-38,194,-109v87,-129,87,-502,0,-630v-48,-70,-110,-107,-196,-107v-208,0,-277,183,-277,422xm553,-1147v158,0,247,65,305,176r0,-145r184,0r0,1044v1,326,-152,511,-469,512v-117,-1,-228,-23,-325,-55r0,-182v106,49,199,90,325,90v214,0,286,-120,285,-346r0,-125v-54,116,-146,186,-305,186v-285,0,-430,-264,-430,-577v0,-316,144,-578,430,-578"},"\u0120":{"d":"563,-1872r205,0r0,205r-205,0r0,-205xm702,-135v93,0,156,-21,209,-64r0,-401r-217,0r0,-166r410,0r0,643v-98,91,-227,152,-402,152v-411,0,-600,-329,-600,-774v0,-446,193,-775,605,-775v144,0,251,43,346,107r0,207v-93,-88,-190,-150,-346,-150v-131,0,-225,54,-295,152v-127,177,-127,744,-4,920v68,97,162,149,294,149"},"\u0121":{"d":"513,-1552r205,0r0,204r-205,0r0,-204xm317,-569v0,240,69,424,279,424v85,0,146,-38,194,-109v87,-129,87,-502,0,-630v-48,-70,-110,-107,-196,-107v-208,0,-277,183,-277,422xm553,-1147v158,0,247,65,305,176r0,-145r184,0r0,1044v1,326,-152,511,-469,512v-117,-1,-228,-23,-325,-55r0,-182v106,49,199,90,325,90v214,0,286,-120,285,-346r0,-125v-54,116,-146,186,-305,186v-285,0,-430,-264,-430,-577v0,-316,144,-578,430,-578"},"\u0122":{"d":"630,228r239,0r-187,345r-146,0xm702,-135v93,0,156,-21,209,-64r0,-401r-217,0r0,-166r410,0r0,643v-98,91,-227,152,-402,152v-411,0,-600,-329,-600,-774v0,-446,193,-775,605,-775v144,0,251,43,346,107r0,207v-93,-88,-190,-150,-346,-150v-131,0,-225,54,-295,152v-127,177,-127,744,-4,920v68,97,162,149,294,149"},"\u0123":{"d":"725,-1269r-239,0r187,-345r146,0xm317,-569v0,240,69,424,279,424v85,0,146,-38,194,-109v87,-129,87,-502,0,-630v-48,-70,-110,-107,-196,-107v-208,0,-277,183,-277,422xm553,-1147v158,0,247,65,305,176r0,-145r184,0r0,1044v1,326,-152,511,-469,512v-117,-1,-228,-23,-325,-55r0,-182v106,49,199,90,325,90v214,0,286,-120,285,-346r0,-125v-54,116,-146,186,-305,186v-285,0,-430,-264,-430,-577v0,-316,144,-578,430,-578"},"\u0124":{"d":"522,-1901r189,0r211,266r-140,0r-166,-178r-165,178r-140,0xm137,-1493r203,0r0,612r553,0r0,-612r203,0r0,1493r-203,0r0,-711r-553,0r0,711r-203,0r0,-1493"},"\u0125":{"d":"522,-1901r189,0r211,266r-140,0r-166,-178r-165,178r-140,0xm711,-1147v252,0,340,177,340,453r0,694r-185,0r0,-694v-1,-184,-51,-293,-219,-293v-189,0,-268,148,-268,354r0,633r-184,0r0,-1556r184,0r0,604v60,-118,165,-195,332,-195"},"\u0126":{"d":"137,-1493r202,0r0,224r554,0r0,-224r202,0r0,224r135,0r0,164r-135,0r0,1105r-202,0r0,-711r-554,0r0,711r-202,0r0,-1105r-134,0r0,-164r134,0r0,-224xm339,-1105r0,224r554,0r0,-224r-554,0"},"\u0127":{"d":"711,-1147v252,0,340,177,340,453r0,694r-185,0r0,-694v-1,-184,-51,-293,-219,-293v-189,0,-268,148,-268,354r0,633r-184,0r0,-1270r-125,0r0,-164r125,0r0,-122r184,0r0,122r353,0r0,164r-353,0r0,318v60,-118,165,-195,332,-195"},"\u0128":{"d":"946,-1886v2,146,-101,248,-252,211v-62,-15,-134,-93,-207,-93v-52,0,-77,43,-75,101r-125,0v-5,-150,102,-248,255,-211v63,16,131,90,208,90v47,0,74,-45,71,-98r125,0xm201,-1493r829,0r0,170r-313,0r0,1153r313,0r0,170r-829,0r0,-170r313,0r0,-1153r-313,0r0,-170"},"\u0129":{"d":"946,-1591v6,182,-93,328,-265,268v-60,-21,-107,-103,-163,-131v-79,-40,-108,50,-107,145r-124,0v-6,-182,93,-328,265,-268v60,21,111,97,164,131v11,6,20,10,29,10v67,-7,73,-69,76,-155r125,0xm256,-1120r471,0r0,977r365,0r0,143r-914,0r0,-143r365,0r0,-834r-287,0r0,-143"},"\u012a":{"d":"317,-1840r598,0r0,148r-598,0r0,-148xm201,-1493r829,0r0,170r-313,0r0,1153r313,0r0,170r-829,0r0,-170r313,0r0,-1153r-313,0r0,-170"},"\u012b":{"d":"317,-1526r598,0r0,148r-598,0r0,-148xm256,-1120r471,0r0,977r365,0r0,143r-914,0r0,-143r365,0r0,-834r-287,0r0,-143"},"\u012c":{"d":"930,-1901v-16,164,-129,242,-314,242v-186,0,-297,-77,-313,-242r119,0v18,77,93,112,194,111v105,0,173,-32,195,-111r119,0xm201,-1493r829,0r0,170r-313,0r0,1153r313,0r0,170r-829,0r0,-170r313,0r0,-1153r-313,0r0,-170"},"\u012d":{"d":"930,-1608v-14,187,-117,287,-314,287v-196,0,-299,-101,-313,-287r119,0v15,102,78,150,194,150v116,0,177,-51,195,-150r119,0xm256,-1120r471,0r0,977r365,0r0,143r-914,0r0,-143r365,0r0,-834r-287,0r0,-143"},"\u012e":{"d":"490,215v0,-93,52,-149,108,-215r119,0v-44,62,-82,107,-88,180v-9,117,162,103,234,62r0,133v-44,11,-87,20,-136,20v-149,-1,-237,-43,-237,-180xm201,-1493r829,0r0,170r-313,0r0,1153r313,0r0,170r-829,0r0,-170r313,0r0,-1153r-313,0r0,-170"},"\u012f":{"d":"500,215v0,-93,52,-149,108,-215r119,0v-44,62,-82,107,-88,180v-9,117,162,103,234,62r0,133v-44,11,-87,20,-136,20v-149,-1,-237,-43,-237,-180xm256,-1120r471,0r0,977r365,0r0,143r-914,0r0,-143r365,0r0,-834r-287,0r0,-143xm543,-1556r184,0r0,233r-184,0r0,-233"},"\u0130":{"d":"513,-1872r205,0r0,205r-205,0r0,-205xm201,-1493r829,0r0,170r-313,0r0,1153r313,0r0,170r-829,0r0,-170r313,0r0,-1153r-313,0r0,-170"},"\u0131":{"d":"256,-1120r471,0r0,977r365,0r0,143r-914,0r0,-143r365,0r0,-834r-287,0r0,-143"},"\u0132":{"d":"916,26v-110,0,-186,-39,-264,-90r0,-236v68,87,139,162,264,162v65,0,110,-24,136,-74v26,-50,38,-143,38,-278r0,-836r-259,0r0,-170r397,0r0,1006v0,188,-24,321,-72,399v-48,78,-128,117,-240,117xm-1,-1493r605,0r0,170r-228,0r0,1153r228,0r0,170r-605,0r0,-170r228,0r0,-1153r-228,0r0,-170"},"\u0133":{"d":"798,281v134,-3,180,-101,180,-250r0,-997r-317,0r0,-143r501,0r0,1140v2,244,-112,405,-344,406r-254,0r0,-156r234,0xm978,-1545r184,0r0,233r-184,0r0,-233xm59,-1120r386,0r0,977r300,0r0,143r-750,0r0,-143r299,0r0,-834r-235,0r0,-143xm294,-1556r151,0r0,233r-151,0r0,-233"},"\u0134":{"d":"570,-1901r189,0r211,266r-140,0r-166,-178r-165,178r-140,0xm498,29v-153,0,-269,-37,-389,-90r0,-236v104,92,219,162,389,162v219,0,256,-107,256,-352r0,-836r-381,0r0,-170r583,0r0,1006v-3,363,-109,516,-458,516"},"\u0135":{"d":"543,-1638r147,0r246,376r-139,0r-181,-245r-180,245r-139,0xm420,270v134,-3,180,-101,180,-250r0,-997r-317,0r0,-143r501,0r0,1140v2,244,-112,405,-344,406r-254,0r0,-156r234,0"},"\u0136":{"d":"608,199r239,0r-187,345r-146,0xm137,-1493r203,0r0,664r631,-664r237,0r-581,610r598,883r-244,0r-487,-748r-154,164r0,584r-203,0r0,-1493"},"\u0137":{"d":"646,199r239,0r-187,345r-146,0xm236,-1556r190,0r0,901r483,-465r224,0r-441,422r510,698r-225,0r-414,-578r-137,129r0,449r-190,0r0,-1556"},"\u0138":{"d":"236,-1120r190,0r0,465r483,-465r224,0r-441,422r510,698r-225,0r-414,-578r-137,129r0,449r-190,0r0,-1120"},"\u0139":{"d":"397,-1900r186,0r-229,264r-154,0xm215,-1493r203,0r0,1323r721,0r0,170r-924,0r0,-1493"},"\u013a":{"d":"577,-1900r186,0r-229,264r-154,0xm801,0v-231,0,-346,-163,-346,-406r0,-1017r-295,0r0,-144r479,0r0,1161v0,148,47,250,180,250r215,0r0,156r-233,0"},"\u013b":{"d":"604,199r239,0r-187,345r-146,0xm215,-1493r203,0r0,1323r721,0r0,170r-924,0r0,-1493"},"\u013c":{"d":"497,199r239,0r-187,345r-146,0xm801,0v-231,0,-346,-163,-346,-406r0,-1017r-295,0r0,-144r479,0r0,1161v0,148,47,250,180,250r215,0r0,156r-233,0"},"\u013d":{"d":"718,-1491r198,0r-113,376r-154,0xm215,-1493r203,0r0,1323r721,0r0,170r-924,0r0,-1493"},"\u013e":{"d":"960,-1567r198,0r-113,376r-154,0xm801,0v-231,0,-346,-163,-346,-406r0,-1017r-295,0r0,-144r479,0r0,1161v0,148,47,250,180,250r215,0r0,156r-233,0"},"\u013f":{"d":"841,-998r252,0r0,305r-252,0r0,-305xm215,-1493r203,0r0,1323r721,0r0,170r-924,0r0,-1493"},"\u0140":{"d":"960,-1008r252,0r0,305r-252,0r0,-305xm801,0v-231,0,-346,-163,-346,-406r0,-1017r-295,0r0,-144r479,0r0,1161v0,148,47,250,180,250r215,0r0,156r-233,0"},"\u0141":{"d":"215,-1493r203,0r0,616r315,-219r78,111r-393,274r0,541r721,0r0,170r-924,0r0,-571r-145,106r-80,-110r225,-158r0,-760"},"\u0142":{"d":"801,0v-231,0,-346,-163,-346,-406r0,-292r-299,209r-80,-111r379,-264r0,-559r-295,0r0,-144r479,0r0,578r315,-219r80,110r-395,275r0,417v0,148,47,250,180,250r215,0r0,156r-233,0"},"\u0143":{"d":"705,-1899r186,0r-229,264r-154,0xm139,-1493r256,0r504,1229r0,-1229r195,0r0,1493r-256,0r-504,-1229r0,1229r-195,0r0,-1493"},"\u0144":{"d":"776,-1645r198,0r-325,376r-154,0xm711,-1147v252,0,340,177,340,453r0,694r-185,0r0,-694v-1,-184,-51,-293,-219,-293v-189,0,-268,148,-268,354r0,633r-184,0r0,-1120r184,0r0,168v60,-118,165,-195,332,-195"},"\u0145":{"d":"544,199r239,0r-187,345r-146,0xm139,-1493r256,0r504,1229r0,-1229r195,0r0,1493r-256,0r-504,-1229r0,1229r-195,0r0,-1493"},"\u0146":{"d":"550,199r239,0r-187,345r-146,0xm711,-1147v252,0,340,177,340,453r0,694r-185,0r0,-694v-1,-184,-51,-293,-219,-293v-189,0,-268,148,-268,354r0,633r-184,0r0,-1120r184,0r0,168v60,-118,165,-195,332,-195"},"\u0147":{"d":"564,-1635r-211,-266r140,0r165,178r166,-178r140,0r-211,266r-189,0xm139,-1493r256,0r504,1229r0,-1229r195,0r0,1493r-256,0r-504,-1229r0,1229r-195,0r0,-1493"},"\u0148":{"d":"531,-1262r-246,-376r139,0r180,245r181,-245r139,0r-246,376r-147,0xm711,-1147v252,0,340,177,340,453r0,694r-185,0r0,-694v-1,-184,-51,-293,-219,-293v-189,0,-268,148,-268,354r0,633r-184,0r0,-1120r184,0r0,168v60,-118,165,-195,332,-195"},"\u0149":{"d":"122,-1556r252,0r0,206r-197,383r-153,0r98,-383r0,-206xm834,-1147v252,0,340,177,340,453r0,694r-185,0r0,-694v-1,-184,-51,-293,-219,-293v-189,0,-268,148,-268,354r0,633r-184,0r0,-1120r184,0r0,168v60,-118,165,-195,332,-195"},"\u014a":{"d":"713,-1522v280,0,372,211,372,523r0,1019v2,245,-113,405,-344,406r-205,0r0,-156r167,0v143,-6,179,-102,179,-270r0,-1009v-1,-213,-50,-349,-240,-349v-212,0,-293,183,-293,421r0,937r-202,0r0,-1493r202,0r0,198v65,-135,178,-227,364,-227"},"\u014b":{"d":"711,-1147v252,0,340,177,340,453r0,714v2,245,-113,405,-344,406r-205,0r0,-156r185,0v135,-3,179,-99,179,-250r0,-714v-1,-184,-51,-293,-219,-293v-189,0,-268,147,-268,354r0,633r-184,0r0,-1120r184,0r0,168v60,-118,165,-195,332,-195"},"\u014c":{"d":"317,-1840r598,0r0,148r-598,0r0,-148xm838,-276v85,-157,85,-782,0,-939v-50,-91,-119,-141,-222,-141v-102,0,-170,49,-220,141v-85,157,-85,782,0,939v50,91,118,141,220,141v103,0,172,-50,222,-141xm1116,-745v0,260,-42,454,-124,582v-82,128,-207,192,-376,192v-169,0,-294,-64,-376,-191v-82,-127,-123,-322,-123,-583v0,-261,41,-455,123,-583v82,-128,208,-192,376,-192v169,0,294,64,376,192v82,128,124,322,124,583"},"\u014d":{"d":"317,-1526r598,0r0,148r-598,0r0,-148xm901,-559v0,-249,-67,-432,-285,-432v-216,0,-285,185,-284,432v0,247,68,432,284,432v216,0,285,-185,285,-432xm137,-559v0,-355,146,-588,479,-588v332,0,480,234,480,588v0,356,-146,588,-480,588v-333,0,-479,-233,-479,-588"},"\u014e":{"d":"930,-1901v-16,164,-129,242,-314,242v-186,0,-297,-77,-313,-242r119,0v18,77,93,112,194,111v105,0,173,-32,195,-111r119,0xm838,-276v85,-157,85,-782,0,-939v-50,-91,-119,-141,-222,-141v-102,0,-170,49,-220,141v-85,157,-85,782,0,939v50,91,118,141,220,141v103,0,172,-50,222,-141xm1116,-745v0,260,-42,454,-124,582v-82,128,-207,192,-376,192v-169,0,-294,-64,-376,-191v-82,-127,-123,-322,-123,-583v0,-261,41,-455,123,-583v82,-128,208,-192,376,-192v169,0,294,64,376,192v82,128,124,322,124,583"},"\u014f":{"d":"930,-1608v-14,187,-117,287,-314,287v-196,0,-299,-101,-313,-287r119,0v15,102,78,150,194,150v116,0,177,-51,195,-150r119,0xm901,-559v0,-249,-67,-432,-285,-432v-216,0,-285,185,-284,432v0,247,68,432,284,432v216,0,285,-185,285,-432xm137,-559v0,-355,146,-588,479,-588v332,0,480,234,480,588v0,356,-146,588,-480,588v-333,0,-479,-233,-479,-588"},"\u0150":{"d":"860,-1899r186,0r-229,264r-154,0xm541,-1899r186,0r-229,264r-154,0xm838,-276v85,-157,85,-782,0,-939v-50,-91,-119,-141,-222,-141v-102,0,-170,49,-220,141v-85,157,-85,782,0,939v50,91,118,141,220,141v103,0,172,-50,222,-141xm1116,-745v0,260,-42,454,-124,582v-82,128,-207,192,-376,192v-169,0,-294,-64,-376,-191v-82,-127,-123,-322,-123,-583v0,-261,41,-455,123,-583v82,-128,208,-192,376,-192v169,0,294,64,376,192v82,128,124,322,124,583"},"\u0151":{"d":"535,-1638r170,0r-224,376r-137,0xm868,-1638r179,0r-248,376r-135,0xm901,-559v0,-249,-67,-432,-285,-432v-216,0,-285,185,-284,432v0,247,68,432,284,432v216,0,285,-185,285,-432xm137,-559v0,-355,146,-588,479,-588v332,0,480,234,480,588v0,356,-146,588,-480,588v-333,0,-479,-233,-479,-588"},"\u0152":{"d":"1217,-170r0,170r-605,0v-197,0,-336,-55,-418,-166v-82,-111,-122,-304,-122,-579v0,-278,41,-473,122,-583v81,-110,221,-165,418,-165r594,0r0,170r-358,0r0,442r328,0r0,170r-328,0r0,541r369,0xm651,-1323v-147,-7,-253,24,-307,115v-45,77,-70,231,-70,463v0,231,24,384,70,461v54,91,159,121,307,114r0,-1153"},"\u0153":{"d":"883,-995v-157,0,-164,153,-164,338r328,0v7,-176,-8,-338,-164,-338xm373,-123v68,0,112,-30,143,-84v55,-94,50,-628,1,-701v-41,-115,-244,-116,-287,-4v-53,79,-48,625,0,706v32,53,74,83,143,83xm637,-1020v46,-79,133,-127,254,-127v117,0,196,42,247,119v55,82,77,305,72,514r-491,0r0,84v2,193,39,307,211,307v115,0,200,-41,258,-104r0,172v-72,52,-145,84,-258,84v-138,0,-233,-50,-293,-133v-63,81,-135,133,-264,133v-126,0,-213,-49,-274,-138v-109,-157,-108,-744,0,-900v62,-89,148,-138,274,-138v130,0,206,47,264,127"},"\u0154":{"d":"597,-1899r186,0r-229,264r-154,0xm1067,-1061v0,204,-122,332,-307,356v156,52,182,119,270,297r203,408r-217,0r-178,-377v-51,-107,-98,-174,-138,-207v-76,-62,-222,-44,-354,-47r0,631r-203,0r0,-1493r416,0v310,-2,507,137,508,432xm854,-1061v0,-178,-111,-266,-295,-266r-213,0r0,530r221,0v188,0,287,-80,287,-264"},"\u0155":{"d":"962,-1645r198,0r-325,376r-154,0xm915,-1147v101,0,174,26,240,70r0,188v-71,-55,-141,-88,-254,-88v-242,0,-354,165,-354,420r0,557r-185,0r0,-1120r185,0r0,219v55,-146,179,-246,368,-246"},"\u0156":{"d":"616,199r239,0r-187,345r-146,0xm1067,-1061v0,204,-122,332,-307,356v156,52,182,119,270,297r203,408r-217,0r-178,-377v-51,-107,-98,-174,-138,-207v-76,-62,-222,-44,-354,-47r0,631r-203,0r0,-1493r416,0v310,-2,507,137,508,432xm854,-1061v0,-178,-111,-266,-295,-266r-213,0r0,530r221,0v188,0,287,-80,287,-264"},"\u0157":{"d":"382,199r239,0r-187,345r-146,0xm915,-1147v101,0,174,26,240,70r0,188v-71,-55,-141,-88,-254,-88v-242,0,-354,165,-354,420r0,557r-185,0r0,-1120r185,0r0,219v55,-146,179,-246,368,-246"},"\u0158":{"d":"462,-1629r-211,-266r140,0r165,178r166,-178r140,0r-211,266r-189,0xm1067,-1061v0,204,-122,332,-307,356v156,52,182,119,270,297r203,408r-217,0r-178,-377v-51,-107,-98,-174,-138,-207v-76,-62,-222,-44,-354,-47r0,631r-203,0r0,-1493r416,0v310,-2,507,137,508,432xm854,-1061v0,-178,-111,-266,-295,-266r-213,0r0,530r221,0v188,0,287,-80,287,-264"},"\u0159":{"d":"633,-1262r-246,-376r139,0r180,245r181,-245r139,0r-246,376r-147,0xm915,-1147v101,0,174,26,240,70r0,188v-71,-55,-141,-88,-254,-88v-242,0,-354,165,-354,420r0,557r-185,0r0,-1120r185,0r0,219v55,-146,179,-246,368,-246"},"\u015a":{"d":"697,-1899r186,0r-229,264r-154,0xm631,-1520v142,2,262,34,381,78r0,205v-106,-67,-219,-116,-371,-119v-175,-3,-309,84,-309,246v0,169,91,200,258,238v162,37,336,89,412,178v62,72,96,165,96,286v-1,300,-200,439,-516,437v-162,-1,-298,-37,-424,-90r0,-215v130,81,246,138,424,141v188,3,323,-84,323,-260v0,-179,-93,-224,-262,-262v-267,-60,-504,-125,-504,-422v0,-273,210,-446,492,-441"},"\u015b":{"d":"782,-1645r198,0r-325,376r-154,0xm637,-1147v131,0,237,25,336,66r0,180v-93,-54,-191,-92,-322,-92v-146,0,-248,36,-248,164v0,50,15,87,46,112v25,30,197,67,303,86v167,30,278,124,278,307v0,238,-190,356,-446,353v-138,-2,-251,-31,-371,-70r0,-190v114,58,230,104,375,106v146,2,252,-56,256,-188v3,-87,-93,-150,-253,-179v-207,-38,-375,-94,-374,-319v1,-231,172,-338,420,-336"},"\u015c":{"d":"522,-1901r189,0r211,266r-140,0r-166,-178r-165,178r-140,0xm631,-1520v142,2,262,34,381,78r0,205v-106,-67,-219,-116,-371,-119v-175,-3,-309,84,-309,246v0,169,91,200,258,238v162,37,336,89,412,178v62,72,96,165,96,286v-1,300,-200,439,-516,437v-162,-1,-298,-37,-424,-90r0,-215v130,81,246,138,424,141v188,3,323,-84,323,-260v0,-179,-93,-224,-262,-262v-267,-60,-504,-125,-504,-422v0,-273,210,-446,492,-441"},"\u015d":{"d":"543,-1638r147,0r246,376r-139,0r-181,-245r-180,245r-139,0xm637,-1147v131,0,237,25,336,66r0,180v-93,-54,-191,-92,-322,-92v-146,0,-248,36,-248,164v0,50,15,87,46,112v25,30,197,67,303,86v167,30,278,124,278,307v0,238,-190,356,-446,353v-138,-2,-251,-31,-371,-70r0,-190v114,58,230,104,375,106v146,2,252,-56,256,-188v3,-87,-93,-150,-253,-179v-207,-38,-375,-94,-374,-319v1,-231,172,-338,420,-336"},"\u015e":{"d":"670,178v-4,-70,-46,-117,-88,-178r118,0v58,66,109,121,109,215v0,131,-95,181,-238,180v-65,0,-122,-9,-176,-24r0,-131v78,41,283,64,275,-62xm631,-1520v142,2,262,34,381,78r0,205v-106,-67,-219,-116,-371,-119v-175,-3,-309,84,-309,246v0,169,91,200,258,238v162,37,336,89,412,178v62,72,96,165,96,286v-1,300,-200,439,-516,437v-162,-1,-298,-37,-424,-90r0,-215v130,81,246,138,424,141v188,3,323,-84,323,-260v0,-179,-93,-224,-262,-262v-267,-60,-504,-125,-504,-422v0,-273,210,-446,492,-441"},"\u015f":{"d":"670,178v-4,-70,-46,-117,-88,-178r118,0v58,66,109,121,109,215v0,131,-95,181,-238,180v-65,0,-122,-9,-176,-24r0,-131v78,41,283,64,275,-62xm637,-1147v131,0,237,25,336,66r0,180v-93,-54,-191,-92,-322,-92v-146,0,-248,36,-248,164v0,50,15,87,46,112v25,30,197,67,303,86v167,30,278,124,278,307v0,238,-190,356,-446,353v-138,-2,-251,-31,-371,-70r0,-190v114,58,230,104,375,106v146,2,252,-56,256,-188v3,-87,-93,-150,-253,-179v-207,-38,-375,-94,-374,-319v1,-231,172,-338,420,-336"},"\u0160":{"d":"522,-1635r-211,-266r140,0r165,178r166,-178r140,0r-211,266r-189,0xm631,-1520v142,2,262,34,381,78r0,205v-106,-67,-219,-116,-371,-119v-175,-3,-309,84,-309,246v0,169,91,200,258,238v162,37,336,89,412,178v62,72,96,165,96,286v-1,300,-200,439,-516,437v-162,-1,-298,-37,-424,-90r0,-215v130,81,246,138,424,141v188,3,323,-84,323,-260v0,-179,-93,-224,-262,-262v-267,-60,-504,-125,-504,-422v0,-273,210,-446,492,-441"},"\u0161":{"d":"543,-1262r-246,-376r139,0r180,245r181,-245r139,0r-246,376r-147,0xm637,-1147v131,0,237,25,336,66r0,180v-93,-54,-191,-92,-322,-92v-146,0,-248,36,-248,164v0,50,15,87,46,112v25,30,197,67,303,86v167,30,278,124,278,307v0,238,-190,356,-446,353v-138,-2,-251,-31,-371,-70r0,-190v114,58,230,104,375,106v146,2,252,-56,256,-188v3,-87,-93,-150,-253,-179v-207,-38,-375,-94,-374,-319v1,-231,172,-338,420,-336"},"\u0162":{"d":"670,178v-4,-70,-46,-117,-88,-178r118,0v58,66,109,121,109,215v0,131,-95,181,-238,180v-65,0,-122,-9,-176,-24r0,-131v78,41,283,64,275,-62xm47,-1493r1139,0r0,170r-467,0r0,1323r-203,0r0,-1323r-469,0r0,-170"},"\u0163":{"d":"791,178v-4,-70,-46,-117,-88,-178r118,0v58,66,109,121,109,215v0,131,-95,181,-238,180v-65,0,-122,-9,-176,-24r0,-131v78,41,283,64,275,-62xm807,0v-277,-3,-377,-93,-377,-369r0,-608r-299,0r0,-143r299,0r0,-318r184,0r0,318r418,0r0,143r-418,0r0,608v2,164,50,222,211,222r207,0r0,147r-225,0"},"\u0164":{"d":"528,-1635r-211,-266r140,0r165,178r166,-178r140,0r-211,266r-189,0xm47,-1493r1139,0r0,170r-467,0r0,1323r-203,0r0,-1323r-469,0r0,-170"},"\u0165":{"d":"820,-1662r198,0r-113,376r-154,0xm807,0v-277,-3,-377,-93,-377,-369r0,-608r-299,0r0,-143r299,0r0,-318r184,0r0,318r418,0r0,143r-418,0r0,608v2,164,50,222,211,222r207,0r0,147r-225,0"},"\u0166":{"d":"47,-1493r1139,0r0,170r-467,0r0,576r265,0r0,170r-265,0r0,577r-203,0r0,-577r-265,0r0,-170r265,0r0,-576r-469,0r0,-170"},"\u0167":{"d":"807,0v-277,-3,-374,-93,-377,-369r0,-233r-229,0r0,-142r229,0r0,-233r-299,0r0,-143r299,0r0,-318r184,0r0,318r418,0r0,143r-418,0r0,233r229,0r0,142r-229,0r0,233v2,164,50,222,211,222r207,0r0,147r-225,0"},"\u0168":{"d":"946,-1886v2,146,-101,248,-252,211v-62,-15,-134,-93,-207,-93v-52,0,-77,43,-75,101r-125,0v-5,-150,102,-248,255,-211v63,16,131,90,208,90v47,0,74,-45,71,-98r125,0xm147,-573r0,-920r203,0r0,1012v-15,241,57,346,266,346v147,0,240,-58,261,-190v4,-31,6,-82,6,-154r0,-1014r202,0r0,920v-3,266,-12,368,-127,485v-108,109,-347,150,-532,88v-118,-40,-215,-122,-250,-248v-18,-66,-29,-174,-29,-325"},"\u0169":{"d":"946,-1591v6,182,-93,328,-265,268v-60,-21,-107,-103,-163,-131v-79,-40,-108,50,-107,145r-124,0v-6,-182,93,-328,265,-268v60,21,111,97,164,131v11,6,20,10,29,10v67,-7,73,-69,76,-155r125,0xm535,29v-253,0,-340,-177,-340,-453r0,-694r184,0r0,694v1,183,52,293,219,293v190,0,268,-147,268,-354r0,-633r185,0r0,1118r-185,0r0,-168v-59,119,-166,197,-331,197"},"\u016a":{"d":"317,-1840r598,0r0,148r-598,0r0,-148xm147,-573r0,-920r203,0r0,1012v-15,241,57,346,266,346v147,0,240,-58,261,-190v4,-31,6,-82,6,-154r0,-1014r202,0r0,920v-3,266,-12,368,-127,485v-108,109,-347,150,-532,88v-118,-40,-215,-122,-250,-248v-18,-66,-29,-174,-29,-325"},"\u016b":{"d":"317,-1526r598,0r0,148r-598,0r0,-148xm535,29v-253,0,-340,-177,-340,-453r0,-694r184,0r0,694v1,183,52,293,219,293v190,0,268,-147,268,-354r0,-633r185,0r0,1118r-185,0r0,-168v-59,119,-166,197,-331,197"},"\u016c":{"d":"930,-1901v-16,164,-129,242,-314,242v-186,0,-297,-77,-313,-242r119,0v18,77,93,112,194,111v105,0,173,-32,195,-111r119,0xm147,-573r0,-920r203,0r0,1012v-15,241,57,346,266,346v147,0,240,-58,261,-190v4,-31,6,-82,6,-154r0,-1014r202,0r0,920v-3,266,-12,368,-127,485v-108,109,-347,150,-532,88v-118,-40,-215,-122,-250,-248v-18,-66,-29,-174,-29,-325"},"\u016d":{"d":"930,-1608v-14,187,-117,287,-314,287v-196,0,-299,-101,-313,-287r119,0v15,102,78,150,194,150v116,0,177,-51,195,-150r119,0xm535,29v-253,0,-340,-177,-340,-453r0,-694r184,0r0,694v1,183,52,293,219,293v190,0,268,-147,268,-354r0,-633r185,0r0,1118r-185,0r0,-168v-59,119,-166,197,-331,197"},"\u016e":{"d":"626,-2133v151,0,275,124,275,274v0,150,-125,275,-275,275v-150,0,-274,-126,-274,-275v0,-150,125,-274,274,-274xm626,-1707v83,0,152,-69,152,-152v0,-82,-69,-151,-152,-151v-83,0,-151,68,-151,151v0,84,67,152,151,152xm147,-573r0,-920r203,0r0,1012v-15,241,57,346,266,346v147,0,240,-58,261,-190v4,-31,6,-82,6,-154r0,-1014r202,0r0,920v-3,266,-12,368,-127,485v-108,109,-347,150,-532,88v-118,-40,-215,-122,-250,-248v-18,-66,-29,-174,-29,-325"},"\u016f":{"d":"631,-1753v151,0,275,124,275,274v0,150,-125,275,-275,275v-150,0,-274,-126,-274,-275v0,-150,125,-274,274,-274xm631,-1327v83,0,152,-69,152,-152v0,-82,-69,-151,-152,-151v-83,0,-151,68,-151,151v0,84,67,152,151,152xm535,29v-253,0,-340,-177,-340,-453r0,-694r184,0r0,694v1,183,52,293,219,293v190,0,268,-147,268,-354r0,-633r185,0r0,1118r-185,0r0,-168v-59,119,-166,197,-331,197"},"\u0170":{"d":"860,-1899r186,0r-229,264r-154,0xm541,-1899r186,0r-229,264r-154,0xm147,-573r0,-920r203,0r0,1012v-15,241,57,346,266,346v147,0,240,-58,261,-190v4,-31,6,-82,6,-154r0,-1014r202,0r0,920v-3,266,-12,368,-127,485v-108,109,-347,150,-532,88v-118,-40,-215,-122,-250,-248v-18,-66,-29,-174,-29,-325"},"\u0171":{"d":"535,-1638r170,0r-224,376r-137,0xm868,-1638r179,0r-248,376r-135,0xm535,29v-253,0,-340,-177,-340,-453r0,-694r184,0r0,694v1,183,52,293,219,293v190,0,268,-147,268,-354r0,-633r185,0r0,1118r-185,0r0,-168v-59,119,-166,197,-331,197"},"\u0172":{"d":"448,231v0,-93,52,-149,108,-215r119,0v-44,62,-82,107,-88,180v-9,117,162,103,234,62r0,133v-44,11,-87,20,-136,20v-149,-1,-237,-43,-237,-180xm147,-573r0,-920r203,0r0,1012v-15,241,57,346,266,346v147,0,240,-58,261,-190v4,-31,6,-82,6,-154r0,-1014r202,0r0,920v-3,266,-12,368,-127,485v-108,109,-347,150,-532,88v-118,-40,-215,-122,-250,-248v-18,-66,-29,-174,-29,-325"},"\u0173":{"d":"827,215v0,-93,52,-149,108,-215r119,0v-44,62,-82,107,-88,180v-9,117,162,103,234,62r0,133v-44,11,-87,20,-136,20v-149,-1,-237,-43,-237,-180xm535,29v-253,0,-340,-177,-340,-453r0,-694r184,0r0,694v1,183,52,293,219,293v190,0,268,-147,268,-354r0,-633r185,0r0,1118r-185,0r0,-168v-59,119,-166,197,-331,197"},"\u0174":{"d":"522,-1908r189,0r211,266r-140,0r-166,-178r-165,178r-140,0xm0,-1493r197,0r143,1212r170,-802r211,0r172,804r143,-1214r197,0r-223,1493r-191,0r-203,-887r-202,887r-191,0"},"\u0175":{"d":"543,-1645r147,0r246,376r-139,0r-181,-245r-180,245r-139,0xm0,-1120r182,0r195,905r160,-578r157,0r162,578r195,-905r182,0r-262,1120r-176,0r-179,-614r-178,614r-176,0"},"\u0176":{"d":"522,-1908r189,0r211,266r-140,0r-166,-178r-165,178r-140,0xm37,-1493r215,0r364,659r363,-659r217,0r-479,823r0,670r-203,0r0,-670"},"\u0177":{"d":"555,-1645r147,0r246,376r-139,0r-181,-245r-180,245r-139,0xm1153,-1120r-412,1068v-66,176,-110,283,-133,322v-55,94,-139,156,-276,156r-148,0r0,-154v97,0,188,7,236,-47v29,-33,70,-112,117,-243r-433,-1102r195,0r332,876r327,-876r195,0"},"\u0178":{"d":"319,-1870r203,0r0,203r-203,0r0,-203xm711,-1870r202,0r0,203r-202,0r0,-203xm37,-1493r215,0r364,659r363,-659r217,0r-479,823r0,670r-203,0r0,-670"},"\u0179":{"d":"699,-1899r186,0r-229,264r-154,0xm178,-1493r969,0r0,154r-780,1169r802,0r0,170r-1013,0r0,-154r759,-1169r-737,0r0,-170"},"\u017a":{"d":"842,-1645r198,0r-325,376r-154,0xm227,-1122r813,0r0,168r-643,804r643,0r0,150r-837,0r0,-170r643,-805r-619,0r0,-147"},"\u017b":{"d":"563,-1872r205,0r0,205r-205,0r0,-205xm178,-1493r969,0r0,154r-780,1169r802,0r0,170r-1013,0r0,-154r759,-1169r-737,0r0,-170"},"\u017c":{"d":"513,-1552r205,0r0,204r-205,0r0,-204xm227,-1122r813,0r0,168r-643,804r643,0r0,150r-837,0r0,-170r643,-805r-619,0r0,-147"},"\u017d":{"d":"522,-1635r-211,-266r140,0r165,178r166,-178r140,0r-211,266r-189,0xm178,-1493r969,0r0,154r-780,1169r802,0r0,170r-1013,0r0,-154r759,-1169r-737,0r0,-170"},"\u017e":{"d":"543,-1262r-246,-376r139,0r180,245r181,-245r139,0r-246,376r-147,0xm227,-1122r813,0r0,168r-643,804r643,0r0,150r-837,0r0,-170r643,-805r-619,0r0,-147"},"\u017f":{"d":"854,-1403v-136,2,-176,47,-176,184r0,1219r-184,0r0,-977r-299,0r0,-143r299,0v-15,-283,77,-441,348,-436r221,0r0,153r-209,0"},"\u0180":{"d":"676,29v-146,0,-244,-69,-299,-170r0,141r-184,0r0,-1270r-123,0r0,-164r123,0r0,-122r184,0v2,39,-4,87,2,122r353,0r0,164r-355,0r0,293v54,-101,155,-170,301,-170v296,0,434,258,434,584v0,331,-137,592,-436,592xm649,-127v209,0,269,-189,269,-432v0,-143,-23,-250,-68,-323v-45,-73,-112,-109,-201,-109v-209,0,-272,189,-272,432v0,141,23,249,69,322v46,73,114,110,203,110"},"\u0181":{"d":"986,-430v0,-205,-112,-283,-326,-283r-120,0r0,547r120,0v220,-2,326,-59,326,-264xm933,-1114v0,-167,-96,-212,-277,-213r-116,0r0,450r116,0v186,-1,277,-60,277,-237xm20,-1079v-18,-249,92,-414,318,-414r322,0v281,-2,477,118,477,379v0,189,-93,290,-262,315v191,26,316,174,314,389v-3,296,-208,410,-529,410r-322,0r0,-1327v-101,5,-168,71,-162,199r0,49r-156,0"},"\u0182":{"d":"934,-430v0,-205,-112,-283,-326,-283r-239,0r0,547r239,0v220,-2,326,-59,326,-264xm1137,-410v0,296,-209,411,-529,410r-442,0r0,-1493r902,0r0,166r-699,0r0,450r235,0v253,10,413,79,480,206v35,67,53,154,53,261"},"\u0183":{"d":"676,29v-146,0,-244,-69,-299,-170r0,141r-184,0r0,-1556r752,0r0,184r-568,0r0,395v54,-101,155,-170,301,-170v296,0,434,258,434,584v0,331,-137,592,-436,592xm649,-127v209,0,269,-189,269,-432v0,-143,-23,-250,-68,-323v-45,-73,-112,-109,-201,-109v-209,0,-272,189,-272,432v0,141,23,249,69,322v46,73,114,110,203,110"},"\u0184":{"d":"982,-430v0,-205,-112,-282,-326,-283r-239,0r0,547r239,0v219,-2,326,-59,326,-264xm1185,-410v0,296,-209,411,-529,410r-442,0r0,-948r-166,-228r369,-317r0,616r235,0v253,10,413,79,480,206v35,67,53,154,53,261"},"\u0185":{"d":"710,-991v-210,0,-273,188,-272,432v0,141,25,247,68,322v83,144,315,143,404,1v83,-132,88,-517,0,-646v-48,-71,-112,-109,-200,-109xm736,29v-146,0,-243,-69,-298,-170r0,141r-184,0r0,-948r-194,-228r378,-380r0,579v54,-101,153,-170,300,-170v296,0,434,258,434,584v0,331,-135,592,-436,592"},"\u0186":{"d":"469,-1356v-136,0,-246,55,-330,125r0,-207v95,-50,195,-82,330,-82v411,0,604,330,604,775v0,449,-189,774,-604,774v-135,0,-236,-32,-330,-82r0,-207v84,71,192,125,330,125v131,0,225,-54,295,-152v127,-179,126,-739,0,-917v-70,-98,-164,-152,-295,-152"},"\u0187":{"d":"664,-135v137,0,246,-55,330,-125r0,207v-95,50,-195,82,-330,82v-414,0,-604,-326,-604,-774v0,-439,296,-803,773,-687v53,-119,165,-219,340,-207r0,156v-128,7,-183,89,-179,250r0,70v-85,-70,-193,-124,-330,-125v-279,-3,-394,252,-393,543v0,204,33,357,98,458v65,101,164,152,295,152"},"\u0188":{"d":"647,-127v143,0,234,-46,313,-121r0,191v-88,51,-187,85,-313,86v-351,2,-553,-231,-553,-588v0,-404,274,-653,690,-572v29,-181,148,-299,355,-291r0,156v-135,3,-179,99,-179,250r0,148v-88,-77,-167,-123,-313,-123v-244,0,-359,173,-359,432v0,258,116,432,359,432"},"\u0189":{"d":"1102,-745v0,492,-191,741,-666,745r-303,0r0,-709r-125,0r0,-149r125,0r0,-635r303,0v476,3,666,255,666,748xm893,-745v0,-411,-77,-572,-457,-582r-96,0r0,469r264,0r0,149r-264,0r0,543r96,0v377,-9,457,-172,457,-579"},"\u018a":{"d":"8,-1149v-9,-218,130,-344,318,-344r233,0v476,3,666,255,666,748v0,492,-190,741,-666,745r-233,0r0,-1327v-36,0,-73,17,-114,47v-40,29,-51,114,-48,201r-156,0r0,-70xm1012,-745v0,-421,-87,-581,-483,-582r0,1161v392,0,483,-162,483,-579"},"\u018b":{"d":"334,-430v0,205,106,264,326,264r239,0r0,-547r-239,0v-214,0,-326,78,-326,283xm131,-410v0,-347,162,-442,533,-467r235,0r0,-450r-699,0r0,-166r902,0r0,1493r-442,0v-322,1,-529,-114,-529,-410"},"\u018c":{"d":"620,-991v-209,0,-269,189,-269,432v0,143,23,250,68,323v45,73,112,109,201,109v209,0,272,-190,272,-432v0,-142,-23,-250,-69,-323v-46,-73,-114,-109,-203,-109xm591,-1147v146,0,248,69,301,170r0,-395r-568,0r0,-184r752,0r0,1556r-184,0r0,-141v-55,101,-153,170,-299,170v-298,0,-436,-262,-436,-592v0,-327,137,-584,434,-584"},"\u018d":{"d":"331,-559v0,249,67,432,285,432v216,0,285,-185,284,-432v0,-247,-68,-432,-284,-432v-216,0,-285,185,-285,432xm1095,-559v-1,241,-62,406,-197,508v49,28,125,116,121,202v-10,203,-205,300,-434,300v-143,0,-197,-26,-303,-48r0,-173v128,45,345,95,468,8v32,-22,68,-44,66,-98v-2,-59,-27,-72,-71,-97v-16,-9,-59,-13,-129,-14v-335,-6,-480,-233,-480,-588v0,-356,146,-588,480,-588v333,0,482,233,479,588"},"\u018e":{"d":"1102,-1493r0,1493r-905,0r0,-170r703,0r0,-541r-654,0r0,-170r654,0r0,-442r-684,0r0,-170r886,0"},"\u018f":{"d":"286,-1438v95,-50,195,-81,330,-82v169,0,294,64,376,192v82,128,124,322,124,583v0,260,-42,454,-124,582v-82,128,-207,192,-376,192v-169,0,-292,-65,-376,-191v-91,-137,-130,-384,-123,-666r787,0v1,-163,-22,-294,-69,-388v-46,-93,-119,-140,-219,-140v-136,0,-246,55,-330,125r0,-207xm332,-644v0,165,23,291,70,378v47,87,119,131,218,131v99,0,169,-42,211,-127v42,-85,66,-213,72,-382r-571,0"},"\u0190":{"d":"137,-412v0,-214,122,-341,303,-387v-158,-40,-267,-137,-268,-319v-2,-253,210,-408,479,-402v135,3,253,30,383,64r0,186v-120,-46,-238,-78,-383,-80v-169,-1,-279,77,-279,238v0,157,126,233,295,231r154,0r0,166r-154,0v-190,-3,-330,102,-330,283v1,198,136,293,344,291v157,-2,281,-44,398,-105r0,201v-124,43,-265,72,-420,74v-306,3,-522,-152,-522,-441"},"\u0191":{"d":"201,270v135,-3,179,-99,179,-250r0,-1513r790,0r0,170r-587,0r0,440r524,0r0,170r-524,0r0,733v2,245,-113,405,-344,406r-176,0r0,-156r138,0"},"\u0192":{"d":"491,-1120v-17,-285,85,-446,363,-436r209,0r0,153r-211,0v-133,2,-173,47,-174,184r0,99r385,0r0,143r-385,0r0,997v3,299,-113,422,-414,406r0,-156r49,0v164,-5,181,-66,181,-250r-2,-997r-297,0r0,-143r296,0"},"\u0193":{"d":"652,-135v92,0,156,-21,208,-64r0,-401r-216,0r0,-166r410,0r0,643v-99,91,-226,152,-402,152v-411,0,-600,-329,-600,-774v0,-244,56,-432,160,-571v138,-184,406,-253,658,-166v57,-100,162,-164,311,-157r0,156v-137,4,-186,107,-179,277v-92,-88,-190,-150,-346,-150v-131,0,-224,54,-295,152v-127,177,-127,744,-3,920v68,97,162,149,294,149"},"\u0194":{"d":"730,-650v216,299,324,581,324,844v0,157,-139,236,-416,236v-293,0,-440,-79,-440,-236v0,-245,98,-528,294,-851r-464,-696r216,0r372,555r372,-555r218,0xm600,-495v-132,201,-198,409,-198,625v0,92,72,138,216,138v136,0,204,-46,204,-138v0,-217,-74,-425,-222,-625"},"\u0195":{"d":"862,0v-203,0,-274,-162,-274,-406v0,-173,21,-412,-48,-510v-73,-105,-175,-89,-246,20v-40,62,-63,149,-63,263r0,633r-166,0r0,-1556r166,0r0,604v51,-89,83,-138,94,-146v126,-81,269,-58,354,64v85,122,75,405,75,628v0,102,11,170,34,202v25,35,56,51,93,48v13,-1,37,-26,73,-75v32,-44,47,-118,47,-222r0,-411r167,0r0,411v-1,268,-70,453,-306,453"},"\u0196":{"d":"865,0v-236,-2,-351,-155,-351,-406r0,-917r-313,0r0,-170r829,0r0,170r-313,0r0,902v0,152,44,250,179,250r185,0r1,171r-217,0"},"\u0197":{"d":"201,-1493r829,0r0,170r-313,0r0,576r267,0r0,170r-267,0r0,407r313,0r0,170r-829,0r0,-170r313,0r0,-407r-263,0r0,-170r263,0r0,-576r-313,0r0,-170"},"\u0198":{"d":"647,-1180v107,-113,196,-172,266,-182v138,-21,234,61,306,147r-106,114v-40,-47,-91,-107,-174,-84v-102,27,-251,217,-339,302r598,883r-244,0r-487,-748r-154,164r0,584r-203,0r0,-1493r203,0r0,664"},"\u0199":{"d":"236,-1150v-2,-245,113,-405,344,-406r205,0r0,156v-127,5,-267,-23,-320,62v-27,43,-44,104,-44,188r5,0r0,495r483,-465r224,0r-441,422r510,698r-225,0r-414,-578r-137,129r0,449r-190,0r0,-1150"},"\u019a":{"d":"801,0v-231,0,-349,-163,-346,-406r0,-196r-228,0r0,-142r228,0r0,-679r-295,0r0,-144r479,0r0,823r230,0r0,142r-230,0r0,196v0,148,47,250,180,250r215,0r0,156r-233,0"},"\u019b":{"d":"579,-1213r348,-242r80,110r-371,258r497,1087r-191,0r-321,-704r-330,704r-191,0r425,-913r-34,-74r-362,251r-80,-111r385,-266r-174,-380r191,0"},"\u019c":{"d":"773,27v-112,0,-171,-54,-205,-141v-41,86,-100,141,-213,141v-90,0,-154,-35,-191,-105v-37,-70,-55,-200,-55,-393r0,-1022r168,0r0,1014v0,158,11,256,27,295v32,81,175,72,206,-4v17,-42,29,-138,29,-291r0,-1014r168,0r0,1014v0,160,12,258,29,296v34,75,173,75,204,-5v16,-42,28,-138,28,-291r0,-1014r167,0r0,1493r-167,0r0,-96v-39,70,-98,123,-195,123"},"\u019d":{"d":"29,270v126,-5,161,-104,161,-250r0,-1513r230,0r454,1229r0,-1229r175,0r0,1493r-230,0r-453,-1229r0,1249v0,246,-98,414,-337,406r0,-156"},"\u019e":{"d":"711,-1147v252,0,340,177,340,453r0,1124r-185,0r0,-1124v-1,-184,-51,-293,-219,-293v-189,0,-268,148,-268,354r0,633r-184,0r0,-1120r184,0r0,168v60,-118,165,-195,332,-195"},"\u019f":{"d":"1116,-745v0,260,-42,454,-124,582v-82,128,-207,192,-376,192v-169,0,-294,-64,-376,-191v-82,-127,-123,-322,-123,-583v0,-261,41,-455,123,-583v82,-128,208,-192,376,-192v169,0,294,64,376,192v82,128,124,322,124,583xm904,-828v-5,-176,-27,-305,-66,-387v-45,-94,-119,-141,-222,-141v-102,0,-175,47,-220,141v-39,82,-62,211,-67,387r575,0xm330,-644v6,167,28,289,66,368v45,94,118,141,220,141v103,0,177,-47,222,-141v37,-78,59,-201,65,-368r-573,0"},"\u01a0":{"d":"1011,-1184v-93,0,-149,-52,-215,-108r0,-119v62,44,107,82,180,88v117,9,103,-162,62,-234r133,0v11,44,20,87,20,136v-1,149,-43,237,-180,237xm727,-276v85,-157,85,-782,0,-939v-50,-91,-119,-141,-222,-141v-102,0,-170,49,-220,141v-85,157,-85,782,0,939v50,91,118,141,220,141v103,0,172,-50,222,-141xm1005,-745v0,260,-42,454,-124,582v-82,128,-207,192,-376,192v-169,0,-294,-64,-376,-191v-82,-127,-123,-322,-123,-583v0,-261,41,-455,123,-583v82,-128,208,-192,376,-192v169,0,294,64,376,192v82,128,124,322,124,583"},"\u01a1":{"d":"1022,-764v-93,0,-149,-52,-215,-108r0,-119v62,44,107,82,180,88v117,9,103,-162,62,-234r133,0v11,44,20,87,20,136v-1,149,-43,237,-180,237xm796,-559v0,-249,-67,-432,-285,-432v-216,0,-285,185,-284,432v0,247,68,432,284,432v216,0,285,-185,285,-432xm32,-559v0,-355,146,-588,479,-588v332,0,480,234,480,588v0,356,-146,588,-480,588v-333,0,-479,-233,-479,-588"},"\u01a2":{"d":"45,-745v0,-448,110,-705,334,-761v183,-45,342,11,432,144r147,-131r230,0r0,1493r-175,0r0,-1229r-180,160r0,906v-74,128,-187,192,-339,192v-152,0,-264,-64,-338,-191v-74,-127,-111,-322,-111,-583xm693,-1215v-41,-94,-107,-141,-199,-141v-92,0,-153,49,-198,141v-76,157,-76,782,0,939v45,92,106,141,198,141v92,0,158,-47,199,-141r0,-939"},"\u01a3":{"d":"517,29v-305,-2,-431,-247,-431,-588v0,-291,83,-474,250,-551v53,-25,114,-37,181,-37v140,0,247,50,321,151r0,43r126,-110r231,0r0,1493r-176,0r0,-1229r-181,157r0,520v-73,101,-180,151,-321,151xm262,-559v0,263,71,408,215,429v108,16,181,-23,232,-106r0,-646v-43,-73,-107,-109,-192,-109v-137,0,-219,95,-246,286v-6,44,-9,93,-9,146"},"\u01a4":{"d":"669,-1493v330,4,503,134,508,446v5,301,-189,449,-508,447r-93,0r0,600r-202,0r0,-1327v-36,0,-73,17,-114,47v-40,29,-51,114,-48,201r-156,0r0,-70v-9,-218,130,-344,318,-344r295,0xm966,-1047v2,-180,-114,-282,-297,-280r-93,0r0,561r93,0v186,1,295,-96,297,-281"},"\u01a5":{"d":"375,-559v0,250,68,398,209,425v246,48,335,-156,331,-425v-4,-285,-79,-432,-268,-432v-143,0,-229,91,-260,273v-8,47,-12,100,-12,159xm554,-1276v-137,-8,-189,125,-179,299v64,-112,158,-170,299,-170v299,0,434,262,434,592v0,327,-137,584,-434,584v-147,0,-246,-68,-299,-170r0,567r-185,0r0,-1452v3,-257,104,-398,344,-406r205,0r0,156r-185,0"},"\u01a6":{"d":"1067,-797v0,204,-122,332,-307,356v156,52,181,118,270,297r203,408r-217,0r-178,-377v-51,-107,-98,-174,-138,-207v-76,-62,-222,-44,-354,-47r0,367r-203,0r0,-1493r203,0r0,264r213,0v310,-2,507,137,508,432xm854,-797v0,-178,-111,-266,-295,-266r-213,0r0,530r221,0v188,0,287,-80,287,-264"},"\u01a7":{"d":"596,-1356v-151,2,-266,52,-371,119r0,-205v119,-44,238,-76,381,-78v283,-5,492,168,492,441v0,296,-236,363,-504,422v-169,37,-262,83,-262,262v0,176,135,263,323,260v177,-3,295,-61,424,-141r0,215v-127,53,-261,89,-424,90v-316,2,-514,-137,-516,-437v-2,-319,225,-401,508,-464v168,-37,258,-68,258,-238v0,-162,-135,-249,-309,-246"},"\u01a8":{"d":"592,-993v-130,0,-230,39,-322,92r0,-180v99,-41,204,-65,336,-66v249,-2,418,105,420,336v2,227,-173,282,-382,321v-164,30,-245,92,-245,177v0,131,111,190,256,188v144,-2,262,-48,375,-106r0,190v-121,39,-232,68,-371,70v-257,3,-445,-114,-446,-353v-1,-213,154,-291,352,-321v123,-18,198,-47,229,-72v31,-25,46,-62,46,-112v0,-128,-103,-164,-248,-164"},"\u01a9":{"d":"786,-747r-455,577r802,0r0,170r-1013,0r0,-170r454,-577r-454,-576r0,-170r1013,0r0,170r-802,0"},"\u01aa":{"d":"568,-1284v-15,-90,-56,-116,-168,-116v-83,0,-125,22,-127,65v-2,74,204,46,295,51xm421,-1556v206,1,306,90,334,271r191,0r0,155r-181,0r-2,1219v3,137,38,184,176,184r176,0r0,153r-174,0v-259,2,-363,-114,-363,-358r0,-1198r-190,0v-180,0,-270,-70,-270,-210v0,-144,101,-216,303,-216"},"\u01ab":{"d":"847,0v-295,5,-417,-78,-417,-369r0,-608r-299,0r0,-143r299,0r0,-318r184,0r0,318r418,0r0,143r-418,0r0,608v2,164,50,222,211,222r207,0r0,167v2,245,-113,405,-344,406r-205,0r0,-156r185,0v142,-2,183,-111,179,-270"},"\u01ac":{"d":"47,-1079v-16,-300,108,-414,406,-414r733,0r0,170r-467,0r0,1323r-203,0r0,-1323v-176,-14,-324,0,-313,195r0,49r-156,0"},"\u01ad":{"d":"793,-1400v-145,2,-184,117,-179,280r418,0r0,143r-418,0r0,608v2,164,50,222,211,222r207,0r0,147r-225,0v-277,-3,-377,-93,-377,-369r0,-608r-299,0r0,-143r298,0v-10,-263,102,-435,344,-436r205,0r0,156r-185,0"},"\u01ae":{"d":"860,426v-231,-1,-344,-161,-344,-406r0,-1343r-469,0r0,-170r1139,0r0,170r-467,0r0,1343v0,151,44,250,179,250r185,0r0,156r-223,0"},"\u01af":{"d":"1044,-1188v-93,0,-149,-52,-215,-108r0,-119v62,44,107,82,180,88v117,9,103,-162,62,-234r133,0v11,44,20,87,20,136v-1,149,-43,237,-180,237xm9,-573r0,-920r203,0r0,1012v-15,241,57,346,266,346v147,0,240,-58,261,-190v4,-31,6,-82,6,-154r0,-1014r202,0r0,920v-3,266,-12,368,-127,485v-108,109,-347,150,-532,88v-118,-40,-215,-122,-250,-248v-18,-66,-29,-174,-29,-325"},"\u01b0":{"d":"1014,-764v-93,0,-149,-52,-215,-108r0,-119v62,44,107,82,180,88v117,9,103,-162,62,-234r133,0v11,44,20,87,20,136v-1,149,-43,237,-180,237xm379,29v-253,0,-340,-177,-340,-453r0,-694r184,0r0,694v1,183,52,293,219,293v190,0,268,-147,268,-354r0,-633r185,0r0,1118r-185,0r0,-168v-59,119,-166,197,-331,197"},"\u01b1":{"d":"950,-661v0,-281,-88,-522,-254,-627r0,-172r463,0r0,172r-245,0v149,165,229,324,233,610v6,377,-182,678,-528,678v-348,0,-537,-301,-531,-678v4,-284,85,-447,234,-610r-248,0r0,-172r463,0r0,172v-166,105,-254,347,-254,627v0,153,30,275,90,363v60,88,141,132,244,132v233,0,333,-230,333,-495"},"\u01b2":{"d":"1066,-683v4,391,-187,684,-560,683v-236,-1,-352,-155,-352,-406r0,-1087r204,0r0,1072v0,151,43,250,178,250v233,0,334,-229,334,-495v0,-281,-88,-522,-254,-627r218,0v148,165,228,324,232,610"},"\u01b3":{"d":"1145,-1285v-36,-38,-88,-53,-143,-24v-33,18,-76,72,-127,169r-246,470r0,670r-183,0r0,-670r-429,-823r193,0r328,659r199,-401v66,-133,136,-213,208,-242v103,-42,199,-4,271,58"},"\u01b4":{"d":"622,104v-54,135,-106,220,-152,261v-75,67,-206,63,-345,61r0,-154v87,0,182,8,226,-36v39,-25,95,-173,126,-254r-453,-1102r195,0r350,876r279,-699v51,-115,95,-182,225,-189v49,-3,109,21,152,37r-53,147v-46,-20,-114,-38,-137,20"},"\u01b5":{"d":"178,-1493r969,0r0,154r-395,592r232,0r0,170r-345,0r-272,407r802,0r0,170r-1013,0r0,-154r275,-423r-180,0r0,-170r290,0r374,-576r-737,0r0,-170"},"\u01b6":{"d":"222,-1122r813,0r0,168r-270,338r312,0r0,164r-443,0r-242,302r643,0r0,150r-837,0r0,-170r225,-282r-267,0r0,-164r398,0r287,-359r-619,0r0,-147"},"\u01b7":{"d":"1206,-435v-6,318,-242,463,-584,463v-355,0,-590,-139,-596,-463r202,0v3,209,159,293,388,293v229,0,390,-83,390,-293v0,-191,-149,-283,-350,-281r-174,0r0,-166r370,-441r-738,0r0,-170r970,0r0,168r-376,441v69,0,147,19,234,56v122,54,268,207,264,393"},"\u01b8":{"d":"616,-142v229,0,386,-83,390,-293r200,0v-5,323,-242,463,-596,463v-343,0,-578,-145,-584,-463v-4,-185,143,-339,266,-393v86,-37,164,-56,234,-56r-376,-441r0,-168r968,0r0,170r-736,0r370,441r0,166r-174,0v-204,-2,-350,90,-350,281v0,209,159,293,388,293"},"\u01b9":{"d":"709,436v-343,3,-577,-145,-584,-463v-4,-185,143,-340,265,-393v85,-37,163,-56,234,-56r-411,-476r0,-168r874,0r0,147r-667,0r430,499r0,166r-174,0v-203,-3,-350,92,-350,281v0,209,160,294,389,293v156,0,290,-38,393,-99r0,195v-123,43,-249,73,-399,74"},"\u01ba":{"d":"1020,367v-110,41,-210,58,-350,59v-320,0,-480,-94,-480,-281v0,-159,135,-256,406,-291v189,-25,284,-70,284,-135v0,-83,-78,-124,-235,-124r-290,0r485,-568r-667,0r0,-147r874,0r0,168r-354,412v245,0,367,76,367,229v0,184,-155,292,-464,325v-151,16,-226,56,-226,121v0,93,110,139,329,139v132,0,226,-35,321,-86r0,179"},"\u01bb":{"d":"842,-1083v7,-167,-102,-267,-275,-267v-121,0,-255,44,-403,133r0,-204v139,-66,272,-99,399,-99v274,0,489,161,486,422v-2,145,-68,251,-145,351r80,0r0,170r-230,0r-56,63r-325,344r686,0r0,170r-907,0r0,-170r382,-407r-283,0r0,-170r434,0v98,-133,150,-176,157,-336"},"\u01bc":{"d":"228,-435v-3,202,164,293,388,293v211,0,336,-66,377,-199v9,-29,13,-60,13,-94v0,-191,-149,-281,-350,-281r-441,0r0,-777r924,0r0,170r-721,0r0,439v208,5,363,-21,524,56v122,58,267,204,264,393v-6,318,-242,463,-584,463v-287,0,-471,-85,-552,-256v-29,-61,-44,-130,-44,-207r202,0"},"\u01bd":{"d":"1108,-27v-6,318,-242,463,-584,463v-125,0,-258,-25,-399,-74r0,-195v113,66,244,99,393,99v248,0,389,-79,389,-293v0,-191,-147,-281,-350,-281r-300,0r0,-812r752,0r0,184r-568,0r0,461v169,-2,261,-9,402,55v123,55,268,208,265,393"},"\u01be":{"d":"1039,-439v-3,294,-212,468,-522,468v-114,0,-222,-23,-323,-70r0,-172v250,154,663,112,651,-226v-7,-181,-141,-293,-336,-288r-62,0r0,-271r-229,0r0,-164r229,0r0,-276r202,0r0,276r231,0r0,164r-231,0r0,125v212,34,392,198,390,434"},"\u01bf":{"d":"788,-1147v235,0,339,166,339,378v0,283,-272,580,-817,891r0,304r-185,0r0,-1546r185,0r0,170v35,-44,97,-93,187,-148v54,-33,151,-49,291,-49xm936,-709v-1,-171,-66,-263,-233,-264v-147,0,-278,80,-393,239r0,674v417,-267,626,-483,626,-649"},"\u01c0":{"d":"516,-1493r202,0r0,1493r-202,0r0,-1493"},"\u01c1":{"d":"314,-1493r202,0r0,1493r-202,0r0,-1493xm718,-1493r202,0r0,1493r-202,0r0,-1493"},"\u01c2":{"d":"516,-1493r202,0r0,404r350,0r0,168r-350,0r0,240r350,0r0,170r-350,0r0,511r-202,0r0,-511r-352,0r0,-170r352,0r0,-240r-352,0r0,-168r352,0r0,-404"},"\u01c3":{"d":"515,-1493r203,0r0,655r-21,357r-161,0r-21,-357r0,-655xm515,-254r203,0r0,254r-203,0r0,-254"},"\u01cd":{"d":"522,-1635r-211,-266r140,0r165,178r166,-178r140,0r-211,266r-189,0xm616,-1315r-213,764r426,0xm494,-1493r245,0r457,1493r-209,0r-110,-389r-523,0r-108,389r-209,0"},"\u01ce":{"d":"543,-1262r-246,-376r139,0r180,245r181,-245r139,0r-246,376r-147,0xm547,-125v229,-2,339,-185,327,-438r-233,0v-190,0,-321,55,-324,225v-3,137,91,214,230,213xm215,-1069v171,-72,431,-114,615,-37v106,44,185,120,213,246v11,49,16,123,16,221r0,639r-185,0r0,-166v-74,124,-180,193,-366,195v-221,3,-377,-138,-375,-355v4,-272,198,-383,494,-381r247,0v6,-203,-80,-285,-282,-284v-147,2,-272,46,-377,106r0,-184"},"\u01cf":{"d":"522,-1635r-211,-266r140,0r165,178r166,-178r140,0r-211,266r-189,0xm201,-1493r829,0r0,170r-313,0r0,1153r313,0r0,170r-829,0r0,-170r313,0r0,-1153r-313,0r0,-170"},"\u01d0":{"d":"543,-1262r-246,-376r139,0r180,245r181,-245r139,0r-246,376r-147,0xm256,-1120r471,0r0,977r365,0r0,143r-914,0r0,-143r365,0r0,-834r-287,0r0,-143"},"\u01d1":{"d":"522,-1635r-211,-266r140,0r165,178r166,-178r140,0r-211,266r-189,0xm838,-276v85,-157,85,-782,0,-939v-50,-91,-119,-141,-222,-141v-102,0,-170,49,-220,141v-85,157,-85,782,0,939v50,91,118,141,220,141v103,0,172,-50,222,-141xm1116,-745v0,260,-42,454,-124,582v-82,128,-207,192,-376,192v-169,0,-294,-64,-376,-191v-82,-127,-123,-322,-123,-583v0,-261,41,-455,123,-583v82,-128,208,-192,376,-192v169,0,294,64,376,192v82,128,124,322,124,583"},"\u01d2":{"d":"543,-1262r-246,-376r139,0r180,245r181,-245r139,0r-246,376r-147,0xm901,-559v0,-249,-67,-432,-285,-432v-216,0,-285,185,-284,432v0,247,68,432,284,432v216,0,285,-185,285,-432xm137,-559v0,-355,146,-588,479,-588v332,0,480,234,480,588v0,356,-146,588,-480,588v-333,0,-479,-233,-479,-588"},"\u01d3":{"d":"522,-1635r-211,-266r140,0r165,178r166,-178r140,0r-211,266r-189,0xm147,-573r0,-920r203,0r0,1012v-15,241,57,346,266,346v147,0,240,-58,261,-190v4,-31,6,-82,6,-154r0,-1014r202,0r0,920v-3,266,-12,368,-127,485v-108,109,-347,150,-532,88v-118,-40,-215,-122,-250,-248v-18,-66,-29,-174,-29,-325"},"\u01d4":{"d":"543,-1262r-246,-376r139,0r180,245r181,-245r139,0r-246,376r-147,0xm535,29v-253,0,-340,-177,-340,-453r0,-694r184,0r0,694v1,183,52,293,219,293v190,0,268,-147,268,-354r0,-633r185,0r0,1118r-185,0r0,-168v-59,119,-166,197,-331,197"},"\u01d5":{"d":"319,-1746r203,0r0,203r-203,0r0,-203xm711,-1746r202,0r0,203r-202,0r0,-203xm317,-1952r598,0r0,148r-598,0r0,-148xm147,-573r0,-920r203,0r0,1012v-15,241,57,346,266,346v147,0,240,-58,261,-190v4,-31,6,-82,6,-154r0,-1014r202,0r0,920v-3,266,-12,368,-127,485v-108,109,-347,150,-532,88v-118,-40,-215,-122,-250,-248v-18,-66,-29,-174,-29,-325"},"\u01d6":{"d":"319,-1552r203,0r0,202r-203,0r0,-202xm711,-1552r202,0r0,202r-202,0r0,-202xm535,29v-253,0,-340,-177,-340,-453r0,-694r184,0r0,694v1,183,52,293,219,293v190,0,268,-147,268,-354r0,-633r185,0r0,1118r-185,0r0,-168v-59,119,-166,197,-331,197xm317,-1842r598,0r0,148r-598,0r0,-148"},"\u01d7":{"d":"672,-2041r186,0r-229,264r-154,0xm319,-1746r203,0r0,203r-203,0r0,-203xm711,-1746r202,0r0,203r-202,0r0,-203xm147,-573r0,-920r203,0r0,1012v-15,241,57,346,266,346v147,0,240,-58,261,-190v4,-31,6,-82,6,-154r0,-1014r202,0r0,920v-3,266,-12,368,-127,485v-108,109,-347,150,-532,88v-118,-40,-215,-122,-250,-248v-18,-66,-29,-174,-29,-325"},"\u01d8":{"d":"319,-1552r203,0r0,202r-203,0r0,-202xm711,-1552r202,0r0,202r-202,0r0,-202xm756,-1954r198,0r-325,376r-154,0xm535,29v-253,0,-340,-177,-340,-453r0,-694r184,0r0,694v1,183,52,293,219,293v190,0,268,-147,268,-354r0,-633r185,0r0,1118r-185,0r0,-168v-59,119,-166,197,-331,197"},"\u01d9":{"d":"522,-1777r-211,-266r140,0r165,178r166,-178r140,0r-211,266r-189,0xm319,-1746r203,0r0,203r-203,0r0,-203xm711,-1746r202,0r0,203r-202,0r0,-203xm147,-573r0,-920r203,0r0,1012v-15,241,57,346,266,346v147,0,240,-58,261,-190v4,-31,6,-82,6,-154r0,-1014r202,0r0,920v-3,266,-12,368,-127,485v-108,109,-347,150,-532,88v-118,-40,-215,-122,-250,-248v-18,-66,-29,-174,-29,-325"},"\u01da":{"d":"543,-1578r-246,-376r139,0r180,245r181,-245r139,0r-246,376r-147,0xm319,-1552r203,0r0,202r-203,0r0,-202xm711,-1552r202,0r0,202r-202,0r0,-202xm535,29v-253,0,-340,-177,-340,-453r0,-694r184,0r0,694v1,183,52,293,219,293v190,0,268,-147,268,-354r0,-633r185,0r0,1118r-185,0r0,-168v-59,119,-166,197,-331,197"},"\u01db":{"d":"561,-2041r197,264r-154,0r-227,-264r184,0xm319,-1746r203,0r0,203r-203,0r0,-203xm711,-1746r202,0r0,203r-202,0r0,-203xm147,-573r0,-920r203,0r0,1012v-15,241,57,346,266,346v147,0,240,-58,261,-190v4,-31,6,-82,6,-154r0,-1014r202,0r0,920v-3,266,-12,368,-127,485v-108,109,-347,150,-532,88v-118,-40,-215,-122,-250,-248v-18,-66,-29,-174,-29,-325"},"\u01dc":{"d":"477,-1954r281,376r-154,0r-325,-376r198,0xm535,29v-253,0,-340,-177,-340,-453r0,-694r184,0r0,694v1,183,52,293,219,293v190,0,268,-147,268,-354r0,-633r185,0r0,1118r-185,0r0,-168v-59,119,-166,197,-331,197xm319,-1552r203,0r0,202r-203,0r0,-202xm711,-1552r202,0r0,202r-202,0r0,-202"},"\u01dd":{"d":"583,29v-298,0,-466,-228,-461,-541r0,-90r797,0v4,-243,-128,-392,-365,-389v-153,2,-268,51,-389,113r0,-183v120,-49,242,-84,391,-86v351,-2,555,231,555,588v0,340,-200,588,-528,588xm306,-459v-2,203,93,332,285,332v192,0,305,-143,321,-332r-606,0"},"\u01de":{"d":"319,-1746r203,0r0,203r-203,0r0,-203xm711,-1746r202,0r0,203r-202,0r0,-203xm317,-1952r598,0r0,148r-598,0r0,-148xm616,-1315r-213,764r426,0xm494,-1493r245,0r457,1493r-209,0r-110,-389r-523,0r-108,389r-209,0"},"\u01df":{"d":"317,-1842r598,0r0,148r-598,0r0,-148xm547,-125v229,-2,339,-185,327,-438r-233,0v-190,0,-321,55,-324,225v-3,137,91,214,230,213xm215,