// #### Generated By: http://www.cufonfonts.com ####
/*!
 * The following copyright notice may not be removed under any circumstances.
 * 
 * Copyright:
 * Digitized data copyright © 2006, Google Corporation.
 * 
 * Trademark:
 * Droid is a trademark of Google and may be registered in certain jurisdictions.
 * 
 * Description:
 * Droid Sans is a humanist sans serif typeface designed for user interfaces and
 * electronic communication.
 * 
 * Manufacturer:
 * Ascender Corporation
 * 
 * Vendor URL:
 * http://www.ascendercorp.com/
 * 
 * License information:
 * http://ascendercorp.com/eula10.html
 */
Cufon.registerFont({"w":1229,"face":{"font-family":"Droid Sans Mono","font-weight":400,"font-stretch":"normal","units-per-em":"2048","panose-1":"2 11 6 9 3 8 4 2 2 4","ascent":"1638","descent":"-410","x-height":"20","bbox":"-20 -2163 1315 555","underline-thickness":"102","underline-position":"-103","unicode-range":"U+0020-U+215E"},"glyphs":{" ":{},"!":{"d":"676,-414r-121,0r-51,-1048r223,0xm614,-250v85,0,127,46,127,139v0,93,-42,140,-127,140v-85,0,-127,-47,-127,-140v0,-93,42,-139,127,-139"},"\"":{"d":"522,-1462r-41,528r-155,0r-41,-528r237,0xm944,-1462r-41,528r-155,0r-41,-528r237,0"},"#":{"d":"936,-893r-64,328r240,0r0,137r-266,0r-82,428r-148,0r84,-428r-290,0r-82,428r-144,0r78,-428r-217,0r0,-137r244,0r65,-328r-233,0r0,-137r258,0r82,-432r147,0r-82,432r293,0r84,-432r144,0r-84,432r221,0r0,137r-248,0xm436,-565r291,0r64,-328r-291,0"},"$":{"d":"199,-1051v0,-195,155,-302,348,-323r0,-180r137,0r0,176v125,6,237,32,336,78r-66,145v-93,-41,-183,-65,-270,-72r0,422v133,45,226,95,280,149v54,54,80,123,80,210v0,187,-120,298,-360,335r0,230r-137,0r0,-221v-152,0,-274,-23,-365,-70r0,-172v131,61,252,92,365,92r0,-434v-129,-43,-219,-92,-271,-146v-52,-54,-77,-127,-77,-219xm547,-854r0,-369v-115,19,-172,77,-172,174v0,124,67,156,172,195xm684,-635r0,373v123,-19,184,-80,184,-184v0,-85,-61,-148,-184,-189"},"%":{"d":"586,-1133v0,203,-102,349,-295,349v-184,0,-291,-152,-291,-349v0,-204,102,-345,295,-346v182,0,291,150,291,346xm293,-903v93,0,139,-77,139,-230v0,-150,-46,-225,-139,-225v-94,0,-141,75,-141,225v0,153,47,230,141,230xm1057,-1462r-729,1462r-158,0r729,-1462r158,0xm1229,-330v0,202,-103,348,-295,348v-183,0,-291,-153,-291,-348v0,-204,102,-345,295,-346v182,0,291,150,291,346xm936,-100v93,0,139,-77,139,-230v0,-150,-46,-225,-139,-225v-94,0,-141,75,-141,225v0,153,47,230,141,230"},"&":{"d":"567,-1485v214,0,353,115,353,320v0,135,-106,265,-318,389r281,348v47,-81,82,-169,104,-266r184,0v-35,156,-95,290,-178,403r234,291r-217,0r-131,-166v-116,124,-253,186,-412,186v-249,0,-408,-153,-406,-401v0,-87,21,-164,63,-229v42,-65,121,-131,236,-199v-109,-128,-163,-247,-163,-356v1,-209,147,-320,370,-320xm561,-1335v-112,0,-187,60,-186,170v0,79,44,168,133,268v89,-53,151,-99,184,-139v33,-40,49,-84,49,-133v1,-100,-77,-166,-180,-166xm252,-387v0,132,101,246,227,246v107,0,206,-49,299,-146r-323,-401v-135,82,-203,182,-203,301"},"'":{"d":"733,-1462r-41,528r-155,0r-41,-528r237,0"},"(":{"d":"739,-1462r193,0v-299,251,-449,548,-449,893v0,347,149,645,447,893r-191,0v-296,-235,-444,-532,-444,-891v0,-355,148,-653,444,-895"},")":{"d":"489,324r-190,0v297,-247,446,-545,446,-893v0,-345,-149,-643,-448,-893r192,0v297,241,445,539,445,895v0,360,-148,657,-445,891"},"*":{"d":"715,-1556r-43,393r397,-111r27,193r-379,28r246,326r-179,96r-176,-358r-157,358r-185,-96r242,-326r-375,-28r29,-193r391,111r-43,-393r205,0"},"+":{"d":"539,-647r-387,0r0,-150r387,0r0,-389r149,0r0,389r387,0r0,150r-387,0r0,385r-149,0r0,-385"},",":{"d":"770,-262r16,24v-38,149,-103,325,-194,527r-152,0v51,-215,88,-399,111,-551r219,0"},"-":{"d":"285,-465r0,-168r659,0r0,168r-659,0"},".":{"d":"614,-301v101,0,152,55,152,166v0,111,-51,166,-152,166v-101,0,-151,-55,-151,-166v0,-111,50,-166,151,-166"},"\/":{"d":"1016,-1462r-627,1462r-178,0r627,-1462r178,0"},"0":{"d":"612,20v-153,0,-268,-65,-347,-194v-79,-129,-118,-315,-118,-559v0,-501,155,-752,465,-752v155,0,271,64,350,193v79,129,119,316,119,559v0,502,-156,753,-469,753xm612,-135v98,0,166,-50,216,-141v87,-159,88,-753,0,-912v-50,-91,-118,-141,-216,-141v-97,0,-163,48,-212,139v-86,158,-85,758,0,915v49,91,115,140,212,140"},"1":{"d":"758,0r-176,0r0,-913v0,-81,3,-202,8,-361v-60,67,-187,167,-268,234r-97,-123r383,-299r150,0r0,1462"},"2":{"d":"594,-1483v249,0,420,149,418,391v0,79,-21,160,-59,244v-74,161,-409,499,-572,674r0,8r688,0r0,166r-911,0r0,-156r350,-381v130,-142,216,-247,257,-317v41,-70,62,-147,62,-231v0,-147,-90,-245,-235,-244v-107,0,-213,46,-318,137r-102,-119v128,-115,269,-172,422,-172"},"3":{"d":"1010,-1120v0,200,-131,321,-316,350r0,6v241,31,361,147,361,348v0,293,-218,436,-537,436v-161,0,-290,-26,-387,-79r0,-170v123,64,250,96,383,96v236,0,354,-96,354,-289v0,-172,-127,-258,-381,-258r-133,0r0,-151r133,0v196,3,334,-97,336,-277v1,-140,-106,-221,-250,-221v-119,0,-233,40,-344,121r-92,-125v125,-100,270,-150,436,-150v254,0,437,128,437,363"},"4":{"d":"1126,-328r-213,0r0,328r-176,0r0,-328r-676,0r0,-159r664,-983r188,0r0,976r213,0r0,166xm737,-494r0,-356v0,-117,4,-261,13,-432r-9,0v-24,68,-55,128,-90,180r-411,608r497,0"},"5":{"d":"1055,-469v0,318,-203,489,-527,489v-149,0,-268,-26,-356,-79r0,-172v96,64,216,96,360,96v224,0,336,-105,336,-314v0,-196,-115,-294,-344,-294v-59,0,-136,9,-231,26r-90,-57r55,-688r690,0r0,166r-532,0r-39,419v71,-13,141,-20,209,-20v271,-3,469,160,469,428"},"6":{"d":"631,20v-324,-4,-477,-281,-477,-645v0,-572,213,-858,639,-858v69,0,127,6,172,19r0,155v-47,-16,-103,-24,-166,-24v-338,0,-446,223,-459,588r12,0v63,-113,166,-170,307,-170v263,0,416,177,416,444v0,290,-166,494,-444,491xm629,-133v183,-3,270,-140,270,-338v0,-184,-88,-297,-264,-301v-155,-3,-299,123,-299,266v0,187,112,376,293,373"},"7":{"d":"334,0r563,-1296r-754,0r0,-166r940,0r0,145r-555,1317r-194,0"},"8":{"d":"614,-1485v231,0,412,129,412,352v0,153,-87,273,-262,359v206,107,309,238,309,393v0,249,-199,401,-459,401v-272,0,-458,-134,-458,-393v0,-171,94,-302,282,-393v-157,-97,-235,-220,-235,-369v0,-219,187,-350,411,-350xm612,-1333v-137,0,-236,71,-231,207v7,166,91,205,235,278v155,-69,232,-161,232,-278v1,-138,-95,-207,-236,-207xm610,-131v171,0,285,-85,285,-248v0,-60,-22,-112,-63,-159v-43,-49,-142,-112,-244,-158v-169,81,-254,189,-254,325v0,160,92,240,276,240"},"9":{"d":"598,-1483v324,3,477,285,477,645v0,572,-213,858,-639,858v-70,0,-127,-6,-172,-18r0,-156v45,17,100,25,166,25v338,0,446,-223,459,-588r-12,0v-64,113,-167,170,-308,170v-262,2,-415,-176,-415,-444v0,-289,166,-495,444,-492xm600,-1329v-185,3,-270,138,-270,338v0,184,88,297,264,301v155,3,299,-124,299,-266v0,-187,-111,-376,-293,-373"},":":{"d":"614,-1126v85,0,127,46,127,139v0,93,-42,139,-127,139v-85,0,-127,-46,-127,-139v0,-93,42,-139,127,-139xm614,-250v85,0,127,46,127,139v0,93,-42,140,-127,140v-85,0,-127,-47,-127,-140v0,-93,42,-139,127,-139"},";":{"d":"621,-1126v85,0,127,46,127,139v0,93,-42,139,-127,139v-85,0,-127,-46,-127,-139v0,-93,42,-139,127,-139xm709,-238r14,23v-34,131,-93,291,-176,479r-137,0v41,-170,75,-337,100,-502r199,0"},"<":{"d":"1075,-221r-923,-451r0,-102r923,-451r0,160r-715,342r715,342r0,160"},"=":{"d":"152,-852r0,-149r923,0r0,149r-923,0xm152,-442r0,-150r923,0r0,150r-923,0"},">":{"d":"152,-381r714,-342r-714,-342r0,-160r923,451r0,102r-923,451r0,-160"},"?":{"d":"594,-1483v259,0,462,122,465,359v0,89,-17,161,-53,216v-36,55,-101,119,-197,191v-78,58,-129,105,-151,141v-24,39,-35,95,-33,162r-160,0v-4,-219,66,-285,207,-389v87,-65,144,-116,172,-155v28,-39,41,-91,41,-158v0,-137,-126,-207,-281,-207v-116,0,-240,30,-371,90r-65,-153v139,-65,281,-97,426,-97xm553,-250v85,0,127,46,127,139v0,93,-42,140,-127,140v-85,0,-127,-47,-127,-140v0,-93,42,-139,127,-139"},"@":{"d":"664,182v-425,-2,-633,-329,-633,-784v0,-265,56,-474,167,-628v111,-154,263,-232,455,-232v165,0,298,65,397,196v99,131,148,309,148,535v0,154,-21,278,-64,371v-43,93,-102,139,-178,139v-85,0,-138,-60,-157,-180r-4,0v-49,120,-126,180,-230,180v-180,0,-260,-181,-260,-385v0,-248,124,-457,352,-459v91,0,177,16,256,47r-24,492v0,117,24,176,72,176v67,0,100,-128,100,-383v0,-185,-37,-331,-111,-436v-74,-105,-174,-158,-299,-158v-151,0,-269,64,-353,192v-84,128,-126,304,-126,527v0,379,150,653,498,653v121,0,236,-26,346,-78r0,133v-105,55,-223,82,-352,82xm649,-936v-139,0,-185,172,-184,334v0,168,42,252,127,252v87,0,133,-104,145,-312r15,-253v-36,-14,-70,-21,-103,-21"},"A":{"d":"1004,0r-144,-453r-491,0r-146,453r-190,0r483,-1468r195,0r485,1468r-192,0xm807,-618r-133,-424v-26,-83,-47,-158,-62,-226v-51,233,-127,431,-190,650r385,0"},"B":{"d":"1137,-424v0,271,-195,424,-475,424r-527,0r0,-1462r440,0v328,3,515,75,521,370v3,179,-125,297,-291,316r0,10v221,36,332,150,332,342xm905,-1079v0,-181,-120,-224,-319,-224r-264,0r0,461r284,0v195,-2,299,-53,299,-237xm322,-686r0,528r307,0v207,0,311,-91,311,-274v0,-169,-108,-254,-324,-254r-294,0"},"C":{"d":"326,-731v0,355,139,584,471,588v87,0,196,-19,327,-58r0,162v-97,39,-217,59,-358,59v-433,-1,-637,-300,-637,-753v0,-440,243,-752,668,-750v147,0,274,29,383,86r-78,156v-103,-52,-204,-78,-305,-78v-307,1,-471,258,-471,588"},"D":{"d":"1147,-745v0,472,-246,746,-711,745r-301,0r0,-1462r342,0v429,-2,670,279,670,717xm322,-1303r0,1143v418,24,628,-156,628,-579v0,-376,-164,-564,-493,-564r-135,0"},"E":{"d":"1059,0r-842,0r0,-1462r842,0r0,164r-656,0r0,452r617,0r0,162r-617,0r0,520r656,0r0,164"},"F":{"d":"430,0r-186,0r0,-1462r841,0r0,164r-655,0r0,516r617,0r0,164r-617,0r0,618"},"G":{"d":"117,-733v0,-432,204,-748,608,-750v128,0,243,29,346,86r-72,162v-207,-125,-451,-118,-579,71v-71,104,-107,248,-107,433v0,486,209,665,596,559r0,-436r-237,0r0,-164r422,0r0,717v-130,50,-270,75,-420,75v-175,0,-312,-67,-410,-200v-98,-133,-147,-317,-147,-553"},"H":{"d":"1094,0r-187,0r0,-682r-585,0r0,682r-187,0r0,-1462r187,0r0,616r585,0r0,-616r187,0r0,1462"},"I":{"d":"1001,0r-776,0r0,-123r295,-20r0,-1176r-295,-20r0,-123r776,0r0,123r-294,20r0,1176r294,20r0,123"},"J":{"d":"979,-451v2,294,-216,471,-518,471v-145,0,-253,-20,-324,-59r0,-166v108,41,211,62,309,62v206,2,347,-105,347,-306r0,-1013r186,0r0,1011"},"K":{"d":"1198,0r-211,0r-450,-698r-140,114r0,584r-186,0r0,-1462r186,0r0,731r121,-168r453,-563r209,0r-521,637"},"L":{"d":"233,0r0,-1462r187,0r0,1296r635,0r0,166r-822,0"},"M":{"d":"532,0r-278,-1280r-8,0v34,470,12,812,18,1280r-151,0r0,-1462r247,0r248,1192r6,0r250,-1192r252,0r0,1462r-153,0r0,-887v0,-68,5,-198,14,-391r-8,0r-283,1278r-154,0"},"N":{"d":"1092,0r-215,0r-580,-1210r-8,0v32,455,13,762,18,1210r-172,0r0,-1462r213,0r578,1204r6,0v-9,-202,-14,-337,-14,-404r0,-800r174,0r0,1462"},"O":{"d":"616,20v-355,0,-532,-252,-532,-755v0,-500,178,-750,534,-750v171,0,296,68,392,195v178,236,178,880,-1,1114v-97,127,-223,196,-393,196xm616,-143v115,0,196,-51,254,-145v103,-168,102,-725,-2,-890v-59,-92,-137,-143,-250,-143v-225,0,-337,196,-337,588v0,393,112,590,335,590"},"P":{"d":"1094,-1034v0,309,-212,469,-541,465r-191,0r0,569r-186,0r0,-1462r404,0v343,0,514,143,514,428xm532,-727v245,-1,369,-72,369,-297v0,-186,-113,-279,-338,-279r-201,0r0,576r170,0"},"Q":{"d":"862,-39v57,120,150,224,279,311r-121,142v-157,-114,-267,-247,-328,-400v-24,4,-49,6,-76,6v-355,0,-532,-252,-532,-755v0,-500,178,-750,534,-750v171,0,301,65,392,195v91,130,137,316,137,557v0,351,-95,582,-285,694xm616,-143v115,0,196,-51,254,-145v103,-168,102,-725,-2,-890v-59,-92,-137,-143,-250,-143v-225,0,-337,196,-337,588v0,393,112,590,335,590"},"R":{"d":"373,-604r0,604r-187,0r0,-1462r357,0v347,0,520,138,520,415v0,191,-96,322,-289,392r397,655r-219,0r-350,-604r-229,0xm870,-1038v0,-206,-118,-263,-338,-265r-159,0r0,541r164,0v216,-1,333,-71,333,-276"},"S":{"d":"1087,-391v0,280,-225,411,-532,411v-177,0,-315,-23,-414,-69r0,-178v141,57,279,86,414,86v233,0,350,-80,350,-240v0,-69,-24,-123,-71,-160v-47,-37,-142,-82,-285,-133v-139,-49,-239,-106,-299,-174v-60,-68,-90,-156,-90,-264v2,-251,210,-371,481,-371v153,0,291,26,416,78r-64,164v-129,-52,-249,-78,-360,-78v-195,0,-293,70,-293,209v0,68,22,123,66,164v44,41,134,85,270,133v164,58,273,119,328,181v55,62,83,143,83,241"},"T":{"d":"707,0r-187,0r0,-1298r-418,0r0,-164r1022,0r0,164r-417,0r0,1298"},"U":{"d":"1104,-516v1,338,-164,536,-496,536v-322,0,-483,-180,-483,-540r0,-942r186,0r0,932v0,258,102,387,307,387v197,0,300,-130,300,-389r0,-932r186,0r0,948"},"V":{"d":"997,-1462r199,0r-489,1462r-187,0r-487,-1462r196,0r295,927v27,85,57,196,88,334v101,-416,263,-854,385,-1261"},"W":{"d":"528,-1008r177,0r145,521v41,146,65,248,72,307r135,-1282r170,0r-187,1462r-190,0r-168,-580v-27,-92,-49,-186,-66,-282v-63,326,-145,561,-221,862r-190,0r-203,-1462r170,0r88,663v21,146,52,493,57,619v48,-282,143,-559,211,-828"},"X":{"d":"1174,0r-211,0r-355,-635r-366,635r-189,0r453,-764r-422,-698r199,0r331,559r334,-559r191,0r-422,692"},"Y":{"d":"612,-723r381,-739r201,0r-487,893r0,569r-187,0r0,-559r-487,-903r203,0"},"Z":{"d":"1124,0r-1022,0r0,-145r793,-1151r-772,0r0,-166r981,0r0,145r-793,1151r813,0r0,166"},"[":{"d":"940,324r-528,0r0,-1786r528,0r0,149r-346,0r0,1487r346,0r0,150"},"\\":{"d":"389,-1462r627,1462r-178,0r-627,-1462r178,0"},"]":{"d":"289,174r346,0r0,-1487r-346,0r0,-149r528,0r0,1786r-528,0r0,-150"},"^":{"d":"111,-549r424,-924r102,0r481,924r-162,0r-368,-735r-318,735r-159,0"},"_":{"d":"1243,324r-1259,0r0,-140r1259,0r0,140"},"`":{"d":"811,-1241r-121,0v-111,-95,-201,-197,-272,-307r0,-21r219,0v57,119,115,219,174,301r0,27"},"a":{"d":"596,-1118v288,1,430,93,430,366r0,752r-131,0r-37,-152r-8,0v-97,118,-171,170,-367,172v-212,3,-348,-118,-348,-327v0,-221,170,-337,510,-348r203,-7v14,-196,-54,-305,-244,-305v-98,0,-207,27,-328,82r-63,-137v131,-64,258,-96,383,-96xm524,-127v194,1,325,-115,322,-311r0,-99v-248,13,-523,-5,-522,232v0,119,67,178,200,178"},"b":{"d":"1092,-551v0,324,-136,571,-430,571v-138,0,-245,-53,-322,-159r-12,0r-37,139r-133,0r0,-1556r182,0r0,376v0,54,-3,129,-8,226r8,0v71,-109,179,-164,322,-164v293,0,430,245,430,567xm629,-967v-239,0,-289,146,-289,416v0,268,55,420,291,420v181,0,272,-141,272,-422v0,-276,-91,-414,-274,-414"},"c":{"d":"172,-543v0,-365,196,-575,553,-575v119,0,231,20,336,59r-62,158v-100,-38,-189,-57,-268,-57v-247,0,-371,138,-371,413v0,271,120,406,361,406v105,0,212,-21,321,-62r0,160v-89,41,-199,61,-329,61v-347,1,-541,-209,-541,-563"},"d":{"d":"137,-547v0,-324,136,-571,430,-571v137,0,245,53,322,160r12,0v-24,-228,-7,-371,-12,-598r182,0r0,1556r-147,0r-27,-147r-8,0v-75,111,-183,167,-322,167v-293,0,-430,-245,-430,-567xm600,-131v239,0,290,-159,289,-416v-1,-268,-55,-420,-291,-420v-181,0,-272,141,-272,422v0,276,91,414,274,414"},"e":{"d":"631,-1118v284,0,469,203,465,491r0,113r-774,0v5,250,120,375,344,375v130,0,253,-25,370,-76r0,160v-111,50,-232,75,-364,75v-330,2,-539,-223,-539,-561v0,-333,182,-577,498,-577xm326,-662r573,0v0,-203,-91,-305,-272,-305v-183,0,-284,102,-301,305"},"f":{"d":"866,-1417v-163,1,-208,56,-211,215r0,104r389,0r0,137r-389,0r0,961r-182,0r0,-961r-317,0r0,-110r317,-33r0,-96v3,-266,115,-366,389,-367v86,0,170,12,252,35r-41,143v-69,-19,-138,-28,-207,-28"},"g":{"d":"188,-739v-1,-248,156,-381,410,-379v57,0,107,7,150,20r378,0r0,113r-196,27v43,57,65,128,65,213v2,253,-212,385,-489,346v-67,37,-100,82,-100,133v0,56,54,84,161,84r187,0v216,-2,358,94,358,297v0,251,-188,377,-565,377v-254,0,-445,-84,-445,-306v0,-141,80,-231,240,-270v-64,-31,-96,-83,-96,-154v0,-75,44,-139,133,-192v-109,-42,-191,-166,-191,-309xm594,-518v149,0,223,-77,223,-230v0,-159,-75,-239,-225,-239v-150,0,-225,81,-225,242v0,151,76,227,227,227xm940,131v0,-144,-78,-149,-248,-149r-188,0v-153,0,-230,66,-230,198v0,116,90,174,271,174v263,0,395,-74,395,-223"},"h":{"d":"887,0r0,-707v0,-173,-79,-260,-238,-260v-205,0,-307,133,-307,398r0,569r-182,0r0,-1556r182,0r0,462r-8,144r10,0v69,-112,181,-168,336,-168v259,0,389,134,389,401r0,717r-182,0"},"i":{"d":"739,-1436v0,71,-43,115,-106,115v-71,0,-107,-38,-107,-115v0,-76,36,-114,107,-114v71,0,106,38,106,114xm541,-954r-269,-21r0,-123r451,0r0,955r352,20r0,123r-878,0r0,-123r344,-20r0,-811"},"j":{"d":"743,-1550v71,0,107,38,107,114v0,77,-36,115,-107,115v-71,0,-106,-38,-106,-115v0,-76,35,-114,106,-114xm854,117v0,250,-172,375,-432,375v-109,0,-205,-12,-287,-35r0,-154v89,26,186,39,289,39v147,0,248,-74,248,-215r0,-1081r-420,-21r0,-123r602,0r0,1215"},"k":{"d":"383,-553r135,-152r395,-393r222,0r-494,475r522,623r-213,0r-426,-504r-129,82r0,422r-180,0r0,-1556r180,0r0,714r-16,289r4,0"},"l":{"d":"532,-1413r-268,-21r0,-122r451,0r0,1413r352,20r0,123r-879,0r0,-123r344,-20r0,-1270"},"m":{"d":"977,0r0,-707v0,-97,-9,-165,-27,-203v-43,-93,-178,-63,-214,26v-23,57,-40,148,-40,278r0,606r-161,0r0,-707v0,-173,-42,-260,-125,-260v-56,0,-96,26,-120,79v-24,53,-36,160,-36,319r0,569r-162,0r0,-1098r127,0r27,148r10,0v45,-112,112,-168,201,-168v109,0,180,61,213,182r6,0v51,-121,124,-182,219,-182v85,0,147,30,186,92v39,62,58,165,58,309r0,717r-162,0"},"n":{"d":"887,0r0,-707v0,-173,-79,-260,-238,-260v-205,0,-307,133,-307,398r0,569r-182,0r0,-1098r147,0r27,148r10,0v69,-112,181,-168,336,-168v259,0,389,134,389,401r0,717r-182,0"},"o":{"d":"1112,-551v0,333,-186,571,-502,571v-301,0,-495,-250,-495,-571v0,-332,183,-567,501,-567v302,0,496,247,496,567xm614,-131v207,0,310,-140,310,-420v0,-277,-104,-416,-312,-416v-206,0,-309,139,-309,416v0,280,104,420,311,420"},"p":{"d":"1092,-551v0,324,-136,571,-430,571v-138,0,-245,-53,-322,-159r-12,0v24,233,7,396,12,631r-182,0r0,-1590r147,0r27,148r8,0v73,-112,181,-168,322,-168v293,0,430,245,430,567xm629,-967v-240,0,-290,158,-289,416v1,268,55,420,291,420v181,0,272,-141,272,-422v0,-276,-91,-414,-274,-414"},"q":{"d":"137,-547v0,-324,136,-571,430,-571v138,0,245,56,322,168r8,0r27,-148r147,0r0,1590r-182,0r0,-469v0,-27,4,-84,12,-170r-12,0v-75,111,-183,167,-322,167v-293,0,-430,-245,-430,-567xm600,-131v239,0,290,-159,289,-416v-1,-268,-55,-420,-291,-420v-181,0,-272,141,-272,422v0,276,91,414,274,414"},"r":{"d":"442,-897v92,-139,175,-221,377,-221v79,0,159,15,240,45r-49,166v-82,-30,-157,-45,-224,-45v-221,0,-340,133,-340,360r0,592r-182,0r0,-1098r148,0r22,201r8,0"},"s":{"d":"1026,-301v0,224,-196,321,-448,321v-165,0,-290,-23,-375,-69r0,-166v129,57,252,86,370,86v183,0,275,-54,275,-162v0,-38,-16,-71,-49,-99v-33,-28,-108,-63,-226,-106v-156,-57,-253,-112,-293,-160v-40,-48,-61,-105,-61,-171v2,-336,521,-342,789,-217r-60,149v-121,-48,-228,-72,-319,-72v-157,0,-236,44,-236,133v0,41,17,74,51,98v34,24,111,57,232,101v141,51,234,101,280,151v46,50,70,111,70,183"},"t":{"d":"1020,-150r0,138v-87,21,-171,32,-252,32v-241,0,-362,-115,-362,-344r0,-637r-267,0r0,-94r267,-49r77,-287r105,0r0,293r438,0r0,137r-438,0r0,637v0,130,64,195,192,195v62,0,142,-7,240,-21"},"u":{"d":"578,-131v238,0,309,-137,309,-397r0,-570r182,0r0,1098r-147,0r-27,-147r-10,0v-70,111,-181,167,-334,167v-261,0,-391,-134,-391,-401r0,-717r182,0r0,707v0,173,79,260,236,260"},"v":{"d":"498,0r-416,-1098r188,0r240,652v57,154,90,262,100,325r6,0v59,-231,246,-717,340,-977r189,0r-416,1098r-231,0"},"w":{"d":"813,0r-131,-596r-68,-330r-6,0r-65,334r-135,592r-189,0r-223,-1098r162,0r98,543v23,124,42,255,57,393r6,0v53,-329,131,-625,201,-936r193,0r127,578v29,130,51,249,67,358r6,0v21,-161,41,-292,60,-393r102,-543r158,0r-225,1098r-195,0"},"x":{"d":"510,-563r-393,-535r207,0r290,410r291,-410r207,0r-395,535r413,563r-206,0r-310,-436r-311,436r-207,0"},"y":{"d":"82,-1098r188,0r262,654v55,137,84,233,89,290r6,0v75,-299,228,-650,329,-944r189,0r-475,1241v-45,116,-98,201,-156,261v-88,91,-259,104,-414,71r0,-145v92,18,226,18,286,-29v67,-53,115,-194,153,-291"},"z":{"d":"1044,0r-862,0r0,-125r660,-836r-627,0r0,-137r811,0r0,146r-647,815r665,0r0,137"},"{":{"d":"1001,-1313v-162,5,-256,23,-256,158r0,332v0,138,-78,221,-233,248r0,12v155,27,233,110,233,248r0,331v8,135,95,153,256,158r0,150v-292,-4,-438,-102,-438,-293r0,-334v0,-126,-113,-189,-338,-189r0,-155v225,0,338,-63,338,-189r0,-333v0,-191,146,-289,438,-293r0,149"},"|":{"d":"539,-1556r149,0r0,2048r-149,0r0,-2048"},"}":{"d":"227,174v162,-4,256,-24,256,-158r0,-331v0,-138,78,-221,234,-248r0,-12v-156,-27,-234,-110,-234,-248r0,-332v-8,-134,-95,-155,-256,-158r0,-149v293,4,439,102,439,293r0,333v0,126,113,189,338,189r0,155v-225,0,-338,63,-338,189r0,334v0,191,-146,289,-439,293r0,-150"},"~":{"d":"152,-586r0,-162v133,-137,296,-132,495,-45v201,89,277,77,428,-65r0,162v-132,137,-297,132,-495,45v-202,-89,-276,-77,-428,65"},"\u00a0":{},"\u00a1":{"d":"614,-840v-85,0,-127,-46,-127,-139v0,-93,42,-139,127,-139v85,0,127,46,127,139v0,93,-42,139,-127,139xm553,-676r121,0r51,1049r-223,0"},"\u00a2":{"d":"743,-1319v108,2,214,22,318,59r-62,158v-100,-38,-189,-57,-268,-57v-247,0,-371,138,-371,414v0,270,120,405,361,405v102,0,209,-20,321,-61r0,159v-81,39,-181,60,-299,62r0,200r-137,0r0,-206v-289,-46,-434,-232,-434,-557v0,-329,145,-519,434,-568r0,-172r137,0r0,164"},"\u00a3":{"d":"319,-1112v-2,-227,166,-369,398,-369v128,0,243,27,346,80r-66,144v-94,-48,-185,-72,-272,-72v-149,0,-223,82,-223,246r0,295r377,0r0,137r-377,0r0,211v0,131,-47,222,-140,274r748,0r0,166r-991,0r0,-154v133,-33,200,-127,200,-284r0,-213r-198,0r0,-137r198,0r0,-324"},"\u00a4":{"d":"303,-936r-129,-129r98,-98r127,129v131,-90,298,-91,428,0r129,-129r99,96r-129,129v89,129,89,305,0,430r127,127r-97,96r-129,-127v-129,89,-302,88,-428,-2r-127,127r-96,-96r127,-127v-87,-125,-87,-299,0,-426xm375,-723v0,129,111,240,239,240v130,0,244,-110,244,-240v0,-131,-113,-244,-244,-244v-130,0,-239,113,-239,244"},"\u00a5":{"d":"612,-723r346,-739r191,0r-385,768r240,0r0,137r-302,0r0,158r302,0r0,137r-302,0r0,262r-178,0r0,-262r-301,0r0,-137r301,0r0,-158r-301,0r0,-137r234,0r-379,-768r192,0"},"\u00a6":{"d":"539,-1556r149,0r0,780r-149,0r0,-780xm539,-289r149,0r0,781r-149,0r0,-781"},"\u00a7":{"d":"985,-289v0,206,-187,299,-418,299v-136,0,-244,-22,-323,-65r0,-158v114,55,222,82,323,82v160,0,240,-47,240,-141v0,-38,-14,-70,-43,-97v-29,-27,-94,-60,-195,-102v-132,-55,-216,-109,-253,-159v-37,-50,-56,-110,-56,-179v0,-119,53,-205,160,-258v-107,-53,-160,-132,-160,-236v0,-179,180,-264,381,-264v108,0,217,24,326,72r-56,139v-104,-45,-196,-67,-276,-67v-134,0,-201,39,-201,116v0,36,17,67,50,93v33,26,98,60,196,100v104,42,182,88,231,140v49,52,74,115,74,190v0,121,-48,211,-145,270v97,53,145,128,145,225xm713,-573v129,-77,158,-238,41,-329v-48,-38,-118,-72,-207,-104v-139,40,-176,204,-77,302v37,37,147,92,243,131"},"\u00a8":{"d":"426,-1497v64,0,96,34,96,102v0,69,-32,103,-96,103v-64,0,-96,-34,-96,-103v0,-68,32,-102,96,-102xm801,-1497v64,0,96,34,96,102v0,69,-32,103,-96,103v-64,0,-96,-34,-96,-103v0,-68,32,-102,96,-102"},"\u00a9":{"d":"6,-731v0,-425,204,-752,608,-752v402,0,609,327,609,752v0,426,-207,751,-609,751v-402,1,-608,-326,-608,-751xm115,-731v0,369,155,643,499,643v344,0,500,-274,500,-643v0,-370,-155,-643,-500,-643v-344,0,-499,275,-499,643xm659,-1053v-173,1,-251,137,-251,322v0,215,84,323,251,323v63,0,134,-15,215,-45r0,131v-71,33,-145,50,-221,50v-267,2,-405,-188,-405,-461v0,-267,151,-457,411,-455v85,0,170,21,254,62r-61,127v-73,-36,-138,-54,-193,-54"},"\u00aa":{"d":"799,-797r-33,-118v-69,87,-159,131,-268,131v-148,0,-222,-68,-222,-205v0,-188,146,-214,361,-225r125,-5v3,-97,-47,-142,-152,-143v-75,0,-156,17,-245,51r-41,-110v92,-39,190,-58,294,-58v194,0,291,79,291,238r0,444r-110,0xm532,-897v138,0,238,-78,230,-221v-152,8,-333,-17,-334,131v0,60,35,90,104,90"},"\u00ab":{"d":"197,-553r309,-414r117,78r-238,348r238,348r-117,78r-309,-411r0,-27xm604,-553r309,-414r117,78r-237,348r237,348r-117,78r-309,-411r0,-27"},"\u00ac":{"d":"1075,-797r0,535r-149,0r0,-385r-774,0r0,-150r923,0"},"\u00ad":{"d":"285,-465r0,-168r659,0r0,168r-659,0"},"\u00ae":{"d":"6,-731v0,-425,204,-752,608,-752v402,0,609,327,609,752v0,426,-207,751,-609,751v-402,1,-608,-326,-608,-751xm115,-731v0,369,155,643,499,643v344,0,500,-274,500,-643v0,-370,-155,-643,-500,-643v-344,0,-499,275,-499,643xm748,-680r237,395r-178,0r-207,-352r-94,0r0,352r-158,0r0,-893r234,0v217,0,325,88,325,265v0,109,-53,186,-159,233xm748,-909v0,-132,-108,-136,-242,-133r0,274r72,0v113,0,170,-47,170,-141"},"\u00af":{"d":"1249,-1556r-1269,0r0,-140r1269,0r0,140"},"\u00b0":{"d":"299,-1167v0,-167,147,-316,315,-316v167,0,316,149,316,316v0,168,-148,313,-316,313v-169,0,-315,-146,-315,-313xm422,-1167v0,102,89,190,192,190v102,0,193,-89,193,-190v0,-104,-91,-195,-193,-195v-103,0,-192,92,-192,195"},"\u00b1":{"d":"539,-647r-387,0r0,-150r387,0r0,-389r149,0r0,389r387,0r0,150r-387,0r0,385r-149,0r0,-385xm152,0r0,-150r923,0r0,150r-923,0"},"\u00b2":{"d":"602,-1477v150,0,248,81,248,224v0,44,-13,88,-35,134v-39,79,-213,245,-299,333r363,0r0,114r-531,0r0,-102r187,-199v74,-79,120,-136,141,-169v53,-82,42,-222,-80,-222v-54,0,-109,25,-164,76r-78,-86v78,-69,161,-103,248,-103"},"\u00b3":{"d":"582,-1477v137,0,237,72,237,203v0,93,-50,156,-149,189v117,26,176,88,176,186v-1,164,-115,244,-289,244v-87,0,-159,-17,-215,-50r0,-124v73,43,141,65,203,65v99,0,149,-46,149,-137v0,-83,-49,-125,-147,-125r-72,0r0,-104r70,0v82,0,123,-42,123,-127v0,-74,-32,-111,-97,-111v-47,0,-101,23,-161,70r-66,-86v74,-62,153,-93,238,-93"},"\u00b4":{"d":"418,-1268v63,-89,121,-189,174,-301r219,0r0,21v-75,115,-165,218,-272,307r-121,0r0,-27"},"\u00b5":{"d":"580,-131v227,0,286,-141,286,-397r0,-570r183,0r0,1098r-148,0r-27,-147r-10,0v-64,111,-162,167,-295,167v-93,0,-164,-29,-213,-88v4,102,6,182,6,240r0,320r-182,0r0,-1590r182,0r0,707v0,173,73,260,218,260"},"\u00b6":{"d":"66,-1042v0,-333,126,-514,450,-514r563,0r0,1816r-121,0r0,-1657r-206,0r0,1657r-121,0r0,-819v-41,12,-89,18,-146,18v-279,0,-419,-167,-419,-501"},"\u00b7":{"d":"614,-862v85,0,127,46,127,139v0,93,-42,139,-127,139v-85,0,-127,-46,-127,-139v0,-93,42,-139,127,-139"},"\u00b8":{"d":"428,483r0,-108v22,4,49,6,80,6v101,0,151,-31,151,-92v0,-49,-57,-87,-172,-113r91,-176r120,0r-57,115v107,25,160,82,160,172v0,137,-97,205,-291,205v-23,0,-50,-3,-82,-9"},"\u00b9":{"d":"586,-1460r135,0r0,788r-146,0r0,-465v0,-46,3,-113,9,-200v-50,55,-90,75,-144,116r-73,-88"},"\u00ba":{"d":"948,-1133v0,213,-130,349,-336,349v-197,0,-331,-142,-331,-349v0,-211,127,-346,335,-346v197,0,332,141,332,346xm614,-903v121,0,181,-77,181,-230v0,-150,-60,-225,-181,-225v-121,0,-182,75,-182,225v0,153,61,230,182,230"},"\u00bb":{"d":"1030,-526r-309,411r-117,-78r238,-348r-238,-348r117,-78r309,414r0,27xm623,-526r-310,411r-116,-78r237,-348r-237,-348r116,-78r310,414r0,27"},"\u00bc":{"d":"1208,-175r-84,0r0,174r-143,0r0,-174r-375,0r0,-98r377,-523r141,0r0,508r84,0r0,113xm981,-288r0,-176v0,-55,2,-112,6,-172v-71,131,-155,231,-236,348r230,0xm241,-1460r135,0r0,788r-146,0r0,-465v0,-46,3,-113,9,-200v-50,55,-90,75,-144,116r-73,-88xm1057,-1462r-729,1462r-158,0r729,-1462r158,0"},"\u00bd":{"d":"222,-1460r135,0r0,788r-146,0r0,-465v0,-46,3,-113,9,-200v-50,55,-90,75,-144,116r-73,-88xm992,-1462r-729,1462r-158,0r729,-1462r158,0xm948,-806v150,0,248,81,248,224v0,44,-13,88,-35,134v-39,79,-213,245,-299,333r363,0r0,114r-531,0r0,-102r187,-199v74,-79,120,-136,141,-169v53,-82,42,-222,-80,-222v-54,0,-109,25,-164,76r-78,-86v78,-69,161,-103,248,-103"},"\u00be":{"d":"1229,-175r-84,0r0,174r-143,0r0,-174r-375,0r0,-98r377,-523r141,0r0,508r84,0r0,113xm1002,-288r0,-176v0,-55,2,-112,6,-172v-71,131,-155,231,-236,348r230,0xm261,-1477v137,0,237,72,237,203v0,93,-50,156,-149,189v117,26,176,88,176,186v-1,164,-115,244,-289,244v-87,0,-159,-17,-215,-50r0,-124v73,43,141,65,203,65v99,0,149,-46,149,-137v0,-83,-49,-125,-147,-125r-72,0r0,-104r70,0v82,0,123,-42,123,-127v0,-74,-32,-111,-97,-111v-47,0,-101,23,-161,70r-66,-86v74,-62,153,-93,238,-93xm1110,-1462r-729,1462r-158,0r729,-1462r158,0"},"\u00bf":{"d":"674,-840v-85,0,-127,-46,-127,-139v0,-93,42,-139,127,-139v85,0,127,46,127,139v0,93,-42,139,-127,139xm633,393v-261,0,-465,-120,-465,-358v0,-89,18,-162,54,-217v36,-55,100,-120,196,-191v79,-59,130,-105,152,-141v24,-39,34,-95,32,-162r160,0v3,220,-64,283,-207,389v-86,65,-143,116,-171,155v-28,39,-42,92,-42,159v0,138,126,206,281,206v121,0,244,-30,370,-90r62,144v-146,71,-287,106,-422,106"},"\u00c0":{"d":"1004,0r-144,-453r-491,0r-146,453r-190,0r483,-1468r195,0r485,1468r-192,0xm807,-618r-133,-424v-26,-83,-47,-158,-62,-226v-51,233,-127,431,-190,650r385,0xm734,-1579r-121,0v-111,-95,-201,-197,-272,-307r0,-21r219,0v57,119,115,219,174,301r0,27"},"\u00c1":{"d":"1004,0r-144,-453r-491,0r-146,453r-190,0r483,-1468r195,0r485,1468r-192,0xm807,-618r-133,-424v-26,-83,-47,-158,-62,-226v-51,233,-127,431,-190,650r385,0xm520,-1606v63,-89,121,-189,174,-301r219,0r0,21v-75,115,-165,218,-272,307r-121,0r0,-27"},"\u00c2":{"d":"1004,0r-144,-453r-491,0r-146,453r-190,0r483,-1468r195,0r485,1468r-192,0xm807,-618r-133,-424v-26,-83,-47,-158,-62,-226v-51,233,-127,431,-190,650r385,0xm946,-1579r-121,0v-57,-37,-127,-99,-211,-186v-89,91,-159,153,-211,186r-120,0r0,-27v80,-89,215,-243,235,-301r193,0v21,58,155,212,235,301r0,27"},"\u00c3":{"d":"1004,0r-144,-453r-491,0r-146,453r-190,0r483,-1468r195,0r485,1468r-192,0xm807,-618r-133,-424v-26,-83,-47,-158,-62,-226v-51,233,-127,431,-190,650r385,0xm761,-1581v-60,13,-245,-113,-297,-113v-55,0,-90,38,-107,115r-104,0v17,-176,87,-264,211,-264v58,-14,251,112,297,112v53,0,89,-38,106,-114r105,0v-18,176,-88,264,-211,264"},"\u00c4":{"d":"1004,0r-144,-453r-491,0r-146,453r-190,0r483,-1468r195,0r485,1468r-192,0xm807,-618r-133,-424v-26,-83,-47,-158,-62,-226v-51,233,-127,431,-190,650r385,0xm426,-1835v64,0,96,34,96,102v0,69,-32,103,-96,103v-64,0,-96,-34,-96,-103v0,-68,32,-102,96,-102xm801,-1835v64,0,96,34,96,102v0,69,-32,103,-96,103v-64,0,-96,-34,-96,-103v0,-68,32,-102,96,-102"},"\u00c5":{"d":"1004,0r-144,-453r-491,0r-146,453r-190,0r483,-1468r195,0r485,1468r-192,0xm807,-618r-133,-424v-26,-83,-47,-158,-62,-226v-51,233,-127,431,-190,650r385,0xm840,-1583v0,131,-97,217,-230,217v-133,0,-223,-83,-223,-215v0,-132,90,-215,223,-215v130,0,230,86,230,213xm723,-1581v0,-69,-46,-113,-113,-113v-66,0,-112,45,-112,113v0,75,37,113,112,113v67,0,113,-44,113,-113"},"\u00c6":{"d":"1210,0r-653,0r0,-453r-289,0r-96,453r-172,0r338,-1462r872,0r0,164r-477,0r0,452r438,0r0,162r-438,0r0,520r477,0r0,164xm305,-618r252,0r0,-680r-106,0"},"\u00c7":{"d":"326,-731v0,355,139,584,471,588v87,0,196,-19,327,-58r0,162v-97,39,-217,59,-358,59v-433,-1,-637,-300,-637,-753v0,-440,243,-752,668,-750v147,0,274,29,383,86r-78,156v-103,-52,-204,-78,-305,-78v-307,1,-471,258,-471,588xm508,483r0,-108v22,4,49,6,80,6v101,0,151,-31,151,-92v0,-49,-57,-87,-172,-113r91,-176r120,0r-57,115v107,25,160,82,160,172v0,137,-97,205,-291,205v-23,0,-50,-3,-82,-9"},"\u00c8":{"d":"1059,0r-842,0r0,-1462r842,0r0,164r-656,0r0,452r617,0r0,162r-617,0r0,520r656,0r0,164xm738,-1579r-121,0v-111,-95,-201,-197,-272,-307r0,-21r219,0v57,119,115,219,174,301r0,27"},"\u00c9":{"d":"1059,0r-842,0r0,-1462r842,0r0,164r-656,0r0,452r617,0r0,162r-617,0r0,520r656,0r0,164xm481,-1606v63,-89,121,-189,174,-301r219,0r0,21v-75,115,-165,218,-272,307r-121,0r0,-27"},"\u00ca":{"d":"1059,0r-842,0r0,-1462r842,0r0,164r-656,0r0,452r617,0r0,162r-617,0r0,520r656,0r0,164xm981,-1579r-121,0v-57,-37,-127,-99,-211,-186v-89,91,-159,153,-211,186r-120,0r0,-27v80,-89,215,-243,235,-301r193,0v21,58,155,212,235,301r0,27"},"\u00cb":{"d":"1059,0r-842,0r0,-1462r842,0r0,164r-656,0r0,452r617,0r0,162r-617,0r0,520r656,0r0,164xm451,-1835v64,0,96,34,96,102v0,69,-32,103,-96,103v-64,0,-96,-34,-96,-103v0,-68,32,-102,96,-102xm826,-1835v64,0,96,34,96,102v0,69,-32,103,-96,103v-64,0,-96,-34,-96,-103v0,-68,32,-102,96,-102"},"\u00cc":{"d":"1001,0r-776,0r0,-123r295,-20r0,-1176r-295,-20r0,-123r776,0r0,123r-294,20r0,1176r294,20r0,123xm703,-1579r-121,0v-111,-95,-201,-197,-272,-307r0,-21r219,0v57,119,115,219,174,301r0,27"},"\u00cd":{"d":"1001,0r-776,0r0,-123r295,-20r0,-1176r-295,-20r0,-123r776,0r0,123r-294,20r0,1176r294,20r0,123xm537,-1606v63,-89,121,-189,174,-301r219,0r0,21v-75,115,-165,218,-272,307r-121,0r0,-27"},"\u00ce":{"d":"1001,0r-776,0r0,-123r295,-20r0,-1176r-295,-20r0,-123r776,0r0,123r-294,20r0,1176r294,20r0,123xm946,-1579r-121,0v-57,-37,-127,-99,-211,-186v-89,91,-159,153,-211,186r-120,0r0,-27v80,-89,215,-243,235,-301r193,0v21,58,155,212,235,301r0,27"},"\u00cf":{"d":"1001,0r-776,0r0,-123r295,-20r0,-1176r-295,-20r0,-123r776,0r0,123r-294,20r0,1176r294,20r0,123xm428,-1835v64,0,96,34,96,102v0,69,-32,103,-96,103v-64,0,-96,-34,-96,-103v0,-68,32,-102,96,-102xm803,-1835v64,0,96,34,96,102v0,69,-32,103,-96,103v-64,0,-96,-34,-96,-103v0,-68,32,-102,96,-102"},"\u00d0":{"d":"1147,-745v0,472,-246,746,-711,745r-301,0r0,-659r-135,0r0,-162r135,0r0,-641r342,0v429,-2,670,279,670,717xm322,-1303r0,482r380,0r0,162r-380,0r0,499v418,24,628,-156,628,-579v0,-376,-164,-564,-493,-564r-135,0"},"\u00d1":{"d":"1092,0r-215,0r-580,-1210r-8,0v32,455,13,762,18,1210r-172,0r0,-1462r213,0r578,1204r6,0v-9,-202,-14,-337,-14,-404r0,-800r174,0r0,1462xm766,-1581v-60,13,-245,-113,-297,-113v-55,0,-90,38,-107,115r-104,0v17,-176,87,-264,211,-264v58,-14,251,112,297,112v53,0,89,-38,106,-114r105,0v-18,176,-88,264,-211,264"},"\u00d2":{"d":"616,20v-355,0,-532,-252,-532,-755v0,-500,178,-750,534,-750v171,0,296,68,392,195v178,236,178,880,-1,1114v-97,127,-223,196,-393,196xm616,-143v115,0,196,-51,254,-145v103,-168,102,-725,-2,-890v-59,-92,-137,-143,-250,-143v-225,0,-337,196,-337,588v0,393,112,590,335,590xm730,-1579r-121,0v-111,-95,-201,-197,-272,-307r0,-21r219,0v57,119,115,219,174,301r0,27"},"\u00d3":{"d":"616,20v-355,0,-532,-252,-532,-755v0,-500,178,-750,534,-750v171,0,296,68,392,195v178,236,178,880,-1,1114v-97,127,-223,196,-393,196xm616,-143v115,0,196,-51,254,-145v103,-168,102,-725,-2,-890v-59,-92,-137,-143,-250,-143v-225,0,-337,196,-337,588v0,393,112,590,335,590xm508,-1606v63,-89,121,-189,174,-301r219,0r0,21v-75,115,-165,218,-272,307r-121,0r0,-27"},"\u00d4":{"d":"616,20v-355,0,-532,-252,-532,-755v0,-500,178,-750,534,-750v171,0,296,68,392,195v178,236,178,880,-1,1114v-97,127,-223,196,-393,196xm616,-143v115,0,196,-51,254,-145v103,-168,102,-725,-2,-890v-59,-92,-137,-143,-250,-143v-225,0,-337,196,-337,588v0,393,112,590,335,590xm946,-1579r-121,0v-57,-37,-127,-99,-211,-186v-89,91,-159,153,-211,186r-120,0r0,-27v80,-89,215,-243,235,-301r193,0v21,58,155,212,235,301r0,27"},"\u00d5":{"d":"616,20v-355,0,-532,-252,-532,-755v0,-500,178,-750,534,-750v171,0,296,68,392,195v178,236,178,880,-1,1114v-97,127,-223,196,-393,196xm616,-143v115,0,196,-51,254,-145v103,-168,102,-725,-2,-890v-59,-92,-137,-143,-250,-143v-225,0,-337,196,-337,588v0,393,112,590,335,590xm770,-1581v-60,13,-245,-113,-297,-113v-55,0,-90,38,-107,115r-104,0v17,-176,87,-264,211,-264v58,-14,251,112,297,112v53,0,89,-38,106,-114r105,0v-18,176,-88,264,-211,264"},"\u00d6":{"d":"616,20v-355,0,-532,-252,-532,-755v0,-500,178,-750,534,-750v171,0,296,68,392,195v178,236,178,880,-1,1114v-97,127,-223,196,-393,196xm616,-143v115,0,196,-51,254,-145v103,-168,102,-725,-2,-890v-59,-92,-137,-143,-250,-143v-225,0,-337,196,-337,588v0,393,112,590,335,590xm428,-1835v64,0,96,34,96,102v0,69,-32,103,-96,103v-64,0,-96,-34,-96,-103v0,-68,32,-102,96,-102xm803,-1835v64,0,96,34,96,102v0,69,-32,103,-96,103v-64,0,-96,-34,-96,-103v0,-68,32,-102,96,-102"},"\u00d7":{"d":"508,-723r-318,-319r105,-105r317,318r322,-318r104,103r-321,321r319,320r-102,102r-322,-317r-317,315r-102,-103"},"\u00d8":{"d":"309,-74r-92,150r-137,-78r121,-197v-78,-123,-117,-301,-117,-536v0,-500,178,-750,534,-750v124,0,227,35,310,105r92,-152r137,78r-125,201v77,125,115,299,115,520v0,241,-46,426,-138,557v-92,131,-223,196,-393,196v-126,0,-228,-31,-307,-94xm319,-391r515,-836v-53,-63,-125,-94,-216,-94v-225,0,-337,196,-337,588v0,141,13,255,38,342xm915,-1061r-512,832v53,57,124,86,213,86v115,0,200,-48,254,-145v54,-97,80,-245,80,-445v0,-139,-12,-249,-35,-328"},"\u00d9":{"d":"1104,-516v1,338,-164,536,-496,536v-322,0,-483,-180,-483,-540r0,-942r186,0r0,932v0,258,102,387,307,387v197,0,300,-130,300,-389r0,-932r186,0r0,948xm742,-1579r-121,0v-111,-95,-201,-197,-272,-307r0,-21r219,0v57,119,115,219,174,301r0,27"},"\u00da":{"d":"1104,-516v1,338,-164,536,-496,536v-322,0,-483,-180,-483,-540r0,-942r186,0r0,932v0,258,102,387,307,387v197,0,300,-130,300,-389r0,-932r186,0r0,948xm494,-1606v63,-89,121,-189,174,-301r219,0r0,21v-75,115,-165,218,-272,307r-121,0r0,-27"},"\u00db":{"d":"1104,-516v1,338,-164,536,-496,536v-322,0,-483,-180,-483,-540r0,-942r186,0r0,932v0,258,102,387,307,387v197,0,300,-130,300,-389r0,-932r186,0r0,948xm946,-1579r-121,0v-57,-37,-127,-99,-211,-186v-89,91,-159,153,-211,186r-120,0r0,-27v80,-89,215,-243,235,-301r193,0v21,58,155,212,235,301r0,27"},"\u00dc":{"d":"1104,-516v1,338,-164,536,-496,536v-322,0,-483,-180,-483,-540r0,-942r186,0r0,932v0,258,102,387,307,387v197,0,300,-130,300,-389r0,-932r186,0r0,948xm428,-1835v64,0,96,34,96,102v0,69,-32,103,-96,103v-64,0,-96,-34,-96,-103v0,-68,32,-102,96,-102xm803,-1835v64,0,96,34,96,102v0,69,-32,103,-96,103v-64,0,-96,-34,-96,-103v0,-68,32,-102,96,-102"},"\u00dd":{"d":"612,-723r381,-739r201,0r-487,893r0,569r-187,0r0,-559r-487,-903r203,0xm494,-1606v63,-89,121,-189,174,-301r219,0r0,21v-75,115,-165,218,-272,307r-121,0r0,-27"},"\u00de":{"d":"1094,-782v0,309,-212,469,-541,465r-191,0r0,317r-186,0r0,-1462r186,0r0,252r218,0v343,0,514,143,514,428xm532,-475v245,-1,369,-72,369,-297v0,-186,-113,-279,-338,-279r-201,0r0,576r170,0"},"\u00df":{"d":"1151,-313v0,224,-151,335,-383,333v-121,0,-218,-23,-289,-69r0,-166v95,57,188,86,277,86v142,0,213,-58,213,-174v0,-54,-16,-97,-45,-132v-61,-72,-269,-181,-317,-251v-90,-131,-52,-267,79,-371v87,-69,129,-136,129,-196v0,-109,-76,-164,-227,-164v-161,0,-242,72,-242,215r0,1202r-182,0r0,-1200v0,-245,141,-367,424,-367v235,0,411,91,411,307v0,88,-44,171,-133,249v-56,49,-92,84,-108,105v-34,42,-33,95,4,133v19,20,70,57,151,111v96,63,160,121,191,173v31,52,47,111,47,176"},"\u00e0":{"d":"596,-1118v288,1,430,93,430,366r0,752r-131,0r-37,-152r-8,0v-97,118,-171,170,-367,172v-212,3,-348,-118,-348,-327v0,-221,170,-337,510,-348r203,-7v14,-196,-54,-305,-244,-305v-98,0,-207,27,-328,82r-63,-137v131,-64,258,-96,383,-96xm524,-127v194,1,325,-115,322,-311r0,-99v-248,13,-523,-5,-522,232v0,119,67,178,200,178xm726,-1241r-121,0v-111,-95,-201,-197,-272,-307r0,-21r219,0v57,119,115,219,174,301r0,27"},"\u00e1":{"d":"596,-1118v288,1,430,93,430,366r0,752r-131,0r-37,-152r-8,0v-97,118,-171,170,-367,172v-212,3,-348,-118,-348,-327v0,-221,170,-337,510,-348r203,-7v14,-196,-54,-305,-244,-305v-98,0,-207,27,-328,82r-63,-137v131,-64,258,-96,383,-96xm524,-127v194,1,325,-115,322,-311r0,-99v-248,13,-523,-5,-522,232v0,119,67,178,200,178xm502,-1268v63,-89,121,-189,174,-301r219,0r0,21v-75,115,-165,218,-272,307r-121,0r0,-27"},"\u00e2":{"d":"596,-1118v288,1,430,93,430,366r0,752r-131,0r-37,-152r-8,0v-97,118,-171,170,-367,172v-212,3,-348,-118,-348,-327v0,-221,170,-337,510,-348r203,-7v14,-196,-54,-305,-244,-305v-98,0,-207,27,-328,82r-63,-137v131,-64,258,-96,383,-96xm524,-127v194,1,325,-115,322,-311r0,-99v-248,13,-523,-5,-522,232v0,119,67,178,200,178xm954,-1241r-121,0v-57,-37,-127,-99,-211,-186v-89,91,-159,153,-211,186r-120,0r0,-27v80,-89,215,-243,235,-301r193,0v21,58,155,212,235,301r0,27"},"\u00e3":{"d":"596,-1118v288,1,430,93,430,366r0,752r-131,0r-37,-152r-8,0v-97,118,-171,170,-367,172v-212,3,-348,-118,-348,-327v0,-221,170,-337,510,-348r203,-7v14,-196,-54,-305,-244,-305v-98,0,-207,27,-328,82r-63,-137v131,-64,258,-96,383,-96xm524,-127v194,1,325,-115,322,-311r0,-99v-248,13,-523,-5,-522,232v0,119,67,178,200,178xm772,-1243v-60,13,-245,-113,-297,-113v-55,0,-90,38,-107,115r-104,0v17,-176,87,-264,211,-264v58,-14,251,112,297,112v53,0,89,-38,106,-114r105,0v-18,176,-88,264,-211,264"},"\u00e4":{"d":"596,-1118v288,1,430,93,430,366r0,752r-131,0r-37,-152r-8,0v-97,118,-171,170,-367,172v-212,3,-348,-118,-348,-327v0,-221,170,-337,510,-348r203,-7v14,-196,-54,-305,-244,-305v-98,0,-207,27,-328,82r-63,-137v131,-64,258,-96,383,-96xm524,-127v194,1,325,-115,322,-311r0,-99v-248,13,-523,-5,-522,232v0,119,67,178,200,178xm438,-1497v64,0,96,34,96,102v0,69,-32,103,-96,103v-64,0,-96,-34,-96,-103v0,-68,32,-102,96,-102xm813,-1497v64,0,96,34,96,102v0,69,-32,103,-96,103v-64,0,-96,-34,-96,-103v0,-68,32,-102,96,-102"},"\u00e5":{"d":"596,-1118v288,1,430,93,430,366r0,752r-131,0r-37,-152r-8,0v-97,118,-171,170,-367,172v-212,3,-348,-118,-348,-327v0,-221,170,-337,510,-348r203,-7v14,-196,-54,-305,-244,-305v-98,0,-207,27,-328,82r-63,-137v131,-64,258,-96,383,-96xm524,-127v194,1,325,-115,322,-311r0,-99v-248,13,-523,-5,-522,232v0,119,67,178,200,178xm839,-1458v0,131,-97,217,-230,217v-133,0,-223,-83,-223,-215v0,-132,90,-215,223,-215v130,0,230,86,230,213xm722,-1456v0,-69,-46,-113,-113,-113v-66,0,-112,45,-112,113v0,75,37,113,112,113v67,0,113,-44,113,-113"},"\u00e6":{"d":"301,20v-167,0,-256,-142,-256,-327v0,-221,109,-337,328,-348r149,-7r0,-69v0,-157,-46,-236,-139,-236v-71,0,-142,27,-211,82r-57,-137v170,-134,458,-146,522,82v83,-220,343,-235,463,-42v70,114,92,277,86,468r-496,0v2,128,24,223,67,284v96,136,260,103,402,15r0,162v-71,49,-152,73,-241,73v-148,0,-253,-76,-316,-229v-70,153,-170,229,-301,229xm694,-662r316,0v0,-94,-14,-168,-40,-223v-51,-108,-169,-108,-225,-4v-29,53,-47,128,-51,227xm334,-127v131,0,189,-151,186,-311r0,-99r-88,7v-145,11,-217,86,-217,225v0,96,35,178,119,178"},"\u00e7":{"d":"172,-543v0,-365,196,-575,553,-575v119,0,231,20,336,59r-62,158v-100,-38,-189,-57,-268,-57v-247,0,-371,138,-371,413v0,271,120,406,361,406v105,0,212,-21,321,-62r0,160v-89,41,-199,61,-329,61v-347,1,-541,-209,-541,-563xm477,483r0,-108v22,4,49,6,80,6v101,0,151,-31,151,-92v0,-49,-57,-87,-172,-113r91,-176r120,0r-57,115v107,25,160,82,160,172v0,137,-97,205,-291,205v-23,0,-50,-3,-82,-9"},"\u00e8":{"d":"631,-1118v284,0,469,203,465,491r0,113r-774,0v5,250,120,375,344,375v130,0,253,-25,370,-76r0,160v-111,50,-232,75,-364,75v-330,2,-539,-223,-539,-561v0,-333,182,-577,498,-577xm326,-662r573,0v0,-203,-91,-305,-272,-305v-183,0,-284,102,-301,305xm767,-1241r-121,0v-111,-95,-201,-197,-272,-307r0,-21r219,0v57,119,115,219,174,301r0,27"},"\u00e9":{"d":"631,-1118v284,0,469,203,465,491r0,113r-774,0v5,250,120,375,344,375v130,0,253,-25,370,-76r0,160v-111,50,-232,75,-364,75v-330,2,-539,-223,-539,-561v0,-333,182,-577,498,-577xm326,-662r573,0v0,-203,-91,-305,-272,-305v-183,0,-284,102,-301,305xm500,-1268v63,-89,121,-189,174,-301r219,0r0,21v-75,115,-165,218,-272,307r-121,0r0,-27"},"\u00ea":{"d":"631,-1118v284,0,469,203,465,491r0,113r-774,0v5,250,120,375,344,375v130,0,253,-25,370,-76r0,160v-111,50,-232,75,-364,75v-330,2,-539,-223,-539,-561v0,-333,182,-577,498,-577xm326,-662r573,0v0,-203,-91,-305,-272,-305v-183,0,-284,102,-301,305xm962,-1241r-121,0v-57,-37,-127,-99,-211,-186v-89,91,-159,153,-211,186r-120,0r0,-27v80,-89,215,-243,235,-301r193,0v21,58,155,212,235,301r0,27"},"\u00eb":{"d":"631,-1118v284,0,469,203,465,491r0,113r-774,0v5,250,120,375,344,375v130,0,253,-25,370,-76r0,160v-111,50,-232,75,-364,75v-330,2,-539,-223,-539,-561v0,-333,182,-577,498,-577xm326,-662r573,0v0,-203,-91,-305,-272,-305v-183,0,-284,102,-301,305xm444,-1497v64,0,96,34,96,102v0,69,-32,103,-96,103v-64,0,-96,-34,-96,-103v0,-68,32,-102,96,-102xm819,-1497v64,0,96,34,96,102v0,69,-32,103,-96,103v-64,0,-96,-34,-96,-103v0,-68,32,-102,96,-102"},"\u00ec":{"d":"541,-954r-269,-21r0,-123r451,0r0,955r352,20r0,123r-878,0r0,-123r344,-20r0,-811xm726,-1241r-121,0v-111,-95,-201,-197,-272,-307r0,-21r219,0v57,119,115,219,174,301r0,27"},"\u00ed":{"d":"541,-954r-269,-21r0,-123r451,0r0,955r352,20r0,123r-878,0r0,-123r344,-20r0,-811xm531,-1268v63,-89,121,-189,174,-301r219,0r0,21v-75,115,-165,218,-272,307r-121,0r0,-27"},"\u00ee":{"d":"541,-954r-269,-21r0,-123r451,0r0,955r352,20r0,123r-878,0r0,-123r344,-20r0,-811xm946,-1241r-121,0v-57,-37,-127,-99,-211,-186v-89,91,-159,153,-211,186r-120,0r0,-27v80,-89,215,-243,235,-301r193,0v21,58,155,212,235,301r0,27"},"\u00ef":{"d":"541,-954r-269,-21r0,-123r451,0r0,955r352,20r0,123r-878,0r0,-123r344,-20r0,-811xm426,-1497v64,0,96,34,96,102v0,69,-32,103,-96,103v-64,0,-96,-34,-96,-103v0,-68,32,-102,96,-102xm801,-1497v64,0,96,34,96,102v0,69,-32,103,-96,103v-64,0,-96,-34,-96,-103v0,-68,32,-102,96,-102"},"\u00f0":{"d":"135,-477v0,-301,163,-495,455,-494v141,0,240,40,299,119r8,-4v-39,-151,-119,-281,-242,-391r-256,153r-73,-114r217,-131v-69,-47,-127,-84,-172,-109r69,-123v95,47,177,96,246,148r227,-138r74,113r-194,117v201,194,301,447,301,758v0,341,-163,592,-482,593v-287,2,-477,-201,-477,-497xm905,-526v1,-172,-114,-297,-291,-297v-191,0,-286,117,-286,352v0,227,96,340,288,340v225,0,287,-155,289,-395"},"\u00f1":{"d":"887,0r0,-707v0,-173,-79,-260,-238,-260v-205,0,-307,133,-307,398r0,569r-182,0r0,-1098r147,0r27,148r10,0v69,-112,181,-168,336,-168v259,0,389,134,389,401r0,717r-182,0xm768,-1243v-60,13,-245,-113,-297,-113v-55,0,-90,38,-107,115r-104,0v17,-176,87,-264,211,-264v58,-14,251,112,297,112v53,0,89,-38,106,-114r105,0v-18,176,-88,264,-211,264"},"\u00f2":{"d":"1112,-551v0,333,-186,571,-502,571v-301,0,-495,-250,-495,-571v0,-332,183,-567,501,-567v302,0,496,247,496,567xm614,-131v207,0,310,-140,310,-420v0,-277,-104,-416,-312,-416v-206,0,-309,139,-309,416v0,280,104,420,311,420xm771,-1241r-121,0v-111,-95,-201,-197,-272,-307r0,-21r219,0v57,119,115,219,174,301r0,27"},"\u00f3":{"d":"1112,-551v0,333,-186,571,-502,571v-301,0,-495,-250,-495,-571v0,-332,183,-567,501,-567v302,0,496,247,496,567xm614,-131v207,0,310,-140,310,-420v0,-277,-104,-416,-312,-416v-206,0,-309,139,-309,416v0,280,104,420,311,420xm498,-1268v63,-89,121,-189,174,-301r219,0r0,21v-75,115,-165,218,-272,307r-121,0r0,-27"},"\u00f4":{"d":"1112,-551v0,333,-186,571,-502,571v-301,0,-495,-250,-495,-571v0,-332,183,-567,501,-567v302,0,496,247,496,567xm614,-131v207,0,310,-140,310,-420v0,-277,-104,-416,-312,-416v-206,0,-309,139,-309,416v0,280,104,420,311,420xm941,-1241r-121,0v-57,-37,-127,-99,-211,-186v-89,91,-159,153,-211,186r-120,0r0,-27v80,-89,215,-243,235,-301r193,0v21,58,155,212,235,301r0,27"},"\u00f5":{"d":"1112,-551v0,333,-186,571,-502,571v-301,0,-495,-250,-495,-571v0,-332,183,-567,501,-567v302,0,496,247,496,567xm614,-131v207,0,310,-140,310,-420v0,-277,-104,-416,-312,-416v-206,0,-309,139,-309,416v0,280,104,420,311,420xm762,-1243v-60,13,-245,-113,-297,-113v-55,0,-90,38,-107,115r-104,0v17,-176,87,-264,211,-264v58,-14,251,112,297,112v53,0,89,-38,106,-114r105,0v-18,176,-88,264,-211,264"},"\u00f6":{"d":"1112,-551v0,333,-186,571,-502,571v-301,0,-495,-250,-495,-571v0,-332,183,-567,501,-567v302,0,496,247,496,567xm614,-131v207,0,310,-140,310,-420v0,-277,-104,-416,-312,-416v-206,0,-309,139,-309,416v0,280,104,420,311,420xm419,-1497v64,0,96,34,96,102v0,69,-32,103,-96,103v-64,0,-96,-34,-96,-103v0,-68,32,-102,96,-102xm794,-1497v64,0,96,34,96,102v0,69,-32,103,-96,103v-64,0,-96,-34,-96,-103v0,-68,32,-102,96,-102"},"\u00f7":{"d":"612,-1196v77,0,115,42,115,125v0,83,-38,125,-115,125v-76,0,-114,-42,-114,-125v0,-83,38,-125,114,-125xm152,-647r0,-150r923,0r0,150r-923,0xm612,-498v77,0,115,42,115,125v0,83,-38,125,-115,125v-76,0,-114,-42,-114,-125v0,-83,38,-125,114,-125"},"\u00f8":{"d":"1112,-551v0,341,-178,571,-502,571v-86,0,-164,-18,-233,-53r-76,119r-131,-84r84,-131v-93,-105,-139,-246,-139,-422v0,-337,177,-568,501,-567v85,0,164,19,236,57r76,-119r131,84r-84,131v91,104,137,242,137,414xm606,-967v-236,4,-301,161,-303,416v0,120,18,212,53,275r406,-656v-44,-23,-96,-35,-156,-35xm621,-131v236,-4,301,-166,303,-420v0,-109,-17,-198,-52,-266r-405,653v41,22,92,33,154,33"},"\u00f9":{"d":"578,-131v238,0,309,-137,309,-397r0,-570r182,0r0,1098r-147,0r-27,-147r-10,0v-70,111,-181,167,-334,167v-261,0,-391,-134,-391,-401r0,-717r182,0r0,707v0,173,79,260,236,260xm734,-1241r-121,0v-111,-95,-201,-197,-272,-307r0,-21r219,0v57,119,115,219,174,301r0,27"},"\u00fa":{"d":"578,-131v238,0,309,-137,309,-397r0,-570r182,0r0,1098r-147,0r-27,-147r-10,0v-70,111,-181,167,-334,167v-261,0,-391,-134,-391,-401r0,-717r182,0r0,707v0,173,79,260,236,260xm500,-1268v63,-89,121,-189,174,-301r219,0r0,21v-75,115,-165,218,-272,307r-121,0r0,-27"},"\u00fb":{"d":"578,-131v238,0,309,-137,309,-397r0,-570r182,0r0,1098r-147,0r-27,-147r-10,0v-70,111,-181,167,-334,167v-261,0,-391,-134,-391,-401r0,-717r182,0r0,707v0,173,79,260,236,260xm954,-1241r-121,0v-57,-37,-127,-99,-211,-186v-89,91,-159,153,-211,186r-120,0r0,-27v80,-89,215,-243,235,-301r193,0v21,58,155,212,235,301r0,27"},"\u00fc":{"d":"578,-131v238,0,309,-137,309,-397r0,-570r182,0r0,1098r-147,0r-27,-147r-10,0v-70,111,-181,167,-334,167v-261,0,-391,-134,-391,-401r0,-717r182,0r0,707v0,173,79,260,236,260xm428,-1497v64,0,96,34,96,102v0,69,-32,103,-96,103v-64,0,-96,-34,-96,-103v0,-68,32,-102,96,-102xm803,-1497v64,0,96,34,96,102v0,69,-32,103,-96,103v-64,0,-96,-34,-96,-103v0,-68,32,-102,96,-102"},"\u00fd":{"d":"82,-1098r188,0r262,654v55,137,84,233,89,290r6,0v75,-299,228,-650,329,-944r189,0r-475,1241v-45,116,-98,201,-156,261v-88,91,-259,104,-414,71r0,-145v92,18,226,18,286,-29v67,-53,115,-194,153,-291xm494,-1268v63,-89,121,-189,174,-301r219,0r0,21v-75,115,-165,218,-272,307r-121,0r0,-27"},"\u00fe":{"d":"1092,-551v0,324,-136,571,-430,571v-138,0,-245,-53,-322,-159r-12,0v24,233,7,396,12,631r-182,0r0,-2048r182,0r0,458r-8,148r8,0v73,-112,181,-168,322,-168v293,0,430,245,430,567xm629,-967v-240,0,-290,158,-289,416v1,268,55,420,291,420v181,0,272,-141,272,-422v0,-276,-91,-414,-274,-414"},"\u00ff":{"d":"82,-1098r188,0r262,654v55,137,84,233,89,290r6,0v75,-299,228,-650,329,-944r189,0r-475,1241v-45,116,-98,201,-156,261v-88,91,-259,104,-414,71r0,-145v92,18,226,18,286,-29v67,-53,115,-194,153,-291xm434,-1497v64,0,96,34,96,102v0,69,-32,103,-96,103v-64,0,-96,-34,-96,-103v0,-68,32,-102,96,-102xm809,-1497v64,0,96,34,96,102v0,69,-32,103,-96,103v-64,0,-96,-34,-96,-103v0,-68,32,-102,96,-102"},"\u0100":{"d":"1004,0r-144,-453r-491,0r-146,453r-190,0r483,-1468r195,0r485,1468r-192,0xm807,-618r-133,-424v-26,-83,-47,-158,-62,-226v-51,233,-127,431,-190,650r385,0xm326,-1729r575,0r0,150r-575,0r0,-150"},"\u0101":{"d":"596,-1118v288,1,430,93,430,366r0,752r-131,0r-37,-152r-8,0v-97,118,-171,170,-367,172v-212,3,-348,-118,-348,-327v0,-221,170,-337,510,-348r203,-7v14,-196,-54,-305,-244,-305v-98,0,-207,27,-328,82r-63,-137v131,-64,258,-96,383,-96xm524,-127v194,1,325,-115,322,-311r0,-99v-248,13,-523,-5,-522,232v0,119,67,178,200,178xm317,-1391r575,0r0,150r-575,0r0,-150"},"\u0102":{"d":"1004,0r-144,-453r-491,0r-146,453r-190,0r483,-1468r195,0r485,1468r-192,0xm807,-618r-133,-424v-26,-83,-47,-158,-62,-226v-51,233,-127,431,-190,650r385,0xm419,-1856v13,112,59,125,190,125v121,0,184,-42,191,-125r112,0v-11,167,-125,277,-305,277v-187,0,-286,-92,-297,-277r109,0"},"\u0103":{"d":"596,-1118v288,1,430,93,430,366r0,752r-131,0r-37,-152r-8,0v-97,118,-171,170,-367,172v-212,3,-348,-118,-348,-327v0,-221,170,-337,510,-348r203,-7v14,-196,-54,-305,-244,-305v-98,0,-207,27,-328,82r-63,-137v131,-64,258,-96,383,-96xm524,-127v194,1,325,-115,322,-311r0,-99v-248,13,-523,-5,-522,232v0,119,67,178,200,178xm411,-1518v13,112,59,125,190,125v121,0,184,-42,191,-125r112,0v-11,167,-125,277,-305,277v-187,0,-286,-92,-297,-277r109,0"},"\u0104":{"d":"1004,0r-144,-453r-491,0r-146,453r-190,0r483,-1468r195,0r485,1468r-192,0xm807,-618r-133,-424v-26,-83,-47,-158,-62,-226v-51,233,-127,431,-190,650r385,0xm1058,455v-146,2,-245,-68,-245,-203v0,-96,63,-180,190,-252r131,0v-113,83,-170,163,-170,238v0,64,42,96,127,96v44,0,85,-5,123,-15r0,113v-49,15,-101,23,-156,23"},"\u0105":{"d":"596,-1118v288,1,430,93,430,366r0,752r-131,0r-37,-152r-8,0v-97,118,-171,170,-367,172v-212,3,-348,-118,-348,-327v0,-221,170,-337,510,-348r203,-7v14,-196,-54,-305,-244,-305v-98,0,-207,27,-328,82r-63,-137v131,-64,258,-96,383,-96xm524,-127v194,1,325,-115,322,-311r0,-99v-248,13,-523,-5,-522,232v0,119,67,178,200,178xm950,455v-146,2,-245,-68,-245,-203v0,-96,63,-180,190,-252r131,0v-113,83,-170,163,-170,238v0,64,42,96,127,96v44,0,85,-5,123,-15r0,113v-49,15,-101,23,-156,23"},"\u0106":{"d":"326,-731v0,355,139,584,471,588v87,0,196,-19,327,-58r0,162v-97,39,-217,59,-358,59v-433,-1,-637,-300,-637,-753v0,-440,243,-752,668,-750v147,0,274,29,383,86r-78,156v-103,-52,-204,-78,-305,-78v-307,1,-471,258,-471,588xm660,-1606v63,-89,121,-189,174,-301r219,0r0,21v-75,115,-165,218,-272,307r-121,0r0,-27"},"\u0107":{"d":"172,-543v0,-365,196,-575,553,-575v119,0,231,20,336,59r-62,158v-100,-38,-189,-57,-268,-57v-247,0,-371,138,-371,413v0,271,120,406,361,406v105,0,212,-21,321,-62r0,160v-89,41,-199,61,-329,61v-347,1,-541,-209,-541,-563xm578,-1268v63,-89,121,-189,174,-301r219,0r0,21v-75,115,-165,218,-272,307r-121,0r0,-27"},"\u0108":{"d":"326,-731v0,355,139,584,471,588v87,0,196,-19,327,-58r0,162v-97,39,-217,59,-358,59v-433,-1,-637,-300,-637,-753v0,-440,243,-752,668,-750v147,0,274,29,383,86r-78,156v-103,-52,-204,-78,-305,-78v-307,1,-471,258,-471,588xm1106,-1579r-121,0v-57,-37,-127,-99,-211,-186v-89,91,-159,153,-211,186r-120,0r0,-27v80,-89,215,-243,235,-301r193,0v21,58,155,212,235,301r0,27"},"\u0109":{"d":"172,-543v0,-365,196,-575,553,-575v119,0,231,20,336,59r-62,158v-100,-38,-189,-57,-268,-57v-247,0,-371,138,-371,413v0,271,120,406,361,406v105,0,212,-21,321,-62r0,160v-89,41,-199,61,-329,61v-347,1,-541,-209,-541,-563xm1030,-1241r-121,0v-57,-37,-127,-99,-211,-186v-89,91,-159,153,-211,186r-120,0r0,-27v80,-89,215,-243,235,-301r193,0v21,58,155,212,235,301r0,27"},"\u010a":{"d":"326,-731v0,355,139,584,471,588v87,0,196,-19,327,-58r0,162v-97,39,-217,59,-358,59v-433,-1,-637,-300,-637,-753v0,-440,243,-752,668,-750v147,0,274,29,383,86r-78,156v-103,-52,-204,-78,-305,-78v-307,1,-471,258,-471,588xm778,-1847v71,0,107,38,107,114v0,77,-36,115,-107,115v-71,0,-106,-38,-106,-115v0,-76,35,-114,106,-114"},"\u010b":{"d":"172,-543v0,-365,196,-575,553,-575v119,0,231,20,336,59r-62,158v-100,-38,-189,-57,-268,-57v-247,0,-371,138,-371,413v0,271,120,406,361,406v105,0,212,-21,321,-62r0,160v-89,41,-199,61,-329,61v-347,1,-541,-209,-541,-563xm698,-1509v71,0,107,38,107,114v0,77,-36,115,-107,115v-71,0,-106,-38,-106,-115v0,-76,35,-114,106,-114"},"\u010c":{"d":"326,-731v0,355,139,584,471,588v87,0,196,-19,327,-58r0,162v-97,39,-217,59,-358,59v-433,-1,-637,-300,-637,-753v0,-440,243,-752,668,-750v147,0,274,29,383,86r-78,156v-103,-52,-204,-78,-305,-78v-307,1,-471,258,-471,588xm1100,-1880v-80,89,-217,247,-235,301r-193,0v-19,-55,-155,-212,-235,-301r0,-27r120,0v55,36,125,98,211,187v81,-85,152,-148,211,-187r121,0r0,27"},"\u010d":{"d":"172,-543v0,-365,196,-575,553,-575v119,0,231,20,336,59r-62,158v-100,-38,-189,-57,-268,-57v-247,0,-371,138,-371,413v0,271,120,406,361,406v105,0,212,-21,321,-62r0,160v-89,41,-199,61,-329,61v-347,1,-541,-209,-541,-563xm1038,-1542v-80,89,-217,247,-235,301r-193,0v-19,-55,-155,-212,-235,-301r0,-27r120,0v55,36,125,98,211,187v81,-85,152,-148,211,-187r121,0r0,27"},"\u010e":{"d":"1147,-745v0,472,-246,746,-711,745r-301,0r0,-1462r342,0v429,-2,670,279,670,717xm322,-1303r0,1143v418,24,628,-156,628,-579v0,-376,-164,-564,-493,-564r-135,0xm937,-1880v-80,89,-217,247,-235,301r-193,0v-19,-55,-155,-212,-235,-301r0,-27r120,0v55,36,125,98,211,187v81,-85,152,-148,211,-187r121,0r0,27"},"\u010f":{"d":"1315,-1536v-19,71,-93,235,-145,307r-96,0v0,-53,17,-88,26,-133v16,-78,29,-142,35,-194r180,0r0,20xm79,-547v0,-324,136,-571,430,-571v137,0,245,53,322,160r12,0v-24,-228,-7,-371,-12,-598r182,0r0,1556r-147,0r-27,-147r-8,0v-75,111,-183,167,-322,167v-293,0,-430,-245,-430,-567xm542,-131v239,0,290,-159,289,-416v-1,-268,-55,-420,-291,-420v-181,0,-272,141,-272,422v0,276,91,414,274,414"},"\u0110":{"d":"1147,-745v0,472,-246,746,-711,745r-301,0r0,-659r-135,0r0,-162r135,0r0,-641r342,0v429,-2,670,279,670,717xm322,-1303r0,482r380,0r0,162r-380,0r0,499v418,24,628,-156,628,-579v0,-376,-164,-564,-493,-564r-135,0"},"\u0111":{"d":"137,-526v0,-316,140,-551,430,-551v139,0,246,53,322,159r12,0v-16,-155,-11,-183,-12,-319r-379,0r0,-137r379,0r0,-182r182,0r0,182r156,0r0,137r-156,0r0,1237r-147,0r-27,-147r-8,0v-75,111,-183,167,-322,167v-290,0,-430,-232,-430,-546xm600,-131v235,-1,290,-144,289,-395v-1,-259,-59,-400,-291,-400v-181,0,-272,134,-272,402v0,262,91,393,274,393"},"\u0112":{"d":"1059,0r-842,0r0,-1462r842,0r0,164r-656,0r0,452r617,0r0,162r-617,0r0,520r656,0r0,164xm336,-1729r575,0r0,150r-575,0r0,-150"},"\u0113":{"d":"631,-1118v284,0,469,203,465,491r0,113r-774,0v5,250,120,375,344,375v130,0,253,-25,370,-76r0,160v-111,50,-232,75,-364,75v-330,2,-539,-223,-539,-561v0,-333,182,-577,498,-577xm326,-662r573,0v0,-203,-91,-305,-272,-305v-183,0,-284,102,-301,305xm346,-1391r575,0r0,150r-575,0r0,-150"},"\u0114":{"d":"1059,0r-842,0r0,-1462r842,0r0,164r-656,0r0,452r617,0r0,162r-617,0r0,520r656,0r0,164xm451,-1856v13,112,59,125,190,125v121,0,184,-42,191,-125r112,0v-11,167,-125,277,-305,277v-187,0,-286,-92,-297,-277r109,0"},"\u0115":{"d":"631,-1118v284,0,469,203,465,491r0,113r-774,0v5,250,120,375,344,375v130,0,253,-25,370,-76r0,160v-111,50,-232,75,-364,75v-330,2,-539,-223,-539,-561v0,-333,182,-577,498,-577xm326,-662r573,0v0,-203,-91,-305,-272,-305v-183,0,-284,102,-301,305xm438,-1518v13,112,59,125,190,125v121,0,184,-42,191,-125r112,0v-11,167,-125,277,-305,277v-187,0,-286,-92,-297,-277r109,0"},"\u0116":{"d":"1059,0r-842,0r0,-1462r842,0r0,164r-656,0r0,452r617,0r0,162r-617,0r0,520r656,0r0,164xm649,-1818v71,0,107,38,107,114v0,77,-36,115,-107,115v-71,0,-106,-38,-106,-115v0,-76,35,-114,106,-114"},"\u0117":{"d":"631,-1118v284,0,469,203,465,491r0,113r-774,0v5,250,120,375,344,375v130,0,253,-25,370,-76r0,160v-111,50,-232,75,-364,75v-330,2,-539,-223,-539,-561v0,-333,182,-577,498,-577xm326,-662r573,0v0,-203,-91,-305,-272,-305v-183,0,-284,102,-301,305xm637,-1509v71,0,107,38,107,114v0,77,-36,115,-107,115v-71,0,-106,-38,-106,-115v0,-76,35,-114,106,-114"},"\u0118":{"d":"1059,0r-842,0r0,-1462r842,0r0,164r-656,0r0,452r617,0r0,162r-617,0r0,520r656,0r0,164xm864,455v-146,2,-245,-68,-245,-203v0,-96,63,-180,190,-252r131,0v-113,83,-170,163,-170,238v0,64,42,96,127,96v44,0,85,-5,123,-15r0,113v-49,15,-101,23,-156,23"},"\u0119":{"d":"631,-1118v284,0,469,203,465,491r0,113r-774,0v5,250,120,375,344,375v130,0,253,-25,370,-76r0,160v-111,50,-232,75,-364,75v-330,2,-539,-223,-539,-561v0,-333,182,-577,498,-577xm326,-662r573,0v0,-203,-91,-305,-272,-305v-183,0,-284,102,-301,305xm886,424v-146,2,-245,-68,-245,-203v0,-96,63,-180,190,-252r131,0v-113,83,-170,163,-170,238v0,64,42,96,127,96v44,0,85,-5,123,-15r0,113v-49,15,-101,23,-156,23"},"\u011a":{"d":"1059,0r-842,0r0,-1462r842,0r0,164r-656,0r0,452r617,0r0,162r-617,0r0,520r656,0r0,164xm981,-1880v-80,89,-217,247,-235,301r-193,0v-19,-55,-155,-212,-235,-301r0,-27r120,0v55,36,125,98,211,187v81,-85,152,-148,211,-187r121,0r0,27"},"\u011b":{"d":"631,-1118v284,0,469,203,465,491r0,113r-774,0v5,250,120,375,344,375v130,0,253,-25,370,-76r0,160v-111,50,-232,75,-364,75v-330,2,-539,-223,-539,-561v0,-333,182,-577,498,-577xm326,-662r573,0v0,-203,-91,-305,-272,-305v-183,0,-284,102,-301,305xm971,-1542v-80,89,-217,247,-235,301r-193,0v-19,-55,-155,-212,-235,-301r0,-27r120,0v55,36,125,98,211,187v81,-85,152,-148,211,-187r121,0r0,27"},"\u011c":{"d":"117,-733v0,-432,204,-748,608,-750v128,0,243,29,346,86r-72,162v-207,-125,-451,-118,-579,71v-71,104,-107,248,-107,433v0,486,209,665,596,559r0,-436r-237,0r0,-164r422,0r0,717v-130,50,-270,75,-420,75v-175,0,-312,-67,-410,-200v-98,-133,-147,-317,-147,-553xm1026,-1579r-121,0v-57,-37,-127,-99,-211,-186v-89,91,-159,153,-211,186r-120,0r0,-27v80,-89,215,-243,235,-301r193,0v21,58,155,212,235,301r0,27"},"\u011d":{"d":"188,-739v-1,-248,156,-381,410,-379v57,0,107,7,150,20r378,0r0,113r-196,27v43,57,65,128,65,213v2,253,-212,385,-489,346v-67,37,-100,82,-100,133v0,56,54,84,161,84r187,0v216,-2,358,94,358,297v0,251,-188,377,-565,377v-254,0,-445,-84,-445,-306v0,-141,80,-231,240,-270v-64,-31,-96,-83,-96,-154v0,-75,44,-139,133,-192v-109,-42,-191,-166,-191,-309xm594,-518v149,0,223,-77,223,-230v0,-159,-75,-239,-225,-239v-150,0,-225,81,-225,242v0,151,76,227,227,227xm940,131v0,-144,-78,-149,-248,-149r-188,0v-153,0,-230,66,-230,198v0,116,90,174,271,174v263,0,395,-74,395,-223xm937,-1241r-121,0v-57,-37,-127,-99,-211,-186v-89,91,-159,153,-211,186r-120,0r0,-27v80,-89,215,-243,235,-301r193,0v21,58,155,212,235,301r0,27"},"\u011e":{"d":"117,-733v0,-432,204,-748,608,-750v128,0,243,29,346,86r-72,162v-207,-125,-451,-118,-579,71v-71,104,-107,248,-107,433v0,486,209,665,596,559r0,-436r-237,0r0,-164r422,0r0,717v-130,50,-270,75,-420,75v-175,0,-312,-67,-410,-200v-98,-133,-147,-317,-147,-553xm520,-1856v13,112,59,125,190,125v121,0,184,-42,191,-125r112,0v-11,167,-125,277,-305,277v-187,0,-286,-92,-297,-277r109,0"},"\u011f":{"d":"188,-739v-1,-248,156,-381,410,-379v57,0,107,7,150,20r378,0r0,113r-196,27v43,57,65,128,65,213v2,253,-212,385,-489,346v-67,37,-100,82,-100,133v0,56,54,84,161,84r187,0v216,-2,358,94,358,297v0,251,-188,377,-565,377v-254,0,-445,-84,-445,-306v0,-141,80,-231,240,-270v-64,-31,-96,-83,-96,-154v0,-75,44,-139,133,-192v-109,-42,-191,-166,-191,-309xm594,-518v149,0,223,-77,223,-230v0,-159,-75,-239,-225,-239v-150,0,-225,81,-225,242v0,151,76,227,227,227xm940,131v0,-144,-78,-149,-248,-149r-188,0v-153,0,-230,66,-230,198v0,116,90,174,271,174v263,0,395,-74,395,-223xm409,-1518v13,112,59,125,190,125v121,0,184,-42,191,-125r112,0v-11,167,-125,277,-305,277v-187,0,-286,-92,-297,-277r109,0"},"\u0120":{"d":"117,-733v0,-432,204,-748,608,-750v128,0,243,29,346,86r-72,162v-207,-125,-451,-118,-579,71v-71,104,-107,248,-107,433v0,486,209,665,596,559r0,-436r-237,0r0,-164r422,0r0,717v-130,50,-270,75,-420,75v-175,0,-312,-67,-410,-200v-98,-133,-147,-317,-147,-553xm723,-1847v71,0,107,38,107,114v0,77,-36,115,-107,115v-71,0,-106,-38,-106,-115v0,-76,35,-114,106,-114"},"\u0121":{"d":"188,-739v-1,-248,156,-381,410,-379v57,0,107,7,150,20r378,0r0,113r-196,27v43,57,65,128,65,213v2,253,-212,385,-489,346v-67,37,-100,82,-100,133v0,56,54,84,161,84r187,0v216,-2,358,94,358,297v0,251,-188,377,-565,377v-254,0,-445,-84,-445,-306v0,-141,80,-231,240,-270v-64,-31,-96,-83,-96,-154v0,-75,44,-139,133,-192v-109,-42,-191,-166,-191,-309xm594,-518v149,0,223,-77,223,-230v0,-159,-75,-239,-225,-239v-150,0,-225,81,-225,242v0,151,76,227,227,227xm940,131v0,-144,-78,-149,-248,-149r-188,0v-153,0,-230,66,-230,198v0,116,90,174,271,174v263,0,395,-74,395,-223xm613,-1509v71,0,107,38,107,114v0,77,-36,115,-107,115v-71,0,-106,-38,-106,-115v0,-76,35,-114,106,-114"},"\u0122":{"d":"802,145v-17,75,-104,246,-163,308r-99,0r0,-27v41,-93,69,-194,84,-301r178,0r0,20xm117,-733v0,-432,204,-748,608,-750v128,0,243,29,346,86r-72,162v-207,-125,-451,-118,-579,71v-71,104,-107,248,-107,433v0,486,209,665,596,559r0,-436r-237,0r0,-164r422,0r0,717v-130,50,-270,75,-420,75v-175,0,-312,-67,-410,-200v-98,-133,-147,-317,-147,-553"},"\u0123":{"d":"528,-1262v19,-76,100,-241,164,-307r98,0r0,27v-42,102,-70,202,-83,301r-179,0r0,-21xm188,-739v-1,-248,156,-381,410,-379v57,0,107,7,150,20r378,0r0,113r-196,27v43,57,65,128,65,213v2,253,-212,385,-489,346v-67,37,-100,82,-100,133v0,56,54,84,161,84r187,0v216,-2,358,94,358,297v0,251,-188,377,-565,377v-254,0,-445,-84,-445,-306v0,-141,80,-231,240,-270v-64,-31,-96,-83,-96,-154v0,-75,44,-139,133,-192v-109,-42,-191,-166,-191,-309xm594,-518v149,0,223,-77,223,-230v0,-159,-75,-239,-225,-239v-150,0,-225,81,-225,242v0,151,76,227,227,227xm940,131v0,-144,-78,-149,-248,-149r-188,0v-153,0,-230,66,-230,198v0,116,90,174,271,174v263,0,395,-74,395,-223"},"\u0124":{"d":"1094,0r-187,0r0,-682r-585,0r0,682r-187,0r0,-1462r187,0r0,616r585,0r0,-616r187,0r0,1462xm946,-1579r-121,0v-57,-37,-127,-99,-211,-186v-89,91,-159,153,-211,186r-120,0r0,-27v80,-89,215,-243,235,-301r193,0v21,58,155,212,235,301r0,27"},"\u0125":{"d":"887,0r0,-707v0,-173,-79,-260,-238,-260v-205,0,-307,133,-307,398r0,569r-182,0r0,-1556r182,0r0,462r-8,144r10,0v69,-112,181,-168,336,-168v259,0,389,134,389,401r0,717r-182,0xm960,-1634r-121,0v-57,-37,-127,-99,-211,-186v-89,91,-159,153,-211,186r-120,0r0,-27v80,-89,215,-243,235,-301r193,0v21,58,155,212,235,301r0,27"},"\u0126":{"d":"135,-1219r0,-243r187,0r0,243r585,0r0,-243r187,0r0,243r135,0r0,150r-135,0r0,1069r-187,0r0,-682r-585,0r0,682r-187,0r0,-1069r-135,0r0,-150r135,0xm907,-846r0,-223r-585,0r0,223r585,0"},"\u0127":{"d":"688,-1077v264,0,381,128,381,401r0,676r-182,0r0,-666v0,-173,-79,-260,-236,-260v-239,0,-309,139,-309,398r0,528r-182,0r0,-1237r-156,0r0,-137r156,0r0,-182r184,0r0,182r418,0r0,137r-420,0r0,184r-10,144r10,0v72,-112,187,-168,346,-168"},"\u0128":{"d":"1001,0r-776,0r0,-123r295,-20r0,-1176r-295,-20r0,-123r776,0r0,123r-294,20r0,1176r294,20r0,123xm762,-1581v-60,13,-245,-113,-297,-113v-55,0,-90,38,-107,115r-104,0v17,-176,87,-264,211,-264v58,-14,251,112,297,112v53,0,89,-38,106,-114r105,0v-18,176,-88,264,-211,264"},"\u0129":{"d":"541,-954r-269,-21r0,-123r451,0r0,955r352,20r0,123r-878,0r0,-123r344,-20r0,-811xm759,-1243v-60,13,-245,-113,-297,-113v-55,0,-90,38,-107,115r-104,0v17,-176,87,-264,211,-264v58,-14,251,112,297,112v53,0,89,-38,106,-114r105,0v-18,176,-88,264,-211,264"},"\u012a":{"d":"1001,0r-776,0r0,-123r295,-20r0,-1176r-295,-20r0,-123r776,0r0,123r-294,20r0,1176r294,20r0,123xm328,-1729r575,0r0,150r-575,0r0,-150"},"\u012b":{"d":"541,-954r-269,-21r0,-123r451,0r0,955r352,20r0,123r-878,0r0,-123r344,-20r0,-811xm326,-1391r575,0r0,150r-575,0r0,-150"},"\u012c":{"d":"1001,0r-776,0r0,-123r295,-20r0,-1176r-295,-20r0,-123r776,0r0,123r-294,20r0,1176r294,20r0,123xm422,-1856v13,112,59,125,190,125v121,0,184,-42,191,-125r112,0v-11,167,-125,277,-305,277v-187,0,-286,-92,-297,-277r109,0"},"\u012d":{"d":"541,-954r-269,-21r0,-123r451,0r0,955r352,20r0,123r-878,0r0,-123r344,-20r0,-811xm447,-1518v13,112,59,125,190,125v121,0,184,-42,191,-125r112,0v-11,167,-125,277,-305,277v-187,0,-286,-92,-297,-277r109,0"},"\u012e":{"d":"1001,0r-776,0r0,-123r295,-20r0,-1176r-295,-20r0,-123r776,0r0,123r-294,20r0,1176r294,20r0,123xm667,455v-146,2,-245,-68,-245,-203v0,-96,63,-180,190,-252r131,0v-113,83,-170,163,-170,238v0,64,42,96,127,96v44,0,85,-5,123,-15r0,113v-49,15,-101,23,-156,23"},"\u012f":{"d":"739,-1436v0,71,-43,115,-106,115v-71,0,-107,-38,-107,-115v0,-76,36,-114,107,-114v71,0,106,38,106,114xm541,-954r-269,-21r0,-123r451,0r0,955r352,20r0,123r-878,0r0,-123r344,-20r0,-811xm684,455v-146,2,-245,-68,-245,-203v0,-96,63,-180,190,-252r131,0v-113,83,-170,163,-170,238v0,64,42,96,127,96v44,0,85,-5,123,-15r0,113v-49,15,-101,23,-156,23"},"\u0130":{"d":"1001,0r-776,0r0,-123r295,-20r0,-1176r-295,-20r0,-123r776,0r0,123r-294,20r0,1176r294,20r0,123xm614,-1847v71,0,107,38,107,114v0,77,-36,115,-107,115v-71,0,-106,-38,-106,-115v0,-76,35,-114,106,-114"},"\u0131":{"d":"541,-954r-269,-21r0,-123r451,0r0,955r352,20r0,123r-878,0r0,-123r344,-20r0,-811"},"\u0132":{"d":"156,0r0,-1462r186,0r0,1462r-186,0xm492,-23r0,-163v62,30,124,45,186,45v129,0,194,-94,194,-283r0,-1038r187,0r0,1026v0,304,-122,456,-365,456v-89,0,-156,-14,-202,-43"},"\u0133":{"d":"401,-1436v0,71,-43,115,-106,115v-71,0,-107,-38,-107,-115v0,-76,36,-114,107,-114v71,0,106,38,106,114xm1034,-1436v0,71,-43,115,-106,115v-71,0,-107,-38,-107,-115v0,-76,36,-114,107,-114v71,0,106,38,106,114xm203,-1098r182,0r0,1098r-182,0r0,-1098xm1038,117v3,227,-108,374,-321,375v-82,0,-154,-12,-215,-35r0,-154v59,26,122,39,190,39v109,0,164,-72,164,-215r0,-1081r-215,-21r0,-123r397,0r0,1215"},"\u0134":{"d":"979,-451v2,294,-216,471,-518,471v-145,0,-253,-20,-324,-59r0,-166v108,41,211,62,309,62v206,2,347,-105,347,-306r0,-1013r186,0r0,1011xm1214,-1579r-121,0v-57,-37,-127,-99,-211,-186v-89,91,-159,153,-211,186r-120,0r0,-27v80,-89,215,-243,235,-301r193,0v21,58,155,212,235,301r0,27"},"\u0135":{"d":"854,117v0,250,-172,375,-432,375v-109,0,-205,-12,-287,-35r0,-154v89,26,186,39,289,39v147,0,248,-74,248,-215r0,-1081r-420,-21r0,-123r602,0r0,1215xm966,-1241r-121,0v-57,-37,-127,-99,-211,-186v-89,91,-159,153,-211,186r-120,0r0,-27v80,-89,215,-243,235,-301r193,0v21,58,155,212,235,301r0,27"},"\u0136":{"d":"772,145v-17,75,-104,246,-163,308r-99,0r0,-27v41,-93,69,-194,84,-301r178,0r0,20xm1198,0r-211,0r-450,-698r-140,114r0,584r-186,0r0,-1462r186,0r0,731r121,-168r453,-563r209,0r-521,637"},"\u0137":{"d":"747,145v-17,75,-104,246,-163,308r-99,0r0,-27v41,-93,69,-194,84,-301r178,0r0,20xm383,-553r135,-152r395,-393r222,0r-494,475r522,623r-213,0r-426,-504r-129,82r0,422r-180,0r0,-1556r180,0r0,714r-16,289r4,0"},"\u0138":{"d":"383,-508r137,-166r402,-424r213,0r-494,510r522,588r-213,0r-426,-469r-129,82r0,387r-180,0r0,-1098r180,0r0,291r-16,299r4,0"},"\u0139":{"d":"233,0r0,-1462r187,0r0,1296r635,0r0,166r-822,0xm263,-1606v63,-89,121,-189,174,-301r219,0r0,21v-75,115,-165,218,-272,307r-121,0r0,-27"},"\u013a":{"d":"532,-1413r-268,-21r0,-122r451,0r0,1413r352,20r0,123r-879,0r0,-123r344,-20r0,-1270xm496,-1663v63,-89,121,-189,174,-301r219,0r0,21v-75,115,-165,218,-272,307r-121,0r0,-27"},"\u013b":{"d":"753,145v-17,75,-104,246,-163,308r-99,0r0,-27v41,-93,69,-194,84,-301r178,0r0,20xm233,0r0,-1462r187,0r0,1296r635,0r0,166r-822,0"},"\u013c":{"d":"723,145v-17,75,-104,246,-163,308r-99,0r0,-27v41,-93,69,-194,84,-301r178,0r0,20xm532,-1413r-268,-21r0,-122r451,0r0,1413r352,20r0,123r-879,0r0,-123r344,-20r0,-1270"},"\u013d":{"d":"991,-1443v-19,71,-93,235,-145,307r-96,0v0,-53,17,-88,26,-133v16,-78,29,-142,35,-194r180,0r0,20xm233,0r0,-1462r187,0r0,1296r635,0r0,166r-822,0"},"\u013e":{"d":"1106,-1536v-19,71,-93,235,-145,307r-96,0v0,-53,17,-88,26,-133v16,-78,29,-142,35,-194r180,0r0,20xm532,-1413r-268,-21r0,-122r451,0r0,1413r352,20r0,123r-879,0r0,-123r344,-20r0,-1270"},"\u013f":{"d":"233,0r0,-1462r187,0r0,1296r635,0r0,166r-822,0xm856,-889v71,0,107,38,107,114v0,77,-36,115,-107,115v-71,0,-106,-38,-106,-115v0,-76,35,-114,106,-114"},"\u0140":{"d":"532,-1413r-268,-21r0,-122r451,0r0,1413r352,20r0,123r-879,0r0,-123r344,-20r0,-1270xm972,-797v71,0,107,38,107,114v0,77,-36,115,-107,115v-71,0,-106,-38,-106,-115v0,-76,35,-114,106,-114"},"\u0141":{"d":"270,0r0,-492r-125,78r-73,-125r198,-125r0,-798r187,0r0,680r299,-189r78,125r-377,238r0,442r635,0r0,166r-822,0"},"\u0142":{"d":"532,-592r-141,92r-78,-121r219,-143r0,-649r-268,-21r0,-122r451,0r0,673r164,-108r77,121r-241,159r0,568r352,20r0,123r-879,0r0,-123r344,-20r0,-449"},"\u0143":{"d":"1092,0r-215,0r-580,-1210r-8,0v32,455,13,762,18,1210r-172,0r0,-1462r213,0r578,1204r6,0v-9,-202,-14,-337,-14,-404r0,-800r174,0r0,1462xm516,-1606v63,-89,121,-189,174,-301r219,0r0,21v-75,115,-165,218,-272,307r-121,0r0,-27"},"\u0144":{"d":"887,0r0,-707v0,-173,-79,-260,-238,-260v-205,0,-307,133,-307,398r0,569r-182,0r0,-1098r147,0r27,148r10,0v69,-112,181,-168,336,-168v259,0,389,134,389,401r0,717r-182,0xm529,-1268v63,-89,121,-189,174,-301r219,0r0,21v-75,115,-165,218,-272,307r-121,0r0,-27"},"\u0145":{"d":"695,145v-17,75,-104,246,-163,308r-99,0r0,-27v41,-93,69,-194,84,-301r178,0r0,20xm1092,0r-215,0r-580,-1210r-8,0v32,455,13,762,18,1210r-172,0r0,-1462r213,0r578,1204r6,0v-9,-202,-14,-337,-14,-404r0,-800r174,0r0,1462"},"\u0146":{"d":"717,145v-17,75,-104,246,-163,308r-99,0r0,-27v41,-93,69,-194,84,-301r178,0r0,20xm887,0r0,-707v0,-173,-79,-260,-238,-260v-205,0,-307,133,-307,398r0,569r-182,0r0,-1098r147,0r27,148r10,0v69,-112,181,-168,336,-168v259,0,389,134,389,401r0,717r-182,0"},"\u0147":{"d":"1092,0r-215,0r-580,-1210r-8,0v32,455,13,762,18,1210r-172,0r0,-1462r213,0r578,1204r6,0v-9,-202,-14,-337,-14,-404r0,-800r174,0r0,1462xm943,-1880v-80,89,-217,247,-235,301r-193,0v-19,-55,-155,-212,-235,-301r0,-27r120,0v55,36,125,98,211,187v81,-85,152,-148,211,-187r121,0r0,27"},"\u0148":{"d":"887,0r0,-707v0,-173,-79,-260,-238,-260v-205,0,-307,133,-307,398r0,569r-182,0r0,-1098r147,0r27,148r10,0v69,-112,181,-168,336,-168v259,0,389,134,389,401r0,717r-182,0xm958,-1542v-80,89,-217,247,-235,301r-193,0v-19,-55,-155,-212,-235,-301r0,-27r120,0v55,36,125,98,211,187v81,-85,152,-148,211,-187r121,0r0,27"},"\u0149":{"d":"283,-1462r14,22v-33,131,-92,291,-176,479r-137,0v40,-161,73,-328,100,-501r199,0xm446,-950v50,-98,175,-168,318,-168v244,0,366,134,366,401r0,717r-182,0r0,-707v0,-173,-73,-260,-219,-260v-190,0,-285,133,-285,398r0,569r-182,0r0,-1098r148,0r26,148r10,0"},"\u014a":{"d":"1092,-20v2,258,-134,409,-387,409v-63,0,-115,-8,-156,-24r0,-160v51,13,104,20,158,20v141,0,211,-75,211,-225r-621,-1210r-8,0v32,455,13,762,18,1210r-172,0r0,-1462r213,0r578,1128r10,0v-32,-433,-13,-706,-18,-1128r174,0r0,1442"},"\u014b":{"d":"342,0r-182,0r0,-1098r147,0r27,148r10,0v69,-112,181,-168,336,-168v259,0,389,134,389,401r0,875v0,223,-97,334,-291,334v-54,0,-98,-8,-133,-25r0,-148v36,14,74,21,115,21v85,0,127,-57,127,-170r0,-877v0,-173,-79,-260,-238,-260v-205,0,-307,133,-307,398r0,569"},"\u014c":{"d":"616,20v-355,0,-532,-252,-532,-755v0,-500,178,-750,534,-750v171,0,296,68,392,195v178,236,178,880,-1,1114v-97,127,-223,196,-393,196xm616,-143v115,0,196,-51,254,-145v103,-168,102,-725,-2,-890v-59,-92,-137,-143,-250,-143v-225,0,-337,196,-337,588v0,393,112,590,335,590xm330,-1729r575,0r0,150r-575,0r0,-150"},"\u014d":{"d":"1112,-551v0,333,-186,571,-502,571v-301,0,-495,-250,-495,-571v0,-332,183,-567,501,-567v302,0,496,247,496,567xm614,-131v207,0,310,-140,310,-420v0,-277,-104,-416,-312,-416v-206,0,-309,139,-309,416v0,280,104,420,311,420xm326,-1391r575,0r0,150r-575,0r0,-150"},"\u014e":{"d":"616,20v-355,0,-532,-252,-532,-755v0,-500,178,-750,534,-750v171,0,296,68,392,195v178,236,178,880,-1,1114v-97,127,-223,196,-393,196xm616,-143v115,0,196,-51,254,-145v103,-168,102,-725,-2,-890v-59,-92,-137,-143,-250,-143v-225,0,-337,196,-337,588v0,393,112,590,335,590xm421,-1856v13,112,59,125,190,125v121,0,184,-42,191,-125r112,0v-11,167,-125,277,-305,277v-187,0,-286,-92,-297,-277r109,0"},"\u014f":{"d":"1112,-551v0,333,-186,571,-502,571v-301,0,-495,-250,-495,-571v0,-332,183,-567,501,-567v302,0,496,247,496,567xm614,-131v207,0,310,-140,310,-420v0,-277,-104,-416,-312,-416v-206,0,-309,139,-309,416v0,280,104,420,311,420xm422,-1518v13,112,59,125,190,125v121,0,184,-42,191,-125r112,0v-11,167,-125,277,-305,277v-187,0,-286,-92,-297,-277r109,0"},"\u0150":{"d":"616,20v-355,0,-532,-252,-532,-755v0,-500,178,-750,534,-750v171,0,296,68,392,195v178,236,178,880,-1,1114v-97,127,-223,196,-393,196xm616,-143v115,0,196,-51,254,-145v103,-168,102,-725,-2,-890v-59,-92,-137,-143,-250,-143v-225,0,-337,196,-337,588v0,393,112,590,335,590xm326,-1606v63,-89,121,-189,174,-301r198,0r0,21v-75,115,-165,218,-272,307r-100,0r0,-27xm688,-1606v58,-79,116,-179,174,-301r199,0r0,21v-75,115,-165,218,-272,307r-101,0r0,-27"},"\u0151":{"d":"1112,-551v0,333,-186,571,-502,571v-301,0,-495,-250,-495,-571v0,-332,183,-567,501,-567v302,0,496,247,496,567xm614,-131v207,0,310,-140,310,-420v0,-277,-104,-416,-312,-416v-206,0,-309,139,-309,416v0,280,104,420,311,420xm328,-1268v63,-89,121,-189,174,-301r198,0r0,21v-75,115,-165,218,-272,307r-100,0r0,-27xm690,-1268v58,-79,116,-179,174,-301r199,0r0,21v-75,115,-165,218,-272,307r-101,0r0,-27"},"\u0152":{"d":"1227,0r-574,0v-43,9,-98,21,-145,20v-325,0,-488,-252,-488,-755v0,-500,171,-750,512,-750v55,0,106,8,154,23r541,0r0,164r-398,0r0,452r359,0r0,162r-359,0r0,520r398,0r0,164xm651,-176r0,-1112v-39,-22,-82,-33,-131,-33v-207,0,-311,196,-311,588v0,393,103,590,309,590v47,0,91,-11,133,-33"},"\u0153":{"d":"911,20v-133,0,-229,-103,-260,-221v-59,147,-147,221,-266,221v-97,0,-173,-54,-237,-154v-118,-184,-118,-651,-3,-834v61,-98,139,-150,242,-150v114,0,201,72,260,217v56,-145,137,-217,242,-217v87,0,155,46,208,134v66,109,83,282,77,470r-439,0v2,250,65,375,189,375v72,0,140,-25,204,-76r0,162v-63,49,-135,73,-217,73xm397,-131v112,0,168,-137,168,-410v0,-284,-57,-426,-170,-426v-60,0,-101,35,-129,103v-50,121,-50,508,0,628v29,69,70,105,131,105xm997,-662v0,-203,-41,-305,-123,-305v-83,0,-129,102,-137,305r260,0"},"\u0154":{"d":"373,-604r0,604r-187,0r0,-1462r357,0v347,0,520,138,520,415v0,191,-96,322,-289,392r397,655r-219,0r-350,-604r-229,0xm870,-1038v0,-206,-118,-263,-338,-265r-159,0r0,541r164,0v216,-1,333,-71,333,-276xm447,-1606v63,-89,121,-189,174,-301r219,0r0,21v-75,115,-165,218,-272,307r-121,0r0,-27"},"\u0155":{"d":"442,-897v92,-139,175,-221,377,-221v79,0,159,15,240,45r-49,166v-82,-30,-157,-45,-224,-45v-221,0,-340,133,-340,360r0,592r-182,0r0,-1098r148,0r22,201r8,0xm510,-1268v63,-89,121,-189,174,-301r219,0r0,21v-75,115,-165,218,-272,307r-121,0r0,-27"},"\u0156":{"d":"742,145v-17,75,-104,246,-163,308r-99,0r0,-27v41,-93,69,-194,84,-301r178,0r0,20xm373,-604r0,604r-187,0r0,-1462r357,0v347,0,520,138,520,415v0,191,-96,322,-289,392r397,655r-219,0r-350,-604r-229,0xm870,-1038v0,-206,-118,-263,-338,-265r-159,0r0,541r164,0v216,-1,333,-71,333,-276"},"\u0157":{"d":"449,145v-17,75,-104,246,-163,308r-99,0r0,-27v41,-93,69,-194,84,-301r178,0r0,20xm442,-897v92,-139,175,-221,377,-221v79,0,159,15,240,45r-49,166v-82,-30,-157,-45,-224,-45v-221,0,-340,133,-340,360r0,592r-182,0r0,-1098r148,0r22,201r8,0"},"\u0158":{"d":"373,-604r0,604r-187,0r0,-1462r357,0v347,0,520,138,520,415v0,191,-96,322,-289,392r397,655r-219,0r-350,-604r-229,0xm870,-1038v0,-206,-118,-263,-338,-265r-159,0r0,541r164,0v216,-1,333,-71,333,-276xm916,-1880v-80,89,-217,247,-235,301r-193,0v-19,-55,-155,-212,-235,-301r0,-27r120,0v55,36,125,98,211,187v81,-85,152,-148,211,-187r121,0r0,27"},"\u0159":{"d":"442,-897v92,-139,175,-221,377,-221v79,0,159,15,240,45r-49,166v-82,-30,-157,-45,-224,-45v-221,0,-340,133,-340,360r0,592r-182,0r0,-1098r148,0r22,201r8,0xm958,-1542v-80,89,-217,247,-235,301r-193,0v-19,-55,-155,-212,-235,-301r0,-27r120,0v55,36,125,98,211,187v81,-85,152,-148,211,-187r121,0r0,27"},"\u015a":{"d":"1087,-391v0,280,-225,411,-532,411v-177,0,-315,-23,-414,-69r0,-178v141,57,279,86,414,86v233,0,350,-80,350,-240v0,-69,-24,-123,-71,-160v-47,-37,-142,-82,-285,-133v-139,-49,-239,-106,-299,-174v-60,-68,-90,-156,-90,-264v2,-251,210,-371,481,-371v153,0,291,26,416,78r-64,164v-129,-52,-249,-78,-360,-78v-195,0,-293,70,-293,209v0,68,22,123,66,164v44,41,134,85,270,133v164,58,273,119,328,181v55,62,83,143,83,241xm514,-1606v63,-89,121,-189,174,-301r219,0r0,21v-75,115,-165,218,-272,307r-121,0r0,-27"},"\u015b":{"d":"1026,-301v0,224,-196,321,-448,321v-165,0,-290,-23,-375,-69r0,-166v129,57,252,86,370,86v183,0,275,-54,275,-162v0,-38,-16,-71,-49,-99v-33,-28,-108,-63,-226,-106v-156,-57,-253,-112,-293,-160v-40,-48,-61,-105,-61,-171v2,-336,521,-342,789,-217r-60,149v-121,-48,-228,-72,-319,-72v-157,0,-236,44,-236,133v0,41,17,74,51,98v34,24,111,57,232,101v141,51,234,101,280,151v46,50,70,111,70,183xm512,-1268v63,-89,121,-189,174,-301r219,0r0,21v-75,115,-165,218,-272,307r-121,0r0,-27"},"\u015c":{"d":"1087,-391v0,280,-225,411,-532,411v-177,0,-315,-23,-414,-69r0,-178v141,57,279,86,414,86v233,0,350,-80,350,-240v0,-69,-24,-123,-71,-160v-47,-37,-142,-82,-285,-133v-139,-49,-239,-106,-299,-174v-60,-68,-90,-156,-90,-264v2,-251,210,-371,481,-371v153,0,291,26,416,78r-64,164v-129,-52,-249,-78,-360,-78v-195,0,-293,70,-293,209v0,68,22,123,66,164v44,41,134,85,270,133v164,58,273,119,328,181v55,62,83,143,83,241xm966,-1579r-121,0v-57,-37,-127,-99,-211,-186v-89,91,-159,153,-211,186r-120,0r0,-27v80,-89,215,-243,235,-301r193,0v21,58,155,212,235,301r0,27"},"\u015d":{"d":"1026,-301v0,224,-196,321,-448,321v-165,0,-290,-23,-375,-69r0,-166v129,57,252,86,370,86v183,0,275,-54,275,-162v0,-38,-16,-71,-49,-99v-33,-28,-108,-63,-226,-106v-156,-57,-253,-112,-293,-160v-40,-48,-61,-105,-61,-171v2,-336,521,-342,789,-217r-60,149v-121,-48,-228,-72,-319,-72v-157,0,-236,44,-236,133v0,41,17,74,51,98v34,24,111,57,232,101v141,51,234,101,280,151v46,50,70,111,70,183xm969,-1241r-121,0v-57,-37,-127,-99,-211,-186v-89,91,-159,153,-211,186r-120,0r0,-27v80,-89,215,-243,235,-301r193,0v21,58,155,212,235,301r0,27"},"\u015e":{"d":"1087,-391v0,280,-225,411,-532,411v-177,0,-315,-23,-414,-69r0,-178v141,57,279,86,414,86v233,0,350,-80,350,-240v0,-69,-24,-123,-71,-160v-47,-37,-142,-82,-285,-133v-139,-49,-239,-106,-299,-174v-60,-68,-90,-156,-90,-264v2,-251,210,-371,481,-371v153,0,291,26,416,78r-64,164v-129,-52,-249,-78,-360,-78v-195,0,-293,70,-293,209v0,68,22,123,66,164v44,41,134,85,270,133v164,58,273,119,328,181v55,62,83,143,83,241xm406,483r0,-108v22,4,49,6,80,6v101,0,151,-31,151,-92v0,-49,-57,-87,-172,-113r91,-176r120,0r-57,115v107,25,160,82,160,172v0,137,-97,205,-291,205v-23,0,-50,-3,-82,-9"},"\u015f":{"d":"1026,-301v0,224,-196,321,-448,321v-165,0,-290,-23,-375,-69r0,-166v129,57,252,86,370,86v183,0,275,-54,275,-162v0,-38,-16,-71,-49,-99v-33,-28,-108,-63,-226,-106v-156,-57,-253,-112,-293,-160v-40,-48,-61,-105,-61,-171v2,-336,521,-342,789,-217r-60,149v-121,-48,-228,-72,-319,-72v-157,0,-236,44,-236,133v0,41,17,74,51,98v34,24,111,57,232,101v141,51,234,101,280,151v46,50,70,111,70,183xm419,483r0,-108v22,4,49,6,80,6v101,0,151,-31,151,-92v0,-49,-57,-87,-172,-113r91,-176r120,0r-57,115v107,25,160,82,160,172v0,137,-97,205,-291,205v-23,0,-50,-3,-82,-9"},"\u0160":{"d":"1087,-391v0,280,-225,411,-532,411v-177,0,-315,-23,-414,-69r0,-178v141,57,279,86,414,86v233,0,350,-80,350,-240v0,-69,-24,-123,-71,-160v-47,-37,-142,-82,-285,-133v-139,-49,-239,-106,-299,-174v-60,-68,-90,-156,-90,-264v2,-251,210,-371,481,-371v153,0,291,26,416,78r-64,164v-129,-52,-249,-78,-360,-78v-195,0,-293,70,-293,209v0,68,22,123,66,164v44,41,134,85,270,133v164,58,273,119,328,181v55,62,83,143,83,241xm977,-1880v-80,89,-217,247,-235,301r-193,0v-19,-55,-155,-212,-235,-301r0,-27r120,0v55,36,125,98,211,187v81,-85,152,-148,211,-187r121,0r0,27"},"\u0161":{"d":"1026,-301v0,224,-196,321,-448,321v-165,0,-290,-23,-375,-69r0,-166v129,57,252,86,370,86v183,0,275,-54,275,-162v0,-38,-16,-71,-49,-99v-33,-28,-108,-63,-226,-106v-156,-57,-253,-112,-293,-160v-40,-48,-61,-105,-61,-171v2,-336,521,-342,789,-217r-60,149v-121,-48,-228,-72,-319,-72v-157,0,-236,44,-236,133v0,41,17,74,51,98v34,24,111,57,232,101v141,51,234,101,280,151v46,50,70,111,70,183xm956,-1542v-80,89,-217,247,-235,301r-193,0v-19,-55,-155,-212,-235,-301r0,-27r120,0v55,36,125,98,211,187v81,-85,152,-148,211,-187r121,0r0,27"},"\u0162":{"d":"711,145v-17,75,-104,246,-163,308r-99,0r0,-27v41,-93,69,-194,84,-301r178,0r0,20xm707,0r-187,0r0,-1298r-418,0r0,-164r1022,0r0,164r-417,0r0,1298"},"\u0163":{"d":"751,145v-17,75,-104,246,-163,308r-99,0r0,-27v41,-93,69,-194,84,-301r178,0r0,20xm1020,-150r0,138v-87,21,-171,32,-252,32v-241,0,-362,-115,-362,-344r0,-637r-267,0r0,-94r267,-49r77,-287r105,0r0,293r438,0r0,137r-438,0r0,637v0,130,64,195,192,195v62,0,142,-7,240,-21"},"\u0164":{"d":"707,0r-187,0r0,-1298r-418,0r0,-164r1022,0r0,164r-417,0r0,1298xm945,-1880v-80,89,-217,247,-235,301r-193,0v-19,-55,-155,-212,-235,-301r0,-27r120,0v55,36,125,98,211,187v81,-85,152,-148,211,-187r121,0r0,27"},"\u0165":{"d":"1040,-1536v-19,71,-93,235,-145,307r-96,0v0,-53,17,-88,26,-133v16,-78,29,-142,35,-194r180,0r0,20xm1020,-150r0,138v-87,21,-171,32,-252,32v-241,0,-362,-115,-362,-344r0,-637r-267,0r0,-94r267,-49r77,-287r105,0r0,293r438,0r0,137r-438,0r0,637v0,130,64,195,192,195v62,0,142,-7,240,-21"},"\u0166":{"d":"520,-819r0,-479r-418,0r0,-164r1022,0r0,164r-417,0r0,479r294,0r0,149r-294,0r0,670r-187,0r0,-670r-297,0r0,-149r297,0"},"\u0167":{"d":"1020,-150r0,138v-87,21,-171,32,-252,32v-241,0,-362,-115,-362,-344r0,-251r-162,0r0,-138r162,0r0,-248r-267,0r0,-94r267,-49r77,-287r105,0r0,293r438,0r0,137r-438,0r0,248r307,0r0,138r-307,0r0,251v0,130,64,195,192,195v62,0,142,-7,240,-21"},"\u0168":{"d":"1104,-516v1,338,-164,536,-496,536v-322,0,-483,-180,-483,-540r0,-942r186,0r0,932v0,258,102,387,307,387v197,0,300,-130,300,-389r0,-932r186,0r0,948xm768,-1581v-60,13,-245,-113,-297,-113v-55,0,-90,38,-107,115r-104,0v17,-176,87,-264,211,-264v58,-14,251,112,297,112v53,0,89,-38,106,-114r105,0v-18,176,-88,264,-211,264"},"\u0169":{"d":"578,-131v238,0,309,-137,309,-397r0,-570r182,0r0,1098r-147,0r-27,-147r-10,0v-70,111,-181,167,-334,167v-261,0,-391,-134,-391,-401r0,-717r182,0r0,707v0,173,79,260,236,260xm764,-1243v-60,13,-245,-113,-297,-113v-55,0,-90,38,-107,115r-104,0v17,-176,87,-264,211,-264v58,-14,251,112,297,112v53,0,89,-38,106,-114r105,0v-18,176,-88,264,-211,264"},"\u016a":{"d":"1104,-516v1,338,-164,536,-496,536v-322,0,-483,-180,-483,-540r0,-942r186,0r0,932v0,258,102,387,307,387v197,0,300,-130,300,-389r0,-932r186,0r0,948xm326,-1729r575,0r0,150r-575,0r0,-150"},"\u016b":{"d":"578,-131v238,0,309,-137,309,-397r0,-570r182,0r0,1098r-147,0r-27,-147r-10,0v-70,111,-181,167,-334,167v-261,0,-391,-134,-391,-401r0,-717r182,0r0,707v0,173,79,260,236,260xm328,-1391r575,0r0,150r-575,0r0,-150"},"\u016c":{"d":"1104,-516v1,338,-164,536,-496,536v-322,0,-483,-180,-483,-540r0,-942r186,0r0,932v0,258,102,387,307,387v197,0,300,-130,300,-389r0,-932r186,0r0,948xm421,-1856v13,112,59,125,190,125v121,0,184,-42,191,-125r112,0v-11,167,-125,277,-305,277v-187,0,-286,-92,-297,-277r109,0"},"\u016d":{"d":"578,-131v238,0,309,-137,309,-397r0,-570r182,0r0,1098r-147,0r-27,-147r-10,0v-70,111,-181,167,-334,167v-261,0,-391,-134,-391,-401r0,-717r182,0r0,707v0,173,79,260,236,260xm422,-1518v13,112,59,125,190,125v121,0,184,-42,191,-125r112,0v-11,167,-125,277,-305,277v-187,0,-286,-92,-297,-277r109,0"},"\u016e":{"d":"1104,-516v1,338,-164,536,-496,536v-322,0,-483,-180,-483,-540r0,-942r186,0r0,932v0,258,102,387,307,387v197,0,300,-130,300,-389r0,-932r186,0r0,948xm842,-1796v0,131,-97,217,-230,217v-133,0,-223,-83,-223,-215v0,-132,90,-215,223,-215v130,0,230,86,230,213xm725,-1794v0,-69,-46,-113,-113,-113v-66,0,-112,45,-112,113v0,75,37,113,112,113v67,0,113,-44,113,-113"},"\u016f":{"d":"578,-131v238,0,309,-137,309,-397r0,-570r182,0r0,1098r-147,0r-27,-147r-10,0v-70,111,-181,167,-334,167v-261,0,-391,-134,-391,-401r0,-717r182,0r0,707v0,173,79,260,236,260xm837,-1458v0,131,-97,217,-230,217v-133,0,-223,-83,-223,-215v0,-132,90,-215,223,-215v130,0,230,86,230,213xm720,-1456v0,-69,-46,-113,-113,-113v-66,0,-112,45,-112,113v0,75,37,113,112,113v67,0,113,-44,113,-113"},"\u0170":{"d":"1104,-516v1,338,-164,536,-496,536v-322,0,-483,-180,-483,-540r0,-942r186,0r0,932v0,258,102,387,307,387v197,0,300,-130,300,-389r0,-932r186,0r0,948xm322,-1606v63,-89,121,-189,174,-301r198,0r0,21v-75,115,-165,218,-272,307r-100,0r0,-27xm684,-1606v58,-79,116,-179,174,-301r199,0r0,21v-75,115,-165,218,-272,307r-101,0r0,-27"},"\u0171":{"d":"578,-131v238,0,309,-137,309,-397r0,-570r182,0r0,1098r-147,0r-27,-147r-10,0v-70,111,-181,167,-334,167v-261,0,-391,-134,-391,-401r0,-717r182,0r0,707v0,173,79,260,236,260xm326,-1268v63,-89,121,-189,174,-301r198,0r0,21v-75,115,-165,218,-272,307r-100,0r0,-27xm688,-1268v58,-79,116,-179,174,-301r199,0r0,21v-75,115,-165,218,-272,307r-101,0r0,-27"},"\u0172":{"d":"1104,-516v1,338,-164,536,-496,536v-322,0,-483,-180,-483,-540r0,-942r186,0r0,932v0,258,102,387,307,387v197,0,300,-130,300,-389r0,-932r186,0r0,948xm686,455v-146,2,-245,-68,-245,-203v0,-96,63,-180,190,-252r131,0v-113,83,-170,163,-170,238v0,64,42,96,127,96v44,0,85,-5,123,-15r0,113v-49,15,-101,23,-156,23"},"\u0173":{"d":"578,-131v238,0,309,-137,309,-397r0,-570r182,0r0,1098r-147,0r-27,-147r-10,0v-70,111,-181,167,-334,167v-261,0,-391,-134,-391,-401r0,-717r182,0r0,707v0,173,79,260,236,260xm968,455v-146,2,-245,-68,-245,-203v0,-96,63,-180,190,-252r131,0v-113,83,-170,163,-170,238v0,64,42,96,127,96v44,0,85,-5,123,-15r0,113v-49,15,-101,23,-156,23"},"\u0174":{"d":"528,-1008r177,0r145,521v41,146,65,248,72,307r135,-1282r170,0r-187,1462r-190,0r-168,-580v-27,-92,-49,-186,-66,-282v-63,326,-145,561,-221,862r-190,0r-203,-1462r170,0r88,663v21,146,52,493,57,619v48,-282,143,-559,211,-828xm948,-1579r-121,0v-57,-37,-127,-99,-211,-186v-89,91,-159,153,-211,186r-120,0r0,-27v80,-89,215,-243,235,-301r193,0v21,58,155,212,235,301r0,27"},"\u0175":{"d":"813,0r-131,-596r-68,-330r-6,0r-65,334r-135,592r-189,0r-223,-1098r162,0r98,543v23,124,42,255,57,393r6,0v53,-329,131,-625,201,-936r193,0r127,578v29,130,51,249,67,358r6,0v21,-161,41,-292,60,-393r102,-543r158,0r-225,1098r-195,0xm943,-1241r-121,0v-57,-37,-127,-99,-211,-186v-89,91,-159,153,-211,186r-120,0r0,-27v80,-89,215,-243,235,-301r193,0v21,58,155,212,235,301r0,27"},"\u0176":{"d":"612,-723r381,-739r201,0r-487,893r0,569r-187,0r0,-559r-487,-903r203,0xm945,-1579r-121,0v-57,-37,-127,-99,-211,-186v-89,91,-159,153,-211,186r-120,0r0,-27v80,-89,215,-243,235,-301r193,0v21,58,155,212,235,301r0,27"},"\u0177":{"d":"82,-1098r188,0r262,654v55,137,84,233,89,290r6,0v75,-299,228,-650,329,-944r189,0r-475,1241v-45,116,-98,201,-156,261v-88,91,-259,104,-414,71r0,-145v92,18,226,18,286,-29v67,-53,115,-194,153,-291xm948,-1241r-121,0v-57,-37,-127,-99,-211,-186v-89,91,-159,153,-211,186r-120,0r0,-27v80,-89,215,-243,235,-301r193,0v21,58,155,212,235,301r0,27"},"\u0178":{"d":"612,-723r381,-739r201,0r-487,893r0,569r-187,0r0,-559r-487,-903r203,0xm428,-1835v64,0,96,34,96,102v0,69,-32,103,-96,103v-64,0,-96,-34,-96,-103v0,-68,32,-102,96,-102xm803,-1835v64,0,96,34,96,102v0,69,-32,103,-96,103v-64,0,-96,-34,-96,-103v0,-68,32,-102,96,-102"},"\u0179":{"d":"1124,0r-1022,0r0,-145r793,-1151r-772,0r0,-166r981,0r0,145r-793,1151r813,0r0,166xm475,-1606v63,-89,121,-189,174,-301r219,0r0,21v-75,115,-165,218,-272,307r-121,0r0,-27"},"\u017a":{"d":"1044,0r-862,0r0,-125r660,-836r-627,0r0,-137r811,0r0,146r-647,815r665,0r0,137xm496,-1268v63,-89,121,-189,174,-301r219,0r0,21v-75,115,-165,218,-272,307r-121,0r0,-27"},"\u017b":{"d":"1124,0r-1022,0r0,-145r793,-1151r-772,0r0,-166r981,0r0,145r-793,1151r813,0r0,166xm630,-1847v71,0,107,38,107,114v0,77,-36,115,-107,115v-71,0,-106,-38,-106,-115v0,-76,35,-114,106,-114"},"\u017c":{"d":"1044,0r-862,0r0,-125r660,-836r-627,0r0,-137r811,0r0,146r-647,815r665,0r0,137xm630,-1509v71,0,107,38,107,114v0,77,-36,115,-107,115v-71,0,-106,-38,-106,-115v0,-76,35,-114,106,-114"},"\u017d":{"d":"1124,0r-1022,0r0,-145r793,-1151r-772,0r0,-166r981,0r0,145r-793,1151r813,0r0,166xm945,-1880v-80,89,-217,247,-235,301r-193,0v-19,-55,-155,-212,-235,-301r0,-27r120,0v55,36,125,98,211,187v81,-85,152,-148,211,-187r121,0r0,27"},"\u017e":{"d":"1044,0r-862,0r0,-125r660,-836r-627,0r0,-137r811,0r0,146r-647,815r665,0r0,137xm958,-1542v-80,89,-217,247,-235,301r-193,0v-19,-55,-155,-212,-235,-301r0,-27r120,0v55,36,125,98,211,187v81,-85,152,-148,211,-187r121,0r0,27"},"\u017f":{"d":"356,-1200v3,-263,117,-366,389,-367v83,0,174,12,273,35r-41,143v-70,-19,-146,-28,-227,-28v-161,0,-211,54,-211,215r0,1202r-183,0r0,-1200"},"\u0192":{"d":"823,-1333v-134,2,-155,74,-155,215r0,145r245,0r0,137r-245,0r0,961v-2,249,-86,365,-332,367v-34,0,-74,-5,-121,-15r0,-153v39,12,78,18,115,18v134,-2,155,-74,155,-215r0,-963r-194,0r0,-75r194,-68r0,-137v2,-249,86,-365,332,-367v65,0,130,12,197,37r-47,141v-53,-19,-101,-28,-144,-28"},"\u01fa":{"d":"1004,0r-144,-453r-491,0r-146,453r-190,0r483,-1468r195,0r485,1468r-192,0xm807,-618r-133,-424v-26,-83,-47,-158,-62,-226v-51,233,-127,431,-190,650r385,0xm842,-1583v0,131,-97,217,-230,217v-133,0,-223,-83,-223,-215v0,-132,90,-215,223,-215v130,0,230,86,230,213xm725,-1581v0,-69,-46,-113,-113,-113v-66,0,-112,45,-112,113v0,75,37,113,112,113v67,0,113,-44,113,-113xm490,-1862v63,-89,121,-189,174,-301r219,0r0,21v-75,115,-165,218,-272,307r-121,0r0,-27"},"\u01fb":{"d":"596,-1118v288,1,430,93,430,366r0,752r-131,0r-37,-152r-8,0v-97,118,-171,170,-367,172v-212,3,-348,-118,-348,-327v0,-221,170,-337,510,-348r203,-7v14,-196,-54,-305,-244,-305v-98,0,-207,27,-328,82r-63,-137v131,-64,258,-96,383,-96xm524,-127v194,1,325,-115,322,-311r0,-99v-248,13,-523,-5,-522,232v0,119,67,178,200,178xm840,-1458v0,131,-97,217,-230,217v-133,0,-223,-83,-223,-215v0,-132,90,-215,223,-215v130,0,230,86,230,213xm723,-1456v0,-69,-46,-113,-113,-113v-66,0,-112,45,-112,113v0,75,37,113,112,113v67,0,113,-44,113,-113xm512,-1747v63,-89,121,-189,174,-301r219,0r0,21v-75,115,-165,218,-272,307r-121,0r0,-27"},"\u01fc":{"d":"1210,0r-653,0r0,-453r-289,0r-96,453r-172,0r338,-1462r872,0r0,164r-477,0r0,452r438,0r0,162r-438,0r0,520r477,0r0,164xm305,-618r252,0r0,-680r-106,0xm631,-1606v63,-89,121,-189,174,-301r219,0r0,21v-75,115,-165,218,-272,307r-121,0r0,-27"},"\u01fd":{"d":"301,20v-167,0,-256,-142,-256,-327v0,-221,109,-337,328,-348r149,-7r0,-69v0,-157,-46,-236,-139,-236v-71,0,-142,27,-211,82r-57,-137v170,-134,458,-146,522,82v83,-220,343,-235,463,-42v70,114,92,277,86,468r-496,0v2,128,24,223,67,284v96,136,260,103,402,15r0,162v-71,49,-152,73,-241,73v-148,0,-253,-76,-316,-229v-70,153,-170,229,-301,229xm694,-662r316,0v0,-94,-14,-168,-40,-223v-51,-108,-169,-108,-225,-4v-29,53,-47,128,-51,227xm334,-127v131,0,189,-151,186,-311r0,-99r-88,7v-145,11,-217,86,-217,225v0,96,35,178,119,178xm531,-1268v63,-89,121,-189,174,-301r219,0r0,21v-75,115,-165,218,-272,307r-121,0r0,-27"},"\u01fe":{"d":"309,-74r-92,150r-137,-78r121,-197v-78,-123,-117,-301,-117,-536v0,-500,178,-750,534,-750v124,0,227,35,310,105r92,-152r137,78r-125,201v77,125,115,299,115,520v0,241,-46,426,-138,557v-92,131,-223,196,-393,196v-126,0,-228,-31,-307,-94xm319,-391r515,-836v-53,-63,-125,-94,-216,-94v-225,0,-337,196,-337,588v0,141,13,255,38,342xm915,-1061r-512,832v53,57,124,86,213,86v115,0,200,-48,254,-145v54,-97,80,-245,80,-445v0,-139,-12,-249,-35,-328xm475,-1606v63,-89,121,-189,174,-301r219,0r0,21v-75,115,-165,218,-272,307r-121,0r0,-27"},"\u01ff":{"d":"1112,-551v0,341,-178,571,-502,571v-86,0,-164,-18,-233,-53r-76,119r-131,-84r84,-131v-93,-105,-139,-246,-139,-422v0,-337,177,-568,501,-567v85,0,164,19,236,57r76,-119r131,84r-84,131v91,104,137,242,137,414xm606,-967v-236,4,-301,161,-303,416v0,120,18,212,53,275r406,-656v-44,-23,-96,-35,-156,-35xm621,-131v236,-4,301,-166,303,-420v0,-109,-17,-198,-52,-266r-405,653v41,22,92,33,154,33xm498,-1268v63,-89,121,-189,174,-301r219,0r0,21v-75,115,-165,218,-272,307r-121,0r0,-27"},"\u0218":{"d":"745,145v-17,75,-104,246,-163,308r-99,0r0,-27v41,-93,69,-194,84,-301r178,0r0,20xm1087,-391v0,280,-225,411,-532,411v-177,0,-315,-23,-414,-69r0,-178v141,57,279,86,414,86v233,0,350,-80,350,-240v0,-69,-24,-123,-71,-160v-47,-37,-142,-82,-285,-133v-139,-49,-239,-106,-299,-174v-60,-68,-90,-156,-90,-264v2,-251,210,-371,481,-371v153,0,291,26,416,78r-64,164v-129,-52,-249,-78,-360,-78v-195,0,-293,70,-293,209v0,68,22,123,66,164v44,41,134,85,270,133v164,58,273,119,328,181v55,62,83,143,83,241"},"\u0219":{"d":"717,145v-17,75,-104,246,-163,308r-99,0r0,-27v41,-93,69,-194,84,-301r178,0r0,20xm1026,-301v0,224,-196,321,-448,321v-165,0,-290,-23,-375,-69r0,-166v129,57,252,86,370,86v183,0,275,-54,275,-162v0,-38,-16,-71,-49,-99v-33,-28,-108,-63,-226,-106v-156,-57,-253,-112,-293,-160v-40,-48,-61,-105,-61,-171v2,-336,521,-342,789,-217r-60,149v-121,-48,-228,-72,-319,-72v-157,0,-236,44,-236,133v0,41,17,74,51,98v34,24,111,57,232,101v141,51,234,101,280,151v46,50,70,111,70,183"},"\u02c6":{"d":"946,-1241r-121,0v-57,-37,-127,-99,-211,-186v-89,91,-159,153,-211,186r-120,0r0,-27v80,-89,215,-243,235,-301r193,0v21,58,155,212,235,301r0,27"},"\u02c7":{"d":"946,-1542v-80,89,-217,247,-235,301r-193,0v-19,-55,-155,-212,-235,-301r0,-27r120,0v55,36,125,98,211,187v81,-85,152,-148,211,-187r121,0r0,27"},"\u02c9":{"d":"326,-1391r575,0r0,150r-575,0r0,-150"},"\u02d8":{"d":"422,-1518v13,112,59,125,190,125v121,0,184,-42,191,-125r112,0v-11,167,-125,277,-305,277v-187,0,-286,-92,-297,-277r109,0"},"\u02d9":{"d":"614,-1509v71,0,107,38,107,114v0,77,-36,115,-107,115v-71,0,-106,-38,-106,-115v0,-76,35,-114,106,-114"},"\u02da":{"d":"840,-1458v0,131,-97,217,-230,217v-133,0,-223,-83,-223,-215v0,-132,90,-215,223,-215v130,0,230,86,230,213xm723,-1456v0,-69,-46,-113,-113,-113v-66,0,-112,45,-112,113v0,75,37,113,112,113v67,0,113,-44,113,-113"},"\u02db":{"d":"659,455v-146,2,-245,-68,-245,-203v0,-96,63,-180,190,-252r131,0v-113,83,-170,163,-170,238v0,64,42,96,127,96v44,0,85,-5,123,-15r0,113v-49,15,-101,23,-156,23"},"\u02dc":{"d":"762,-1243v-60,13,-245,-113,-297,-113v-55,0,-90,38,-107,115r-104,0v17,-176,87,-264,211,-264v58,-14,251,112,297,112v53,0,89,-38,106,-114r105,0v-18,176,-88,264,-211,264"},"\u02dd":{"d":"246,-1268v63,-89,121,-189,174,-301r198,0r0,21v-75,115,-165,218,-272,307r-100,0r0,-27xm608,-1268v58,-79,116,-179,174,-301r199,0r0,21v-75,115,-165,218,-272,307r-101,0r0,-27"},"\u1e80":{"d":"528,-1008r177,0r145,521v41,146,65,248,72,307r135,-1282r170,0r-187,1462r-190,0r-168,-580v-27,-92,-49,-186,-66,-282v-63,326,-145,561,-221,862r-190,0r-203,-1462r170,0r88,663v21,146,52,493,57,619v48,-282,143,-559,211,-828xm730,-1579r-121,0v-111,-95,-201,-197,-272,-307r0,-21r219,0v57,119,115,219,174,301r0,27"},"\u1e81":{"d":"813,0r-131,-596r-68,-330r-6,0r-65,334r-135,592r-189,0r-223,-1098r162,0r98,543v23,124,42,255,57,393r6,0v53,-329,131,-625,201,-936r193,0r127,578v29,130,51,249,67,358r6,0v21,-161,41,-292,60,-393r102,-543r158,0r-225,1098r-195,0xm697,-1241r-121,0v-111,-95,-201,-197,-272,-307r0,-21r219,0v57,119,115,219,174,301r0,27"},"\u1e82":{"d":"528,-1008r177,0r145,521v41,146,65,248,72,307r135,-1282r170,0r-187,1462r-190,0r-168,-580v-27,-92,-49,-186,-66,-282v-63,326,-145,561,-221,862r-190,0r-203,-1462r170,0r88,663v21,146,52,493,57,619v48,-282,143,-559,211,-828xm500,-1606v63,-89,121,-189,174,-301r219,0r0,21v-75,115,-165,218,-272,307r-121,0r0,-27"},"\u1e83":{"d":"813,0r-131,-596r-68,-330r-6,0r-65,334r-135,592r-189,0r-223,-1098r162,0r98,543v23,124,42,255,57,393r6,0v53,-329,131,-625,201,-936r193,0r127,578v29,130,51,249,67,358r6,0v21,-161,41,-292,60,-393r102,-543r158,0r-225,1098r-195,0xm522,-1268v63,-89,121,-189,174,-301r219,0r0,21v-75,115,-165,218,-272,307r-121,0r0,-27"},"\u1e84":{"d":"528,-1008r177,0r145,521v41,146,65,248,72,307r135,-1282r170,0r-187,1462r-190,0r-168,-580v-27,-92,-49,-186,-66,-282v-63,326,-145,561,-221,862r-190,0r-203,-1462r170,0r88,663v21,146,52,493,57,619v48,-282,143,-559,211,-828xm430,-1835v64,0,96,34,96,102v0,69,-32,103,-96,103v-64,0,-96,-34,-96,-103v0,-68,32,-102,96,-102xm805,-1835v64,0,96,34,96,102v0,69,-32,103,-96,103v-64,0,-96,-34,-96,-103v0,-68,32,-102,96,-102"},"\u1e85":{"d":"813,0r-131,-596r-68,-330r-6,0r-65,334r-135,592r-189,0r-223,-1098r162,0r98,543v23,124,42,255,57,393r6,0v53,-329,131,-625,201,-936r193,0r127,578v29,130,51,249,67,358r6,0v21,-161,41,-292,60,-393r102,-543r158,0r-225,1098r-195,0xm425,-1497v64,0,96,34,96,102v0,69,-32,103,-96,103v-64,0,-96,-34,-96,-103v0,-68,32,-102,96,-102xm800,-1497v64,0,96,34,96,102v0,69,-32,103,-96,103v-64,0,-96,-34,-96,-103v0,-68,32,-102,96,-102"},"\u1ef2":{"d":"612,-723r381,-739r201,0r-487,893r0,569r-187,0r0,-559r-487,-903r203,0xm697,-1579r-121,0v-111,-95,-201,-197,-272,-307r0,-21r219,0v57,119,115,219,174,301r0,27"},"\u1ef3":{"d":"82,-1098r188,0r262,654v55,137,84,233,89,290r6,0v75,-299,228,-650,329,-944r189,0r-475,1241v-45,116,-98,201,-156,261v-88,91,-259,104,-414,71r0,-145v92,18,226,18,286,-29v67,-53,115,-194,153,-291xm706,-1241r-121,0v-111,-95,-201,-197,-272,-307r0,-21r219,0v57,119,115,219,174,301r0,27"},"\u2013":{"d":"184,-465r0,-168r860,0r0,168r-860,0"},"\u2014":{"d":"-6,-465r0,-168r1241,0r0,168r-1241,0"},"\u2015":{"d":"-6,-465r0,-168r1241,0r0,168r-1241,0"},"\u2017":{"d":"1249,184r-1269,0r0,-139r1269,0r0,139xm1249,463r-1269,0r0,-139r1269,0r0,139"},"\u2018":{"d":"461,-961r-15,-22v36,-137,95,-297,177,-479r157,0v-41,170,-75,337,-100,501r-219,0"},"\u2019":{"d":"766,-1462r14,22v-37,142,-95,302,-176,479r-158,0v43,-177,77,-344,101,-501r219,0"},"\u201a":{"d":"756,-238r14,23v-37,142,-95,302,-176,479r-137,0v47,-195,81,-362,100,-502r199,0"},"\u201b":{"d":"680,-1462v27,173,60,340,100,501r-157,0v-83,-183,-142,-342,-177,-479r15,-22r219,0"},"\u201c":{"d":"674,-961r-15,-22v36,-137,95,-297,177,-479r157,0v-41,170,-75,337,-100,501r-219,0xm248,-961r-15,-22v36,-137,95,-297,177,-479r157,0v-41,170,-75,337,-100,501r-219,0"},"\u201d":{"d":"553,-1462r14,22v-37,142,-95,302,-176,479r-158,0v43,-177,77,-344,101,-501r219,0xm979,-1462r14,22v-37,142,-95,302,-176,479r-158,0v43,-177,77,-344,101,-501r219,0"},"\u201e":{"d":"543,-238r14,23v-37,142,-95,302,-176,479r-137,0v47,-195,81,-362,100,-502r199,0xm969,-238r14,23v-34,131,-93,291,-176,479r-137,0v47,-195,81,-362,100,-502r199,0"},"\u2020":{"d":"989,-989r-332,-31r56,1020r-217,0r55,-1020r-311,31r0,-180r311,30r-55,-417r217,0r-56,417r332,-30r0,180"},"\u2021":{"d":"668,-496r331,-30r0,180r-331,-31r55,377r-217,0r55,-377r-332,31r0,-180r332,30r-47,-290r47,-275r-332,31r0,-180r332,30r-55,-376r217,0r-55,376r331,-30r0,180r-331,-31r47,275"},"\u2022":{"d":"614,-485v-155,0,-235,-100,-235,-263v0,-175,78,-262,235,-262v157,0,236,87,236,262v0,161,-84,263,-236,263"},"\u2026":{"d":"205,-250v85,0,127,46,127,139v0,93,-42,140,-127,140v-85,0,-127,-47,-127,-140v0,-93,42,-139,127,-139xm614,-250v85,0,127,46,127,139v0,93,-42,140,-127,140v-85,0,-127,-47,-127,-140v0,-93,42,-139,127,-139xm1024,-250v85,0,127,46,127,139v0,93,-42,140,-127,140v-85,0,-127,-47,-127,-140v0,-93,42,-139,127,-139"},"\u2030":{"d":"264,-1481v165,0,240,130,240,310v0,207,-81,311,-244,311v-165,0,-240,-132,-240,-311v0,-207,81,-310,244,-310xm156,-1171v0,117,5,204,106,204v101,0,105,-87,105,-204v0,-127,-4,-201,-105,-201v-100,0,-106,78,-106,201xm743,-844r-698,287r-41,-98r698,-289xm438,-621v165,0,240,130,240,310v0,207,-81,311,-244,311v-165,0,-239,-132,-239,-311v0,-207,81,-310,243,-310xm330,-311v0,117,5,205,106,205v101,0,105,-89,105,-205v0,-127,-4,-201,-105,-201v-100,0,-106,78,-106,201xm969,-621v163,0,239,131,239,310v0,207,-81,311,-243,311v-166,0,-240,-131,-240,-311v0,-207,81,-310,244,-310xm860,-311v0,117,6,205,107,205v101,0,104,-89,104,-205v0,-126,-2,-201,-104,-201v-101,0,-107,77,-107,201"},"\u2032":{"d":"733,-1462r-41,528r-155,0r-41,-528r237,0"},"\u2033":{"d":"522,-1462r-41,528r-155,0r-41,-528r237,0xm944,-1462r-41,528r-155,0r-41,-528r237,0"},"\u2039":{"d":"401,-553r310,-414r116,78r-237,348r237,348r-116,78r-310,-411r0,-27"},"\u203a":{"d":"827,-526r-309,411r-117,-78r238,-348r-238,-348r117,-78r309,414r0,27"},"\u203c":{"d":"907,-414r-121,0r-51,-1048r223,0xm845,-250v85,0,127,46,127,139v0,93,-42,140,-127,140v-85,0,-127,-47,-127,-140v0,-93,42,-139,127,-139xm444,-414r-121,0r-51,-1048r223,0xm382,-250v85,0,127,46,127,139v0,93,-42,140,-127,140v-85,0,-127,-47,-127,-140v0,-93,42,-139,127,-139"},"\u2044":{"d":"1057,-1462r-729,1462r-158,0r729,-1462r158,0"},"\u20a3":{"d":"483,-399r293,0r0,137r-293,0r0,262r-178,0r0,-262r-176,0r0,-137r176,0r0,-1063r752,0r0,164r-574,0r0,516r535,0r0,164r-535,0r0,219"},"\u20a4":{"d":"319,-1112v-2,-227,166,-369,398,-369v128,0,243,27,346,80r-66,144v-94,-48,-185,-72,-272,-72v-149,0,-223,82,-223,246r0,192r377,0r0,137r-377,0r0,158r377,0r0,137r-377,0v4,143,-42,238,-140,293r748,0r0,166r-991,0r0,-154v139,-34,205,-135,200,-305r-198,0r0,-137r198,0r0,-158r-198,0r0,-137r198,0r0,-221"},"\u20a7":{"d":"737,-1034v0,309,-171,480,-497,465r0,569r-158,0r0,-1462r205,0v300,0,450,143,450,428xm240,-715v221,11,333,-88,333,-309v1,-219,-113,-307,-333,-291r0,600xm1190,-137r0,125v-43,21,-98,32,-166,32v-147,0,-221,-94,-221,-282r0,-356r-115,0r0,-70r115,-51r65,-215r86,0r0,211r209,0r0,125r-209,0r0,348v0,102,38,153,113,153v41,0,82,-7,123,-20"},