// #### Generated By: http://www.cufonfonts.com ####
/*!
 * The following copyright notice may not be removed under any circumstances.
 * 
 * Copyright:
 * Enigmatic ©2003 by Starving-4 Entertainment, dart@puzzlers.org This font is
 * licensed under the terms of the Design Science Licence:
 * http://dsl.org/copyleft/dsl.txt
 * 
 * Description:
 * I created this font in FCP's thirty day trial. Since then it's undergone a
 * number of renovations, and it's looking pretty good.
 * 
 * Manufacturer:
 * Starving-4 Entertainment
 * 
 * Designer:
 * Darren Rigby
 * 
 * Vendor URL:
 * http://dartcanada.tripod.com/Objets
 */
Cufon.registerFont({"w":1400,"face":{"font-family":"Enigmatic Regular","font-weight":400,"font-stretch":"normal","units-per-em":"2400","panose-1":"2 0 0 0 0 0 0 0 0 0","ascent":"1920","descent":"-480","x-height":"25","bbox":"-273 -2256 2450 525","underline-thickness":"48","underline-position":"-140","unicode-range":"U+0020-U+2126"},"glyphs":{" ":{"w":600},"!":{"d":"225,-375r25,-1425r-250,0r35,1425r190,0xm125,0v83,0,125,-42,125,-125v0,-83,-42,-125,-125,-125v-83,0,-125,42,-125,125v0,83,42,125,125,125","w":450},"\"":{"d":"500,-1500r50,0v53,-100,100,-182,100,-250v0,-100,-42,-150,-125,-150v-83,0,-125,50,-125,150v0,68,47,150,100,250xm100,-1500r50,0v53,-100,100,-182,100,-250v0,-100,-42,-150,-125,-150v-83,0,-125,50,-125,150v0,68,47,150,100,250","w":850},"#":{"d":"100,0r250,0r90,-400r350,0r-90,400r250,0r90,-400r210,0r0,-150r-180,0r160,-700r220,0r0,-150r-190,0r90,-400r-250,0r-90,400r-350,0r90,-400r-250,0r-90,400r-210,0r0,150r175,0r-150,700r-225,0r0,150r190,0xm475,-550r150,-700r350,0r-155,700r-345,0","w":1650},"$":{"d":"735,-1060r0,-465v183,0,275,58,275,175r0,100r250,0r0,-150v0,-217,-175,-325,-525,-325r0,-125r-150,0r0,125v-350,0,-525,108,-525,325r0,225v0,167,160,275,480,325r45,7r0,493v-183,0,-275,-58,-275,-175r0,-100r-250,0r0,150v0,217,175,325,525,325r0,175r150,0r0,-175v350,0,525,-108,525,-325r0,-200v0,-200,-160,-325,-480,-375xm310,-1275r0,-75v0,-117,92,-175,275,-175r0,445r-45,-7v-153,-25,-230,-88,-230,-188xm735,-820r30,7v157,25,233,88,230,188r0,100v0,117,-87,175,-260,175r0,-470"},"%":{"d":"1600,-650v0,-150,-125,-225,-375,-225v-250,0,-375,75,-375,225r0,450v0,150,125,225,375,225v250,0,375,-75,375,-225r0,-450xm1425,-250v0,83,-67,125,-200,125v-133,0,-200,-42,-200,-125r0,-350v0,-83,67,-125,200,-125v133,0,200,42,200,125r0,350xm1325,-1800r-1325,1800r275,0r1325,-1800r-275,0xm750,-1600v0,-150,-125,-225,-375,-225v-250,0,-375,75,-375,225r0,450v0,150,125,225,375,225v250,0,375,-75,375,-225r0,-450xm575,-1200v0,83,-67,125,-200,125v-133,0,-200,-42,-200,-125r0,-350v0,-83,67,-125,200,-125v133,0,200,42,200,125r0,350","w":1800},"&":{"d":"685,-1625v-223,0,-335,57,-335,170v0,83,8,129,74,204r791,896v55,-89,30,-257,35,-395r250,0r0,350v-1,93,-33,173,-94,240r127,160r-309,0r-28,-32v-114,48,-279,57,-496,57v-467,0,-700,-158,-700,-475r0,-450v0,-150,75,-225,225,-225v-108,-109,-125,-199,-125,-375v0,-217,191,-325,573,-325v418,0,627,108,627,325r0,250r-250,0r0,-200v0,-117,-122,-175,-365,-175xm250,-500v0,217,150,325,450,325v137,0,247,-15,330,-45r-630,-705v-100,-50,-150,-8,-150,125r0,300","w":1700},"'":{"d":"125,-1550v0,50,-42,75,-125,75r0,75v167,0,250,-92,250,-275v0,-83,-42,-125,-125,-125v-83,0,-125,42,-125,125v0,83,42,125,125,125","w":450},"(":{"d":"625,-2000v-417,67,-625,433,-625,1100v0,667,208,1033,625,1100r0,-200v-250,-100,-375,-400,-375,-900v0,-500,125,-800,375,-900r0,-200","w":825},")":{"d":"0,200v417,-67,625,-433,625,-1100v0,-667,-208,-1033,-625,-1100r0,200v250,100,375,400,375,900v0,500,-125,800,-375,900r0,200","w":825},"*":{"d":"337,-1431r-187,-130r34,-104r228,5r66,-218r109,0r66,219r228,-5r34,104r-188,130r75,216r-88,64r-182,-139r-181,138r-89,-64","w":1064},"+":{"d":"400,-400r0,-400r-400,0r0,-200r400,0r0,-400r200,0r0,400r400,0r0,200r-400,0r0,400r-200,0","w":1200},",":{"d":"125,0v0,117,-42,175,-125,175r0,75v167,0,250,-125,250,-375v0,-83,-42,-125,-125,-125v-83,0,-125,42,-125,125v0,83,42,125,125,125","w":450},"-":{"d":"1000,-800r0,-200r-1000,0r0,200r1000,0","w":1200},"\u2010":{"d":"1000,-800r0,-200r-1000,0r0,200r1000,0","w":1200},".":{"d":"272,4v82,0,123,-42,123,-127v0,-85,-41,-128,-123,-128v-82,0,-123,43,-123,128v0,85,41,127,123,127","w":546},"\/":{"d":"1200,-1850r-1050,1900r-250,0r1050,-1900r250,0","w":1099},"0":{"d":"890,-350v0,117,-97,175,-290,175v-193,0,-290,-58,-290,-175r0,-1100v0,-117,97,-175,290,-175v193,0,290,58,290,175r0,1100xm1140,-1500v0,-217,-180,-325,-540,-325v-360,0,-540,108,-540,325r0,1200v0,217,180,325,540,325v360,0,540,-108,540,-325r0,-1200"},"1":{"d":"330,-1650r0,200r290,0r0,1450r250,0r0,-1800r-250,0v0,100,-97,150,-290,150"},"2":{"d":"950,-1250r0,-200v0,-117,-117,-175,-352,-175v-232,0,-348,58,-348,175r0,200r-250,0r0,-250v0,-217,200,-325,600,-325v400,0,600,108,600,325r0,300v0,167,-160,275,-480,325r-240,37v-153,25,-230,88,-230,188r0,450r950,0r0,200r-1200,0r0,-700v0,-167,160,-275,480,-325r240,-37v153,-25,230,-88,230,-188"},"3":{"d":"600,-1625v233,0,350,58,350,175r0,250v0,100,-67,150,-200,150r-350,0r0,200r350,0v133,0,200,50,200,150r0,350v0,117,-117,175,-350,175v-233,0,-350,-58,-350,-175r0,-200r-250,0r0,250v0,217,200,325,600,325v400,0,600,-108,600,-325r0,-350v0,-200,-83,-300,-250,-300v167,0,250,-100,250,-300r0,-250v0,-217,-200,-325,-600,-325v-400,0,-600,108,-600,325r0,250r250,0r0,-200v0,-117,117,-175,350,-175"},"4":{"d":"1200,-550r-110,0r0,-1250r-250,0r-840,1250r0,200r840,0r0,350r250,0r0,-350r110,0r0,-200xm240,-550r600,-885r0,885r-600,0"},"5":{"d":"0,-1800r0,950r250,0r0,-100v0,-117,117,-175,350,-175v233,0,350,58,350,175r0,600v0,117,-117,175,-350,175v-233,0,-350,-58,-350,-175r0,-200r-250,0r0,250v0,217,200,325,600,325v400,0,600,-108,600,-325r0,-700v0,-217,-158,-325,-475,-325v-317,0,-475,67,-475,200r0,-475r950,0r0,-200r-1200,0"},"6":{"d":"0,-300r0,-1200v0,-217,200,-325,600,-325v400,0,600,108,600,325r0,250r-250,0r0,-200v0,-117,-117,-175,-350,-175v-233,0,-350,58,-350,175r0,525v0,-133,158,-200,475,-200v317,0,475,108,475,325r0,500v0,217,-200,325,-600,325v-400,0,-600,-108,-600,-325xm250,-750r0,400v0,117,117,175,350,175v233,0,350,-58,350,-175r0,-400v0,-117,-117,-175,-350,-175v-233,0,-350,58,-350,175"},"7":{"d":"50,-1800r0,200r912,0v-267,195,-446,416,-536,666v-90,250,-169,561,-238,934r252,0v27,-194,88,-450,182,-768v94,-318,270,-581,528,-792r0,-240r-1100,0"},"8":{"d":"250,-950v-167,0,-250,100,-250,300r0,350v0,217,200,325,600,325v400,0,600,-108,600,-325r0,-350v0,-200,-83,-300,-250,-300v167,0,250,-100,250,-300r0,-250v0,-217,-200,-325,-600,-325v-400,0,-600,108,-600,325r0,250v0,200,83,300,250,300xm250,-1200r0,-250v0,-117,117,-175,350,-175v233,0,350,58,350,175r0,250v0,100,-117,150,-350,150v-233,0,-350,-50,-350,-150xm950,-700r0,350v0,117,-117,175,-350,175v-233,0,-350,-58,-350,-175r0,-350v0,-100,117,-150,350,-150v233,0,350,50,350,150"},"9":{"d":"1200,-1500r0,1200v0,217,-200,325,-600,325v-400,0,-600,-108,-600,-325r0,-250r250,0r0,200v0,117,117,175,350,175v233,0,350,-58,350,-175r0,-525v0,133,-158,200,-475,200v-317,0,-475,-108,-475,-325r0,-500v0,-217,200,-325,600,-325v400,0,600,108,600,325xm950,-1050r0,-400v0,-117,-117,-175,-350,-175v-233,0,-350,58,-350,175r0,400v0,117,117,175,350,175v233,0,350,-58,350,-175"},":":{"d":"125,-750v83,0,125,-42,125,-125v0,-83,-42,-125,-125,-125v-83,0,-125,42,-125,125v0,83,42,125,125,125xm125,0v83,0,125,-42,125,-125v0,-83,-42,-125,-125,-125v-83,0,-125,42,-125,125v0,83,42,125,125,125","w":450},";":{"d":"125,-750v83,0,125,-42,125,-125v0,-83,-42,-125,-125,-125v-83,0,-125,42,-125,125v0,83,42,125,125,125xm125,0v0,117,-42,175,-125,175r0,75v167,0,250,-125,250,-375v0,-83,-42,-125,-125,-125v-83,0,-125,42,-125,125v0,83,42,125,125,125","w":450},"<":{"d":"800,-250r200,-100r-700,-550r700,-550r-200,-100r-800,650","w":1200},"=":{"d":"1200,-600r0,-200r-1050,0r0,200r1050,0xm1200,-1000r0,-200r-1050,0r0,200r1050,0","w":1350},">":{"d":"200,-1550r-200,100r700,550r-700,550r200,100r800,-650","w":1200},"?":{"d":"950,-1175r0,-275v0,-117,-120,-175,-359,-175v-227,0,-341,58,-341,175r0,200r-250,0r0,-250v0,-217,198,-325,593,-325v405,0,607,108,607,325r0,350v0,163,-85,244,-243,292r-216,66v-61,17,-91,48,-91,92r0,150r-250,0r0,-187v3,-125,67,-207,192,-240r223,-58v90,-37,135,-83,135,-140xm525,0v83,0,125,-42,125,-125v0,-83,-42,-125,-125,-125v-83,0,-125,42,-125,125v0,83,42,125,125,125"},"@":{"d":"740,-375v-276,0,-390,-116,-390,-365v0,-207,150,-310,450,-310v133,0,200,-40,200,-120v0,-87,-67,-130,-200,-130v-133,0,-200,58,-200,175r-250,0v-15,-264,129,-375,450,-375v300,0,450,108,450,325r0,550v0,50,17,75,50,75v33,0,50,-25,50,-75r0,-625v0,-250,-183,-375,-550,-375v-367,0,-550,125,-550,375r0,700v0,233,183,350,550,350r550,0r0,200r-550,0v-533,0,-800,-167,-800,-500r0,-800v0,-350,267,-525,800,-525v533,0,800,175,800,525r0,700v0,144,-100,225,-300,225v-201,0,-300,-83,-300,-200v0,133,-87,200,-260,200xm800,-850v-133,0,-200,42,-200,125v0,100,67,150,200,150v133,0,200,-79,200,-236r0,-129v0,60,-67,90,-200,90","w":1800},"A":{"d":"610,-1800r280,0r610,1800r-300,0r-160,-500r-580,0r-160,500r-300,0xm975,-700r-225,-720r-225,720r450,0","w":1620,"k":{"W":500}},"B":{"d":"0,0r850,0v233,0,350,-100,350,-300r0,-350v0,-200,-100,-300,-300,-300v200,0,300,-83,300,-250r0,-300v0,-200,-117,-300,-350,-300r-850,0r0,1800xm250,-1050r0,-550r500,0v133,0,200,50,200,150r0,250v0,100,-67,150,-200,150r-500,0xm950,-700r0,350v0,100,-67,150,-200,150r-500,0r0,-650r500,0v133,0,200,50,200,150"},"C":{"d":"1200,-550r-250,0r0,200v0,117,-117,175,-350,175v-233,0,-350,-58,-350,-175r0,-1100v0,-117,117,-175,350,-175v233,0,350,58,350,175r0,200r250,0r0,-250v0,-217,-200,-325,-600,-325v-400,0,-600,108,-600,325r0,1200v0,217,200,325,600,325v400,0,600,-108,600,-325r0,-250"},"D":{"d":"0,0r850,0v233,0,350,-100,350,-300r0,-1200v0,-200,-117,-300,-350,-300r-850,0r0,1800xm250,-200r0,-1400r500,0v133,0,200,50,200,150r0,1100v0,100,-67,150,-200,150r-500,0"},"E":{"d":"250,-1600r0,575r625,0r0,200r-625,0r0,625r750,0r0,200r-1000,0r0,-1800r1000,0r0,200r-750,0","w":1200},"F":{"d":"1000,-1600r0,-200r-1000,0r0,1800r250,0r0,-825r625,0r0,-200r-625,0r0,-575r750,0","w":1200},"G":{"d":"1200,-1000r-742,0r0,200r492,0r0,450v0,117,-117,175,-350,175v-233,0,-350,-58,-350,-175r0,-1100v0,-117,117,-175,350,-175v233,0,350,58,350,175r0,200r250,0r0,-250v0,-217,-200,-325,-600,-325v-400,0,-600,108,-600,325r0,1200v0,217,200,325,600,325v233,0,370,-67,409,-200r78,175r113,0r0,-1000"},"H":{"d":"0,-1800r0,1800r250,0r0,-800r600,0r0,800r250,0r0,-1800r-250,0r0,800r-600,0r0,-800r-250,0","w":1300},"I":{"d":"0,0r0,-200r100,0r0,-1400r-100,0r0,-200r450,0r0,200r-100,0r0,1400r100,0r0,200r-450,0","w":650},"J":{"d":"1050,-1800r-250,0r0,1450v0,117,-92,175,-275,175v-183,0,-275,-58,-275,-175r0,-200r-250,0r0,250v0,217,175,325,525,325v350,0,525,-108,525,-325r0,-1500","w":1250},"K":{"d":"250,0r0,-631r175,-237r435,868r295,0r-567,-1077r518,-723r-289,0r-567,754r0,-754r-250,0r0,1800r250,0","w":1300},"L":{"d":"1000,0r0,-200r-750,0r0,-1600r-250,0r0,1800r1000,0","w":1200,"k":{"T":500}},"M":{"d":"1650,-1800r-350,0r-475,1424r-475,-1424r-350,0r0,1800r250,0r0,-1250r425,1250r300,0r425,-1250r0,1250r250,0r0,-1800","w":1850},"N":{"d":"300,-1800r550,1300r0,-1300r250,0r0,1800r-300,0r-550,-1300r0,1300r-250,0r0,-1800r300,0","w":1300},"O":{"d":"950,-1450v0,-117,-117,-175,-350,-175v-233,0,-350,58,-350,175r0,1100v0,117,117,175,350,175v233,0,350,-58,350,-175r0,-1100xm1200,-300v0,217,-200,325,-600,325v-400,0,-600,-108,-600,-325r0,-1200v0,-217,200,-325,600,-325v400,0,600,108,600,325r0,1200"},"P":{"d":"-2,-1800r752,0v300,0,450,117,450,350r0,400v0,233,-150,350,-450,350r-500,0r0,700r-251,0xm650,-900v200,0,300,-67,300,-200r0,-300v0,-133,-100,-200,-300,-200r-400,0r0,700r400,0"},"Q":{"d":"950,-350v1,40,-14,75,-46,104r-272,-275r-194,59r282,281v-43,5,-83,6,-120,6v-233,0,-350,-58,-350,-175r0,-1100v0,-117,117,-175,350,-175v233,0,350,58,350,175r0,1100xm1200,-1500v0,-217,-200,-325,-600,-325v-400,0,-600,108,-600,325r0,1200v0,217,200,325,600,325v113,0,213,-8,300,-23r105,103r200,-55r-126,-124v83,-59,121,-134,121,-226r0,-1200"},"R":{"d":"0,0r250,0r0,-800r500,0v133,0,200,50,200,150r0,550v0,67,33,100,100,100r250,0v-67,0,-100,-33,-100,-100r0,-500v0,-200,-83,-300,-250,-300v167,0,250,-100,250,-300r0,-300v0,-200,-133,-300,-400,-300r-800,0r0,1800xm250,-1000r0,-600r500,0v133,0,200,50,200,150r0,300v0,100,-67,150,-200,150r-500,0"},"S":{"d":"250,-1300r0,-150v0,-117,117,-175,350,-175v233,0,350,58,350,175r0,200r250,0r0,-250v0,-217,-200,-325,-600,-325v-400,0,-600,108,-600,325r0,300v0,167,160,275,480,325r240,37v157,25,230,88,230,188r0,300v0,117,-117,175,-350,175v-233,0,-350,-58,-350,-175r0,-200r-250,0r0,250v0,217,200,325,600,325v400,0,600,-108,600,-325r0,-400v0,-200,-160,-325,-480,-375r-240,-37v-153,-25,-230,-88,-230,-188"},"T":{"d":"750,0r0,-1600r500,0r0,-200r-1250,0r0,200r500,0r0,1600r250,0","w":1450},"U":{"d":"1200,-300v0,217,-200,325,-600,325v-400,0,-600,-108,-600,-325r0,-1500r250,0r0,1450v0,117,117,175,350,175v233,0,350,-58,350,-175r0,-1450r250,0r0,1500"},"V":{"d":"1500,-1800r-300,0r-450,1420r-450,-1420r-300,0r610,1800r280,0","w":1620},"W":{"d":"830,0r200,-1020r200,1020r300,0r530,-1800r-280,0r-400,1420r-200,-1420r-300,0r-200,1420r-400,-1420r-280,0r530,1800r300,0","w":2180},"X":{"d":"0,0r290,0r450,-735r450,735r290,0r-565,-900r565,-900r-290,0r-450,735r-450,-735r-290,0r565,900","w":1599},"Y":{"d":"1450,-1800r-300,0r-425,900r-425,-900r-300,0r600,1150r0,650r250,0r0,-650","w":1570},"Z":{"d":"1050,-1600r0,-200r-1050,0r0,200r775,0r-775,1400r0,200r1050,0r0,-200r-775,0","w":1250},"[":{"d":"500,-1800r0,-200r-500,0r0,2200r500,0r0,-200r-250,0r0,-1800r250,0","w":700},"\\":{"d":"-3,-1846r1015,1910r266,0r-1030,-1910r-251,0","w":1275},"]":{"d":"0,0r0,200r500,0r0,-2200r-500,0r0,200r250,0r0,1800r-250,0","w":700},"^":{"d":"375,-1800r325,550r-100,0r-250,-250r-250,250r-98,0r323,-550r50,0","w":900},"_":{"d":"1400,250r0,-100r-1400,0r0,100r1400,0"},"`":{"d":"250,-1675v0,-83,-42,-125,-125,-125v-83,0,-125,42,-125,125v0,183,83,275,250,275r0,-75v-83,0,-125,-25,-125,-75v83,0,125,-42,125,-125","w":450},"a":{"d":"440,25v-293,0,-440,-108,-440,-325r0,-170v0,-207,167,-310,500,-310v192,0,250,-32,250,-170v0,-117,-83,-175,-250,-175v-143,0,-215,58,-215,175r0,100r-250,0r0,-150v0,-217,155,-325,465,-325v333,0,500,108,500,325r0,825v0,117,33,175,100,175r-250,0v-67,0,-100,-58,-100,-175v0,133,-103,200,-310,200xm500,-580v-167,0,-250,53,-250,160r0,70v0,117,83,175,250,175v167,0,250,-79,250,-236r0,-259v0,60,-83,90,-250,90","w":1200},"b":{"d":"0,0r0,-1850r250,0r0,725v0,-133,142,-200,425,-200v283,0,425,108,425,325r0,700v0,217,-142,325,-425,325v-283,0,-425,-67,-425,-200r0,175r-250,0xm250,-950r0,600v0,117,100,175,300,175v200,0,300,-58,300,-175r0,-600v0,-117,-100,-175,-300,-175v-200,0,-300,58,-300,175","w":1300},"c":{"d":"1100,-500r-250,0r0,150v0,117,-100,175,-300,175v-200,0,-300,-58,-300,-175r0,-600v0,-117,100,-175,300,-175v200,0,300,58,300,175r0,150r250,0r0,-200v0,-217,-183,-325,-550,-325v-367,0,-550,108,-550,325r0,700v0,217,183,325,550,325v367,0,550,-108,550,-325r0,-200","w":1300},"d":{"d":"1100,0r0,-1850r-250,0r0,725v0,-133,-142,-200,-425,-200v-283,0,-425,108,-425,325r0,700v0,217,142,325,425,325v283,0,425,-67,425,-200r0,175r250,0xm850,-950r0,600v0,117,-100,175,-300,175v-200,0,-300,-58,-300,-175r0,-600v0,-117,100,-175,300,-175v200,0,300,58,300,175","w":1300},"e":{"d":"0,-1000r0,700v0,217,183,325,550,325v367,0,550,-108,550,-325r0,-150r-250,0r0,100v0,117,-100,175,-300,175v-200,0,-300,-58,-300,-175r0,-200r850,0r0,-450v0,-217,-183,-325,-550,-325v-367,0,-550,108,-550,325xm250,-750r0,-200v0,-117,100,-175,300,-175v200,0,300,58,300,175r0,200r-600,0","w":1300},"f":{"d":"390,0r0,-1100r250,0r0,-200r-250,0r0,-200v0,-100,83,-150,250,-150r0,-200r-236,0v-176,0,-264,100,-264,300r0,250r-140,0r0,200r140,0r0,1100r250,0","w":840},"g":{"d":"1100,-1300r0,1500v0,183,-183,275,-550,275v-367,0,-550,-92,-550,-275r0,-125r250,0r0,75v0,83,100,125,300,125v200,0,300,-42,300,-125r0,-325v0,133,-142,200,-425,200v-283,0,-425,-108,-425,-325r0,-700v0,-217,142,-325,425,-325v283,0,425,67,425,200r0,-175r250,0xm850,-350r0,-600v0,-117,-100,-175,-300,-175v-200,0,-300,58,-300,175r0,600v0,117,100,175,300,175v200,0,300,-58,300,-175","w":1300},"h":{"d":"0,0r250,0r0,-950v0,-117,100,-175,300,-175v200,0,300,58,300,175r0,950r250,0r0,-1000v0,-217,-142,-325,-425,-325v-283,0,-425,67,-425,200r0,-725r-250,0r0,1850","w":1300},"i":{"d":"0,-1300r0,1300r250,0r0,-1300r-250,0xm125,-1825v-97,0,-145,45,-145,137v0,92,48,138,145,138v97,0,145,-46,145,-138v0,-92,-48,-137,-145,-137","w":450},"j":{"d":"0,-1300r0,1400v0,117,-60,175,-179,175r-1,200r179,0v167,0,251,-87,251,-260r0,-1515r-250,0xm125,-1825v-97,0,-145,45,-145,137v0,92,48,138,145,138v97,0,145,-46,145,-138v0,-92,-48,-137,-145,-137","w":450},"k":{"d":"250,0r0,-219r188,-265r293,484r287,0r-421,-713r404,-587r-289,0r-462,654r0,-1204r-250,0r0,1850r250,0","w":1200},"l":{"d":"250,0r0,-1850r-250,0r0,1850r250,0","w":450},"m":{"d":"0,0r250,0r0,-950v0,-117,80,-175,240,-175v160,0,240,58,240,175r0,950r250,0r0,-950v0,-117,80,-175,240,-175v160,0,240,58,240,175r0,950r250,0r0,-1000v0,-217,-114,-325,-342,-325v-228,0,-366,53,-413,160v-37,-107,-163,-160,-380,-160v-217,0,-325,67,-325,200r0,-175r-250,0r0,1300","w":1910},"n":{"d":"0,0r250,0r0,-950v0,-117,100,-175,300,-175v200,0,300,58,300,175r0,950r250,0r0,-1000v0,-217,-142,-325,-425,-325v-283,0,-425,67,-425,200r0,-175r-250,0r0,1300","w":1300},"o":{"d":"850,-350v0,117,-100,175,-300,175v-200,0,-300,-58,-300,-175r0,-600v0,-117,100,-175,300,-175v200,0,300,58,300,175r0,600xm1100,-1000v0,-217,-183,-325,-550,-325v-367,0,-550,108,-550,325r0,700v0,217,183,325,550,325v367,0,550,-108,550,-325r0,-700","w":1300},"p":{"d":"0,-1300r0,1775r250,0r0,-650v0,133,142,200,425,200v283,0,425,-108,425,-325r0,-700v0,-217,-142,-325,-425,-325v-283,0,-425,67,-425,200r0,-175r-250,0xm250,-350r0,-600v0,-117,100,-175,300,-175v200,0,300,58,300,175r0,600v0,117,-100,175,-300,175v-200,0,-300,-58,-300,-175","w":1300},"q":{"d":"1100,-1300r0,1775r-250,0r0,-650v0,133,-138,200,-415,200v-277,0,-435,-108,-435,-325r0,-700v17,-217,163,-325,438,-325v275,0,412,67,412,200r0,-175r250,0xm850,-350r0,-600v0,-117,-100,-175,-300,-175v-200,0,-300,58,-300,175r0,600v0,117,100,175,300,175v200,0,300,-58,300,-175","w":1300},"r":{"d":"0,0r250,0r0,-950v0,-117,73,-175,220,-175v147,0,220,58,220,175r0,100r250,0r0,-150v0,-217,-115,-325,-345,-325v-230,0,-345,67,-345,200r0,-175r-250,0r0,1300","w":1140},"s":{"d":"275,-892v0,-173,65,-233,275,-233v183,0,275,58,275,175r0,100r250,0r0,-150v0,-217,-175,-325,-525,-325v-350,0,-525,108,-525,325r0,125v0,203,175,308,525,325v200,9,300,54,300,125r0,75v0,117,-100,175,-300,175v-200,0,-300,-58,-300,-175r0,-100r-250,0r0,150v0,217,183,325,550,325v367,0,550,-108,550,-325r0,-175v0,-185,-183,-285,-550,-300v-183,-8,-275,-47,-275,-117","w":1300},"t":{"d":"390,-1700r0,400r250,0r0,200r-250,0r0,700v0,133,83,200,250,200r0,200r-250,0v-167,0,-250,-100,-250,-300r0,-800r-140,0r0,-200r140,0r0,-400r250,0","w":840},"u":{"d":"1100,-1300r-250,0r0,950v0,117,-100,175,-300,175v-200,0,-300,-58,-300,-175r0,-950r-250,0r0,1000v0,217,142,325,425,325v283,0,425,-67,425,-200r0,175r250,0r0,-1300","w":1300},"v":{"d":"1260,-1300r-300,0r-330,1010r-330,-1010r-300,0r480,1300r300,0","w":1380},"w":{"d":"540,0r160,-730r160,730r250,0r290,-1300r-250,0r-180,840r-145,-840r-250,0r-155,840r-170,-840r-250,0r290,1300r250,0","w":1520},"x":{"d":"290,0r295,-465r295,465r290,0r-465,-635r465,-665r-290,0r-295,515r-295,-515r-290,0r465,665r-465,635r290,0","w":1290},"y":{"d":"691,216v-55,173,-150,259,-285,259r-186,0r0,-200r154,0v58,0,96,-42,121,-124r47,-151r-542,-1300r300,0r350,1008r330,-1008r300,0"},"z":{"d":"1000,-1100r0,-200r-1000,0r0,200r710,0r-710,900r0,200r1000,0r0,-200r-710,0","w":1200},"{":{"d":"600,-2000v-289,-12,-450,100,-450,350r0,500v0,100,-50,150,-150,150r0,200v100,0,150,50,150,150r0,500v-4,250,160,363,450,350r0,-200v-109,7,-200,-17,-200,-100r0,-600v0,-133,-50,-200,-150,-200v100,0,150,-67,150,-200r0,-600v-7,-82,90,-107,200,-100r0,-200","w":800},"|":{"d":"150,-2200r0,2650r-152,0r0,-2650r152,0","w":350},"}":{"d":"0,200v289,12,450,-100,450,-350r0,-500v0,-100,50,-150,150,-150r0,-200v-100,0,-150,-50,-150,-150r0,-500v4,-250,-160,-363,-450,-350r0,200v109,-7,200,17,200,100r0,600v0,133,50,200,150,200v-100,0,-150,67,-150,200r0,600v7,82,-90,107,-200,100r0,200","w":800},"~":{"d":"350,-900v-105,0,-134,50,-125,150r-225,0v-14,-245,112,-350,400,-350v133,0,213,33,238,100v25,67,79,100,162,100v105,0,134,-50,125,-150r225,0v14,245,-112,350,-400,350v-133,0,-213,-33,-238,-100v-25,-67,-79,-100,-162,-100","w":1350},"\u00c1":{"d":"610,-1800r280,0r610,1800r-300,0r-160,-500r-580,0r-160,500r-300,0xm975,-700r-225,-720r-225,720r450,0xm675,-1900r125,-300r275,0r-250,300r-150,0","w":1620},"\u00c0":{"d":"675,-1900r-250,-300r300,0r100,300r-150,0xm610,-1800r280,0r610,1800r-300,0r-160,-500r-580,0r-160,500r-300,0xm975,-700r-225,-720r-225,720r450,0","w":1620},"\u00c2":{"d":"610,-1800r280,0r610,1800r-300,0r-160,-500r-580,0r-160,500r-300,0xm975,-700r-225,-720r-225,720r450,0xm775,-2256r375,256r-125,150r-275,-200r-275,200r-123,-150r373,-256r50,0","w":1620},"\u00c4":{"d":"610,-1800r280,0r610,1800r-300,0r-160,-500r-580,0r-160,500r-300,0xm975,-700r-225,-720r-225,720r450,0xm400,-2075v0,-83,42,-125,125,-125v83,0,125,42,125,125v0,83,-42,125,-125,125v-83,0,-125,-42,-125,-125xm900,-2075v0,-83,42,-125,125,-125v83,0,125,42,125,125v0,83,-42,125,-125,125v-83,0,-125,-42,-125,-125","w":1620},"\u00c3":{"d":"610,-1800r280,0r610,1800r-300,0r-160,-500r-580,0r-160,500r-300,0xm975,-700r-225,-720r-225,720r450,0xm988,-2000v96,0,120,-55,112,-150r150,0v13,205,-80,298,-300,300v-83,0,-150,-25,-200,-75v-50,-50,-113,-75,-188,-75v-96,0,-120,55,-112,150r-150,0v-13,-205,80,-298,300,-300v83,0,150,25,200,75v50,50,113,75,188,75","w":1620},"\u00c5":{"d":"610,-1800r280,0r610,1800r-300,0r-160,-500r-580,0r-160,500r-300,0xm975,-700r-225,-720r-225,720r450,0xm950,-1975v0,100,-67,150,-200,150v-133,0,-200,-50,-200,-150r0,-100v0,-100,67,-150,200,-150v133,0,200,50,200,150r0,100xm850,-2000v0,-83,-10,-125,-100,-125v-89,0,-100,42,-100,125v0,50,33,75,100,75v67,0,100,-25,100,-75","w":1620},"\u00c7":{"d":"1200,-550r-250,0r0,200v0,117,-117,175,-350,175v-233,0,-350,-58,-350,-175r0,-1100v0,-117,117,-175,350,-175v233,0,350,58,350,175r0,200r250,0r0,-250v0,-217,-200,-325,-600,-325v-400,0,-600,108,-600,325r0,1200v0,217,200,325,600,325v400,0,600,-108,600,-325r0,-250xm525,-50r0,300r100,0v-2,-39,-2,-75,37,-75v53,0,38,84,38,135v0,43,-42,65,-125,65v-100,0,-133,-19,-125,-96r-100,1v-14,138,44,170,225,170v150,0,225,-37,225,-112r0,-127v0,-74,-30,-111,-88,-111v-58,0,-87,16,-87,47r0,-197r-100,0"},"\u00c9":{"d":"250,-1600r0,575r625,0r0,200r-625,0r0,625r750,0r0,200r-1000,0r0,-1800r1000,0r0,200r-750,0xm400,-1900r125,-300r275,0r-250,300r-150,0","w":1200},"\u00c8":{"d":"450,-1900r-250,-300r300,0r100,300r-150,0xm250,-1600r0,575r625,0r0,200r-625,0r0,625r750,0r0,200r-1000,0r0,-1800r1000,0r0,200r-750,0","w":1200},"\u00ca":{"d":"250,-1600r0,575r625,0r0,200r-625,0r0,625r750,0r0,200r-1000,0r0,-1800r1000,0r0,200r-750,0xm525,-2206r375,256r-125,150r-275,-200r-275,200r-123,-150r373,-256r50,0","w":1200},"\u00cb":{"d":"250,-1600r0,575r625,0r0,200r-625,0r0,625r750,0r0,200r-1000,0r0,-1800r1000,0r0,200r-750,0xm150,-2075v0,-83,42,-125,125,-125v83,0,125,42,125,125v0,83,-42,125,-125,125v-83,0,-125,-42,-125,-125xm650,-2075v0,-83,42,-125,125,-125v83,0,125,42,125,125v0,83,-42,125,-125,125v-83,0,-125,-42,-125,-125","w":1200},"\u00cd":{"d":"0,0r0,-200r100,0r0,-1400r-100,0r0,-200r450,0r0,200r-100,0r0,1400r100,0r0,200r-450,0xm150,-1900r125,-300r275,0r-250,300r-150,0","w":650},"\u00cc":{"d":"150,-1900r-250,-300r300,0r100,300r-150,0xm0,0r0,-200r100,0r0,-1400r-100,0r0,-200r450,0r0,200r-100,0r0,1400r100,0r0,200r-450,0","w":650},"\u00ce":{"d":"0,0r0,-200r100,0r0,-1400r-100,0r0,-200r450,0r0,200r-100,0r0,1400r100,0r0,200r-450,0xm250,-2206r375,256r-125,150r-275,-200r-275,200r-123,-150r373,-256r50,0","w":650},"\u00cf":{"d":"0,0r0,-200r100,0r0,-1400r-100,0r0,-200r450,0r0,200r-100,0r0,1400r100,0r0,200r-450,0xm-150,-2075v0,-83,42,-125,125,-125v83,0,125,42,125,125v0,83,-42,125,-125,125v-83,0,-125,-42,-125,-125xm350,-2075v0,-83,42,-125,125,-125v83,0,125,42,125,125v0,83,-42,125,-125,125v-83,0,-125,-42,-125,-125","w":650},"\u00d1":{"d":"300,-1800r550,1300r0,-1300r250,0r0,1800r-300,0r-550,-1300r0,1300r-250,0r0,-1800r300,0xm788,-2000v96,0,120,-55,112,-150r150,0v13,205,-80,298,-300,300v-83,0,-150,-25,-200,-75v-50,-50,-113,-75,-188,-75v-96,0,-120,55,-112,150r-150,0v-13,-205,80,-298,300,-300v83,0,150,25,200,75v50,50,113,75,188,75","w":1300},"\u00d3":{"d":"950,-1450v0,-117,-117,-175,-350,-175v-233,0,-350,58,-350,175r0,1100v0,117,117,175,350,175v233,0,350,-58,350,-175r0,-1100xm1200,-300v0,217,-200,325,-600,325v-400,0,-600,-108,-600,-325r0,-1200v0,-217,200,-325,600,-325v400,0,600,108,600,325r0,1200xm500,-1900r125,-300r275,0r-250,300r-150,0"},"\u00d2":{"d":"550,-1900r-250,-300r300,0r100,300r-150,0xm950,-1450v0,-117,-117,-175,-350,-175v-233,0,-350,58,-350,175r0,1100v0,117,117,175,350,175v233,0,350,-58,350,-175r0,-1100xm1200,-300v0,217,-200,325,-600,325v-400,0,-600,-108,-600,-325r0,-1200v0,-217,200,-325,600,-325v400,0,600,108,600,325r0,1200"},"\u00d4":{"d":"950,-1450v0,-117,-117,-175,-350,-175v-233,0,-350,58,-350,175r0,1100v0,117,117,175,350,175v233,0,350,-58,350,-175r0,-1100xm1200,-300v0,217,-200,325,-600,325v-400,0,-600,-108,-600,-325r0,-1200v0,-217,200,-325,600,-325v400,0,600,108,600,325r0,1200xm625,-2206r375,256r-125,150r-275,-200r-275,200r-123,-150r373,-256r50,0"},"\u00d6":{"d":"950,-1450v0,-117,-117,-175,-350,-175v-233,0,-350,58,-350,175r0,1100v0,117,117,175,350,175v233,0,350,-58,350,-175r0,-1100xm1200,-300v0,217,-200,325,-600,325v-400,0,-600,-108,-600,-325r0,-1200v0,-217,200,-325,600,-325v400,0,600,108,600,325r0,1200xm225,-2075v0,-83,42,-125,125,-125v83,0,125,42,125,125v0,83,-42,125,-125,125v-83,0,-125,-42,-125,-125xm725,-2075v0,-83,42,-125,125,-125v83,0,125,42,125,125v0,83,-42,125,-125,125v-83,0,-125,-42,-125,-125"},"\u00d5":{"d":"950,-1450v0,-117,-117,-175,-350,-175v-233,0,-350,58,-350,175r0,1100v0,117,117,175,350,175v233,0,350,-58,350,-175r0,-1100xm1200,-300v0,217,-200,325,-600,325v-400,0,-600,-108,-600,-325r0,-1200v0,-217,200,-325,600,-325v400,0,600,108,600,325r0,1200xm838,-2000v96,0,120,-55,112,-150r150,0v13,205,-80,298,-300,300v-83,0,-150,-25,-200,-75v-50,-50,-113,-75,-188,-75v-96,0,-120,55,-112,150r-150,0v-13,-205,80,-298,300,-300v83,0,150,25,200,75v50,50,113,75,188,75"},"\u0160":{"d":"250,-1300r0,-150v0,-117,117,-175,350,-175v233,0,350,58,350,175r0,200r250,0r0,-250v0,-217,-200,-325,-600,-325v-400,0,-600,108,-600,325r0,300v0,167,160,275,480,325r240,37v157,25,230,88,230,188r0,300v0,117,-117,175,-350,175v-233,0,-350,-58,-350,-175r0,-200r-250,0r0,250v0,217,200,325,600,325v400,0,600,-108,600,-325r0,-400v0,-200,-160,-325,-480,-375r-240,-37v-153,-25,-230,-88,-230,-188xm656,-1773r307,-303r-203,0r-146,189r-145,-190r-210,0r314,304r83,0"},"\u00da":{"d":"1200,-300v0,217,-200,325,-600,325v-400,0,-600,-108,-600,-325r0,-1500r250,0r0,1450v0,117,117,175,350,175v233,0,350,-58,350,-175r0,-1450r250,0r0,1500xm500,-1900r125,-300r275,0r-250,300r-150,0"},"\u00d9":{"d":"550,-1900r-250,-300r300,0r100,300r-150,0xm1200,-300v0,217,-200,325,-600,325v-400,0,-600,-108,-600,-325r0,-1500r250,0r0,1450v0,117,117,175,350,175v233,0,350,-58,350,-175r0,-1450r250,0r0,1500"},"\u00db":{"d":"1200,-300v0,217,-200,325,-600,325v-400,0,-600,-108,-600,-325r0,-1500r250,0r0,1450v0,117,117,175,350,175v233,0,350,-58,350,-175r0,-1450r250,0r0,1500xm625,-2206r375,256r-125,150r-275,-200r-275,200r-123,-150r373,-256r50,0"},"\u00dc":{"d":"1200,-300v0,217,-200,325,-600,325v-400,0,-600,-108,-600,-325r0,-1500r250,0r0,1450v0,117,117,175,350,175v233,0,350,-58,350,-175r0,-1450r250,0r0,1500xm250,-2075v0,-83,42,-125,125,-125v83,0,125,42,125,125v0,83,-42,125,-125,125v-83,0,-125,-42,-125,-125xm750,-2075v0,-83,42,-125,125,-125v83,0,125,42,125,125v0,83,-42,125,-125,125v-83,0,-125,-42,-125,-125"},"\u00dd":{"d":"1450,-1800r-300,0r-425,900r-425,-900r-300,0r600,1150r0,650r250,0r0,-650xm650,-1900r125,-300r275,0r-250,300r-150,0","w":1570},"\u0178":{"d":"1450,-1800r-300,0r-425,900r-425,-900r-300,0r600,1150r0,650r250,0r0,-650xm350,-2075v0,-83,42,-125,125,-125v83,0,125,42,125,125v0,83,-42,125,-125,125v-83,0,-125,-42,-125,-125xm850,-2075v0,-83,42,-125,125,-125v83,0,125,42,125,125v0,83,-42,125,-125,125v-83,0,-125,-42,-125,-125","w":1570},"\u017d":{"d":"1050,-1600r0,-200r-1050,0r0,200r775,0r-775,1400r0,200r1050,0r0,-200r-775,0xm581,-1873r307,-303r-203,0r-146,189r-145,-190r-210,0r314,304r83,0","w":1250},"\u00e1":{"d":"440,25v-293,0,-440,-108,-440,-325r0,-170v0,-207,167,-310,500,-310v192,0,250,-32,250,-170v0,-117,-83,-175,-250,-175v-143,0,-215,58,-215,175r0,100r-250,0r0,-150v0,-217,155,-325,465,-325v333,0,500,108,500,325r0,825v0,117,33,175,100,175r-250,0v-67,0,-100,-58,-100,-175v0,133,-103,200,-310,200xm500,-580v-167,0,-250,53,-250,160r0,70v0,117,83,175,250,175v167,0,250,-79,250,-236r0,-259v0,60,-83,90,-250,90xm400,-1400r125,-300r275,0r-250,300r-150,0","w":1200},"\u00e0":{"d":"450,-1400r-250,-300r300,0r100,300r-150,0xm440,25v-293,0,-440,-108,-440,-325r0,-170v0,-207,167,-310,500,-310v192,0,250,-32,250,-170v0,-117,-83,-175,-250,-175v-143,0,-215,58,-215,175r0,100r-250,0r0,-150v0,-217,155,-325,465,-325v333,0,500,108,500,325r0,825v0,117,33,175,100,175r-250,0v-67,0,-100,-58,-100,-175v0,133,-103,200,-310,200xm500,-580v-167,0,-250,53,-250,160r0,70v0,117,83,175,250,175v167,0,250,-79,250,-236r0,-259v0,60,-83,90,-250,90","w":1200},"\u00e2":{"d":"440,25v-293,0,-440,-108,-440,-325r0,-170v0,-207,167,-310,500,-310v192,0,250,-32,250,-170v0,-117,-83,-175,-250,-175v-143,0,-215,58,-215,175r0,100r-250,0r0,-150v0,-217,155,-325,465,-325v333,0,500,108,500,325r0,825v0,117,33,175,100,175r-250,0v-67,0,-100,-58,-100,-175v0,133,-103,200,-310,200xm500,-580v-167,0,-250,53,-250,160r0,70v0,117,83,175,250,175v167,0,250,-79,250,-236r0,-259v0,60,-83,90,-250,90xm525,-1856r375,256r-125,150r-275,-200r-275,200r-123,-150r373,-256r50,0","w":1200},"\u00e4":{"d":"440,25v-293,0,-440,-108,-440,-325r0,-170v0,-207,167,-310,500,-310v192,0,250,-32,250,-170v0,-117,-83,-175,-250,-175v-143,0,-215,58,-215,175r0,100r-250,0r0,-150v0,-217,155,-325,465,-325v333,0,500,108,500,325r0,825v0,117,33,175,100,175r-250,0v-67,0,-100,-58,-100,-175v0,133,-103,200,-310,200xm500,-580v-167,0,-250,53,-250,160r0,70v0,117,83,175,250,175v167,0,250,-79,250,-236r0,-259v0,60,-83,90,-250,90xm150,-1575v0,-83,42,-125,125,-125v83,0,125,42,125,125v0,83,-42,125,-125,125v-83,0,-125,-42,-125,-125xm650,-1575v0,-83,42,-125,125,-125v83,0,125,42,125,125v0,83,-42,125,-125,125v-83,0,-125,-42,-125,-125","w":1200},"\u00e3":{"d":"440,25v-293,0,-440,-108,-440,-325r0,-170v0,-207,167,-310,500,-310v192,0,250,-32,250,-170v0,-117,-83,-175,-250,-175v-143,0,-215,58,-215,175r0,100r-250,0r0,-150v0,-217,155,-325,465,-325v333,0,500,108,500,325r0,825v0,117,33,175,100,175r-250,0v-67,0,-100,-58,-100,-175v0,133,-103,200,-310,200xm500,-580v-167,0,-250,53,-250,160r0,70v0,117,83,175,250,175v167,0,250,-79,250,-236r0,-259v0,60,-83,90,-250,90xm738,-1600v96,0,120,-55,112,-150r150,0v13,205,-80,298,-300,300v-83,0,-150,-25,-200,-75v-50,-50,-113,-75,-188,-75v-96,0,-120,55,-112,150r-150,0v-13,-205,80,-298,300,-300v83,0,150,25,200,75v50,50,113,75,188,75","w":1200},"\u00e5":{"d":"440,25v-293,0,-440,-108,-440,-325r0,-170v0,-207,167,-310,500,-310v192,0,250,-32,250,-170v0,-117,-83,-175,-250,-175v-143,0,-215,58,-215,175r0,100r-250,0r0,-150v0,-217,155,-325,465,-325v333,0,500,108,500,325r0,825v0,117,33,175,100,175r-250,0v-67,0,-100,-58,-100,-175v0,133,-103,200,-310,200xm500,-580v-167,0,-250,53,-250,160r0,70v0,117,83,175,250,175v167,0,250,-79,250,-236r0,-259v0,60,-83,90,-250,90xm700,-1525v0,100,-67,150,-200,150v-133,0,-200,-50,-200,-150r0,-100v0,-100,67,-150,200,-150v133,0,200,50,200,150r0,100xm600,-1550v0,-83,-10,-125,-100,-125v-89,0,-100,42,-100,125v0,50,33,75,100,75v67,0,100,-25,100,-75","w":1200},"\u00e7":{"d":"1100,-500r-250,0r0,150v0,117,-100,175,-300,175v-200,0,-300,-58,-300,-175r0,-600v0,-117,100,-175,300,-175v200,0,300,58,300,175r0,150r250,0r0,-200v0,-217,-183,-325,-550,-325v-367,0,-550,108,-550,325r0,700v0,217,183,325,550,325v367,0,550,-108,550,-325r0,-200xm475,-50r0,300r100,0v-2,-39,-2,-75,37,-75v53,0,38,84,38,135v0,43,-42,65,-125,65v-100,0,-133,-19,-125,-96r-100,1v-14,138,44,170,225,170v150,0,225,-37,225,-112r0,-127v0,-74,-30,-111,-88,-111v-58,0,-87,16,-87,47r0,-197r-100,0","w":1300},"\u00e9":{"d":"0,-1000r0,700v0,217,183,325,550,325v367,0,550,-108,550,-325r0,-150r-250,0r0,100v0,117,-100,175,-300,175v-200,0,-300,-58,-300,-175r0,-200r850,0r0,-450v0,-217,-183,-325,-550,-325v-367,0,-550,108,-550,325xm250,-750r0,-200v0,-117,100,-175,300,-175v200,0,300,58,300,175r0,200r-600,0xm400,-1400r125,-300r275,0r-250,300r-150,0","w":1300},"\u00e8":{"d":"500,-1400r-250,-300r300,0r100,300r-150,0xm0,-1000r0,700v0,217,183,325,550,325v367,0,550,-108,550,-325r0,-150r-250,0r0,100v0,117,-100,175,-300,175v-200,0,-300,-58,-300,-175r0,-200r850,0r0,-450v0,-217,-183,-325,-550,-325v-367,0,-550,108,-550,325xm250,-750r0,-200v0,-117,100,-175,300,-175v200,0,300,58,300,175r0,200r-600,0","w":1300},"\u00ea":{"d":"0,-1000r0,700v0,217,183,325,550,325v367,0,550,-108,550,-325r0,-150r-250,0r0,100v0,117,-100,175,-300,175v-200,0,-300,-58,-300,-175r0,-200r850,0r0,-450v0,-217,-183,-325,-550,-325v-367,0,-550,108,-550,325xm250,-750r0,-200v0,-117,100,-175,300,-175v200,0,300,58,300,175r0,200r-600,0xm575,-1856r375,256r-125,150r-275,-200r-275,200r-123,-150r373,-256r50,0","w":1300},"\u00eb":{"d":"0,-1000r0,700v0,217,183,325,550,325v367,0,550,-108,550,-325r0,-150r-250,0r0,100v0,117,-100,175,-300,175v-200,0,-300,-58,-300,-175r0,-200r850,0r0,-450v0,-217,-183,-325,-550,-325v-367,0,-550,108,-550,325xm250,-750r0,-200v0,-117,100,-175,300,-175v200,0,300,58,300,175r0,200r-600,0xm175,-1575v0,-83,42,-125,125,-125v83,0,125,42,125,125v0,83,-42,125,-125,125v-83,0,-125,-42,-125,-125xm675,-1575v0,-83,42,-125,125,-125v83,0,125,42,125,125v0,83,-42,125,-125,125v-83,0,-125,-42,-125,-125","w":1300},"\u00ed":{"d":"0,-1300r0,1300r250,0r0,-1300r-250,0xm50,-1400r125,-300r275,0r-250,300r-150,0","w":450},"\u00ec":{"d":"50,-1400r-250,-300r300,0r100,300r-150,0xm0,-1300r0,1300r250,0r0,-1300r-250,0","w":450},"\u00ee":{"d":"0,-1300r0,1300r250,0r0,-1300r-250,0xm150,-1806r375,256r-125,150r-275,-200r-275,200r-123,-150r373,-256r50,0","w":450},"\u00ef":{"d":"0,-1300r0,1300r250,0r0,-1300r-250,0xm-250,-1625v0,-83,42,-125,125,-125v83,0,125,42,125,125v0,83,-42,125,-125,125v-83,0,-125,-42,-125,-125xm250,-1625v0,-83,42,-125,125,-125v83,0,125,42,125,125v0,83,-42,125,-125,125v-83,0,-125,-42,-125,-125","w":450},"\u00f1":{"d":"0,0r250,0r0,-950v0,-117,100,-175,300,-175v200,0,300,58,300,175r0,950r250,0r0,-1000v0,-217,-142,-325,-425,-325v-283,0,-425,67,-425,200r0,-175r-250,0r0,1300xm763,-1650v96,0,120,-55,112,-150r150,0v13,205,-80,298,-300,300v-83,0,-150,-25,-200,-75v-50,-50,-113,-75,-188,-75v-96,0,-120,55,-112,150r-150,0v-13,-205,80,-298,300,-300v83,0,150,25,200,75v50,50,113,75,188,75","w":1300},"\u00f3":{"d":"850,-350v0,117,-100,175,-300,175v-200,0,-300,-58,-300,-175r0,-600v0,-117,100,-175,300,-175v200,0,300,58,300,175r0,600xm1100,-1000v0,-217,-183,-325,-550,-325v-367,0,-550,108,-550,325r0,700v0,217,183,325,550,325v367,0,550,-108,550,-325r0,-700xm500,-1400r125,-300r275,0r-250,300r-150,0","w":1300},"\u00f2":{"d":"500,-1400r-250,-300r300,0r100,300r-150,0xm850,-350v0,117,-100,175,-300,175v-200,0,-300,-58,-300,-175r0,-600v0,-117,100,-175,300,-175v200,0,300,58,300,175r0,600xm1100,-1000v0,-217,-183,-325,-550,-325v-367,0,-550,108,-550,325r0,700v0,217,183,325,550,325v367,0,550,-108,550,-325r0,-700","w":1300},"\u00f4":{"d":"850,-350v0,117,-100,175,-300,175v-200,0,-300,-58,-300,-175r0,-600v0,-117,100,-175,300,-175v200,0,300,58,300,175r0,600xm1100,-1000v0,-217,-183,-325,-550,-325v-367,0,-550,108,-550,325r0,700v0,217,183,325,550,325v367,0,550,-108,550,-325r0,-700xm575,-1856r375,256r-125,150r-275,-200r-275,200r-123,-150r373,-256r50,0","w":1300},"\u00f6":{"d":"850,-350v0,117,-100,175,-300,175v-200,0,-300,-58,-300,-175r0,-600v0,-117,100,-175,300,-175v200,0,300,58,300,175r0,600xm1100,-1000v0,-217,-183,-325,-550,-325v-367,0,-550,108,-550,325r0,700v0,217,183,325,550,325v367,0,550,-108,550,-325r0,-700xm175,-1575v0,-83,42,-125,125,-125v83,0,125,42,125,125v0,83,-42,125,-125,125v-83,0,-125,-42,-125,-125xm675,-1575v0,-83,42,-125,125,-125v83,0,125,42,125,125v0,83,-42,125,-125,125v-83,0,-125,-42,-125,-125","w":1300},"\u00f5":{"d":"850,-350v0,117,-100,175,-300,175v-200,0,-300,-58,-300,-175r0,-600v0,-117,100,-175,300,-175v200,0,300,58,300,175r0,600xm1100,-1000v0,-217,-183,-325,-550,-325v-367,0,-550,108,-550,325r0,700v0,217,183,325,550,325v367,0,550,-108,550,-325r0,-700xm763,-1650v96,0,120,-55,112,-150r150,0v13,205,-80,298,-300,300v-83,0,-150,-25,-200,-75v-50,-50,-113,-75,-188,-75v-96,0,-120,55,-112,150r-150,0v-13,-205,80,-298,300,-300v83,0,150,25,200,75v50,50,113,75,188,75","w":1300},"\u0161":{"d":"275,-892v0,-173,65,-233,275,-233v183,0,275,58,275,175r0,100r250,0r0,-150v0,-217,-175,-325,-525,-325v-350,0,-525,108,-525,325r0,125v0,203,175,308,525,325v200,9,300,54,300,125r0,75v0,117,-100,175,-300,175v-200,0,-300,-58,-300,-175r0,-100r-250,0r0,150v0,217,183,325,550,325v367,0,550,-108,550,-325r0,-175v0,-185,-183,-285,-550,-300v-183,-8,-275,-47,-275,-117xm606,-1473r307,-303r-203,0r-146,189r-145,-190r-210,0r314,304r83,0","w":1300},"\u00fa":{"d":"1100,-1300r-250,0r0,950v0,117,-100,175,-300,175v-200,0,-300,-58,-300,-175r0,-950r-250,0r0,1000v0,217,142,325,425,325v283,0,425,-67,425,-200r0,175r250,0r0,-1300xm400,-1400r125,-300r275,0r-250,300r-150,0","w":1300},"\u00f9":{"d":"500,-1400r-250,-300r300,0r100,300r-150,0xm1100,-1300r-250,0r0,950v0,117,-100,175,-300,175v-200,0,-300,-58,-300,-175r0,-950r-250,0r0,1000v0,217,142,325,425,325v283,0,425,-67,425,-200r0,175r250,0r0,-1300","w":1300},"\u00fb":{"d":"1100,-1300r-250,0r0,950v0,117,-100,175,-300,175v-200,0,-300,-58,-300,-175r0,-950r-250,0r0,1000v0,217,142,325,425,325v283,0,425,-67,425,-200r0,175r250,0r0,-1300xm575,-1906r375,256r-125,150r-275,-200r-275,200r-123,-150r373,-256r50,0","w":1300},"\u00fc":{"d":"1100,-1300r-250,0r0,950v0,117,-100,175,-300,175v-200,0,-300,-58,-300,-175r0,-950r-250,0r0,1000v0,217,142,325,425,325v283,0,425,-67,425,-200r0,175r250,0r0,-1300xm175,-1575v0,-83,42,-125,125,-125v83,0,125,42,125,125v0,83,-42,125,-125,125v-83,0,-125,-42,-125,-125xm675,-1575v0,-83,42,-125,125,-125v83,0,125,42,125,125v0,83,-42,125,-125,125v-83,0,-125,-42,-125,-125","w":1300},"\u00fd":{"d":"691,216v-55,173,-150,259,-285,259r-186,0r0,-200r154,0v58,0,96,-42,121,-124r47,-151r-542,-1300r300,0r350,1008r330,-1008r300,0xm550,-1400r125,-300r275,0r-250,300r-150,0"},"\u00ff":{"d":"691,216v-55,173,-150,259,-285,259r-186,0r0,-200r154,0v58,0,96,-42,121,-124r47,-151r-542,-1300r300,0r350,1008r330,-1008r300,0xm260,-1575v0,-83,42,-125,125,-125v83,0,125,42,125,125v0,83,-42,125,-125,125v-83,0,-125,-42,-125,-125xm760,-1575v0,-83,42,-125,125,-125v83,0,125,42,125,125v0,83,-42,125,-125,125v-83,0,-125,-42,-125,-125"},"\u017e":{"d":"1000,-1100r0,-200r-1000,0r0,200r710,0r-710,900r0,200r1000,0r0,-200r-710,0xm556,-1473r307,-303r-203,0r-146,189r-145,-190r-210,0r314,304r83,0","w":1200},"\u2020":{"d":"200,-1200r0,-475r-200,0r0,-100r200,0r-25,-125r0,-100r200,0r0,100r-25,125r200,0r0,100r-200,0r0,475r-75,300","w":749},"\u00b0":{"d":"800,-1550v0,-167,-133,-250,-400,-250v-267,0,-400,83,-400,250r0,300v0,167,133,250,400,250v267,0,400,-83,400,-250r0,-300xm600,-1300v0,100,-67,150,-200,150v-133,0,-200,-50,-200,-150r0,-200v0,-100,67,-150,200,-150v133,0,200,50,200,150r0,200","w":1000},"\u00a2":{"d":"1100,-550v0,217,-142,325,-425,325r0,225r-250,0r0,-225v-283,0,-425,-108,-425,-325r0,-700v0,-217,142,-325,425,-325r0,-225r250,0r0,225v283,0,425,108,425,325r0,200r-250,0r0,-150v0,-117,-100,-175,-300,-175v-200,0,-300,58,-300,175r0,600v0,117,100,175,300,175v200,0,300,-58,300,-175r0,-150r250,0r0,200","w":1300},"\u00a3":{"d":"1350,0r-1350,0r0,-200v133,0,200,-79,200,-236r0,-364r-200,0r0,-200r200,0r0,-514v0,-207,195,-311,585,-311v377,0,565,104,565,311r0,264r-250,0r0,-196v0,-119,-104,-179,-313,-179v-225,0,-337,62,-337,185r0,440r500,0r0,200r-500,0r0,289v0,207,-49,311,-148,311r1048,0r0,200","w":1550},"\u00a7":{"d":"600,375v-400,0,-600,-83,-600,-250r0,-150r250,0r0,50v0,100,117,150,350,150v233,0,350,-50,350,-150r0,-100v0,-87,-117,-153,-350,-200v-400,-80,-600,-197,-600,-350r0,-200v0,-143,62,-237,185,-280v-123,-70,-185,-160,-185,-270r0,-200v0,-167,200,-250,600,-250v400,0,600,83,600,250r0,150r-250,0r0,-50v0,-100,-117,-150,-350,-150v-233,0,-350,50,-350,150r0,100v0,63,116,133,350,200v399,113,600,227,600,350r0,200v0,143,-62,237,-185,280v127,63,185,153,185,270r0,200v0,167,-200,250,-600,250xm725,-455v150,-13,225,-70,225,-170r0,-100v0,-97,-117,-180,-350,-250r-115,-30v-157,20,-235,80,-235,180r0,100v0,120,117,203,350,250"},"\u2022":{"d":"208,-675v139,0,208,-72,208,-215v0,-145,-69,-217,-208,-217v-139,0,-208,72,-208,217v0,143,69,215,208,215","w":720},"\u00b6":{"d":"1201,0r-251,0r0,-1600r-100,0r0,1600r-250,0r0,-700r-150,0v-300,0,-450,-117,-450,-350r0,-400v0,-233,150,-350,450,-350r752,0"},"\u00df":{"d":"623,-1625v218,0,327,75,327,225r0,100v0,133,-100,200,-300,200r-222,0r2,200r220,0v200,0,300,67,300,200r0,350v0,117,-50,175,-150,175v-100,0,-150,-58,-150,-175r-250,0v-14,257,113,375,400,375v267,0,400,-108,400,-325r0,-450v0,-167,-117,-250,-350,-250v233,0,350,-83,350,-250r0,-200v0,-250,-188,-375,-565,-375v-390,0,-585,125,-585,375r0,1021r-100,0r0,189r100,-1r0,241r250,0r0,-1400v0,-150,108,-225,323,-225"},"\u00ae":{"d":"1250,-470v0,197,-172,295,-515,295v-323,0,-485,-100,-485,-301r0,-856v0,-195,164,-293,491,-293v339,0,509,97,509,291r0,864xm1500,-1398v0,-285,-253,-427,-759,-427v-494,0,-741,160,-741,479r0,866v0,337,246,505,739,505v507,0,761,-160,761,-479r0,-944xm300,-400r250,0r0,-350r273,0v85,0,127,34,127,101r0,139v0,73,30,110,90,110r229,0v-99,3,-69,-190,-69,-293v0,-105,-56,-157,-169,-157v113,0,169,-60,169,-179r0,-143v0,-152,-103,-228,-309,-228r-591,0r0,1000xm550,-950r0,-250r275,0v83,0,125,19,125,56r0,102v0,61,-44,92,-131,92r-269,0","w":1790},"\u00a9":{"d":"1200,-782r-250,0r0,127v0,103,-67,155,-200,155v-133,0,-200,-65,-200,-194r0,-417v0,-126,67,-189,200,-189v133,0,200,63,200,189r0,122r250,-1r0,-189v0,-214,-150,-321,-450,-321v-300,0,-450,105,-450,315r0,598v0,191,150,287,450,287v300,0,450,-99,450,-297r0,-185xm1250,-470v0,197,-167,295,-500,295v-333,0,-500,-100,-500,-301r0,-856v0,-195,167,-293,500,-293v333,0,500,97,500,291r0,864xm1500,-1398v0,-285,-250,-427,-750,-427v-500,0,-750,160,-750,479r0,866v0,337,250,505,750,505v500,0,750,-160,750,-479r0,-944","w":1790},"\u2122":{"d":"375,-900r0,-800r250,0r0,-100r-625,0r0,100r250,0r0,800r125,0xm1525,-1800r-175,0r-238,712r-237,-712r-175,0r0,900r125,0r0,-625r213,625r150,0r212,-625r0,625r125,0r0,-900","w":1650},"\u00c6":{"d":"1200,-1600r0,575r625,0r0,200r-625,0r0,625r750,0r0,200r-1000,0r0,-350r-470,0r-180,350r-300,0r950,-1800r1000,0r0,200r-750,0xm580,-550r370,0r0,-750","w":2110},"\u00d8":{"d":"250,-350v0,117,117,175,350,175v233,0,350,-58,350,-175r0,-620r-700,400r0,220xm1200,-300v0,217,-200,325,-600,325v-400,0,-600,-108,-600,-325r0,-120r-65,30r-110,-190r175,-105r0,-815v0,-217,200,-325,600,-325v400,0,600,108,600,325r0,130r65,-35r125,180r-190,110r0,815xm955,-1450v0,-117,-117,-175,-350,-175v-233,0,-350,58,-350,175r0,620r700,-400r0,-220"},"\u00b1":{"d":"400,-600r0,-400r-400,0r0,-200r400,0r0,-400r200,0r0,400r400,0r0,200r-400,0r0,400r-200,0xm1000,-200r0,-200r-1000,0r0,200r1000,0","w":1100},"\u00a5":{"d":"850,-650r0,50r200,0r0,100r-200,0r0,100r200,0r0,100r-200,0r0,300r-250,0r0,-300r-200,0r0,-100r200,0r0,-100r-200,0r0,-100r200,0r0,-50r-600,-1150r300,0r425,900r425,-900r300,0","w":1568},"\u00b5":{"d":"0,-1350r250,0r0,950v0,117,100,175,300,175v200,0,300,-58,300,-175r0,-950r250,0r0,1000v50,120,150,120,300,0r0,250v-153,107,-270,73,-350,-100v0,117,-133,175,-400,175v-267,0,-400,-67,-400,-200r0,675r-250,0r0,-1800","w":1550},"\u03bc":{"d":"0,-1350r250,0r0,950v0,117,100,175,300,175v200,0,300,-58,300,-175r0,-950r250,0r0,1000v50,120,150,120,300,0r0,250v-153,107,-270,73,-350,-100v0,117,-133,175,-400,175v-267,0,-400,-67,-400,-200r0,675r-250,0r0,-1800","w":1550},"\u00aa":{"d":"220,-1088v-147,1,-220,-54,-220,-162r0,-85v0,-104,84,-155,250,-155v96,0,125,-16,125,-85v0,-59,-42,-88,-125,-88v-72,1,-108,30,-108,88r1,50r-126,0r1,-75v-1,-109,77,-163,232,-163v167,1,250,55,250,163r0,413v0,58,17,87,50,87r-125,0v-34,0,-50,-29,-50,-88v0,67,-52,101,-155,101xm250,-1390v-84,0,-125,27,-125,80r0,35v0,59,42,88,125,88v84,-1,125,-40,125,-119r0,-129v0,30,-42,45,-125,45xm610,-860r0,-140r-700,-0r0,140r700,-0","w":740},"\u00ba":{"d":"425,-1275v0,59,-50,88,-150,88v-100,-1,-150,-30,-150,-88r0,-300v0,-59,50,-88,150,-88v100,1,150,30,150,88r0,300xm550,-1600v0,-109,-92,-163,-275,-163v-184,1,-275,55,-275,163r0,350v0,109,92,163,275,163v184,-1,275,-55,275,-163r0,-350xm630,-860r0,-140r-700,-0r0,140r700,-0","w":760},"\u00e6":{"d":"1600,-750r0,-200v0,-117,-100,-175,-300,-175v-200,0,-300,58,-300,175r0,200r600,0xm440,25v-293,0,-440,-108,-440,-325r0,-170v0,-207,167,-310,500,-310v192,0,250,-32,250,-170v0,-117,-83,-175,-250,-175v-143,0,-215,58,-215,175r0,100r-250,0r0,-150v0,-217,155,-325,465,-325v183,0,308,42,375,125v67,-83,208,-125,425,-125v367,0,550,108,550,325r0,450r-850,0r0,150v0,150,100,225,300,225v200,0,300,-58,300,-175r0,-100r250,0r0,150v0,217,-183,325,-550,325v-250,0,-392,-67,-425,-200v-33,133,-178,200,-435,200xm500,-580v-167,0,-250,53,-250,160r0,70v0,117,83,175,250,175v167,0,250,-79,250,-236r0,-259v0,60,-83,90,-250,90","w":2050},"\u00f8":{"d":"1100,-300v0,217,-183,325,-550,325v-200,0,-350,-33,-450,-98r-60,53r-160,-120r120,-120r0,-740v0,-217,183,-325,550,-325v243,0,392,39,445,108r65,-63r170,120r-130,125r0,735xm550,-175v200,0,300,-58,300,-175r0,-445r-565,540v17,53,105,80,265,80xm550,-1125v-200,0,-300,58,-300,175r0,450r565,-545v-17,-53,-105,-80,-265,-80","w":1300},"\u00bf":{"d":"250,-125r0,275v0,117,120,175,359,175v227,0,341,-58,341,-175r0,-200r250,0r0,250v0,217,-198,325,-593,325v-405,0,-607,-108,-607,-325r0,-350v0,-163,85,-244,243,-292r216,-66v61,-17,91,-48,91,-92r0,-150r250,0r0,187v-3,125,-67,207,-192,240r-223,58v-90,37,-135,83,-135,140xm675,-1300v-83,0,-125,42,-125,125v0,83,42,125,125,125v83,0,125,-42,125,-125v0,-83,-42,-125,-125,-125"},"\u00a1":{"d":"25,-925r-25,1425r250,0r-35,-1425r-190,0xm125,-1300v-83,0,-125,42,-125,125v0,83,42,125,125,125v83,0,125,-42,125,-125v0,-83,-42,-125,-125,-125","w":450},"\u00ac":{"d":"1353,-715r-240,0r0,-400r-960,0r0,-230r1200,0r0,630","w":1505},"\u0192":{"d":"290,68r169,-1183r231,0r0,-200r-201,0r40,-272v22,-61,86,-90,192,-87r36,-164r-188,-20v-155,-7,-254,33,-268,125r-65,418r-176,0r0,200r138,0r-155,1093v-29,80,-96,113,-201,100r-43,160r173,32v184,26,295,-41,318,-202","w":890},"\u00ab":{"d":"422,-582r0,-196r-203,-120r203,-114r0,-208r-422,264r0,100xm902,-582r0,-196r-203,-120r203,-114r0,-208r-422,264r0,100","w":1200},"\u00bb":{"d":"628,-582r0,-196r203,-120r-203,-114r0,-208r422,264r0,100xm148,-582r0,-196r203,-120r-203,-114r0,-208r422,264r0,100","w":1200},"\u2026":{"d":"272,4v82,0,123,-42,123,-127v0,-85,-41,-128,-123,-128v-82,0,-123,43,-123,128v0,85,41,127,123,127xm772,4v82,0,123,-42,123,-127v0,-85,-41,-128,-123,-128v-82,0,-123,43,-123,128v0,85,41,127,123,127xm1272,4v82,0,123,-42,123,-127v0,-85,-41,-128,-123,-128v-82,0,-123,43,-123,128v0,85,41,127,123,127","w":792},"\u00a0":{"w":498},"\u0152":{"d":"1200,-1600r0,575r625,0r0,200r-625,0r0,625r750,0r0,200r-1000,0r0,-100v-67,83,-183,125,-350,125v-400,0,-600,-108,-600,-325r0,-1200v0,-217,200,-325,600,-325v167,0,283,42,350,125r0,-100r1000,0r0,200r-750,0xm950,-1450v0,-117,-117,-175,-350,-175v-233,0,-350,58,-350,175r0,1100v0,117,117,175,350,175v233,0,350,-58,350,-175r0,-1100","w":2150},"\u0153":{"d":"1400,-1325v367,0,550,108,550,325r0,450r-850,0r0,200v0,117,100,175,300,175v200,0,300,-58,300,-175r0,-100r250,0r0,150v0,217,-183,325,-550,325v-217,0,-358,-30,-425,-90v-67,60,-208,90,-425,90v-367,0,-550,-108,-550,-325r0,-700v0,-217,183,-325,550,-325v217,0,358,30,425,90v67,-60,208,-90,425,-90xm1700,-750r0,-200v0,-117,-100,-175,-300,-175v-200,0,-300,58,-300,175r0,200r600,0xm250,-350v0,117,100,175,300,175v200,0,300,-58,300,-175r0,-600v0,-117,-100,-175,-300,-175v-200,0,-300,58,-300,175r0,600","w":2150},"\u2013":{"d":"1700,-800r0,-200r-1550,0r0,200r1550,0","w":1850},"\u2014":{"d":"2150,-800r0,-200r-2000,0r0,200r2000,0","w":2300},"\u201c":{"d":"125,-1650v0,-50,42,-75,125,-75r0,-75v-167,0,-250,92,-250,275v0,83,42,125,125,125v83,0,125,-42,125,-125v0,-83,-42,-125,-125,-125xm475,-1650v0,-50,42,-75,125,-75r0,-75v-167,0,-250,92,-250,275v0,83,42,125,125,125v83,0,125,-42,125,-125v0,-83,-42,-125,-125,-125","w":800},"\u201d":{"d":"475,-1550v0,50,-42,75,-125,75r0,75v167,0,250,-92,250,-275v0,-83,-42,-125,-125,-125v-83,0,-125,42,-125,125v0,83,42,125,125,125xm125,-1550v0,50,-42,75,-125,75r0,75v167,0,250,-92,250,-275v0,-83,-42,-125,-125,-125v-83,0,-125,42,-125,125v0,83,42,125,125,125","w":800},"\u2018":{"d":"125,-1650v0,-50,42,-75,125,-75r0,-75v-167,0,-250,92,-250,275v0,83,42,125,125,125v83,0,125,-42,125,-125v0,-83,-42,-125,-125,-125","w":450},"\u2019":{"d":"125,-1550v0,50,-42,75,-125,75r0,75v167,0,250,-92,250,-275v0,-83,-42,-125,-125,-125v-83,0,-125,42,-125,125v0,83,42,125,125,125","w":450},"\u00f7":{"d":"1000,-800r0,-200r-1000,0r0,200r1000,0xm500,-350v100,0,150,-50,150,-150v0,-100,-50,-150,-150,-150v-100,0,-150,50,-150,150v0,100,50,150,150,150xm500,-1150v100,0,150,-50,150,-150v0,-100,-50,-150,-150,-150v-100,0,-150,50,-150,150v0,100,50,150,150,150","w":1200},"\u00a4":{"d":"1200,-300v0,217,-200,325,-600,325v-400,0,-600,-108,-600,-325r0,-350r-100,0r0,-150r100,0r0,-200r-100,0r0,-150r100,0r0,-350v0,-217,200,-325,600,-325v400,0,600,108,600,325r0,250r-250,0r0,-200v0,-117,-117,-175,-350,-175v-233,0,-350,58,-350,175r0,300r550,0r-50,150r-500,0r0,200r450,0r-50,150r-400,0r0,300v0,117,117,175,350,175v233,0,350,-58,350,-175r0,-200r250,0r0,250","w":1500},"\u2039":{"d":"422,-582r0,-196r-203,-120r203,-114r0,-208r-422,264r0,100","w":620},"\u203a":{"d":"-2,-582r0,-196r203,-120r-203,-114r0,-208r422,264r0,100","w":620},"\u2021":{"w":336},"\u00b7":{"d":"272,-676v82,0,123,-42,123,-127v0,-85,-41,-128,-123,-128v-82,0,-123,43,-123,128v0,85,41,127,123,127","w":550},"\u2219":{"d":"272,-676v82,0,123,-42,123,-127v0,-85,-41,-128,-123,-128v-82,0,-123,43,-123,128v0,85,41,127,123,127","w":550},"\u201a":{"d":"125,-150v0,-50,42,-75,125,-75r0,-75v-167,0,-250,92,-250,275v0,83,42,125,125,125v83,0,125,-42,125,-125v0,-83,-42,-125,-125,-125","w":450},"\u201e":{"d":"125,-150v0,-50,42,-75,125,-75r0,-75v-167,0,-250,92,-250,275v0,83,42,125,125,125v83,0,125,-42,125,-125v0,-83,-42,-125,-125,-125xm475,-150v0,-50,42,-75,125,-75r0,-75v-167,0,-250,92,-250,275v0,83,42,125,125,125v83,0,125,-42,125,-125v0,-83,-42,-125,-125,-125","w":810},"\u2030":{"d":"1600,-650v0,-150,-125,-225,-375,-225v-250,0,-375,75,-375,225r0,450v0,150,125,225,375,225v250,0,375,-75,375,-225r0,-450xm1425,-250v0,83,-67,125,-200,125v-133,0,-200,-42,-200,-125r0,-350v0,-83,67,-125,200,-125v133,0,200,42,200,125r0,350xm1325,-1800r-1325,1800r275,0r1325,-1800r-275,0xm750,-1600v0,-150,-125,-225,-375,-225v-250,0,-375,75,-375,225r0,450v0,150,125,225,375,225v250,0,375,-75,375,-225r0,-450xm575,-1200v0,83,-67,125,-200,125v-133,0,-200,-42,-200,-125r0,-350v0,-83,67,-125,200,-125v133,0,200,42,200,125r0,350xm2450,-650v0,-150,-125,-225,-375,-225v-250,0,-375,75,-375,225r0,450v0,150,125,225,375,225v250,0,375,-75,375,-225r0,-450xm2275,-250v0,83,-67,125,-200,125v-133,0,-200,-42,-200,-125r0,-350v0,-83,67,-125,200,-125v133,0,200,42,200,125r0,350","w":2650},"\u00a6":{"d":"282,-699r0,1136r-132,0r0,-1136r132,0xm282,-2234r0,1125r-132,0r0,-1125r132,0","w":432},"\u00d0":{"d":"0,-1800r850,0v233,0,350,100,350,300r0,1200v0,200,-117,300,-350,300r-850,0r0,-800r-200,0r0,-200r200,0r0,-800xm750,-200v133,0,200,-50,200,-150r0,-1100v0,-100,-67,-150,-200,-150r-500,0r0,600r200,0r0,200r-200,0r0,600r500,0","w":1550},"\u00f0":{"d":"606,-1050v-237,0,-356,67,-356,200r0,450v0,150,122,225,365,225v257,0,385,-75,385,-225r0,-450v0,-133,-131,-200,-394,-200xm602,25v-401,0,-602,-108,-602,-325r0,-650v0,-200,201,-300,604,-300v191,0,323,57,396,171v-2,-117,13,-248,-35,-321r-215,125r-70,-115r200,-108v-159,-100,-430,-108,-702,-102r0,-200r235,0v358,0,589,57,693,170r149,-100r70,105r-147,97v48,59,72,126,72,201r0,1027v0,217,-216,325,-648,325","w":1450},"\u00de":{"d":"0,-1800r250,0r0,300r500,0v300,0,450,117,450,350r0,400v0,233,-150,350,-450,350r-500,0r0,400r-250,0r0,-1800xm650,-600v200,0,300,-67,300,-200r0,-300v0,-133,-100,-200,-300,-200r-400,0r0,700r400,0"},"\u00fe":{"d":"0,-1800r0,2275r250,0r0,-650v0,133,142,200,425,200v283,0,425,-108,425,-325r0,-700v0,-217,-142,-325,-425,-325v-283,0,-425,67,-425,200r0,-675r-250,0xm250,-350r0,-600v0,-117,100,-175,300,-175v200,0,300,58,300,175r0,600v0,117,-100,175,-300,175v-200,0,-300,-58,-300,-175","w":1300},"\u00d7":{"d":"111,-1430r389,389r389,-389r141,141r-389,389r389,389r-141,141r-389,-389r-389,389r-141,-141r389,-389r-389,-389","w":1200},"\u00b9":{"d":"0,-1650r0,200r200,0r0,550r250,0r0,-900r-250,0v0,100,-67,150,-200,150","w":650},"\u00b2":{"d":"550,-1575v0,-67,-50,-100,-150,-100v-121,0,-160,58,-150,175r-250,0r0,-100v0,-150,133,-225,400,-225v267,0,400,75,400,225r0,100v0,133,-134,214,-400,250v-100,14,-150,67,-150,150r550,0r0,200r-800,0r0,-293v0,-137,134,-220,400,-257v100,-14,150,-58,150,-125","w":1000},"\u00b3":{"d":"425,-1625v117,0,175,33,175,100v0,67,-42,100,-125,100r-150,0r0,150r150,0v83,0,125,33,125,100v0,67,-58,100,-175,100v-117,0,-175,-37,-175,-112r-250,1r0,92v0,146,142,219,425,219v283,0,425,-92,425,-275v0,-133,-58,-200,-174,-200v116,0,174,-67,174,-200v0,-183,-142,-275,-425,-275v-283,0,-425,85,-425,254r0,80r250,1v0,-90,58,-135,175,-135","w":1050},"\u00bd":{"d":"1606,-1846r-1217,1910r-237,0r1240,-1910r214,0xm365,-1775r0,100r145,0r0,725r125,0r0,-900r-125,0v0,50,-49,75,-145,75xm1475,-545r0,-100v0,-59,-59,-88,-176,-88v-116,1,-174,30,-174,88r0,100r-125,0r0,-125v0,-109,100,-163,300,-163v200,1,300,55,300,163r0,150v0,84,-80,138,-240,163r-120,18v-77,13,-115,44,-115,94r0,225r475,0r0,100r-600,0r0,-350v0,-84,80,-138,240,-163r120,-18v77,-13,115,-44,115,-94","w":1756},"\u00bc":{"d":"1606,-1846r-1217,1910r-237,0r1240,-1910r214,0xm365,-1775r0,100r145,0r0,725r125,0r0,-900r-125,0v0,50,-49,75,-145,75xm1500,-225r-55,0r0,-625r-125,0r-420,625r0,100r420,0r0,175r125,0r0,-175r55,0r0,-100xm1020,-225r300,-443r0,443r-300,0","w":1756},"\u00be":{"d":"1606,-1846r-1217,1910r-237,0r1240,-1910r214,0xm450,-1762v117,-1,175,29,175,87r0,125v0,50,-34,75,-100,75r-175,0r0,100r175,0v67,0,100,25,100,75r0,175v0,59,-59,88,-175,88v-117,-1,-175,-30,-175,-88r0,-100r-125,0r0,125v0,109,100,163,300,163v200,-1,300,-55,300,-163r0,-175v0,-100,-42,-150,-125,-150v84,0,125,-50,125,-150r0,-125v0,-109,-100,-163,-300,-163v-200,1,-300,55,-300,163r0,125r125,0r0,-100v0,-59,59,-88,175,-88xm1500,-225r-55,0r0,-625r-125,0r-420,625r0,100r420,0r0,175r125,0r0,-175r55,0r0,-100xm1020,-225r300,-443r0,443r-300,0","w":1756},"\u0141":{"w":570},"\u0142":{"w":213},"\u2126":{"w":1443},"\u03a9":{"w":1443},"\u2044":{"d":"1606,-1846r-1217,1910r-237,0r1240,-1910r214,0","w":1756},"\u00b4":{"d":"0,-1600r125,-300r275,0r-250,300r-150,0","w":600},"\u02c6":{"d":"425,-1956r375,256r-125,150r-275,-200r-275,200r-123,-150r373,-256r50,0","w":1000},"\u00a8":{"d":"0,-1775v0,-83,42,-125,125,-125v83,0,125,42,125,125v0,83,-42,125,-125,125v-83,0,-125,-42,-125,-125xm500,-1775v0,-83,42,-125,125,-125v83,0,125,42,125,125v0,83,-42,125,-125,125v-83,0,-125,-42,-125,-125","w":950},"\u02dc":{"d":"688,-1700v96,0,120,-55,112,-150r150,0v13,205,-80,298,-300,300v-83,0,-150,-25,-200,-75v-50,-50,-113,-75,-188,-75v-96,0,-120,55,-112,150r-150,0v-13,-205,80,-298,300,-300v83,0,150,25,200,75v50,50,113,75,188,75","w":1150},"\u00b8":{"d":"175,-50r0,300r100,0v-2,-39,-2,-75,37,-75v53,0,38,84,38,135v0,43,-42,65,-125,65v-100,0,-133,-19,-125,-96r-100,1v-14,138,44,170,225,170v150,0,225,-37,225,-112r0,-127v0,-74,-30,-111,-88,-111v-58,0,-87,16,-87,47r0,-197r-100,0","w":650},"\u0131":{"d":"0,-1300r0,1300r250,0r0,-1300r-250,0","w":450},"\u02d8":{"w":360},"\u00af":{"d":"1380,-1892r0,-104r-1378,0r0,104r1378,0","w":1380},"\u02c9":{"d":"1380,-1892r0,-104r-1378,0r0,104r1378,0","w":1380},"\u02d9":{"d":"199,-1830v-97,0,-146,53,-146,143v0,94,57,140,146,140v93,0,147,-51,147,-144v0,-90,-52,-139,-147,-139","w":383},"\u02da":{"d":"400,-1525v0,100,-67,150,-200,150v-133,0,-200,-50,-200,-150r0,-100v0,-100,67,-150,200,-150v133,0,200,50,200,150r0,100xm300,-1550v0,-83,-10,-125,-100,-125v-89,0,-100,42,-100,125v0,50,33,75,100,75v67,0,100,-25,100,-75","w":600},"\u02dd":{"w":468},"\u02db":{"w":270},"\u02c7":{"d":"456,-1473r307,-303r-203,0r-146,189r-145,-190r-210,0r314,304r83,0","w":822},"\u00ad":{"d":"744,-785r0,-220r-600,0r0,220r600,0","w":889}}});
