// #### Generated By: http://www.cufonfonts.com ####
/*!
 * The following copyright notice may not be removed under any circumstances.
 * 
 * Copyright:
 * Copyright 2003, 2008 B. Jackowski and J. M. Nowacki (on behalf of TeX users
 * groups). This work is released under the GUST Font License --  see
 * http://tug.org/fonts/licenses/GUST-FONT-LICENSE.txt for details.
 * 
 * Trademark:
 * Please refer to the Copyright section for the font trademark attribution
 * notices.
 */
Cufon.registerFont({"w":525,"face":{"font-family":"Latin Modern Mono","font-weight":400,"font-stretch":"normal","units-per-em":"1000","panose-1":"0 0 5 9 0 0 0 0 0 0","ascent":"778","descent":"-222","x-height":"6","bbox":"-35 -1015.15 591 233","underline-thickness":"69","underline-position":"-99","stemh":"61","stemv":"69","unicode-range":"U+0020-U+2193"},"glyphs":{" ":{},"!":{"d":"312,-565r-9,333v-2,40,-5,48,-41,48v-13,0,-39,0,-40,-26r-10,-355v0,-53,41,-57,50,-57v9,0,51,4,50,57xm312,-50v0,28,-22,50,-50,50v-28,0,-50,-22,-50,-50v0,-28,22,-50,50,-50v28,0,50,22,50,50"},"\"":{"d":"395,-567r-13,204v-1,17,-6,35,-31,35v-28,0,-31,-21,-32,-36r-13,-203v-3,-44,26,-55,45,-55v13,0,47,8,44,55xm218,-567r-13,204v-1,17,-6,35,-31,35v-28,0,-31,-21,-32,-36r-13,-203v-3,-44,26,-55,45,-55v13,0,47,8,44,55"},"#":{"d":"489,-198v0,35,-35,35,-47,35r-76,0r-16,122v-2,12,-5,41,-36,41v-21,0,-37,-17,-35,-35r16,-128r-103,0r-16,122v-2,12,-5,41,-36,41v-21,0,-37,-17,-35,-35r16,-128v-40,-4,-76,15,-86,-35v10,-53,53,-30,96,-35r18,-146r-67,0v-12,0,-47,0,-47,-35v0,-35,35,-35,47,-35r77,0r15,-121v1,-12,5,-41,36,-41v15,0,39,10,34,47r-14,115r103,0r15,-121v1,-12,5,-41,36,-41v15,0,39,10,34,47r-14,115v40,4,75,-15,85,35v-10,53,-52,30,-95,35r-18,146r66,0v12,0,47,0,47,35xm323,-379r-103,0r-18,146r103,0"},"$":{"d":"466,-171v0,70,-51,156,-173,175v-4,36,14,74,-30,79v-45,-4,-27,-42,-31,-78v-116,-11,-174,-88,-174,-171v0,-46,36,-50,45,-50v20,0,44,17,44,45v0,23,-10,31,-16,35v15,51,56,73,101,79r0,-232v-168,-31,-174,-139,-174,-163v0,-74,64,-150,174,-163v4,-37,-14,-74,31,-79v44,4,26,42,30,78v118,10,173,82,173,159v0,71,-91,58,-89,5v0,-13,5,-25,15,-33v-16,-51,-66,-65,-99,-69r0,208v145,27,173,126,173,175xm232,-359r0,-195v-62,10,-110,50,-110,98v0,51,53,87,110,97xm402,-167v0,-51,-43,-96,-109,-109r0,218v64,-11,109,-58,109,-109"},"%":{"d":"209,-560v0,75,-38,133,-87,133v-48,0,-87,-56,-87,-134v0,-75,38,-133,87,-133v48,0,87,56,87,134xm402,-694v29,0,40,29,29,57r-274,691v-4,11,-11,29,-35,29v-28,-1,-40,-28,-29,-57r273,-689v5,-12,12,-31,36,-31xm489,-50v0,74,-37,133,-87,133v-50,0,-87,-59,-87,-133v0,-74,37,-133,87,-133v50,0,87,59,87,133xm153,-561v0,-41,-18,-71,-31,-71v-13,0,-31,30,-31,71v0,44,19,72,31,72v12,0,31,-28,31,-72xm433,-50v0,-44,-19,-71,-31,-71v-12,0,-31,27,-31,71v0,44,19,71,31,71v12,0,31,-27,31,-71"},"&":{"d":"28,-137v0,-94,57,-123,103,-178v-21,-63,-28,-119,-28,-162v0,-100,54,-145,104,-145v71,0,92,76,92,137v0,23,0,82,-101,187v20,54,61,117,74,138v27,-53,60,-139,87,-210v-17,0,-41,0,-41,-31v0,-30,25,-30,40,-30r92,0v16,0,40,0,40,31v0,42,-38,27,-71,30v-38,94,-60,173,-111,262v9,12,47,58,84,58v16,0,35,-13,39,-57v0,-5,2,-31,28,-31v0,0,28,0,28,33v0,48,-29,116,-95,116v-58,0,-101,-51,-117,-70v-31,38,-72,70,-124,70v-76,0,-123,-72,-123,-148xm243,-485v0,-9,-2,-76,-36,-76v-22,0,-48,26,-48,84v0,8,1,61,16,113v50,-56,68,-92,68,-121xm239,-108v-23,-32,-64,-105,-84,-144v-47,52,-58,64,-58,112v0,27,10,90,55,90v14,0,50,-5,87,-58"},"'":{"d":"306,-565r-13,200v-1,16,-2,37,-31,37v-29,0,-30,-21,-31,-37r-14,-212v0,-25,20,-45,45,-45v24,0,47,15,44,57"},"(":{"d":"437,54v0,8,-5,28,-31,28v-24,0,-100,-56,-152,-129v-36,-50,-81,-140,-81,-259v0,-256,204,-388,233,-388v45,0,36,40,8,58v-136,87,-172,230,-172,330v0,112,46,245,170,329v18,12,25,16,25,31"},")":{"d":"352,-306v0,256,-204,388,-233,388v-45,0,-35,-41,-8,-58v137,-87,172,-230,172,-330v0,-65,-13,-229,-179,-335v-17,-11,-27,-51,15,-53v24,0,100,56,152,129v36,50,81,140,81,259"},"*":{"d":"442,-241v19,7,18,64,-19,60v-8,0,-10,0,-37,-16v-70,-42,-33,-22,-94,-56v2,26,3,92,3,121v0,9,0,42,-33,42v-33,0,-33,-33,-33,-42v0,-29,1,-95,3,-121r-124,72v-40,0,-40,-29,-40,-33v0,-20,13,-26,25,-33r108,-59r-109,-59v-33,-8,-31,-64,9,-65v46,16,89,51,131,72v-2,-26,-3,-92,-3,-121v0,-9,0,-42,33,-42v33,0,33,33,33,42v0,29,-1,95,-3,121r124,-72v40,0,40,29,40,33v0,19,-13,26,-25,33r-108,59v26,14,94,47,119,64"},"+":{"d":"486,-306v0,35,-35,35,-47,35r-142,0r0,143v0,12,0,47,-35,47v-35,0,-35,-35,-35,-47r0,-143r-142,0v-12,0,-47,0,-47,-35v0,-35,35,-35,47,-35r142,0r0,-143v0,-12,0,-47,35,-47v35,0,35,35,35,47r0,143r142,0v12,0,47,0,47,35"},",":{"d":"346,-25v0,110,-102,164,-134,164v-17,0,-32,-17,-32,-32v0,-20,18,-25,28,-28v12,-4,59,-20,74,-82v-43,12,-81,-15,-82,-60v0,-32,23,-62,63,-62v44,0,83,39,83,100"},"-":{"d":"468,-306v0,35,-35,35,-47,35r-318,0v-12,0,-47,0,-47,-35v0,-35,35,-35,47,-35r318,0v12,0,47,0,47,35"},".":{"d":"325,-62v0,31,-25,62,-63,62v-32,0,-62,-26,-62,-63v0,-31,25,-62,63,-62v32,0,62,26,62,63"},"\/":{"d":"431,-694v30,0,42,28,27,59r-330,690v-6,13,-13,28,-35,28v-30,0,-42,-28,-27,-59r330,-690v6,-13,13,-28,35,-28"},"0":{"d":"474,-305v0,182,-100,316,-212,316v-110,0,-212,-131,-212,-317v0,-182,100,-316,212,-316v110,0,212,131,212,317xm405,-316v0,-147,-70,-245,-143,-245v-74,0,-143,99,-143,245v0,148,65,266,143,266v78,0,143,-118,143,-266"},"1":{"d":"442,-30v0,30,-25,30,-40,30r-251,0v-15,0,-40,0,-40,-30v0,-31,24,-31,40,-31r91,0r0,-422v-44,38,-85,44,-104,44v-15,0,-33,-5,-33,-30v0,-28,21,-30,37,-31v19,-2,71,-13,109,-98v5,-12,11,-24,30,-24v30,0,30,25,30,41r0,520r91,0v16,0,40,0,40,31"},"2":{"d":"472,-67v0,39,5,67,-40,67r-339,0v-16,0,-41,0,-41,-31v0,-14,6,-19,15,-27r221,-186v66,-55,115,-113,115,-183v0,-146,-236,-182,-276,-57v30,23,5,77,-30,77v-17,0,-45,-11,-45,-48v0,-85,79,-167,197,-167v122,0,223,75,223,195v0,80,-47,143,-109,200v-44,39,-139,115,-198,166r238,0v0,-28,0,-47,35,-47v34,0,34,22,34,41"},"3":{"d":"480,-174v0,93,-85,185,-216,185v-123,0,-220,-58,-220,-147v0,-64,91,-58,89,-3v0,20,-7,26,-12,31v26,47,103,58,143,58v191,-3,198,-243,-3,-249v-39,-1,-86,17,-86,-31v0,-29,15,-33,72,-33v67,0,135,-53,135,-117v0,-45,-50,-81,-118,-81v-9,0,-80,0,-111,31v21,22,-2,79,-35,72v-20,0,-45,-14,-45,-47v0,-69,70,-117,190,-117v115,0,188,67,188,141v0,54,-28,111,-84,147v66,30,113,89,113,160"},"4":{"d":"495,-199v0,30,-25,30,-40,30r-78,0r0,108v43,7,102,-21,102,31v0,30,-25,30,-40,30r-180,0v-15,0,-40,0,-40,-30v0,-53,59,-24,102,-31r0,-108r-252,0v-46,10,-48,-50,-31,-75r228,-358v14,-28,36,-21,70,-21v34,0,41,8,41,41r0,352r78,0v16,0,40,0,40,31xm321,-230r0,-349r-222,349r222,0"},"5":{"d":"472,-190v0,111,-99,201,-224,201v-112,0,-196,-70,-196,-153v0,-39,30,-48,45,-48v21,0,44,16,44,45v0,20,-8,27,-13,32v28,55,92,63,120,63v84,0,155,-60,155,-140v0,-65,-45,-138,-127,-138v-58,0,-99,18,-126,50v-8,10,-12,15,-30,15v-32,0,-32,-23,-32,-41r0,-266v0,-32,7,-41,40,-41r269,0v16,0,40,0,40,31v0,30,-25,30,-40,30r-240,0r0,190v41,-22,85,-29,120,-29v118,0,195,98,195,199"},"6":{"d":"471,-193v0,120,-98,204,-207,204v-99,0,-211,-73,-211,-310v0,-202,134,-323,268,-323v97,0,133,54,133,103v0,30,-20,47,-45,47v-39,0,-56,-52,-34,-73v-5,-5,-21,-16,-55,-16v-88,0,-182,82,-196,223v45,-41,97,-58,149,-58v110,0,198,89,198,203xm132,-222v0,84,51,172,132,172v72,0,138,-57,138,-143v0,-74,-53,-141,-134,-141v-76,0,-136,50,-136,112"},"7":{"d":"480,-580v0,14,-2,16,-22,34v-61,59,-214,233,-219,517v0,29,-17,40,-34,40v-35,0,-35,-33,-35,-47v0,-110,34,-330,207,-514r-264,0v0,28,0,47,-35,47v-51,0,-34,-44,-34,-83v0,-19,0,-41,34,-41v8,0,26,0,32,16r330,0v16,0,40,0,40,31"},"8":{"d":"480,-174v0,97,-92,185,-218,185v-125,0,-218,-88,-218,-185v0,-75,64,-134,139,-155v-79,-26,-125,-76,-125,-133v0,-81,84,-160,204,-160v119,0,204,78,204,160v0,57,-45,106,-125,133v74,21,139,80,139,155xm397,-461v0,-52,-57,-100,-135,-100v-79,0,-135,48,-135,100v0,56,62,101,135,101v73,0,135,-44,135,-101xm411,-175v0,-61,-57,-124,-149,-124v-91,0,-149,63,-149,124v0,69,66,125,149,125v83,0,149,-56,149,-125"},"9":{"d":"471,-312v0,198,-123,323,-255,323v-128,0,-146,-71,-146,-103v0,-30,20,-47,45,-47v38,0,55,49,35,72v21,16,57,17,66,17v96,0,174,-99,184,-223v-45,41,-97,58,-149,58v-110,0,-198,-89,-198,-203v0,-121,101,-204,212,-204v95,0,206,69,206,310xm393,-389v0,-71,-9,-90,-41,-129v-16,-20,-44,-43,-87,-43v-72,0,-143,56,-143,143v0,74,53,141,134,141v83,0,137,-57,137,-112"},":":{"d":"325,-368v0,31,-25,62,-63,62v-32,0,-62,-26,-62,-63v0,-31,25,-62,63,-62v32,0,62,26,62,63xm325,-62v0,31,-25,62,-63,62v-32,0,-62,-26,-62,-63v0,-31,25,-62,63,-62v32,0,62,26,62,63"},";":{"d":"325,-368v0,31,-25,62,-63,62v-32,0,-62,-26,-62,-63v0,-31,25,-62,63,-62v32,0,62,26,62,63xm330,-27v0,112,-96,166,-118,166v-17,0,-32,-17,-32,-32v0,-16,14,-23,20,-26v15,-8,53,-27,66,-81v-94,-1,-81,-125,-4,-125v38,0,68,32,68,98"},"<":{"d":"468,-91v0,34,-32,43,-61,25r-333,-209v-26,-13,-19,-57,4,-64r329,-207v27,-22,61,-9,61,25v0,19,-13,27,-24,34r-287,181r287,181v11,7,24,15,24,34"},"=":{"d":"486,-382v0,35,-33,35,-45,35r-358,0v-12,0,-45,0,-45,-35v0,-35,37,-35,51,-35r346,0v14,0,51,0,51,35xm486,-230v0,35,-37,35,-51,35r-346,0v-14,0,-51,0,-51,-35v0,-35,33,-35,45,-35r358,0v12,0,45,0,45,35"},">":{"d":"450,-337v26,13,19,57,-4,64r-329,207v-27,22,-61,9,-61,-25v0,-19,13,-27,24,-34r287,-181r-287,-181v-11,-7,-24,-15,-24,-34v0,-34,32,-43,61,-25"},"?":{"d":"462,-493v0,52,-38,80,-66,97v-100,59,-110,102,-109,172v0,34,-10,40,-40,40v-40,0,-40,-13,-40,-52v0,-40,0,-129,145,-209v19,-10,41,-22,41,-48v0,-31,-39,-63,-141,-63v-39,0,-86,7,-111,35v24,25,-1,73,-34,73v-21,0,-45,-15,-45,-47v0,-56,49,-122,190,-122v185,0,210,87,210,124xm297,-50v0,28,-22,50,-50,50v-28,0,-50,-22,-50,-50v0,-28,22,-50,50,-50v28,0,50,22,50,50"},"@":{"d":"480,-80v0,29,-84,86,-174,86v-140,0,-262,-133,-262,-312v0,-180,124,-311,260,-311v176,0,176,231,176,296v0,173,-96,215,-145,215v-74,0,-144,-81,-144,-200v0,-141,107,-241,209,-179v-23,-61,-68,-71,-96,-71v-103,0,-204,102,-204,251v0,186,171,324,312,207v18,-17,68,-21,68,18xm424,-305v0,-81,-44,-139,-89,-139v-42,0,-88,55,-88,139v0,78,42,138,89,138v43,0,88,-57,88,-138"},"A":{"d":"437,-61v35,-2,61,2,60,31v0,30,-26,30,-43,30r-102,0v-18,0,-42,0,-42,-30v0,-31,20,-31,56,-31r-23,-104r-162,0r-23,104v36,0,56,0,56,31v0,30,-24,30,-42,30r-102,0v-17,0,-43,0,-43,-30v-1,-29,24,-34,60,-31r121,-524v9,-38,25,-38,54,-38v31,0,45,1,54,39xm328,-226r-66,-314r-66,314r132,0"},"B":{"d":"353,-320v187,40,166,320,-44,320r-246,0v-14,0,-40,0,-40,-30v0,-42,36,-28,68,-31r0,-489v-33,-2,-68,11,-68,-31v0,-30,26,-30,40,-30r226,0v111,0,172,82,172,155v0,62,-44,114,-108,136xm392,-455v0,-33,-22,-95,-107,-95r-125,0r0,202r103,0v97,0,129,-66,129,-107xm413,-169v0,-45,-30,-118,-115,-118r-138,0r0,226r127,0v87,0,126,-59,126,-108"},"C":{"d":"484,-168v0,90,-86,179,-202,179v-130,0,-242,-134,-242,-317v0,-240,200,-399,371,-268v13,-25,13,-27,15,-31v5,-7,10,-17,28,-17v30,0,30,25,30,41r0,139v0,20,0,41,-35,41v-30,0,-32,-16,-35,-33v-14,-81,-69,-127,-129,-127v-89,0,-176,106,-176,255v0,150,86,256,177,256v41,0,122,-24,129,-122v2,-29,25,-29,34,-29v11,0,35,0,35,33"},"D":{"d":"485,-301v0,161,-88,301,-219,301r-206,0v-15,0,-41,0,-41,-30v0,-40,33,-29,63,-31r0,-489v-30,-2,-63,9,-63,-30v0,-31,25,-31,41,-31r206,0v133,0,219,150,219,310xm416,-301v0,-116,-56,-249,-169,-249r-96,0r0,489r96,0v111,0,169,-123,169,-240"},"E":{"d":"502,-130v0,51,25,130,-40,130r-395,0v-15,0,-41,0,-41,-30v0,-43,37,-28,71,-31r0,-489v-34,-3,-71,12,-71,-31v0,-30,26,-30,41,-30r373,0v62,-6,40,66,40,114v0,20,0,41,-35,41v-54,0,-28,-52,-34,-94r-245,0r0,203r131,0v0,-41,0,-57,35,-57v34,0,34,22,34,41r0,93v0,19,0,41,-34,41v-35,0,-35,-16,-35,-57r-131,0r0,225r267,0v7,-47,-24,-110,35,-110v34,0,34,22,34,41"},"F":{"d":"490,-570v0,48,25,114,-35,114v-54,0,-28,-52,-34,-94r-250,0r0,214r136,0v0,-41,0,-57,35,-57v34,0,34,22,34,41r0,93v0,19,0,41,-34,41v-35,0,-35,-16,-35,-57r-136,0r0,214v40,5,92,-19,92,31v0,30,-25,30,-40,30r-154,0v-15,0,-41,0,-41,-30v0,-44,39,-28,74,-31r0,-489v-34,-3,-74,13,-74,-30v0,-31,25,-31,41,-31r381,0v34,0,40,10,40,41"},"G":{"d":"496,-240v0,31,-23,31,-47,31r0,168v0,19,0,41,-34,41v-35,0,-35,-20,-35,-42v-20,23,-62,53,-119,53v-119,0,-223,-133,-223,-317v0,-233,172,-399,340,-271v15,-34,20,-45,41,-45v30,0,30,25,30,41r0,139v0,20,0,41,-35,41v-26,0,-32,-12,-34,-29v-17,-108,-80,-131,-115,-131v-78,0,-158,103,-158,256v0,147,76,255,157,255v53,0,102,-47,114,-159v-38,-4,-82,16,-82,-31v0,-30,25,-30,40,-30r119,0v15,0,41,0,41,30"},"H":{"d":"502,-30v0,30,-25,30,-40,30r-119,0v-16,0,-40,0,-40,-31v0,-40,34,-28,65,-30r0,-226r-212,0r0,226v32,2,65,-10,65,31v0,30,-25,30,-40,30r-119,0v-15,0,-40,0,-40,-30v0,-41,34,-29,65,-31r0,-489v-31,-2,-65,10,-65,-30v0,-31,24,-31,40,-31r119,0v16,0,40,0,40,31v0,40,-34,28,-65,30r0,202r212,0r0,-202v-32,-2,-65,10,-65,-31v0,-30,25,-30,40,-30r119,0v16,0,40,0,40,31v0,40,-34,28,-65,30r0,489v32,2,65,-10,65,31"},"I":{"d":"446,-30v0,30,-26,30,-41,30r-285,0v-15,0,-41,0,-41,-31v0,-30,26,-30,41,-30r108,0r0,-489r-108,0v-15,0,-41,0,-41,-31v0,-30,26,-30,41,-30r285,0v15,0,41,0,41,31v0,30,-26,30,-41,30r-108,0r0,489r108,0v15,0,41,0,41,31"},"J":{"d":"478,-581v0,43,-37,28,-71,31r0,416v0,91,-81,145,-170,145v-100,0,-166,-47,-166,-110v0,-64,91,-58,89,-3v0,16,-4,21,-8,26v29,26,77,26,85,26v19,0,101,-5,101,-90r0,-410r-82,0v-15,0,-41,0,-41,-31v0,-30,26,-30,41,-30r181,0v15,0,41,0,41,30"},"K":{"d":"495,-30v0,54,-69,30,-116,30v-16,0,-41,0,-41,-31v0,-30,26,-30,40,-30r-140,-250r-93,117r0,133v31,2,63,-9,63,31v0,30,-26,30,-41,30r-100,0v-16,0,-41,0,-41,-31v0,-39,33,-28,63,-30r0,-489v-31,-2,-63,9,-63,-31v0,-30,26,-30,41,-30r100,0v16,0,41,0,41,31v0,39,-33,28,-63,30r0,266r211,-266v-14,0,-41,0,-41,-30v0,-31,26,-31,41,-31r88,0v14,0,41,0,41,30v0,31,-21,31,-57,31r-152,192r167,297v29,0,52,0,52,31"},"L":{"d":"488,-130v0,51,25,130,-40,130r-376,0v-15,0,-40,0,-40,-30v0,-46,41,-27,77,-31r0,-489v-36,-4,-77,14,-77,-30v0,-31,24,-31,40,-31r162,0v15,0,41,0,41,31v0,50,-56,24,-97,30r0,489r241,0v7,-46,-24,-110,35,-110v34,0,34,21,34,41"},"M":{"d":"507,-30v0,30,-25,30,-40,30r-82,0v-15,0,-40,0,-40,-30v0,-31,21,-31,53,-31r-1,-477v-12,53,-97,306,-100,312v-13,26,-49,28,-65,7v-29,-61,-74,-224,-106,-319r0,477v32,0,53,0,53,31v0,30,-25,30,-40,30r-82,0v-15,0,-40,0,-40,-30v0,-31,21,-31,53,-31r0,-489v-32,0,-53,0,-53,-31v0,-50,55,-30,96,-30v14,0,39,0,49,24v3,6,88,267,101,312v24,-98,64,-201,94,-296v9,-26,13,-40,54,-40v42,0,96,-19,96,30v0,31,-21,31,-53,31r0,489v32,0,53,0,53,31"},"N":{"d":"496,-580v0,40,-34,28,-65,30r0,509v0,38,-12,41,-42,41v-26,0,-42,-1,-55,-36r-185,-500r0,475v32,2,65,-10,65,31v0,30,-25,30,-40,30r-106,0v-16,0,-40,0,-40,-31v0,-40,34,-28,65,-30r0,-489v-32,-2,-61,10,-65,-31v7,-52,63,-30,108,-30v27,0,42,3,54,36r185,500r0,-475v-31,-2,-65,10,-65,-30v0,-31,24,-31,40,-31r106,0v16,0,40,0,40,31"},"O":{"d":"468,-305v0,289,-22,316,-206,316v-185,0,-206,-27,-206,-316v0,-290,21,-317,206,-317v185,0,206,28,206,317xm262,-50v169,0,137,-132,137,-264v0,-61,0,-136,-12,-183v-15,-55,-50,-64,-125,-64v-82,0,-115,12,-126,71v-19,104,-19,260,1,369v9,51,37,71,125,71"},"P":{"d":"480,-428v0,93,-73,183,-189,183r-125,0r0,184v34,3,71,-12,71,31v0,30,-26,30,-41,30r-129,0v-15,0,-41,0,-41,-30v0,-43,37,-28,71,-31r0,-489v-34,-3,-71,12,-71,-31v0,-30,26,-30,41,-30r224,0v115,0,189,90,189,183xm411,-428v0,-53,-43,-122,-139,-122r-106,0r0,244r106,0v96,0,139,-69,139,-122"},"Q":{"d":"468,-305v0,46,0,113,-6,167v-9,81,-27,116,-71,134r33,60v12,22,31,58,31,64v-1,22,-22,19,-41,19v-16,0,-28,1,-35,-12r-61,-117v-219,4,-262,5,-262,-315v0,-290,21,-317,206,-317v185,0,206,28,206,317xm125,-305v0,124,-32,266,129,255r32,0v-16,-34,-37,-65,-50,-102v1,-23,23,-18,43,-19v20,0,21,1,30,16r48,87v22,-15,42,-29,42,-238v0,-54,0,-122,-9,-173v-11,-65,-39,-82,-128,-82v-92,0,-115,20,-127,75v-11,48,-10,125,-10,181"},"R":{"d":"348,-304v35,35,58,54,58,155v0,53,0,99,28,99v17,0,19,-37,19,-45v1,-30,24,-30,34,-30v11,0,35,0,35,32v0,38,-24,104,-87,104v-79,0,-98,-67,-98,-173v0,-42,1,-65,-22,-85v-55,-46,-87,-23,-159,-28r0,214v32,2,65,-10,65,31v0,30,-25,30,-40,30r-119,0v-15,0,-40,0,-40,-30v0,-41,34,-29,65,-31r0,-489v-31,-2,-65,10,-65,-30v0,-31,24,-31,40,-31r177,0v191,4,270,208,109,307xm364,-443v0,-48,-44,-107,-136,-107r-72,0r0,214r72,0v91,0,136,-58,136,-107"},"S":{"d":"472,-166v0,89,-72,177,-188,177v-64,0,-125,-16,-165,-46v-9,32,-15,46,-37,46v-30,0,-30,-25,-30,-41r0,-132v0,-20,0,-41,35,-41v32,0,33,18,34,35v1,18,5,60,47,87v40,27,89,31,117,31v79,0,122,-59,122,-111v0,-87,-83,-107,-111,-113r-115,-27v-83,-24,-129,-90,-129,-157v0,-85,75,-164,186,-164v45,0,99,12,140,47v8,-30,13,-47,37,-47v30,0,30,25,30,41r0,132v0,20,0,41,-35,41v-20,0,-30,-6,-34,-28v-5,-31,-21,-125,-139,-125v-71,0,-120,48,-120,99v1,80,88,97,161,112v78,16,105,25,146,65v12,13,48,55,48,119"},"T":{"d":"498,-570v0,48,25,114,-35,114v-54,0,-28,-52,-34,-94r-132,0r0,489v40,5,92,-19,92,31v0,30,-25,30,-40,30r-173,0v-16,0,-40,0,-40,-31v0,-49,52,-24,92,-30r0,-489r-133,0v-6,43,20,94,-35,94v-59,0,-34,-66,-34,-114v0,-33,8,-41,41,-41r391,0v34,0,40,10,40,41"},"U":{"d":"520,-581v0,43,-37,28,-71,31r0,346v0,123,-87,215,-187,215v-100,0,-187,-92,-187,-215r0,-346v-34,-3,-71,12,-71,-31v0,-30,26,-30,41,-30r129,0v15,0,41,0,41,30v0,43,-37,28,-71,31r0,341v0,107,65,159,118,159v52,0,118,-52,118,-159r0,-341v-34,-3,-71,12,-71,-31v0,-30,26,-30,41,-30r129,0v15,0,41,0,41,30"},"V":{"d":"506,-581v0,31,-21,31,-57,31r-132,521v-9,37,-28,37,-55,37v-29,0,-45,0,-55,-38r-132,-520v-36,0,-57,0,-57,-31v0,-30,26,-30,41,-30r102,0v15,0,41,0,41,30v0,31,-21,31,-56,31r97,389v10,36,11,56,19,89v7,-43,26,-119,39,-172r77,-306v-35,0,-56,0,-56,-31v0,-30,26,-30,41,-30r102,0v15,0,41,0,41,30"},"W":{"d":"513,-580v0,30,-27,30,-38,30r-72,523v-5,35,-29,35,-41,35v-7,0,-33,0,-40,-25v-2,-2,-53,-233,-60,-276v-4,40,-58,274,-61,281v-10,20,-30,20,-39,20v-12,0,-36,0,-41,-35r-73,-523v-9,0,-37,0,-37,-30v0,-31,26,-31,41,-31r79,0v16,0,40,0,40,31v0,40,-34,28,-65,30r61,474v5,-62,52,-262,55,-269v10,-22,30,-22,40,-22v9,0,32,0,41,23v2,5,46,207,55,268v1,-28,8,-80,16,-141r44,-333v-31,-2,-65,10,-65,-30v0,-31,24,-31,40,-31r79,0v15,0,41,0,41,31"},"X":{"d":"496,-30v0,30,-26,30,-41,30r-104,0v-15,0,-40,0,-40,-30v0,-31,22,-31,45,-31r-99,-194r-92,194v23,0,47,0,47,31v0,30,-26,30,-41,30r-104,0v-15,0,-40,0,-40,-30v0,-40,32,-29,62,-31r133,-264r-120,-225v-31,-2,-64,10,-64,-31v0,-30,26,-30,41,-30r104,0v15,0,40,0,40,30v0,31,-23,31,-43,31r77,146r71,-146v-23,0,-46,0,-46,-31v0,-30,25,-30,40,-30r104,0v15,0,41,0,41,31v0,39,-33,28,-63,30r-113,224r141,265v31,2,64,-10,64,31"},"Y":{"d":"505,-580v0,39,-32,28,-61,30r-147,306r0,183v32,2,65,-10,65,31v0,30,-25,30,-40,30r-119,0v-16,0,-40,0,-40,-31v0,-40,34,-28,65,-30r0,-183r-148,-306v-30,-2,-61,9,-61,-31v0,-30,25,-30,40,-30r104,0v15,0,40,0,40,30v0,31,-22,31,-46,31v10,21,91,185,105,236r105,-236v-24,0,-46,0,-46,-31v0,-30,25,-30,40,-30r104,0v16,0,40,0,40,31"},"Z":{"d":"481,-133v0,52,26,133,-40,133r-352,0v-19,0,-41,0,-41,-34v0,-10,0,-16,10,-31r329,-485r-258,0v-6,43,20,94,-35,94v-59,0,-34,-66,-34,-114v0,-33,8,-41,41,-41r334,0v19,0,41,0,41,34v0,10,0,16,-10,31r-329,485r275,0v8,-47,-25,-113,35,-113v34,0,34,22,34,41"},"[":{"d":"483,53v0,30,-25,30,-40,30r-181,0v-34,0,-40,-10,-40,-41r0,-695v0,-32,7,-41,40,-41r181,0v16,0,40,0,40,31v0,30,-25,30,-40,30r-152,0r0,655r152,0v16,0,40,0,40,31"},"\\":{"d":"459,24v15,23,3,59,-28,59v-22,0,-30,-17,-35,-27r-331,-691v-15,-23,-3,-59,28,-59v22,0,30,17,35,27"},"]":{"d":"302,42v0,32,-7,41,-40,41r-181,0v-16,0,-40,0,-40,-31v0,-30,25,-30,40,-30r152,0r0,-655r-152,0v-16,0,-40,0,-40,-31v0,-30,25,-30,40,-30r181,0v34,0,40,10,40,41r0,695"},"^":{"d":"437,-543v35,17,11,69,-24,54r-151,-65r-151,65v-34,15,-58,-37,-23,-54r163,-79v7,-3,16,-3,23,0"},"_":{"d":"468,132v0,35,-35,35,-47,35r-318,0v-12,0,-47,0,-47,-35v0,-35,35,-35,47,-35r318,0v12,0,47,0,47,35"},"`":{"d":"368,-528v0,8,-7,40,-33,40v-55,-16,-100,-43,-151,-64v-24,-10,-28,-24,-28,-35v2,-27,24,-44,54,-30r133,60v14,6,25,11,25,29"},"a":{"d":"227,-379v-12,1,-63,-3,-57,12v-6,69,-89,57,-89,0v0,-73,102,-73,145,-73v144,0,198,84,198,155r0,216v8,3,18,8,60,8v15,0,40,0,40,30v0,31,-22,31,-50,31v-38,0,-86,-1,-108,-32v-47,31,-109,38,-146,38v-102,0,-165,-65,-165,-134v0,-96,123,-146,300,-149v0,-71,-52,-102,-128,-102xm316,-72v65,-29,30,-78,39,-146v-145,4,-231,41,-231,90v0,68,102,95,192,56"},"b":{"d":"488,-216v0,173,-189,299,-322,171v0,25,0,45,-34,45v-35,0,-35,-21,-35,-41r0,-509v-38,-4,-79,16,-85,-30v7,-55,67,-31,114,-31v34,0,40,10,40,41r0,182v34,-31,79,-49,127,-49v106,0,195,98,195,221xm419,-216v0,-87,-58,-160,-132,-160v-63,0,-121,53,-121,112r0,73v0,48,35,136,113,136v70,0,140,-65,140,-161"},"c":{"d":"466,-109v0,17,-34,115,-173,115v-126,0,-220,-102,-220,-222v0,-88,60,-224,232,-224v45,0,149,0,149,73v0,29,-21,46,-45,46v-24,0,-43,-14,-44,-49v0,-9,-39,-9,-60,-9v-135,0,-163,115,-163,163v0,91,72,161,157,161v74,0,94,-47,99,-60v8,-20,17,-22,33,-22v6,0,35,0,35,28"},"d":{"d":"512,-31v-7,55,-67,31,-114,31v-40,0,-40,-14,-40,-50v-28,29,-70,56,-126,56v-106,0,-196,-97,-196,-221v0,-176,193,-289,322,-177r0,-158v-38,-4,-79,16,-85,-30v7,-55,67,-31,114,-31v34,0,40,10,40,41r0,509v38,4,79,-16,85,30xm236,-55v103,0,122,-102,122,-210v0,-55,-49,-111,-113,-111v-70,0,-140,65,-140,161v0,89,60,160,131,160"},"e":{"d":"464,-109v0,25,-47,115,-179,115v-129,0,-230,-101,-230,-223v0,-123,96,-223,215,-223v130,0,194,98,194,212v0,37,-19,37,-40,37r-298,0v16,86,91,136,166,136v28,0,83,-9,104,-60v8,-19,15,-22,33,-22v6,0,35,0,35,28xm393,-251v-9,-103,-71,-128,-123,-128v-70,0,-129,55,-143,128r266,0"},"f":{"d":"437,-557v0,28,-23,44,-43,44v-35,0,-44,-39,-44,-43v-30,0,-97,0,-97,78r0,47r122,0v16,0,40,0,40,31v0,30,-25,30,-40,30r-122,0r0,309r101,0v15,0,41,0,41,31v0,30,-26,30,-41,30r-271,0v-15,0,-41,0,-41,-31v0,-30,26,-30,41,-30r101,0r0,-309r-101,0v-15,0,-40,0,-40,-30v0,-31,25,-31,41,-31r100,0r0,-53v0,-87,77,-133,157,-133v16,0,96,0,96,60"},"g":{"d":"509,-388v0,52,-63,58,-79,7v-13,1,-37,5,-58,17v71,109,-13,248,-139,248v-49,0,-87,-23,-90,-25v-21,43,11,80,68,80r70,0v90,0,132,22,145,29v51,27,69,77,69,114v0,85,-105,147,-233,147v-128,0,-233,-61,-233,-147v0,-11,0,-79,74,-124v-24,-20,-32,-114,-3,-140v-15,-19,-32,-52,-32,-95v0,-85,71,-160,165,-160v46,0,81,19,97,30v46,-34,95,-35,106,-35v54,0,73,31,73,54xm329,-277v0,-53,-42,-100,-96,-100v-52,0,-96,44,-96,101v0,53,42,100,96,100v52,0,96,-44,96,-101xm437,82v0,-86,-113,-86,-202,-86v-73,0,-82,0,-107,16v-32,20,-41,52,-41,70v0,44,75,87,175,87v100,0,175,-43,175,-87"},"h":{"d":"512,-30v0,30,-26,30,-40,30r-153,0v-14,0,-41,0,-41,-30v0,-46,43,-27,80,-31r0,-227v0,-60,-14,-88,-67,-88v-51,0,-125,38,-125,138r0,177v39,4,85,-16,85,31v0,30,-26,30,-40,30r-159,0v-14,0,-40,0,-40,-30v0,-48,47,-26,85,-31r0,-489v-38,-4,-79,16,-85,-30v7,-55,67,-31,114,-31v34,0,40,10,40,41r0,186v19,-19,64,-53,131,-53v79,0,130,43,130,144r0,232v39,4,85,-16,85,31"},"i":{"d":"455,-30v0,30,-26,30,-41,30r-295,0v-15,0,-41,0,-41,-30v0,-31,25,-31,41,-31r121,0r0,-309r-113,0v-15,0,-41,0,-41,-31v0,-30,26,-30,41,-30r142,0v34,0,40,10,40,41r0,329r105,0v15,0,41,0,41,31xm313,-555v0,28,-22,50,-50,50v-28,0,-50,-22,-50,-50v0,-28,22,-50,50,-50v28,0,50,22,50,50"},"j":{"d":"368,44v0,64,-36,184,-181,184v-41,0,-139,0,-139,-76v0,-60,88,-61,89,-1v0,7,0,9,-1,12v51,3,99,20,137,-34v26,-35,26,-73,26,-90r0,-409r-130,0v-15,0,-40,0,-40,-30v0,-31,25,-31,41,-31r158,0v34,0,40,10,40,41r0,434xm369,-555v0,28,-22,50,-50,50v-28,0,-50,-22,-50,-50v0,-28,22,-50,50,-50v28,0,50,22,50,50"},"k":{"d":"508,-30v0,30,-26,30,-41,30r-118,0v-15,0,-40,0,-40,-30v0,-31,20,-31,56,-31r-119,-155r-80,74r0,81v40,5,89,-18,89,31v0,30,-25,30,-40,30r-154,0v-16,0,-40,0,-40,-31v0,-48,50,-24,89,-30r0,-489v-40,-5,-84,18,-89,-31v7,-52,61,-30,105,-30v34,0,40,10,40,41r0,352r162,-152v-36,-4,-77,14,-77,-30v0,-31,24,-31,40,-31r154,0v15,0,41,0,41,31v0,44,-41,27,-76,30r-123,115r149,194v34,3,72,-12,72,31"},"l":{"d":"467,-30v0,30,-25,30,-40,30r-329,0v-14,0,-40,0,-40,-30v0,-31,25,-31,41,-31r129,0r0,-489r-130,0v-14,0,-40,0,-40,-30v0,-31,25,-31,41,-31r158,0v34,0,40,10,40,41r0,509r130,0v16,0,40,0,40,31"},"m":{"d":"516,-30v0,54,-69,30,-116,30v-14,0,-41,0,-41,-30v0,-31,25,-31,44,-31r0,-233v0,-65,-14,-82,-37,-82v-41,0,-82,47,-82,136r0,179v36,0,57,0,57,31v0,54,-69,30,-116,30v-14,0,-41,0,-41,-30v0,-31,25,-31,44,-31r0,-233v0,-65,-14,-82,-37,-82v-41,0,-82,47,-82,136r0,179v36,0,57,0,57,31v0,30,-26,30,-41,30r-88,0v-14,0,-41,0,-41,-30v0,-31,21,-31,57,-31r0,-309v-36,0,-57,0,-57,-31v0,-43,39,-30,73,-30v18,0,38,0,40,30v47,-47,134,-53,162,16v28,-39,69,-52,99,-52v89,0,89,114,89,134r0,242v36,0,57,0,57,31"},"n":{"d":"512,-30v0,30,-26,30,-40,30r-153,0v-14,0,-41,0,-41,-30v0,-46,43,-27,80,-31r0,-227v0,-60,-14,-88,-67,-88v-51,0,-125,38,-125,138r0,177v39,4,85,-16,85,31v0,30,-26,30,-40,30r-159,0v-14,0,-40,0,-40,-30v0,-48,47,-26,85,-31r0,-309v-38,-4,-79,16,-85,-30v7,-55,67,-31,114,-31v40,0,40,15,40,47v19,-19,64,-53,131,-53v79,0,130,43,130,144r0,232v39,4,85,-16,85,31"},"o":{"d":"467,-216v0,126,-95,222,-205,222v-110,0,-205,-95,-205,-222v0,-125,93,-224,205,-224v112,0,205,99,205,224xm398,-223v0,-91,-64,-156,-136,-156v-71,0,-136,65,-136,156v0,93,62,168,136,168v74,0,136,-75,136,-168"},"p":{"d":"488,-216v0,173,-189,299,-322,171r0,206v39,4,85,-16,85,31v0,30,-26,30,-40,30r-159,0v-14,0,-40,0,-40,-30v0,-48,47,-26,85,-31r0,-531v-38,-4,-79,16,-85,-30v7,-55,67,-31,114,-31v38,0,40,14,40,43v34,-31,79,-49,127,-49v106,0,195,98,195,221xm419,-216v0,-87,-58,-160,-132,-160v-63,0,-121,53,-121,112r0,73v0,48,35,136,113,136v70,0,140,-65,140,-161"},"q":{"d":"537,192v0,30,-25,30,-40,30r-167,0v-16,0,-40,0,-40,-31v0,-48,50,-24,89,-30r0,-215v-21,23,-67,60,-135,60v-110,0,-204,-97,-204,-221v0,-127,102,-222,214,-222v57,0,98,26,125,55v0,-38,0,-55,35,-55v34,0,34,22,34,41r0,557v40,5,89,-18,89,31xm248,-55v96,0,131,-85,131,-178v0,-66,-45,-143,-120,-143v-80,0,-150,69,-150,161v0,90,65,160,139,160"},"r":{"d":"487,-375v0,27,-20,43,-42,43v-25,0,-42,-20,-43,-44v-121,0,-180,96,-180,190r0,125r111,0v15,0,41,0,41,31v0,30,-26,30,-41,30r-261,0v-16,0,-40,0,-40,-31v0,-30,25,-30,40,-30r81,0r0,-309r-81,0v-16,0,-40,0,-40,-31v0,-30,25,-30,40,-30r110,0v49,-5,39,34,40,75v55,-63,119,-81,170,-81v83,0,95,42,95,62"},"s":{"d":"459,-125v0,48,-32,131,-190,131v-28,0,-81,-2,-130,-38v-12,37,-28,38,-37,38v-30,0,-30,-25,-30,-41r0,-97v0,-20,0,-41,35,-41v26,0,30,11,35,29v25,78,81,89,128,89v91,0,128,-33,128,-70v0,-53,-80,-66,-129,-74v-92,-14,-197,-31,-197,-123v0,-36,23,-118,190,-118v19,0,63,0,107,21v2,-7,6,-21,30,-21v53,0,30,65,30,110v0,20,0,41,-35,41v-31,0,-33,-17,-34,-34v-3,-26,-17,-56,-100,-56v-95,0,-127,31,-127,57v0,39,68,50,97,55r68,12v32,5,161,26,161,130"},"t":{"d":"449,-126v-2,168,-296,188,-296,0r0,-244r-88,0v-15,0,-40,0,-40,-30v0,-31,25,-31,41,-31r87,0r0,-82v0,-20,0,-41,35,-41v34,0,34,22,34,41r0,82r164,0v16,0,40,0,40,31v0,30,-25,30,-40,30r-164,0r0,238v0,25,0,77,77,77v23,0,80,-10,81,-72v0,-17,1,-38,34,-38v35,0,35,21,35,39"},"u":{"d":"512,-31v-7,55,-67,31,-114,31v-18,0,-39,0,-40,-32v-37,28,-78,38,-119,38v-73,0,-142,-24,-142,-120r0,-256v-38,-4,-79,16,-85,-30v7,-55,67,-31,114,-31v34,0,40,10,40,41r0,270v0,32,0,65,79,65v32,0,113,-12,113,-102r0,-213v-38,-4,-79,16,-85,-30v7,-55,67,-31,114,-31v34,0,40,10,40,41r0,329v38,4,79,-16,85,30"},"v":{"d":"500,-400v0,42,-37,27,-70,30r-115,341v-11,33,-34,33,-53,33v-21,0,-41,0,-53,-34r-115,-340v-33,-3,-70,12,-70,-30v0,-31,24,-31,40,-31r117,0v16,0,40,0,40,31v0,41,-36,27,-68,30r109,322r109,-322v-33,-2,-68,11,-68,-31v0,-30,25,-30,40,-30r117,0v16,0,40,0,40,31"},"w":{"d":"508,-401v0,31,-21,31,-51,31r-60,336v4,38,-59,54,-86,21v-5,-7,-39,-128,-47,-177v-3,22,-4,36,-29,124v-18,61,-21,70,-61,70v-40,0,-43,-15,-47,-38r-60,-336v-30,0,-51,0,-51,-31v0,-30,24,-30,42,-30r115,0v19,0,42,0,42,31v0,47,-52,25,-91,30r53,298v4,-20,44,-158,47,-165v11,-22,30,-22,40,-22v35,0,37,11,56,74v12,41,23,89,30,113r50,-298v-40,-5,-91,17,-91,-31v0,-30,24,-30,42,-30r115,0v18,0,42,0,42,30"},"x":{"d":"496,-30v0,30,-27,30,-41,30r-117,0v-15,0,-40,0,-40,-30v0,-31,22,-31,50,-31r-89,-123r-86,123v31,0,52,0,52,31v0,30,-25,30,-40,30r-117,0v-14,0,-41,0,-41,-30v0,-47,44,-27,81,-31r124,-161r-118,-148v-37,-4,-81,15,-81,-30v0,-31,26,-31,41,-31r117,0v15,0,40,0,40,30v0,31,-22,31,-48,31r76,101r74,-101v-27,0,-49,0,-49,-31v0,-30,25,-30,40,-30r117,0v15,0,41,0,41,31v0,45,-44,26,-81,30r-114,148r128,161v37,4,81,-15,81,31"},"y":{"d":"500,-400v0,42,-37,27,-70,30r-155,455v-4,11,-49,143,-149,143v-49,0,-83,-40,-83,-82v0,-26,17,-44,44,-44v34,0,51,40,38,65v15,-1,54,-2,80,-58v16,-36,48,-107,34,-122r-142,-357v-33,-3,-71,12,-71,-30v0,-31,24,-31,40,-31r117,0v16,0,40,0,40,31v0,40,-34,28,-65,30r115,299v26,-99,67,-202,98,-299v-33,-2,-68,11,-68,-31v0,-30,25,-30,40,-30r117,0v16,0,40,0,40,31"},"z":{"d":"475,-99v0,41,15,84,-22,99r-379,0v-19,0,-41,0,-41,-34v0,-17,1,-20,22,-40r312,-296r-249,0v-2,35,11,67,-35,67v-52,0,-34,-46,-34,-87v0,-33,8,-41,41,-41r340,0v19,0,41,0,41,34v0,17,-1,20,-22,40r-312,296r269,0v4,-39,-15,-79,35,-79v34,0,34,22,34,41"},"{":{"d":"467,52v0,31,-24,31,-42,31v-48,0,-103,-7,-145,-30v-52,-29,-52,-74,-52,-104r0,-166v-2,-54,-111,-57,-137,-58v-10,0,-34,-1,-34,-31v0,-24,20,-30,26,-30v23,0,72,-3,109,-16v60,-22,36,-91,36,-157v0,-28,0,-78,1,-84v17,-88,126,-101,196,-101v18,0,42,0,42,31v0,24,-20,30,-26,30v-35,0,-123,2,-141,40v-6,52,-2,144,-3,205v-1,25,-16,58,-58,83v55,30,58,71,58,96r0,161v0,31,0,67,136,70v9,0,34,1,34,30"},"|":{"d":"297,36v0,12,0,47,-35,47v-35,0,-35,-35,-35,-47r0,-683v0,-12,0,-47,35,-47v35,0,35,35,35,47r0,683"},"}":{"d":"467,-305v0,24,-20,30,-26,30v-24,0,-71,3,-108,16v-60,22,-36,91,-36,157v0,28,0,78,-1,84v-15,81,-110,101,-197,101v-17,0,-42,0,-42,-31v0,-24,20,-30,26,-30v145,-2,145,-38,145,-67r0,-178v0,-4,2,-51,58,-83v-89,-40,-58,-148,-58,-256v0,-33,0,-69,-138,-71v-14,0,-33,-4,-33,-30v0,-31,25,-31,42,-31v35,0,98,4,146,30v52,29,52,74,52,102r0,167v2,56,112,58,136,59v10,0,34,1,34,31"},"~":{"d":"215,-366v52,-2,65,47,98,55v14,0,42,-14,70,-44v19,-20,56,-7,55,21v-11,38,-79,86,-127,88v-52,2,-65,-47,-98,-55v-14,0,-42,14,-70,44v-19,20,-56,7,-55,-21v11,-38,79,-86,127,-88"},"\u00a0":{},"\u00a1":{"d":"312,-339v0,28,-22,50,-50,50v-28,0,-50,-22,-50,-50v0,-28,22,-50,50,-50v28,0,50,22,50,50xm312,176v0,53,-41,57,-50,57v-9,0,-51,-4,-50,-57r9,-333v2,-40,6,-48,41,-48v12,0,39,0,40,25"},"\u00a2":{"d":"466,-109v0,16,-30,102,-146,114v0,39,8,88,-31,88v-39,0,-31,-51,-31,-90v-108,-17,-185,-110,-185,-219v0,-79,49,-198,185,-220v0,-39,-8,-88,31,-88v37,0,31,46,31,84v49,1,134,7,134,73v0,29,-21,46,-45,46v-24,0,-43,-14,-44,-49v0,-7,-25,-9,-45,-9r0,323v57,-8,73,-47,78,-59v7,-20,17,-22,33,-22v6,0,35,0,35,28xm258,-61r0,-313v-95,24,-116,116,-116,158v0,76,50,137,116,155"},"\u00a3":{"d":"507,-144v0,79,-42,155,-113,155v-53,0,-95,-36,-137,-67v-26,42,-83,67,-143,67v-53,0,-96,-41,-96,-93v-1,-74,102,-113,175,-84v-10,-36,-28,-70,-45,-105v-44,-1,-100,10,-100,-35v1,-31,31,-39,67,-35v-59,-127,27,-270,161,-270v95,0,179,68,179,160v0,24,-20,44,-44,44v-37,0,-58,-49,-32,-74v-15,-37,-58,-60,-103,-60v-61,0,-110,50,-110,110v0,32,8,62,19,90r161,0v19,0,35,16,35,35v0,20,-16,35,-35,35r-128,0v25,50,51,100,53,155v38,29,75,57,123,57v35,0,43,-44,43,-85v0,-19,16,-35,35,-35v20,0,35,16,35,35xm199,-93v-17,-8,-35,-13,-55,-13v-26,0,-56,1,-56,24v0,13,12,23,26,23v36,0,74,-9,85,-34"},"\u00a4":{"d":"421,-147v-42,30,-58,-14,-81,-32v-44,29,-111,29,-155,0v-23,18,-40,60,-81,31v-30,-41,14,-58,31,-81v-27,-43,-28,-111,0,-154v-18,-24,-61,-39,-32,-82v43,-30,58,15,82,32v44,-29,111,-29,155,0v22,-19,39,-60,80,-31v30,41,-13,58,-31,80v29,44,29,112,0,156v19,23,61,38,32,81xm341,-306v0,-43,-35,-79,-78,-79v-44,0,-79,36,-79,79v0,43,35,79,79,79v43,0,78,-36,78,-79"},"\u00a5":{"d":"505,-580v0,39,-32,28,-61,30r-63,131v37,-3,74,0,74,35v0,47,-63,33,-108,35r-41,86v55,7,149,-23,149,35v0,59,-102,28,-158,35r0,132v32,2,65,-10,65,31v0,30,-25,30,-40,30r-119,0v-16,0,-40,0,-40,-31v0,-40,34,-28,65,-30r0,-132v-57,-7,-158,24,-158,-35v0,-58,95,-28,149,-35r-42,-86v-45,-2,-107,12,-107,-35v0,-34,36,-38,73,-35r-63,-131v-30,-2,-61,9,-61,-31v0,-30,25,-30,40,-30r104,0v15,0,40,0,40,30v0,31,-22,31,-46,31r62,131r90,0r58,-131v-24,0,-46,0,-46,-31v0,-30,25,-30,40,-30r104,0v16,0,40,0,40,31xm278,-349r-28,0v5,14,10,26,12,35"},"\u00a6":{"d":"297,-407v0,18,-16,31,-35,31v-19,0,-35,-13,-35,-31r0,-240v0,-12,0,-47,35,-47v35,0,35,35,35,47r0,240xm297,36v0,12,0,47,-35,47v-35,0,-35,-35,-35,-47r0,-240v0,-18,16,-31,35,-31v19,0,35,13,35,31r0,240"},"\u00a7":{"d":"490,-194v0,43,-23,80,-57,102v73,108,-45,214,-170,214v-96,0,-193,-42,-193,-127v0,-24,20,-44,44,-44v35,0,57,44,35,71v53,52,239,42,237,-47v0,-46,-53,-65,-100,-80v-107,-34,-250,-79,-250,-201v0,-42,23,-80,57,-101v-73,-109,44,-215,170,-215v96,0,193,42,193,127v0,24,-20,44,-44,44v-35,0,-57,-44,-35,-71v-53,-52,-239,-42,-237,47v0,46,53,65,100,80v107,34,250,79,250,201xm420,-194v0,-117,-193,-110,-274,-167v-24,6,-40,30,-40,55v0,117,194,110,274,168v24,-7,40,-30,40,-56"},"\u00a8":{"d":"225,-555v0,25,-20,45,-45,45v-25,0,-45,-20,-45,-45v0,-26,20,-45,45,-45v25,0,45,19,45,45xm390,-555v0,25,-20,45,-45,45v-25,0,-45,-20,-45,-45v0,-26,20,-45,45,-45v25,0,45,19,45,45"},"\u00a9":{"d":"525,-263v0,145,-118,263,-262,263v-145,0,-263,-118,-263,-263v0,-144,118,-262,263,-262v144,0,262,118,262,262xm487,-263v0,-123,-101,-224,-224,-224v-124,0,-225,101,-225,224v0,124,101,225,225,225v123,0,224,-101,224,-225xm323,-407v13,-22,2,-19,23,-26v16,0,16,13,16,22r0,75v0,11,0,22,-19,22v-16,0,-17,-9,-18,-18v-8,-44,-38,-68,-70,-68v-48,0,-95,57,-95,137v0,81,46,138,95,138v23,0,66,-13,70,-65v1,-16,14,-16,18,-16v6,0,19,0,19,18v0,48,-46,96,-109,96v-70,0,-130,-72,-130,-171v0,-129,108,-215,200,-144"},"\u00aa":{"d":"427,-336v0,22,-16,22,-35,22v-27,0,-61,-1,-76,-23v-83,57,-218,20,-218,-67v0,-67,86,-102,210,-104v1,-59,-50,-76,-114,-71v-14,1,-15,2,-15,8v-4,48,-61,40,-62,0v0,-51,71,-51,101,-51v171,0,136,117,139,260v5,11,70,-10,70,26xm396,-258v0,12,-14,21,-31,21r-205,0v-17,0,-31,-9,-31,-21v0,-12,14,-22,31,-22r205,0v17,0,31,10,31,22xm281,-365v45,-20,21,-55,27,-102v-101,3,-161,29,-161,63v0,48,71,66,134,39"},"\u00ab":{"d":"463,-143v31,17,11,84,-25,53r-218,-188v-16,-11,-12,-51,3,-58r215,-186v21,-20,40,-7,40,23v0,17,-8,24,-15,30r-188,163xm301,-143v31,17,12,85,-25,53r-218,-188v-16,-11,-12,-51,3,-58r215,-186v21,-20,40,-7,40,23v0,17,-8,24,-15,30r-188,163"},"\u00ac":{"d":"486,-230v0,19,-16,35,-35,35v-57,0,-28,-97,-35,-152r-343,0v-19,0,-35,-16,-35,-35v0,-19,16,-35,35,-35r378,0v19,0,35,16,35,35r0,152"},"\u00ae":{"d":"525,-263v0,145,-118,263,-262,263v-145,0,-263,-118,-263,-263v0,-144,118,-262,263,-262v144,0,262,118,262,262xm487,-263v0,-123,-101,-224,-224,-224v-124,0,-225,101,-225,224v0,124,101,225,225,225v123,0,224,-101,224,-225xm319,-265v18,19,31,30,31,84v0,29,0,53,15,53v9,0,10,-20,10,-24v1,-16,13,-16,19,-16v5,0,18,0,18,17v0,21,-13,56,-47,56v-43,0,-56,-37,-52,-93v4,-60,-41,-65,-98,-61r0,115v17,1,35,-5,35,17v0,16,-14,16,-22,16r-64,0v-8,0,-21,0,-21,-16v0,-23,18,-16,35,-17r0,-263v-17,-1,-35,6,-35,-17v0,-16,13,-16,21,-16r96,0v102,2,144,111,59,165xm254,-282v97,-2,98,-113,0,-115r-39,0r0,115r39,0"},"\u00af":{"d":"452,-555v0,31,-24,31,-40,31r-297,0v-17,0,-41,0,-41,-32v0,-31,24,-31,40,-31r298,0v17,0,40,0,40,32"},"\u00b0":{"d":"408,-465v0,80,-65,146,-145,146v-81,0,-146,-66,-146,-146v0,-81,65,-146,146,-146v80,0,145,65,145,146xm338,-465v0,-42,-34,-76,-75,-76v-42,0,-76,34,-76,76v0,42,34,76,76,76v41,0,75,-34,75,-76"},"\u00b1":{"d":"486,-35v0,35,-35,35,-47,35r-354,0v-12,0,-47,0,-47,-35v0,-35,35,-35,47,-35r142,0r0,-120r-142,0v-12,0,-47,0,-47,-35v0,-35,35,-35,47,-35r142,0r0,-143v0,-12,0,-47,35,-47v35,0,35,35,35,47r0,143r142,0v12,0,47,0,47,35v0,35,-35,35,-47,35r-142,0r0,120r142,0v12,0,47,0,47,35"},"\u00b2":{"d":"368,-525v0,90,-96,127,-154,183r119,0v0,-14,0,-23,18,-23v23,0,17,16,17,33v0,16,-4,21,-20,21r-170,0v-15,6,-26,-18,-13,-29r111,-93v33,-28,57,-57,57,-92v0,-73,-118,-91,-138,-28v15,11,3,38,-15,38v-8,0,-22,-5,-22,-24v0,-42,39,-83,98,-83v61,0,112,37,112,97"},"\u00b3":{"d":"315,-478v92,37,64,172,-51,172v-62,0,-110,-29,-110,-73v0,-33,45,-30,44,-2v0,10,-3,13,-6,16v38,53,145,27,145,-33v0,-36,-39,-63,-98,-63v-8,0,-20,0,-20,-15v1,-30,66,-6,83,-32v37,-31,22,-86,-38,-84v-5,0,-40,0,-56,16v12,10,-2,40,-17,36v-10,0,-23,-7,-23,-24v0,-34,35,-58,95,-58v103,-1,122,98,52,144"},"\u00b4":{"d":"334,-622v39,3,52,50,7,70r-133,59v-6,3,-11,5,-18,5v-43,0,-42,-58,-8,-69v52,-17,97,-48,152,-65"},"\u00b5":{"d":"513,-30v-7,52,-67,30,-112,30v-18,0,-42,0,-44,-31v-50,35,-110,50,-191,26r0,166v38,4,85,-15,85,31v0,30,-26,30,-43,30r-154,0v-18,0,-43,0,-43,-31v0,-45,48,-26,85,-30r0,-530v-38,-4,-81,15,-85,-31v7,-52,67,-30,112,-30v36,0,43,8,43,43r0,266v0,34,0,66,79,66v14,0,48,0,81,-26v32,-26,32,-56,32,-77r0,-211v-38,-4,-81,15,-85,-31v7,-52,67,-30,112,-30v36,0,43,8,43,43r0,326v38,4,81,-15,85,31"},"\u00b6":{"d":"500,-674v0,34,-42,15,-71,20r0,815v0,14,0,33,-17,33v-18,0,-18,-19,-18,-33r0,-815r-60,0r0,815v0,14,0,33,-17,33v-17,0,-17,-19,-17,-33r0,-391v-110,-5,-252,-76,-252,-233v0,-126,95,-231,215,-231r209,0v12,0,28,0,28,20"},"\u00b7":{"d":"325,-305v0,31,-25,62,-63,62v-32,0,-62,-26,-62,-63v0,-31,25,-62,63,-62v32,0,62,26,62,63"},"\u00b8":{"d":"428,106v0,102,-140,102,-235,102v-15,0,-31,-8,-31,-31v0,-31,22,-31,60,-31v38,0,137,0,137,-40v0,-20,-23,-37,-67,-40v-43,-3,-32,-34,-32,-69v0,-20,0,-42,35,-42v34,0,34,17,34,54v71,14,99,58,99,97"},"\u00b9":{"d":"347,-326v0,15,-13,15,-20,15r-126,0v-7,0,-20,0,-20,-15v0,-31,41,-11,66,-16r0,-211v-22,19,-43,22,-52,22v-8,0,-17,-2,-17,-15v0,-14,11,-15,19,-15v9,-1,35,-7,54,-49v3,-6,6,-12,15,-12v15,0,15,12,15,20r0,260v26,5,66,-14,66,16"},"\u00ba":{"d":"406,-465v0,88,-67,155,-143,155v-77,0,-144,-66,-144,-155v0,-88,65,-157,144,-157v78,0,143,69,143,157xm375,-258v0,12,-14,21,-31,21r-163,0v-17,0,-31,-9,-31,-21v0,-12,14,-22,31,-22r163,0v17,0,31,10,31,22xm358,-470v0,-64,-45,-109,-95,-109v-50,0,-96,45,-96,109v0,65,44,117,96,117v51,0,95,-52,95,-117"},"\u00bb":{"d":"463,-336v15,7,18,45,3,58r-218,188v-21,20,-40,7,-40,-23v0,-17,8,-24,15,-30r188,-163r-188,-163v-31,-17,-12,-85,25,-53xm301,-336v15,7,18,45,3,58r-218,188v-21,20,-40,7,-40,-23v0,-17,8,-24,15,-30r188,-163r-188,-163v-31,-17,-11,-84,25,-53"},"\u00bc":{"d":"195,-326v0,15,-13,15,-20,15r-126,0v-7,0,-20,0,-20,-15v0,-31,41,-11,66,-16r0,-211v-22,19,-43,22,-52,22v-8,0,-17,-2,-17,-15v0,-14,11,-15,19,-15v9,-1,35,-7,54,-49v3,-6,6,-12,15,-12v15,0,15,12,15,20r0,260v26,5,66,-14,66,16xm499,-100v-4,27,-36,11,-59,15r0,54v22,3,51,-11,51,16v0,15,-12,15,-20,15r-90,0v-7,0,-20,0,-20,-15v0,-27,29,-12,51,-16r0,-54r-126,0v-22,6,-23,-24,-15,-37r114,-179v6,-14,18,-10,35,-11v17,0,20,4,20,21r0,176v23,4,55,-12,59,15xm446,-626v26,0,43,28,31,52r-315,571v-14,30,-68,19,-66,-17v0,-6,2,-12,5,-17r315,-571v6,-11,17,-18,30,-18xm412,-115r0,-175r-111,175r111,0"},"\u00bd":{"d":"195,-326v0,15,-13,15,-20,15r-126,0v-7,0,-20,0,-20,-15v0,-31,41,-11,66,-16r0,-211v-22,19,-43,22,-52,22v-8,0,-17,-2,-17,-15v0,-14,11,-15,19,-15v9,-1,35,-7,54,-49v3,-6,6,-12,15,-12v15,0,15,12,15,20r0,260v26,5,66,-14,66,16xm499,-214v0,91,-97,128,-153,183r119,0v0,-14,0,-23,17,-23v23,1,17,16,17,33v0,16,-3,21,-20,21r-169,0v-15,6,-30,-21,-13,-29r110,-93v33,-28,58,-57,58,-92v0,-73,-118,-91,-138,-28v15,11,3,38,-15,38v-9,0,-23,-5,-23,-24v0,-42,40,-83,99,-83v61,0,111,37,111,97xm389,-608v23,-43,82,-4,62,34r-315,571v-14,30,-68,19,-66,-17v0,-6,2,-12,4,-17"},"\u00be":{"d":"184,-478v91,37,64,172,-52,172v-61,0,-110,-29,-110,-73v0,-32,45,-30,45,-2v0,10,-4,13,-6,16v38,54,145,26,145,-33v0,-36,-39,-63,-98,-63v-8,0,-20,0,-20,-15v0,-30,66,-6,82,-32v38,-31,22,-86,-38,-84v-4,0,-40,0,-55,16v10,12,-2,39,-18,36v-10,0,-22,-7,-22,-24v0,-34,35,-58,95,-58v102,-1,123,98,52,144xm499,-100v-4,27,-36,11,-59,15r0,54v22,3,51,-11,51,16v0,15,-12,15,-20,15r-90,0v-7,0,-20,0,-20,-15v0,-27,29,-12,51,-16r0,-54r-126,0v-22,6,-23,-24,-15,-37r114,-179v6,-14,18,-10,35,-11v17,0,20,4,20,21r0,176v23,4,55,-12,59,15xm446,-626v26,0,43,28,31,52r-315,571v-14,30,-68,19,-66,-17v0,-6,2,-12,5,-17r315,-571v6,-11,17,-18,30,-18xm412,-115r0,-175r-111,175r111,0"},"\u00bf":{"d":"297,-339v0,28,-22,50,-50,50v-28,0,-50,-22,-50,-50v0,-28,22,-50,50,-50v28,0,50,22,50,50xm462,106v0,122,-182,122,-214,122v-178,0,-186,-100,-186,-124v0,-58,42,-86,59,-98v88,-67,86,-113,86,-170v0,-36,10,-41,40,-41v40,0,40,13,40,52v0,40,0,125,-125,209v-12,8,-31,21,-31,48v0,63,98,63,118,63v16,0,99,0,133,-34v-24,-29,3,-74,35,-74v21,0,45,15,45,47"},"\u00c0":{"d":"437,-61v35,-2,61,2,60,31v0,30,-26,30,-43,30r-102,0v-18,0,-42,0,-42,-30v0,-31,20,-31,56,-31r-23,-104r-162,0r-23,104v36,0,56,0,56,31v0,30,-24,30,-42,30r-102,0v-17,0,-43,0,-43,-30v-1,-29,24,-34,60,-31r121,-524v9,-38,25,-38,54,-38v31,0,45,1,54,39xm328,-226r-66,-314r-66,314r132,0xm368,-713v0,8,-7,40,-33,40v-55,-16,-100,-43,-151,-64v-24,-10,-28,-24,-28,-35v2,-27,24,-44,54,-30r133,60v14,6,25,11,25,29"},"\u00c1":{"d":"437,-61v35,-2,61,2,60,31v0,30,-26,30,-43,30r-102,0v-18,0,-42,0,-42,-30v0,-31,20,-31,56,-31r-23,-104r-162,0r-23,104v36,0,56,0,56,31v0,30,-24,30,-42,30r-102,0v-17,0,-43,0,-43,-30v-1,-29,24,-34,60,-31r121,-524v9,-38,25,-38,54,-38v31,0,45,1,54,39xm328,-226r-66,-314r-66,314r132,0xm334,-807v39,3,52,50,7,70r-133,59v-6,3,-11,5,-18,5v-43,0,-42,-58,-8,-69v52,-17,97,-48,152,-65"},"\u00c2":{"d":"437,-61v35,-2,61,2,60,31v0,30,-26,30,-43,30r-102,0v-18,0,-42,0,-42,-30v0,-31,20,-31,56,-31r-23,-104r-162,0r-23,104v36,0,56,0,56,31v0,30,-24,30,-42,30r-102,0v-17,0,-43,0,-43,-30v-1,-29,24,-34,60,-31r121,-524v9,-38,25,-38,54,-38v31,0,45,1,54,39xm328,-226r-66,-314r-66,314r132,0xm391,-721v35,13,17,67,-19,56r-109,-33r-109,33v-36,11,-54,-43,-18,-56r118,-43v6,-2,13,-2,19,0"},"\u00c3":{"d":"437,-61v35,-2,61,2,60,31v0,30,-26,30,-43,30r-102,0v-18,0,-42,0,-42,-30v0,-31,20,-31,56,-31r-23,-104r-162,0r-23,104v36,0,56,0,56,31v0,30,-24,30,-42,30r-102,0v-17,0,-43,0,-43,-30v-1,-29,24,-34,60,-31r121,-524v9,-38,25,-38,54,-38v31,0,45,1,54,39xm328,-226r-66,-314r-66,314r132,0xm215,-783v52,-2,65,47,98,55v14,0,42,-14,70,-44v19,-20,56,-7,55,21v-11,38,-79,86,-127,88v-52,2,-65,-47,-98,-55v-14,0,-42,14,-70,44v-19,20,-56,7,-55,-21v11,-38,79,-86,127,-88"},"\u00c4":{"d":"437,-61v35,-2,61,2,60,31v0,30,-26,30,-43,30r-102,0v-18,0,-42,0,-42,-30v0,-31,20,-31,56,-31r-23,-104r-162,0r-23,104v36,0,56,0,56,31v0,30,-24,30,-42,30r-102,0v-17,0,-43,0,-43,-30v-1,-29,24,-34,60,-31r121,-524v9,-38,25,-38,54,-38v31,0,45,1,54,39xm328,-226r-66,-314r-66,314r132,0xm210,-708v0,25,-20,45,-45,45v-25,0,-45,-20,-45,-45v0,-26,20,-45,45,-45v25,0,45,19,45,45xm405,-708v0,25,-20,45,-45,45v-25,0,-45,-20,-45,-45v0,-26,20,-45,45,-45v25,0,45,19,45,45"},"\u00c5":{"d":"437,-61v35,-2,61,2,60,31v0,30,-26,30,-43,30r-102,0v-18,0,-42,0,-42,-30v0,-31,20,-31,56,-31r-23,-104r-162,0r-23,104v36,0,56,0,56,31v0,30,-24,30,-42,30r-102,0v-17,0,-43,0,-43,-30v-1,-29,24,-34,60,-31r121,-524v9,-38,25,-38,54,-38v31,0,45,1,54,39xm328,-226r-66,-314r-66,314r132,0xm310,-695v-1,-43,-93,-44,-94,0v1,43,93,44,94,0xm360,-695v0,37,-41,72,-97,72v-56,0,-97,-35,-97,-72v0,-37,41,-72,97,-72v56,0,97,35,97,72"},"\u00c6":{"d":"499,-130v0,51,25,130,-40,130r-194,0v-16,0,-41,0,-41,-31v0,-30,26,-30,40,-30r0,-122r-111,0r-25,122v23,0,46,0,46,31v0,54,-66,30,-111,30v-15,0,-40,0,-40,-30v0,-31,22,-31,48,-31r99,-489v-16,0,-40,0,-40,-31v0,-30,25,-30,40,-30r281,0v62,-6,40,66,40,114v0,14,0,41,-28,41v-46,0,-22,-55,-28,-94r-115,0r0,203r115,0v16,0,40,0,40,31v0,30,-25,30,-40,30r-115,0r0,225r123,0r0,-69v0,-14,0,-41,28,-41v28,0,28,27,28,41xm264,-244r0,-306r-37,0r-62,306r99,0"},"\u00c7":{"d":"484,-168v0,74,-57,147,-142,171r0,6v71,14,99,58,99,97v0,102,-140,102,-235,102v-15,0,-31,-8,-31,-31v0,-31,22,-31,60,-31v38,0,137,0,137,-40v0,-20,-23,-37,-67,-40v-38,-3,-31,-27,-32,-55v-126,-6,-233,-138,-233,-317v0,-240,200,-399,371,-268v13,-25,13,-27,15,-31v5,-7,10,-17,28,-17v30,0,30,25,30,41r0,139v0,20,0,41,-35,41v-30,0,-32,-16,-35,-33v-14,-81,-69,-127,-129,-127v-89,0,-176,106,-176,255v0,150,86,256,177,256v41,0,122,-24,129,-122v2,-29,25,-29,34,-29v11,0,35,0,35,33"},"\u00c8":{"d":"502,-130v0,51,25,130,-40,130r-395,0v-15,0,-41,0,-41,-30v0,-43,37,-28,71,-31r0,-489v-34,-3,-71,12,-71,-31v0,-30,26,-30,41,-30r373,0v62,-6,40,66,40,114v0,20,0,41,-35,41v-54,0,-28,-52,-34,-94r-245,0r0,203r131,0v0,-41,0,-57,35,-57v34,0,34,22,34,41r0,93v0,19,0,41,-34,41v-35,0,-35,-16,-35,-57r-131,0r0,225r267,0v7,-47,-24,-110,35,-110v34,0,34,22,34,41xm368,-713v0,8,-7,40,-33,40v-55,-16,-100,-43,-151,-64v-24,-10,-28,-24,-28,-35v2,-27,24,-44,54,-30r133,60v14,6,25,11,25,29"},"\u00c9":{"d":"502,-130v0,51,25,130,-40,130r-395,0v-15,0,-41,0,-41,-30v0,-43,37,-28,71,-31r0,-489v-34,-3,-71,12,-71,-31v0,-30,26,-30,41,-30r373,0v62,-6,40,66,40,114v0,20,0,41,-35,41v-54,0,-28,-52,-34,-94r-245,0r0,203r131,0v0,-41,0,-57,35,-57v34,0,34,22,34,41r0,93v0,19,0,41,-34,41v-35,0,-35,-16,-35,-57r-131,0r0,225r267,0v7,-47,-24,-110,35,-110v34,0,34,22,34,41xm334,-807v39,3,52,50,7,70r-133,59v-6,3,-11,5,-18,5v-43,0,-42,-58,-8,-69v52,-17,97,-48,152,-65"},"\u00ca":{"d":"502,-130v0,51,25,130,-40,130r-395,0v-15,0,-41,0,-41,-30v0,-43,37,-28,71,-31r0,-489v-34,-3,-71,12,-71,-31v0,-30,26,-30,41,-30r373,0v62,-6,40,66,40,114v0,20,0,41,-35,41v-54,0,-28,-52,-34,-94r-245,0r0,203r131,0v0,-41,0,-57,35,-57v34,0,34,22,34,41r0,93v0,19,0,41,-34,41v-35,0,-35,-16,-35,-57r-131,0r0,225r267,0v7,-47,-24,-110,35,-110v34,0,34,22,34,41xm391,-721v35,13,17,67,-19,56r-109,-33r-109,33v-36,11,-54,-43,-18,-56r118,-43v6,-2,13,-2,19,0"},"\u00cb":{"d":"502,-130v0,51,25,130,-40,130r-395,0v-15,0,-41,0,-41,-30v0,-43,37,-28,71,-31r0,-489v-34,-3,-71,12,-71,-31v0,-30,26,-30,41,-30r373,0v62,-6,40,66,40,114v0,20,0,41,-35,41v-54,0,-28,-52,-34,-94r-245,0r0,203r131,0v0,-41,0,-57,35,-57v34,0,34,22,34,41r0,93v0,19,0,41,-34,41v-35,0,-35,-16,-35,-57r-131,0r0,225r267,0v7,-47,-24,-110,35,-110v34,0,34,22,34,41xm210,-708v0,25,-20,45,-45,45v-25,0,-45,-20,-45,-45v0,-26,20,-45,45,-45v25,0,45,19,45,45xm405,-708v0,25,-20,45,-45,45v-25,0,-45,-20,-45,-45v0,-26,20,-45,45,-45v25,0,45,19,45,45"},"\u00cc":{"d":"446,-30v0,30,-26,30,-41,30r-285,0v-15,0,-41,0,-41,-31v0,-30,26,-30,41,-30r108,0r0,-489r-108,0v-15,0,-41,0,-41,-31v0,-30,26,-30,41,-30r285,0v15,0,41,0,41,31v0,30,-26,30,-41,30r-108,0r0,489r108,0v15,0,41,0,41,31xm368,-713v0,8,-7,40,-33,40v-55,-16,-100,-43,-151,-64v-24,-10,-28,-24,-28,-35v2,-27,24,-44,54,-30r133,60v14,6,25,11,25,29"},"\u00cd":{"d":"446,-30v0,30,-26,30,-41,30r-285,0v-15,0,-41,0,-41,-31v0,-30,26,-30,41,-30r108,0r0,-489r-108,0v-15,0,-41,0,-41,-31v0,-30,26,-30,41,-30r285,0v15,0,41,0,41,31v0,30,-26,30,-41,30r-108,0r0,489r108,0v15,0,41,0,41,31xm334,-807v39,3,52,50,7,70r-133,59v-6,3,-11,5,-18,5v-43,0,-42,-58,-8,-69v52,-17,97,-48,152,-65"},"\u00ce":{"d":"446,-30v0,30,-26,30,-41,30r-285,0v-15,0,-41,0,-41,-31v0,-30,26,-30,41,-30r108,0r0,-489r-108,0v-15,0,-41,0,-41,-31v0,-30,26,-30,41,-30r285,0v15,0,41,0,41,31v0,30,-26,30,-41,30r-108,0r0,489r108,0v15,0,41,0,41,31xm391,-721v35,13,17,67,-19,56r-109,-33r-109,33v-36,11,-54,-43,-18,-56r118,-43v6,-2,13,-2,19,0"},"\u00cf":{"d":"446,-30v0,30,-26,30,-41,30r-285,0v-15,0,-41,0,-41,-31v0,-30,26,-30,41,-30r108,0r0,-489r-108,0v-15,0,-41,0,-41,-31v0,-30,26,-30,41,-30r285,0v15,0,41,0,41,31v0,30,-26,30,-41,30r-108,0r0,489r108,0v15,0,41,0,41,31xm210,-708v0,25,-20,45,-45,45v-25,0,-45,-20,-45,-45v0,-26,20,-45,45,-45v25,0,45,19,45,45xm405,-708v0,25,-20,45,-45,45v-25,0,-45,-20,-45,-45v0,-26,20,-45,45,-45v25,0,45,19,45,45"},"\u00d0":{"d":"485,-301v0,161,-88,301,-219,301r-206,0v-15,0,-41,0,-41,-30v0,-40,33,-29,63,-31r0,-214v-31,3,-59,-2,-59,-31v0,-28,28,-34,59,-31r0,-213v-30,-2,-63,9,-63,-30v0,-31,25,-31,41,-31r206,0v133,0,219,150,219,310xm416,-301v0,-116,-56,-249,-169,-249r-96,0r0,213v39,1,90,-9,90,31v0,40,-51,30,-90,31r0,214r96,0v111,0,169,-123,169,-240"},"\u00d1":{"d":"496,-580v0,40,-34,28,-65,30r0,509v0,38,-12,41,-42,41v-26,0,-42,-1,-55,-36r-185,-500r0,475v32,2,65,-10,65,31v0,30,-25,30,-40,30r-106,0v-16,0,-40,0,-40,-31v0,-40,34,-28,65,-30r0,-489v-32,-2,-61,10,-65,-31v7,-52,63,-30,108,-30v27,0,42,3,54,36r185,500r0,-475v-31,-2,-65,10,-65,-30v0,-31,24,-31,40,-31r106,0v16,0,40,0,40,31xm215,-783v52,-2,65,47,98,55v14,0,42,-14,70,-44v19,-20,56,-7,55,21v-11,38,-79,86,-127,88v-52,2,-65,-47,-98,-55v-14,0,-42,14,-70,44v-19,20,-56,7,-55,-21v11,-38,79,-86,127,-88"},"\u00d2":{"d":"468,-305v0,289,-22,316,-206,316v-185,0,-206,-27,-206,-316v0,-290,21,-317,206,-317v185,0,206,28,206,317xm262,-50v169,0,137,-132,137,-264v0,-61,0,-136,-12,-183v-15,-55,-50,-64,-125,-64v-82,0,-115,12,-126,71v-19,104,-19,260,1,369v9,51,37,71,125,71xm368,-713v0,8,-7,40,-33,40v-55,-16,-100,-43,-151,-64v-24,-10,-28,-24,-28,-35v2,-27,24,-44,54,-30r133,60v14,6,25,11,25,29"},"\u00d3":{"d":"468,-305v0,289,-22,316,-206,316v-185,0,-206,-27,-206,-316v0,-290,21,-317,206,-317v185,0,206,28,206,317xm262,-50v169,0,137,-132,137,-264v0,-61,0,-136,-12,-183v-15,-55,-50,-64,-125,-64v-82,0,-115,12,-126,71v-19,104,-19,260,1,369v9,51,37,71,125,71xm334,-807v39,3,52,50,7,70r-133,59v-6,3,-11,5,-18,5v-43,0,-42,-58,-8,-69v52,-17,97,-48,152,-65"},"\u00d4":{"d":"468,-305v0,289,-22,316,-206,316v-185,0,-206,-27,-206,-316v0,-290,21,-317,206,-317v185,0,206,28,206,317xm262,-50v169,0,137,-132,137,-264v0,-61,0,-136,-12,-183v-15,-55,-50,-64,-125,-64v-82,0,-115,12,-126,71v-19,104,-19,260,1,369v9,51,37,71,125,71xm391,-721v35,13,17,67,-19,56r-109,-33r-109,33v-36,11,-54,-43,-18,-56r118,-43v6,-2,13,-2,19,0"},"\u00d5":{"d":"468,-305v0,289,-22,316,-206,316v-185,0,-206,-27,-206,-316v0,-290,21,-317,206,-317v185,0,206,28,206,317xm262,-50v169,0,137,-132,137,-264v0,-61,0,-136,-12,-183v-15,-55,-50,-64,-125,-64v-82,0,-115,12,-126,71v-19,104,-19,260,1,369v9,51,37,71,125,71xm215,-783v52,-2,65,47,98,55v14,0,42,-14,70,-44v19,-20,56,-7,55,21v-11,38,-79,86,-127,88v-52,2,-65,-47,-98,-55v-14,0,-42,14,-70,44v-19,20,-56,7,-55,-21v11,-38,79,-86,127,-88"},"\u00d6":{"d":"468,-305v0,289,-22,316,-206,316v-185,0,-206,-27,-206,-316v0,-290,21,-317,206,-317v185,0,206,28,206,317xm262,-50v169,0,137,-132,137,-264v0,-61,0,-136,-12,-183v-15,-55,-50,-64,-125,-64v-82,0,-115,12,-126,71v-19,104,-19,260,1,369v9,51,37,71,125,71xm210,-708v0,25,-20,45,-45,45v-25,0,-45,-20,-45,-45v0,-26,20,-45,45,-45v25,0,45,19,45,45xm405,-708v0,25,-20,45,-45,45v-25,0,-45,-20,-45,-45v0,-26,20,-45,45,-45v25,0,45,19,45,45"},"\u00d7":{"d":"421,-147v-25,25,-49,0,-58,-8r-101,-102r-100,101v-9,8,-34,32,-58,8v-24,-24,0,-49,8,-58r101,-100r-102,-101v-8,-9,-33,-33,-8,-58v25,-25,49,0,58,8r101,102r100,-101v9,-8,34,-32,58,-8v24,24,0,49,-8,58r-101,100r102,101v8,9,33,33,8,58"},"\u00d8":{"d":"132,-4v-85,-27,-76,-187,-76,-301v0,-290,21,-317,206,-317v23,0,44,0,70,2v14,-27,7,-70,45,-76v0,0,32,2,32,30v0,0,0,8,-17,59v65,28,76,97,76,302v0,289,-22,316,-206,316v-23,0,-44,0,-70,-2v-14,27,-7,70,-45,76v0,0,-32,-2,-32,-30v0,0,0,-8,17,-59xm412,-306v0,-203,-21,-218,-42,-234r-158,487v16,3,19,3,50,3v79,0,120,-7,137,-67v13,-48,13,-128,13,-189xm312,-558v-16,-3,-19,-3,-50,-3v-79,0,-120,7,-137,67v-13,48,-13,128,-13,189v0,203,21,218,42,234"},"\u00d9":{"d":"520,-581v0,43,-37,28,-71,31r0,346v0,123,-87,215,-187,215v-100,0,-187,-92,-187,-215r0,-346v-34,-3,-71,12,-71,-31v0,-30,26,-30,41,-30r129,0v15,0,41,0,41,30v0,43,-37,28,-71,31r0,341v0,107,65,159,118,159v52,0,118,-52,118,-159r0,-341v-34,-3,-71,12,-71,-31v0,-30,26,-30,41,-30r129,0v15,0,41,0,41,30xm368,-713v0,8,-7,40,-33,40v-55,-16,-100,-43,-151,-64v-24,-10,-28,-24,-28,-35v2,-27,24,-44,54,-30r133,60v14,6,25,11,25,29"},"\u00da":{"d":"520,-581v0,43,-37,28,-71,31r0,346v0,123,-87,215,-187,215v-100,0,-187,-92,-187,-215r0,-346v-34,-3,-71,12,-71,-31v0,-30,26,-30,41,-30r129,0v15,0,41,0,41,30v0,43,-37,28,-71,31r0,341v0,107,65,159,118,159v52,0,118,-52,118,-159r0,-341v-34,-3,-71,12,-71,-31v0,-30,26,-30,41,-30r129,0v15,0,41,0,41,30xm334,-807v39,3,52,50,7,70r-133,59v-6,3,-11,5,-18,5v-43,0,-42,-58,-8,-69v52,-17,97,-48,152,-65"},"\u00db":{"d":"520,-581v0,43,-37,28,-71,31r0,346v0,123,-87,215,-187,215v-100,0,-187,-92,-187,-215r0,-346v-34,-3,-71,12,-71,-31v0,-30,26,-30,41,-30r129,0v15,0,41,0,41,30v0,43,-37,28,-71,31r0,341v0,107,65,159,118,159v52,0,118,-52,118,-159r0,-341v-34,-3,-71,12,-71,-31v0,-30,26,-30,41,-30r129,0v15,0,41,0,41,30xm391,-721v35,13,17,67,-19,56r-109,-33r-109,33v-36,11,-54,-43,-18,-56r118,-43v6,-2,13,-2,19,0"},"\u00dc":{"d":"520,-581v0,43,-37,28,-71,31r0,346v0,123,-87,215,-187,215v-100,0,-187,-92,-187,-215r0,-346v-34,-3,-71,12,-71,-31v0,-30,26,-30,41,-30r129,0v15,0,41,0,41,30v0,43,-37,28,-71,31r0,341v0,107,65,159,118,159v52,0,118,-52,118,-159r0,-341v-34,-3,-71,12,-71,-31v0,-30,26,-30,41,-30r129,0v15,0,41,0,41,30xm210,-708v0,25,-20,45,-45,45v-25,0,-45,-20,-45,-45v0,-26,20,-45,45,-45v25,0,45,19,45,45xm405,-708v0,25,-20,45,-45,45v-25,0,-45,-20,-45,-45v0,-26,20,-45,45,-45v25,0,45,19,45,45"},"\u00dd":{"d":"505,-580v0,39,-32,28,-61,30r-147,306r0,183v32,2,65,-10,65,31v0,30,-25,30,-40,30r-119,0v-16,0,-40,0,-40,-31v0,-40,34,-28,65,-30r0,-183r-148,-306v-30,-2,-61,9,-61,-31v0,-30,25,-30,40,-30r104,0v15,0,40,0,40,30v0,31,-22,31,-46,31v10,21,91,185,105,236r105,-236v-24,0,-46,0,-46,-31v0,-30,25,-30,40,-30r104,0v16,0,40,0,40,31xm334,-807v39,3,52,50,7,70r-133,59v-6,3,-11,5,-18,5v-43,0,-42,-58,-8,-69v52,-17,97,-48,152,-65"},"\u00de":{"d":"470,-306v0,93,-73,183,-189,183r-125,0r0,62v32,2,65,-10,65,31v0,30,-25,30,-40,30r-119,0v-15,0,-40,0,-40,-30v0,-41,34,-29,65,-31r0,-489v-31,-2,-65,10,-65,-30v0,-31,24,-31,40,-31r119,0v16,0,40,0,40,31v0,40,-34,28,-65,30r0,61r125,0v115,0,189,90,189,183xm401,-306v0,-53,-43,-122,-139,-122r-106,0r0,244r106,0v96,0,139,-69,139,-122"},"\u00df":{"d":"397,-507v0,-66,-217,-68,-217,13r0,453v8,64,-73,41,-123,41v-15,0,-40,0,-40,-30v0,-51,53,-25,94,-31r0,-309v-41,-5,-88,18,-94,-30v5,-50,53,-25,94,-31r0,-70v0,-93,114,-116,178,-116v96,0,177,44,177,109v0,30,-14,76,-83,113v97,68,112,171,112,220v0,110,-91,181,-183,181v-68,0,-102,-38,-102,-75v0,-27,20,-42,41,-42v26,0,43,13,39,52v68,17,136,-32,136,-116v0,-55,-29,-187,-164,-195v0,0,-24,-5,-24,-30v0,-23,16,-30,28,-31v102,-3,131,-54,131,-76"},"\u00e0":{"d":"227,-379v-12,1,-63,-3,-57,12v-6,69,-89,57,-89,0v0,-73,102,-73,145,-73v144,0,198,84,198,155r0,216v8,3,18,8,60,8v15,0,40,0,40,30v0,31,-22,31,-50,31v-38,0,-86,-1,-108,-32v-47,31,-109,38,-146,38v-102,0,-165,-65,-165,-134v0,-96,123,-146,300,-149v0,-71,-52,-102,-128,-102xm316,-72v65,-29,30,-78,39,-146v-145,4,-231,41,-231,90v0,68,102,95,192,56xm368,-528v0,8,-7,40,-33,40v-55,-16,-100,-43,-151,-64v-24,-10,-28,-24,-28,-35v2,-27,24,-44,54,-30r133,60v14,6,25,11,25,29"},"\u00e1":{"d":"227,-379v-12,1,-63,-3,-57,12v-6,69,-89,57,-89,0v0,-73,102,-73,145,-73v144,0,198,84,198,155r0,216v8,3,18,8,60,8v15,0,40,0,40,30v0,31,-22,31,-50,31v-38,0,-86,-1,-108,-32v-47,31,-109,38,-146,38v-102,0,-165,-65,-165,-134v0,-96,123,-146,300,-149v0,-71,-52,-102,-128,-102xm316,-72v65,-29,30,-78,39,-146v-145,4,-231,41,-231,90v0,68,102,95,192,56xm334,-622v39,3,52,50,7,70r-133,59v-6,3,-11,5,-18,5v-43,0,-42,-58,-8,-69v52,-17,97,-48,152,-65"},"\u00e2":{"d":"227,-379v-12,1,-63,-3,-57,12v-6,69,-89,57,-89,0v0,-73,102,-73,145,-73v144,0,198,84,198,155r0,216v8,3,18,8,60,8v15,0,40,0,40,30v0,31,-22,31,-50,31v-38,0,-86,-1,-108,-32v-47,31,-109,38,-146,38v-102,0,-165,-65,-165,-134v0,-96,123,-146,300,-149v0,-71,-52,-102,-128,-102xm316,-72v65,-29,30,-78,39,-146v-145,4,-231,41,-231,90v0,68,102,95,192,56xm397,-542v33,21,2,69,-31,49r-103,-62r-103,62v-33,20,-64,-29,-31,-50r118,-75v9,-6,21,-6,30,0"},"\u00e3":{"d":"227,-379v-12,1,-63,-3,-57,12v-6,69,-89,57,-89,0v0,-73,102,-73,145,-73v144,0,198,84,198,155r0,216v8,3,18,8,60,8v15,0,40,0,40,30v0,31,-22,31,-50,31v-38,0,-86,-1,-108,-32v-47,31,-109,38,-146,38v-102,0,-165,-65,-165,-134v0,-96,123,-146,300,-149v0,-71,-52,-102,-128,-102xm316,-72v65,-29,30,-78,39,-146v-145,4,-231,41,-231,90v0,68,102,95,192,56xm215,-615v52,-2,65,47,98,55v14,0,42,-14,70,-44v19,-20,56,-7,55,21v-11,38,-79,86,-127,88v-52,2,-65,-47,-98,-55v-14,0,-42,14,-70,44v-19,20,-56,7,-55,-21v11,-38,79,-86,127,-88"},"\u00e4":{"d":"227,-379v-12,1,-63,-3,-57,12v-6,69,-89,57,-89,0v0,-73,102,-73,145,-73v144,0,198,84,198,155r0,216v8,3,18,8,60,8v15,0,40,0,40,30v0,31,-22,31,-50,31v-38,0,-86,-1,-108,-32v-47,31,-109,38,-146,38v-102,0,-165,-65,-165,-134v0,-96,123,-146,300,-149v0,-71,-52,-102,-128,-102xm316,-72v65,-29,30,-78,39,-146v-145,4,-231,41,-231,90v0,68,102,95,192,56xm225,-555v0,25,-20,45,-45,45v-25,0,-45,-20,-45,-45v0,-26,20,-45,45,-45v25,0,45,19,45,45xm390,-555v0,25,-20,45,-45,45v-25,0,-45,-20,-45,-45v0,-26,20,-45,45,-45v25,0,45,19,45,45"},"\u00e5":{"d":"227,-379v-12,1,-63,-3,-57,12v-6,69,-89,57,-89,0v0,-73,102,-73,145,-73v144,0,198,84,198,155r0,216v8,3,18,8,60,8v15,0,40,0,40,30v0,31,-22,31,-50,31v-38,0,-86,-1,-108,-32v-47,31,-109,38,-146,38v-102,0,-165,-65,-165,-134v0,-96,123,-146,300,-149v0,-71,-52,-102,-128,-102xm316,-72v65,-29,30,-78,39,-146v-145,4,-231,41,-231,90v0,68,102,95,192,56xm310,-564v-1,-43,-93,-44,-94,0v1,43,93,44,94,0xm360,-564v0,37,-41,72,-97,72v-56,0,-97,-35,-97,-72v0,-37,41,-72,97,-72v56,0,97,35,97,72"},"\u00e6":{"d":"504,-109v0,20,-30,115,-115,115v-65,0,-106,-59,-113,-69v-26,44,-79,69,-129,69v-72,0,-114,-65,-114,-124v0,-83,89,-129,201,-130v7,-86,-28,-149,-106,-127v7,40,-35,59,-43,54v-24,0,-45,-16,-45,-46v0,-33,25,-73,117,-73v54,0,91,29,115,72v92,-141,237,-67,232,135v0,31,-4,42,-40,42r-172,0v8,85,58,136,102,136v22,0,44,-18,54,-57v2,-6,6,-25,28,-25v16,0,28,13,28,28xm447,-251v-5,-96,-38,-128,-68,-128v-43,0,-81,64,-87,128r155,0xm234,-189v-79,3,-145,27,-145,70v0,54,64,88,122,43v34,-26,17,-78,23,-113"},"\u00e7":{"d":"466,-109v0,15,-26,91,-124,110r0,8v71,14,99,58,99,97v0,102,-140,102,-235,102v-15,0,-31,-8,-31,-31v0,-31,22,-31,60,-31v38,0,137,0,137,-40v0,-20,-23,-37,-67,-40v-40,-3,-31,-30,-32,-61v-116,-10,-200,-107,-200,-221v0,-88,60,-224,232,-224v45,0,149,0,149,73v0,29,-21,46,-45,46v-24,0,-43,-14,-44,-49v0,-9,-39,-9,-60,-9v-135,0,-163,115,-163,163v0,91,72,161,157,161v74,0,94,-47,99,-60v8,-20,17,-22,33,-22v6,0,35,0,35,28"},"\u00e8":{"d":"464,-109v0,25,-47,115,-179,115v-129,0,-230,-101,-230,-223v0,-123,96,-223,215,-223v130,0,194,98,194,212v0,37,-19,37,-40,37r-298,0v16,86,91,136,166,136v28,0,83,-9,104,-60v8,-19,15,-22,33,-22v6,0,35,0,35,28xm393,-251v-9,-103,-71,-128,-123,-128v-70,0,-129,55,-143,128r266,0xm368,-528v0,8,-7,40,-33,40v-55,-16,-100,-43,-151,-64v-24,-10,-28,-24,-28,-35v2,-27,24,-44,54,-30r133,60v14,6,25,11,25,29"},"\u00e9":{"d":"464,-109v0,25,-47,115,-179,115v-129,0,-230,-101,-230,-223v0,-123,96,-223,215,-223v130,0,194,98,194,212v0,37,-19,37,-40,37r-298,0v16,86,91,136,166,136v28,0,83,-9,104,-60v8,-19,15,-22,33,-22v6,0,35,0,35,28xm393,-251v-9,-103,-71,-128,-123,-128v-70,0,-129,55,-143,128r266,0xm334,-622v39,3,52,50,7,70r-133,59v-6,3,-11,5,-18,5v-43,0,-42,-58,-8,-69v52,-17,97,-48,152,-65"},"\u00ea":{"d":"464,-109v0,25,-47,115,-179,115v-129,0,-230,-101,-230,-223v0,-123,96,-223,215,-223v130,0,194,98,194,212v0,37,-19,37,-40,37r-298,0v16,86,91,136,166,136v28,0,83,-9,104,-60v8,-19,15,-22,33,-22v6,0,35,0,35,28xm393,-251v-9,-103,-71,-128,-123,-128v-70,0,-129,55,-143,128r266,0xm397,-542v33,21,2,69,-31,49r-103,-62r-103,62v-33,20,-64,-29,-31,-50r118,-75v9,-6,21,-6,30,0"},"\u00eb":{"d":"464,-109v0,25,-47,115,-179,115v-129,0,-230,-101,-230,-223v0,-123,96,-223,215,-223v130,0,194,98,194,212v0,37,-19,37,-40,37r-298,0v16,86,91,136,166,136v28,0,83,-9,104,-60v8,-19,15,-22,33,-22v6,0,35,0,35,28xm393,-251v-9,-103,-71,-128,-123,-128v-70,0,-129,55,-143,128r266,0xm225,-555v0,25,-20,45,-45,45v-25,0,-45,-20,-45,-45v0,-26,20,-45,45,-45v25,0,45,19,45,45xm390,-555v0,25,-20,45,-45,45v-25,0,-45,-20,-45,-45v0,-26,20,-45,45,-45v25,0,45,19,45,45"},"\u00ec":{"d":"455,-30v0,30,-26,30,-41,30r-295,0v-15,0,-41,0,-41,-30v0,-31,25,-31,41,-31r121,0r0,-309r-113,0v-15,0,-41,0,-41,-31v0,-30,26,-30,41,-30r142,0v34,0,40,10,40,41r0,329r105,0v15,0,41,0,41,31xm368,-528v0,8,-7,40,-33,40v-55,-16,-100,-43,-151,-64v-24,-10,-28,-24,-28,-35v2,-27,24,-44,54,-30r133,60v14,6,25,11,25,29"},"\u00ed":{"d":"455,-30v0,30,-26,30,-41,30r-295,0v-15,0,-41,0,-41,-30v0,-31,25,-31,41,-31r121,0r0,-309r-113,0v-15,0,-41,0,-41,-31v0,-30,26,-30,41,-30r142,0v34,0,40,10,40,41r0,329r105,0v15,0,41,0,41,31xm334,-622v39,3,52,50,7,70r-133,59v-6,3,-11,5,-18,5v-43,0,-42,-58,-8,-69v52,-17,97,-48,152,-65"},"\u00ee":{"d":"455,-30v0,30,-26,30,-41,30r-295,0v-15,0,-41,0,-41,-30v0,-31,25,-31,41,-31r121,0r0,-309r-113,0v-15,0,-41,0,-41,-31v0,-30,26,-30,41,-30r142,0v34,0,40,10,40,41r0,329r105,0v15,0,41,0,41,31xm397,-542v33,21,2,69,-31,49r-103,-62r-103,62v-33,20,-64,-29,-31,-50r118,-75v9,-6,21,-6,30,0"},"\u00ef":{"d":"455,-30v0,30,-26,30,-41,30r-295,0v-15,0,-41,0,-41,-30v0,-31,25,-31,41,-31r121,0r0,-309r-113,0v-15,0,-41,0,-41,-31v0,-30,26,-30,41,-30r142,0v34,0,40,10,40,41r0,329r105,0v15,0,41,0,41,31xm225,-555v0,25,-20,45,-45,45v-25,0,-45,-20,-45,-45v0,-26,20,-45,45,-45v25,0,45,19,45,45xm390,-555v0,25,-20,45,-45,45v-25,0,-45,-20,-45,-45v0,-26,20,-45,45,-45v25,0,45,19,45,45"},"\u00f0":{"d":"467,-216v0,115,-91,222,-205,222v-110,0,-205,-95,-205,-222v0,-175,192,-290,325,-181v-8,-41,-21,-76,-40,-104v-12,11,-21,29,-41,29v-27,1,-41,-35,-22,-53r17,-17v-27,-21,-89,0,-91,-45v0,-17,14,-31,31,-31v40,0,74,11,103,31v12,-11,22,-30,43,-31v26,-1,41,34,23,52r-22,22v60,78,84,205,84,328xm398,-223v0,-91,-64,-156,-136,-156v-71,0,-136,65,-136,156v0,93,62,168,136,168v74,0,136,-75,136,-168"},"\u00f1":{"d":"512,-30v0,30,-26,30,-40,30r-153,0v-14,0,-41,0,-41,-30v0,-46,43,-27,80,-31r0,-227v0,-60,-14,-88,-67,-88v-51,0,-125,38,-125,138r0,177v39,4,85,-16,85,31v0,30,-26,30,-40,30r-159,0v-14,0,-40,0,-40,-30v0,-48,47,-26,85,-31r0,-309v-38,-4,-79,16,-85,-30v7,-55,67,-31,114,-31v40,0,40,15,40,47v19,-19,64,-53,131,-53v79,0,130,43,130,144r0,232v39,4,85,-16,85,31xm215,-615v52,-2,65,47,98,55v14,0,42,-14,70,-44v19,-20,56,-7,55,21v-11,38,-79,86,-127,88v-52,2,-65,-47,-98,-55v-14,0,-42,14,-70,44v-19,20,-56,7,-55,-21v11,-38,79,-86,127,-88"},"\u00f2":{"d":"467,-216v0,126,-95,222,-205,222v-110,0,-205,-95,-205,-222v0,-125,93,-224,205,-224v112,0,205,99,205,224xm398,-223v0,-91,-64,-156,-136,-156v-71,0,-136,65,-136,156v0,93,62,168,136,168v74,0,136,-75,136,-168xm368,-528v0,8,-7,40,-33,40v-55,-16,-100,-43,-151,-64v-24,-10,-28,-24,-28,-35v2,-27,24,-44,54,-30r133,60v14,6,25,11,25,29"},"\u00f3":{"d":"467,-216v0,126,-95,222,-205,222v-110,0,-205,-95,-205,-222v0,-125,93,-224,205,-224v112,0,205,99,205,224xm398,-223v0,-91,-64,-156,-136,-156v-71,0,-136,65,-136,156v0,93,62,168,136,168v74,0,136,-75,136,-168xm334,-622v39,3,52,50,7,70r-133,59v-6,3,-11,5,-18,5v-43,0,-42,-58,-8,-69v52,-17,97,-48,152,-65"},"\u00f4":{"d":"467,-216v0,126,-95,222,-205,222v-110,0,-205,-95,-205,-222v0,-125,93,-224,205,-224v112,0,205,99,205,224xm398,-223v0,-91,-64,-156,-136,-156v-71,0,-136,65,-136,156v0,93,62,168,136,168v74,0,136,-75,136,-168xm397,-542v33,21,2,69,-31,49r-103,-62r-103,62v-33,20,-64,-29,-31,-50r118,-75v9,-6,21,-6,30,0"},"\u00f5":{"d":"467,-216v0,126,-95,222,-205,222v-110,0,-205,-95,-205,-222v0,-125,93,-224,205,-224v112,0,205,99,205,224xm398,-223v0,-91,-64,-156,-136,-156v-71,0,-136,65,-136,156v0,93,62,168,136,168v74,0,136,-75,136,-168xm215,-615v52,-2,65,47,98,55v14,0,42,-14,70,-44v19,-20,56,-7,55,21v-11,38,-79,86,-127,88v-52,2,-65,-47,-98,-55v-14,0,-42,14,-70,44v-19,20,-56,7,-55,-21v11,-38,79,-86,127,-88"},"\u00f6":{"d":"467,-216v0,126,-95,222,-205,222v-110,0,-205,-95,-205,-222v0,-125,93,-224,205,-224v112,0,205,99,205,224xm398,-223v0,-91,-64,-156,-136,-156v-71,0,-136,65,-136,156v0,93,62,168,136,168v74,0,136,-75,136,-168xm225,-555v0,25,-20,45,-45,45v-25,0,-45,-20,-45,-45v0,-26,20,-45,45,-45v25,0,45,19,45,45xm390,-555v0,25,-20,45,-45,45v-25,0,-45,-20,-45,-45v0,-26,20,-45,45,-45v25,0,45,19,45,45"},"\u00f7":{"d":"486,-306v0,35,-33,35,-45,35r-358,0v-12,0,-45,0,-45,-35v0,-35,37,-35,51,-35r346,0v14,0,51,0,51,35xm324,-517v0,31,-25,62,-63,62v-32,0,-62,-26,-62,-63v0,-31,25,-62,63,-62v32,0,62,26,62,63xm324,-93v0,31,-25,62,-63,62v-32,0,-62,-26,-62,-63v0,-31,25,-62,63,-62v32,0,62,26,62,63"},"\u00f8":{"d":"449,-571v19,0,42,22,25,51r-75,130v49,45,80,107,80,174v0,151,-144,267,-300,205r-77,132v-7,25,-58,26,-59,-11v19,-53,58,-103,83,-152v-162,-130,-62,-399,136,-398v40,0,68,11,85,18r75,-130v5,-9,11,-19,27,-19xm210,-63v168,53,289,-163,158,-275xm316,-370v-161,-55,-297,151,-160,276"},"\u00f9":{"d":"512,-31v-7,55,-67,31,-114,31v-18,0,-39,0,-40,-32v-37,28,-78,38,-119,38v-73,0,-142,-24,-142,-120r0,-256v-38,-4,-79,16,-85,-30v7,-55,67,-31,114,-31v34,0,40,10,40,41r0,270v0,32,0,65,79,65v32,0,113,-12,113,-102r0,-213v-38,-4,-79,16,-85,-30v7,-55,67,-31,114,-31v34,0,40,10,40,41r0,329v38,4,79,-16,85,30xm368,-528v0,8,-7,40,-33,40v-55,-16,-100,-43,-151,-64v-24,-10,-28,-24,-28,-35v2,-27,24,-44,54,-30r133,60v14,6,25,11,25,29"},"\u00fa":{"d":"512,-31v-7,55,-67,31,-114,31v-18,0,-39,0,-40,-32v-37,28,-78,38,-119,38v-73,0,-142,-24,-142,-120r0,-256v-38,-4,-79,16,-85,-30v7,-55,67,-31,114,-31v34,0,40,10,40,41r0,270v0,32,0,65,79,65v32,0,113,-12,113,-102r0,-213v-38,-4,-79,16,-85,-30v7,-55,67,-31,114,-31v34,0,40,10,40,41r0,329v38,4,79,-16,85,30xm334,-622v39,3,52,50,7,70r-133,59v-6,3,-11,5,-18,5v-43,0,-42,-58,-8,-69v52,-17,97,-48,152,-65"},"\u00fb":{"d":"512,-31v-7,55,-67,31,-114,31v-18,0,-39,0,-40,-32v-37,28,-78,38,-119,38v-73,0,-142,-24,-142,-120r0,-256v-38,-4,-79,16,-85,-30v7,-55,67,-31,114,-31v34,0,40,10,40,41r0,270v0,32,0,65,79,65v32,0,113,-12,113,-102r0,-213v-38,-4,-79,16,-85,-30v7,-55,67,-31,114,-31v34,0,40,10,40,41r0,329v38,4,79,-16,85,30xm397,-542v33,21,2,69,-31,49r-103,-62r-103,62v-33,20,-64,-29,-31,-50r118,-75v9,-6,21,-6,30,0"},"\u00fc":{"d":"512,-31v-7,55,-67,31,-114,31v-18,0,-39,0,-40,-32v-37,28,-78,38,-119,38v-73,0,-142,-24,-142,-120r0,-256v-38,-4,-79,16,-85,-30v7,-55,67,-31,114,-31v34,0,40,10,40,41r0,270v0,32,0,65,79,65v32,0,113,-12,113,-102r0,-213v-38,-4,-79,16,-85,-30v7,-55,67,-31,114,-31v34,0,40,10,40,41r0,329v38,4,79,-16,85,30xm225,-555v0,25,-20,45,-45,45v-25,0,-45,-20,-45,-45v0,-26,20,-45,45,-45v25,0,45,19,45,45xm390,-555v0,25,-20,45,-45,45v-25,0,-45,-20,-45,-45v0,-26,20,-45,45,-45v25,0,45,19,45,45"},"\u00fd":{"d":"500,-400v0,42,-37,27,-70,30r-155,455v-4,11,-49,143,-149,143v-49,0,-83,-40,-83,-82v0,-26,17,-44,44,-44v34,0,51,40,38,65v15,-1,54,-2,80,-58v16,-36,48,-107,34,-122r-142,-357v-33,-3,-71,12,-71,-30v0,-31,24,-31,40,-31r117,0v16,0,40,0,40,31v0,40,-34,28,-65,30r115,299v26,-99,67,-202,98,-299v-33,-2,-68,11,-68,-31v0,-30,25,-30,40,-30r117,0v16,0,40,0,40,31xm334,-622v39,3,52,50,7,70r-133,59v-6,3,-11,5,-18,5v-43,0,-42,-58,-8,-69v52,-17,97,-48,152,-65"},"\u00fe":{"d":"488,-216v0,173,-189,299,-322,171r0,206v39,4,85,-16,85,31v0,30,-26,30,-40,30r-159,0v-14,0,-40,0,-40,-30v0,-48,47,-26,85,-31r0,-711v-38,-4,-79,16,-85,-30v7,-55,67,-31,114,-31v34,0,40,10,40,41r0,182v34,-31,79,-49,127,-49v106,0,195,98,195,221xm419,-216v0,-87,-58,-160,-132,-160v-63,0,-121,53,-121,112r0,73v0,48,35,136,113,136v70,0,140,-65,140,-161"},"\u00ff":{"d":"500,-400v0,42,-37,27,-70,30r-155,455v-4,11,-49,143,-149,143v-49,0,-83,-40,-83,-82v0,-26,17,-44,44,-44v34,0,51,40,38,65v15,-1,54,-2,80,-58v16,-36,48,-107,34,-122r-142,-357v-33,-3,-71,12,-71,-30v0,-31,24,-31,40,-31r117,0v16,0,40,0,40,31v0,40,-34,28,-65,30r115,299v26,-99,67,-202,98,-299v-33,-2,-68,11,-68,-31v0,-30,25,-30,40,-30r117,0v16,0,40,0,40,31xm225,-555v0,25,-20,45,-45,45v-25,0,-45,-20,-45,-45v0,-26,20,-45,45,-45v25,0,45,19,45,45xm390,-555v0,25,-20,45,-45,45v-25,0,-45,-20,-45,-45v0,-26,20,-45,45,-45v25,0,45,19,45,45"},"\u0100":{"d":"437,-61v35,-2,61,2,60,31v0,30,-26,30,-43,30r-102,0v-18,0,-42,0,-42,-30v0,-31,20,-31,56,-31r-23,-104r-162,0r-23,104v36,0,56,0,56,31v0,30,-24,30,-42,30r-102,0v-17,0,-43,0,-43,-30v-1,-29,24,-34,60,-31r121,-524v9,-38,25,-38,54,-38v31,0,45,1,54,39xm328,-226r-66,-314r-66,314r132,0xm452,-714v0,31,-24,31,-40,31r-297,0v-17,0,-41,0,-41,-32v0,-31,24,-31,40,-31r298,0v17,0,40,0,40,32"},"\u0101":{"d":"227,-379v-12,1,-63,-3,-57,12v-6,69,-89,57,-89,0v0,-73,102,-73,145,-73v144,0,198,84,198,155r0,216v8,3,18,8,60,8v15,0,40,0,40,30v0,31,-22,31,-50,31v-38,0,-86,-1,-108,-32v-47,31,-109,38,-146,38v-102,0,-165,-65,-165,-134v0,-96,123,-146,300,-149v0,-71,-52,-102,-128,-102xm316,-72v65,-29,30,-78,39,-146v-145,4,-231,41,-231,90v0,68,102,95,192,56xm452,-555v0,31,-24,31,-40,31r-297,0v-17,0,-41,0,-41,-32v0,-31,24,-31,40,-31r298,0v17,0,40,0,40,32"},"\u0102":{"d":"437,-61v35,-2,61,2,60,31v0,30,-26,30,-43,30r-102,0v-18,0,-42,0,-42,-30v0,-31,20,-31,56,-31r-23,-104r-162,0r-23,104v36,0,56,0,56,31v0,30,-24,30,-42,30r-102,0v-17,0,-43,0,-43,-30v-1,-29,24,-34,60,-31r121,-524v9,-38,25,-38,54,-38v31,0,45,1,54,39xm328,-226r-66,-314r-66,314r132,0xm439,-755v0,82,-110,82,-176,82v-66,0,-176,0,-176,-82v0,-19,12,-31,31,-31v24,0,28,17,30,29v5,20,72,20,115,20v42,0,110,0,115,-20v2,-12,6,-29,30,-29v20,0,31,12,31,31"},"\u0103":{"d":"227,-379v-12,1,-63,-3,-57,12v-6,69,-89,57,-89,0v0,-73,102,-73,145,-73v144,0,198,84,198,155r0,216v8,3,18,8,60,8v15,0,40,0,40,30v0,31,-22,31,-50,31v-38,0,-86,-1,-108,-32v-47,31,-109,38,-146,38v-102,0,-165,-65,-165,-134v0,-96,123,-146,300,-149v0,-71,-52,-102,-128,-102xm316,-72v65,-29,30,-78,39,-146v-145,4,-231,41,-231,90v0,68,102,95,192,56xm439,-581v0,82,-110,82,-176,82v-66,0,-176,0,-176,-82v0,-19,12,-31,31,-31v24,0,28,17,30,29v5,20,72,20,115,20v42,0,110,0,115,-20v2,-12,6,-29,30,-29v20,0,31,12,31,31"},"\u0104":{"d":"437,-61v35,-2,61,2,60,31v-3,40,-42,28,-64,30v-53,31,-87,67,-87,110v0,24,26,39,44,39v20,0,42,-22,54,-37v5,-7,28,-10,37,-5v8,7,12,28,5,37v-24,33,-62,59,-100,59v-63,0,-99,-52,-99,-95v0,-47,26,-83,65,-108v-18,0,-42,0,-42,-30v0,-31,20,-31,56,-31r-23,-104r-162,0r-23,104v36,0,56,0,56,31v0,30,-24,30,-42,30r-102,0v-17,0,-43,0,-43,-30v-1,-29,24,-34,60,-31r121,-524v9,-38,25,-38,54,-38v31,0,45,1,54,39xm328,-226r-66,-314r-66,314r132,0"},"\u0105":{"d":"227,-379v-12,1,-63,-3,-57,12v-6,69,-89,57,-89,0v0,-73,102,-73,145,-73v144,0,198,84,198,155r0,216v8,3,18,8,60,8v15,0,40,0,40,30v0,31,-22,31,-50,31v-53,31,-92,67,-92,110v0,24,26,39,44,39v20,0,42,-22,54,-37v5,-7,28,-10,37,-5v8,7,12,28,5,37v-24,33,-62,59,-100,59v-63,0,-99,-52,-99,-95v0,-47,37,-92,76,-117v-13,-4,-25,-12,-33,-23v-47,31,-109,38,-146,38v-102,0,-165,-65,-165,-134v0,-96,123,-146,300,-149v0,-71,-52,-102,-128,-102xm316,-72v65,-29,30,-78,39,-146v-145,4,-231,41,-231,90v0,68,102,95,192,56"},"\u0106":{"d":"484,-168v0,90,-86,179,-202,179v-130,0,-242,-134,-242,-317v0,-240,200,-399,371,-268v13,-25,13,-27,15,-31v5,-7,10,-17,28,-17v30,0,30,25,30,41r0,139v0,20,0,41,-35,41v-30,0,-32,-16,-35,-33v-14,-81,-69,-127,-129,-127v-89,0,-176,106,-176,255v0,150,86,256,177,256v41,0,122,-24,129,-122v2,-29,25,-29,34,-29v11,0,35,0,35,33xm361,-807v39,3,52,50,7,70r-133,59v-6,3,-11,5,-18,5v-43,0,-42,-58,-8,-69v52,-17,97,-48,152,-65"},"\u0107":{"d":"466,-109v0,17,-34,115,-173,115v-126,0,-220,-102,-220,-222v0,-88,60,-224,232,-224v45,0,149,0,149,73v0,29,-21,46,-45,46v-24,0,-43,-14,-44,-49v0,-9,-39,-9,-60,-9v-135,0,-163,115,-163,163v0,91,72,161,157,161v74,0,94,-47,99,-60v8,-20,17,-22,33,-22v6,0,35,0,35,28xm361,-622v39,3,52,50,7,70r-133,59v-6,3,-11,5,-18,5v-43,0,-42,-58,-8,-69v52,-17,97,-48,152,-65"},"\u0108":{"d":"484,-168v0,90,-86,179,-202,179v-130,0,-242,-134,-242,-317v0,-240,200,-399,371,-268v13,-25,13,-27,15,-31v5,-7,10,-17,28,-17v30,0,30,25,30,41r0,139v0,20,0,41,-35,41v-30,0,-32,-16,-35,-33v-14,-81,-69,-127,-129,-127v-89,0,-176,106,-176,255v0,150,86,256,177,256v41,0,122,-24,129,-122v2,-29,25,-29,34,-29v11,0,35,0,35,33xm418,-721v35,13,17,67,-19,56r-109,-33r-109,33v-36,11,-54,-43,-18,-56r118,-43v6,-2,13,-2,19,0"},"\u0109":{"d":"466,-109v0,17,-34,115,-173,115v-126,0,-220,-102,-220,-222v0,-88,60,-224,232,-224v45,0,149,0,149,73v0,29,-21,46,-45,46v-24,0,-43,-14,-44,-49v0,-9,-39,-9,-60,-9v-135,0,-163,115,-163,163v0,91,72,161,157,161v74,0,94,-47,99,-60v8,-20,17,-22,33,-22v6,0,35,0,35,28xm424,-542v33,21,2,69,-31,49r-103,-62r-103,62v-33,20,-64,-29,-31,-50r118,-75v9,-6,21,-6,30,0"},"\u010a":{"d":"484,-168v0,90,-86,179,-202,179v-130,0,-242,-134,-242,-317v0,-240,200,-399,371,-268v13,-25,13,-27,15,-31v5,-7,10,-17,28,-17v30,0,30,25,30,41r0,139v0,20,0,41,-35,41v-30,0,-32,-16,-35,-33v-14,-81,-69,-127,-129,-127v-89,0,-176,106,-176,255v0,150,86,256,177,256v41,0,122,-24,129,-122v2,-29,25,-29,34,-29v11,0,35,0,35,33xm340,-724v0,28,-22,50,-50,50v-28,0,-50,-22,-50,-50v0,-28,22,-50,50,-50v28,0,50,22,50,50"},"\u010b":{"d":"466,-109v0,17,-34,115,-173,115v-126,0,-220,-102,-220,-222v0,-88,60,-224,232,-224v45,0,149,0,149,73v0,29,-21,46,-45,46v-24,0,-43,-14,-44,-49v0,-9,-39,-9,-60,-9v-135,0,-163,115,-163,163v0,91,72,161,157,161v74,0,94,-47,99,-60v8,-20,17,-22,33,-22v6,0,35,0,35,28xm340,-555v0,28,-22,50,-50,50v-28,0,-50,-22,-50,-50v0,-28,22,-50,50,-50v28,0,50,22,50,50"},"\u010c":{"d":"484,-168v0,90,-86,179,-202,179v-130,0,-242,-134,-242,-317v0,-240,200,-399,371,-268v13,-25,13,-27,15,-31v5,-7,10,-17,28,-17v30,0,30,25,30,41r0,139v0,20,0,41,-35,41v-30,0,-32,-16,-35,-33v-14,-81,-69,-127,-129,-127v-89,0,-176,106,-176,255v0,150,86,256,177,256v41,0,122,-24,129,-122v2,-29,25,-29,34,-29v11,0,35,0,35,33xm417,-708r-118,43v-6,2,-13,2,-19,0r-118,-43v-35,-13,-17,-67,19,-56r109,33r109,-33v36,-11,54,43,18,56"},"\u010d":{"d":"466,-109v0,17,-34,115,-173,115v-126,0,-220,-102,-220,-222v0,-88,60,-224,232,-224v45,0,149,0,149,73v0,29,-21,46,-45,46v-24,0,-43,-14,-44,-49v0,-9,-39,-9,-60,-9v-135,0,-163,115,-163,163v0,91,72,161,157,161v74,0,94,-47,99,-60v8,-20,17,-22,33,-22v6,0,35,0,35,28xm424,-567r-118,75v-9,6,-21,6,-30,0r-120,-76v-33,-21,-2,-69,31,-49r103,62r103,-62v33,-20,64,29,31,50"},"\u010e":{"d":"485,-301v0,161,-88,301,-219,301r-206,0v-15,0,-41,0,-41,-30v0,-40,33,-29,63,-31r0,-489v-30,-2,-63,9,-63,-30v0,-31,25,-31,41,-31r206,0v133,0,219,150,219,310xm416,-301v0,-116,-56,-249,-169,-249r-96,0r0,489r96,0v111,0,169,-123,169,-240xm327,-708r-118,43v-6,2,-13,2,-19,0r-118,-43v-35,-13,-17,-67,19,-56r109,33r109,-33v36,-11,54,43,18,56"},"\u010f":{"d":"512,-31v-7,55,-67,31,-114,31v-40,0,-40,-14,-40,-50v-28,29,-70,56,-126,56v-106,0,-196,-97,-196,-221v0,-176,193,-289,322,-177r0,-158v-38,-4,-79,16,-85,-30v7,-55,67,-31,114,-31v34,0,40,10,40,41r0,509v38,4,79,-16,85,30xm236,-55v103,0,122,-102,122,-210v0,-55,-49,-111,-113,-111v-70,0,-140,65,-140,161v0,89,60,160,131,160xm591,-536v0,82,-77,123,-101,123v-12,0,-24,-13,-24,-24v0,-15,14,-19,21,-21v9,-3,45,-15,56,-62v-32,11,-62,-11,-62,-45v0,-24,18,-46,48,-46v33,0,62,29,62,75"},"\u0110":{"d":"485,-301v0,161,-88,301,-219,301r-206,0v-15,0,-41,0,-41,-30v0,-40,33,-29,63,-31r0,-214v-31,3,-59,-2,-59,-31v0,-28,28,-34,59,-31r0,-213v-30,-2,-63,9,-63,-30v0,-31,25,-31,41,-31r206,0v133,0,219,150,219,310xm416,-301v0,-116,-56,-249,-169,-249r-96,0r0,213v39,1,90,-9,90,31v0,40,-51,30,-90,31r0,214r96,0v111,0,169,-123,169,-240"},"\u0111":{"d":"512,-31v-7,55,-67,31,-114,31v-40,0,-40,-14,-40,-50v-28,29,-70,56,-126,56v-106,0,-196,-97,-196,-221v0,-176,193,-289,322,-177r0,-67r-148,0v-17,0,-31,-14,-31,-31v0,-17,14,-31,31,-31r148,0r0,-29v-38,-4,-79,16,-85,-30v7,-55,68,-24,114,-31v54,-8,37,47,40,90v37,0,81,-6,81,31v0,36,-44,32,-81,31r0,398v38,4,79,-16,85,30xm236,-55v103,0,122,-102,122,-210v0,-55,-49,-111,-113,-111v-70,0,-140,65,-140,161v0,89,60,160,131,160"},"\u0112":{"d":"502,-130v0,51,25,130,-40,130r-395,0v-15,0,-41,0,-41,-30v0,-43,37,-28,71,-31r0,-489v-34,-3,-71,12,-71,-31v0,-30,26,-30,41,-30r373,0v62,-6,40,66,40,114v0,20,0,41,-35,41v-54,0,-28,-52,-34,-94r-245,0r0,203r131,0v0,-41,0,-57,35,-57v34,0,34,22,34,41r0,93v0,19,0,41,-34,41v-35,0,-35,-16,-35,-57r-131,0r0,225r267,0v7,-47,-24,-110,35,-110v34,0,34,22,34,41xm452,-714v0,31,-24,31,-40,31r-297,0v-17,0,-41,0,-41,-32v0,-31,24,-31,40,-31r298,0v17,0,40,0,40,32"},"\u0113":{"d":"464,-109v0,25,-47,115,-179,115v-129,0,-230,-101,-230,-223v0,-123,96,-223,215,-223v130,0,194,98,194,212v0,37,-19,37,-40,37r-298,0v16,86,91,136,166,136v28,0,83,-9,104,-60v8,-19,15,-22,33,-22v6,0,35,0,35,28xm393,-251v-9,-103,-71,-128,-123,-128v-70,0,-129,55,-143,128r266,0xm452,-555v0,31,-24,31,-40,31r-297,0v-17,0,-41,0,-41,-32v0,-31,24,-31,40,-31r298,0v17,0,40,0,40,32"},"\u0114":{"d":"502,-130v0,51,25,130,-40,130r-395,0v-15,0,-41,0,-41,-30v0,-43,37,-28,71,-31r0,-489v-34,-3,-71,12,-71,-31v0,-30,26,-30,41,-30r373,0v62,-6,40,66,40,114v0,20,0,41,-35,41v-54,0,-28,-52,-34,-94r-245,0r0,203r131,0v0,-41,0,-57,35,-57v34,0,34,22,34,41r0,93v0,19,0,41,-34,41v-35,0,-35,-16,-35,-57r-131,0r0,225r267,0v7,-47,-24,-110,35,-110v34,0,34,22,34,41xm439,-755v0,82,-110,82,-176,82v-66,0,-176,0,-176,-82v0,-19,12,-31,31,-31v24,0,28,17,30,29v5,20,72,20,115,20v42,0,110,0,115,-20v2,-12,6,-29,30,-29v20,0,31,12,31,31"},"\u0115":{"d":"464,-109v0,25,-47,115,-179,115v-129,0,-230,-101,-230,-223v0,-123,96,-223,215,-223v130,0,194,98,194,212v0,37,-19,37,-40,37r-298,0v16,86,91,136,166,136v28,0,83,-9,104,-60v8,-19,15,-22,33,-22v6,0,35,0,35,28xm393,-251v-9,-103,-71,-128,-123,-128v-70,0,-129,55,-143,128r266,0xm439,-581v0,82,-110,82,-176,82v-66,0,-176,0,-176,-82v0,-19,12,-31,31,-31v24,0,28,17,30,29v5,20,72,20,115,20v42,0,110,0,115,-20v2,-12,6,-29,30,-29v20,0,31,12,31,31"},"\u0116":{"d":"502,-130v0,51,25,130,-40,130r-395,0v-15,0,-41,0,-41,-30v0,-43,37,-28,71,-31r0,-489v-34,-3,-71,12,-71,-31v0,-30,26,-30,41,-30r373,0v62,-6,40,66,40,114v0,20,0,41,-35,41v-54,0,-28,-52,-34,-94r-245,0r0,203r131,0v0,-41,0,-57,35,-57v34,0,34,22,34,41r0,93v0,19,0,41,-34,41v-35,0,-35,-16,-35,-57r-131,0r0,225r267,0v7,-47,-24,-110,35,-110v34,0,34,22,34,41xm313,-724v0,28,-22,50,-50,50v-28,0,-50,-22,-50,-50v0,-28,22,-50,50,-50v28,0,50,22,50,50"},"\u0117":{"d":"464,-109v0,25,-47,115,-179,115v-129,0,-230,-101,-230,-223v0,-123,96,-223,215,-223v130,0,194,98,194,212v0,37,-19,37,-40,37r-298,0v16,86,91,136,166,136v28,0,83,-9,104,-60v8,-19,15,-22,33,-22v6,0,35,0,35,28xm393,-251v-9,-103,-71,-128,-123,-128v-70,0,-129,55,-143,128r266,0xm313,-555v0,28,-22,50,-50,50v-28,0,-50,-22,-50,-50v0,-28,22,-50,50,-50v28,0,50,22,50,50"},"\u0118":{"d":"502,-130v0,51,25,137,-40,130r-29,0v-53,31,-87,67,-87,110v0,24,26,39,44,39v20,0,42,-22,54,-37v5,-7,28,-10,37,-5v8,7,12,28,5,37v-24,33,-62,59,-100,59v-63,0,-99,-52,-99,-95v0,-47,26,-83,65,-108r-285,0v-15,0,-41,0,-41,-30v0,-43,37,-28,71,-31r0,-489v-34,-3,-71,12,-71,-31v0,-30,26,-30,41,-30r373,0v62,-6,40,66,40,114v0,20,0,41,-35,41v-54,0,-28,-52,-34,-94r-245,0r0,203r131,0v0,-41,0,-57,35,-57v34,0,34,22,34,41r0,93v0,19,0,41,-34,41v-35,0,-35,-16,-35,-57r-131,0r0,225r267,0v7,-47,-24,-110,35,-110v34,0,34,22,34,41"},"\u0119":{"d":"464,-109v0,20,-30,81,-111,105v-53,31,-87,71,-87,114v0,24,26,39,44,39v20,0,42,-22,54,-37v5,-7,28,-10,37,-5v8,7,12,28,5,37v-24,33,-62,59,-100,59v-118,0,-128,-153,-42,-198v-119,-10,-209,-107,-209,-222v0,-123,96,-223,215,-223v130,0,194,98,194,212v0,37,-19,37,-40,37r-298,0v16,86,91,136,166,136v28,0,83,-9,104,-60v8,-19,15,-22,33,-22v6,0,35,0,35,28xm393,-251v-9,-103,-71,-128,-123,-128v-70,0,-129,55,-143,128r266,0"},"\u011a":{"d":"502,-130v0,51,25,130,-40,130r-395,0v-15,0,-41,0,-41,-30v0,-43,37,-28,71,-31r0,-489v-34,-3,-71,12,-71,-31v0,-30,26,-30,41,-30r373,0v62,-6,40,66,40,114v0,20,0,41,-35,41v-54,0,-28,-52,-34,-94r-245,0r0,203r131,0v0,-41,0,-57,35,-57v34,0,34,22,34,41r0,93v0,19,0,41,-34,41v-35,0,-35,-16,-35,-57r-131,0r0,225r267,0v7,-47,-24,-110,35,-110v34,0,34,22,34,41xm390,-708r-118,43v-6,2,-13,2,-19,0r-118,-43v-35,-13,-17,-67,19,-56r109,33r109,-33v36,-11,54,43,18,56"},"\u011b":{"d":"464,-109v0,25,-47,115,-179,115v-129,0,-230,-101,-230,-223v0,-123,96,-223,215,-223v130,0,194,98,194,212v0,37,-19,37,-40,37r-298,0v16,86,91,136,166,136v28,0,83,-9,104,-60v8,-19,15,-22,33,-22v6,0,35,0,35,28xm393,-251v-9,-103,-71,-128,-123,-128v-70,0,-129,55,-143,128r266,0xm397,-567r-118,75v-9,6,-21,6,-30,0r-120,-76v-33,-21,-2,-69,31,-49r103,62r103,-62v33,-20,64,29,31,50"},"\u011c":{"d":"496,-240v0,31,-23,31,-47,31r0,168v0,19,0,41,-34,41v-35,0,-35,-20,-35,-42v-20,23,-62,53,-119,53v-119,0,-223,-133,-223,-317v0,-233,172,-399,340,-271v15,-34,20,-45,41,-45v30,0,30,25,30,41r0,139v0,20,0,41,-35,41v-26,0,-32,-12,-34,-29v-17,-108,-80,-131,-115,-131v-78,0,-158,103,-158,256v0,147,76,255,157,255v53,0,102,-47,114,-159v-38,-4,-82,16,-82,-31v0,-30,25,-30,40,-30r119,0v15,0,41,0,41,30xm391,-721v35,13,17,67,-19,56r-109,-33r-109,33v-36,11,-54,-43,-18,-56r118,-43v6,-2,13,-2,19,0"},"\u011d":{"d":"509,-388v0,52,-63,58,-79,7v-13,1,-37,5,-58,17v71,109,-13,248,-139,248v-49,0,-87,-23,-90,-25v-21,43,11,80,68,80r70,0v90,0,132,22,145,29v51,27,69,77,69,114v0,85,-105,147,-233,147v-128,0,-233,-61,-233,-147v0,-11,0,-79,74,-124v-24,-20,-32,-114,-3,-140v-15,-19,-32,-52,-32,-95v0,-85,71,-160,165,-160v46,0,81,19,97,30v46,-34,95,-35,106,-35v54,0,73,31,73,54xm329,-277v0,-53,-42,-100,-96,-100v-52,0,-96,44,-96,101v0,53,42,100,96,100v52,0,96,-44,96,-101xm437,82v0,-86,-113,-86,-202,-86v-73,0,-82,0,-107,16v-32,20,-41,52,-41,70v0,44,75,87,175,87v100,0,175,-43,175,-87xm361,-542v33,21,2,69,-31,49r-103,-62r-103,62v-33,20,-64,-29,-31,-50r118,-75v9,-6,21,-6,30,0"},"\u011e":{"d":"496,-240v0,31,-23,31,-47,31r0,168v0,19,0,41,-34,41v-35,0,-35,-20,-35,-42v-20,23,-62,53,-119,53v-119,0,-223,-133,-223,-317v0,-233,172,-399,340,-271v15,-34,20,-45,41,-45v30,0,30,25,30,41r0,139v0,20,0,41,-35,41v-26,0,-32,-12,-34,-29v-17,-108,-80,-131,-115,-131v-78,0,-158,103,-158,256v0,147,76,255,157,255v53,0,102,-47,114,-159v-38,-4,-82,16,-82,-31v0,-30,25,-30,40,-30r119,0v15,0,41,0,41,30xm439,-755v0,82,-110,82,-176,82v-66,0,-176,0,-176,-82v0,-19,12,-31,31,-31v24,0,28,17,30,29v5,20,72,20,115,20v42,0,110,0,115,-20v2,-12,6,-29,30,-29v20,0,31,12,31,31"},"\u011f":{"d":"509,-388v0,52,-63,58,-79,7v-13,1,-37,5,-58,17v71,109,-13,248,-139,248v-49,0,-87,-23,-90,-25v-21,43,11,80,68,80r70,0v90,0,132,22,145,29v51,27,69,77,69,114v0,85,-105,147,-233,147v-128,0,-233,-61,-233,-147v0,-11,0,-79,74,-124v-24,-20,-32,-114,-3,-140v-15,-19,-32,-52,-32,-95v0,-85,71,-160,165,-160v46,0,81,19,97,30v46,-34,95,-35,106,-35v54,0,73,31,73,54xm329,-277v0,-53,-42,-100,-96,-100v-52,0,-96,44,-96,101v0,53,42,100,96,100v52,0,96,-44,96,-101xm437,82v0,-86,-113,-86,-202,-86v-73,0,-82,0,-107,16v-32,20,-41,52,-41,70v0,44,75,87,175,87v100,0,175,-43,175,-87xm403,-581v0,82,-110,82,-176,82v-66,0,-176,0,-176,-82v0,-19,12,-31,31,-31v24,0,28,17,30,29v5,20,72,20,115,20v42,0,110,0,115,-20v2,-12,6,-29,30,-29v20,0,31,12,31,31"},"\u0120":{"d":"496,-240v0,31,-23,31,-47,31r0,168v0,19,0,41,-34,41v-35,0,-35,-20,-35,-42v-20,23,-62,53,-119,53v-119,0,-223,-133,-223,-317v0,-233,172,-399,340,-271v15,-34,20,-45,41,-45v30,0,30,25,30,41r0,139v0,20,0,41,-35,41v-26,0,-32,-12,-34,-29v-17,-108,-80,-131,-115,-131v-78,0,-158,103,-158,256v0,147,76,255,157,255v53,0,102,-47,114,-159v-38,-4,-82,16,-82,-31v0,-30,25,-30,40,-30r119,0v15,0,41,0,41,30xm313,-724v0,28,-22,50,-50,50v-28,0,-50,-22,-50,-50v0,-28,22,-50,50,-50v28,0,50,22,50,50"},"\u0121":{"d":"509,-388v0,52,-63,58,-79,7v-13,1,-37,5,-58,17v71,109,-13,248,-139,248v-49,0,-87,-23,-90,-25v-21,43,11,80,68,80r70,0v90,0,132,22,145,29v51,27,69,77,69,114v0,85,-105,147,-233,147v-128,0,-233,-61,-233,-147v0,-11,0,-79,74,-124v-24,-20,-32,-114,-3,-140v-15,-19,-32,-52,-32,-95v0,-85,71,-160,165,-160v46,0,81,19,97,30v46,-34,95,-35,106,-35v54,0,73,31,73,54xm329,-277v0,-53,-42,-100,-96,-100v-52,0,-96,44,-96,101v0,53,42,100,96,100v52,0,96,-44,96,-101xm437,82v0,-86,-113,-86,-202,-86v-73,0,-82,0,-107,16v-32,20,-41,52,-41,70v0,44,75,87,175,87v100,0,175,-43,175,-87xm277,-555v0,28,-22,50,-50,50v-28,0,-50,-22,-50,-50v0,-28,22,-50,50,-50v28,0,50,22,50,50"},"\u0122":{"d":"496,-240v0,31,-23,31,-47,31r0,168v0,19,0,41,-34,41v-35,0,-35,-20,-35,-42v-20,23,-62,53,-119,53v-119,0,-223,-133,-223,-317v0,-233,172,-399,340,-271v15,-34,20,-45,41,-45v30,0,30,25,30,41r0,139v0,20,0,41,-35,41v-26,0,-32,-12,-34,-29v-17,-108,-80,-131,-115,-131v-78,0,-158,103,-158,256v0,147,76,255,157,255v53,0,102,-47,114,-159v-38,-4,-82,16,-82,-31v0,-30,25,-30,40,-30r119,0v15,0,41,0,41,30xm325,108v0,82,-77,123,-101,123v-12,0,-24,-13,-24,-24v0,-15,14,-19,21,-21v9,-3,45,-15,56,-62v-32,11,-62,-11,-62,-45v0,-24,18,-46,48,-46v33,0,62,29,62,75"},"\u0123":{"d":"289,-641v0,15,-14,19,-21,21v-9,3,-45,15,-56,62v32,-11,62,11,62,45v0,24,-18,46,-48,46v-33,0,-62,-29,-62,-75v0,-82,77,-123,101,-123v12,0,24,13,24,24xm509,-388v0,52,-63,58,-79,7v-13,1,-37,5,-58,17v71,109,-13,248,-139,248v-49,0,-87,-23,-90,-25v-21,43,11,80,68,80r70,0v90,0,132,22,145,29v51,27,69,77,69,114v0,85,-105,147,-233,147v-128,0,-233,-61,-233,-147v0,-11,0,-79,74,-124v-24,-20,-32,-114,-3,-140v-15,-19,-32,-52,-32,-95v0,-85,71,-160,165,-160v46,0,81,19,97,30v46,-34,95,-35,106,-35v54,0,73,31,73,54xm329,-277v0,-53,-42,-100,-96,-100v-52,0,-96,44,-96,101v0,53,42,100,96,100v52,0,96,-44,96,-101xm437,82v0,-86,-113,-86,-202,-86v-73,0,-82,0,-107,16v-32,20,-41,52,-41,70v0,44,75,87,175,87v100,0,175,-43,175,-87"},"\u0124":{"d":"502,-30v0,30,-25,30,-40,30r-119,0v-16,0,-40,0,-40,-31v0,-40,34,-28,65,-30r0,-226r-212,0r0,226v32,2,65,-10,65,31v0,30,-25,30,-40,30r-119,0v-15,0,-40,0,-40,-30v0,-41,34,-29,65,-31r0,-489v-31,-2,-65,10,-65,-30v0,-31,24,-31,40,-31r119,0v16,0,40,0,40,31v0,40,-34,28,-65,30r0,202r212,0r0,-202v-32,-2,-65,10,-65,-31v0,-30,25,-30,40,-30r119,0v16,0,40,0,40,31v0,40,-34,28,-65,30r0,489v32,2,65,-10,65,31xm391,-721v35,13,17,67,-19,56r-109,-33r-109,33v-36,11,-54,-43,-18,-56r118,-43v6,-2,13,-2,19,0"},"\u0125":{"d":"512,-30v0,30,-26,30,-40,30r-153,0v-14,0,-41,0,-41,-30v0,-46,43,-27,80,-31r0,-227v0,-60,-14,-88,-67,-88v-51,0,-125,38,-125,138r0,177v39,4,85,-16,85,31v0,30,-26,30,-40,30r-159,0v-14,0,-40,0,-40,-30v0,-48,47,-26,85,-31r0,-489v-38,-4,-79,16,-85,-30v7,-55,67,-31,114,-31v34,0,40,10,40,41r0,186v19,-19,64,-53,131,-53v79,0,130,43,130,144r0,232v39,4,85,-16,85,31xm391,-721v35,13,17,67,-19,56r-109,-33r-109,33v-36,11,-54,-43,-18,-56r118,-43v6,-2,13,-2,19,0"},"\u0126":{"d":"502,-30v0,30,-25,30,-40,30r-119,0v-16,0,-40,0,-40,-31v0,-40,34,-28,65,-30r0,-226r-212,0r0,226v32,2,65,-10,65,31v0,30,-25,30,-40,30r-119,0v-15,0,-40,0,-40,-30v0,-41,34,-29,65,-31r0,-366v-32,3,-61,-2,-61,-31v0,-29,29,-34,61,-31r0,-61v-31,-2,-65,10,-65,-30v0,-31,24,-31,40,-31r119,0v16,0,40,0,40,31v0,40,-34,28,-65,30r0,61r212,0r0,-61v-32,-2,-65,10,-65,-31v0,-30,25,-30,40,-30r119,0v16,0,40,0,40,31v0,40,-34,28,-65,30r0,61v32,-3,61,2,61,31v0,29,-29,34,-61,31r0,366v32,2,65,-10,65,31xm368,-348r0,-79r-212,0r0,79r212,0"},"\u0127":{"d":"512,-30v0,30,-26,30,-40,30r-153,0v-14,0,-41,0,-41,-30v0,-46,43,-27,80,-31r0,-227v0,-60,-14,-88,-67,-88v-51,0,-125,38,-125,138r0,177v39,4,85,-16,85,31v0,30,-26,30,-40,30r-159,0v-14,0,-40,0,-40,-30v0,-48,47,-26,85,-31r0,-398v-37,0,-81,6,-81,-31v0,-36,44,-32,81,-31r0,-29v-38,-4,-79,16,-85,-30v7,-55,68,-24,114,-31v54,-8,37,47,40,90v48,5,128,-19,128,31v0,50,-81,26,-128,31r0,75v19,-19,64,-53,131,-53v79,0,130,43,130,144r0,232v39,4,85,-16,85,31"},"\u0128":{"d":"446,-30v0,30,-26,30,-41,30r-285,0v-15,0,-41,0,-41,-31v0,-30,26,-30,41,-30r108,0r0,-489r-108,0v-15,0,-41,0,-41,-31v0,-30,26,-30,41,-30r285,0v15,0,41,0,41,31v0,30,-26,30,-41,30r-108,0r0,489r108,0v15,0,41,0,41,31xm215,-783v52,-2,65,47,98,55v14,0,42,-14,70,-44v19,-20,56,-7,55,21v-11,38,-79,86,-127,88v-52,2,-65,-47,-98,-55v-14,0,-42,14,-70,44v-19,20,-56,7,-55,-21v11,-38,79,-86,127,-88"},"\u0129":{"d":"455,-30v0,30,-26,30,-41,30r-295,0v-15,0,-41,0,-41,-30v0,-31,25,-31,41,-31r121,0r0,-309r-113,0v-15,0,-41,0,-41,-31v0,-30,26,-30,41,-30r142,0v34,0,40,10,40,41r0,329r105,0v15,0,41,0,41,31xm215,-615v52,-2,65,47,98,55v14,0,42,-14,70,-44v19,-20,56,-7,55,21v-11,38,-79,86,-127,88v-52,2,-65,-47,-98,-55v-14,0,-42,14,-70,44v-19,20,-56,7,-55,-21v11,-38,79,-86,127,-88"},"\u012a":{"d":"446,-30v0,30,-26,30,-41,30r-285,0v-15,0,-41,0,-41,-31v0,-30,26,-30,41,-30r108,0r0,-489r-108,0v-15,0,-41,0,-41,-31v0,-30,26,-30,41,-30r285,0v15,0,41,0,41,31v0,30,-26,30,-41,30r-108,0r0,489r108,0v15,0,41,0,41,31xm452,-714v0,31,-24,31,-40,31r-297,0v-17,0,-41,0,-41,-32v0,-31,24,-31,40,-31r298,0v17,0,40,0,40,32"},"\u012b":{"d":"455,-30v0,30,-26,30,-41,30r-295,0v-15,0,-41,0,-41,-30v0,-31,25,-31,41,-31r121,0r0,-309r-113,0v-15,0,-41,0,-41,-31v0,-30,26,-30,41,-30r142,0v34,0,40,10,40,41r0,329r105,0v15,0,41,0,41,31xm452,-555v0,31,-24,31,-40,31r-297,0v-17,0,-41,0,-41,-32v0,-31,24,-31,40,-31r298,0v17,0,40,0,40,32"},"\u012c":{"d":"446,-30v0,30,-26,30,-41,30r-285,0v-15,0,-41,0,-41,-31v0,-30,26,-30,41,-30r108,0r0,-489r-108,0v-15,0,-41,0,-41,-31v0,-30,26,-30,41,-30r285,0v15,0,41,0,41,31v0,30,-26,30,-41,30r-108,0r0,489r108,0v15,0,41,0,41,31xm439,-755v0,82,-110,82,-176,82v-66,0,-176,0,-176,-82v0,-19,12,-31,31,-31v24,0,28,17,30,29v5,20,72,20,115,20v42,0,110,0,115,-20v2,-12,6,-29,30,-29v20,0,31,12,31,31"},"\u012d":{"d":"455,-30v0,30,-26,30,-41,30r-295,0v-15,0,-41,0,-41,-30v0,-31,25,-31,41,-31r121,0r0,-309r-113,0v-15,0,-41,0,-41,-31v0,-30,26,-30,41,-30r142,0v34,0,40,10,40,41r0,329r105,0v15,0,41,0,41,31xm439,-581v0,82,-110,82,-176,82v-66,0,-176,0,-176,-82v0,-19,12,-31,31,-31v24,0,28,17,30,29v5,20,72,20,115,20v42,0,110,0,115,-20v2,-12,6,-29,30,-29v20,0,31,12,31,31"},"\u012e":{"d":"446,-30v0,30,-26,30,-41,30r-108,0v-39,22,-65,63,-65,110v0,24,26,39,44,39v20,0,42,-22,54,-37v5,-7,28,-10,37,-5v8,7,12,28,5,37v-24,33,-62,59,-100,59v-63,0,-99,-52,-99,-95v0,-42,30,-82,64,-108r-117,0v-15,0,-41,0,-41,-31v0,-30,26,-30,41,-30r108,0r0,-489r-108,0v-15,0,-41,0,-41,-31v0,-30,26,-30,41,-30r285,0v15,0,41,0,41,31v0,30,-26,30,-41,30r-108,0r0,489r108,0v15,0,41,0,41,31"},"\u012f":{"d":"309,-562v0,28,-22,50,-50,50v-28,0,-50,-22,-50,-50v0,-28,22,-50,50,-50v28,0,50,22,50,50xm455,-30v0,30,-26,30,-41,30r-129,0v-39,22,-65,63,-65,110v0,24,26,39,44,39v20,0,42,-22,54,-37v5,-7,28,-10,37,-5v8,7,12,28,5,37v-24,33,-62,59,-100,59v-63,0,-99,-52,-99,-95v0,-42,29,-82,63,-108r-105,0v-15,0,-41,0,-41,-30v0,-31,25,-31,41,-31r121,0r0,-309r-113,0v-15,0,-41,0,-41,-31v0,-30,26,-30,41,-30r142,0v34,0,40,10,40,41r0,329r105,0v15,0,41,0,41,31"},"\u0130":{"d":"446,-30v0,30,-26,30,-41,30r-285,0v-15,0,-41,0,-41,-31v0,-30,26,-30,41,-30r108,0r0,-489r-108,0v-15,0,-41,0,-41,-31v0,-30,26,-30,41,-30r285,0v15,0,41,0,41,31v0,30,-26,30,-41,30r-108,0r0,489r108,0v15,0,41,0,41,31xm313,-724v0,28,-22,50,-50,50v-28,0,-50,-22,-50,-50v0,-28,22,-50,50,-50v28,0,50,22,50,50"},"\u0131":{"d":"455,-30v0,30,-26,30,-41,30r-295,0v-15,0,-41,0,-41,-30v0,-31,25,-31,41,-31r121,0r0,-309r-113,0v-15,0,-41,0,-41,-31v0,-30,26,-30,41,-30r142,0v34,0,40,10,40,41r0,329r105,0v15,0,41,0,41,31"},"\u0134":{"d":"478,-581v0,43,-37,28,-71,31r0,416v0,91,-81,145,-170,145v-100,0,-166,-47,-166,-110v0,-64,91,-58,89,-3v0,16,-4,21,-8,26v29,26,77,26,85,26v19,0,101,-5,101,-90r0,-410r-82,0v-15,0,-41,0,-41,-31v0,-30,26,-30,41,-30r181,0v15,0,41,0,41,30xm476,-721v35,13,17,67,-19,56r-109,-33r-109,33v-36,11,-54,-43,-18,-56r118,-43v6,-2,13,-2,19,0"},"\u0135":{"d":"368,44v0,64,-36,184,-181,184v-41,0,-139,0,-139,-76v0,-60,88,-61,89,-1v0,7,0,9,-1,12v51,3,99,20,137,-34v26,-35,26,-73,26,-90r0,-409r-130,0v-15,0,-40,0,-40,-30v0,-31,25,-31,41,-31r158,0v34,0,40,10,40,41r0,434xm453,-542v33,21,2,69,-31,49r-103,-62r-103,62v-33,20,-64,-29,-31,-50r118,-75v9,-6,21,-6,30,0"},"\u0136":{"d":"495,-30v0,54,-69,30,-116,30v-16,0,-41,0,-41,-31v0,-30,26,-30,40,-30r-140,-250r-93,117r0,133v31,2,63,-9,63,31v0,30,-26,30,-41,30r-100,0v-16,0,-41,0,-41,-31v0,-39,33,-28,63,-30r0,-489v-31,-2,-63,9,-63,-31v0,-30,26,-30,41,-30r100,0v16,0,41,0,41,31v0,39,-33,28,-63,30r0,266r211,-266v-14,0,-41,0,-41,-30v0,-31,26,-31,41,-31r88,0v14,0,41,0,41,30v0,31,-21,31,-57,31r-152,192r167,297v29,0,52,0,52,31xm325,108v0,82,-77,123,-101,123v-12,0,-24,-13,-24,-24v0,-15,14,-19,21,-21v9,-3,45,-15,56,-62v-32,11,-62,-11,-62,-45v0,-24,18,-46,48,-46v33,0,62,29,62,75"},"\u0137":{"d":"508,-30v0,30,-26,30,-41,30r-118,0v-15,0,-40,0,-40,-30v0,-31,20,-31,56,-31r-119,-155r-80,74r0,81v40,5,89,-18,89,31v0,30,-25,30,-40,30r-154,0v-16,0,-40,0,-40,-31v0,-48,50,-24,89,-30r0,-489v-40,-5,-84,18,-89,-31v7,-52,61,-30,105,-30v34,0,40,10,40,41r0,352r162,-152v-36,-4,-77,14,-77,-30v0,-31,24,-31,40,-31r154,0v15,0,41,0,41,31v0,44,-41,27,-76,30r-123,115r149,194v34,3,72,-12,72,31xm325,108v0,82,-77,123,-101,123v-12,0,-24,-13,-24,-24v0,-15,14,-19,21,-21v9,-3,45,-15,56,-62v-32,11,-62,-11,-62,-45v0,-24,18,-46,48,-46v33,0,62,29,62,75"},"\u0139":{"d":"488,-130v0,51,25,130,-40,130r-376,0v-15,0,-40,0,-40,-30v0,-46,41,-27,77,-31r0,-489v-36,-4,-77,14,-77,-30v0,-31,24,-31,40,-31r162,0v15,0,41,0,41,31v0,50,-56,24,-97,30r0,489r241,0v7,-46,-24,-110,35,-110v34,0,34,21,34,41xm215,-807v39,3,52,50,7,70r-133,59v-6,3,-11,5,-18,5v-43,0,-42,-58,-8,-69v52,-17,97,-48,152,-65"},"\u013a":{"d":"467,-30v0,30,-25,30,-40,30r-329,0v-14,0,-40,0,-40,-30v0,-31,25,-31,41,-31r129,0r0,-489r-130,0v-14,0,-40,0,-40,-30v0,-31,25,-31,41,-31r158,0v34,0,40,10,40,41r0,509r130,0v16,0,40,0,40,31xm334,-807v39,3,52,50,7,70r-133,59v-6,3,-11,5,-18,5v-43,0,-42,-58,-8,-69v52,-17,97,-48,152,-65"},"\u013b":{"d":"488,-130v0,51,25,130,-40,130r-376,0v-15,0,-40,0,-40,-30v0,-46,41,-27,77,-31r0,-489v-36,-4,-77,14,-77,-30v0,-31,24,-31,40,-31r162,0v15,0,41,0,41,31v0,50,-56,24,-97,30r0,489r241,0v7,-46,-24,-110,35,-110v34,0,34,21,34,41xm325,108v0,82,-77,123,-101,123v-12,0,-24,-13,-24,-24v0,-15,14,-19,21,-21v9,-3,45,-15,56,-62v-32,11,-62,-11,-62,-45v0,-24,18,-46,48,-46v33,0,62,29,62,75"},"\u013c":{"d":"467,-30v0,30,-25,30,-40,30r-329,0v-14,0,-40,0,-40,-30v0,-31,25,-31,41,-31r129,0r0,-489r-130,0v-14,0,-40,0,-40,-30v0,-31,25,-31,41,-31r158,0v34,0,40,10,40,41r0,509r130,0v16,0,40,0,40,31xm325,108v0,82,-77,123,-101,123v-12,0,-24,-13,-24,-24v0,-15,14,-19,21,-21v9,-3,45,-15,56,-62v-32,11,-62,-11,-62,-45v0,-24,18,-46,48,-46v33,0,62,29,62,75"},"\u013d":{"d":"488,-130v0,51,25,130,-40,130r-376,0v-15,0,-40,0,-40,-30v0,-46,41,-27,77,-31r0,-489v-36,-4,-77,14,-77,-30v0,-31,24,-31,40,-31r162,0v15,0,41,0,41,31v0,50,-56,24,-97,30r0,489r241,0v7,-46,-24,-110,35,-110v34,0,34,21,34,41xm458,-536v0,82,-77,123,-101,123v-12,0,-24,-13,-24,-24v0,-15,14,-19,21,-21v9,-3,45,-15,56,-62v-32,11,-62,-11,-62,-45v0,-24,18,-46,48,-46v33,0,62,29,62,75"},"\u013e":{"d":"467,-30v0,30,-25,30,-40,30r-329,0v-14,0,-40,0,-40,-30v0,-31,25,-31,41,-31r129,0r0,-489r-130,0v-14,0,-40,0,-40,-30v0,-31,25,-31,41,-31r158,0v34,0,40,10,40,41r0,509r130,0v16,0,40,0,40,31xm461,-536v0,82,-77,123,-101,123v-12,0,-24,-13,-24,-24v0,-15,14,-19,21,-21v9,-3,45,-15,56,-62v-32,11,-62,-11,-62,-45v0,-24,18,-46,48,-46v33,0,62,29,62,75"},"\u013f":{"d":"488,-130v0,51,25,130,-40,130r-376,0v-15,0,-40,0,-40,-30v0,-46,41,-27,77,-31r0,-489v-36,-4,-77,14,-77,-30v0,-31,24,-31,40,-31r162,0v15,0,41,0,41,31v0,50,-56,24,-97,30r0,489r241,0v7,-46,-24,-110,35,-110v34,0,34,21,34,41xm456,-317v0,28,-22,50,-50,50v-28,0,-50,-22,-50,-50v0,-28,22,-50,50,-50v28,0,50,22,50,50"},"\u0140":{"d":"467,-30v0,30,-25,30,-40,30r-329,0v-14,0,-40,0,-40,-30v0,-31,25,-31,41,-31r129,0r0,-489r-130,0v-14,0,-40,0,-40,-30v0,-31,25,-31,41,-31r158,0v34,0,40,10,40,41r0,509r130,0v16,0,40,0,40,31xm575,-317v0,28,-22,50,-50,50v-28,0,-50,-22,-50,-50v0,-28,22,-50,50,-50v28,0,50,22,50,50"},"\u0141":{"d":"488,-130v0,51,25,130,-40,130r-376,0v-15,0,-40,0,-40,-30v0,-46,41,-27,77,-31r0,-201v-20,13,-53,47,-76,17v-10,-13,-5,-32,8,-41r68,-47r0,-217v-36,-4,-77,14,-77,-30v0,-31,24,-31,40,-31r162,0v15,0,41,0,41,31v0,50,-56,24,-97,30r0,170r169,-115v13,-9,32,-5,40,9v9,15,6,32,-7,41r-202,136r0,248r241,0v7,-46,-24,-110,35,-110v34,0,34,21,34,41"},"\u0142":{"d":"467,-30v0,30,-25,30,-40,30r-329,0v-14,0,-40,0,-40,-30v0,-31,25,-31,41,-31r129,0r0,-246r-102,69v-16,11,-32,5,-41,-7v-10,-13,-5,-32,8,-41r135,-92r0,-172r-130,0v-14,0,-40,0,-40,-30v0,-31,25,-31,41,-31r158,0v34,0,40,10,40,41r0,144r102,-69v13,-9,32,-5,40,9v9,15,6,32,-7,41r-135,91r0,293r130,0v16,0,40,0,40,31"},"\u0143":{"d":"496,-580v0,40,-34,28,-65,30r0,509v0,38,-12,41,-42,41v-26,0,-42,-1,-55,-36r-185,-500r0,475v32,2,65,-10,65,31v0,30,-25,30,-40,30r-106,0v-16,0,-40,0,-40,-31v0,-40,34,-28,65,-30r0,-489v-32,-2,-61,10,-65,-31v7,-52,63,-30,108,-30v27,0,42,3,54,36r185,500r0,-475v-31,-2,-65,10,-65,-30v0,-31,24,-31,40,-31r106,0v16,0,40,0,40,31xm334,-807v39,3,52,50,7,70r-133,59v-6,3,-11,5,-18,5v-43,0,-42,-58,-8,-69v52,-17,97,-48,152,-65"},"\u0144":{"d":"512,-30v0,30,-26,30,-40,30r-153,0v-14,0,-41,0,-41,-30v0,-46,43,-27,80,-31r0,-227v0,-60,-14,-88,-67,-88v-51,0,-125,38,-125,138r0,177v39,4,85,-16,85,31v0,30,-26,30,-40,30r-159,0v-14,0,-40,0,-40,-30v0,-48,47,-26,85,-31r0,-309v-38,-4,-79,16,-85,-30v7,-55,67,-31,114,-31v40,0,40,15,40,47v19,-19,64,-53,131,-53v79,0,130,43,130,144r0,232v39,4,85,-16,85,31xm334,-622v39,3,52,50,7,70r-133,59v-6,3,-11,5,-18,5v-43,0,-42,-58,-8,-69v52,-17,97,-48,152,-65"},"\u0145":{"d":"496,-580v0,40,-34,28,-65,30r0,509v0,38,-12,41,-42,41v-26,0,-42,-1,-55,-36r-185,-500r0,475v32,2,65,-10,65,31v0,30,-25,30,-40,30r-106,0v-16,0,-40,0,-40,-31v0,-40,34,-28,65,-30r0,-489v-32,-2,-61,10,-65,-31v7,-52,63,-30,108,-30v27,0,42,3,54,36r185,500r0,-475v-31,-2,-65,10,-65,-30v0,-31,24,-31,40,-31r106,0v16,0,40,0,40,31xm325,108v0,82,-77,123,-101,123v-12,0,-24,-13,-24,-24v0,-15,14,-19,21,-21v9,-3,45,-15,56,-62v-32,11,-62,-11,-62,-45v0,-24,18,-46,48,-46v33,0,62,29,62,75"},"\u0146":{"d":"512,-30v0,30,-26,30,-40,30r-153,0v-14,0,-41,0,-41,-30v0,-46,43,-27,80,-31r0,-227v0,-60,-14,-88,-67,-88v-51,0,-125,38,-125,138r0,177v39,4,85,-16,85,31v0,30,-26,30,-40,30r-159,0v-14,0,-40,0,-40,-30v0,-48,47,-26,85,-31r0,-309v-38,-4,-79,16,-85,-30v7,-55,67,-31,114,-31v40,0,40,15,40,47v19,-19,64,-53,131,-53v79,0,130,43,130,144r0,232v39,4,85,-16,85,31xm325,108v0,82,-77,123,-101,123v-12,0,-24,-13,-24,-24v0,-15,14,-19,21,-21v9,-3,45,-15,56,-62v-32,11,-62,-11,-62,-45v0,-24,18,-46,48,-46v33,0,62,29,62,75"},"\u0147":{"d":"496,-580v0,40,-34,28,-65,30r0,509v0,38,-12,41,-42,41v-26,0,-42,-1,-55,-36r-185,-500r0,475v32,2,65,-10,65,31v0,30,-25,30,-40,30r-106,0v-16,0,-40,0,-40,-31v0,-40,34,-28,65,-30r0,-489v-32,-2,-61,10,-65,-31v7,-52,63,-30,108,-30v27,0,42,3,54,36r185,500r0,-475v-31,-2,-65,10,-65,-30v0,-31,24,-31,40,-31r106,0v16,0,40,0,40,31xm390,-708r-118,43v-6,2,-13,2,-19,0r-118,-43v-35,-13,-17,-67,19,-56r109,33r109,-33v36,-11,54,43,18,56"},"\u0148":{"d":"512,-30v0,30,-26,30,-40,30r-153,0v-14,0,-41,0,-41,-30v0,-46,43,-27,80,-31r0,-227v0,-60,-14,-88,-67,-88v-51,0,-125,38,-125,138r0,177v39,4,85,-16,85,31v0,30,-26,30,-40,30r-159,0v-14,0,-40,0,-40,-30v0,-48,47,-26,85,-31r0,-309v-38,-4,-79,16,-85,-30v7,-55,67,-31,114,-31v40,0,40,15,40,47v19,-19,64,-53,131,-53v79,0,130,43,130,144r0,232v39,4,85,-16,85,31xm397,-567r-118,75v-9,6,-21,6,-30,0r-120,-76v-33,-21,-2,-69,31,-49r103,62r103,-62v33,-20,64,29,31,50"},"\u014a":{"d":"490,-306v0,150,-12,317,-140,317v-24,0,-44,-20,-44,-44v0,-35,44,-57,71,-35v43,-31,43,-144,43,-238v0,-119,-29,-246,-131,-246v-66,0,-123,56,-123,124r0,367v39,4,85,-16,85,31v0,30,-26,30,-40,30r-159,0v-14,0,-40,0,-40,-30v0,-48,47,-26,85,-31r0,-489v-38,-4,-79,16,-85,-30v7,-55,67,-31,114,-31v33,0,40,10,40,39v33,-31,75,-50,123,-50v138,0,201,159,201,316"},"\u014b":{"d":"462,-61v-1,132,-14,292,-138,294v-20,0,-35,-15,-35,-35v0,-19,15,-35,35,-35v69,0,69,-123,69,-224r0,-227v0,-60,-14,-88,-67,-88v-51,0,-125,38,-125,138r0,177v39,4,85,-16,85,31v0,30,-26,30,-40,30r-159,0v-14,0,-40,0,-40,-30v0,-48,47,-26,85,-31r0,-309v-38,-4,-79,16,-85,-30v7,-55,67,-31,114,-31v40,0,40,15,40,47v19,-19,64,-53,131,-53v79,0,130,43,130,144r0,232"},"\u014c":{"d":"468,-305v0,289,-22,316,-206,316v-185,0,-206,-27,-206,-316v0,-290,21,-317,206,-317v185,0,206,28,206,317xm262,-50v169,0,137,-132,137,-264v0,-61,0,-136,-12,-183v-15,-55,-50,-64,-125,-64v-82,0,-115,12,-126,71v-19,104,-19,260,1,369v9,51,37,71,125,71xm452,-714v0,31,-24,31,-40,31r-297,0v-17,0,-41,0,-41,-32v0,-31,24,-31,40,-31r298,0v17,0,40,0,40,32"},"\u014d":{"d":"467,-216v0,126,-95,222,-205,222v-110,0,-205,-95,-205,-222v0,-125,93,-224,205,-224v112,0,205,99,205,224xm398,-223v0,-91,-64,-156,-136,-156v-71,0,-136,65,-136,156v0,93,62,168,136,168v74,0,136,-75,136,-168xm452,-555v0,31,-24,31,-40,31r-297,0v-17,0,-41,0,-41,-32v0,-31,24,-31,40,-31r298,0v17,0,40,0,40,32"},"\u014e":{"d":"468,-305v0,289,-22,316,-206,316v-185,0,-206,-27,-206,-316v0,-290,21,-317,206,-317v185,0,206,28,206,317xm262,-50v169,0,137,-132,137,-264v0,-61,0,-136,-12,-183v-15,-55,-50,-64,-125,-64v-82,0,-115,12,-126,71v-19,104,-19,260,1,369v9,51,37,71,125,71xm439,-755v0,82,-110,82,-176,82v-66,0,-176,0,-176,-82v0,-19,12,-31,31,-31v24,0,28,17,30,29v5,20,72,20,115,20v42,0,110,0,115,-20v2,-12,6,-29,30,-29v20,0,31,12,31,31"},"\u014f":{"d":"467,-216v0,126,-95,222,-205,222v-110,0,-205,-95,-205,-222v0,-125,93,-224,205,-224v112,0,205,99,205,224xm398,-223v0,-91,-64,-156,-136,-156v-71,0,-136,65,-136,156v0,93,62,168,136,168v74,0,136,-75,136,-168xm439,-581v0,82,-110,82,-176,82v-66,0,-176,0,-176,-82v0,-19,12,-31,31,-31v24,0,28,17,30,29v5,20,72,20,115,20v42,0,110,0,115,-20v2,-12,6,-29,30,-29v20,0,31,12,31,31"},"\u0150":{"d":"468,-305v0,289,-22,316,-206,316v-185,0,-206,-27,-206,-316v0,-290,21,-317,206,-317v185,0,206,28,206,317xm262,-50v169,0,137,-132,137,-264v0,-61,0,-136,-12,-183v-15,-55,-50,-64,-125,-64v-82,0,-115,12,-126,71v-19,104,-19,260,1,369v9,51,37,71,125,71xm231,-801v13,14,11,36,-3,49r-77,70v-15,13,-37,12,-50,-3v-13,-14,-11,-36,3,-49r77,-70v15,-13,37,-12,50,3xm425,-801v13,14,11,36,-3,49r-77,70v-15,13,-37,12,-50,-3v-13,-14,-11,-36,3,-49r77,-70v15,-13,37,-12,50,3"},"\u0151":{"d":"467,-216v0,126,-95,222,-205,222v-110,0,-205,-95,-205,-222v0,-125,93,-224,205,-224v112,0,205,99,205,224xm398,-223v0,-91,-64,-156,-136,-156v-71,0,-136,65,-136,156v0,93,62,168,136,168v74,0,136,-75,136,-168xm231,-613v13,14,11,36,-3,49r-77,70v-15,13,-37,12,-50,-3v-13,-14,-11,-36,3,-49r77,-70v15,-13,37,-12,50,3xm425,-613v13,14,11,36,-3,49r-77,70v-15,13,-37,12,-50,-3v-13,-14,-11,-36,3,-49r77,-70v15,-13,37,-12,50,3"},"\u0152":{"d":"193,-622v21,0,82,11,104,11r158,0v62,-6,40,66,40,114v0,14,0,41,-28,41v-46,0,-22,-55,-28,-94r-121,0r0,203r122,0v16,0,40,0,40,31v0,30,-25,30,-40,30r-122,0r0,225r128,0r0,-69v0,-14,0,-41,28,-41v28,0,28,27,28,41v0,51,25,130,-40,130r-165,0v-24,-2,-85,11,-104,11v-110,0,-137,-31,-150,-92v-23,-111,-18,-374,1,-456v15,-65,56,-85,149,-85xm262,-172r0,-267v0,-107,-17,-122,-65,-122v-112,0,-112,54,-112,247v0,203,0,264,114,264v47,0,63,-19,63,-122"},"\u0153":{"d":"505,-108v0,18,-26,114,-107,114v-60,0,-99,-52,-117,-89v-19,38,-58,89,-117,89v-79,0,-145,-94,-145,-223v0,-129,66,-223,145,-223v63,0,101,58,116,87v21,-43,56,-87,108,-87v68,0,117,74,117,207v0,31,-5,42,-40,42r-155,0v7,77,49,136,92,136v22,0,39,-21,47,-57v1,-5,6,-25,28,-25v14,0,28,11,28,29xm448,-251v-5,-101,-37,-128,-60,