// #### Generated By: http://www.cufonfonts.com ####
/*!
 * The following copyright notice may not be removed under any circumstances.
 * 
 * Copyright:
 * Copyright (c) Typographer Mediengestaltung, 2000. All rights reserved.
 */
Cufon.registerFont({"w":512,"face":{"font-family":"Louisianne","font-weight":900,"font-stretch":"normal","units-per-em":"1000","panose-1":"2 0 10 4 2 0 0 2 0 4","ascent":"800","descent":"-200","x-height":"6","bbox":"-166 -922 1572 342","underline-thickness":"50","underline-position":"-75","unicode-range":"U+0005-U+2122"},"glyphs":{" ":{"w":429},"\r":{"d":"141,0v78,0,178,-39,177,-105r0,-75v-18,13,-38,30,-64,34r0,-387r-234,0r0,467v-4,37,84,66,121,66","w":338},"!":{"d":"260,-684r-229,0r0,561r229,0r0,-561xm246,-94r-199,0r0,96r199,0r0,-96","w":294},"\"":{"d":"385,-476v3,-56,26,-97,62,-112r0,-101r-196,0r0,103v38,11,58,59,65,110r69,0xm166,-476v3,-56,26,-97,62,-112r-1,-101r-196,0r0,103v35,15,57,57,66,110r69,0","w":492},"#":{"d":"445,-486r45,-182r-72,0r-49,182r-105,0r49,-186r-84,0r-45,186r-108,0r-35,97r119,0r-25,114r-98,0r-29,97r107,0r-45,176r82,0r49,-176r90,0r-51,176r86,0r49,-176r90,0r33,-93r-100,0r28,-118r84,0r43,-97r-108,0xm316,-272r-109,0r33,-119r108,0","w":563},"$":{"d":"23,-207v-48,127,52,219,180,213r0,90r57,0r0,-90v87,-9,154,-40,199,-92r0,-78r-49,21v20,-57,5,-104,-41,-149v-69,-67,-103,-106,-103,-118v-1,-29,19,-38,42,-38v34,0,71,26,110,77r0,-98v-32,-44,-89,-83,-158,-84r0,-93r-57,0r0,89v-103,-8,-175,71,-176,165v0,34,7,57,18,70v6,7,101,99,125,127v23,26,16,89,-33,84v-42,-4,-48,-39,-47,-96r-67,0","w":459},"%":{"d":"819,83v94,0,198,-43,198,-98r0,-217v33,0,61,-16,84,-47r0,-70v-22,16,-43,23,-64,21r0,-127r-139,0r0,20v-43,-25,-88,-38,-135,-38v-66,0,-150,53,-150,108r0,338v-3,69,123,110,206,110xm575,-725r-219,789r90,0r219,-789r-90,0xm209,-187v95,0,198,-44,198,-100r0,-217v33,0,61,-16,84,-47r0,-70v-22,16,-43,23,-64,21r0,-127r-139,0r0,20v-43,-25,-88,-38,-135,-38v-66,0,-150,53,-150,108r0,338v-4,71,122,112,206,112xm947,-76v8,74,-77,90,-121,53r0,-310v4,-22,35,-47,54,-28v13,4,7,22,7,37v0,52,20,80,60,84r0,164xm337,-348v8,74,-77,90,-121,53r0,-310v4,-22,35,-47,54,-28v13,4,7,22,7,37v0,52,20,80,60,84r0,164","w":1101},"&":{"d":"367,-33v81,87,227,-11,244,-98r0,-90v-17,24,-41,39,-64,57r-41,-61v12,-24,13,-48,15,-80r-35,-62v-6,26,-16,47,-29,62v-19,-26,-46,-56,-80,-90v51,-26,77,-74,77,-145v0,-107,-69,-160,-207,-160v-124,0,-203,65,-203,190v0,59,22,104,67,135v-70,33,-105,96,-105,187v-1,126,85,202,211,201v67,0,117,-15,150,-46xm304,-616v54,1,80,68,46,117v-12,18,-24,32,-39,40v-32,-20,-67,-36,-67,-89v0,-32,28,-69,60,-68xm318,-143v-67,36,-142,-10,-143,-81v0,-29,10,-56,30,-81","w":612},"'":{"d":"176,-476v3,-56,26,-97,62,-112r-1,-101r-196,0r1,103v38,11,58,59,65,110r69,0","w":264},"(":{"d":"207,-852v-122,-2,-187,121,-187,254v0,133,-1,395,5,520v6,133,79,205,209,206v41,0,80,-7,116,-21r0,-88v-54,15,-125,-3,-125,-52r0,-651v6,-50,63,-71,125,-60r0,-88v-52,-17,-75,-18,-143,-20","w":373},")":{"d":"130,132v130,1,209,-77,209,-206v0,-35,6,-68,6,-99r-1,-421v-2,-135,-63,-254,-187,-254v-52,0,-100,7,-143,20r0,88v57,-11,125,11,125,60r0,651v-7,48,-72,66,-125,52r0,88v37,14,75,21,116,21","w":373},"*":{"d":"380,-431v20,0,38,-32,37,-51v-1,-70,-98,-51,-151,-69v-12,-4,-17,-14,-10,-25r126,-26v22,-3,33,-20,33,-52v0,-48,-61,-61,-87,-32r-82,92v-4,4,-12,-4,-16,-8r41,-130v4,-34,-17,-56,-49,-54v-43,3,-59,28,-48,65r35,117v-4,4,-7,7,-12,10r-83,-90v-30,-36,-92,-18,-90,33v3,66,97,54,150,71v10,3,14,8,12,19v-36,14,-77,27,-123,27v-41,0,-51,62,-25,88v20,19,59,14,75,-3r83,-88v7,-7,19,-1,15,10v-14,43,-34,80,-39,129v-3,27,23,51,50,50v35,0,57,-38,44,-76r-36,-103v-5,-8,12,-20,18,-14r92,102v5,5,19,8,40,8","w":439},"+":{"d":"502,-324r-213,0r0,-240r-74,0r0,240r-205,0r0,72r205,0r0,227r74,0r0,-227r213,0r0,-72","w":514},",":{"d":"223,-109r-195,0r0,109v29,6,80,-16,80,19v0,20,-7,30,-20,30v-2,12,-53,9,-72,6r0,45v88,12,156,5,207,-53r0,-156","w":249},"-":{"d":"412,-355r-394,0r0,109r394,0r0,-109","w":428},".":{"d":"213,-90r-195,0r0,90r195,0r0,-90","w":231},"\/":{"d":"225,-711r-209,711r78,0r209,-711r-78,0","w":313},"0":{"d":"263,-678v-110,0,-224,41,-224,137r0,406v0,93,82,139,247,139v136,0,204,-45,204,-135r0,-394v2,-100,-115,-153,-227,-153xm345,-101v-29,0,-59,-21,-58,-49r0,-375v0,-29,19,-43,56,-43v23,0,57,14,57,35r0,379v1,32,-24,53,-55,53"},"1":{"d":"425,-684r-178,0r-164,135r0,106r90,-53r0,496r252,0r0,-684"},"2":{"d":"483,-480v0,-130,-108,-208,-241,-207v-151,2,-243,102,-209,255r89,0v-12,-60,14,-132,65,-132v41,0,62,47,62,142v0,100,-46,155,-99,200v-29,25,-43,44,-46,53v-27,28,-61,119,-67,169r414,0r0,-105r-268,0r149,-109v58,-43,88,-68,91,-77v37,-26,60,-118,60,-189"},"3":{"d":"44,-184v-23,141,53,194,207,194v157,0,235,-70,235,-210v0,-71,-23,-126,-69,-163v31,-47,46,-98,46,-153v0,-117,-83,-170,-209,-170v-133,0,-248,86,-203,221r77,0v-6,-60,17,-128,78,-101v13,6,21,8,21,13r0,133v4,46,-57,37,-94,29r0,86v40,-3,80,-1,94,24r0,142v0,31,-17,46,-51,46v-47,0,-64,-48,-48,-91r-84,0"},"4":{"d":"500,-240r-45,0r0,-444r-193,0r-244,432r0,106r207,0r0,146r230,0r0,-146r45,0r0,-94xm115,-240r110,-180r0,180r-110,0"},"5":{"d":"479,-295v31,-196,-207,-269,-342,-166r0,-113r293,0r0,-114r-380,0r0,342r84,0v10,-44,66,-72,101,-37r0,256v-1,25,-55,35,-77,22v-6,-3,-9,-8,-9,-14v-10,1,-17,-58,-15,-88r-77,0v-4,24,-11,44,-10,74v2,111,95,136,225,136v179,0,218,-108,207,-298"},"6":{"d":"267,16v81,0,207,-38,207,-110r0,-301v2,-75,-135,-90,-191,-52r0,-78v-3,-48,113,-44,162,-28r0,-101v-53,-23,-124,-34,-211,-34v-80,0,-195,72,-195,147r0,432v0,83,76,125,228,125xm384,-105v-2,20,-93,37,-101,11r0,-263v0,-19,18,-28,54,-28v31,0,47,6,47,18r0,262"},"7":{"d":"21,-691r0,142r174,0r-167,549r252,0r211,-691r-470,0"},"8":{"d":"274,22v151,1,222,-73,223,-220v0,-79,-30,-134,-90,-163v31,-45,47,-97,47,-154v2,-113,-85,-181,-200,-181v-140,0,-207,94,-206,239v0,55,19,100,56,135v-51,25,-77,78,-77,158v0,124,82,186,247,186xm363,-521v0,22,-28,93,-48,93v-43,0,-65,-25,-65,-74v-1,-35,24,-75,58,-75v28,0,55,28,55,56xm208,-266v33,1,50,53,49,95v0,63,-22,94,-67,94v-43,0,-64,-26,-64,-78v-1,-51,33,-112,82,-111"},"9":{"d":"79,-14v121,41,406,42,406,-97r0,-410v1,-102,-128,-145,-248,-145v-87,0,-193,37,-193,117r0,293v-3,83,132,120,189,65r0,68v3,49,-116,52,-154,21r0,88xm139,-273r0,-256v0,-19,16,-28,47,-28v31,0,47,9,47,28r0,248v6,24,-55,29,-84,21v-7,-3,-10,-7,-10,-13"},":":{"d":"217,-424r-195,0r0,98r195,0r0,-98xm217,-90r-195,0r0,90r195,0r0,-90","w":234},";":{"d":"225,-436r-203,0r0,94r203,0r0,-94xm18,105v88,14,174,-4,207,-62r0,-152r-203,0r0,109v35,5,82,-18,82,29v0,16,-5,24,-14,24v-3,13,-52,10,-72,4r0,48","w":243},"<":{"d":"172,-182r-100,-86r98,-89r0,-110r-164,145r0,111r166,141r0,-112","w":184},"=":{"d":"375,-391r-367,0r0,67r367,0r0,-67xm375,-239r-367,0r0,67r367,0r0,-67","w":387},">":{"d":"180,-330r-162,-141r0,110r97,86r-95,87r0,112r160,-135r0,-119","w":198},"?":{"d":"546,-462v0,-232,-306,-309,-524,-226r0,94v42,-7,88,-18,134,-18v117,0,145,90,131,209v-4,34,-17,51,-33,57r-101,34v-30,10,-45,22,-45,35r0,146r226,0v-2,-49,-9,-82,22,-113v70,-13,126,-31,158,-88v21,-37,32,-80,32,-130xm323,-98r-200,0r0,98r200,0r0,-98","w":567},"@":{"d":"703,-395v0,-172,-166,-257,-357,-257v-229,0,-337,169,-334,414v3,239,118,325,363,327v105,0,183,-28,236,-85r0,-89v-69,59,-153,89,-252,89v-183,-1,-266,-73,-267,-255v0,-206,89,-309,267,-309v143,0,256,68,256,181v0,97,-25,166,-74,207r0,-284r-169,0r0,30v-42,-62,-214,-59,-214,26r0,252v-3,95,177,102,211,31v21,34,50,51,89,51v147,0,245,-171,245,-329xm312,-169r0,-195v0,-13,11,-20,34,-20v17,0,26,4,26,12r0,197v0,17,-10,25,-30,25v-20,0,-30,-6,-30,-19","w":723},"A":{"d":"404,-111v17,66,74,125,152,125v67,0,129,-29,186,-88r0,-88v-21,13,-62,44,-78,16r-170,-538r-203,0r-164,549v-11,42,-55,59,-106,49r0,86v87,51,170,-29,188,-111r195,0xm242,-207r69,-205r66,205r-135,0","w":741},"B":{"d":"367,-311v45,-9,123,11,123,45r0,139v4,38,-61,45,-97,29r0,78v37,20,86,30,149,30v137,0,206,-73,206,-218v0,-70,-33,-123,-100,-159v39,-39,58,-89,58,-151v1,-105,-86,-170,-196,-170r-475,0r0,86r76,0r0,479v-3,27,-58,43,-90,29r0,69v37,23,80,35,131,35v73,0,215,-57,215,-125r0,-196xm367,-605v72,-18,121,28,121,97v0,70,-46,128,-121,110r0,-207","w":789},"C":{"d":"8,-346v0,203,84,367,272,366v69,0,139,-30,210,-90r0,-84v-44,21,-72,59,-132,62v-35,2,-71,-18,-71,-51r0,-365v1,-115,116,-88,178,-33r0,-90v-47,-45,-112,-67,-197,-67v-159,0,-260,180,-260,352","w":489},"D":{"d":"521,2v122,-5,135,-211,126,-358v-7,-124,-15,-204,-30,-240v-25,-59,-70,-88,-137,-88r-455,0r0,102r75,0r0,488r-79,0r0,96r500,0xm480,-94r-113,0r0,-488v79,1,136,-15,152,65v6,32,11,85,11,161v0,175,-17,262,-50,262","w":690},"E":{"d":"11,-213v0,130,104,226,235,226v90,0,168,-37,233,-111r0,-74v-41,38,-88,57,-139,57v-81,0,-101,-145,-38,-201v34,-29,59,-41,102,-34r0,-82v-70,11,-122,-17,-125,-84v-1,-34,20,-72,53,-71v33,0,69,8,106,24r0,-83v-51,-41,-113,-62,-186,-62v-111,0,-227,76,-227,183v0,65,27,113,82,146v-64,31,-96,87,-96,166","w":480},"F":{"d":"248,22v63,0,205,-48,205,-104r0,-215r68,0r0,-101r-68,0r0,-176r86,0r0,-110r-394,0v-77,-3,-138,115,-135,196r90,0v0,-51,37,-103,93,-90r0,180r-66,0r0,101r66,0r0,188v-4,34,-94,23,-119,7r0,92v54,21,112,32,174,32","w":576},"G":{"d":"8,-430v0,118,129,235,236,224v35,-4,68,-4,92,-19r0,98v-85,61,-179,30,-275,-27r0,105v137,76,319,89,449,9v52,-33,78,-63,78,-91r0,-330r-252,0r0,119v-1,27,-38,32,-65,24r0,-190v-9,-100,171,-107,272,-74r0,-94v-70,-13,-145,-19,-227,-19v-181,-2,-308,92,-308,265","w":636},"H":{"d":"630,8v44,0,210,-56,200,-98r0,-78v-40,21,-50,32,-82,22r0,-542r-279,0r0,219r-86,0r0,-219r-358,0r0,94r88,0r0,451v5,40,-50,51,-92,41r0,81v52,19,107,29,165,29v65,0,197,-49,197,-106r0,-248r86,0r0,252v-2,69,83,102,161,102","w":831},"I":{"d":"8,-18v131,61,388,26,387,-121r0,-545r-372,0r0,86r108,0r0,463v0,24,-23,36,-69,36v-23,0,-41,-3,-54,-10r0,91","w":456},"J":{"d":"174,140v90,0,219,-53,219,-130r0,-694r-364,0r0,90r94,0r0,121r-94,0r0,98r94,0r0,377v0,38,-87,27,-109,10r0,80v44,32,97,48,160,48","w":452},"K":{"d":"472,-178v1,136,42,184,174,184v53,0,112,-33,176,-100r0,-70v-25,9,-45,29,-77,29v-7,0,-13,-4,-13,-11r-11,-163v1,-74,-126,-86,-200,-54r174,-321r-146,0r-174,272r0,-272r-342,0r0,94r82,0r0,463v4,37,-71,33,-97,18r0,84v128,77,357,41,357,-106r0,-154v1,-26,97,-14,94,2v15,0,10,39,8,55","w":822},"L":{"d":"360,16v73,9,147,-42,167,-94r0,-86v-37,69,-159,102,-248,59v56,-16,110,-62,110,-127r0,-346v9,-17,87,-9,109,0r0,-65v-37,-35,-95,-53,-174,-53v-66,0,-199,45,-199,106r0,377v0,49,-39,85,-117,108r0,76v112,-37,250,33,352,45","w":528},"M":{"d":"732,10v44,0,184,-43,184,-84r0,-72v-25,13,-48,19,-80,11r0,-549r-213,0r-158,301r-139,-301r-308,0r0,98r74,0r0,471v-1,25,-38,43,-67,37r0,84v52,19,163,-7,163,-47r0,-334r191,387r203,-373r0,304v-7,34,114,67,150,67","w":916},"N":{"d":"20,-29v109,74,334,30,334,-110r0,-273r207,414r203,0r0,-690r-252,0r0,346r-178,-346r-314,0r0,94r82,0r0,463v0,35,-57,37,-82,22r0,80","w":829},"O":{"d":"58,-31v116,81,463,67,463,-100r0,-377v28,-5,50,-18,65,-41r0,-105v-21,15,-42,24,-65,27r0,-57r-162,0r0,20v-73,-19,-138,-28,-197,-28v-80,0,-152,76,-152,155r0,432v0,27,16,51,48,74xm424,-131v1,30,-50,45,-88,45v-30,0,-75,-17,-74,-41r0,-443v13,-42,52,-62,93,-35v-25,50,7,130,69,113r0,361","w":585},"P":{"d":"622,-434v0,-125,-41,-250,-147,-250r-463,0r0,94r90,0r0,447v5,61,-43,42,-90,45r0,98r301,0v18,2,48,-36,48,-53r0,-78r120,-19v94,-14,141,-109,141,-284xm522,-438v-3,161,-46,224,-161,198r0,-346v101,-27,163,19,161,148","w":663},"Q":{"d":"18,-135v30,133,204,182,369,151r134,97r0,-117r-29,-29v27,-35,41,-73,41,-113r0,-399v3,-101,-130,-149,-246,-149v-112,0,-269,45,-269,137r0,422xm349,-607v37,0,90,23,90,58r0,410v0,19,-9,34,-27,45r-86,-52r0,64v-35,-4,-53,-14,-53,-29r0,-426v-1,-38,37,-70,76,-70","w":582},"R":{"d":"614,4v90,0,167,-34,193,-98r0,-68v-20,15,-40,23,-61,22v-31,0,-10,-44,-16,-68v0,-101,-32,-156,-95,-163v78,-104,48,-313,-90,-313r-524,0r0,90r86,0r0,475v-2,36,-61,25,-86,10r0,80v113,69,354,52,354,-98r0,-170v35,6,90,-19,90,27r0,172v-1,71,70,102,149,102xm598,-518v0,45,-43,131,-84,131r-139,0r0,-218r154,0v39,-2,69,47,69,87","w":807},"S":{"d":"232,12v131,0,232,-92,230,-222v0,-45,-8,-78,-23,-99r-132,-170v-21,-23,-30,-47,-30,-77v0,-23,12,-34,28,-34v42,0,86,16,133,49r0,-105v-59,-51,-126,-76,-202,-76v-147,0,-274,177,-179,310r69,89v60,82,71,81,86,142v1,38,-37,69,-75,68v-43,0,-81,-20,-114,-59r-11,115v69,46,142,69,220,69","w":501},"T":{"d":"180,-98v-1,75,94,106,186,106v103,0,169,-26,198,-78r0,-88v-46,35,-72,53,-121,35r0,-459r102,0r0,-106r-391,0v-103,-1,-157,89,-142,200r78,0v-11,-55,40,-98,90,-98r0,488","w":564},"U":{"d":"602,2v81,-1,146,-43,177,-100r0,-74v-21,17,-46,26,-74,26r0,-542r-256,0r0,504v0,23,-20,34,-61,34v-27,0,-40,-6,-40,-18r0,-516r-330,0r0,75r70,0r0,478v-3,74,89,133,166,131v99,-3,131,-25,176,-90v52,61,109,92,172,92","w":779},"V":{"d":"334,16v129,0,242,-59,242,-178r0,-342r65,-45r0,-119r-65,41r0,-57r-174,0r0,118v-1,46,31,79,77,78r0,324v2,31,-52,50,-85,49v-29,0,-44,-8,-44,-24r0,-545r-342,0r0,98r72,0r0,455v-1,102,137,147,254,147","w":642},"W":{"d":"692,4v114,0,244,-66,244,-168r0,-350v21,-7,38,-21,52,-43r0,-123v-15,21,-32,33,-52,37r0,-45r-188,0v-1,87,-9,196,82,188r0,312v1,35,-29,62,-64,61v-35,0,-53,-15,-53,-45r0,-516r-270,0r0,504v0,21,-14,31,-43,31v-27,0,-41,-10,-41,-31r0,-504r-341,0r0,86r76,0r0,438v-2,103,82,165,188,164v77,0,148,-39,179,-90v57,63,134,94,231,94","w":987},"X":{"d":"205,-57v96,110,338,93,406,-25r0,-82v-49,27,-111,80,-175,49r0,-196r93,0r0,-117r-93,0r0,-82v0,-61,83,-94,142,-64r0,-96v-66,-39,-123,-11,-174,43v-74,-73,-244,-93,-375,-57r0,94v61,-28,143,1,143,65r0,97r-94,0r0,117r94,0r0,157v7,67,-137,58,-162,19r0,106v63,62,152,43,195,-28","w":612},"Y":{"d":"424,174v186,0,281,-20,281,-172r0,-690r-260,0r0,493v1,24,-18,44,-42,44v-25,1,-45,-19,-44,-44r0,-489r-345,0r0,118r74,0r0,435v0,35,12,72,43,102v92,90,293,41,314,-76r0,101v2,24,-39,79,-64,76v-50,20,-153,4,-199,-13r0,78v56,34,147,37,242,37","w":753},"Z":{"d":"639,-172v-70,83,-149,70,-278,70r84,-209r147,0r0,-121r-84,0r101,-252r-560,0r0,94r230,0r-76,154r-135,0r0,122r86,0r-131,314r493,0v51,-7,92,-29,123,-66r0,-106","w":638},"[":{"d":"275,39r-113,0r0,-699r111,0r0,-98r-242,0r0,897r244,0r0,-100","w":299},"\\":{"d":"117,-648r-109,0r424,646r103,0","w":549},"]":{"d":"268,-757r-245,0r0,95r116,0r0,701r-116,0r0,100r245,0r0,-896","w":303},"^":{"d":"213,-689r-108,0r-99,138r70,0r84,-86r82,86r71,0","w":324},"_":{"d":"604,86r-604,0r0,72r604,0r0,-72","w":609},"`":{"d":"151,-689r-131,0r127,138r74,0","w":221},"a":{"d":"293,-63v52,120,250,63,297,-23r0,-68v-20,15,-33,18,-56,15r0,-394r-237,0r0,41v-36,-40,-86,-60,-149,-60v-65,0,-148,39,-148,97r0,350v-1,76,74,108,159,108v69,0,104,-23,134,-66xm254,-109v-17,1,-41,-11,-41,-26r0,-271v-1,-39,75,-42,84,-10r0,273v0,23,-14,34,-43,34","w":592},"b":{"d":"322,25v101,0,203,-61,203,-156r0,-308v5,-60,-105,-120,-170,-120v-48,0,-89,15,-123,45r0,-174r-232,0r0,579v0,108,182,134,322,134xm266,-434v25,0,35,14,35,39r0,309v-3,17,-15,25,-38,25v-21,0,-31,-10,-31,-21r0,-324v0,-19,11,-28,34,-28","w":564},"c":{"d":"152,10v79,-2,147,-39,190,-88r0,-86v-37,27,-70,40,-101,40v-11,0,-17,-4,-17,-11r0,-293v8,-17,49,-7,65,0r0,-90v-41,-25,-90,-37,-147,-37v-46,0,-142,57,-142,100r0,361v-2,67,79,106,152,104","w":342},"d":{"d":"297,-49v35,37,92,63,161,63v76,0,124,-28,143,-84r0,-92v-15,16,-36,38,-64,27r0,-549r-229,0r0,176v-44,-17,-86,-46,-145,-46v-60,0,-163,50,-163,103r0,365v0,62,55,93,165,93v49,0,93,-19,132,-56xm262,-121v-23,0,-44,-20,-43,-43r0,-227v0,-22,14,-33,43,-33v31,0,46,12,46,37r0,219v1,26,-20,47,-46,47","w":600},"e":{"d":"168,9v115,-3,196,-50,260,-107r0,-70v-58,27,-131,89,-200,59v-3,-15,-3,-30,0,-45v83,-39,165,-125,166,-233v1,-109,-88,-163,-206,-163v-67,0,-184,76,-184,138r0,320v-2,67,86,104,164,101xm228,-260r0,-179v30,-44,91,-16,91,49v0,57,-38,134,-91,130","w":429},"f":{"d":"158,-717v-55,0,-154,72,-154,127r0,590r226,0r127,-82r0,-90r-119,70r0,-312r78,0r0,-119r-78,0r0,-49r78,0r0,-98v-49,-25,-101,-37,-158,-37","w":356},"g":{"d":"113,0v-2,93,87,147,187,146v160,-2,234,-60,249,-203r64,-33r0,-72r-60,27r0,-398r-231,0r0,45v-43,-43,-99,-65,-168,-65v-66,0,-150,51,-150,114r0,349v-2,53,54,91,109,90xm314,-176v0,23,-26,35,-50,35v-21,0,-32,-9,-32,-27r0,-230v0,-17,15,-26,44,-26v25,0,38,9,38,26r0,222xm317,-13v6,60,-58,82,-97,51v-11,-9,-15,-20,-13,-32r105,-55v3,15,5,27,5,36","w":613},"h":{"d":"420,12v48,0,177,-56,177,-102r0,-72v-18,21,-41,31,-68,31r0,-308v2,-68,-79,-111,-153,-111v-57,0,-108,22,-152,66r0,-204r-220,0r0,688r220,0r0,-402r84,0r0,332v-1,54,54,82,112,82","w":597},"i":{"d":"219,-668r-203,0r0,90r203,0r0,-90xm129,0v53,0,169,-53,169,-105r0,-75v-23,20,-44,31,-65,34r0,-387r-232,0r0,467v-2,40,82,66,128,66","w":297},"j":{"d":"215,-660r-192,0r0,90r192,0r0,-90xm4,117v104,34,224,3,224,-107r0,-543r-220,0r0,467v-6,14,57,65,54,76v5,34,-36,39,-58,29r0,78","w":288},"k":{"d":"432,18v77,-1,140,-53,169,-108r0,-68v-25,10,-47,23,-78,27r0,-162v-5,-46,-87,-71,-138,-53v9,-59,67,-101,138,-86r0,-89v-135,-36,-244,63,-283,160r0,-327r-236,0r0,688r236,0r0,-248v27,-9,63,5,64,31r0,135v-2,59,67,101,128,100","w":600},"l":{"d":"134,4v55,0,169,-47,169,-94r0,-82v-19,25,-43,41,-73,49r0,-561r-220,0r0,598v0,60,41,90,124,90","w":303},"m":{"d":"716,8v41,0,196,-63,187,-102r0,-82v-22,19,-46,32,-73,41r0,-304v-15,-66,-64,-107,-144,-107v-57,0,-108,22,-153,67v-94,-93,-188,-97,-307,-13r0,-45r-226,0r0,537r226,0r0,-391v0,-18,27,-29,48,-29v15,0,22,3,22,10r0,410r231,0r0,-391v0,-15,15,-22,44,-22v14,0,24,4,30,11r0,316v-3,57,62,94,115,94","w":903},"n":{"d":"418,6v52,0,177,-56,177,-104r0,-74v-21,19,-42,35,-64,49r0,-338v4,-40,-105,-81,-153,-81v-59,0,-107,21,-144,63r0,-58r-233,0r0,537r233,0r0,-395v0,-18,26,-32,46,-32v15,0,22,6,22,17r0,332v-1,53,57,84,116,84","w":594},"o":{"d":"211,6v74,0,196,-39,196,-100r0,-217v33,0,60,-15,82,-46r0,-71v-19,15,-39,22,-62,22r0,-127r-141,0r0,17v-40,-14,-80,-37,-131,-37v-56,0,-154,56,-154,110r0,338v-3,81,118,111,210,111xm216,-412v4,-23,43,-48,62,-20v-17,48,-3,137,57,114v-8,98,36,239,-77,239v-28,0,-42,-8,-42,-23r0,-310","w":489},"p":{"d":"381,6v56,0,221,-54,221,-104r0,-70v-21,17,-40,23,-66,29r0,-316v4,-50,-99,-92,-154,-92v-51,0,-102,20,-151,59r0,-45r-230,0r0,654r230,0r0,-166v32,34,82,51,150,51xm231,-410v-3,-29,82,-45,82,-10r0,281v0,19,-18,29,-53,29v-19,0,-29,-4,-29,-13r0,-287","w":603},"q":{"d":"1,-102v0,121,243,132,312,57r0,178r229,0r0,-178v25,-14,45,-30,60,-49r0,-86v-21,17,-35,27,-60,34r0,-391r-229,0r0,49v-49,-43,-106,-64,-172,-64v-56,0,-140,69,-140,120r0,330xm313,-158v0,22,-27,31,-52,31v-25,0,-38,-8,-38,-23r0,-245v0,-25,30,-39,57,-38v22,0,33,7,33,21r0,254","w":602},"r":{"d":"1,-70v0,60,100,78,179,78v74,0,154,-37,239,-110r0,-82v-61,24,-98,72,-186,69r0,-199v39,-38,90,-49,133,-20r0,-203v-54,0,-98,16,-133,49r0,-49r-232,0r0,467","w":420},"s":{"d":"154,-170v14,28,-9,70,-39,70v-33,0,-49,-32,-49,-95r-60,0v-32,124,29,199,190,199v100,0,182,-31,247,-94r0,-78r-49,25v16,-51,7,-106,-31,-138r-90,-76v-17,-14,-24,-34,-24,-59v0,-13,12,-31,24,-31v42,0,82,25,121,76r0,-96v-42,-57,-109,-86,-201,-86v-109,-1,-192,55,-191,160v0,36,5,64,19,79","w":444},"t":{"d":"159,10v69,0,187,-49,187,-100r0,-78v-49,45,-75,64,-121,57r0,-305r88,0r0,-121r-88,0r0,-102r-224,0r0,534v-1,80,71,115,158,115","w":345},"u":{"d":"348,-28v80,72,226,-7,249,-74r0,-74v-20,18,-41,28,-62,30r0,-391r-231,0r0,361v0,21,-13,32,-39,32v-18,0,-27,-6,-27,-18r0,-375r-238,0r0,398v0,94,38,141,114,141v60,0,119,-33,177,-100v17,22,38,54,57,70","w":597},"v":{"d":"211,7v79,0,189,-39,189,-109r0,-209v33,-6,62,-19,86,-39r0,-78v-19,15,-39,22,-61,22r0,-127r-142,0r0,191v4,16,18,27,41,33r0,178v0,40,-49,57,-89,45v-6,-4,-9,-8,-9,-12r0,-367v2,-17,-24,-68,-39,-68r-186,0r0,435v0,70,70,105,210,105","w":486},"w":{"d":"503,23v77,0,198,-51,198,-121r0,-203v27,-5,53,-18,78,-37r0,-82v-15,13,-31,20,-49,22r0,-135r-147,0r0,187v0,17,14,31,41,41r0,190v7,38,-66,47,-97,29r0,-391v-3,-51,-119,-96,-180,-68r-117,53r0,-45r-229,0r0,428v0,88,40,132,119,132v49,0,106,-31,171,-93v65,62,135,93,212,93xm230,-168r0,-230v0,-21,11,-31,32,-31v27,0,40,14,40,34r0,223v0,27,-12,40,-36,40v-24,0,-36,-12,-36,-36","w":779},"x":{"d":"86,-111v-15,-6,-20,-61,-16,-84r-61,0v-3,19,-7,39,-7,59v0,88,34,132,102,132v39,0,72,-8,99,-25v113,64,262,32,334,-65r0,-70v-48,17,-95,63,-158,49r0,-125r64,0r0,-86r-64,0r0,-102v41,-34,102,-21,130,22r0,-86v-12,-64,-113,-65,-168,-33v-42,-26,-85,-39,-129,-39v-87,1,-155,57,-195,113r0,88v36,-46,79,-69,129,-69r0,106r-60,0r0,86r60,0r0,113v0,15,-14,23,-41,23v-13,0,-19,-2,-19,-7","w":537},"y":{"d":"299,150v103,0,231,-57,241,-138r0,-61v21,-8,39,-20,54,-37r0,-90v-15,19,-34,28,-54,41r0,-398r-235,0r0,369v3,23,-37,42,-70,41r0,-410r-234,0r0,435v4,60,36,101,97,104v-9,21,-5,45,4,62v30,55,96,82,197,82xm305,31v5,30,-71,42,-96,17v-10,-10,-17,-20,-17,-32r113,-65r0,80","w":593},"z":{"d":"209,-1v112,35,211,-20,254,-93r0,-70v-47,28,-77,77,-151,77v-29,0,-53,-9,-74,-28r199,-283r0,-112v-87,12,-178,-36,-250,-31v-85,6,-144,43,-183,94r0,93v71,-64,101,-100,174,-74r-178,233r0,205v2,-28,77,-31,117,-39","w":462},"{":{"d":"87,121v-1,27,26,54,53,53r134,0r0,-59v-28,-2,-70,10,-70,-21r0,-328v-12,-50,-39,-79,-82,-88v42,-6,82,-40,82,-86r2,-344v11,-17,45,-4,68,-8r0,-62r-97,0v-46,-1,-94,39,-94,86r0,318v0,38,-29,69,-64,72r0,49v45,10,68,37,68,80r0,338","w":293},"|":{"d":"115,-756r-82,0r0,760r82,0r0,-760","w":152},"}":{"d":"207,-215v0,-42,31,-74,68,-80r0,-49v-35,-3,-64,-34,-64,-72r0,-318v2,-45,-49,-86,-94,-86r-97,0r0,62v30,4,70,-16,70,26r0,326v4,49,39,76,82,86v-46,13,-82,41,-82,88r0,328v-4,35,-40,17,-70,21r0,59r134,0v27,1,54,-26,53,-53r0,-338","w":293},"~":{"d":"320,-676v-29,59,-52,52,-112,21v-99,-51,-179,19,-192,98r58,0v11,-21,27,-32,46,-32v66,27,171,71,224,-7v15,-22,29,-48,37,-80r-61,0","w":396},"\u201a":{"d":"103,6v11,37,-52,39,-90,34r0,45v88,16,154,-1,207,-53r0,-156r-195,0r0,109v25,10,77,-15,81,17v0,2,-1,3,-3,4","w":235},"\u0192":{"d":"160,342v53,0,153,-74,153,-127r0,-629r78,0r0,-119r-78,0r0,-49r78,0r0,-98v-49,-25,-101,-37,-158,-37v-55,0,-154,72,-154,127r0,797r-77,0r0,98v49,25,101,37,158,37","w":399},"\u201e":{"d":"441,-124r-196,0r0,109v27,16,79,-19,79,18v0,47,-45,37,-90,37r0,45v88,17,154,-1,207,-53r0,-156xm103,6v11,37,-52,40,-90,34r0,45v88,16,154,-1,207,-53r0,-156r-195,0r0,109v17,8,48,3,68,0v10,3,17,16,10,21","w":468},"\u2026":{"d":"700,-90r-195,0r0,90r195,0r0,-90xm459,-90r-195,0r0,90r195,0r0,-90xm213,-90r-195,0r0,90r195,0r0,-90","w":711},"\u2020":{"d":"533,-502r-164,0r0,-201r-180,0r0,201r-166,0r0,145r166,0r0,529r180,0r0,-527r164,0r0,-147","w":563},"\u2021":{"d":"510,-139r-174,0r0,-238r174,0r0,-107r-174,0r0,-207r-133,0r0,207r-172,0r0,107r172,0r0,238r-172,0r0,108r172,0r0,205r133,0r0,-205r174,0r0,-108","w":537},"\u02c6":{"d":"238,-689r-121,0r-99,138r78,0r80,-82r78,82r82,0","w":352},"\u2030":{"d":"1083,-27v0,74,118,116,207,109v104,-8,170,-31,200,-98r0,-216v33,0,60,-16,82,-47r0,-71v-19,15,-40,22,-63,22r0,-127r-141,0r0,19v-52,-28,-95,-42,-128,-42v-83,0,-136,47,-157,113r0,27v-13,7,-27,10,-44,10r0,-127r-141,0r0,19v-52,-28,-95,-42,-128,-42v-58,0,-157,59,-157,113r0,338v-3,70,126,109,209,109v105,0,171,-33,198,-98r0,-216v21,0,42,-9,63,-26r0,231xm576,-727r-219,789r90,0r219,-789r-90,0xm210,-190v76,0,198,-35,198,-99r0,-217v33,0,61,-16,84,-47r0,-70v-22,16,-43,23,-64,21r0,-127r-139,0r0,20v-30,-18,-90,-38,-131,-39v-61,-3,-154,54,-154,109r0,338v-3,69,124,111,206,111xm1347,-2v-18,0,-49,-9,-49,-21r0,-311v0,-32,45,-38,63,-20v-4,29,-4,54,4,83v15,19,32,29,52,31v-8,93,35,238,-70,238xm877,-2v-18,0,-49,-9,-49,-21r0,-311v0,-30,44,-39,63,-20v-4,29,-4,54,4,83v15,19,32,29,52,31v-8,93,35,238,-70,238xm217,-297r0,-310v-4,-38,45,-41,64,-20v-10,56,8,113,57,113v-8,96,36,239,-75,239v-31,0,-46,-7,-46,-22","w":1572},"\u0160":{"d":"232,12v131,0,232,-92,230,-222v0,-45,-8,-78,-23,-99r-132,-170v-21,-23,-30,-47,-30,-77v0,-23,12,-34,28,-34v42,0,86,16,133,49r0,-105v-59,-51,-126,-76,-202,-76v-147,0,-274,177,-179,310r69,89v60,82,71,81,86,142v1,38,-37,69,-75,68v-43,0,-81,-20,-114,-59r-11,115v69,46,142,69,220,69xm317,-889r-70,84r-70,-84r-88,0r95,143r120,0r103,-143r-90,0","w":501},"\u2039":{"d":"174,-182r-100,-86r98,-89r0,-110r-164,145r0,111r166,141r0,-112","w":220},"\u0152":{"d":"434,-18v114,72,300,10,357,-80r0,-74v-43,37,-87,56,-131,56v-53,0,-80,-37,-80,-110v0,-81,52,-134,137,-124r0,-82v-83,0,-125,-27,-125,-82v-1,-88,92,-81,158,-49r0,-83v-94,-59,-189,-80,-299,-38r-92,0r0,16v-60,-9,-110,-25,-179,-25v-84,0,-170,72,-170,156r0,422v6,144,301,160,424,97xm361,-90v-40,8,-99,-1,-99,-37r0,-443v-5,-34,54,-38,103,-34v-45,84,-22,177,55,225v-64,30,-96,84,-96,161v0,50,13,96,37,128","w":792},"\u2018":{"d":"66,-684v-27,-1,-49,22,-48,49r0,170r195,0r0,-109v-37,-5,-89,18,-85,-31v-5,-38,65,-39,93,-24r0,-55r-155,0","w":240},"\u2019":{"d":"233,-695r-196,0r0,109v29,5,79,-15,79,20v0,38,-51,47,-90,37r0,49v86,17,166,-2,207,-57r0,-158","w":238},"\u201c":{"d":"351,-602v-6,-53,62,-35,91,-26r0,-57r-154,0v-27,-1,-50,22,-49,49r0,170r196,0r0,-105v-39,-3,-79,13,-84,-31xm67,-685v-27,-1,-49,22,-48,49r0,170r195,0r0,-105v-36,-5,-83,18,-83,-31v0,-44,60,-41,91,-26r0,-57r-155,0","w":469},"\u201d":{"d":"441,-674r-196,0r0,109v28,5,79,-15,79,19v0,38,-52,47,-90,38r0,45v88,17,154,-1,207,-53r0,-158xm220,-674r-195,0r0,109v30,7,81,-19,78,23v4,32,-48,39,-90,34r0,45v88,16,154,-1,207,-53r0,-158","w":445},"\u2022":{"d":"165,-295v0,-43,-36,-79,-79,-79v-43,0,-79,36,-79,79v0,43,36,79,79,79v43,0,79,-36,79,-79","w":174},"\u2013":{"d":"563,-318r-561,0r0,103r561,0r0,-103","w":585},"\u2014":{"d":"986,-318r-982,0r0,103r982,0r0,-103","w":1014},"\u02dc":{"d":"116,-589v74,12,176,77,231,-4v18,-26,31,-53,36,-83r-59,0v-9,27,-26,40,-52,40v-65,-26,-156,-60,-214,-4v-24,23,-39,49,-44,83r60,10v10,-16,19,-46,42,-42","w":396},"\u2122":{"d":"674,-384v23,0,92,-24,92,-43r0,-36v-12,4,-26,8,-40,4r0,-273r-106,0r-79,149r-70,-149r-154,0r0,49r37,0r0,234v1,12,-21,23,-33,20r0,43v28,9,81,-4,81,-26r0,-167r96,196r101,-189r0,152v0,17,52,36,75,36xm85,-732v-49,0,-81,45,-71,100r39,0v-5,-28,17,-50,45,-49r0,244v0,36,31,54,93,54v51,0,84,-13,99,-40r0,-44v-15,11,-37,27,-60,16r0,-228r51,0r0,-53r-196,0","w":779},"\u0161":{"d":"154,-170v14,28,-9,70,-39,70v-33,0,-49,-32,-49,-95r-60,0v-32,124,29,199,190,199v100,0,182,-31,247,-94r0,-78r-49,25v16,-51,7,-106,-31,-138r-90,-76v-17,-14,-24,-34,-24,-59v0,-13,12,-31,24,-31v42,0,82,25,121,76r0,-96v-42,-57,-109,-86,-201,-86v-109,-1,-192,55,-191,160v0,36,5,64,19,79xm282,-740r-70,84r-70,-84r-88,0r95,143r120,0r103,-143r-90,0","w":444},"\u203a":{"d":"172,-330r-162,-141r0,110r97,86r-95,87r0,112r160,-135r0,-119","w":200},"\u0153":{"d":"0,-105v6,103,216,142,320,91v142,47,281,13,379,-84r0,-70v-64,33,-118,87,-199,59v-3,-15,-3,-30,0,-45v86,-43,164,-128,168,-238v4,-121,-153,-200,-270,-143r-113,0r0,21v-43,-23,-88,-35,-134,-35v-67,0,-151,52,-151,106r0,338xm527,-459v81,-6,68,106,39,154v-18,30,-39,45,-66,45r0,-179v7,-6,17,-20,27,-20xm215,-412v0,-29,41,-43,66,-26r0,350v-19,14,-70,2,-66,-14r0,-310","w":699},"\u0178":{"d":"424,174v186,0,281,-20,281,-172r0,-690r-260,0r0,493v1,24,-18,44,-42,44v-25,1,-45,-19,-44,-44r0,-489r-345,0r0,118r74,0r0,435v0,35,12,72,43,102v92,90,293,41,314,-76r0,101v2,24,-39,79,-64,76v-50,20,-153,4,-199,-13r0,78v56,34,147,37,242,37xm609,-843r-173,0r0,102r173,0r0,-102xm353,-843r-173,0r0,104r173,0r0,-104","w":753},"\u00a1":{"d":"246,-589r-199,0r0,95r199,0r0,-95xm260,-463r-229,0r0,559r229,0r0,-559","w":293},"\u00a2":{"d":"16,-90v-2,62,64,101,130,100r0,115r57,0r0,-115v76,-23,127,-56,154,-100r0,-82v-31,21,-75,50,-125,33r0,-293v24,-11,46,-8,73,4r0,-90v-37,-29,-59,-40,-102,-35r0,-107r-57,0r0,107v-58,-3,-130,54,-130,106r0,357","w":357},"\u00a3":{"d":"246,-42v71,0,131,48,204,48v67,0,124,-19,171,-57r-76,-162v-47,33,-77,54,-144,32v-49,-16,-89,-18,-145,-10r-8,-6v35,-23,57,-60,66,-110r90,0r0,-88r-101,0v-14,-24,-39,-52,-39,-85v-1,-43,35,-72,78,-70v53,2,85,38,88,91r181,0v0,-161,-102,-242,-306,-242v-130,0,-243,75,-243,199v0,42,13,81,30,107r-55,0r0,86r82,0v0,90,-22,124,-80,157r74,152v49,-28,93,-42,133,-42","w":650},"\u00a4":{"d":"334,-261v36,-44,37,-122,1,-167r60,-56v-9,-13,-20,-25,-33,-34r-59,59v-45,-37,-124,-34,-168,1r-59,-59v-11,10,-21,21,-30,33r58,56v-38,41,-33,124,1,166r-60,58r31,32r60,-58v45,38,123,35,167,0r58,59v12,-9,23,-20,33,-31xm315,-345v0,57,-39,95,-95,95v-57,0,-94,-37,-96,-94v-2,-54,43,-97,96,-95v56,2,95,38,95,94","w":440},"\u00a5":{"d":"305,112v139,1,237,1,237,-122r0,-141r66,0r0,-49r-66,0r0,-61r66,0r0,-48r-66,0r0,-199r-187,0r0,199r-62,0r0,-196r-248,0r0,85r53,0r0,111r-61,0r0,48r61,0r0,61r-61,0r0,49r61,0v-1,55,-3,84,31,118v66,65,210,32,226,-55r0,73v1,18,-27,56,-46,54v-35,15,-108,1,-143,-9r0,56v33,17,80,26,139,26xm293,-200r0,-61r62,0r0,61r-62,0xm293,-151r62,0v0,20,-10,30,-30,30v-21,0,-32,-10,-32,-30","w":651},"\u00a6":{"d":"129,-773r-102,0r0,311r102,0r0,-311xm131,-312r-104,0r0,311r104,0r0,-311","w":156},"\u00a7":{"d":"89,-79v-24,7,-27,-40,-29,-61r-43,0v-29,90,25,142,141,141v73,0,130,-22,172,-66r0,-56r-35,18v27,-41,-4,-90,-35,-112v36,-13,59,-29,70,-46r0,-57r-35,18v24,-70,-36,-117,-75,-149v-19,-17,-28,-32,-28,-46v0,-16,5,-24,16,-24v30,0,59,18,87,55r0,-67v-31,-45,-79,-67,-145,-67v-85,0,-166,88,-122,175r49,53v-53,1,-78,91,-49,144r97,99v11,23,-1,52,-36,48","w":330},"\u00a8":{"d":"447,-684r-173,0r0,102r173,0r0,-102xm191,-684r-173,0r0,104r173,0r0,-104","w":469},"\u00a9":{"d":"640,-437v0,-163,-142,-305,-305,-305v-166,0,-305,138,-305,305v0,165,139,304,305,304v167,0,305,-139,305,-304xm587,-437v0,140,-112,252,-253,252v-138,0,-253,-115,-253,-254v0,-141,113,-252,254,-252v139,0,252,115,252,254xm449,-347v-21,10,-37,30,-65,30v-24,0,-36,-11,-36,-25r0,-182v-1,-52,61,-41,89,-17r0,-45v-67,-52,-159,-47,-201,33v-17,33,-28,69,-28,109v0,123,49,185,148,185v40,0,69,-27,93,-46r0,-42","w":669},"\u00aa":{"d":"186,-463v32,74,150,37,178,-14r0,-40v-9,5,-18,11,-34,9r0,-237r-142,0r0,25v-32,-54,-178,-47,-178,22r0,210v-10,77,148,89,176,25xm138,-506r0,-163v-3,-19,27,-22,43,-15v4,4,6,7,7,9r0,164v0,14,-9,21,-26,21v-16,0,-24,-5,-24,-16xm357,-390r-349,0r0,49r349,0r0,-49","w":355},"\u00ab":{"d":"344,-182r-100,-86r100,-89r0,-110r-164,145r0,111r164,141r0,-112xm174,-182r-100,-86r98,-89r0,-110r-164,145r0,111r166,141r0,-112","w":352},"\u00ac":{"d":"158,-717v-55,0,-154,72,-154,127r0,590r226,0r127,-82r0,-90r-119,70r0,-480r78,0r0,-98v-49,-25,-101,-37,-158,-37","w":356},"\u00ae":{"d":"639,-438v0,-164,-141,-304,-304,-304v-167,0,-304,138,-304,304v0,169,136,303,304,303v165,0,304,-140,304,-303xm588,-438v0,139,-114,253,-253,253v-141,0,-253,-112,-253,-253v0,-139,114,-253,253,-253v136,0,253,117,253,253xm163,-300v53,33,161,26,161,-44r0,-76v16,3,40,-9,40,12r0,77v0,31,24,46,73,46v51,0,88,-17,82,-75v-14,11,-21,12,-35,6v1,-55,-5,-94,-43,-99v13,-21,20,-45,20,-71v0,-25,-34,-70,-61,-70r-237,0r0,41r39,0r0,213v-3,14,-27,11,-39,4r0,36xm424,-521v0,18,-17,60,-38,60r-62,0r0,-97v44,3,100,-16,100,37","w":675},"\u00af":{"d":"240,-682r-70,84r-70,-84r-88,0r95,143r120,0r103,-143r-90,0","w":342},"\u00b0":{"d":"213,-606v0,-51,-40,-91,-91,-91v-51,0,-91,40,-91,91v0,51,40,91,91,91v51,0,91,-40,91,-91xm175,-606v0,27,-26,53,-53,53v-29,0,-53,-25,-53,-53v0,-29,24,-53,53,-53v27,0,53,26,53,53","w":240},"\u00b1":{"d":"502,-474r-213,0r0,-240r-74,0r0,240r-205,0r0,72r205,-1r0,228r-152,0r1,75r394,0r-1,-75r-168,0r0,-227r213,0r0,-72","w":514},"\u00b2":{"d":"238,-620v0,-61,-62,-107,-121,-106v-72,2,-118,51,-104,130r45,0v-5,-27,6,-66,32,-66v59,0,48,99,14,139v-12,14,-30,36,-59,63v-12,25,-26,45,-30,80r207,0r0,-53r-134,0v46,-28,93,-62,126,-102v19,-23,24,-53,24,-85","w":259},"\u00b3":{"d":"114,-729v-64,0,-126,43,-102,111r38,0v-3,-38,19,-69,50,-44v-1,41,14,102,-47,81r0,43v16,2,45,-3,47,12v-5,35,16,94,-25,94v-24,0,-33,-24,-25,-45r-42,0v-11,65,23,97,104,97v78,0,117,-35,117,-106v0,-36,-11,-63,-34,-81v45,-68,26,-162,-81,-162","w":245},"\u00b4":{"d":"78,-680r-70,139r74,0r127,-139r-131,0","w":217},"\u00b5":{"d":"325,0v45,0,102,-37,119,-73r0,-54v-13,13,-27,20,-44,22r0,-282r-167,0r0,260v0,15,-9,23,-28,23v-13,0,-19,-4,-19,-13r0,-270r-172,0r0,523r80,0r2,-135v43,0,86,-24,128,-72v22,35,54,71,101,71","w":444},"\u00b6":{"d":"149,-684v-107,-1,-147,125,-147,250v0,175,47,270,141,284v6,5,94,16,120,19r-2,291r150,0r0,-754r63,1r0,753r137,0r1,-844r-463,0","w":635},"\u00b7":{"d":"214,-376v0,-37,-33,-69,-70,-69v-39,0,-70,32,-70,71v0,38,33,69,71,69v38,0,69,-33,69,-71","w":275},"\u2219":{"d":"214,-376v0,-37,-33,-69,-70,-69v-39,0,-70,32,-70,71v0,38,33,69,71,69v38,0,69,-33,69,-71","w":275},"\u00b8":{"d":"262,115v0,-49,-44,-75,-98,-66r22,-51r-51,0r-35,90v26,-4,76,-11,73,33v-4,62,-116,33,-153,12v-13,13,-17,24,-14,41v56,22,78,27,146,27v61,0,110,-37,110,-86","w":270},"\u00b9":{"d":"202,-752r-89,0r-82,67r0,53r45,-26r0,248r126,0r0,-342","w":219},"\u00ba":{"d":"147,-410v39,0,117,-25,117,-61r0,-131v19,0,36,-9,49,-27r0,-43v-13,11,-25,15,-37,13r0,-76r-84,0r0,10v-25,-8,-46,-22,-79,-22v-36,0,-92,33,-92,66r0,203v0,48,66,68,126,68xm187,-674v-11,28,1,78,34,68v-2,64,20,166,-64,140v-5,-3,-7,-6,-7,-10r0,-186v-4,-21,29,-25,37,-12xm287,-390r-279,0r0,49r279,0r0,-49","w":293},"\u00bb":{"d":"354,-330r-162,-141r0,110r97,86r-97,87r0,112r162,-135r0,-119xm182,-330r-162,-141r0,110r97,86r-95,87r0,112r160,-135r0,-119","w":352},"\u00bc":{"d":"182,-752r-89,0r-82,67r0,53r45,-26r0,248r126,0r0,-342xm415,-707r-414,707r92,0r418,-707r-96,0xm495,-125r-22,0r0,-222r-97,0r-122,216r0,53r104,0r0,73r115,0r0,-73r22,0r0,-47xm303,-125r55,-90r0,90r-55,0","w":527},"\u00bd":{"d":"232,-747r-89,0r-82,67r0,53r45,-26r0,248r126,0r0,-342xm568,-249v0,-63,-62,-112,-122,-111v-65,1,-121,60,-103,134r45,0v-5,-27,6,-66,32,-66v22,0,32,28,32,73v0,42,-25,80,-70,121v-21,19,-31,50,-37,88r207,0r0,-53r-134,0v30,-21,113,-79,119,-93v21,-17,31,-48,31,-93xm436,-707r-414,707r92,0r418,-707r-96,0","w":594},"\u00be":{"d":"218,-643v0,-81,-113,-108,-177,-66v-30,20,-40,53,-29,91r38,0v-1,-26,5,-56,26,-54v11,2,19,5,24,10v-2,42,16,98,-47,81r0,43v21,-1,38,1,47,12v-2,36,12,94,-26,94v-24,0,-31,-24,-24,-45r-42,0v-10,65,25,97,104,97v78,0,117,-35,117,-106v0,-36,-11,-63,-34,-81v15,-23,23,-49,23,-76xm416,-707r-414,707r92,0r418,-707r-96,0xm475,-125r-22,0r0,-222r-97,0r-122,216r0,53r104,0r0,73r115,0r0,-73r22,0r0,-47xm283,-125r55,-90r0,90r-55,0","w":515},"\u00bf":{"d":"445,-530r-200,0r0,98r200,0r0,-98xm22,-68v0,232,304,306,524,224r0,-94v-68,13,-177,33,-226,-7v-30,-25,-41,-86,-41,-152v0,-50,12,-79,35,-87r101,-34v30,-10,45,-22,45,-35r0,-146r-226,0v1,49,7,83,-22,113v-70,13,-126,31,-158,88v-21,37,-32,80,-32,130","w":555},"\u00c0":{"d":"404,-111v17,66,74,125,152,125v67,0,129,-29,186,-88r0,-88v-21,13,-62,44,-78,16r-170,-538r-203,0r-164,549v-11,42,-55,59,-106,49r0,86v87,51,170,-29,188,-111r195,0xm242,-207r69,-205r66,205r-135,0xm367,-878r-131,0r127,138r74,0","w":741},"\u00c1":{"d":"404,-111v17,66,74,125,152,125v67,0,129,-29,186,-88r0,-88v-21,13,-62,44,-78,16r-170,-538r-203,0r-164,549v-11,42,-55,59,-106,49r0,86v87,51,170,-29,188,-111r195,0xm242,-207r69,-205r66,205r-135,0xm390,-877r-70,139r74,0r127,-139r-131,0","w":741},"\u00c2":{"d":"404,-111v17,66,74,125,152,125v67,0,129,-29,186,-88r0,-88v-21,13,-62,44,-78,16r-170,-538r-203,0r-164,549v-11,42,-55,59,-106,49r0,86v87,51,170,-29,188,-111r195,0xm242,-207r69,-205r66,205r-135,0xm437,-877r-121,0r-99,138r78,0r80,-82r78,82r82,0","w":741},"\u00c3":{"d":"404,-111v17,66,74,125,152,125v67,0,129,-29,186,-88r0,-88v-21,13,-62,44,-78,16r-170,-538r-203,0r-164,549v-11,42,-55,59,-106,49r0,86v87,51,170,-29,188,-111r195,0xm242,-207r69,-205r66,205r-135,0xm288,-782v74,12,176,77,231,-4v18,-26,31,-53,36,-83r-59,0v-9,27,-26,40,-52,40v-65,-26,-156,-60,-214,-4v-24,23,-39,49,-44,83r60,10v10,-16,19,-46,42,-42","w":741},"\u00c4":{"d":"404,-111v17,66,74,125,152,125v67,0,129,-29,186,-88r0,-88v-21,13,-62,44,-78,16r-170,-538r-203,0r-164,549v-11,42,-55,59,-106,49r0,86v87,51,170,-29,188,-111r195,0xm242,-207r69,-205r66,205r-135,0xm607,-842r-173,0r0,102r173,0r0,-102xm351,-842r-173,0r0,104r173,0r0,-104","w":741},"\u00c5":{"d":"480,-831v0,-51,-40,-91,-91,-91v-51,0,-91,40,-91,91v0,51,40,91,91,91v51,0,91,-40,91,-91xm404,-111v17,66,74,125,152,125v67,0,129,-29,186,-88r0,-88v-21,13,-62,44,-78,16r-170,-538r-203,0r-164,549v-11,42,-55,59,-106,49r0,86v87,51,170,-29,188,-111r195,0xm442,-831v0,27,-26,53,-53,53v-29,0,-53,-25,-53,-53v0,-29,24,-53,53,-53v27,0,53,26,53,53xm242,-207r69,-205r66,205r-135,0","w":738},"\u00c6":{"d":"601,12v97,0,196,-49,239,-110r0,-74v-44,38,-88,57,-132,57v-53,0,-79,-38,-79,-114v0,-68,60,-136,137,-121r0,-82v-77,5,-131,-12,-128,-89v3,-78,106,-84,161,-42r0,-83v-80,-59,-218,-91,-313,-28r-2,-10r-203,0r-164,549v-10,36,-59,65,-105,49r0,86v17,11,35,16,54,16v83,-3,110,-52,133,-127r203,0v35,82,101,123,199,123xm232,-207r69,-205r66,205r-135,0","w":844},"\u00c7":{"d":"404,97v3,-41,-38,-66,-83,-57r33,-30v61,-15,94,-50,136,-80r0,-84v-44,21,-72,59,-132,62v-35,2,-71,-18,-71,-51r0,-365v1,-115,116,-88,178,-33r0,-90v-47,-45,-112,-67,-197,-67v-159,0,-260,180,-260,352v0,209,85,376,291,366r-33,54v25,-6,67,-8,62,28v-8,56,-99,26,-130,10v-8,10,-12,22,-12,35v81,32,211,43,218,-50","w":486},"\u00c8":{"d":"11,-213v0,130,104,226,235,226v90,0,168,-37,233,-111r0,-74v-41,38,-88,57,-139,57v-81,0,-101,-145,-38,-201v34,-29,59,-41,102,-34r0,-82v-70,11,-122,-17,-125,-84v-1,-34,20,-72,53,-71v33,0,69,8,106,24r0,-83v-51,-41,-113,-62,-186,-62v-111,0,-227,76,-227,183v0,65,27,113,82,146v-64,31,-96,87,-96,166xm216,-877r-131,0r127,138r74,0","w":480},"\u00c9":{"d":"11,-213v0,130,104,226,235,226v90,0,168,-37,233,-111r0,-74v-41,38,-88,57,-139,57v-81,0,-101,-145,-38,-201v34,-29,59,-41,102,-34r0,-82v-70,11,-122,-17,-125,-84v-1,-34,20,-72,53,-71v33,0,69,8,106,24r0,-83v-51,-41,-113,-62,-186,-62v-111,0,-227,76,-227,183v0,65,27,113,82,146v-64,31,-96,87,-96,166xm266,-877r-70,139r74,0r127,-139r-131,0","w":480},"\u00ca":{"d":"11,-213v0,130,104,226,235,226v90,0,168,-37,233,-111r0,-74v-41,38,-88,57,-139,57v-81,0,-101,-145,-38,-201v34,-29,59,-41,102,-34r0,-82v-70,11,-122,-17,-125,-84v-1,-34,20,-72,53,-71v33,0,69,8,106,24r0,-83v-51,-41,-113,-62,-186,-62v-111,0,-227,76,-227,183v0,65,27,113,82,146v-64,31,-96,87,-96,166xm289,-876r-121,0r-99,138r78,0r80,-82r78,82r82,0","w":480},"\u00cb":{"d":"11,-213v0,130,104,226,235,226v90,0,168,-37,233,-111r0,-74v-41,38,-88,57,-139,57v-81,0,-101,-145,-38,-201v34,-29,59,-41,102,-34r0,-82v-70,11,-122,-17,-125,-84v-1,-34,20,-72,53,-71v33,0,69,8,106,24r0,-83v-51,-41,-113,-62,-186,-62v-111,0,-227,76,-227,183v0,65,27,113,82,146v-64,31,-96,87,-96,166xm464,-843r-173,0r0,102r173,0r0,-102xm208,-843r-173,0r0,104r173,0r0,-104","w":480},"\u00cc":{"d":"8,-18v131,61,388,26,387,-121r0,-545r-372,0r0,86r108,0r0,463v0,24,-23,36,-69,36v-23,0,-41,-3,-54,-10r0,91xm223,-876r-131,0r127,138r74,0","w":456},"\u00cd":{"d":"8,-18v131,61,388,26,387,-121r0,-545r-372,0r0,86r108,0r0,463v0,24,-23,36,-69,36v-23,0,-41,-3,-54,-10r0,91xm207,-878r-70,139r74,0r127,-139r-131,0","w":456},"\u00ce":{"d":"8,-18v131,61,388,26,387,-121r0,-545r-372,0r0,86r108,0r0,463v0,24,-23,36,-69,36v-23,0,-41,-3,-54,-10r0,91xm312,-878r-121,0r-99,138r78,0r80,-82r78,82r82,0","w":456},"\u00cf":{"d":"8,-18v131,61,388,26,387,-121r0,-545r-372,0r0,86r108,0r0,463v0,24,-23,36,-69,36v-23,0,-41,-3,-54,-10r0,91xm473,-843r-173,0r0,102r173,0r0,-102xm217,-843r-173,0r0,104r173,0r0,-104","w":456},"\u00d0":{"d":"521,2v122,-5,135,-211,126,-358v-7,-124,-15,-204,-30,-240v-25,-59,-70,-88,-137,-88r-455,0r0,102r75,0r0,173r-76,0r0,109r76,0r0,206r-79,0r0,96r500,0xm480,-94r-113,0r0,-206r56,0r0,-109r-56,0r0,-173v79,1,136,-15,152,65v6,32,11,85,11,161v0,175,-17,262,-50,262","w":708},"\u00d1":{"d":"20,-29v109,74,334,30,334,-110r0,-273r207,414r203,0r0,-690r-252,0r0,346r-178,-346r-314,0r0,94r82,0r0,463v0,35,-57,37,-82,22r0,80xm347,-780v74,12,176,77,231,-4v18,-26,31,-53,36,-83r-59,0v-9,27,-26,40,-52,40v-65,-26,-156,-60,-214,-4v-24,23,-39,49,-44,83r60,10v10,-16,19,-46,42,-42","w":829},"\u00d2":{"d":"58,-31v116,81,463,67,463,-100r0,-377v28,-5,50,-18,65,-41r0,-105v-21,15,-42,24,-65,27r0,-57r-162,0r0,20v-73,-19,-138,-28,-197,-28v-80,0,-152,76,-152,155r0,432v0,27,16,51,48,74xm424,-131v1,30,-50,45,-88,45v-30,0,-75,-17,-74,-41r0,-443v13,-42,52,-62,93,-35v-25,50,7,130,69,113r0,361xm285,-877r-131,0r127,138r74,0","w":585},"\u00d3":{"d":"58,-31v116,81,463,67,463,-100r0,-377v28,-5,50,-18,65,-41r0,-105v-21,15,-42,24,-65,27r0,-57r-162,0r0,20v-73,-19,-138,-28,-197,-28v-80,0,-152,76,-152,155r0,432v0,27,16,51,48,74xm424,-131v1,30,-50,45,-88,45v-30,0,-75,-17,-74,-41r0,-443v13,-42,52,-62,93,-35v-25,50,7,130,69,113r0,361xm334,-878r-70,139r74,0r127,-139r-131,0","w":585},"\u00d4":{"d":"58,-31v116,81,463,67,463,-100r0,-377v28,-5,50,-18,65,-41r0,-105v-21,15,-42,24,-65,27r0,-57r-162,0r0,20v-73,-19,-138,-28,-197,-28v-80,0,-152,76,-152,155r0,432v0,27,16,51,48,74xm424,-131v1,30,-50,45,-88,45v-30,0,-75,-17,-74,-41r0,-443v13,-42,52,-62,93,-35v-25,50,7,130,69,113r0,361xm367,-876r-121,0r-99,138r78,0r80,-82r78,82r82,0","w":585},"\u00d5":{"d":"58,-31v116,81,463,67,463,-100r0,-377v28,-5,50,-18,65,-41r0,-105v-21,15,-42,24,-65,27r0,-57r-162,0r0,20v-73,-19,-138,-28,-197,-28v-80,0,-152,76,-152,155r0,432v0,27,16,51,48,74xm424,-131v1,30,-50,45,-88,45v-30,0,-75,-17,-74,-41r0,-443v13,-42,52,-62,93,-35v-25,50,7,130,69,113r0,361xm217,-782v74,12,176,77,231,-4v18,-26,31,-53,36,-83r-59,0v-9,27,-26,40,-52,40v-65,-26,-156,-60,-214,-4v-24,23,-39,49,-44,83r60,10v10,-16,19,-46,42,-42","w":585},"\u00d6":{"d":"58,-31v116,81,463,67,463,-100r0,-377v28,-5,50,-18,65,-41r0,-105v-21,15,-42,24,-65,27r0,-57r-162,0r0,20v-73,-19,-138,-28,-197,-28v-80,0,-152,76,-152,155r0,432v0,27,16,51,48,74xm424,-131v1,30,-50,45,-88,45v-30,0,-75,-17,-74,-41r0,-443v13,-42,52,-62,93,-35v-25,50,7,130,69,113r0,361xm514,-844r-173,0r0,102r173,0r0,-102xm258,-844r-173,0r0,104r173,0r0,-104","w":585},"\u00d7":{"d":"343,-518r-125,192r-124,-192r-88,0r170,258r-167,258r82,0r127,-193r128,193r82,0r-167,-258r169,-258r-87,0","w":439},"\u00d8":{"d":"304,16v111,10,227,-53,227,-147r0,-377v28,-5,50,-18,65,-41r0,-105v-18,22,-40,38,-65,47r0,-41r69,-118r-102,0r-47,82r-82,0r0,20v-69,-17,-129,-25,-180,-25v-96,-2,-169,59,-169,152r0,422v0,34,18,66,54,97r-56,100r101,0r41,-72xm271,-570v0,-18,39,-44,57,-44v33,0,51,16,55,48r-112,209r0,-213xm434,-131v0,21,-70,48,-94,48v-26,0,-69,-21,-69,-44r0,-61r163,-291r0,348","w":593},"\u00d9":{"d":"602,2v81,-1,146,-43,177,-100r0,-74v-21,17,-46,26,-74,26r0,-542r-256,0r0,504v0,23,-20,34,-61,34v-27,0,-40,-6,-40,-18r0,-516r-330,0r0,75r70,0r0,478v-3,74,89,133,166,131v99,-3,131,-25,176,-90v52,61,109,92,172,92xm368,-874r-131,0r127,138r74,0","w":779},"\u00da":{"d":"602,2v81,-1,146,-43,177,-100r0,-74v-21,17,-46,26,-74,26r0,-542r-256,0r0,504v0,23,-20,34,-61,34v-27,0,-40,-6,-40,-18r0,-516r-330,0r0,75r70,0r0,478v-3,74,89,133,166,131v99,-3,131,-25,176,-90v52,61,109,92,172,92xm428,-879r-70,139r74,0r127,-139r-131,0","w":779},"\u00db":{"d":"602,2v81,-1,146,-43,177,-100r0,-74v-21,17,-46,26,-74,26r0,-542r-256,0r0,504v0,23,-20,34,-61,34v-27,0,-40,-6,-40,-18r0,-516r-330,0r0,75r70,0r0,478v-3,74,89,133,166,131v99,-3,131,-25,176,-90v52,61,109,92,172,92xm456,-876r-121,0r-99,138r78,0r80,-82r78,82r82,0","w":779},"\u00dc":{"d":"602,2v81,-1,146,-43,177,-100r0,-74v-21,17,-46,26,-74,26r0,-542r-256,0r0,504v0,23,-20,34,-61,34v-27,0,-40,-6,-40,-18r0,-516r-330,0r0,75r70,0r0,478v-3,74,89,133,166,131v99,-3,131,-25,176,-90v52,61,109,92,172,92xm611,-841r-173,0r0,102r173,0r0,-102xm355,-841r-173,0r0,104r173,0r0,-104","w":779},"\u00dd":{"d":"424,174v186,0,281,-20,281,-172r0,-690r-260,0r0,493v1,24,-18,44,-42,44v-25,1,-45,-19,-44,-44r0,-489r-345,0r0,118r74,0r0,435v0,35,12,72,43,102v92,90,293,41,314,-76r0,101v2,24,-39,79,-64,76v-50,20,-153,4,-199,-13r0,78v56,34,147,37,242,37xm423,-875r-70,139r74,0r127,-139r-131,0","w":753},"\u00df":{"d":"215,-582v103,-29,147,109,92,180v-20,26,-54,35,-92,27r0,-207xm568,-204v1,-95,-58,-171,-150,-170v101,-85,72,-202,-21,-277v-34,-27,-87,-50,-139,-63v-5,-5,-34,-6,-86,-6v-73,0,-169,64,-169,125r0,727r212,0r0,-421v35,-8,89,0,103,22v34,31,38,235,-32,192r-48,73v112,54,209,25,271,-43v37,-41,59,-92,59,-159xm215,-375r0,-207r0,207","w":605},"\u00e0":{"d":"293,-63v52,120,250,63,297,-23r0,-68v-20,15,-33,18,-56,15r0,-394r-237,0r0,41v-36,-40,-86,-60,-149,-60v-65,0,-148,39,-148,97r0,350v-1,76,74,108,159,108v69,0,104,-23,134,-66xm254,-109v-17,1,-41,-11,-41,-26r0,-271v-1,-39,75,-42,84,-10r0,273v0,23,-14,34,-43,34xm253,-735r-131,0r127,138r74,0","w":592},"\u00e1":{"d":"293,-63v52,120,250,63,297,-23r0,-68v-20,15,-33,18,-56,15r0,-394r-237,0r0,41v-36,-40,-86,-60,-149,-60v-65,0,-148,39,-148,97r0,350v-1,76,74,108,159,108v69,0,104,-23,134,-66xm254,-109v-17,1,-41,-11,-41,-26r0,-271v-1,-39,75,-42,84,-10r0,273v0,23,-14,34,-43,34xm301,-737r-70,139r74,0r127,-139r-131,0","w":592},"\u00e2":{"d":"293,-63v52,120,250,63,297,-23r0,-68v-20,15,-33,18,-56,15r0,-394r-237,0r0,41v-36,-40,-86,-60,-149,-60v-65,0,-148,39,-148,97r0,350v-1,76,74,108,159,108v69,0,104,-23,134,-66xm254,-109v-17,1,-41,-11,-41,-26r0,-271v-1,-39,75,-42,84,-10r0,273v0,23,-14,34,-43,34xm360,-737r-121,0r-99,138r78,0r80,-82r78,82r82,0","w":592},"\u00e3":{"d":"293,-63v52,120,250,63,297,-23r0,-68v-20,15,-33,18,-56,15r0,-394r-237,0r0,41v-36,-40,-86,-60,-149,-60v-65,0,-148,39,-148,97r0,350v-1,76,74,108,159,108v69,0,104,-23,134,-66xm254,-109v-17,1,-41,-11,-41,-26r0,-271v-1,-39,75,-42,84,-10r0,273v0,23,-14,34,-43,34xm214,-640v74,12,176,77,231,-4v18,-26,31,-53,36,-83r-59,0v-9,27,-26,40,-52,40v-65,-26,-156,-60,-214,-4v-24,23,-39,49,-44,83r60,10v10,-16,19,-46,42,-42","w":592},"\u00e4":{"d":"293,-63v52,120,250,63,297,-23r0,-68v-20,15,-33,18,-56,15r0,-394r-237,0r0,41v-36,-40,-86,-60,-149,-60v-65,0,-148,39,-148,97r0,350v-1,76,74,108,159,108v69,0,104,-23,134,-66xm254,-109v-17,1,-41,-11,-41,-26r0,-271v-1,-39,75,-42,84,-10r0,273v0,23,-14,34,-43,34xm508,-702r-173,0r0,102r173,0r0,-102xm252,-702r-173,0r0,104r173,0r0,-104","w":592},"\u00e5":{"d":"396,-684v0,-51,-40,-91,-91,-91v-51,0,-91,40,-91,91v0,51,40,91,91,91v51,0,91,-40,91,-91xm293,-63v52,120,250,63,297,-23r0,-68v-20,15,-33,18,-56,15r0,-394r-237,0r0,41v-36,-40,-86,-60,-149,-60v-65,0,-148,39,-148,97r0,350v-1,76,74,108,159,108v69,0,104,-23,134,-66xm358,-684v0,27,-26,53,-53,53v-29,0,-53,-25,-53,-53v0,-29,24,-53,53,-53v27,0,53,26,53,53xm254,-109v-17,1,-41,-11,-41,-26r0,-271v-1,-39,75,-42,84,-10r0,273v0,23,-14,34,-43,34","w":592},"\u00e6":{"d":"297,-63v119,124,372,68,470,-35r0,-70v-89,45,-147,68,-173,68v-23,0,-34,-10,-34,-31r123,-107v45,-51,58,-101,55,-174v-4,-86,-128,-161,-231,-134r-50,13r-158,0r0,41v-39,-40,-91,-60,-155,-60v-70,0,-142,44,-142,97r0,350v6,69,70,107,153,105v74,-1,104,-19,142,-63xm568,-260r0,-179v8,-7,14,-20,27,-20v76,-5,73,104,40,154v-19,29,-40,45,-67,45xm260,-107v-19,0,-45,-12,-45,-28r0,-271v0,-18,17,-27,52,-27v21,0,32,6,32,17r0,273v0,24,-13,36,-39,36","w":768},"\u00e7":{"d":"244,81v4,-32,-42,-48,-79,-42r24,-33v64,-11,115,-39,154,-84r0,-86v-32,24,-71,50,-118,29r0,-293v17,-9,46,-9,65,0r0,-90v-43,-25,-87,-38,-130,-38v-72,0,-159,53,-159,101r0,361v-2,66,70,105,138,104r-26,54v24,-4,62,-4,59,20v-6,39,-93,21,-122,8v-9,7,-13,16,-11,26v63,23,196,34,205,-37","w":342},"\u00e8":{"d":"168,9v115,-3,196,-50,260,-107r0,-70v-58,27,-131,89,-200,59v-3,-15,-3,-30,0,-45v83,-39,165,-125,166,-233v1,-109,-88,-163,-206,-163v-67,0,-184,76,-184,138r0,320v-2,67,86,104,164,101xm228,-260r0,-179v30,-44,91,-16,91,49v0,57,-38,134,-91,130xm180,-738r-131,0r127,138r74,0","w":429},"\u00e9":{"d":"168,9v115,-3,196,-50,260,-107r0,-70v-58,27,-131,89,-200,59v-3,-15,-3,-30,0,-45v83,-39,165,-125,166,-233v1,-109,-88,-163,-206,-163v-67,0,-184,76,-184,138r0,320v-2,67,86,104,164,101xm228,-260r0,-179v30,-44,91,-16,91,49v0,57,-38,134,-91,130xm193,-734r-70,139r74,0r127,-139r-131,0","w":429},"\u00ea":{"d":"168,9v115,-3,196,-50,260,-107r0,-70v-58,27,-131,89,-200,59v-3,-15,-3,-30,0,-45v83,-39,165,-125,166,-233v1,-109,-88,-163,-206,-163v-67,0,-184,76,-184,138r0,320v-2,67,86,104,164,101xm228,-260r0,-179v30,-44,91,-16,91,49v0,57,-38,134,-91,130xm258,-737r-121,0r-99,138r78,0r80,-82r78,82r82,0","w":429},"\u00eb":{"d":"168,9v115,-3,196,-50,260,-107r0,-70v-58,27,-131,89,-200,59v-3,-15,-3,-30,0,-45v83,-39,165,-125,166,-233v1,-109,-88,-163,-206,-163v-67,0,-184,76,-184,138r0,320v-2,67,86,104,164,101xm228,-260r0,-179v30,-44,91,-16,91,49v0,57,-38,134,-91,130xm441,-700r-173,0r0,102r173,0r0,-102xm185,-700r-173,0r0,104r173,0r0,-104","w":429},"\u00ec":{"d":"141,0v78,0,178,-39,177,-105r0,-75v-18,13,-38,30,-64,34r0,-387r-234,0r0,467v-4,37,84,66,121,66xm151,-740r-131,0r127,138r74,0","w":338},"\u00ed":{"d":"141,0v78,0,178,-39,177,-105r0,-75v-18,13,-38,30,-64,34r0,-387r-234,0r0,467v-4,37,84,66,121,66xm144,-731r-70,139r74,0r127,-139r-131,0","w":338},"\u00ee":{"d":"141,0v78,0,178,-39,177,-105r0,-75v-18,13,-38,30,-64,34r0,-387r-234,0r0,467v-4,37,84,66,121,66xm213,-743r-108,0r-99,138r70,0r84,-86r82,86r71,0","w":338},"\u00ef":{"d":"141,0v78,0,178,-39,177,-105r0,-75v-18,13,-38,30,-64,34r0,-387r-234,0r0,467v-4,37,84,66,121,66xm351,-702r-173,0r0,102r173,0r0,-102xm95,-702r-171,0r0,104r171,0r0,-104","w":338},"\u00f0":{"d":"17,-94v-5,71,126,110,207,110v152,0,228,-42,228,-125r0,-432v-4,-61,-64,-103,-117,-127r51,-57r-84,-70r-93,107v-47,0,-102,11,-163,34r0,101v18,-5,37,-9,58,-10r-13,16r84,70r33,-39r0,69v-57,-38,-191,-23,-191,52r0,301xm208,-94v-9,27,-97,9,-101,-11r0,-262v0,-12,15,-18,46,-18v37,0,55,9,55,28r0,263","w":469},"\u00f1":{"d":"418,6v52,0,177,-56,177,-104r0,-74v-21,19,-42,35,-64,49r0,-338v4,-40,-105,-81,-153,-81v-59,0,-107,21,-144,63r0,-58r-233,0r0,537r233,0r0,-395v0,-18,26,-32,46,-32v15,0,22,6,22,17r0,332v-1,53,57,84,116,84xm173,-642v74,12,176,77,231,-4v18,-26,31,-53,36,-83r-59,0v-9,27,-26,40,-52,40v-65,-26,-156,-60,-214,-4v-24,23,-39,49,-44,83r60,10v10,-16,19,-46,42,-42","w":594},"\u00f2":{"d":"211,6v74,0,196,-39,196,-100r0,-217v33,0,60,-15,82,-46r0,-71v-19,15,-39,22,-62,22r0,-127r-141,0r0,17v-40,-14,-80,-37,-131,-37v-56,0,-154,56,-154,110r0,338v-3,81,118,111,210,111xm216,-412v4,-23,43,-48,62,-20v-17,48,-3,137,57,114v-8,98,36,239,-77,239v-28,0,-42,-8,-42,-23r0,-310xm205,-735r-131,0r127,138r74,0","w":489},"\u00f3":{"d":"211,6v74,0,196,-39,196,-100r0,-217v33,0,60,-15,82,-46r0,-71v-19,15,-39,22,-62,22r0,-127r-141,0r0,17v-40,-14,-80,-37,-131,-37v-56,0,-154,56,-154,110r0,338v-3,81,118,111,210,111xm216,-412v4,-23,43,-48,62,-20v-17,48,-3,137,57,114v-8,98,36,239,-77,239v-28,0,-42,-8,-42,-23r0,-310xm222,-734r-70,139r74,0r127,-139r-131,0","w":489},"\u00f4":{"d":"211,6v74,0,196,-39,196,-100r0,-217v33,0,60,-15,82,-46r0,-71v-19,15,-39,22,-62,22r0,-127r-141,0r0,17v-40,-14,-80,-37,-131,-37v-56,0,-154,56,-154,110r0,338v-3,81,118,111,210,111xm216,-412v4,-23,43,-48,62,-20v-17,48,-3,137,57,114v-8,98,36,239,-77,239v-28,0,-42,-8,-42,-23r0,-310xm285,-731r-121,0r-99,138r78,0r80,-82r78,82r82,0","w":489},"\u00f5":{"d":"211,6v74,0,196,-39,196,-100r0,-217v33,0,60,-15,82,-46r0,-71v-19,15,-39,22,-62,22r0,-127r-141,0r0,17v-40,-14,-80,-37,-131,-37v-56,0,-154,56,-154,110r0,338v-3,81,118,111,210,111xm216,-412v4,-23,43,-48,62,-20v-17,48,-3,137,57,114v-8,98,36,239,-77,239v-28,0,-42,-8,-42,-23r0,-310xm135,-640v74,12,176,77,231,-4v18,-26,31,-53,36,-83r-59,0v-9,27,-26,40,-52,40v-65,-26,-156,-60,-214,-4v-24,23,-39,49,-44,83r60,10v10,-16,19,-46,42,-42","w":489},"\u00f6":{"d":"211,6v74,0,196,-39,196,-100r0,-217v33,0,60,-15,82,-46r0,-71v-19,15,-39,22,-62,22r0,-127r-141,0r0,17v-40,-14,-80,-37,-131,-37v-56,0,-154,56,-154,110r0,338v-3,81,118,111,210,111xm216,-412v4,-23,43,-48,62,-20v-17,48,-3,137,57,114v-8,98,36,239,-77,239v-28,0,-42,-8,-42,-23r0,-310xm438,-703r-173,0r0,102r173,0r0,-102xm182,-703r-173,0r0,104r173,0r0,-104","w":489},"\u00f7":{"d":"283,-508r-125,0r0,98r125,0r0,-98xm412,-355r-394,0r0,109r394,0r0,-109xm283,-174r-125,0r0,90r125,0r0,-90","w":428},"\u00f8":{"d":"3,-105v0,47,44,81,95,95r-50,117r83,0r47,-107v86,21,229,-24,229,-94r0,-217v30,0,58,-15,84,-46r0,-71v-21,15,-42,22,-65,22r0,-127r-17,0r47,-110r-92,0r-49,110r-27,0r0,19v-45,-25,-90,-37,-135,-37v-60,0,-150,53,-150,108r0,338xm215,-293v7,-58,-24,-144,38,-154v11,1,19,4,25,8xm337,-318v-7,90,30,228,-60,233v-23,1,-41,-27,-40,-50r84,-195","w":486},"\u00f9":{"d":"348,-28v80,72,226,-7,249,-74r0,-74v-20,18,-41,28,-62,30r0,-391r-231,0r0,361v0,21,-13,32,-39,32v-18,0,-27,-6,-27,-18r0,-375r-238,0r0,398v0,94,38,141,114,141v60,0,119,-33,177,-100v17,22,38,54,57,70xm261,-735r-131,0r127,138r74,0","w":597},"\u00fa":{"d":"348,-28v80,72,226,-7,249,-74r0,-74v-20,18,-41,28,-62,30r0,-391r-231,0r0,361v0,21,-13,32,-39,32v-18,0,-27,-6,-27,-18r0,-375r-238,0r0,398v0,94,38,141,114,141v60,0,119,-33,177,-100v17,22,38,54,57,70xm322,-738r-70,139r74,0r127,-139r-131,0","w":597},"\u00fb":{"d":"348,-28v80,72,226,-7,249,-74r0,-74v-20,18,-41,28,-62,30r0,-391r-231,0r0,361v0,21,-13,32,-39,32v-18,0,-27,-6,-27,-18r0,-375r-238,0r0,398v0,94,38,141,114,141v60,0,119,-33,177,-100v17,22,38,54,57,70xm345,-737r-121,0r-99,138r78,0r80,-82r78,82r82,0","w":597},"\u00fc":{"d":"348,-28v80,72,226,-7,249,-74r0,-74v-20,18,-41,28,-62,30r0,-391r-231,0r0,361v0,21,-13,32,-39,32v-18,0,-27,-6,-27,-18r0,-375r-238,0r0,398v0,94,38,141,114,141v60,0,119,-33,177,-100v17,22,38,54,57,70xm488,-703r-173,0r0,102r173,0r0,-102xm232,-703r-173,0r0,104r173,0r0,-104","w":597},"\u00fd":{"d":"299,150v103,0,231,-57,241,-138r0,-61v21,-8,39,-20,54,-37r0,-90v-15,19,-34,28,-54,41r0,-398r-235,0r0,369v3,23,-37,42,-70,41r0,-410r-234,0r0,435v4,60,36,101,97,104v-9,21,-5,45,4,62v30,55,96,82,197,82xm305,31v5,30,-71,42,-96,17v-10,-10,-17,-20,-17,-32r113,-65r0,80xm325,-739r-70,139r74,0r127,-139r-131,0","w":593},"\u00ff":{"d":"299,150v103,0,231,-57,241,-138r0,-61v21,-8,39,-20,54,-37r0,-90v-15,19,-34,28,-54,41r0,-398r-235,0r0,369v3,23,-37,42,-70,41r0,-410r-234,0r0,435v4,60,36,101,97,104v-9,21,-5,45,4,62v30,55,96,82,197,82xm305,31v5,30,-71,42,-96,17v-10,-10,-17,-20,-17,-32r113,-65r0,80xm500,-703r-173,0r0,102r173,0r0,-102xm244,-703r-173,0r0,104r173,0r0,-104","w":593},"\u00a0":{"w":429}}});
