// #### Generated By: http://www.cufonfonts.com ####
/*!
 * The following copyright notice may not be removed under any circumstances.
 * 
 * Copyright:
 * This font drawn by, and copyright, Ben Weiner, 1999-2001. Modifications for
 * version 2.0 copyright Ben Weiner, 2006-7. Licensed under the Open Font License
 * (http://scripts.sil.org/OFL). See accompanying license and FONTLOG.
 * 
 * Full name:
 * Puritan 2.0 Regular
 */
Cufon.registerFont({"w":500,"face":{"font-family":"Puritan","font-weight":400,"font-stretch":"normal","units-per-em":"1000","panose-1":"0 0 4 0 0 0 0 0 0 0","ascent":"800","descent":"-200","x-height":"11","bbox":"-148 -860 973 232.053","underline-thickness":"20","underline-position":"-133","unicode-range":"U+0020-U+2126"},"glyphs":{" ":{"w":273},"!":{"d":"161,-192r-85,0r0,-514r85,0r0,514xm172,-44v0,33,-26,57,-59,57v-31,0,-56,-26,-56,-57v0,-31,25,-58,56,-58v33,0,59,25,59,58","w":235},"\"":{"d":"266,-475v12,-21,40,-119,39,-150v0,-37,-16,-56,-47,-56v-94,0,-24,164,-6,206r14,0xm124,-475v12,-21,40,-119,39,-150v0,-37,-16,-56,-47,-56v-93,0,-23,165,-5,206r13,0","w":329},"#":{"d":"445,-560r-80,9r0,78r79,-8r0,52r-80,8r0,97r-57,6r1,-97r-80,9r-1,97r-57,6r1,-97r-102,11r0,-52r102,-11r0,-79r-101,11r0,-52r102,-11r0,-75r57,-6r-1,75r81,-8r0,-75r58,-8r-2,77r80,-9r0,52xm228,-537r0,79r80,-9r0,-78","w":536},"$":{"d":"96,-448v0,-81,60,-137,129,-153r0,-89r89,0r0,86v41,7,81,27,120,59r-44,58v-65,-64,-204,-74,-204,44v0,76,200,109,223,144v32,27,48,71,48,130v0,97,-48,155,-143,175r0,94r-89,0r0,-91v-68,-9,-117,-35,-148,-78r47,-62v38,45,84,67,139,67v102,0,151,-131,62,-178v-24,-12,-167,-57,-185,-88v-29,-29,-44,-68,-44,-118","w":536},"%":{"d":"237,-531v0,71,-38,121,-108,121v-70,0,-107,-52,-107,-121v0,-65,42,-119,107,-119v65,0,108,54,108,119xm107,78r-74,-25r377,-681r69,26xm510,-122v0,74,-38,124,-109,124v-74,0,-110,-51,-110,-124v-1,-66,44,-122,110,-122v66,0,109,56,109,122xm175,-528v0,-32,-19,-67,-47,-66v-59,0,-60,130,1,130v31,0,46,-21,46,-64xm401,-54v63,-1,59,-132,-1,-132v-29,-1,-47,35,-46,68v0,43,16,64,47,64","w":536},"&":{"d":"98,-178v0,70,54,118,124,117v44,0,81,-19,111,-57v-74,-76,-126,-139,-157,-189v-52,29,-78,72,-78,129xm97,-484v0,-87,73,-156,160,-156v56,0,106,24,150,72r-47,48v-30,-37,-67,-56,-110,-56v-96,1,-84,112,-44,181v35,-15,72,-23,111,-24r14,61v-35,0,-64,5,-87,16v52,72,95,125,129,160v18,-66,18,-70,4,-133r70,-6v13,80,8,119,-15,192v17,20,48,41,93,63r-46,62v-26,-9,-58,-29,-95,-62v-49,50,-101,75,-157,75v-115,2,-203,-68,-202,-178v1,-88,55,-157,117,-190v-30,-41,-45,-83,-45,-125","w":555},"'":{"d":"110,-475v18,-27,45,-109,45,-152v0,-37,-15,-56,-46,-56v-97,0,-21,174,1,208","w":194},"(":{"d":"133,-323v0,194,35,244,107,431r-66,30v-170,-285,-171,-643,0,-921r63,30v-69,161,-104,305,-104,430","w":318},")":{"d":"78,108v74,-194,108,-231,108,-427v0,-129,-35,-274,-105,-434r64,-30v167,267,164,648,0,921","w":316},"*":{"d":"219,-475r-66,-60r4,89r-47,0r3,-89r-66,60r-27,-44r81,-50r-80,-51r26,-44r68,61r-4,-90r47,1r-5,89r66,-61r25,44r-77,50r78,51","w":275},"+":{"d":"279,-282r0,186r-61,0r0,-186r-165,0r0,-63r165,0r0,-176r61,0r0,176r167,0r0,63r-167,0","w":498},",":{"d":"104,-120v0,50,-21,159,-39,192r44,12v61,-79,91,-147,92,-204r-97,0","w":254},"-":{"d":"50,-267r0,-93r280,0r0,93r-280,0","w":380},"\u2010":{"d":"50,-267r0,-93r280,0r0,93r-280,0","w":380},".":{"d":"194,-64v0,37,-28,73,-66,73v-38,0,-67,-36,-67,-73v0,-37,29,-73,67,-73v38,0,66,36,66,73","w":233},"\/":{"d":"93,170r-80,-17r296,-857r81,17","w":385},"0":{"d":"250,-512v135,0,232,116,232,255v0,146,-89,266,-231,266v-144,0,-234,-116,-234,-265v0,-140,94,-256,233,-256xm249,-52v108,0,170,-90,170,-205v0,-103,-68,-197,-169,-197v-99,0,-170,95,-170,198v0,102,71,204,169,204"},"1":{"d":"329,0r-76,0r0,-447r-131,0r0,-60r207,0r0,507"},"2":{"d":"249,-519v92,-1,165,62,165,155v0,67,-29,125,-88,174r-135,113r261,0r0,77r-367,0r-1,-77v73,-66,175,-138,232,-212v47,-61,15,-160,-65,-160v-45,0,-85,24,-122,72r-46,-49v53,-62,108,-93,166,-93"},"3":{"d":"450,-32v0,123,-93,211,-220,211v-61,0,-114,-26,-159,-77r38,-53v43,41,85,61,126,61v85,0,133,-54,133,-142v0,-78,-56,-136,-136,-133v-13,0,-35,0,-67,-1r0,-63v105,3,158,-47,160,-129v2,-51,-38,-92,-86,-92v-45,0,-80,23,-107,69r-51,-43v52,-64,104,-96,156,-96v95,-1,164,65,163,160v-1,65,-33,123,-79,146v76,13,129,95,129,182"},"4":{"d":"305,-367r-187,291r187,0r0,-291xm370,0r0,168r-65,0r0,-168r-278,0r0,-76r285,-433r58,0r0,433r100,0r0,76r-100,0"},"5":{"d":"462,-59v0,162,-171,300,-332,210v-35,-20,-62,-41,-78,-67r35,-46v41,50,92,75,153,75v87,0,142,-76,142,-166v0,-74,-54,-141,-125,-141v-37,0,-77,16,-118,49r-68,-30r0,-333r346,0r0,61r-270,0r0,223v33,-33,79,-50,138,-50v97,1,177,107,177,215","w":584},"6":{"d":"402,-203v0,-94,-56,-169,-143,-169v-79,-1,-148,72,-148,155v0,92,61,175,149,175v74,0,142,-86,142,-161xm474,-207v0,116,-100,232,-214,229v-159,-4,-236,-118,-236,-289v0,-211,102,-391,296,-390v52,0,103,13,152,38r-29,61v-101,-53,-205,-43,-271,41v-39,49,-60,109,-63,181v49,-69,104,-104,167,-104v112,-1,198,114,198,233"},"7":{"d":"450,-443r-271,612r-78,-22r263,-591r-287,0r0,-60r373,0r0,61"},"8":{"d":"254,-34v78,1,135,-54,132,-134v-3,-94,-54,-125,-137,-157v-74,41,-123,70,-128,156v-4,76,59,135,133,135xm244,-608v-67,0,-101,31,-101,94v0,50,33,90,99,120v73,-29,109,-67,109,-116v0,-65,-36,-98,-107,-98xm462,-168v0,123,-88,196,-214,196v-115,0,-208,-79,-205,-194v2,-94,64,-163,138,-194v-64,-42,-103,-67,-106,-150v-3,-98,74,-154,176,-154v88,0,168,61,168,147v0,65,-36,116,-108,155v101,42,151,107,151,194"},"9":{"d":"394,-281v0,-85,-71,-165,-161,-165v-73,0,-132,92,-132,168v0,77,62,163,136,163v85,0,157,-80,157,-166xm478,-226v0,204,-80,422,-256,422v-77,0,-140,-24,-189,-71r29,-61v47,44,103,66,168,66v113,1,177,-173,176,-304v-44,76,-76,122,-172,125v-114,4,-206,-110,-206,-226v0,-128,83,-237,205,-235v149,2,245,124,245,284"},":":{"d":"200,-433v0,37,-29,73,-67,73v-37,0,-67,-36,-67,-73v0,-37,30,-73,67,-73v38,0,67,36,67,73xm200,-64v0,37,-29,73,-67,73v-37,0,-67,-36,-67,-73v0,-37,30,-73,67,-73v38,0,67,36,67,73","w":244},";":{"d":"213,-432v0,37,-29,71,-66,71v-38,0,-69,-33,-69,-71v0,-37,31,-72,69,-72v38,0,66,35,66,72xm104,-120v0,50,-21,159,-39,192r44,12v61,-79,91,-147,92,-204r-97,0","w":254},"<":{"d":"132,-285r187,240r-73,3r-219,-247r218,-240r74,3","w":366},"=":{"d":"51,-287r0,-65r338,0r0,65r-338,0xm51,-135r0,-65r338,0r0,65r-338,0","w":441},">":{"d":"99,-42r-74,-3r187,-240r-188,-241r75,-3r217,240","w":365},"?":{"d":"230,-681v98,0,181,75,181,173v0,80,-56,132,-117,175v-29,30,-28,36,-47,95v-1,4,-1,20,2,49r-69,0v-3,-27,-5,-48,-5,-64v0,-131,151,-150,158,-256v4,-57,-42,-100,-100,-100v-63,0,-105,35,-128,104r-67,-35v38,-94,102,-141,192,-141xm278,-44v0,33,-26,57,-59,57v-31,0,-56,-26,-56,-57v0,-31,25,-58,56,-58v33,0,59,25,59,58","w":484},"@":{"d":"968,11v-95,154,-229,217,-475,221v-247,4,-440,-220,-440,-470v0,-249,211,-460,460,-460v252,0,417,179,417,430v0,146,-117,270,-261,280v-50,3,-84,-46,-77,-99v-50,65,-106,98,-168,98v-102,0,-153,-70,-153,-211v0,-147,116,-312,258,-312v49,0,103,22,121,51r3,-41r73,0r-64,408v18,74,116,-1,137,-23v25,-27,62,-103,62,-151v2,-214,-134,-361,-348,-361v-212,0,-391,179,-391,391v0,214,161,404,371,401v209,-3,325,-63,408,-195xm354,-215v0,99,22,147,105,151v59,3,135,-90,144,-141r35,-193v-14,-30,-67,-52,-112,-52v-100,0,-172,114,-172,235","w":1010},"A":{"d":"453,10r-59,-189r-225,0r-58,189r-82,-10r213,-654r80,0r216,650xm281,-551r-91,303r184,0","w":568},"B":{"d":"471,-184v1,118,-83,185,-205,184r-203,-2r0,-639r193,-4v103,-1,171,53,170,153v-2,93,-32,123,-108,141v102,22,153,78,153,167xm347,-482v0,-101,-73,-112,-195,-100r0,207v62,1,122,6,157,-25v24,-21,38,-47,38,-82xm385,-185v0,-77,-65,-127,-141,-127r-92,0r0,245r94,0v93,0,139,-39,139,-118","w":524},"C":{"d":"509,-50v-72,39,-105,56,-198,58v-177,3,-280,-151,-280,-337v0,-220,168,-393,393,-310v33,12,60,23,79,34r-38,79v-61,-37,-110,-56,-147,-56v-122,0,-197,134,-197,265v0,124,73,245,189,245v57,0,110,-14,160,-43","w":539},"D":{"d":"452,-82v-78,87,-230,89,-389,80r0,-642v46,-2,95,-3,146,-3v228,1,321,97,324,324v1,104,-29,183,-81,241xm242,-74v124,2,196,-109,196,-238v0,-181,-68,-271,-203,-271v-19,0,-47,1,-83,2r0,507r90,0","w":565},"E":{"d":"152,-568r0,193r252,0r0,75r-252,-1r0,225r267,-1r0,77r-356,0r0,-640r359,0r0,72r-270,0","w":489},"F":{"d":"152,-568r0,193r254,0r0,75r-254,0r0,300r-89,0r0,-640r360,0r0,72r-271,0","w":490},"G":{"d":"122,-317v0,120,69,245,180,245v47,0,90,-10,129,-31r0,-198r-142,0r0,-74r230,0r0,314v-122,89,-327,95,-419,-36v-84,-121,-92,-320,-4,-447v73,-106,172,-139,311,-100v43,11,75,26,96,44r-37,75v-55,-38,-107,-57,-156,-57v-117,0,-188,139,-188,265","w":582},"H":{"d":"431,0r0,-300r-279,0r0,300r-89,0r0,-640r89,0r0,265r279,0r0,-265r88,0r0,640r-88,0","w":582},"I":{"d":"63,0r0,-642r89,0r0,642r-89,0","w":215},"J":{"d":"152,-69v0,152,-67,228,-200,228v-39,0,-73,-17,-100,-50r46,-67v71,75,165,26,165,-103r0,-577r89,0r0,569","w":215},"K":{"d":"420,21r-221,-297r-47,70r0,206r-89,0r0,-640r89,0r0,315v107,-141,191,-255,250,-340r70,50r-216,280v55,91,188,238,270,333","w":531},"L":{"d":"63,0r0,-641r89,0r0,569r286,0r0,72r-375,0","w":501},"M":{"d":"630,0r0,-511r-194,512r-83,0r-197,-516r0,515r-82,0r0,-642r127,0r198,515r203,-515r117,0r0,642r-89,0","w":793},"N":{"d":"456,11v-60,-108,-163,-266,-310,-475r0,463r-83,1r0,-644r74,0r300,455r0,-451r82,0r0,629","w":582},"O":{"d":"613,-322v0,190,-111,338,-294,338v-183,0,-287,-147,-287,-338v0,-179,120,-324,294,-324v174,0,287,145,287,324xm531,-312v0,-132,-81,-260,-207,-260v-127,0,-209,125,-209,259v0,128,82,252,204,252v123,0,212,-125,212,-251","w":644},"P":{"d":"427,-459v0,103,-79,198,-183,195v-25,0,-56,-1,-92,-4r0,268r-89,0r0,-640v120,3,256,-29,317,47v30,36,47,79,47,134xm240,-585r-88,2r0,253v69,-1,126,5,158,-40v18,-25,29,-52,29,-86v0,-87,-33,-130,-99,-129","w":459},"Q":{"d":"612,-326v0,89,-26,194,-69,234r117,103r-53,59r-122,-107v-50,35,-106,53,-167,53v-181,3,-287,-151,-287,-339v0,-180,120,-323,295,-323v174,0,286,141,286,320xm478,-149v112,-146,36,-422,-155,-422v-127,0,-209,124,-209,256v0,126,83,254,201,254v37,0,72,-11,107,-32r-75,-66r54,-58","w":658},"R":{"d":"414,10v-72,-73,-152,-192,-218,-301r-44,2r0,289r-89,0r0,-641r202,-3v117,1,174,60,173,177v-1,97,-66,154,-153,171v85,112,123,175,240,286xm152,-356v117,3,204,-2,204,-122v0,-72,-39,-107,-117,-105r-87,2r0,225","w":530},"S":{"d":"450,-185v9,164,-170,233,-320,175v-39,-15,-69,-36,-89,-63r46,-64v41,47,92,71,155,71v74,0,123,-43,122,-117v0,-45,-26,-78,-79,-100r-147,-61v-93,-52,-104,-208,-17,-276v87,-68,218,-56,302,15r-42,63v-63,-67,-229,-76,-229,53v0,42,35,74,104,98v135,48,186,60,194,206","w":492},"T":{"d":"318,-572r0,572r-89,0r0,-572r-198,0r0,-67r473,0r0,67r-186,0","w":536},"U":{"d":"279,-58v93,0,140,-73,139,-172r0,-410r90,0r0,410v1,145,-86,247,-231,247v-139,0,-214,-103,-214,-247r0,-410r89,0r0,410v0,115,42,172,127,172","w":571},"V":{"d":"311,10r-65,0r-205,-640r85,-23r159,522r159,-522r74,23","w":548},"W":{"d":"591,6r-52,0r-142,-465r-142,465r-63,0r-176,-632r87,-19r132,499r135,-489r64,0r131,488r136,-498r68,19","w":789},"X":{"d":"421,15r-155,-278r-139,278r-91,-20r186,-312r-174,-309r91,-19r134,243r129,-244r75,20r-165,292r204,329","w":552},"Y":{"d":"296,-272r0,272r-90,0r0,-272r-177,-355r80,-23r145,297r143,-297r76,23","w":503},"Z":{"d":"161,-76r317,0r0,76r-408,0r-7,-77r322,-497r-305,2r0,-67r393,0r8,72","w":544},"[":{"d":"56,114r0,-854r153,0r0,51r-71,0r0,733r81,0r0,70r-163,0","w":269},"\\":{"d":"308,170r-296,-857r80,-17r297,857","w":385},"]":{"d":"50,114r0,-70r81,0r0,-733r-72,0r0,-51r151,0r0,854r-160,0","w":266},"^":{"d":"267,-592r-115,139r-42,-52r157,-173r159,173r-42,52","w":536},"_":{"d":"5,109r0,-59r525,0r0,59r-525,0","w":536},"`":{"d":"266,-556r-209,-90r47,-65r210,96","w":329},"a":{"d":"234,-512v90,-1,163,64,163,155r0,282v14,34,31,21,63,-1r16,52v-41,44,-120,54,-145,-13v-43,35,-84,52,-152,53v-83,1,-139,-61,-138,-143v2,-152,126,-154,278,-176r0,-63v1,-44,-42,-76,-85,-75v-37,0,-81,21,-133,64r-41,-56v32,-31,121,-78,174,-79xm190,-47v51,0,129,-36,129,-85r0,-101v-80,7,-206,17,-206,107v0,47,29,79,77,79","w":491},"b":{"d":"481,-259v0,153,-66,270,-209,269v-43,0,-86,-17,-129,-50r-14,40r-65,0r0,-700r79,0r0,252v45,-43,87,-64,125,-64v133,-2,213,115,213,253xm391,-256v0,-97,-38,-188,-124,-187v-61,0,-102,24,-124,72r0,263v20,28,75,52,121,52v85,0,127,-67,127,-200","w":515},"c":{"d":"122,-238v0,96,56,181,147,181v48,0,93,-18,134,-55r39,52v-49,48,-106,72,-173,72v-143,0,-230,-108,-230,-254v0,-151,86,-268,232,-265v59,1,111,18,157,53r-42,66v-45,-34,-87,-51,-126,-51v-92,-1,-138,99,-138,201","w":479},"d":{"d":"37,-243v0,-149,75,-271,215,-269v47,0,86,19,118,58r0,-243r78,0r0,697r-66,0r-12,-42v-54,37,-100,55,-139,55v-120,3,-194,-128,-194,-256xm126,-254v0,99,42,194,131,193v41,0,78,-15,113,-45r0,-274v-37,-46,-48,-62,-122,-63v-87,-1,-122,90,-122,189","w":511},"e":{"d":"274,-507v108,0,182,81,180,189r0,61r-330,0v1,129,43,201,153,201v39,0,83,-21,131,-64r40,56v-53,51,-113,76,-178,76v-150,0,-231,-105,-231,-259v0,-150,88,-260,235,-260xm375,-320v3,-80,-32,-121,-108,-121v-89,1,-116,45,-136,121r244,0","w":491},"f":{"d":"96,-495v-11,-139,29,-254,153,-251v76,2,62,6,125,44r-38,51v-56,-36,-118,-51,-149,12v-18,36,-15,91,-15,144r139,0r0,65r-139,0r0,430r-76,0r0,-430r-78,0r0,-65r78,0","w":324},"g":{"d":"45,-335v-4,-128,153,-227,278,-156v25,13,43,29,55,47r130,-20r0,66r-107,-3v67,148,-89,291,-243,235v-44,24,-59,76,-1,89v12,3,45,4,98,4v139,-1,200,11,206,123v6,112,-141,179,-262,179v-83,0,-163,-43,-162,-119v0,-43,23,-87,69,-130v-43,-16,-93,-92,-39,-135r41,-41v-41,-35,-61,-82,-63,-139xm228,-214v70,0,120,-49,120,-123v0,-60,-53,-116,-117,-116v-65,0,-111,59,-111,122v0,62,46,117,108,117xm225,167v74,0,159,-46,159,-114v0,-73,-126,-62,-213,-62v-31,0,-63,60,-63,94v0,53,59,82,117,82","w":511},"h":{"d":"285,-511v91,0,164,83,164,173r0,338r-78,0r0,-325v1,-65,-33,-118,-94,-118v-48,0,-135,57,-135,103r0,340r-79,0r0,-696r79,0r0,257v51,-48,99,-72,143,-72","w":512},"i":{"d":"170,-657v0,30,-23,55,-53,55v-30,0,-54,-25,-54,-55v0,-30,24,-54,54,-54v30,0,53,24,53,54xm71,0r0,-495r81,0r0,495r-81,0","w":233},"j":{"d":"184,-658v0,30,-24,54,-54,54v-30,0,-54,-24,-54,-54v0,-30,24,-54,54,-54v30,0,54,24,54,54xm84,21v3,91,-38,101,-97,122r32,75v96,-37,144,-88,144,-153r0,-560r-79,0r0,516","w":233},"k":{"d":"395,25r-219,-251r-34,34r0,192r-79,0r0,-697r79,0r0,421r218,-245r68,46r-198,203r235,254","w":476},"l":{"d":"156,0r-78,0r0,-698r78,0r0,698","w":234},"m":{"d":"563,-512v81,0,150,81,150,161r0,351r-79,0r0,-346v0,-65,-29,-97,-88,-97v-45,0,-120,69,-120,121r0,322r-78,0r0,-351v0,-52,-30,-91,-82,-91v-48,0,-124,62,-124,111r0,331r-79,0r0,-495r79,0r0,70v51,-55,97,-82,140,-82v60,0,105,45,123,91v56,-64,109,-96,158,-96","w":776},"n":{"d":"286,-511v90,-4,163,83,163,173r0,338r-78,0r0,-325v1,-65,-33,-118,-94,-118v-55,0,-135,59,-135,115r0,328r-79,0r0,-495r79,0r0,56v47,-43,75,-69,144,-72","w":512},"o":{"d":"507,-252v0,141,-92,263,-232,263v-151,0,-236,-111,-236,-263v0,-147,97,-260,237,-260v139,0,231,114,231,260xm421,-251v0,-102,-46,-194,-140,-194v-103,0,-156,89,-156,199v0,105,50,192,146,192v100,0,150,-90,150,-197","w":546},"p":{"d":"480,-267v0,160,-71,281,-222,280v-42,0,-81,-19,-116,-57r0,241r-79,0r0,-692r79,0r0,47v44,-43,83,-64,117,-64v147,0,221,82,221,245xm263,-54v83,0,130,-109,130,-199v0,-128,-45,-192,-135,-192v-50,-1,-106,39,-116,81r0,263v41,31,81,47,121,47","w":517},"q":{"d":"253,-512v42,1,96,31,115,57r0,-40r80,0r0,692r-80,0r0,-251v-62,45,-110,67,-143,67v-121,3,-188,-138,-188,-270v0,-146,76,-258,216,-255xm123,-248v0,89,51,187,134,187v35,0,72,-15,111,-45r0,-259v-12,-44,-59,-81,-112,-81v-94,0,-133,92,-133,198","w":511},"r":{"d":"298,-410v-65,-48,-156,43,-156,93r0,317r-79,0r0,-495r79,0r0,82v59,-80,92,-116,180,-77","w":342},"s":{"d":"399,-159v2,107,-78,174,-185,173v-69,0,-124,-19,-166,-58r40,-61v35,33,79,50,134,50v44,0,95,-42,95,-86v0,-79,-136,-83,-199,-114v-39,-19,-58,-54,-58,-102v-2,-95,70,-160,165,-157v45,1,93,16,144,46r-26,63v-47,-30,-87,-45,-121,-45v-91,0,-119,103,-47,127r144,47v53,25,80,64,80,117","w":437},"t":{"d":"214,8v-72,0,-114,-76,-114,-153r0,-285r-79,0r0,-66r79,0r0,-101r79,0r0,101r129,0r0,67r-129,-1r0,297v5,91,85,80,135,22r39,54v-37,43,-84,65,-139,65","w":351},"u":{"d":"230,-53v51,0,138,-58,138,-111r0,-331r78,0r0,495r-71,0r-11,-52v-49,47,-100,70,-153,70v-88,0,-148,-87,-148,-178r0,-335r79,0r0,331v0,74,29,111,88,111","w":511},"v":{"d":"261,12r-54,0r-185,-491r79,-22r136,386r129,-386r76,22","w":464},"w":{"d":"561,9r-61,0r-130,-370r-132,370r-63,0r-148,-488r77,-20r111,395r123,-388r70,0r128,387r105,-394r73,20","w":735},"x":{"d":"411,26r-164,-216r-161,214r-67,-45r181,-225r-162,-218r74,-44r141,198r146,-197r62,35r-169,221r186,231","w":492},"y":{"d":"47,107v100,59,144,-74,175,-149r-192,-436r77,-21r151,354r129,-353r71,17r-209,565v-18,56,-87,112,-158,112v-10,0,-33,-6,-69,-18","w":480},"z":{"d":"53,0r0,-66r228,-303v11,-15,28,-36,51,-61r-269,0r0,-64r362,0r0,70r-220,299v-7,10,-22,28,-45,55r279,0r0,70r-386,0","w":482},"{":{"d":"163,-417v38,-54,17,-138,17,-216v0,-166,88,-229,233,-190r-15,75v-27,-9,-46,-13,-57,-13v-81,3,-81,42,-77,136r5,131v0,48,-27,97,-82,146r0,25v47,32,96,111,92,184r-8,162v1,73,-3,103,51,103v29,0,52,-7,69,-21r20,75v-102,37,-182,13,-214,-70v-18,-47,-11,-200,-11,-282v0,-58,-25,-107,-74,-147r1,-40v25,-26,42,-45,50,-58","w":536},"|":{"d":"85,220r0,-906r88,0r0,906r-88,0","w":229},"}":{"d":"363,-633v0,78,-21,162,17,216v8,13,25,32,50,58r1,40v-83,61,-74,147,-70,268v5,157,-16,236,-137,248v-20,2,-51,-5,-92,-17r20,-75v36,31,123,37,120,-41r-8,-203v0,-73,45,-152,92,-184r0,-25v-55,-49,-84,-98,-82,-146r5,-131v-6,-94,4,-133,-77,-136v-11,0,-30,4,-57,13r-15,-75v146,-39,234,24,233,190","w":536},"~":{"d":"287,-449v18,2,35,-24,48,-37r18,70v-25,25,-49,37,-74,37v-25,6,-90,-55,-112,-55v-19,0,-41,18,-65,53r-19,-72v25,-29,54,-44,87,-44v31,-7,80,44,117,48","w":395},"\u00a0":{"w":273},"\u00a1":{"d":"68,-501r84,0r0,604r-84,0r0,-604xm57,-649v0,-31,26,-57,57,-57v33,0,58,24,58,57v0,33,-25,58,-58,58v-31,0,-57,-27,-57,-58","w":235},"\u00a2":{"d":"123,-238v0,96,55,178,146,177v51,0,95,-18,134,-53r40,54v-39,38,-82,61,-129,69r0,80r-89,0r0,-79v-116,-14,-186,-119,-187,-252v-1,-140,69,-243,187,-262r0,-86r89,0r0,85v42,7,80,24,115,51r-43,68v-42,-33,-84,-49,-126,-49v-94,-1,-137,94,-137,197","w":479},"\u00a3":{"d":"295,-592v-59,-1,-103,57,-101,120v0,11,6,45,17,102r136,0r0,69r-119,0v6,74,18,192,-24,225v108,-16,150,-15,238,6r-16,77v-92,-25,-266,-14,-346,7r-11,-68v52,-8,90,-54,90,-117v0,-43,-5,-87,-14,-130r-60,0r0,-69r53,0v-10,-60,-15,-95,-15,-106v-1,-103,62,-182,166,-180v41,0,81,11,118,32r-30,61v-40,-19,-67,-29,-82,-29","w":476},"\u00a4":{"d":"404,-360r-178,0r0,45r178,0r0,75r-178,0r0,164r193,-1r0,77r-282,0r0,-240r-99,0r-1,-75r100,0r0,-46r-99,0r-1,-74r100,0r0,-205r285,0r0,72r-196,0r0,133r178,0r0,75","w":489},"\u00a5":{"d":"300,-283r0,18r86,0r0,59r-86,0r0,60r86,0r0,59r-86,0r0,85r-89,0r0,-85r-89,0r0,-59r89,0r0,-60r-89,0r0,-59r89,0r0,-18r-178,-358r90,0r132,264r132,-264r91,0","w":531},"\u00a6":{"d":"54,18r0,-274r77,0r0,274r-77,0xm54,-382r0,-274r77,0r0,274r-77,0","w":182},"\u00a7":{"d":"321,-40v0,138,-188,163,-265,75r32,-49v29,30,63,45,103,45v30,0,66,-28,66,-58v0,-43,-72,-58,-120,-71v-83,-22,-83,-137,-19,-176v-31,-16,-46,-42,-46,-77v-2,-68,53,-117,121,-115v35,1,71,12,108,35r-22,50v-36,-23,-65,-34,-88,-34v-59,0,-83,72,-31,87v70,20,161,47,161,120v0,41,-14,71,-41,91v27,16,41,42,41,77xm182,-253v-33,4,-49,25,-49,64v0,22,53,38,85,46v42,-14,53,-67,18,-91v-10,-6,-28,-12,-54,-19","w":392},"\u00a8":{"d":"305,-598v0,29,-21,52,-50,52v-29,0,-50,-23,-50,-52v0,-29,21,-52,50,-52v27,0,50,25,50,52xm95,-598v0,29,-21,52,-50,52v-29,0,-50,-23,-50,-52v0,-29,21,-52,50,-52v29,0,50,23,50,52","w":306},"\u00a9":{"d":"275,-310v0,78,47,159,121,157v35,0,69,-9,102,-28r25,42v-47,25,-89,37,-127,37v-114,2,-179,-97,-179,-216v0,-116,70,-213,181,-212v39,0,80,12,121,35r-24,51v-39,-24,-71,-36,-94,-36v-79,-3,-126,84,-126,170xm398,-582v-144,0,-266,122,-266,266v0,144,122,266,266,266v144,0,266,-122,266,-266v0,-144,-122,-266,-266,-266xm398,15v-179,0,-331,-152,-331,-331v0,-179,152,-331,331,-331v179,0,331,152,331,331v0,179,-152,331,-331,331","w":796},"\u00aa":{"w":246},"\u00ab":{"d":"240,-286r131,161r-71,3r-153,-167r153,-162r71,3xm99,-286r130,161r-70,3r-154,-167r154,-162r70,3","w":390},"\u00ac":{"d":"474,-28r0,-222r-386,0r0,-93r470,0r0,315r-84,0","w":613},"\u00ad":{"d":"52,-285r0,-63r394,0r0,63r-394,0","w":498},"\u2212":{"d":"52,-285r0,-63r394,0r0,63r-394,0","w":498},"\u00ae":{"d":"398,-582v-146,0,-266,124,-266,266v0,144,122,266,266,266v144,0,266,-122,266,-266v0,-144,-122,-266,-266,-266xm398,15v-179,0,-331,-152,-331,-331v0,-179,152,-331,331,-331v179,0,331,152,331,331v0,179,-152,331,-331,331xm491,-108v-37,-37,-84,-101,-139,-192r-29,1r0,185r-57,0r0,-410v70,-1,113,-2,129,-2v75,1,112,38,111,113v-1,61,-33,97,-98,109v55,73,75,110,154,183xm323,-342v76,2,131,1,131,-78v0,-68,-63,-71,-131,-66r0,144","w":796},"\u00af":{"d":"105,-594r0,-65r234,0r0,65r-234,0","w":406},"\u02c9":{"d":"105,-594r0,-65r234,0r0,65r-234,0","w":406},"\u00b0":{"d":"5,-582v0,-73,60,-130,133,-130v73,0,130,57,130,130v0,73,-57,130,-130,130v-73,0,-133,-57,-133,-130xm215,-582v0,-44,-32,-80,-77,-80v-46,0,-80,34,-80,80v0,46,34,80,80,80v45,0,77,-36,77,-80","w":273},"\u00b1":{"d":"279,-280r0,185r-62,0r0,-184r-164,-1r0,-62r164,0r0,-175r62,0r0,175r167,0r0,62r-167,0xm66,-12r0,-54r374,0r0,54r-374,0","w":501},"\u00b2":{"w":1061},"\u00b3":{"w":1061},"\u00b4":{"d":"104,-557r-47,-59r210,-96r47,65","w":329},"\u00b5":{"d":"442,-116v-4,76,29,106,66,129r-64,48v-44,-25,-71,-66,-80,-122v-35,29,-64,82,-123,83v-41,0,-87,-22,-100,-51r0,225r-73,0r0,-682r73,0r0,342v0,65,39,97,116,97v45,0,105,-57,105,-102r0,-338r80,0r0,371","w":508},"\u03bc":{"d":"442,-116v-4,76,29,106,66,129r-64,48v-44,-25,-71,-66,-80,-122v-35,29,-64,82,-123,83v-41,0,-87,-22,-100,-51r0,225r-73,0r0,-682r73,0r0,342v0,65,39,97,116,97v45,0,105,-57,105,-102r0,-338r80,0r0,371","w":508},"\u00b6":{"d":"437,0r-69,0r0,-642r69,0r0,642xm50,-493v1,-110,46,-148,156,-149r91,0r0,642r-69,0r0,-337v-117,6,-180,-43,-178,-156","w":507},"\u00b7":{"d":"194,-413v0,39,-28,79,-66,79v-39,0,-67,-41,-67,-79v0,-38,28,-79,67,-79v38,0,66,40,66,79","w":236},"\u2219":{"d":"194,-413v0,39,-28,79,-66,79v-39,0,-67,-41,-67,-79v0,-38,28,-79,67,-79v38,0,66,40,66,79","w":236},"\u00b8":{"d":"197,132v0,95,-153,118,-182,39r36,-34v20,21,37,32,51,32v24,0,36,-11,36,-34v1,-44,-41,-49,-69,-24r-46,-21r5,-94r58,-1r-4,52v60,-18,115,26,115,85","w":205},"\u00ba":{"w":1061},"\u00bb":{"d":"215,-122r-71,-3r131,-161r-131,-162r71,-3r153,162xm74,-122r-72,-3r131,-161r-131,-162r72,-3r152,162","w":393},"\u00bd":{"w":1061},"\u00be":{"w":1061},"\u00bf":{"d":"216,103v-99,0,-182,-74,-182,-173v0,-66,25,-117,75,-152v63,-45,89,-131,78,-257r80,0v21,119,-7,242,-73,297v-53,44,-77,54,-82,113v-5,57,42,100,100,100v63,0,105,-34,128,-103r68,34v-39,94,-103,141,-192,141xm167,-624v0,-33,26,-57,59,-57v31,0,56,26,56,57v0,31,-25,58,-56,58v-31,0,-59,-27,-59,-58","w":459},"\u00c0":{"d":"458,10r-59,-189r-225,0r-57,189r-82,-10r212,-654r81,0r215,650xm287,-551r-92,303r184,0xm365,-686r-209,-90r47,-65r210,96","w":580},"\u00c1":{"d":"458,10r-59,-189r-225,0r-57,189r-82,-10r212,-654r81,0r215,650xm287,-551r-92,303r184,0xm203,-687r-47,-59r210,-96r47,65","w":568},"\u00c2":{"d":"458,10r-59,-189r-225,0r-57,189r-82,-10r212,-654r81,0r215,650xm287,-551r-92,303r184,0xm283,-749r-137,93r0,-71r137,-113r142,113r0,71","w":568},"\u00c3":{"d":"458,10r-59,-189r-225,0r-57,189r-82,-10r212,-654r81,0r215,650xm287,-551r-92,303r184,0xm438,-702v-8,12,-55,33,-74,33v-24,8,-118,-69,-135,-69v-26,0,-49,14,-70,42r-27,-59v15,-25,60,-48,97,-50v26,-9,112,72,133,68v17,0,33,-8,50,-25","w":580},"\u00c4":{"d":"458,10r-59,-189r-225,0r-57,189r-82,-10r212,-654r81,0r215,650xm287,-551r-92,303r184,0xm446,-746v0,29,-21,53,-50,52v-33,0,-50,-17,-50,-52v-1,-29,21,-51,50,-51v27,0,50,24,50,51xm236,-746v0,29,-21,53,-50,52v-33,0,-50,-17,-50,-52v-1,-29,21,-51,50,-51v27,0,50,24,50,51","w":580},"\u00c5":{"d":"458,10r-59,-189r-225,0r-57,189r-82,-10r212,-654r81,0r215,650xm287,-551r-92,303r184,0xm384,-773v0,51,-40,87,-91,87v-51,0,-91,-36,-91,-87v0,-50,41,-86,91,-86v50,0,91,36,91,86xm293,-816v-29,0,-43,14,-43,43v0,29,14,44,43,44v29,0,43,-15,43,-44v0,-29,-14,-43,-43,-43","w":580},"\u00c6":{"d":"281,-551r-91,303r184,0xm552,-568r0,193r252,0r0,75r-252,-1r0,225r267,-1r0,77r-370,0r-55,-179r-225,0r-58,189r-82,-10r213,-654r80,0r141,427r0,-413r359,0r0,72r-270,0","w":862},"\u00c7":{"d":"444,132v0,96,-152,117,-183,39r37,-34v19,21,36,32,51,32v23,0,35,-11,35,-34v1,-45,-40,-48,-68,-24r-46,-21r5,-85v-148,-16,-238,-162,-238,-334v0,-222,168,-393,393,-310v31,11,57,22,78,34r-38,79v-61,-37,-110,-56,-147,-56v-122,0,-197,134,-197,265v0,124,73,245,189,245v57,0,110,-14,161,-43r38,65v-71,37,-97,52,-182,58r-3,39v60,-18,115,26,115,85","w":570},"\u00c8":{"d":"157,-568r0,193r252,0r0,75r-252,-1r0,225r267,-1r0,77r-356,0r0,-640r359,0r0,72r-270,0xm334,-686r-208,-90r46,-65r211,96","w":489},"\u00c9":{"d":"157,-568r0,193r252,0r0,75r-252,-1r0,225r267,-1r0,77r-356,0r0,-640r359,0r0,72r-270,0xm172,-687r-46,-59r210,-96r47,65","w":469},"\u00ca":{"d":"157,-568r0,193r252,0r0,75r-252,-1r0,225r267,-1r0,77r-356,0r0,-640r359,0r0,72r-270,0xm252,-749r-138,93r0,-71r138,-113r142,113r0,71","w":489},"\u00cb":{"d":"157,-568r0,193r252,0r0,75r-252,-1r0,225r267,-1r0,77r-356,0r0,-640r359,0r0,72r-270,0xm415,-748v0,29,-21,52,-50,52v-29,0,-50,-23,-50,-52v0,-29,21,-52,50,-52v27,0,50,25,50,52xm205,-748v0,29,-20,52,-49,52v-29,0,-50,-23,-50,-52v0,-29,21,-52,50,-52v29,0,49,23,49,52","w":489},"\u00cc":{"d":"68,0r0,-642r89,0r0,642r-89,0xm198,-686r-209,-90r47,-65r210,96","w":215},"\u00cd":{"d":"68,0r0,-642r89,0r0,642r-89,0xm36,-687r-47,-59r210,-96r47,65","w":215},"\u00ce":{"d":"68,0r0,-642r89,0r0,642r-89,0xm115,-749r-137,93r0,-71r137,-113r142,113r0,71","w":215},"\u00cf":{"d":"68,0r0,-642r89,0r0,642r-89,0xm268,-748v0,29,-21,52,-50,52v-29,0,-50,-23,-50,-52v0,-29,21,-52,50,-52v27,0,50,25,50,52xm58,-748v0,29,-20,52,-49,52v-29,0,-50,-23,-50,-52v0,-29,21,-52,50,-52v29,0,49,23,49,52","w":215},"\u00d0":{"d":"242,-74v124,2,196,-109,196,-238v0,-181,-68,-271,-203,-271v-19,0,-47,1,-83,2r0,246r68,0r0,68r-68,0r0,193r90,0xm453,-82v-78,87,-231,89,-390,80r0,-265r-57,0r0,-68r57,0r0,-309v46,-2,95,-3,146,-3v228,1,321,97,324,324v1,104,-28,183,-80,241","w":565},"\u00d1":{"d":"461,11v-60,-108,-163,-266,-310,-475r0,463r-83,1r0,-644r74,0r300,455r0,-451r82,0r0,629xm459,-692v-8,12,-55,33,-74,33v-24,8,-118,-69,-135,-69v-26,0,-49,14,-70,42r-27,-59v15,-25,60,-48,97,-50v26,-9,112,72,133,68v17,0,33,-8,50,-25","w":570},"\u00d2":{"d":"618,-322v0,192,-109,338,-294,338v-183,0,-287,-147,-287,-338v0,-179,120,-324,294,-324v174,0,287,145,287,324xm536,-312v0,-132,-81,-260,-207,-260v-127,0,-209,125,-209,259v0,128,82,252,204,252v123,0,212,-125,212,-251xm408,-686r-209,-90r47,-65r210,96","w":644},"\u00d3":{"d":"618,-322v0,192,-109,338,-294,338v-183,0,-287,-147,-287,-338v0,-179,120,-324,294,-324v174,0,287,145,287,324xm536,-312v0,-132,-81,-260,-207,-260v-127,0,-209,125,-209,259v0,128,82,252,204,252v123,0,212,-125,212,-251xm246,-687r-47,-59r210,-96r47,65","w":644},"\u00d4":{"d":"618,-322v0,192,-109,338,-294,338v-183,0,-287,-147,-287,-338v0,-179,120,-324,294,-324v174,0,287,145,287,324xm536,-312v0,-132,-81,-260,-207,-260v-127,0,-209,125,-209,259v0,128,82,252,204,252v123,0,212,-125,212,-251xm333,-759r-138,93r0,-71r138,-113r142,113r0,71","w":644},"\u00d5":{"d":"618,-322v0,192,-109,338,-294,338v-183,0,-287,-147,-287,-338v0,-179,120,-324,294,-324v174,0,287,145,287,324xm536,-312v0,-132,-81,-260,-207,-260v-127,0,-209,125,-209,259v0,128,82,252,204,252v123,0,212,-125,212,-251xm459,-702v-8,12,-55,33,-74,33v-24,8,-118,-69,-135,-69v-26,0,-49,14,-70,42r-27,-59v15,-25,60,-48,97,-50v26,-9,112,72,133,68v17,0,33,-8,50,-25","w":648},"\u00d6":{"d":"618,-322v0,192,-109,338,-294,338v-183,0,-287,-147,-287,-338v0,-179,120,-324,294,-324v174,0,287,145,287,324xm536,-312v0,-132,-81,-260,-207,-260v-127,0,-209,125,-209,259v0,128,82,252,204,252v123,0,212,-125,212,-251xm489,-748v0,29,-21,52,-50,52v-29,0,-50,-23,-50,-52v0,-29,21,-52,50,-52v27,0,50,25,50,52xm279,-748v0,29,-21,52,-50,52v-29,0,-50,-23,-50,-52v0,-29,21,-52,50,-52v27,0,50,25,50,52","w":648},"\u00d8":{"d":"362,-568v-196,-38,-298,198,-222,378v18,41,44,74,77,97xm293,-63v241,37,314,-347,144,-470xm32,-322v0,-197,142,-358,352,-318r13,-42r78,24r-14,46v92,49,152,154,152,290v2,205,-128,366,-343,334r-17,57r-78,-24r17,-57v-107,-53,-160,-156,-160,-310","w":644},"\u00d9":{"d":"285,-58v93,1,138,-74,138,-172r0,-410r90,0r0,410v1,145,-86,247,-231,247v-139,0,-214,-103,-214,-247r0,-410r89,0r0,410v0,115,43,172,128,172xm366,-686r-209,-90r47,-65r210,96","w":571},"\u00da":{"d":"285,-58v93,1,138,-74,138,-172r0,-410r90,0r0,410v1,145,-86,247,-231,247v-139,0,-214,-103,-214,-247r0,-410r89,0r0,410v0,115,43,172,128,172xm204,-687r-47,-59r210,-96r47,65","w":571},"\u00db":{"d":"285,-58v93,1,138,-74,138,-172r0,-410r90,0r0,410v1,145,-86,247,-231,247v-139,0,-214,-103,-214,-247r0,-410r89,0r0,410v0,115,43,172,128,172xm283,-759r-138,93r0,-71r138,-113r142,113r0,71","w":571},"\u00dc":{"d":"285,-58v93,1,138,-74,138,-172r0,-410r90,0r0,410v1,145,-86,247,-231,247v-139,0,-214,-103,-214,-247r0,-410r89,0r0,410v0,115,43,172,128,172xm436,-748v0,29,-21,52,-50,52v-29,0,-50,-23,-50,-52v0,-29,21,-52,50,-52v27,0,50,25,50,52xm226,-748v0,29,-20,52,-49,52v-29,0,-50,-23,-50,-52v0,-29,21,-52,50,-52v29,0,49,23,49,52","w":521},"\u00dd":{"d":"301,-272r0,272r-89,0r0,-272r-178,-355r80,-23r145,297r143,-297r76,23xm193,-627r-46,-59r210,-96r47,65","w":503},"\u00de":{"d":"447,-225v-62,90,-207,106,-303,36r0,297r-84,0r0,-808r84,0r0,97v65,-108,227,-86,296,10v66,91,69,278,7,368xm408,-400v0,-108,-50,-200,-150,-199v-53,0,-91,25,-114,74r0,252v25,40,69,60,130,60v94,0,134,-85,134,-187","w":543},"\u00df":{"d":"503,-144v0,86,-83,160,-169,159v-94,-1,-137,-22,-184,-73r42,-65v37,47,59,63,137,64v46,1,92,-33,92,-79v0,-61,-101,-85,-159,-103v-66,-21,-98,-62,-98,-119v0,-112,77,-169,194,-151v45,-72,-35,-138,-109,-138v-74,0,-119,46,-118,120r0,529r-78,0r0,-529v0,-124,67,-186,201,-186v114,0,198,66,196,178v0,33,-12,69,-36,109v-49,-14,-113,-35,-151,0v-28,26,-34,72,5,94v54,30,186,47,216,105v12,22,19,50,19,85","w":549},"\u00e0":{"d":"239,-512v90,-1,163,64,163,155r0,282v14,34,31,21,63,-1r16,52v-41,44,-120,54,-145,-13v-47,37,-80,51,-152,53v-83,2,-139,-61,-138,-143v2,-152,126,-154,278,-176r0,-63v1,-44,-42,-76,-85,-75v-37,0,-81,21,-133,64r-41,-56v32,-31,121,-78,174,-79xm195,-47v51,0,129,-36,129,-85r0,-101v-77,6,-205,16,-205,107v0,47,28,79,76,79xm345,-556r-209,-90r47,-65r210,96","w":491},"\u00e1":{"d":"239,-512v90,-1,163,64,163,155r0,282v14,34,31,21,63,-1r16,52v-41,44,-120,54,-145,-13v-47,37,-80,51,-152,53v-83,2,-139,-61,-138,-143v2,-152,126,-154,278,-176r0,-63v1,-44,-42,-76,-85,-75v-37,0,-81,21,-133,64r-41,-56v32,-31,121,-78,174,-79xm195,-47v51,0,129,-36,129,-85r0,-101v-77,6,-205,16,-205,107v0,47,28,79,76,79xm183,-557r-47,-59r210,-96r47,65","w":491},"\u00e2":{"d":"239,-512v90,-1,163,64,163,155r0,282v14,34,31,21,63,-1r16,52v-41,44,-120,54,-145,-13v-47,37,-80,51,-152,53v-83,2,-139,-61,-138,-143v2,-152,126,-154,278,-176r0,-63v1,-44,-42,-76,-85,-75v-37,0,-81,21,-133,64r-41,-56v32,-31,121,-78,174,-79xm195,-47v51,0,129,-36,129,-85r0,-101v-77,6,-205,16,-205,107v0,47,28,79,76,79xm252,-619r-138,93r0,-71r138,-113r142,113r0,71","w":491},"\u00e3":{"d":"239,-512v90,-1,163,64,163,155r0,282v14,34,31,21,63,-1r16,52v-41,44,-120,54,-145,-13v-47,37,-80,51,-152,53v-83,2,-139,-61,-138,-143v2,-152,126,-154,278,-176r0,-63v1,-44,-42,-76,-85,-75v-37,0,-81,21,-133,64r-41,-56v32,-31,121,-78,174,-79xm195,-47v51,0,129,-36,129,-85r0,-101v-77,6,-205,16,-205,107v0,47,28,79,76,79xm386,-582v-8,11,-55,34,-74,33v-24,9,-120,-69,-136,-69v-26,0,-49,14,-70,42r-26,-59v15,-24,61,-49,96,-50v26,-9,113,72,134,68v15,0,32,-8,50,-25","w":491},"\u00e4":{"d":"239,-512v90,-1,163,64,163,155r0,282v14,34,31,21,63,-1r16,52v-41,44,-120,54,-145,-13v-47,37,-80,51,-152,53v-83,2,-139,-61,-138,-143v2,-152,126,-154,278,-176r0,-63v1,-44,-42,-76,-85,-75v-37,0,-81,21,-133,64r-41,-56v32,-31,121,-78,174,-79xm195,-47v51,0,129,-36,129,-85r0,-101v-77,6,-205,16,-205,107v0,47,28,79,76,79xm405,-598v0,29,-21,52,-50,52v-29,0,-50,-23,-50,-52v0,-29,21,-52,50,-52v27,0,50,25,50,52xm195,-598v0,29,-21,52,-50,52v-29,0,-50,-23,-50,-52v0,-29,21,-52,50,-52v27,0,50,25,50,52","w":491},"\u00e5":{"d":"239,-512v90,-1,163,64,163,155r0,282v14,34,31,21,63,-1r16,52v-41,44,-120,54,-145,-13v-47,37,-80,51,-152,53v-83,2,-139,-61,-138,-143v2,-152,126,-154,278,-176r0,-63v1,-44,-42,-76,-85,-75v-37,0,-81,21,-133,64r-41,-56v32,-31,121,-78,174,-79xm195,-47v51,0,129,-36,129,-85r0,-101v-77,6,-205,16,-205,107v0,47,28,79,76,79xm331,-653v0,52,-39,87,-91,87v-51,0,-90,-36,-90,-87v0,-50,40,-86,90,-86v51,0,91,35,91,86xm240,-696v-28,0,-42,14,-42,43v0,29,14,44,42,44v29,0,43,-15,43,-44v0,-29,-14,-43,-43,-43","w":491},"\u00e6":{"d":"658,-300v6,-89,-24,-144,-108,-141v-106,4,-120,42,-146,141r254,0xm482,-73v79,37,162,-2,210,-47r40,56v-98,104,-287,102,-362,-9v-43,43,-100,89,-191,89v-83,0,-138,-61,-138,-143v0,-151,144,-156,278,-179r0,-60v1,-44,-42,-76,-85,-75v-37,0,-81,21,-133,64r-41,-56v29,-29,124,-79,174,-79v69,0,117,28,146,83v43,-52,103,-78,178,-78v103,0,182,101,179,209r0,61r-340,0v2,80,24,135,85,164xm190,-47v51,0,129,-36,129,-85r0,-101v-26,-1,-152,24,-165,34v-65,29,-54,152,36,152","w":775},"\u00e7":{"d":"392,132v0,95,-152,118,-183,39r37,-34v19,21,35,32,50,32v24,0,36,-11,36,-34v1,-44,-41,-49,-68,-24r-47,-21r5,-83v-110,-16,-177,-121,-178,-249v-1,-150,86,-268,232,-265v59,1,111,18,157,53r-42,66v-82,-67,-183,-75,-234,17v-37,69,-42,193,6,257v60,80,173,70,245,2r39,52v-48,47,-104,71,-168,72r-3,35v59,-18,116,28,116,85","w":483},"\u00e8":{"d":"279,-507v108,0,182,81,180,189r0,61r-330,0v1,128,44,201,154,201v39,0,83,-21,131,-64r39,56v-53,51,-113,76,-178,76v-150,0,-231,-105,-231,-259v0,-150,88,-260,235,-260xm380,-320v3,-80,-32,-122,-108,-121v-87,1,-116,44,-136,121r244,0xm355,-556r-208,-90r46,-65r211,96","w":497},"\u00e9":{"d":"279,-507v108,0,182,81,180,189r0,61r-330,0v1,128,44,201,154,201v39,0,83,-21,131,-64r39,56v-53,51,-113,76,-178,76v-150,0,-231,-105,-231,-259v0,-150,88,-260,235,-260xm380,-320v3,-80,-32,-122,-108,-121v-87,1,-116,44,-136,121r244,0xm183,-557r-47,-59r210,-96r47,65","w":497},"\u00ea":{"d":"279,-507v108,0,182,81,180,189r0,61r-330,0v1,128,44,201,154,201v39,0,83,-21,131,-64r39,56v-53,51,-113,76,-178,76v-150,0,-231,-105,-231,-259v0,-150,88,-260,235,-260xm380,-320v3,-80,-32,-122,-108,-121v-87,1,-116,44,-136,121r244,0xm273,-619r-138,93r0,-71r138,-113r142,113r0,71","w":497},"\u00eb":{"d":"279,-507v108,0,182,81,180,189r0,61r-330,0v1,128,44,201,154,201v39,0,83,-21,131,-64r39,56v-53,51,-113,76,-178,76v-150,0,-231,-105,-231,-259v0,-150,88,-260,235,-260xm380,-320v3,-80,-32,-122,-108,-121v-87,1,-116,44,-136,121r244,0xm415,-598v0,29,-21,52,-50,52v-29,0,-50,-23,-50,-52v0,-29,21,-52,50,-52v27,0,50,25,50,52xm205,-598v0,29,-20,52,-49,52v-29,0,-50,-23,-50,-52v0,-29,21,-52,50,-52v29,0,49,23,49,52","w":497},"\u00ec":{"d":"77,0r0,-495r80,0r0,495r-80,0xm208,-556r-208,-90r46,-65r211,96","w":249},"\u00ed":{"d":"77,0r0,-495r80,0r0,495r-80,0xm46,-557r-46,-59r210,-96r47,65","w":234},"\u00ee":{"d":"77,0r0,-495r80,0r0,495r-80,0xm115,-619r-137,93r0,-71r137,-113r142,113r0,71","w":210},"\u00ef":{"d":"77,0r0,-495r80,0r0,495r-80,0xm265,-598v0,29,-21,52,-50,52v-29,0,-50,-23,-50,-52v0,-29,21,-52,50,-52v27,0,50,25,50,52xm55,-598v0,29,-21,52,-50,52v-29,0,-49,-23,-49,-52v0,-29,20,-52,49,-52v29,0,50,23,50,52","w":207},"\u00f0":{"d":"267,-62v143,0,192,-149,161,-296v-56,-94,-204,-113,-270,-27v-81,105,-25,323,109,323xm32,-243v0,-159,87,-267,246,-265v51,0,91,15,120,44v-7,-19,-21,-46,-43,-80r-143,0r0,-69r94,0v-30,-36,-53,-60,-68,-73r67,-45v35,33,68,73,99,118r136,0r-1,69r-94,0v50,91,75,171,74,238v-1,192,-81,321,-262,323v-132,2,-225,-123,-225,-260","w":563},"\u00f1":{"d":"291,-511v91,-4,164,83,164,173r0,338r-79,0r0,-325v1,-65,-33,-118,-94,-118v-55,0,-135,59,-135,115r0,328r-79,0r0,-495r79,0r0,56v47,-43,75,-69,144,-72xm407,-582v-8,11,-55,34,-74,33v-24,9,-120,-69,-136,-69v-26,0,-49,14,-70,42r-26,-59v15,-24,61,-49,96,-50v26,-9,113,72,134,68v15,0,32,-8,50,-25","w":486},"\u00f2":{"d":"513,-252v0,141,-93,263,-233,263v-149,0,-236,-110,-236,-263v0,-147,98,-260,238,-260v139,0,231,113,231,260xm426,-251v0,-102,-46,-194,-140,-194v-103,0,-156,89,-156,199v0,105,50,192,146,192v100,0,150,-90,150,-197xm387,-556r-209,-90r47,-65r210,96","w":543},"\u00f3":{"d":"513,-252v0,141,-93,263,-233,263v-149,0,-236,-110,-236,-263v0,-147,98,-260,238,-260v139,0,231,113,231,260xm426,-251v0,-102,-46,-194,-140,-194v-103,0,-156,89,-156,199v0,105,50,192,146,192v100,0,150,-90,150,-197xm225,-557r-47,-59r210,-96r47,65","w":543},"\u00f4":{"d":"513,-252v0,141,-93,263,-233,263v-149,0,-236,-110,-236,-263v0,-147,98,-260,238,-260v139,0,231,113,231,260xm426,-251v0,-102,-46,-194,-140,-194v-103,0,-156,89,-156,199v0,105,50,192,146,192v100,0,150,-90,150,-197xm283,-619r-137,93r0,-71r137,-113r142,113r0,71","w":543},"\u00f5":{"d":"513,-252v0,141,-93,263,-233,263v-149,0,-236,-110,-236,-263v0,-147,98,-260,238,-260v139,0,231,113,231,260xm426,-251v0,-102,-46,-194,-140,-194v-103,0,-156,89,-156,199v0,105,50,192,146,192v100,0,150,-90,150,-197xm438,-582v-8,12,-55,33,-74,33v-24,8,-118,-69,-135,-69v-26,0,-49,14,-70,42r-27,-59v15,-25,60,-48,97,-50v26,-9,112,72,133,68v17,0,33,-8,50,-25","w":543},"\u00f6":{"d":"513,-252v0,141,-93,263,-233,263v-149,0,-236,-110,-236,-263v0,-147,98,-260,238,-260v139,0,231,113,231,260xm426,-251v0,-102,-46,-194,-140,-194v-103,0,-156,89,-156,199v0,105,50,192,146,192v100,0,150,-90,150,-197xm436,-598v0,29,-21,52,-50,52v-29,0,-50,-23,-50,-52v0,-29,21,-52,50,-52v27,0,50,25,50,52xm226,-598v0,29,-20,52,-49,52v-29,0,-50,-23,-50,-52v0,-29,21,-52,50,-52v29,0,49,23,49,52","w":543},"\u00f7":{"d":"324,-463v0,35,-26,66,-60,66v-34,0,-60,-32,-60,-66v0,-35,26,-66,60,-66v34,0,60,32,60,66xm53,-275r0,-70r393,0r0,70r-393,0xm324,-159v0,35,-26,66,-60,66v-34,0,-60,-32,-60,-66v0,-35,26,-66,60,-66v34,0,60,32,60,66","w":496},"\u00f8":{"d":"284,-445v-106,-3,-160,88,-159,199v0,67,17,119,52,154xm251,-55v115,13,171,-83,170,-196v0,-77,-20,-132,-60,-165xm39,-252v-2,-155,105,-274,265,-258r21,-68r78,24r-21,68v83,44,125,122,125,234v0,155,-105,290,-275,260r-19,61r-78,-24r19,-62v-70,-38,-114,-128,-115,-235","w":546},"\u00f9":{"d":"235,-53v51,0,138,-58,138,-111r0,-331r78,0r0,495r-71,0v-2,-9,-5,-27,-10,-52v-50,47,-101,70,-154,70v-88,0,-148,-87,-148,-178r0,-335r79,0r0,331v0,74,29,111,88,111xm355,-556r-208,-90r46,-65r211,96","w":482},"\u00fa":{"d":"235,-53v51,0,138,-58,138,-111r0,-331r78,0r0,495r-71,0v-2,-9,-5,-27,-10,-52v-50,47,-101,70,-154,70v-88,0,-148,-87,-148,-178r0,-335r79,0r0,331v0,74,29,111,88,111xm183,-557r-47,-59r210,-96r47,65","w":482},"\u00fb":{"d":"235,-53v51,0,138,-58,138,-111r0,-331r78,0r0,495r-71,0v-2,-9,-5,-27,-10,-52v-50,47,-101,70,-154,70v-88,0,-148,-87,-148,-178r0,-335r79,0r0,331v0,74,29,111,88,111xm262,-619r-137,93r0,-71r137,-113r142,113r0,71","w":482},"\u00fc":{"d":"235,-53v51,0,138,-58,138,-111r0,-331r78,0r0,495r-71,0v-2,-9,-5,-27,-10,-52v-50,47,-101,70,-154,70v-88,0,-148,-87,-148,-178r0,-335r79,0r0,331v0,74,29,111,88,111xm415,-598v0,29,-21,52,-50,52v-29,0,-50,-23,-50,-52v0,-29,21,-52,50,-52v27,0,50,25,50,52xm205,-598v0,29,-20,52,-49,52v-29,0,-50,-23,-50,-52v0,-29,21,-52,50,-52v29,0,49,23,49,52","w":482},"\u00fe":{"d":"445,-71v-46,67,-149,101,-239,68r-60,-38r0,236r-86,0r0,-880r83,0r0,266v61,-107,228,-102,300,-10v66,85,60,274,2,358xm407,-253v0,-99,-40,-177,-130,-177v-60,0,-111,45,-131,89r1,244v16,24,82,41,125,41v92,1,135,-95,135,-197","w":522},"\u00ff":{"d":"52,107v100,59,144,-74,175,-149r-191,-436r76,-21r152,354r129,-353r70,17r-209,565v-18,56,-87,112,-157,112v-11,0,-34,-6,-70,-18xm393,-598v0,29,-21,52,-50,52v-29,0,-50,-23,-50,-52v0,-29,21,-52,50,-52v27,0,50,25,50,52xm183,-598v0,29,-20,52,-49,52v-29,0,-50,-23,-50,-52v0,-29,21,-52,50,-52v29,0,49,23,49,52","w":467},"\u0131":{"d":"71,0r0,-495r81,0r0,495r-81,0","w":233},"\u0141":{"d":"6,-335r57,-21r0,-285r89,0r0,251r68,-25r0,78r-68,25r0,240r286,0r0,72r-375,0r0,-278r-57,21r0,-78","w":501},"\u0142":{"d":"166,-362r1,362r-88,0r-1,-317r-63,32r1,-78r63,-32r0,-247r88,0r0,202r76,-39r1,78","w":282},"\u0152":{"d":"42,-341v0,-178,118,-316,293,-316v124,0,215,69,274,208r0,-200r355,0r0,72r-265,0r0,193r255,0r0,75r-258,0r1,225r267,0r0,84r-355,0r0,-223v-59,151,-153,226,-280,226v-183,0,-287,-153,-287,-344xm539,-331v0,-133,-79,-250,-205,-250v-127,0,-208,117,-208,250v0,128,82,256,203,256v121,0,210,-130,210,-256","w":1028},"\u0153":{"d":"421,-251v0,-102,-46,-194,-140,-194v-103,0,-156,89,-156,199v0,105,50,192,146,192v100,0,150,-90,150,-197xm714,-507v108,-1,182,81,180,189r0,61r-330,0v1,129,43,201,153,201v39,0,83,-21,131,-64r40,56v-122,127,-365,93,-397,-89v-37,109,-109,164,-216,164v-151,0,-236,-111,-236,-263v0,-147,97,-260,237,-260v110,0,192,74,218,164v28,-94,105,-158,220,-159xm815,-320v3,-80,-32,-121,-108,-121v-89,1,-116,45,-136,121r244,0","w":931},"\u0160":{"d":"450,-185v9,164,-170,233,-320,175v-39,-15,-69,-36,-89,-63r46,-64v41,47,92,71,155,71v74,0,123,-43,122,-117v0,-45,-26,-78,-79,-100r-147,-61v-93,-52,-104,-208,-17,-276v87,-68,218,-56,302,15r-42,63v-63,-67,-229,-76,-229,53v0,42,35,74,104,98v135,48,186,60,194,206xm309,-767r137,-93r0,71r-137,113r-143,-113r0,-71","w":492},"\u0161":{"d":"399,-159v2,107,-78,174,-185,173v-69,0,-124,-19,-166,-58r40,-61v35,33,79,50,134,50v44,0,95,-42,95,-86v0,-79,-136,-83,-199,-114v-39,-19,-58,-54,-58,-102v-2,-95,70,-160,165,-157v45,1,93,16,144,46r-26,63v-47,-30,-87,-45,-121,-45v-91,0,-119,103,-47,127r144,47v53,25,80,64,80,117xm269,-617r137,-93r0,71r-137,113r-143,-113r0,-71","w":437},"\u0178":{"d":"301,-272r0,272r-89,0r0,-272r-178,-355r80,-23r145,297r143,-297r76,23xm426,-748v0,29,-21,52,-50,52v-29,0,-50,-23,-50,-52v0,-29,21,-52,50,-52v27,0,50,25,50,52xm216,-748v0,29,-21,52,-50,52v-29,0,-50,-23,-50,-52v0,-29,21,-52,50,-52v27,0,50,25,50,52","w":482},"\u017d":{"d":"166,-76r317,0r0,76r-407,0r-8,-77r323,-497r-306,2r0,-67r393,0r8,72xm329,-757r137,-93r0,71r-137,113r-143,-113r0,-71","w":544},"\u017e":{"d":"58,0r0,-66r229,-303r50,-61r-269,0r0,-64r362,0r0,70r-220,299v-7,10,-22,28,-45,55r279,0r0,70r-386,0xm307,-617r137,-93r0,71r-137,113r-143,-113r0,-71","w":482},"\u0192":{"d":"360,-610v-83,-58,-165,-37,-171,84v-1,20,-2,32,-2,37r137,0r-6,65r-135,0r-52,546r-78,1r51,-545r-79,1r6,-66r78,-1v4,-122,52,-223,170,-223v75,0,61,6,123,45","w":361},"\u02c6":{"d":"173,-619r-138,93r0,-71r138,-113r142,113r0,71","w":337},"\u02c7":{"d":"178,-617r137,-93r0,71r-137,113r-143,-113r0,-71","w":337},"\u02d8":{"d":"303,-643v-14,90,-140,139,-219,77v-25,-19,-43,-45,-53,-77r49,-7v28,82,147,86,175,0","w":345},"\u02d9":{"d":"181,-576v0,27,-26,48,-53,48v-27,0,-53,-21,-53,-48v0,-28,25,-48,53,-48v28,0,53,20,53,48","w":237},"\u02da":{"d":"263,-663v0,51,-40,87,-91,87v-51,0,-91,-36,-91,-87v0,-50,41,-86,91,-86v50,0,91,36,91,86xm172,-706v-29,0,-43,14,-43,43v0,29,14,44,43,44v29,0,43,-15,43,-44v0,-29,-14,-43,-43,-43","w":305},"\u02db":{"w":1061},"\u02dc":{"d":"349,-582v-8,12,-55,33,-74,33v-24,9,-119,-69,-135,-69v-26,0,-50,14,-71,42r-26,-59v15,-25,60,-48,97,-50v26,-9,112,72,133,68v15,0,32,-8,50,-25","w":375},"\u02dd":{"d":"224,-561r-63,0r93,-114r63,0xm101,-561r-63,0r93,-114r63,0","w":362},"\u2126":{"d":"586,-359v0,99,-91,225,-181,229r0,65r158,0r0,65r-206,0r0,-176v74,6,145,-99,145,-173v0,-136,-56,-232,-184,-232v-127,0,-194,98,-194,232v0,85,61,178,145,173r0,176r-207,0r0,-65r155,0r0,-64v-90,-9,-177,-129,-177,-230v0,-181,98,-279,279,-278v178,0,267,93,267,278","w":646},"\u03a9":{"d":"586,-359v0,99,-91,225,-181,229r0,65r158,0r0,65r-206,0r0,-176v74,6,145,-99,145,-173v0,-136,-56,-232,-184,-232v-127,0,-194,98,-194,232v0,85,61,178,145,173r0,176r-207,0r0,-65r155,0r0,-64v-90,-9,-177,-129,-177,-230v0,-181,98,-279,279,-278v178,0,267,93,267,278","w":646},"\u2013":{"d":"34,-292r0,-71r432,0r0,71r-432,0"},"\u2014":{"d":"27,-292r0,-71r946,0r0,71r-946,0","w":1000},"\u2018":{"d":"147,-516v0,-50,21,-158,39,-192r-44,-12v-61,79,-91,147,-92,204r97,0","w":213},"\u2019":{"d":"86,-720v0,50,-21,159,-39,192r44,12v61,-79,91,-147,92,-204r-97,0","w":241},"\u201a":{"d":"97,-102v33,0,69,36,67,69v-5,76,-24,97,-67,161r-55,4v0,-1,52,-75,51,-93v-43,-2,-64,-26,-64,-72v0,-35,33,-69,68,-69","w":214},"\u201c":{"d":"386,-516v0,-50,21,-158,39,-192r-44,-12v-61,79,-91,147,-92,204r97,0xm186,-516v0,-50,21,-158,39,-192r-44,-12v-61,79,-91,147,-92,204r97,0","w":443},"\u201d":{"d":"70,-720v0,50,-21,159,-39,192r44,12v61,-79,91,-147,92,-204r-97,0xm270,-720v0,50,-21,159,-39,192r44,12v61,-79,91,-147,92,-204r-97,0","w":443},"\u201e":{"d":"70,-120v0,50,-21,159,-39,192r44,12v61,-79,91,-147,92,-204r-97,0xm270,-120v0,50,-21,159,-39,192r44,12v61,-79,91,-147,92,-204r-97,0","w":417},"\u2020":{"d":"192,-559r-70,0r0,226r-39,0r0,-226r-60,0r0,-34r60,0r0,-62r39,0r0,62r70,0r0,34","w":221},"\u2021":{"d":"183,-397r-62,0r0,152r-37,0r0,-152r-60,0r0,-24r60,0r0,-128r-60,0r0,-24r60,0r0,-82r37,0r0,82r62,0r0,24r-62,0r0,128r62,0r0,24","w":221},"\u2022":{"d":"231,-291v0,52,-39,101,-91,101v-54,0,-92,-48,-92,-101v0,-53,39,-100,92,-100v52,0,91,48,91,100","w":282},"\u2026":{"d":"571,-53v0,39,-27,69,-66,69v-39,0,-67,-30,-67,-69v0,-41,26,-69,67,-69v40,0,66,29,66,69xm382,-53v0,39,-27,69,-66,69v-39,0,-67,-30,-67,-69v0,-41,26,-69,67,-69v40,0,66,29,66,69xm193,-53v0,39,-27,69,-66,69v-39,0,-67,-30,-67,-69v0,-41,26,-69,67,-69v40,0,66,29,66,69","w":621},"\u2030":{"d":"841,-115v0,72,-37,121,-107,121v-70,0,-108,-50,-108,-121v0,-65,43,-119,108,-119v65,0,107,55,107,119xm237,-531v0,71,-38,121,-108,121v-70,0,-107,-52,-107,-121v0,-65,42,-119,107,-119v65,0,108,54,108,119xm564,-115v0,72,-37,121,-107,121v-70,0,-108,-50,-108,-121v0,-65,43,-119,108,-119v65,0,107,55,107,119xm107,78r-74,-25r377,-681r69,26xm734,-48v62,-1,60,-130,-1,-130v-28,0,-45,34,-45,66v0,33,17,64,46,64xm175,-528v0,-32,-19,-67,-47,-66v-59,0,-60,130,1,130v31,0,46,-21,46,-64xm457,-48v62,-1,60,-130,-1,-130v-28,0,-45,34,-45,66v0,33,17,64,46,64","w":886},"\u2039":{"d":"148,-286r131,161r-71,3r-152,-167r152,-162r71,3","w":319},"\u203a":{"d":"118,-122r-71,-3r130,-161r-130,-162r71,-3r153,162","w":317},"\u2044":{"d":"141,-66r-79,-50r371,-472r78,50","w":537},"\u2122":{"d":"174,-315r-64,0r0,-275r-95,0r0,-52r248,0r0,52r-89,0r0,275xm555,-514r-76,199r-54,0r-77,-201r0,201r-60,0r0,-329r78,0r89,229r89,-229r75,0r0,329r-64,0r0,-199","w":641}}});
