// #### Generated By: http://www.cufonfonts.com ####
/*!
 * The following copyright notice may not be removed under any circumstances.
 * 
 * Copyright:
 * © 2008 Bernd Montag - feel free to distribute - feel free to use personal and
 * commercial - read attached textfile for restrictions
 */
Cufon.registerFont({"w":485,"face":{"font-family":"Sansation","font-weight":400,"font-stretch":"normal","units-per-em":"2048","panose-1":"2 0 5 3 0 0 0 2 0 4","ascent":"1638","descent":"-410","bbox":"-35 -1838 2090 434","underline-thickness":"150","underline-position":"-89","unicode-range":"U+0020-U+2126"},"glyphs":{" ":{},"!":{"d":"335,-1430r0,1060r-185,0r0,-1060r185,0xm335,-185r0,185r-185,0r0,-185r185,0"},"\"":{"d":"655,-1430r-30,435r-125,0r-30,-435r185,0xm285,-1430r-30,435r-125,0r-30,-435r185,0","w":755},"#":{"d":"803,-876r-90,378r377,0r90,-378r-377,0xm403,5r89,-349r-392,0r30,-154r402,0r89,-378r-401,0r30,-154r412,0r100,-395r180,0r-100,395r378,0r102,-400r180,0r-101,400r392,0r-30,154r-402,0r-89,378r401,0r-30,154r-412,0r-90,349r-180,0r90,-349r-378,0r-90,349r-180,0","w":1893},"$":{"d":"150,-240r0,-160v117,40,238,60,364,60v167,0,251,-50,251,-150v0,-93,-55,-140,-165,-140r-150,0v-233,0,-350,-103,-350,-310v0,-173,117,-273,350,-300r0,-190r175,0r0,190v100,7,192,23,275,50r0,160v-117,-40,-231,-60,-343,-60v-195,0,-292,50,-292,150v0,93,62,140,185,140r150,0v233,0,350,103,350,310v0,173,-108,273,-325,300r0,190r-175,0r0,-190v-117,-7,-217,-23,-300,-50","w":1050},"%":{"d":"305,0r-205,0r1017,-1430r205,0xm378,-1035v96,0,144,-49,144,-147v0,-96,-48,-144,-144,-144v-99,0,-148,48,-148,144v0,98,49,147,148,147xm100,-1180v0,-173,93,-260,278,-260v183,0,274,87,274,260v0,173,-91,259,-274,259v-185,0,-278,-86,-278,-259xm1048,-104v96,0,144,-49,144,-147v0,-96,-48,-144,-144,-144v-99,0,-148,48,-148,144v0,98,49,147,148,147xm770,-249v0,-173,93,-260,278,-260v183,0,274,87,274,260v0,173,-91,259,-274,259v-185,0,-278,-86,-278,-259","w":1422},"&":{"d":"293,-727v-129,-57,-193,-163,-193,-318v0,-257,170,-385,510,-385v123,0,243,17,360,50r0,150v-117,-33,-232,-50,-347,-50v-225,0,-338,77,-338,230v0,167,85,250,255,250r388,0r0,-142r63,0r102,142r182,0r0,150r-162,0r0,160v0,329,-173,493,-518,493v-330,0,-495,-132,-495,-397v0,-165,64,-276,193,-333xm542,-650v-171,0,-257,84,-257,251v0,166,100,249,301,249v228,0,342,-114,342,-342r0,-158r-386,0","w":1275},"'":{"d":"285,-1430r-30,435r-125,0r-30,-435r185,0","w":385},"(":{"d":"485,-1430v-267,602,-267,1208,0,1810r-185,0v-267,-602,-267,-1208,0,-1810r185,0","w":560},")":{"d":"260,-1430v267,602,267,1208,0,1810r-185,0v267,-602,267,-1208,0,-1810r185,0","w":560},"*":{"d":"327,-1430r156,0r-30,232r209,-101r48,147r-228,43r159,170r-123,92r-113,-205r-113,204r-124,-89r161,-171r-230,-42r48,-150r211,103","w":810},"+":{"d":"400,-600r0,-300r150,0r0,300r300,0r0,150r-300,0r0,300r-150,0r0,-300r-300,0r0,-150r300,0","w":950},",":{"d":"435,-185r-150,435r-185,0r150,-435r185,0","w":535},"-":{"d":"600,-600r0,150r-500,0r0,-150r500,0","w":700},"\u2010":{"d":"600,-600r0,150r-500,0r0,-150r500,0","w":700},".":{"d":"285,-185r0,185r-185,0r0,-185r185,0","w":385},"\/":{"d":"230,0r-205,0r725,-1430r205,0","w":980},"0":{"d":"693,-140v275,0,412,-193,412,-579v0,-381,-137,-571,-412,-571v-282,0,-423,190,-423,571v0,386,141,579,423,579xm75,-713v0,-485,206,-727,618,-727v405,0,607,242,607,727v0,482,-202,723,-607,723v-412,0,-618,-241,-618,-723","w":1375},"1":{"d":"250,0r0,-1241r-150,0r0,-89r335,-100r0,1430r-185,0","w":635},"2":{"d":"100,0r0,-150v530,-365,795,-655,795,-870v0,-180,-113,-270,-340,-270v-147,0,-285,37,-415,110r0,-160v130,-67,268,-100,415,-100v350,0,525,140,525,420v0,247,-238,537,-715,870r715,0r0,150r-980,0","w":1180},"3":{"d":"100,-1380v133,-40,267,-60,400,-60v343,0,515,130,515,390v0,157,-63,266,-188,325v125,57,188,165,188,325v0,273,-172,410,-515,410v-133,0,-267,-20,-400,-60r0,-160v133,47,267,70,400,70v220,0,330,-87,330,-260v0,-167,-84,-250,-252,-250r-328,0r0,-150r325,0v170,0,255,-83,255,-250v0,-160,-110,-240,-330,-240v-133,0,-267,23,-400,70r0,-160","w":1115},"4":{"d":"902,0r-185,0r0,-420r-642,0r0,-150r395,-860r184,0r-386,860r449,0r0,-528r185,0r0,528r148,76r0,74r-148,0r0,420","w":1125,"k":{"7":150}},"5":{"d":"150,-1430r854,0r0,150r-696,0r-34,402v78,-15,163,-22,256,-22v380,0,570,147,570,440v0,313,-183,470,-550,470v-153,0,-297,-20,-430,-60r0,-160v133,47,277,70,430,70v243,0,365,-107,365,-320v0,-193,-128,-290,-385,-290v-157,0,-300,17,-430,50","w":1175},"6":{"d":"100,-530v0,-311,169,-625,508,-943r126,107v-175,164,-299,327,-374,489v61,-15,146,-23,256,-23v349,0,524,143,524,430v0,320,-184,480,-553,480v-325,0,-487,-180,-487,-540xm596,-140v242,0,363,-110,363,-330v0,-187,-117,-280,-352,-280v-129,0,-231,9,-304,28v-19,73,-28,132,-28,176v0,271,107,406,321,406","w":1240,"k":{"9":96,"7":150}},"7":{"d":"100,-1430r950,0r0,150r-572,1280r-211,0r592,-1280r-759,0r0,-150","w":1125,"k":{"6":150,"4":150}},"8":{"d":"100,-424v0,-149,71,-256,212,-321v-115,-70,-172,-181,-172,-333v0,-244,160,-366,480,-366v320,0,480,122,480,366v0,152,-59,263,-177,333v145,65,217,172,217,321v0,289,-173,434,-520,434v-347,0,-520,-145,-520,-434xm915,-1058v0,-155,-101,-232,-303,-232v-191,0,-287,77,-287,232v0,159,100,238,300,238v193,0,290,-79,290,-238xm955,-418v0,-168,-114,-252,-343,-252v-218,0,-327,84,-327,252v0,185,113,278,340,278v220,0,330,-93,330,-278","w":1240},"9":{"d":"1140,-904v0,311,-169,625,-508,943r-126,-107v175,-164,299,-327,374,-489v-89,42,-187,63,-296,63v-323,0,-484,-157,-484,-470v0,-320,178,-480,533,-480v338,0,507,180,507,540xm624,-1294v-229,0,-343,110,-343,330v0,207,104,310,312,310v156,0,271,-26,344,-79v19,-59,28,-111,28,-155v0,-271,-114,-406,-341,-406","w":1240,"k":{"7":96}},":":{"d":"285,-1050r0,185r-185,0r0,-185r185,0xm285,-185r0,185r-185,0r0,-185r185,0","w":385},";":{"d":"435,-1050r0,185r-185,0r0,-185r185,0xm435,-185r-150,435r-185,0r150,-435r185,0","w":535},"<":{"d":"100,-450r0,-150r900,-400r0,150r-743,329r743,321r0,150","w":1100},"=":{"d":"850,-450r0,150r-750,0r0,-150r750,0xm850,-750r0,150r-750,0r0,-150r750,0","w":950},">":{"d":"100,-50r0,-150r743,-321r-743,-329r0,-150r900,400r0,150","w":1100},"?":{"d":"250,-185r0,185r185,0r0,-185r-185,0xm100,-1380v140,-33,273,-50,400,-50v343,0,515,130,515,390v0,260,-166,390,-497,390r-83,0r0,280r-185,0r0,-430r265,0v210,0,315,-80,315,-240v0,-160,-110,-240,-330,-240v-127,0,-260,17,-400,50r0,-150","w":1115},"@":{"d":"625,-327v0,-215,142,-323,426,-323v105,0,196,7,274,20r0,-99v0,-114,-94,-171,-283,-171v-108,0,-219,17,-332,50r0,-150v113,-33,224,-50,332,-50v312,0,468,112,468,336r0,626v0,59,33,88,100,88v137,0,205,-180,205,-540v0,-500,-242,-750,-726,-750v-503,0,-754,250,-754,750v0,513,228,770,685,770r0,150v-580,0,-870,-307,-870,-920v0,-600,308,-900,924,-900v617,0,926,300,926,900v0,460,-142,690,-427,690v-161,0,-241,-75,-241,-224v-85,49,-189,74,-312,74v-263,0,-395,-109,-395,-327xm1051,-500v-161,0,-241,57,-241,170v0,120,70,180,210,180v128,0,230,-27,305,-82r0,-248v-73,-13,-165,-20,-274,-20","w":2150},"A":{"d":"25,0r607,-1430r205,0r610,1430r-195,0r-190,-450r-478,0r51,-150r357,0r-264,-638r-511,1238r-192,0","w":1472,"k":{"Y":175,"V":175,"T":125}},"B":{"d":"150,0r0,-1430r610,0v272,0,408,111,408,333v0,163,-89,279,-266,349v189,35,284,144,284,325v0,282,-149,423,-447,423r-589,0xm728,-150v171,0,256,-87,256,-260v0,-169,-114,-253,-343,-253r-80,0r0,-121v273,-37,410,-135,410,-296v0,-133,-76,-200,-228,-200r-408,0r0,1130r393,0","w":1310},"C":{"d":"1250,-50v-123,40,-257,60,-400,60v-500,0,-750,-248,-750,-745v0,-470,250,-705,750,-705v143,0,277,20,400,60r0,160v-123,-47,-250,-70,-380,-70v-390,0,-585,185,-585,555v0,397,195,595,585,595v130,0,257,-23,380,-70r0,160","w":1385},"D":{"d":"690,-150v350,0,525,-201,525,-604v0,-351,-175,-526,-525,-526r-355,0r0,1130r355,0xm150,0r0,-1430r580,0v447,0,670,225,670,676v0,503,-223,754,-670,754r-580,0","w":1500},"E":{"d":"1085,-1430r0,150r-750,0r0,480r715,0r0,150r-715,0r0,500r765,0r0,150r-950,0r0,-1430r935,0","w":1225},"F":{"d":"1085,-1430r0,150r-750,0r0,480r715,0r0,150r-715,0r0,650r-185,0r0,-1430r935,0","w":1210,"k":{"\u0104":150,"\u00c1":150,"\u00c2":150,"\u00c3":150,"\u00c0":150,"\u00c6":150,"\u00c5":150,"\u00c4":150,"A":150}},"G":{"d":"1250,-56v-115,44,-240,66,-373,66v-518,0,-777,-248,-777,-745v0,-470,250,-705,750,-705v143,0,277,20,400,60r0,160v-123,-47,-250,-70,-380,-70v-390,0,-585,185,-585,555v0,397,192,595,576,595v61,0,129,-8,204,-24r0,-486r185,0r0,594","w":1385},"H":{"d":"150,0r0,-1430r185,0r0,630r865,0r0,-630r185,0r0,1430r-185,0r0,-650r-865,0r0,650r-185,0","w":1535},"I":{"d":"335,-1430r0,1430r-185,0r0,-1430r185,0"},"J":{"d":"510,-1430r0,1018v0,275,-162,412,-485,412r0,-150v200,0,300,-87,300,-262r0,-1018r185,0","w":660},"K":{"d":"335,-1430r0,1430r-185,0r0,-1430r185,0xm1321,-1430r-641,667r725,763r-277,0r-633,-698r0,-112r592,-620r234,0","w":1430,"k":{"\u00d2":150,"\u00d4":150,"\u00d3":150,"\u0152":150,"\u00d5":150,"\u00d8":150,"\u00d6":150,"\u00c7":150,"Q":150,"O":150,"G":150,"C":150}},"L":{"d":"335,-1430r0,1280r748,0r0,150r-933,0r0,-1430r185,0","w":1183,"k":{"\u00d2":150,"\u00d4":150,"\u00d3":150,"\u0152":150,"\u00d5":150,"\u00d8":150,"\u00d6":150,"\u00c7":150,"Y":288,"V":300,"T":300,"Q":150,"O":150,"G":150,"C":150}},"M":{"d":"150,0r0,-1430r235,0r525,1193r515,-1193r225,0r0,1430r-165,0r0,-1153r-508,1153r-146,0r-516,-1153r0,1153r-165,0","w":1800},"N":{"d":"150,0r0,-1430r185,0r875,1142r0,-1142r175,0r0,1430r-185,0r-875,-1142r0,1142r-175,0","w":1535},"O":{"d":"818,-140v341,0,512,-193,512,-579v0,-381,-171,-571,-512,-571v-349,0,-523,190,-523,571v0,386,174,579,523,579xm100,-713v0,-485,239,-727,718,-727v471,0,707,242,707,727v0,482,-236,723,-707,723v-479,0,-718,-241,-718,-723","w":1625},"P":{"d":"150,0r0,-1430r610,0v272,0,408,114,408,343v0,258,-190,418,-569,479r-38,-156v273,-43,410,-148,410,-315v0,-132,-76,-198,-228,-198r-408,0r0,1277r-185,0","w":1243,"k":{"\u0104":150,"\u00c1":150,"\u00c2":150,"\u00c3":150,"\u00c0":150,"\u00c6":150,"\u00c5":150,"\u00c4":150,"A":150}},"Q":{"d":"818,-140v341,0,512,-193,512,-579v0,-381,-171,-571,-512,-571v-349,0,-523,190,-523,571v0,386,174,579,523,579xm100,-713v0,-485,239,-727,718,-727v471,0,707,242,707,727v0,399,-162,634,-485,706r232,270r-144,108r-310,-361v-479,0,-718,-241,-718,-723","w":1625},"R":{"d":"150,0r0,-1430r610,0v272,0,408,114,408,343v0,186,-133,324,-399,413r491,674r-244,0r-455,-643r0,-121v273,-43,410,-148,410,-315v0,-132,-76,-198,-228,-198r-408,0r0,1277r-185,0","w":1285},"S":{"d":"170,-50r0,-170v150,53,312,80,486,80v246,0,369,-90,369,-270v0,-153,-91,-230,-272,-230r-204,0v-299,0,-449,-130,-449,-390v0,-273,192,-410,575,-410v167,0,322,20,465,60r0,170v-143,-53,-298,-80,-465,-80v-260,0,-390,87,-390,260v0,153,88,230,264,230r204,0v305,0,457,130,457,390v0,280,-185,420,-554,420v-174,0,-336,-20,-486,-60","w":1310,"k":{"\u015a":96,"S":96}},"T":{"d":"1085,-1430r0,150r-450,0r0,1280r-185,0r0,-1280r-450,0r0,-150r1085,0","w":1085,"k":{"\u0119":150,"\u015b":150,"\u0144":150,"\u0107":150,"\u0105":150,"\u0104":125,"\u017a":150,"\u017c":150,"\u00c1":125,"\u00c2":125,"\u0153":150,"\u00c3":125,"\u00c0":125,"\u00f8":150,"\u00e6":150,"\u00c6":125,"\u00fc":150,"\u00fb":150,"\u00f9":150,"\u00fa":150,"\u00f5":150,"\u00f6":150,"\u00f4":150,"\u00f2":150,"\u00f3":150,"\u00eb":150,"\u00ea":150,"\u00e8":150,"\u00e9":150,"\u00e7":150,"\u00e5":150,"\u00e3":150,"\u00e4":150,"\u00e2":150,"\u00e0":150,"\u00e1":150,"\u00c5":125,"\u00c4":125,"z":150,"y":150,"x":150,"w":150,"v":150,"u":150,"t":150,"s":150,"r":150,"q":150,"p":150,"o":150,"n":150,"m":140,"g":150,"e":150,"d":150,"c":150,"a":150,"A":125}},"U":{"d":"150,-552r0,-878r185,0r0,878v0,275,137,412,410,412v273,0,410,-137,410,-412r0,-878r185,0r0,878v0,375,-198,562,-595,562v-397,0,-595,-187,-595,-562","w":1490},"V":{"d":"1447,-1430r-607,1430r-205,0r-610,-1430r195,0r524,1238r511,-1238r192,0","w":1472,"k":{"\u0119":125,"\u015b":125,"\u0144":96,"\u0105":100,"\u0104":175,"\u017a":96,"\u017c":96,"\u00c1":175,"\u00c2":175,"\u0153":125,"\u00c3":175,"\u00c0":175,"\u00f8":125,"\u00e6":100,"\u00c6":175,"\u00f5":125,"\u00f6":125,"\u00f4":125,"\u00f2":125,"\u00f3":125,"\u00f1":96,"\u00eb":125,"\u00ea":125,"\u00e8":125,"\u00e9":125,"\u00e7":125,"\u00e5":100,"\u00e3":100,"\u00e4":100,"\u00e2":100,"\u00e0":100,"\u00e1":100,"\u00c5":175,"\u00c4":175,"z":96,"s":125,"r":96,"q":125,"p":96,"o":125,"n":96,"m":96,"g":125,"e":125,"d":125,"c":125,"a":100,"A":175}},"W":{"d":"25,-1430r179,0r201,1244r404,-1244r185,0r433,1244r227,-1244r171,0r-269,1430r-252,0r-404,-1198r-391,1198r-249,0","w":1850},"X":{"d":"25,-1430r225,0r1125,1430r-225,0xm250,0r-225,0r1125,-1430r225,0","w":1410},"Y":{"d":"25,-1430r205,0r412,747r418,-747r215,0r-546,930r0,500r-185,0r0,-500","w":1300,"k":{"\u0119":150,"\u015b":150,"\u0144":96,"\u0107":150,"\u0105":150,"\u0104":175,"\u017a":96,"\u017c":96,"\u00c1":175,"\u00c2":175,"\u0153":150,"\u00c3":175,"\u00c0":175,"\u00f8":150,"\u00e6":150,"\u00c6":175,"\u00fc":96,"\u00fb":96,"\u00f9":96,"\u00fa":96,"\u00f5":150,"\u00f6":150,"\u00f4":150,"\u00f2":150,"\u00f3":150,"\u00f1":96,"\u00eb":150,"\u00ea":150,"\u00e8":150,"\u00e9":150,"\u00e7":150,"\u00e5":150,"\u00e3":150,"\u00e4":150,"\u00e2":150,"\u00e0":150,"\u00e1":150,"\u00c5":175,"\u00c4":175,"z":96,"x":96,"u":96,"s":150,"r":96,"q":150,"p":96,"o":150,"n":96,"m":96,"g":150,"e":150,"d":150,"c":150,"a":150,"A":175}},"Z":{"d":"1125,-1430r0,150r-777,1130r757,0r0,150r-980,0r0,-150r804,-1130r-784,0r0,-150r980,0","w":1250},"[":{"d":"600,-1430r0,150r-265,0r0,1510r265,0r0,150r-450,0r0,-1810r450,0","w":650},"\\":{"d":"25,-1430r205,0r725,1430r-205,0","w":980},"]":{"d":"500,-1430r0,1810r-450,0r0,-150r265,0r0,-1510r-265,0r0,-150r450,0","w":650},"^":{"d":"450,-1430r150,0r400,730r-150,0r-329,-603r-321,603r-150,0","w":1050},"_":{"d":"1025,0r0,150r-1000,0r0,-150r1000,0","w":1050},"`":{"d":"400,-1355r0,150r-400,-150r0,-150","w":400},"a":{"d":"100,-327v0,-215,142,-323,426,-323v105,0,196,7,274,20r0,-99v0,-114,-94,-171,-283,-171v-108,0,-219,17,-332,50r0,-150v113,-33,224,-50,332,-50v312,0,468,112,468,336r0,714r-94,0r-74,-74v-91,49,-199,74,-322,74v-263,0,-395,-109,-395,-327xm526,-500v-161,0,-241,57,-241,170v0,120,70,180,210,180v128,0,230,-27,305,-82r0,-248v-73,-13,-165,-20,-274,-20","w":1135},"b":{"d":"335,-183v61,19,134,29,221,29v233,0,350,-133,350,-399v0,-225,-106,-337,-317,-337v-96,0,-181,18,-254,54r0,653xm150,-1430r185,0r0,430v79,-33,164,-50,255,-50v332,0,498,168,498,504v0,364,-174,546,-523,546v-151,0,-289,-14,-415,-43r0,-1387","w":1188},"c":{"d":"950,-30v-87,20,-180,30,-280,30v-380,0,-570,-182,-570,-545v0,-337,190,-505,570,-505v100,0,193,10,280,30r0,150v-87,-20,-173,-30,-260,-30v-270,0,-405,118,-405,355v0,263,135,395,405,395v87,0,173,-10,260,-30r0,150","w":1025},"d":{"d":"855,-836v-75,-36,-160,-54,-256,-54v-211,0,-317,112,-317,337v0,266,106,399,317,399v96,0,181,-13,256,-39r0,-643xm1040,-63v-127,42,-284,63,-471,63v-313,0,-469,-182,-469,-546v0,-336,166,-504,498,-504v91,0,176,17,257,50r0,-430r185,0r0,1367","w":1190},"e":{"d":"992,-472r-707,0v0,215,135,322,406,322v93,0,185,-10,278,-30r0,150v-93,20,-205,30,-338,30v-354,0,-531,-179,-531,-537v0,-342,168,-513,503,-513v321,0,451,193,389,578xm285,-626r538,0v9,-184,-74,-276,-250,-276v-180,0,-276,92,-288,276","w":1132},"f":{"d":"150,5r0,-1106v0,-254,131,-381,392,-381v86,0,164,13,234,40r0,150v-66,-27,-144,-40,-235,-40v-137,0,-206,58,-206,173r0,109r315,0r0,150r-315,0r0,901","w":721},"g":{"d":"852,-872v-63,-16,-142,-24,-235,-24v-223,0,-335,121,-335,363v0,249,106,373,317,373v96,0,180,-18,253,-54r0,-658xm1037,0v0,253,-161,380,-483,380v-129,0,-244,-17,-344,-50r0,-150v102,33,217,50,346,50v218,0,310,-86,296,-280v-79,33,-163,50,-254,50v-332,0,-498,-177,-498,-531v0,-346,175,-519,525,-519v142,0,279,14,412,43r0,1007","w":1187},"h":{"d":"150,0r0,-1430r185,0r0,494v109,-76,228,-114,357,-114v242,0,363,130,363,391r0,659r-185,0r0,-662v0,-156,-78,-234,-233,-234v-106,0,-207,44,-302,133r0,763r-185,0","w":1205},"i":{"d":"335,-1430r0,150r-185,0r0,-150r185,0xm335,-1050r0,1050r-185,0r0,-1050r185,0"},"j":{"d":"335,-1430r0,150r-185,0r0,-150r185,0xm335,-1050r0,970v0,212,-52,371,-155,478r-155,-105v83,-90,125,-214,125,-373r0,-970r185,0"},"k":{"d":"150,0r0,-1430r185,0r0,462v109,-55,230,-82,363,-82v255,0,382,101,382,303v0,147,-100,248,-300,304r336,443r-234,0r-334,-445r0,-83v231,-21,347,-94,347,-220v0,-101,-73,-152,-220,-152v-115,0,-229,31,-340,94r0,806r-185,0","w":1181},"l":{"d":"335,-1430r0,1430r-185,0r0,-1430r185,0"},"m":{"d":"150,0r0,-1050r125,0r31,132v121,-88,240,-132,359,-132v132,0,226,48,281,144v134,-96,260,-144,377,-144v221,0,332,133,332,399r0,651r-185,0r0,-661v0,-157,-66,-235,-198,-235v-99,0,-191,45,-277,136r0,760r-185,0r0,-658v0,-159,-65,-238,-196,-238v-104,0,-197,45,-279,136r0,760r-185,0","w":1805},"n":{"d":"150,0r0,-1050r125,0r33,134v127,-89,255,-134,384,-134v242,0,363,130,363,391r0,659r-185,0r0,-662v0,-156,-78,-234,-233,-234v-106,0,-207,44,-302,133r0,763r-185,0","w":1205},"o":{"d":"600,-150v210,0,315,-126,315,-379v0,-247,-105,-371,-315,-371v-210,0,-315,124,-315,371v0,253,105,379,315,379xm100,-525v0,-350,167,-525,500,-525v333,0,500,175,500,525v0,349,-167,524,-500,524v-332,0,-500,-175,-500,-524","w":1200},"p":{"d":"335,-214v73,36,154,54,243,54v218,0,327,-131,327,-393v0,-229,-108,-343,-325,-343v-93,0,-175,8,-245,24r0,658xm150,-1007v139,-29,283,-43,432,-43v337,0,505,166,505,499v0,367,-169,551,-508,551v-84,0,-165,-17,-244,-50r0,430r-185,0r0,-1387","w":1187},"q":{"d":"852,-872v-63,-16,-142,-24,-235,-24v-223,0,-335,121,-335,363v0,249,106,373,317,373v96,0,180,-18,253,-54r0,-658xm1037,380r-185,0r0,-430v-79,33,-163,50,-254,50v-332,0,-498,-177,-498,-531v0,-346,175,-519,525,-519v142,0,279,14,412,43r0,1387","w":1187},"r":{"d":"150,0r0,-1050r125,0r33,134v92,-89,203,-134,332,-134r0,154v-125,0,-227,44,-305,133r0,763r-185,0","w":675},"s":{"d":"150,-50r0,-160v117,40,238,60,364,60v167,0,251,-50,251,-150v0,-93,-55,-140,-165,-140r-170,0v-220,0,-330,-103,-330,-310v0,-200,146,-300,437,-300v125,0,246,17,363,50r0,160v-117,-40,-238,-60,-363,-60v-175,0,-262,50,-262,150v0,93,52,140,155,140r170,0v233,0,350,103,350,310v0,200,-145,300,-436,300v-126,0,-247,-17,-364,-50","w":1050},"t":{"d":"150,-1220r116,0r40,170r244,0r0,150r-215,0r0,603v0,98,42,147,127,147r88,0r0,150r-136,0v-176,0,-264,-94,-264,-283r0,-937","w":650},"u":{"d":"1055,-1050r0,1050r-127,0r-32,-134v-127,89,-255,134,-384,134v-241,0,-362,-130,-362,-391r0,-659r185,0r0,662v0,156,77,234,232,234v106,0,207,-44,303,-133r0,-763r185,0","w":1205},"v":{"d":"0,-1050r200,0r301,823r299,-823r200,0r-427,1050r-172,0","w":1000},"w":{"d":"26,-1050r187,0r196,813r263,-813r167,0r282,813r178,-813r196,0r-274,1050r-189,0r-281,-785r-266,785r-193,0","w":1520},"x":{"d":"25,-1050r215,0r785,1050r-215,0xm240,0r-215,0r785,-1050r215,0","w":1120},"y":{"d":"25,-1050r201,0r297,820r307,-820r196,0r-436,1081v-77,191,-193,310,-348,357r-71,-131v117,-51,203,-135,256,-251","w":1050},"z":{"d":"120,-1050r770,0r0,150r-567,760r547,0r0,140r-770,0r0,-140r575,-760r-555,0r0,-150","w":990},"{":{"d":"625,-1430v-87,117,-130,277,-130,478v0,235,-70,377,-210,427v140,50,210,192,210,427v0,201,43,361,130,478r-185,0v-87,-117,-130,-277,-130,-478v0,-235,-70,-352,-210,-352r0,-150v140,0,210,-117,210,-352v0,-201,43,-361,130,-478r185,0","w":675},"|":{"d":"335,-1430r0,1810r-185,0r0,-1810r185,0"},"}":{"d":"235,-1430v87,117,130,277,130,478v0,235,70,352,210,352r0,150v-140,0,-210,117,-210,352v0,201,-43,361,-130,478r-185,0v87,-117,130,-277,130,-478v0,-235,70,-377,210,-427v-140,-50,-210,-192,-210,-427v0,-201,-43,-361,-130,-478r185,0","w":675},"~":{"d":"850,-620r0,150v-70,73,-192,80,-365,20v-173,-60,-302,-53,-385,20r0,-150v70,-73,192,-80,365,-20v173,60,302,53,385,-20","w":950},"\u00c4":{"d":"25,0r607,-1430r205,0r610,1430r-195,0r-190,-450r-478,0r51,-150r357,0r-264,-638r-511,1238r-192,0xm1009,-1789r0,150r-185,0r0,-150r185,0xm639,-1789r0,150r-185,0r0,-150r185,0","w":1472,"k":{"Y":175,"V":175,"T":125}},"\u00c5":{"d":"25,0r607,-1430r205,0r610,1430r-195,0r-190,-450r-478,0r51,-150r357,0r-264,-638r-511,1238r-192,0xm732,-1431v96,0,144,-49,144,-147v0,-96,-48,-144,-144,-144v-99,0,-148,48,-148,144v0,98,49,147,148,147xm454,-1576v0,-173,93,-260,278,-260v183,0,274,87,274,260v0,173,-91,259,-274,259v-185,0,-278,-86,-278,-259","w":1472,"k":{"Y":175,"V":175,"T":125}},"\u00c7":{"d":"1250,-50v-123,40,-257,60,-400,60v-500,0,-750,-248,-750,-745v0,-470,250,-705,750,-705v143,0,277,20,400,60r0,160v-123,-47,-250,-70,-380,-70v-390,0,-585,185,-585,555v0,397,195,595,585,595v130,0,257,-23,380,-70r0,160xm583,264v72,33,144,50,216,50v72,0,108,-22,108,-65v0,-43,-28,-64,-83,-64r-183,0r131,-260r135,0r-81,152v143,0,214,57,214,172v0,115,-80,173,-241,173v-72,0,-144,-17,-216,-50r0,-108","w":1385},"\u00c9":{"d":"836,-1838r0,150r-400,150r0,-150xm150,-1430r0,1430r950,0r0,-150r-765,0r0,-500r715,0r0,-150r-715,0r0,-480r750,0r0,-150r-935,0","w":1225},"\u00d1":{"d":"150,0r0,-1430r185,0r875,1142r0,-1142r175,0r0,1430r-185,0r-875,-1142r0,1142r-175,0xm1015,-1809r0,150v-70,53,-150,60,-240,20v-90,-40,-177,-33,-260,20r0,-150v70,-53,150,-60,240,-20v90,40,177,33,260,-20","w":1535},"\u00d6":{"d":"818,-140v341,0,512,-193,512,-579v0,-381,-171,-571,-512,-571v-349,0,-523,190,-523,571v0,386,174,579,523,579xm100,-713v0,-485,239,-727,718,-727v471,0,707,242,707,727v0,482,-236,723,-707,723v-479,0,-718,-241,-718,-723xm1098,-1789r0,150r-185,0r0,-150r185,0xm728,-1789r0,150r-185,0r0,-150r185,0","w":1625},"\u00dc":{"d":"150,-552r0,-878r185,0r0,878v0,275,137,412,410,412v273,0,410,-137,410,-412r0,-878r185,0r0,878v0,375,-198,562,-595,562v-397,0,-595,-187,-595,-562xm1024,-1789r0,150r-185,0r0,-150r185,0xm654,-1789r0,150r-185,0r0,-150r185,0","w":1490},"\u00e1":{"d":"100,-327v0,-215,142,-323,426,-323v105,0,196,7,274,20r0,-99v0,-114,-94,-171,-283,-171v-108,0,-219,17,-332,50r0,-150v113,-33,224,-50,332,-50v312,0,468,112,468,336r0,714r-94,0r-74,-74v-91,49,-199,74,-322,74v-263,0,-395,-109,-395,-327xm526,-500v-161,0,-241,57,-241,170v0,120,70,180,210,180v128,0,230,-27,305,-82r0,-248v-73,-13,-165,-20,-274,-20xm758,-1505r0,150r-400,150r0,-150","w":1135},"\u00e0":{"d":"100,-327v0,-215,142,-323,426,-323v105,0,196,7,274,20r0,-99v0,-114,-94,-171,-283,-171v-108,0,-219,17,-332,50r0,-150v113,-33,224,-50,332,-50v312,0,468,112,468,336r0,714r-94,0r-74,-74v-91,49,-199,74,-322,74v-263,0,-395,-109,-395,-327xm526,-500v-161,0,-241,57,-241,170v0,120,70,180,210,180v128,0,230,-27,305,-82r0,-248v-73,-13,-165,-20,-274,-20xm758,-1355r0,150r-400,-150r0,-150","w":1135},"\u00e2":{"d":"100,-327v0,-215,142,-323,426,-323v105,0,196,7,274,20r0,-99v0,-114,-94,-171,-283,-171v-108,0,-219,17,-332,50r0,-150v113,-33,224,-50,332,-50v312,0,468,112,468,336r0,714r-94,0r-74,-74v-91,49,-199,74,-322,74v-263,0,-395,-109,-395,-327xm526,-500v-161,0,-241,57,-241,170v0,120,70,180,210,180v128,0,230,-27,305,-82r0,-248v-73,-13,-165,-20,-274,-20xm490,-1540r150,0r175,260r-150,0r-100,-160r-100,160r-150,0","w":1135},"\u00e4":{"d":"100,-327v0,-215,142,-323,426,-323v105,0,196,7,274,20r0,-99v0,-114,-94,-171,-283,-171v-108,0,-219,17,-332,50r0,-150v113,-33,224,-50,332,-50v312,0,468,112,468,336r0,714r-94,0r-74,-74v-91,49,-199,74,-322,74v-263,0,-395,-109,-395,-327xm526,-500v-161,0,-241,57,-241,170v0,120,70,180,210,180v128,0,230,-27,305,-82r0,-248v-73,-13,-165,-20,-274,-20xm846,-1430r0,150r-185,0r0,-150r185,0xm476,-1430r0,150r-185,0r0,-150r185,0","w":1135},"\u00e3":{"d":"100,-327v0,-215,142,-323,426,-323v105,0,196,7,274,20r0,-99v0,-114,-94,-171,-283,-171v-108,0,-219,17,-332,50r0,-150v113,-33,224,-50,332,-50v312,0,468,112,468,336r0,714r-94,0r-74,-74v-91,49,-199,74,-322,74v-263,0,-395,-109,-395,-327xm526,-500v-161,0,-241,57,-241,170v0,120,70,180,210,180v128,0,230,-27,305,-82r0,-248v-73,-13,-165,-20,-274,-20xm803,-1449r0,150v-70,53,-150,60,-240,20v-90,-40,-177,-33,-260,20r0,-150v70,-53,150,-60,240,-20v90,40,177,33,260,-20","w":1135},"\u00e5":{"d":"100,-327v0,-215,142,-323,426,-323v105,0,196,7,274,20r0,-99v0,-114,-94,-171,-283,-171v-108,0,-219,17,-332,50r0,-150v113,-33,224,-50,332,-50v312,0,468,112,468,336r0,714r-94,0r-74,-74v-91,49,-199,74,-322,74v-263,0,-395,-109,-395,-327xm526,-500v-161,0,-241,57,-241,170v0,120,70,180,210,180v128,0,230,-27,305,-82r0,-248v-73,-13,-165,-20,-274,-20xm565,-1394v96,0,144,-49,144,-147v0,-96,-48,-144,-144,-144v-99,0,-148,48,-148,144v0,98,49,147,148,147xm287,-1539v0,-173,93,-260,278,-260v183,0,274,87,274,260v0,173,-91,259,-274,259v-185,0,-278,-86,-278,-259","w":1135},"\u00e7":{"d":"950,-30v-87,20,-180,30,-280,30v-380,0,-570,-182,-570,-545v0,-337,190,-505,570,-505v100,0,193,10,280,30r0,150v-87,-20,-173,-30,-260,-30v-270,0,-405,118,-405,355v0,263,135,395,405,395v87,0,173,-10,260,-30r0,150xm398,264v72,33,144,50,216,50v72,0,108,-22,108,-65v0,-43,-28,-64,-83,-64r-183,0r131,-259r135,0r-81,151v143,0,214,57,214,172v0,115,-80,173,-241,173v-72,0,-144,-17,-216,-50r0,-108","w":1025},"\u00e9":{"d":"992,-472r-707,0v0,215,135,322,406,322v93,0,185,-10,278,-30r0,150v-93,20,-205,30,-338,30v-354,0,-531,-179,-531,-537v0,-342,168,-513,503,-513v321,0,451,193,389,578xm285,-626r538,0v9,-184,-74,-276,-250,-276v-180,0,-276,92,-288,276xm768,-1505r0,150r-400,150r0,-150","w":1132},"\u00e8":{"d":"992,-472r-707,0v0,215,135,322,406,322v93,0,185,-10,278,-30r0,150v-93,20,-205,30,-338,30v-354,0,-531,-179,-531,-537v0,-342,168,-513,503,-513v321,0,451,193,389,578xm285,-626r538,0v9,-184,-74,-276,-250,-276v-180,0,-276,92,-288,276xm768,-1355r0,150r-400,-150r0,-150","w":1132},"\u00ea":{"d":"992,-472r-707,0v0,215,135,322,406,322v93,0,185,-10,278,-30r0,150v-93,20,-205,30,-338,30v-354,0,-531,-179,-531,-537v0,-342,168,-513,503,-513v321,0,451,193,389,578xm285,-626r538,0v9,-184,-74,-276,-250,-276v-180,0,-276,92,-288,276xm493,-1540r150,0r175,260r-150,0r-100,-160r-100,160r-150,0","w":1132},"\u00eb":{"d":"992,-472r-707,0v0,215,135,322,406,322v93,0,185,-10,278,-30r0,150v-93,20,-205,30,-338,30v-354,0,-531,-179,-531,-537v0,-342,168,-513,503,-513v321,0,451,193,389,578xm285,-626r538,0v9,-184,-74,-276,-250,-276v-180,0,-276,92,-288,276xm846,-1430r0,150r-185,0r0,-150r185,0xm476,-1430r0,150r-185,0r0,-150r185,0","w":1132},"\u00ed":{"d":"335,-1050r0,1050r-185,0r0,-1050r185,0xm445,-1505r0,150r-400,150r0,-150"},"\u00ec":{"d":"335,-1050r0,1050r-185,0r0,-1050r185,0xm445,-1355r0,150r-400,-150r0,-150"},"\u00ee":{"d":"335,-1050r0,1050r-185,0r0,-1050r185,0xm167,-1540r150,0r175,260r-150,0r-100,-160r-100,160r-150,0"},"\u00ef":{"d":"335,-1050r0,1050r-185,0r0,-1050r185,0xm520,-1430r0,150r-185,0r0,-150r185,0xm150,-1430r0,150r-185,0r0,-150r185,0"},"\u00f1":{"d":"150,0r0,-1050r125,0r33,134v127,-89,255,-134,384,-134v242,0,363,130,363,391r0,659r-185,0r0,-662v0,-156,-78,-234,-233,-234v-106,0,-207,44,-302,133r0,763r-185,0xm853,-1449r0,150v-70,53,-150,60,-240,20v-90,-40,-177,-33,-260,20r0,-150v70,-53,150,-60,240,-20v90,40,177,33,260,-20","w":1205},"\u00f3":{"d":"600,-150v210,0,315,-126,315,-379v0,-247,-105,-371,-315,-371v-210,0,-315,124,-315,371v0,253,105,379,315,379xm100,-525v0,-350,167,-525,500,-525v333,0,500,175,500,525v0,349,-167,524,-500,524v-332,0,-500,-175,-500,-524xm792,-1505r0,150r-400,150r0,-150","w":1200},"\u00f2":{"d":"600,-150v210,0,315,-126,315,-379v0,-247,-105,-371,-315,-371v-210,0,-315,124,-315,371v0,253,105,379,315,379xm100,-525v0,-350,167,-525,500,-525v333,0,500,175,500,525v0,349,-167,524,-500,524v-332,0,-500,-175,-500,-524xm784,-1355r0,150r-400,-150r0,-150","w":1200},"\u00f4":{"d":"600,-150v210,0,315,-126,315,-379v0,-247,-105,-371,-315,-371v-210,0,-315,124,-315,371v0,253,105,379,315,379xm100,-525v0,-350,167,-525,500,-525v333,0,500,175,500,525v0,349,-167,524,-500,524v-332,0,-500,-175,-500,-524xm513,-1540r150,0r175,260r-150,0r-100,-160r-100,160r-150,0","w":1200},"\u00f6":{"d":"600,-150v210,0,315,-126,315,-379v0,-247,-105,-371,-315,-371v-210,0,-315,124,-315,371v0,253,105,379,315,379xm100,-525v0,-350,167,-525,500,-525v333,0,500,175,500,525v0,349,-167,524,-500,524v-332,0,-500,-175,-500,-524xm876,-1430r0,150r-185,0r0,-150r185,0xm506,-1430r0,150r-185,0r0,-150r185,0","w":1200},"\u00f5":{"d":"600,-150v210,0,315,-126,315,-379v0,-247,-105,-371,-315,-371v-210,0,-315,124,-315,371v0,253,105,379,315,379xm100,-525v0,-350,167,-525,500,-525v333,0,500,175,500,525v0,349,-167,524,-500,524v-332,0,-500,-175,-500,-524xm846,-1449r0,150v-70,53,-150,60,-240,20v-90,-40,-177,-33,-260,20r0,-150v70,-53,150,-60,240,-20v90,40,177,33,260,-20","w":1200},"\u00fa":{"d":"1055,-1050r0,1050r-127,0r-32,-134v-127,89,-255,134,-384,134v-241,0,-362,-130,-362,-391r0,-659r185,0r0,662v0,156,77,234,232,234v106,0,207,-44,303,-133r0,-763r185,0xm808,-1505r0,150r-400,150r0,-150","w":1205},"\u00f9":{"d":"1055,-1050r0,1050r-127,0r-32,-134v-127,89,-255,134,-384,134v-241,0,-362,-130,-362,-391r0,-659r185,0r0,662v0,156,77,234,232,234v106,0,207,-44,303,-133r0,-763r185,0xm808,-1355r0,150r-400,-150r0,-150","w":1205},"\u00fb":{"d":"1055,-1050r0,1050r-127,0r-32,-134v-127,89,-255,134,-384,134v-241,0,-362,-130,-362,-391r0,-659r185,0r0,662v0,156,77,234,232,234v106,0,207,-44,303,-133r0,-763r185,0xm527,-1540r150,0r175,260r-150,0r-100,-160r-100,160r-150,0","w":1205},"\u00fc":{"d":"1055,-1050r0,1050r-127,0r-32,-134v-127,89,-255,134,-384,134v-241,0,-362,-130,-362,-391r0,-659r185,0r0,662v0,156,77,234,232,234v106,0,207,-44,303,-133r0,-763r185,0xm886,-1430r0,150r-185,0r0,-150r185,0xm516,-1430r0,150r-185,0r0,-150r185,0","w":1205},"\u2020":{"d":"615,-1430r0,420r370,0r0,160r-370,0r0,850r-185,0r0,-850r-380,0r0,-160r380,0r0,-420r185,0","w":1035},"\u00b0":{"d":"378,-1025v96,0,144,-49,144,-147v0,-96,-48,-144,-144,-144v-99,0,-148,48,-148,144v0,98,49,147,148,147xm100,-1170v0,-173,93,-260,278,-260v183,0,274,87,274,260v0,173,-91,259,-274,259v-185,0,-278,-86,-278,-259","w":752},"\u00a2":{"d":"950,-220v-87,20,-155,30,-205,30r0,190r-175,0r0,-190v-313,-35,-470,-216,-470,-545v0,-301,157,-469,470,-505r0,-190r175,0r0,190v57,0,125,10,205,30r0,150v-87,-20,-173,-30,-260,-30v-270,0,-405,118,-405,355v0,263,135,395,405,395v87,0,173,-10,260,-30r0,150","w":1050},"\u00a3":{"d":"100,-122v124,-50,186,-147,186,-291v0,-78,-26,-175,-77,-291v-51,-116,-77,-224,-77,-323v0,-275,186,-413,558,-413v180,0,322,33,427,100r0,180v-105,-87,-250,-130,-434,-130v-236,0,-354,87,-354,261v0,96,15,172,45,229r376,0r0,150r-324,0v67,175,68,332,-15,472v61,-12,161,1,301,39v140,38,275,11,405,-81r0,170v-125,87,-287,106,-485,56v-198,-50,-376,-41,-532,24r0,-152","w":1217},"\u00a7":{"d":"150,-40r0,-160v117,40,238,60,364,60v167,0,251,-50,251,-150v0,-87,-65,-130,-195,-130r-110,0v-240,0,-360,-100,-360,-300v0,-92,41,-157,122,-196v-81,-53,-122,-128,-122,-224v0,-200,152,-300,457,-300v112,0,226,17,343,50r0,160v-117,-40,-231,-60,-343,-60v-195,0,-292,50,-292,150v0,87,65,130,195,130r110,0v253,0,380,99,380,297v0,87,-40,154,-120,202v80,43,120,116,120,221v0,200,-145,300,-436,300v-126,0,-247,-17,-364,-50xm460,-568r110,0v130,0,195,-45,195,-136v0,-105,-65,-157,-195,-157r-110,0v-130,0,-195,48,-195,144v0,99,65,149,195,149","w":1050},"\u2022":{"d":"100,-725v0,-143,72,-215,215,-215v143,0,215,72,215,215v0,143,-72,215,-215,215v-143,0,-215,-72,-215,-215","w":630},"\u00b6":{"d":"443,434r0,-972v-295,0,-443,-149,-443,-448v0,-296,148,-444,443,-444r510,0r0,90r-150,0r0,1774r-100,0r0,-1774r-160,0r0,1774r-100,0","w":953},"\u00df":{"d":"150,0r0,-959v0,-312,155,-468,464,-468v287,0,430,132,430,397r0,95v-203,69,-304,148,-304,238v0,47,62,93,186,137v124,44,185,131,185,258v0,201,-141,302,-424,302r-132,0r0,-150r134,0v151,0,227,-51,227,-152v0,-54,-59,-104,-176,-148v-117,-44,-175,-125,-175,-244v0,-139,96,-251,288,-336v0,-165,-82,-247,-246,-247v-181,0,-272,107,-272,321r0,956r-185,0","w":1211},"\u00ae":{"d":"404,-756r0,-536r229,0v102,0,153,43,153,128v0,70,-50,122,-150,155r184,253r-91,0r-171,-241r0,-45v103,-17,154,-56,154,-119v0,-103,-144,-68,-239,-74r0,479r-69,0xm580,-664v240,0,360,-120,360,-361v0,-246,-120,-369,-360,-369v-238,0,-357,123,-357,369v0,241,119,361,357,361xm150,-1023v0,-285,143,-427,430,-427v289,0,433,142,433,427v0,277,-144,415,-433,415v-279,0,-430,-138,-430,-415","w":1163},"\u00a9":{"d":"580,-664v240,0,360,-120,360,-361v0,-246,-120,-369,-360,-369v-238,0,-357,123,-357,369v0,241,119,361,357,361xm150,-1023v0,-285,143,-427,430,-427v289,0,433,142,433,427v0,277,-144,415,-433,415v-279,0,-430,-138,-430,-415xm765,-830v-47,18,-96,27,-146,27v-151,0,-226,-76,-226,-229v0,-142,75,-213,226,-213v50,0,99,9,146,27r0,-62v-47,-15,-99,-23,-154,-23v-193,0,-289,90,-289,271v0,191,96,287,289,287v55,0,107,-8,154,-23r0,-62","w":1163},"\u2122":{"d":"661,-1430r0,71r-212,0r0,602r-87,0r0,-602r-212,0r0,-71r511,0xm750,-757r0,-673r110,0r248,561r242,-561r106,0r0,673r-78,0r0,-543r-239,543r-69,0r-243,-543r0,543r-77,0","w":1606},"\u00b4":{"d":"400,-1505r0,150r-400,150r0,-150","w":400},"\u00a8":{"d":"555,-1430r0,150r-185,0r0,-150r185,0xm185,-1430r0,150r-185,0r0,-150r185,0","w":555},"\u00c6":{"d":"25,0r607,-1430r1098,0r0,150r-838,0r210,480r593,0r0,150r-524,0r226,500r353,0r0,150r-498,0r-524,-1238r-266,638r350,0r58,150r-459,0r-194,450r-192,0","w":1875},"\u00d8":{"d":"295,-719v0,386,174,579,523,579v341,0,512,-193,512,-579v0,-381,-171,-571,-512,-571v-349,0,-523,190,-523,571xm818,10v-479,0,-718,-241,-718,-723v0,-485,239,-727,718,-727v471,0,707,242,707,727v0,482,-236,723,-707,723xm168,0r1083,-1430r198,0r-1084,1430r-197,0","w":1625},"\u00b1":{"w":636},"\u00a5":{"d":"50,-1430r205,0r362,627r368,-627r215,0r-433,700r313,0r0,150r-376,0r0,111r376,0r0,150r-376,0r0,319r-185,0r0,-319r-349,0r0,-150r349,0r0,-111r-349,0r0,-150r287,0","w":1250},"\u00b5":{"d":"1055,-1050r0,1050r-127,0r-32,-134v-127,89,-249,134,-364,134v-87,0,-152,-27,-197,-80r0,460r-185,0r0,-1430r185,0r0,612v0,189,77,284,232,284v106,0,207,-44,303,-133r0,-763r185,0","w":1205},"\u03bc":{"d":"1055,-1050r0,1050r-127,0r-32,-134v-127,89,-249,134,-364,134v-87,0,-152,-27,-197,-80r0,460r-185,0r0,-1430r185,0r0,612v0,189,77,284,232,284v106,0,207,-44,303,-133r0,-763r185,0","w":1205},"\u00aa":{"w":402},"\u00ba":{"w":402},"\u00e6":{"d":"526,-500v-161,0,-241,57,-241,170v0,120,70,180,210,180v128,0,230,-27,305,-82r0,-248v-73,-13,-165,-20,-274,-20xm986,-626r538,0v9,-183,-74,-274,-250,-274v-180,0,-276,91,-288,274xm189,-852r0,-145v239,-84,630,-78,730,93v78,-97,209,-146,392,-146v319,0,447,193,384,578r-707,0v0,215,133,322,400,322v99,0,194,-10,285,-29r0,149v-97,20,-211,30,-341,30v-170,0,-303,-44,-398,-132v-142,88,-288,132,-438,132v-264,0,-396,-110,-396,-329v0,-214,142,-321,427,-321v103,0,195,7,276,22r0,-103v0,-113,-94,-169,-282,-169v-113,0,-224,16,-332,48","w":1835},"\u00f8":{"d":"285,-529v0,253,105,379,315,379v210,0,315,-126,315,-379v0,-247,-105,-371,-315,-371v-210,0,-315,124,-315,371xm600,-1v-332,0,-500,-175,-500,-524v0,-350,167,-525,500,-525v333,0,500,175,500,525v0,349,-167,524,-500,524xm115,0r800,-1050r198,0r-801,1050r-197,0","w":1200},"\u00bf":{"d":"250,-865r0,-185r185,0r0,185r-185,0xm100,180v140,33,273,50,400,50v220,0,330,-80,330,-240v0,-160,-105,-240,-315,-240r-265,0r0,-430r185,0r0,280r83,0v331,0,497,130,497,390v0,260,-172,390,-515,390v-127,0,-260,-17,-400,-50r0,-150","w":1115},"\u00a1":{"d":"150,380r0,-1060r185,0r0,1060r-185,0xm150,-865r0,-185r185,0r0,185r-185,0"},"\u00ac":{"w":1395},"\u0192":{"w":576},"\u00ab":{"d":"499,-525r258,-375r202,0r-258,375r258,375r-202,0xm100,-525r258,-375r202,0r-258,375r258,375r-202,0","w":1009},"\u00bb":{"d":"252,-150r-202,0r258,-375r-258,-375r202,0r258,375xm651,-150r-202,0r258,-375r-258,-375r202,0r258,375","w":1009},"\u2026":{"w":792},"\u00a0":{"w":498},"\u00c0":{"d":"25,0r607,-1430r205,0r610,1430r-195,0r-190,-450r-478,0r51,-150r357,0r-264,-638r-511,1238r-192,0xm925,-1688r0,150r-400,-150r0,-150","w":1472,"k":{"Y":175,"V":175,"T":125}},"\u00c3":{"d":"25,0r607,-1430r205,0r610,1430r-195,0r-190,-450r-478,0r51,-150r357,0r-264,-638r-511,1238r-192,0xm988,-1809r0,150v-70,53,-150,60,-240,20v-90,-40,-177,-33,-260,20r0,-150v70,-53,150,-60,240,-20v90,40,177,33,260,-20","w":1472,"k":{"Y":175,"V":175,"T":125}},"\u00d5":{"d":"818,-140v341,0,512,-193,512,-579v0,-381,-171,-571,-512,-571v-349,0,-523,190,-523,571v0,386,174,579,523,579xm100,-713v0,-485,239,-727,718,-727v471,0,707,242,707,727v0,482,-236,723,-707,723v-479,0,-718,-241,-718,-723xm1063,-1809r0,150v-70,53,-150,60,-240,20v-90,-40,-177,-33,-260,20r0,-150v70,-53,150,-60,240,-20v90,40,177,33,260,-20","w":1625},"\u0152":{"d":"818,-150v341,0,512,-190,512,-569v0,-374,-171,-561,-512,-561v-349,0,-523,187,-523,561v0,379,174,569,523,569xm100,-713v0,-478,239,-717,718,-717r1257,0r0,150r-775,0v130,99,205,259,225,480r515,0r0,150r-515,0v-20,238,-95,405,-225,500r790,0r0,150r-1272,0v-479,0,-718,-238,-718,-713","w":2215},"\u0153":{"d":"596,-150v210,0,315,-126,315,-379v0,-247,-105,-371,-315,-371v-210,0,-315,124,-315,371v0,253,105,379,315,379xm1096,-626r538,0v9,-184,-74,-276,-250,-276v-180,0,-276,92,-288,276xm100,-522v0,-352,167,-528,500,-528v189,0,324,56,405,169v79,-113,214,-169,407,-169v325,0,455,193,390,578r-703,0v0,215,134,322,402,322v98,0,191,-9,279,-28r0,146v-91,21,-202,32,-333,32v-208,0,-355,-59,-441,-176v-77,117,-212,176,-406,176v-333,0,-500,-174,-500,-522","w":1943},"\u2013":{"w":684},"\u2014":{"w":894},"\u201c":{"d":"805,-1430r-150,435r-185,0r150,-435r185,0xm435,-1430r-150,435r-185,0r150,-435r185,0","w":905},"\u201d":{"d":"285,-1430r150,435r-185,0r-150,-435r185,0xm655,-1430r150,435r-185,0r-150,-435r185,0","w":905},"\u2018":{"d":"285,-1430r150,435r-185,0r-150,-435r185,0","w":535},"\u2019":{"d":"435,-1430r-150,435r-185,0r150,-435r185,0","w":535},"\u00f7":{"d":"100,-600r0,150r785,0r0,-150r-785,0xm585,-300r0,150r-185,0r0,-150r185,0xm585,-900r0,150r-185,0r0,-150r185,0","w":985},"\u00ff":{"w":393},"\u0178":{"w":526},"\u00a4":{"d":"216,-756r-116,-120r109,-112r125,121v136,-87,333,-94,467,0r128,-121r110,112r-118,120v78,108,80,357,-10,463r128,120r-110,112r-128,-123v-146,82,-324,78,-476,0r-116,123r-109,-112r116,-120v-76,-128,-76,-341,0,-463xm322,-529v0,164,82,246,245,246v163,0,245,-82,245,-246v0,-163,-82,-244,-245,-244v-163,0,-245,81,-245,244","w":1139},"\u2039":{"d":"100,-525r258,-375r202,0r-258,375r258,375r-202,0","w":610},"\u203a":{"d":"252,-150r-202,0r258,-375r-258,-375r202,0r258,375","w":610},"\u2021":{"w":336},"\u00b7":{"d":"100,-525v0,-83,42,-125,125,-125v83,0,125,42,125,125v0,83,-42,125,-125,125v-83,0,-125,-42,-125,-125","w":450},"\u2219":{"d":"100,-525v0,-83,42,-125,125,-125v83,0,125,42,125,125v0,83,-42,125,-125,125v-83,0,-125,-42,-125,-125","w":450},"\u201a":{"w":234},"\u201e":{"d":"805,-185r-150,435r-185,0r150,-435r185,0xm435,-185r-150,435r-185,0r150,-435r185,0","w":905},"\u2030":{"d":"305,0r-205,0r1017,-1430r205,0xm378,-1035v96,0,144,-49,144,-147v0,-96,-48,-144,-144,-144v-99,0,-148,48,-148,144v0,98,49,147,148,147xm100,-1180v0,-173,93,-260,278,-260v183,0,274,87,274,260v0,173,-91,259,-274,259v-185,0,-278,-86,-278,-259xm1733,-104v96,0,144,-49,144,-147v0,-96,-48,-144,-144,-144v-99,0,-148,48,-148,144v0,98,49,147,148,147xm1455,-249v0,-173,93,-260,278,-260v183,0,274,87,274,260v0,173,-91,259,-274,259v-185,0,-278,-86,-278,-259xm1048,-104v96,0,144,-49,144,-147v0,-96,-48,-144,-144,-144v-99,0,-148,48,-148,144v0,98,49,147,148,147xm770,-249v0,-173,93,-260,278,-260v183,0,274,87,274,260v0,173,-91,259,-274,259v-185,0,-278,-86,-278,-259","w":2107},"\u00c2":{"d":"25,0r607,-1430r205,0r610,1430r-195,0r-190,-450r-478,0r51,-150r357,0r-264,-638r-511,1238r-192,0xm657,-1834r150,0r175,260r-150,0r-100,-160r-100,160r-150,0","w":1472,"k":{"Y":175,"V":175,"T":125}},"\u00ca":{"d":"554,-1834r150,0r175,260r-150,0r-100,-160r-100,160r-150,0xm150,-1430r0,1430r950,0r0,-150r-765,0r0,-500r715,0r0,-150r-715,0r0,-480r750,0r0,-150r-935,0","w":1225},"\u00c1":{"d":"25,0r607,-1430r205,0r610,1430r-195,0r-190,-450r-478,0r51,-150r357,0r-264,-638r-511,1238r-192,0xm925,-1838r0,150r-400,150r0,-150","w":1472,"k":{"Y":175,"V":175,"T":125}},"\u00cb":{"d":"891,-1789r0,150r-185,0r0,-150r185,0xm521,-1789r0,150r-185,0r0,-150r185,0xm150,-1430r0,1430r950,0r0,-150r-765,0r0,-500r715,0r0,-150r-715,0r0,-480r750,0r0,-150r-935,0","w":1225},"\u00c8":{"d":"836,-1688r0,150r-400,-150r0,-150xm150,-1430r0,1430r950,0r0,-150r-765,0r0,-500r715,0r0,-150r-715,0r0,-480r750,0r0,-150r-935,0","w":1225},"\u00cd":{"d":"150,-1430r0,1430r185,0r0,-1430r-185,0xm445,-1838r0,150r-400,150r0,-150"},"\u00ce":{"d":"150,-1430r0,1430r185,0r0,-1430r-185,0xm167,-1834r150,0r175,260r-150,0r-100,-160r-100,160r-150,0"},"\u00cf":{"d":"150,-1430r0,1430r185,0r0,-1430r-185,0xm520,-1789r0,150r-185,0r0,-150r185,0xm150,-1789r0,150r-185,0r0,-150r185,0"},"\u00cc":{"d":"150,-1430r0,1430r185,0r0,-1430r-185,0xm445,-1688r0,150r-400,-150r0,-150"},"\u00d3":{"d":"818,-140v341,0,512,-193,512,-579v0,-381,-171,-571,-512,-571v-349,0,-523,190,-523,571v0,386,174,579,523,579xm100,-713v0,-485,239,-727,718,-727v471,0,707,242,707,727v0,482,-236,723,-707,723v-479,0,-718,-241,-718,-723xm990,-1838r0,150r-400,150r0,-150","w":1625},"\u00d4":{"d":"818,-140v341,0,512,-193,512,-579v0,-381,-171,-571,-512,-571v-349,0,-523,190,-523,571v0,386,174,579,523,579xm100,-713v0,-485,239,-727,718,-727v471,0,707,242,707,727v0,482,-236,723,-707,723v-479,0,-718,-241,-718,-723xm734,-1834r150,0r175,260r-150,0r-100,-160r-100,160r-150,0","w":1625},"\u00d2":{"d":"818,-140v341,0,512,-193,512,-579v0,-381,-171,-571,-512,-571v-349,0,-523,190,-523,571v0,386,174,579,523,579xm100,-713v0,-485,239,-727,718,-727v471,0,707,242,707,727v0,482,-236,723,-707,723v-479,0,-718,-241,-718,-723xm990,-1688r0,150r-400,-150r0,-150","w":1625},"\u00da":{"d":"150,-552r0,-878r185,0r0,878v0,275,137,412,410,412v273,0,410,-137,410,-412r0,-878r185,0r0,878v0,375,-198,562,-595,562v-397,0,-595,-187,-595,-562xm948,-1838r0,150r-400,150r0,-150","w":1490},"\u00db":{"d":"150,-552r0,-878r185,0r0,878v0,275,137,412,410,412v273,0,410,-137,410,-412r0,-878r185,0r0,878v0,375,-198,562,-595,562v-397,0,-595,-187,-595,-562xm653,-1834r150,0r175,260r-150,0r-100,-160r-100,160r-150,0","w":1490},"\u00d9":{"d":"150,-552r0,-878r185,0r0,878v0,275,137,412,410,412v273,0,410,-137,410,-412r0,-878r185,0r0,878v0,375,-198,562,-595,562v-397,0,-595,-187,-595,-562xm948,-1688r0,150r-400,-150r0,-150","w":1490},"\u02c6":{"d":"200,-1538r150,0r175,260r-150,0r-100,-160r-100,160r-150,0","w":550},"\u02dc":{"d":"600,-620r0,150v-70,53,-150,60,-240,20v-90,-40,-177,-33,-260,20r0,-150v70,-53,150,-60,240,-20v90,40,177,33,260,-20","w":700},"\u00af":{"w":360},"\u02c9":{"w":360},"\u00b8":{"d":"0,264v72,33,144,50,216,50v72,0,108,-22,108,-65v0,-43,-28,-64,-83,-64r-183,0r131,-259r135,0r-81,151v143,0,214,57,214,172v0,115,-80,173,-241,173v-72,0,-144,-17,-216,-50r0,-108","w":457},"\u0160":{"w":621},"\u0161":{"w":342},"\u00a6":{"w":201},"\u00d0":{"w":663},"\u00f0":{"w":483},"\u00dd":{"w":526},"\u00fd":{"w":393},"\u00de":{"w":576},"\u00fe":{"w":348},"\u00ad":{"w":636},"\u2212":{"w":636},"\u00d7":{"w":636},"\u00b9":{"w":300},"\u00b2":{"w":300},"\u00b3":{"w":300},"\u00bd":{"w":786},"\u00bc":{"w":786},"\u00be":{"w":786},"\u0141":{"d":"335,-1430r0,1280r748,0r0,150r-933,0r0,-1430r185,0xm0,-602r658,-484r0,180r-658,484r0,-180","w":1183,"k":{"\u00d2":150,"\u00d4":150,"\u00d3":150,"\u0152":150,"\u00d5":150,"\u00d8":150,"\u00d6":150,"\u00c7":150,"Y":288,"V":300,"T":300,"Q":150,"O":150,"G":150,"C":150}},"\u0142":{"d":"335,-1430r0,1430r-185,0r0,-1430r185,0xm0,-602r485,-360r0,180r-485,360r0,-180"},"\u017d":{"w":690},"\u017e":{"w":462},"\u2126":{"w":1443},"\u03a9":{"w":1443},"\u2044":{"w":234},"\u0131":{"w":234},"\u02d8":{"w":360},"\u02d9":{"w":183},"\u02da":{"d":"278,-1431v96,0,144,-49,144,-147v0,-96,-48,-144,-144,-144v-99,0,-148,48,-148,144v0,98,49,147,148,147xm0,-1576v0,-173,93,-260,278,-260v183,0,274,87,274,260v0,173,-91,259,-274,259v-185,0,-278,-86,-278,-259","w":552},"\u02dd":{"w":468},"\u02db":{"w":270},"\u02c7":{"w":360},"\u20ac":{"d":"1250,-50v-123,40,-257,60,-400,60v-500,0,-750,-248,-750,-745v0,-470,250,-705,750,-705v143,0,277,20,400,60r0,160v-123,-47,-250,-70,-380,-70v-332,0,-527,116,-585,348r773,0r0,150r-793,0r0,110r793,0r0,150r-773,0v51,261,246,392,585,392v130,0,257,-23,380,-70r0,160","w":1385},"\u017b":{"d":"145,-1430r0,150r784,0r-804,1130r0,150r980,0r0,-150r-757,0r777,-1130r0,-150r-980,0xm730,-1789r0,190r-215,0r0,-190r215,0","w":1250},"\u017c":{"d":"120,-1050r770,0r0,150r-567,760r547,0r0,140r-770,0r0,-140r575,-760r-555,0r0,-150xm609,-1430r0,190r-205,0r0,-190r205,0","w":990},"\u0179":{"d":"145,-1430r0,150r784,0r-804,1130r0,150r980,0r0,-150r-757,0r777,-1130r0,-150r-980,0xm812,-1838r0,150r-400,150r0,-150","w":1250},"\u017a":{"d":"120,-1050r770,0r0,150r-567,760r547,0r0,140r-770,0r0,-140r575,-760r-555,0r0,-150xm715,-1505r0,150r-400,150r0,-150","w":990},"\u0104":{"d":"25,0r607,-1430r205,0r610,1430r-195,0r-190,-450r-478,0r51,-150r357,0r-264,-638r-511,1238r-192,0xm1447,0v-135,84,-202,160,-202,228v0,97,166,70,222,48r0,130v-41,13,-90,20,-149,20v-154,0,-231,-58,-231,-173v0,-87,55,-172,165,-253r195,0","w":1472,"k":{"Y":175,"V":175,"T":125}},"\u0105":{"d":"100,-327v0,-215,142,-323,426,-323v105,0,196,7,274,20r0,-99v0,-114,-94,-171,-283,-171v-108,0,-219,17,-332,50r0,-150v113,-33,224,-50,332,-50v312,0,468,112,468,336r0,714r-168,0r0,-74v-91,49,-199,74,-322,74v-263,0,-395,-109,-395,-327xm526,-500v-161,0,-241,57,-241,170v0,120,70,180,210,180v128,0,230,-27,305,-82r0,-248v-73,-13,-165,-20,-274,-20xm986,0v-135,84,-202,160,-202,228v0,97,166,70,222,48r0,130v-41,13,-90,20,-149,20v-154,0,-231,-58,-231,-173v0,-87,64,-172,191,-253r169,0","w":1135},"\u0106":{"d":"1250,-210v-123,47,-250,70,-380,70v-390,0,-585,-198,-585,-595v0,-370,195,-555,585,-555v130,0,257,23,380,70r0,-160v-123,-40,-257,-60,-400,-60v-500,0,-750,235,-750,705v0,497,250,745,750,745v143,0,277,-20,400,-60r0,-160xm936,-1838r0,150r-400,150r0,-150","w":1385},"\u0107":{"d":"950,-180v-87,20,-173,30,-260,30v-270,0,-405,-132,-405,-395v0,-237,135,-355,405,-355v87,0,173,10,260,30r0,-150v-87,-20,-180,-30,-280,-30v-380,0,-570,168,-570,505v0,363,190,545,570,545v100,0,193,-10,280,-30r0,-150xm768,-1505r0,150r-400,150r0,-150","w":1025},"\u0143":{"d":"150,0r0,-1430r185,0r875,1142r0,-1142r175,0r0,1430r-185,0r-875,-1142r0,1142r-175,0xm972,-1838r0,150r-400,150r0,-150","w":1535},"\u0144":{"d":"150,0r0,-1050r125,0r33,134v127,-89,255,-134,384,-134v242,0,363,130,363,391r0,659r-185,0r0,-662v0,-156,-78,-234,-233,-234v-106,0,-207,44,-302,133r0,763r-185,0xm795,-1505r0,150r-400,150r0,-150","w":1205},"\u015a":{"d":"828,-1838r0,150r-400,150r0,-150xm170,-50r0,-170v150,53,312,80,486,80v246,0,369,-90,369,-270v0,-153,-91,-230,-272,-230r-204,0v-299,0,-449,-130,-449,-390v0,-273,192,-410,575,-410v167,0,322,20,465,60r0,170v-143,-53,-298,-80,-465,-80v-260,0,-390,87,-390,260v0,153,88,230,264,230r204,0v305,0,457,130,457,390v0,280,-185,420,-554,420v-174,0,-336,-20,-486,-60","w":1310,"k":{"S":96}},"\u015b":{"d":"712,-1505r0,150r-400,150r0,-150xm150,-50r0,-160v117,40,238,60,364,60v167,0,251,-50,251,-150v0,-93,-55,-140,-165,-140r-170,0v-220,0,-330,-103,-330,-310v0,-200,146,-300,437,-300v125,0,246,17,363,50r0,160v-117,-40,-238,-60,-363,-60v-175,0,-262,50,-262,150v0,93,52,140,155,140r170,0v233,0,350,103,350,310v0,200,-145,300,-436,300v-126,0,-247,-17,-364,-50","w":1050},"\u0118":{"d":"1085,-1430r0,150r-750,0r0,480r715,0r0,150r-715,0r0,500r765,0r0,150r-950,0r0,-1430r935,0xm1100,0v-148,84,-222,160,-222,228v0,97,166,70,222,48r0,130v-41,13,-90,20,-149,20v-154,0,-231,-58,-231,-173v0,-87,58,-172,173,-253r207,0","w":1225},"\u0119":{"d":"992,-472r-707,0v0,215,135,322,406,322v93,0,185,-10,278,-30r0,150v-93,20,-205,30,-338,30v-354,0,-531,-179,-531,-537v0,-342,168,-513,503,-513v321,0,451,193,389,578xm285,-626r538,0v9,-184,-74,-276,-250,-276v-180,0,-276,92,-288,276xm969,-30v-148,104,-222,190,-222,258v0,97,166,70,222,48r0,130v-41,13,-90,20,-149,20v-154,0,-231,-58,-231,-173v0,-87,64,-182,193,-283r187,0","w":1132}}});
