// #### Generated By: http://www.cufonfonts.com ####
/*!
 * The following copyright notice may not be removed under any circumstances.
 * 
 * Copyright:
 * Copyright (c) 2003 by Bitstream, Inc. All Rights Reserved.
 * Modification and conversion to monospace Copyright (c) 2006 by Stephen G.
 * Hartke.  Changes released under the Vera license (with the expception that the
 * name does not need to be changed from Verily).
 * 
 * Trademark:
 * Bitstream Vera is a trademark of Bitstream, Inc.
 * 
 * Manufacturer:
 * FreeFoundry
 * 
 * Vendor URL:
 * http://www.geocities.com/hartke01/
 */
Cufon.registerFont({"w":602,"face":{"font-family":"Verily Serif Mono","font-weight":400,"font-stretch":"normal","units-per-em":"1000","panose-1":"2 6 6 3 5 6 5 2 2 4","ascent":"760","descent":"-240","x-height":"14","bbox":"-5 -928 935 236","underline-thickness":"64","underline-position":"-72","stemh":"52","stemv":"90","unicode-range":"U+0020-U+2122"},"glyphs":{" ":{},"!":{"d":"301,14v-35,0,-65,-30,-65,-65v0,-35,30,-65,65,-65v35,0,65,30,65,65v0,35,-30,65,-65,65xm238,-729r126,0r-33,401r0,123r-60,0v3,-189,-22,-350,-33,-524"},"\"":{"d":"247,-729r0,271r-78,0r0,-271r78,0xm433,-729r0,271r-78,0r0,-271r78,0"},"#":{"d":"334,-718r-51,203r120,0r51,-203r78,0r-51,203r119,0r0,75r-137,0r-41,163r122,0r0,75r-141,0r-51,202r-78,0r51,-202r-120,0r-51,202r-78,0r51,-202r-126,0r0,-75r145,0r41,-163r-130,0r0,-75r148,0r51,-203r78,0xm385,-440r-120,0r-41,163r120,0"},"$":{"d":"320,-33v67,-5,113,-38,113,-105v0,-67,-51,-99,-113,-116r0,221xm271,-580v-61,4,-108,37,-106,98v2,65,46,88,106,107r0,-205xm271,15v-77,-2,-141,-23,-202,-50r0,-135r53,0v3,92,54,135,149,137r0,-237v-120,-38,-203,-58,-203,-180v0,-113,86,-173,203,-179r0,-131r49,0r0,131v70,6,129,23,184,48r0,128r-53,0v-7,-76,-55,-120,-131,-127r0,221v128,40,216,60,216,188v0,120,-93,179,-216,186r0,132r-49,0r0,-132"},"%":{"d":"249,-583v0,-63,-16,-123,-67,-123v-52,0,-69,60,-69,123v-1,63,18,123,69,123v51,0,67,-60,67,-123xm489,-144v0,-63,-15,-125,-67,-125v-51,0,-69,61,-69,125v0,63,18,122,69,122v51,0,68,-60,67,-122xm295,-144v0,-90,44,-160,127,-160v82,0,125,71,125,160v0,89,-42,158,-125,158v-83,0,-127,-69,-127,-158xm498,-742r74,0r-456,742r-74,0xm55,-584v0,-88,44,-158,126,-158v83,0,126,69,126,158v0,90,-42,159,-126,159v-83,0,-126,-69,-126,-159"},"&":{"d":"111,-236v-4,128,108,235,232,174v24,-12,45,-29,63,-51r-227,-299v-40,44,-66,100,-68,176xm567,-362v-9,89,-35,162,-77,221r67,89r32,0r0,52r-97,0r-54,-71v-48,50,-102,83,-188,85v-137,2,-220,-99,-218,-239v2,-106,53,-171,120,-227v-23,-35,-37,-70,-38,-121v-2,-102,64,-170,166,-169v51,2,94,16,141,33r0,126r-44,0v-7,-63,-35,-105,-99,-107v-77,-2,-114,91,-76,159v64,115,177,240,256,350v33,-49,57,-108,62,-181r-30,0r0,-52r104,0r0,52r-27,0"},"'":{"d":"340,-729r0,271r-78,0r0,-271r78,0"},"(":{"d":"280,-302v0,209,29,327,141,410r0,48v-158,-72,-240,-228,-240,-458v0,-231,82,-386,240,-458r0,48v-112,82,-141,202,-141,410"},")":{"d":"181,-760v158,72,240,228,240,458v0,231,-82,386,-240,458r0,-48v112,-82,141,-201,141,-410v0,-208,-29,-328,-141,-410r0,-48"},"*":{"d":"535,-604r-191,89r191,90r-37,58r-170,-106r6,186r-66,0r6,-186r-170,106r-37,-58r191,-89r-191,-90r37,-58r170,106r-6,-186r66,0r-6,186r170,-106"},"+":{"d":"342,-572r0,217r217,0r0,83r-217,0r0,217r-82,0r0,-217r-217,0r0,-83r217,0r0,-217r82,0"},",":{"d":"208,97v62,-44,93,-103,90,-208r96,0v-7,125,-59,193,-146,247"},"-":{"d":"174,-314r254,0r0,80r-254,0r0,-80"},".":{"d":"301,14v-35,0,-65,-30,-65,-65v0,-35,30,-65,65,-65v35,0,65,30,65,65v0,35,-30,65,-65,65"},"\/":{"d":"434,-729r93,0r-384,822r-93,0"},"0":{"d":"300,-301v-37,0,-64,-28,-64,-65v0,-35,29,-66,64,-66v35,0,66,31,66,66v0,35,-30,65,-66,65xm196,-116v45,107,164,107,209,0v41,-97,41,-399,0,-496v-45,-107,-164,-107,-209,0v-41,98,-41,399,0,496xm535,-364v0,202,-62,378,-235,378v-173,0,-234,-177,-234,-378v0,-202,61,-378,234,-378v173,0,235,177,235,378"},"1":{"d":"142,0r0,-52r127,0r0,-606r-147,95r0,-64r178,-115r67,0r0,690r127,0r0,52r-352,0"},"2":{"d":"279,-694v-96,1,-144,50,-152,139r-54,0r0,-130v59,-33,126,-56,207,-57v141,-3,244,73,244,205v-1,150,-243,342,-348,457r301,0r0,-90r56,0r0,170r-465,0r0,-53r219,-221v78,-82,131,-137,135,-263v3,-94,-52,-157,-143,-157"},"3":{"d":"283,-694v-85,1,-128,45,-135,124r-51,0r0,-128v59,-24,121,-42,193,-44v123,-2,211,58,211,174v0,97,-61,153,-147,170v106,15,176,85,176,201v0,142,-97,213,-248,211v-81,0,-146,-20,-205,-49r0,-142r51,0v5,93,59,143,156,143v95,0,150,-65,150,-162v0,-127,-71,-185,-206,-174r0,-50v114,5,182,-35,181,-142v0,-84,-43,-132,-126,-132"},"4":{"d":"349,-247r0,-388r-249,388r249,0xm514,0r-232,0r0,-52r67,0r0,-143r-318,0r0,-53r319,-494r97,0r0,495r109,0r0,52r-109,0r0,143r67,0r0,52"},"5":{"d":"272,-427v-63,0,-100,25,-131,64r-42,0r0,-366r386,0r0,80r-334,0r0,209v33,-23,75,-35,129,-35v149,-2,242,95,242,244v0,154,-95,247,-250,245v-80,-1,-141,-22,-205,-49r0,-142r55,0v7,89,57,144,150,143v106,-1,152,-81,152,-197v0,-116,-45,-196,-152,-196"},"6":{"d":"176,-236v0,113,34,202,133,202v97,0,133,-85,133,-196v0,-111,-36,-196,-133,-196v-97,0,-133,83,-133,190xm451,-593v-6,-64,-46,-101,-114,-101v-142,0,-173,126,-176,293v37,-45,84,-72,158,-73v139,0,219,100,219,244v0,143,-91,247,-233,244v-174,-4,-238,-156,-238,-355v0,-224,79,-401,279,-401v57,0,110,12,156,29r0,120r-51,0"},"7":{"d":"527,-679r-270,679r-70,0r259,-649r-321,0r0,90r-54,0r0,-170r456,0r0,50"},"8":{"d":"303,-34v93,0,139,-67,139,-165v0,-98,-46,-164,-139,-165v-93,0,-139,67,-139,165v0,98,46,164,139,165xm303,-412v79,1,120,-58,120,-141v0,-83,-40,-141,-120,-141v-79,0,-120,58,-120,141v0,83,41,141,120,141xm516,-553v0,95,-58,149,-143,165v99,13,166,81,166,189v0,140,-90,213,-236,213v-146,0,-236,-72,-236,-213v-1,-108,67,-177,165,-189v-86,-16,-141,-70,-142,-165v-1,-122,87,-189,213,-189v127,0,213,68,213,189"},"9":{"d":"149,-136v7,63,47,102,115,102v142,0,173,-125,176,-293v-37,45,-85,72,-159,73v-138,1,-218,-101,-218,-244v0,-143,91,-247,233,-244v175,3,238,156,238,355v0,224,-79,401,-279,401v-58,0,-109,-12,-157,-29r0,-121r51,0xm425,-492v0,-113,-34,-202,-133,-202v-97,0,-133,85,-133,196v0,111,35,196,133,196v97,0,133,-83,133,-190"},":":{"d":"301,14v-36,0,-65,-30,-65,-65v0,-35,30,-65,65,-65v35,0,65,30,65,65v0,35,-29,65,-65,65xm301,-304v-35,0,-65,-30,-65,-65v0,-35,30,-65,65,-65v37,0,65,29,65,65v0,35,-29,65,-65,65"},";":{"d":"201,97v62,-44,92,-103,89,-208r96,0v-7,125,-59,193,-146,247xm336,-304v-35,0,-65,-30,-65,-65v0,-35,30,-65,65,-65v35,0,65,30,65,65v0,35,-30,65,-65,65"},"<":{"d":"559,-469r-415,156r415,155r0,89r-516,-204r0,-81r516,-204r0,89"},"=":{"d":"43,-256r516,0r0,84r-516,0r0,-84xm43,-454r516,0r0,83r-516,0r0,-83"},">":{"d":"43,-469r0,-89r516,204r0,81r-516,204r0,-89r415,-155"},"?":{"d":"264,14v-35,0,-65,-30,-65,-65v0,-35,30,-65,65,-65v35,0,65,30,65,65v0,35,-30,65,-65,65xm275,-694v-81,1,-125,50,-137,124r-47,0r0,-127v57,-25,116,-44,186,-45v133,-3,234,68,234,193v0,139,-89,202,-217,231r0,124r-60,0r0,-160v104,-25,172,-81,174,-196v2,-85,-50,-144,-133,-144"},"@":{"d":"500,-403v8,-126,-19,-242,-136,-237v-114,5,-189,80,-236,162v-79,139,-51,378,36,482v73,87,216,151,357,100r7,47v-88,34,-198,30,-282,-10v-141,-66,-239,-204,-241,-406v-2,-198,107,-351,244,-406v91,-36,199,-23,257,25v58,48,70,123,70,174r0,430r-76,0r0,-79v-32,46,-65,78,-130,79v-109,2,-171,-102,-171,-220v0,-120,62,-220,171,-220v65,0,99,34,130,79xm389,-99v88,0,111,-87,111,-189v0,-76,-42,-137,-112,-137v-80,0,-112,72,-112,163v0,92,33,163,113,163"},"A":{"d":"109,-52r50,0r0,52r-145,0r0,-52r34,0r205,-677r82,0r217,677r42,0r0,52r-205,0r0,-52r51,0r-49,-160r-236,0xm170,-264r205,0r-106,-347"},"B":{"d":"445,-211v0,-113,-54,-158,-169,-158r-96,0r0,317r96,0v116,-1,169,-45,169,-159xm408,-549v0,-123,-101,-134,-228,-128r0,256v127,5,228,-4,228,-128xm557,-211v0,160,-107,211,-282,211r-257,0r0,-52r63,0r0,-625r-63,0r0,-52r280,0v137,0,222,51,222,180v0,95,-61,141,-152,151v113,14,189,70,189,187"},"C":{"d":"317,-38v84,0,116,-70,132,-155r90,0v-27,120,-91,207,-223,207v-139,0,-208,-108,-240,-220v-67,-233,18,-539,246,-536v80,1,139,29,202,63r0,168r-66,0v-14,-104,-42,-179,-141,-179v-49,0,-84,29,-111,83v-48,97,-48,389,0,486v27,54,62,83,111,83"},"D":{"d":"166,-52r46,0v88,0,220,-46,220,-313v0,-268,-132,-312,-220,-312r-46,0r0,625xm14,0r0,-52r53,0r0,-625r-53,0r0,-52r203,0v196,0,327,162,327,364v0,201,-131,365,-327,365r-203,0"},"E":{"d":"33,0r0,-52r63,0r0,-625r-63,0r0,-52r497,0r0,162r-60,0r0,-102r-275,0r0,244r179,0r0,-91r60,0r0,242r-60,0r0,-91r-179,0r0,305r283,0r0,-102r60,0r0,162r-505,0"},"F":{"d":"51,0r0,-52r63,0r0,-625r-63,0r0,-52r492,0r0,162r-60,0r0,-102r-270,0r0,244r174,0r0,-91r60,0r0,242r-60,0r0,-91r-174,0r0,313r117,0r0,52r-279,0"},"G":{"d":"317,-38v55,0,91,-24,123,-55r0,-188r-84,0r0,-52r183,0r0,272v-58,45,-127,75,-221,75v-180,0,-268,-178,-268,-378v0,-204,88,-378,271,-378v79,0,138,25,200,58r0,173r-69,0v-12,-103,-41,-179,-137,-179v-52,0,-88,28,-115,81v-48,96,-50,392,1,488v29,54,65,83,116,83"},"H":{"d":"14,0r0,-52r53,0r0,-625r-53,0r0,-52r205,0r0,52r-53,0r0,252r270,0r0,-252r-53,0r0,-52r205,0r0,52r-53,0r0,625r53,0r0,52r-205,0r0,-52r53,0r0,-313r-270,0r0,313r53,0r0,52r-205,0"},"I":{"d":"351,-52r143,0r0,52r-386,0r0,-52r144,0r0,-625r-144,0r0,-52r386,0r0,52r-143,0r0,625"},"J":{"d":"224,14v-55,0,-100,-14,-142,-33r0,-115r56,0v2,61,25,96,86,96v98,0,104,-61,104,-180r0,-459r-152,0r0,-52r364,0r0,52r-113,0r0,463v-1,155,-52,228,-203,228"},"K":{"d":"14,0r0,-52r53,0r0,-625r-53,0r0,-52r205,0r0,52r-53,0r0,276r296,-276r-39,0r0,-52r162,0r0,52r-42,0r-295,275r296,350r53,0r0,52r-139,0r-292,-346r0,294r53,0r0,52r-205,0"},"L":{"d":"42,0r0,-52r63,0r0,-625r-63,0r0,-52r225,0r0,52r-63,0r0,617r292,0r0,-122r60,0r0,182r-514,0"},"M":{"d":"4,0r0,-52r43,0r0,-625r-43,0r0,-52r157,0r141,414r155,-414r140,0r0,52r-43,0r0,625r43,0r0,52r-190,0r0,-52r53,0r0,-553r-149,403r-69,0r-135,-413r0,563r53,0r0,52r-156,0"},"N":{"d":"10,0r0,-52r58,0r0,-625r-58,0r0,-52r147,0r317,555r0,-503r-58,0r0,-52r176,0r0,52r-58,0r0,691r-59,0r-347,-594r0,528r88,0r0,52r-206,0"},"O":{"d":"301,-38v96,0,133,-91,133,-326v0,-192,-16,-326,-133,-326v-117,0,-133,133,-133,326v0,235,37,326,133,326xm301,14v-175,0,-245,-155,-245,-378v0,-222,69,-378,245,-378v176,0,244,147,244,378v0,222,-68,378,-244,378"},"P":{"d":"443,-524v0,-99,-52,-153,-149,-153r-99,0r0,306r99,0v97,0,149,-55,149,-153xm555,-524v0,130,-100,207,-237,205r-123,0r0,267r83,0r0,52r-245,0r0,-52r63,0r0,-625r-63,0r0,-52r285,0v138,-2,237,74,237,205"},"Q":{"d":"301,-38v96,0,133,-91,133,-326v0,-192,-16,-326,-133,-326v-117,0,-133,133,-133,326v0,235,37,326,133,326xm538,160v-119,-6,-191,-61,-237,-146v-175,0,-245,-155,-245,-378v0,-222,69,-378,245,-378v176,0,244,147,244,378v0,191,-51,333,-177,369v36,45,88,68,170,65r0,90"},"R":{"d":"519,-534v0,108,-65,159,-168,172v51,15,79,45,103,94r106,216r37,0r0,52r-120,0r-114,-232v-40,-92,-73,-112,-194,-107r0,287r63,0r0,52r-215,0r0,-52r53,0r0,-625r-53,0r0,-52r280,0v135,-1,222,66,222,195xm407,-534v0,-99,-45,-142,-144,-143r-94,0r0,286r94,0v99,-1,144,-44,144,-143"},"S":{"d":"300,14v-94,0,-174,-20,-249,-49r0,-166r56,0v5,116,66,163,187,163v105,0,175,-37,178,-135v4,-129,-138,-128,-240,-165v-119,-43,-190,-75,-190,-209v0,-134,107,-196,251,-195v85,1,165,20,240,43r0,155r-55,0v-13,-105,-65,-145,-183,-146v-95,0,-156,36,-158,123v-3,128,143,130,249,168v111,40,184,73,184,200v0,153,-106,213,-270,213"},"T":{"d":"159,0r0,-52r93,0r0,-619r-169,0r0,114r-60,0r0,-172r557,0r0,172r-60,0r0,-114r-169,0r0,619r93,0r0,52r-285,0"},"U":{"d":"72,-677r-63,0r0,-52r225,0r0,52r-63,0r0,377v0,181,37,250,149,250v119,0,150,-84,150,-250r0,-377r-63,0r0,-52r186,0r0,52r-63,0r0,387v0,210,-56,304,-228,304v-172,0,-230,-94,-230,-304r0,-387"},"V":{"d":"155,-677r167,560r170,-560r-52,0r0,-52r154,0r0,52r-41,0r-215,677r-84,0r-211,-677r-43,0r0,-52r206,0r0,52r-51,0"},"W":{"d":"467,0r-80,0r-93,-390r-100,390r-80,0r-77,-677r-32,0r0,-52r159,0r0,52r-44,0r56,536r101,-385r79,0r82,364r73,-515r-44,0r0,-52r130,0r0,52r-32,0"},"X":{"d":"60,-52r-54,0r0,52r181,0r0,-52r-64,0r156,-245r143,245r-57,0r0,52r229,0r0,-52r-48,0r-199,-336r175,-289r52,0r0,-52r-179,0r0,52r64,0r-142,237r-135,-237r56,0r0,-52r-229,0r0,52r48,0r192,329"},"Y":{"d":"189,0r0,-52r63,0r0,-262r-195,-363r-38,0r0,-52r211,0r0,52r-55,0r152,295r156,-295r-52,0r0,-52r152,0r0,52r-39,0r-193,354r0,271r63,0r0,52r-225,0"},"Z":{"d":"45,0r0,-35r379,-634r-302,0r0,109r-60,0r0,-169r491,0r0,35r-379,634r337,0r0,-102r60,0r0,162r-526,0"},"[":{"d":"188,-760r226,0r0,52r-133,0r0,788r133,0r0,52r-226,0r0,-892"},"\\":{"d":"210,-729r260,822r-78,0r-260,-822r78,0"},"]":{"d":"415,-760r0,892r-227,0r0,-52r134,0r0,-788r-134,0r0,-52r227,0"},"^":{"d":"344,-729r223,272r-87,0r-179,-193r-179,193r-87,0r223,-272r86,0"},"_":{"d":"551,197r0,39r-500,0r0,-39r500,0"},"`":{"d":"286,-799r126,184r-56,0r-166,-184r96,0"},"a":{"d":"288,-38v73,0,125,-51,124,-125r0,-110r-116,0v-85,0,-131,35,-132,117v-1,73,50,118,124,118xm282,-533v142,-1,220,71,220,209r0,272r56,0r0,52r-146,0r0,-56v-37,45,-83,69,-160,70v-111,2,-188,-63,-188,-170v1,-116,94,-171,222,-169r126,0v10,-104,-39,-161,-136,-160v-72,0,-115,34,-126,97r-46,0r0,-105v53,-24,110,-39,178,-40"},"b":{"d":"340,14v-84,0,-124,-35,-156,-95r0,81r-151,0r0,-52r61,0r0,-656r-61,0r0,-52r151,0r0,322v32,-61,72,-95,156,-95v131,0,203,130,203,273v0,145,-72,274,-203,274xm314,-477v-113,0,-130,114,-130,243v0,110,34,192,130,192v103,0,131,-98,131,-218v-1,-122,-29,-217,-131,-217"},"c":{"d":"321,-34v84,0,125,-47,140,-122r72,0v-23,105,-91,170,-213,170v-154,1,-251,-116,-251,-274v0,-158,97,-274,251,-273v77,0,138,19,196,46r0,133r-52,0v-13,-86,-51,-131,-143,-131v-112,0,-147,95,-147,225v0,130,33,226,147,226"},"d":{"d":"263,-533v84,0,124,34,156,95r0,-270r-60,0r0,-52r150,0r0,708r61,0r0,52r-151,0r0,-81v-32,60,-72,95,-156,95v-130,0,-202,-129,-202,-274v0,-144,71,-273,202,-273xm289,-42v113,0,130,-113,130,-243v0,-109,-34,-192,-130,-192v-102,0,-130,95,-130,217v0,122,27,218,130,218"},"e":{"d":"55,-260v0,-156,95,-274,246,-273v166,0,245,111,246,283r-387,0v-2,129,41,216,156,216v86,0,132,-49,150,-123r72,0v-27,109,-100,170,-231,171v-154,1,-252,-115,-252,-274xm441,-302v-3,-108,-40,-183,-140,-183v-96,0,-133,79,-141,183r281,0"},"f":{"d":"398,-760v49,0,92,10,130,24r0,99r-47,0v-1,-50,-28,-75,-80,-75v-100,0,-91,93,-91,193r195,0r0,52r-195,0r0,415r145,0r0,52r-341,0r0,-52r106,0r0,-415r-123,0r0,-52r123,0v-12,-151,37,-244,178,-241"},"g":{"d":"263,-533v84,0,124,34,156,95r0,-81r151,0r0,52r-61,0r0,456v0,148,-87,234,-237,233v-74,0,-134,-14,-188,-37r0,-109r47,0v12,69,55,96,135,98v139,3,160,-107,153,-255v-32,60,-72,95,-156,95v-130,0,-202,-129,-202,-274v0,-144,71,-273,202,-273xm289,-42v111,0,130,-114,130,-243v0,-109,-34,-192,-130,-192v-102,0,-130,95,-130,217v0,122,27,218,130,218"},"h":{"d":"319,-467v-172,0,-120,246,-128,415r53,0r0,52r-199,0r0,-52r56,0r0,-656r-61,0r0,-52r151,0r0,333v30,-61,76,-106,157,-106v123,0,168,72,167,203r0,278r55,0r0,52r-198,0r0,-52r53,0r0,-250v-3,-111,-11,-165,-106,-165"},"i":{"d":"298,-625v-30,0,-56,-26,-56,-55v0,-29,26,-56,56,-56v29,0,54,27,54,56v0,29,-25,55,-54,55xm356,-52r166,0r0,52r-402,0r0,-52r146,0r0,-415r-106,0r0,-52r196,0r0,467"},"j":{"d":"349,-625v-31,0,-56,-25,-56,-55v0,-30,26,-56,56,-56v29,0,55,27,55,56v0,29,-26,55,-55,55xm228,174v68,0,87,-48,87,-123r0,-518r-145,0r0,-52r235,0r0,570v0,106,-69,173,-179,171v-52,-1,-92,-12,-129,-32r0,-107r46,0v5,58,27,91,85,91"},"k":{"d":"258,0r-202,0r0,-52r56,0r0,-656r-61,0r0,-52r151,0r0,495r219,-202r-50,0r0,-52r185,0r0,52r-64,0r-154,143r197,272r50,0r0,52r-206,0r0,-52r49,0r-155,-213r-71,66r0,147r56,0r0,52"},"l":{"d":"346,-52r156,0r0,52r-402,0r0,-52r156,0r0,-656r-126,0r0,-52r216,0r0,708"},"m":{"d":"263,0r118,0r0,-52r-28,0r0,-237v0,-110,29,-178,71,-178v40,0,50,28,50,147r0,320r121,0r0,-52r-31,0r0,-278v0,-150,-28,-202,-111,-203v-60,-1,-107,67,-108,115v-3,-64,-33,-115,-95,-115v-60,0,-96,41,-108,106r0,-92r-126,0r0,51r36,0r0,416r-31,0r0,52r149,0r0,-52r-28,0r0,-237v0,-110,29,-178,71,-178v40,0,50,25,50,144r0,323"},"n":{"d":"319,-468v-172,0,-120,246,-128,416r53,0r0,52r-199,0r0,-52r56,0r0,-415r-61,0r0,-52r151,0r0,92v30,-61,76,-106,157,-106v123,0,168,72,167,203r0,278r55,0r0,52r-198,0r0,-52r53,0r0,-250v-3,-110,-12,-166,-106,-166"},"o":{"d":"163,-260v0,127,30,226,138,226v108,0,139,-100,139,-226v-1,-126,-31,-225,-139,-225v-108,0,-138,99,-138,225xm540,-260v0,156,-90,274,-239,274v-149,0,-238,-119,-238,-274v0,-156,89,-273,238,-273v148,0,239,118,239,273"},"p":{"d":"313,-477v-113,0,-130,114,-130,243v0,110,34,192,130,192v103,0,131,-98,131,-218v-1,-122,-29,-217,-131,-217xm339,14v-84,0,-124,-35,-156,-95r0,237r60,0r0,52r-211,0r0,-52r61,0r0,-623r-61,0r0,-52r151,0r0,81v32,-61,72,-95,156,-95v131,0,203,130,203,273v0,145,-72,274,-203,274"},"q":{"d":"270,-533v84,0,124,34,156,95r0,-81r151,0r0,52r-61,0r0,623r61,0r0,52r-211,0r0,-52r60,0r0,-237v-32,60,-72,95,-156,95v-130,0,-202,-129,-202,-274v0,-144,71,-273,202,-273xm296,-42v113,0,130,-113,130,-243v0,-109,-34,-192,-130,-192v-102,0,-130,95,-130,217v0,122,27,218,130,218"},"r":{"d":"425,-533v35,0,66,5,97,13r0,130r-52,0v-3,-50,-26,-77,-77,-77v-96,0,-138,74,-137,178r0,237r104,0r0,52r-275,0r0,-52r81,0r0,-416r-86,0r0,-51r176,0r0,92v32,-66,79,-104,169,-106"},"s":{"d":"504,-144v6,183,-275,185,-406,115r0,-121r52,0v2,81,52,116,138,116v71,0,124,-24,124,-89v0,-88,-111,-92,-186,-122v-73,-29,-127,-53,-127,-136v0,-103,84,-154,197,-152v67,1,126,19,180,42r0,113r-52,0v-2,-68,-52,-108,-125,-107v-67,0,-115,21,-115,80v0,86,109,88,181,115v81,30,136,56,139,146"},"t":{"d":"350,14v-107,0,-142,-42,-142,-151r0,-330r-140,0r0,-52r140,0r0,-161r90,0r0,161r204,0r0,52r-204,0r0,330v3,74,0,103,60,103v51,0,68,-32,68,-88r68,0v-6,93,-48,136,-144,136"},"u":{"d":"288,-52v172,0,120,-246,128,-415r-53,0r0,-52r143,0r0,467r60,0r0,52r-150,0r0,-92v-28,61,-76,106,-156,106v-124,0,-167,-72,-168,-203r0,-278r-56,0r0,-52r146,0r0,302v3,110,11,165,106,165"},"v":{"d":"268,0r-190,-467r-60,0r0,-52r240,0r0,52r-84,0r146,357r146,-357r-78,0r0,-52r196,0r0,52r-58,0r-192,467r-66,0"},"w":{"d":"351,-389r73,287r89,-365r-45,0r0,-52r128,0r0,52r-28,0r-113,467r-75,0r-81,-258r-78,258r-72,0r-105,-467r-28,0r0,-52r150,0r0,52r-44,0r78,365r88,-287r63,0"},"x":{"d":"310,-317r109,-150r-70,0r0,-52r200,0r0,52r-69,0r-139,192r162,223r68,0r0,52r-240,0r0,-52r66,0r-113,-155r-113,155r67,0r0,52r-197,0r0,-52r69,0r143,-197r-158,-218r-64,0r0,-52r232,0r0,52r-62,0"},"y":{"d":"100,108v-4,60,64,79,102,47v29,-25,51,-102,70,-146r-194,-476r-50,0r0,-52r220,0r0,52r-74,0r146,357r146,-357r-68,0r0,-52r176,0r0,52r-48,0r-238,584v-30,71,-51,105,-138,105v-35,0,-66,-6,-96,-15r0,-99r46,0"},"z":{"d":"76,0r0,-42r325,-425r-257,0r0,90r-52,0r0,-142r425,0r0,42r-325,425r282,0r0,-94r52,0r0,146r-450,0"},"{":{"d":"350,0v-5,108,41,113,144,112r0,51v-165,0,-238,-15,-234,-180r0,-126v2,-109,-42,-134,-152,-130r0,-51v108,3,152,-21,152,-130r0,-126v-3,-165,67,-180,234,-180r0,51r-33,0v-95,2,-111,18,-111,112r0,140v-1,106,-27,136,-112,158v86,24,112,52,112,159r0,140"},"|":{"d":"341,-764r0,1000r-79,0r0,-1000r79,0"},"}":{"d":"342,-17v3,165,-66,180,-234,180r0,-51r34,0v95,-2,110,-19,110,-112r0,-140v2,-107,26,-135,112,-159v-85,-22,-112,-52,-112,-158r0,-140v6,-108,-40,-113,-144,-112r0,-51v166,0,238,15,234,180r0,126v-2,110,43,133,152,130r0,51v-109,-4,-152,20,-152,130r0,126"},"~":{"d":"412,-321v63,-3,101,-33,139,-73r0,72v-43,45,-76,79,-145,84v-51,4,-162,-71,-217,-68v-63,3,-100,33,-138,73r0,-74v43,-44,77,-77,145,-82v51,-4,160,71,216,68"},"\u00a0":{},"\u00a1":{"d":"301,-613v-35,0,-65,-30,-65,-65v0,-35,30,-65,65,-65v35,0,65,30,65,65v0,35,-30,65,-65,65xm238,0r33,-401r0,-123r60,0v-3,189,22,350,33,524r-126,0"},"\u00a2":{"d":"301,-484v-92,15,-118,105,-118,224v0,121,26,209,118,225r0,-449xm347,-35v60,-9,93,-58,104,-121r68,0v-19,95,-75,156,-172,169r0,132r-46,0r0,-132v-136,-11,-218,-122,-218,-273v0,-152,82,-263,218,-272r0,-130r46,0r0,130v61,5,110,21,156,45r0,133r-49,0v-10,-74,-39,-119,-107,-130r0,449"},"\u00a3":{"d":"370,-742v56,0,104,9,147,24r0,120r-48,0v-5,-59,-39,-94,-100,-96v-137,-4,-112,164,-114,300r189,0r0,52r-189,0r0,283r219,0r0,-111r54,0r0,170r-454,0r0,-52r89,0r0,-290r-89,0r0,-52r89,0r0,-144v0,-134,72,-204,207,-204"},"\u00a4":{"d":"188,-479v52,-54,171,-54,226,-2r96,-101r43,46r-95,102v49,59,52,183,-1,240r95,101r-45,46r-95,-100v-52,55,-170,52,-226,2r-94,100r-43,-46r94,-101v-47,-61,-51,-184,1,-241r-94,-101r43,-46xm301,-182v69,0,123,-62,123,-132v0,-69,-54,-130,-123,-130v-69,0,-124,61,-124,130v0,70,54,132,124,132"},"\u00a5":{"d":"170,0r0,-52r87,0r0,-179r-185,0r0,-51r185,0r0,-32r-37,-69r-148,0r0,-51r120,0r-131,-243r-64,0r0,-52r254,0r0,52r-80,0r157,295r156,-295r-77,0r0,-52r198,0r0,52r-65,0r-130,243r125,0r0,51r-153,0r-33,60r0,41r186,0r0,51r-186,0r0,179r88,0r0,52r-267,0"},"\u00a6":{"d":"341,-199r0,370r-79,0r0,-370r79,0xm341,-699r0,370r-79,0r0,-370r79,0"},"\u00a7":{"d":"369,-196v55,-29,81,-112,23,-162v-24,-21,-75,-55,-156,-99v-35,25,-55,41,-60,89v-5,42,85,114,193,172xm307,-742v56,0,104,11,149,27r0,99r-45,0v-2,-49,-40,-76,-95,-76v-60,0,-100,32,-105,88v-6,66,231,164,265,215v17,26,30,53,30,85v-2,74,-44,104,-107,129v46,28,74,61,74,129v0,93,-82,141,-184,141v-64,0,-112,-10,-160,-27r0,-102r45,0v3,58,42,79,106,79v63,1,105,-32,110,-89v7,-78,-236,-172,-263,-222v-21,-25,-31,-53,-31,-85v2,-71,49,-109,111,-126v-46,-28,-79,-60,-79,-124v0,-90,82,-143,179,-141"},"\u00a8":{"d":"149,-709v0,-31,26,-57,57,-57v30,0,57,26,57,57v0,33,-25,57,-57,57v-32,0,-58,-24,-57,-57xm339,-709v0,-31,27,-57,57,-57v31,0,57,26,57,57v1,33,-25,57,-57,57v-32,0,-57,-24,-57,-57"},"\u00a9":{"d":"302,-185v49,0,59,-43,67,-95r35,0v-9,72,-34,133,-102,133v-87,0,-120,-108,-120,-215v0,-107,32,-216,120,-216v41,0,66,16,94,37r0,104r-25,0v-6,-58,-18,-103,-69,-103v-94,0,-78,235,-53,311v10,30,30,44,53,44xm147,-618v43,-71,137,-145,237,-80v143,92,172,422,71,591v-47,78,-142,142,-237,80v-142,-93,-172,-422,-71,-591xm474,-482v-27,-114,-113,-247,-244,-170v-126,74,-148,365,-61,510v40,67,124,123,204,69v97,-66,138,-251,101,-409"},"\u00aa":{"d":"280,-742v109,-1,175,45,176,147r0,185r38,0r0,41r-110,0r0,-39v-66,81,-282,61,-276,-70v5,-118,143,-124,276,-118v7,-76,-37,-109,-108,-109v-56,0,-91,22,-100,68r-36,0r0,-77v43,-15,87,-28,140,-28xm284,-401v56,1,100,-32,100,-86r0,-72v-90,0,-198,-13,-196,77v1,56,36,81,96,81xm128,-312r340,0r0,51r-340,0r0,-51"},"\u00ab":{"d":"518,-517r0,56r-145,168r145,168r0,56r-229,-204r0,-40xm306,-517r0,56r-145,168r145,168r0,56r-229,-204r0,-40"},"\u00ac":{"d":"79,-421r444,0r0,281r-55,0r0,-202r-389,0r0,-79"},"\u00ad":{"d":"176,-306r250,0r0,76r-250,0r0,-76"},"\u00ae":{"d":"348,-460v0,-58,-25,-80,-85,-73r0,147v60,7,85,-15,85,-74xm392,-458v0,50,-16,83,-57,90v46,30,47,109,70,163r22,0r0,33r-56,0v-18,-52,-32,-128,-57,-170v-9,-15,-30,-11,-51,-11r0,148r25,0r0,33r-93,0r0,-33r24,0r0,-328r-24,0r0,-33r122,0v57,1,75,46,75,108xm474,-482v-27,-114,-113,-247,-244,-170v-126,74,-148,365,-61,510v40,67,124,123,204,69v97,-66,138,-251,101,-409xm147,-618v43,-71,137,-145,237,-80v143,92,172,422,71,591v-47,78,-142,142,-237,80v-142,-93,-172,-422,-71,-591"},"\u00af":{"d":"155,-745r292,0r0,72r-292,0r0,-72"},"\u00b0":{"d":"389,-586v0,-47,-41,-89,-88,-89v-49,0,-88,41,-88,89v0,49,40,87,88,87v49,0,88,-40,88,-87xm146,-586v0,-85,70,-160,155,-156v93,4,152,62,155,156v3,84,-71,154,-156,154v-86,0,-154,-68,-154,-154"},"\u00b1":{"d":"43,-83r516,0r0,83r-516,0r0,-83xm342,-572r0,161r217,0r0,83r-217,0r0,162r-82,0r0,-162r-217,0r0,-83r217,0r0,-161r82,0"},"\u00b2":{"d":"283,-706v-54,0,-82,27,-90,73r-34,0r0,-77v37,-18,83,-32,134,-32v81,-2,151,42,151,115v0,85,-155,194,-220,258r188,0r0,-53r36,0r0,96r-294,0r0,-37v62,-60,152,-122,199,-191v42,-62,11,-152,-70,-152"},"\u00b3":{"d":"282,-706v-51,0,-80,19,-86,63r-34,0r0,-74v93,-38,273,-45,271,76v-1,53,-46,84,-99,92v70,10,117,41,118,115v4,133,-202,133,-302,88r0,-83r34,0v4,51,39,74,96,74v59,0,96,-27,96,-83v1,-71,-48,-98,-126,-92r0,-36v64,2,110,-14,110,-72v-1,-46,-31,-68,-78,-68"},"\u00b4":{"d":"316,-800r96,0r-166,184r-56,0"},"\u00b6":{"d":"68,-523v-1,-125,91,-206,218,-206r248,0r0,52r-55,0r0,773r-49,0r0,-773r-106,0r0,773r-49,0r0,-413v-124,-8,-207,-80,-207,-206"},"\u00b7":{"d":"301,-282v-35,0,-65,-30,-65,-65v0,-35,30,-65,65,-65v35,0,65,30,65,65v0,35,-30,65,-65,65"},"\u00b8":{"d":"336,86v0,-33,-23,-57,-43,-86r47,0v32,33,60,62,62,110v4,89,-124,95,-202,71r0,-64v42,22,136,32,136,-31"},"\u00b9":{"d":"190,-326r0,-41r84,0r0,-310r-98,52r0,-46r116,-63r51,0r0,367r83,0r0,41r-236,0"},"\u00ba":{"d":"197,-551v0,90,26,154,104,154v78,0,104,-65,104,-154v0,-89,-26,-154,-104,-154v-78,0,-104,67,-104,154xm490,-551v0,113,-76,191,-189,191v-113,0,-189,-78,-189,-191v0,-112,76,-191,189,-191v113,0,189,79,189,191xm133,-312r336,0r0,51r-336,0r0,-51"},"\u00bb":{"d":"293,-517r229,204r0,40r-229,204r0,-56r145,-168r-145,-168r0,-56xm81,-517r229,204r0,40r-229,204r0,-56r145,-168r-145,-168r0,-56"},"\u00bf":{"d":"338,-743v35,0,65,30,65,65v0,35,-30,65,-65,65v-35,0,-65,-30,-65,-65v0,-35,30,-65,65,-65xm327,-35v80,-1,125,-50,137,-124r47,0r0,127v-58,25,-115,44,-186,45v-133,3,-234,-68,-234,-193v0,-139,90,-202,217,-231r0,-124r60,0r0,160v-103,25,-172,81,-174,196v-1,85,50,144,133,144"},"\u00c0":{"d":"109,-52r50,0r0,52r-145,0r0,-52r34,0r205,-677r82,0r217,677r42,0r0,52r-205,0r0,-52r51,0r-49,-160r-236,0xm170,-264r205,0r-106,-347xm406,-927r89,129r-57,0r-128,-129r96,0"},"\u00c1":{"d":"109,-52r50,0r0,52r-145,0r0,-52r34,0r205,-677r82,0r217,677r42,0r0,52r-205,0r0,-52r51,0r-49,-160r-236,0xm170,-264r205,0r-106,-347xm399,-927r96,0r-128,129r-57,0"},"\u00c2":{"d":"109,-52r50,0r0,52r-145,0r0,-52r34,0r205,-677r82,0r217,677r42,0r0,52r-205,0r0,-52r51,0r-49,-160r-236,0xm170,-264r205,0r-106,-347xm359,-927r86,0r113,129r-57,0r-99,-79r-99,79r-57,0"},"\u00c3":{"d":"109,-52r50,0r0,52r-145,0r0,-52r34,0r205,-677r82,0r217,677r42,0r0,52r-205,0r0,-52r51,0r-49,-160r-236,0xm170,-264r205,0r-106,-347xm563,-921v6,97,-93,133,-167,84v-18,-12,-35,-27,-62,-27v-27,0,-45,22,-46,50r-47,0v-6,-95,92,-133,167,-83v18,12,38,25,65,26v28,1,43,-21,43,-50r47,0"},"\u00c4":{"d":"109,-52r50,0r0,52r-145,0r0,-52r34,0r205,-677r82,0r217,677r42,0r0,52r-205,0r0,-52r51,0r-49,-160r-236,0xm170,-264r205,0r-106,-347xm250,-863v0,-29,26,-57,57,-57v30,0,57,28,57,57v0,32,-25,57,-57,57v-32,0,-57,-26,-57,-57xm440,-863v0,-29,27,-57,57,-57v31,0,57,28,57,57v0,31,-25,57,-57,57v-32,0,-57,-25,-57,-57"},"\u00c5":{"d":"298,-720v35,0,61,-36,61,-74v0,-37,-26,-74,-61,-74v-36,0,-62,35,-62,74v0,39,27,74,62,74xm166,-264r221,0r-110,-347xm409,-794v0,54,-25,98,-61,118r200,624r59,0r0,52r-220,0r0,-52r68,0r-51,-160r-255,0r-51,160r67,0r0,52r-170,0r0,-52r53,0r198,-624v-37,-23,-59,-60,-60,-118v-1,-68,48,-134,112,-134v64,0,111,66,111,134"},"\u00c6":{"d":"146,-264r144,0r0,-413r-30,0xm234,0r0,-52r56,0r0,-160r-158,0r-45,160r48,0r0,52r-124,0r0,-52r39,0r172,-625r-63,0r0,-52r427,0r0,162r-36,0r0,-102r-201,0r0,244r143,0r0,-91r36,0r0,242r-36,0r0,-91r-143,0r0,305r206,0r0,-102r36,0r0,162r-357,0"},"\u00c7":{"d":"317,-38v84,0,116,-70,132,-155r90,0v-27,120,-91,207,-223,207v-139,0,-208,-108,-240,-220v-67,-233,18,-539,246,-536v80,1,139,29,202,63r0,168r-66,0v-14,-104,-42,-179,-141,-179v-49,0,-84,29,-111,83v-48,97,-48,389,0,486v27,54,62,83,111,83xm825,86v0,-33,-23,-57,-43,-86r47,0v32,33,60,62,62,110v4,89,-124,95,-202,71r0,-64v42,22,136,32,136,-31"},"\u00c8":{"d":"33,0r0,-52r63,0r0,-625r-63,0r0,-52r497,0r0,162r-60,0r0,-102r-275,0r0,244r179,0r0,-91r60,0r0,242r-60,0r0,-91r-179,0r0,305r283,0r0,-102r60,0r0,162r-505,0xm368,-927r90,129r-58,0r-128,-129r96,0"},"\u00c9":{"d":"33,0r0,-52r63,0r0,-625r-63,0r0,-52r497,0r0,162r-60,0r0,-102r-275,0r0,244r179,0r0,-91r60,0r0,242r-60,0r0,-91r-179,0r0,305r283,0r0,-102r60,0r0,162r-505,0xm362,-927r96,0r-128,129r-58,0"},"\u00ca":{"d":"33,0r0,-52r63,0r0,-625r-63,0r0,-52r497,0r0,162r-60,0r0,-102r-275,0r0,244r179,0r0,-91r60,0r0,242r-60,0r0,-91r-179,0r0,305r283,0r0,-102r60,0r0,162r-505,0xm322,-927r86,0r113,129r-57,0r-99,-79r-99,79r-57,0"},"\u00cb":{"d":"33,0r0,-52r63,0r0,-625r-63,0r0,-52r497,0r0,162r-60,0r0,-102r-275,0r0,244r179,0r0,-91r60,0r0,242r-60,0r0,-91r-179,0r0,305r283,0r0,-102r60,0r0,162r-505,0xm213,-863v0,-29,26,-57,57,-57v30,0,57,28,57,57v0,32,-25,57,-57,57v-32,0,-57,-26,-57,-57xm403,-863v0,-29,27,-57,57,-57v31,0,57,28,57,57v0,31,-25,57,-57,57v-32,0,-57,-25,-57,-57"},"\u00cc":{"d":"351,-52r143,0r0,52r-386,0r0,-52r144,0r0,-625r-144,0r0,-52r386,0r0,52r-143,0r0,625xm356,-927r89,129r-57,0r-128,-129r96,0"},"\u00cd":{"d":"351,-52r143,0r0,52r-386,0r0,-52r144,0r0,-625r-144,0r0,-52r386,0r0,52r-143,0r0,625xm349,-927r96,0r-128,129r-57,0"},"\u00ce":{"d":"350,-52r143,0r0,52r-385,0r0,-52r143,0r0,-625r-143,0r0,-52r385,0r0,52r-143,0r0,625xm309,-927r86,0r113,129r-57,0r-99,-79r-99,79r-57,0"},"\u00cf":{"d":"350,-52r143,0r0,52r-385,0r0,-52r143,0r0,-625r-143,0r0,-52r385,0r0,52r-143,0r0,625xm200,-863v0,-29,26,-57,57,-57v30,0,57,28,57,57v0,32,-25,57,-57,57v-32,0,-57,-26,-57,-57xm390,-863v0,-29,27,-57,57,-57v31,0,57,28,57,57v0,31,-25,57,-57,57v-32,0,-57,-25,-57,-57"},"\u00d0":{"d":"475,-365v0,-178,-59,-308,-218,-312r-67,0r0,265r121,0r0,61r-121,0r0,299r67,0v158,-4,218,-135,218,-313xm558,-365v0,212,-98,364,-295,365r-215,0r0,-52r69,0r0,-299r-73,0r0,-61r73,0r0,-265r-69,0r0,-52r215,0v199,0,295,153,295,364"},"\u00d1":{"d":"10,0r0,-52r58,0r0,-625r-58,0r0,-52r147,0r317,555r0,-503r-58,0r0,-52r176,0r0,52r-58,0r0,691r-59,0r-347,-594r0,528r88,0r0,52r-206,0xm577,-921v6,97,-93,133,-167,84v-18,-12,-35,-27,-62,-27v-27,0,-45,22,-46,50r-47,0v-6,-95,92,-133,167,-83v18,12,38,25,65,26v28,1,43,-21,43,-50r47,0"},"\u00d2":{"d":"301,-38v96,0,133,-91,133,-326v0,-192,-16,-326,-133,-326v-117,0,-133,133,-133,326v0,235,37,326,133,326xm301,14v-175,0,-245,-155,-245,-378v0,-222,69,-378,245,-378v176,0,244,147,244,378v0,222,-68,378,-244,378xm466,-927r88,129r-56,0r-128,-129r96,0"},"\u00d3":{"d":"301,-38v96,0,133,-91,133,-326v0,-192,-16,-326,-133,-326v-117,0,-133,133,-133,326v0,235,37,326,133,326xm301,14v-175,0,-245,-155,-245,-378v0,-222,69,-378,245,-378v176,0,244,147,244,378v0,222,-68,378,-244,378xm458,-927r96,0r-128,129r-56,0"},"\u00d4":{"d":"301,-38v96,0,133,-91,133,-326v0,-192,-16,-326,-133,-326v-117,0,-133,133,-133,326v0,235,37,326,133,326xm301,14v-175,0,-245,-155,-245,-378v0,-222,69,-378,245,-378v176,0,244,147,244,378v0,222,-68,378,-244,378xm419,-927r86,0r113,129r-57,0r-99,-79r-99,79r-57,0"},"\u00d5":{"d":"301,-38v96,0,133,-91,133,-326v0,-192,-16,-326,-133,-326v-117,0,-133,133,-133,326v0,235,37,326,133,326xm301,14v-175,0,-245,-155,-245,-378v0,-222,69,-378,245,-378v176,0,244,147,244,378v0,222,-68,378,-244,378xm623,-921v6,97,-93,133,-167,84v-18,-12,-35,-27,-62,-27v-27,0,-45,22,-46,50r-47,0v-6,-95,92,-133,167,-83v18,12,38,25,65,26v28,1,43,-21,43,-50r47,0"},"\u00d6":{"d":"301,-38v96,0,133,-91,133,-326v0,-192,-16,-326,-133,-326v-117,0,-133,133,-133,326v0,235,37,326,133,326xm301,14v-175,0,-245,-155,-245,-378v0,-222,69,-378,245,-378v176,0,244,147,244,378v0,222,-68,378,-244,378xm310,-863v0,-29,26,-57,57,-57v30,0,57,28,57,57v0,32,-25,57,-57,57v-32,0,-57,-26,-57,-57xm500,-863v0,-29,27,-57,57,-57v31,0,57,28,57,57v0,31,-25,57,-57,57v-32,0,-57,-25,-57,-57"},"\u00d8":{"d":"435,-605v-28,-51,-64,-85,-133,-85v-58,0,-101,28,-132,82v-50,87,-59,316,-22,436xm167,-125v27,51,66,87,135,87v58,0,101,-29,132,-82v51,-87,58,-317,20,-437xm302,-742v78,0,130,34,170,82r63,-97r29,35r-66,99v41,68,61,152,62,259v3,197,-85,378,-258,378v-79,0,-130,-36,-171,-84r-65,98r-28,-34r67,-101v-40,-67,-61,-151,-62,-257v-2,-196,87,-378,259,-378"},"\u00d9":{"d":"72,-677r-63,0r0,-52r225,0r0,52r-63,0r0,377v0,181,37,250,149,250v119,0,150,-84,150,-250r0,-377r-63,0r0,-52r186,0r0,52r-63,0r0,387v0,210,-56,304,-228,304v-172,0,-230,-94,-230,-304r0,-387xm352,-927r88,129r-56,0r-128,-129r96,0"},"\u00da":{"d":"72,-677r-63,0r0,-52r225,0r0,52r-63,0r0,377v0,181,37,250,149,250v119,0,150,-84,150,-250r0,-377r-63,0r0,-52r186,0r0,52r-63,0r0,387v0,210,-56,304,-228,304v-172,0,-230,-94,-230,-304r0,-387xm344,-927r96,0r-128,129r-56,0"},"\u00db":{"d":"72,-677r-63,0r0,-52r225,0r0,52r-63,0r0,377v0,181,37,250,149,250v119,0,150,-84,150,-250r0,-377r-63,0r0,-52r186,0r0,52r-63,0r0,387v0,210,-56,304,-228,304v-172,0,-230,-94,-230,-304r0,-387xm305,-927r86,0r113,129r-57,0r-99,-79r-99,79r-57,0"},"\u00dc":{"d":"72,-677r-63,0r0,-52r225,0r0,52r-63,0r0,377v0,181,37,250,149,250v119,0,150,-84,150,-250r0,-377r-63,0r0,-52r186,0r0,52r-63,0r0,387v0,210,-56,304,-228,304v-172,0,-230,-94,-230,-304r0,-387xm196,-863v0,-29,26,-57,57,-57v30,0,57,28,57,57v0,32,-25,57,-57,57v-32,0,-57,-26,-57,-57xm386,-863v0,-29,27,-57,57,-57v31,0,57,28,57,57v0,31,-25,57,-57,57v-32,0,-57,-25,-57,-57"},"\u00dd":{"d":"189,0r0,-52r63,0r0,-262r-195,-363r-38,0r0,-52r211,0r0,52r-55,0r152,295r156,-295r-52,0r0,-52r152,0r0,52r-39,0r-193,354r0,271r63,0r0,52r-225,0xm378,-927r96,0r-128,129r-56,0"},"\u00de":{"d":"460,-365v0,-95,-42,-153,-132,-153r-115,0r0,306r115,0v90,0,132,-58,132,-153xm560,-365v0,126,-85,206,-211,206r-136,0r0,107r100,0r0,52r-271,0r0,-52r83,0r0,-625r-83,0r0,-52r271,0r0,52r-100,0r0,107r136,0v127,-1,211,80,211,205"},"\u00df":{"d":"298,-367v-55,-101,17,-216,122,-224v-4,-73,-43,-121,-117,-121v-82,0,-111,45,-111,131r0,581r-159,0r0,-52r78,0r0,-527v0,-116,73,-182,192,-181v131,1,191,74,197,205v-98,-9,-177,56,-135,142v66,81,204,114,204,256v0,101,-80,173,-183,171v-56,-1,-105,-15,-146,-35r0,-114r48,0v2,63,33,98,95,101v93,5,130,-106,88,-180v-29,-50,-143,-99,-173,-153"},"\u00e0":{"d":"288,-38v73,0,125,-51,124,-125r0,-110r-116,0v-85,0,-131,35,-132,117v-1,73,50,118,124,118xm282,-533v142,-1,220,71,220,209r0,272r56,0r0,52r-146,0r0,-56v-37,45,-83,69,-160,70v-111,2,-188,-63,-188,-170v1,-116,94,-171,222,-169r126,0v10,-104,-39,-161,-136,-160v-72,0,-115,34,-126,97r-46,0r0,-105v53,-24,110,-39,178,-40xm316,-799r126,184r-56,0r-166,-184r96,0"},"\u00e1":{"d":"288,-38v73,0,125,-51,124,-125r0,-110r-116,0v-85,0,-131,35,-132,117v-1,73,50,118,124,118xm282,-533v142,-1,220,71,220,209r0,272r56,0r0,52r-146,0r0,-56v-37,45,-83,69,-160,70v-111,2,-188,-63,-188,-170v1,-116,94,-171,222,-169r126,0v10,-104,-39,-161,-136,-160v-72,0,-115,34,-126,97r-46,0r0,-105v53,-24,110,-39,178,-40xm346,-800r96,0r-166,184r-56,0"},"\u00e2":{"d":"288,-38v73,0,125,-51,124,-125r0,-110r-116,0v-85,0,-131,35,-132,117v-1,73,50,118,124,118xm282,-533v142,-1,220,71,220,209r0,272r56,0r0,52r-146,0r0,-56v-37,45,-83,69,-160,70v-111,2,-188,-63,-188,-170v1,-116,94,-171,222,-169r126,0v10,-104,-39,-161,-136,-160v-72,0,-115,34,-126,97r-46,0r0,-105v53,-24,110,-39,178,-40xm290,-800r82,0r115,184r-57,0r-99,-127r-99,127r-57,0"},"\u00e3":{"d":"288,-38v73,0,125,-51,124,-125r0,-110r-116,0v-85,0,-131,35,-132,117v-1,73,50,118,124,118xm282,-533v142,-1,220,71,220,209r0,272r56,0r0,52r-146,0r0,-56v-37,45,-83,69,-160,70v-111,2,-188,-63,-188,-170v1,-116,94,-171,222,-169r126,0v10,-104,-39,-161,-136,-160v-72,0,-115,34,-126,97r-46,0r0,-105v53,-24,110,-39,178,-40xm492,-777v2,88,-44,159,-129,131v-37,-13,-56,-63,-100,-69v-34,3,-44,36,-46,76r-47,0v-2,-88,44,-159,129,-131v38,12,54,69,100,69v34,0,44,-35,46,-76r47,0"},"\u00e4":{"d":"288,-38v73,0,125,-51,124,-125r0,-110r-116,0v-85,0,-131,35,-132,117v-1,73,50,118,124,118xm282,-533v142,-1,220,71,220,209r0,272r56,0r0,52r-146,0r0,-56v-37,45,-83,69,-160,70v-111,2,-188,-63,-188,-170v1,-116,94,-171,222,-169r126,0v10,-104,-39,-161,-136,-160v-72,0,-115,34,-126,97r-46,0r0,-105v53,-24,110,-39,178,-40xm179,-709v0,-31,26,-57,57,-57v30,0,57,26,57,57v0,33,-25,57,-57,57v-32,0,-58,-24,-57,-57xm369,-709v0,-31,27,-57,57,-57v31,0,57,26,57,57v1,33,-25,57,-57,57v-32,0,-57,-24,-57,-57"},"\u00e5":{"d":"288,-38v73,0,125,-51,124,-125r0,-110r-116,0v-85,0,-131,35,-132,117v-1,73,50,118,124,118xm282,-533v142,-1,220,71,220,209r0,272r56,0r0,52r-146,0r0,-56v-37,45,-83,69,-160,70v-111,2,-188,-63,-188,-170v1,-116,94,-171,222,-169r126,0v10,-104,-39,-161,-136,-160v-72,0,-115,34,-126,97r-46,0r0,-105v53,-24,110,-39,178,-40xm331,-878v72,0,134,61,134,134v0,72,-62,134,-134,134v-72,0,-134,-62,-134,-134v0,-73,62,-134,134,-134xm331,-670v41,0,74,-33,74,-74v0,-41,-34,-74,-74,-74v-41,0,-74,33,-74,74v0,41,33,74,74,74"},"\u00e6":{"d":"175,-38v90,0,82,-133,80,-235r-74,0v-64,2,-85,47,-85,117v-1,63,24,118,79,118xm416,14v-64,0,-99,-41,-127,-87v-29,48,-62,87,-128,87v-90,0,-129,-72,-129,-170v0,-100,47,-169,142,-169r81,0v5,-84,-13,-160,-85,-160v-56,0,-77,40,-83,97r-29,0r0,-105v33,-23,66,-40,113,-40v67,0,101,34,122,86v26,-47,58,-86,119,-86v123,0,156,133,158,283r-248,0v0,70,8,127,25,162v17,36,42,54,75,54v63,0,85,-57,96,-123r46,0v-16,97,-53,171,-148,171xm502,-302v-3,-95,-16,-174,-90,-183v-70,10,-84,90,-90,183r180,0"},"\u00e7":{"d":"321,-34v84,0,125,-47,140,-122r72,0v-23,105,-91,170,-213,170v-154,1,-251,-116,-251,-274v0,-158,97,-274,251,-273v77,0,138,19,196,46r0,133r-52,0v-13,-86,-51,-131,-143,-131v-112,0,-147,95,-147,225v0,130,33,226,147,226xm404,86v0,-33,-23,-57,-43,-86r47,0v32,33,60,62,62,110v4,89,-124,95,-202,71r0,-64v42,22,136,32,136,-31"},"\u00e8":{"d":"55,-260v0,-156,95,-274,246,-273v166,0,245,111,246,283r-387,0v-2,129,41,216,156,216v86,0,132,-49,150,-123r72,0v-27,109,-100,170,-231,171v-154,1,-252,-115,-252,-274xm441,-302v-3,-108,-40,-183,-140,-183v-96,0,-133,79,-141,183r281,0xm336,-799r128,184r-58,0r-166,-184r96,0"},"\u00e9":{"d":"55,-260v0,-156,95,-274,246,-273v166,0,245,111,246,283r-387,0v-2,129,41,216,156,216v86,0,132,-49,150,-123r72,0v-27,109,-100,170,-231,171v-154,1,-252,-115,-252,-274xm441,-302v-3,-108,-40,-183,-140,-183v-96,0,-133,79,-141,183r281,0xm366,-800r98,0r-166,184r-58,0"},"\u00ea":{"d":"55,-260v0,-156,95,-274,246,-273v166,0,245,111,246,283r-387,0v-2,129,41,216,156,216v86,0,132,-49,150,-123r72,0v-27,109,-100,170,-231,171v-154,1,-252,-115,-252,-274xm441,-302v-3,-108,-40,-183,-140,-183v-96,0,-133,79,-141,183r281,0xm311,-800r82,0r115,184r-57,0r-99,-127r-99,127r-57,0"},"\u00eb":{"d":"55,-260v0,-156,95,-274,246,-273v166,0,245,111,246,283r-387,0v-2,129,41,216,156,216v86,0,132,-49,150,-123r72,0v-27,109,-100,170,-231,171v-154,1,-252,-115,-252,-274xm441,-302v-3,-108,-40,-183,-140,-183v-96,0,-133,79,-141,183r281,0xm200,-709v0,-31,26,-57,57,-57v30,0,57,26,57,57v0,33,-25,57,-57,57v-32,0,-58,-24,-57,-57xm390,-709v0,-31,27,-57,57,-57v31,0,57,26,57,57v1,33,-25,57,-57,57v-32,0,-57,-24,-57,-57"},"\u00ec":{"d":"468,-52r85,0r0,52r-261,0r0,-52r86,0r0,-415r-86,0r0,-52r176,0r0,467xm452,-799r127,184r-57,0r-166,-184r96,0"},"\u00ed":{"d":"468,-52r85,0r0,52r-261,0r0,-52r86,0r0,-415r-86,0r0,-52r176,0r0,467xm482,-800r97,0r-166,184r-57,0"},"\u00ee":{"d":"488,-52r84,0r0,52r-260,0r0,-52r86,0r0,-415r-86,0r0,-52r176,0r0,467xm446,-800r82,0r114,184r-56,0r-100,-127r-98,127r-58,0"},"\u00ef":{"d":"448,-52r85,0r0,52r-261,0r0,-52r86,0r0,-415r-86,0r0,-52r176,0r0,467xm295,-709v0,-31,26,-57,57,-57v30,0,57,26,57,57v0,33,-25,57,-57,57v-32,0,-58,-24,-57,-57xm485,-709v0,-31,27,-57,57,-57v31,0,57,26,57,57v1,33,-25,57,-57,57v-32,0,-57,-24,-57,-57"},"\u00f0":{"d":"301,-34v180,3,168,-294,100,-419v-27,-5,-51,-9,-81,-9v-123,2,-165,80,-165,214v0,120,41,212,146,214xm131,-760v80,19,147,49,205,92r157,-73r18,38r-140,65v102,93,178,208,181,378v3,158,-97,274,-251,274v-150,0,-251,-114,-251,-267v0,-177,138,-289,328,-250v-17,-39,-43,-72,-71,-105r-157,73r-18,-38r143,-66v-40,-38,-91,-64,-153,-79"},"\u00f1":{"d":"319,-468v-172,0,-120,246,-128,416r53,0r0,52r-199,0r0,-52r56,0r0,-415r-61,0r0,-52r151,0r0,92v30,-61,76,-106,157,-106v123,0,168,72,167,203r0,278r55,0r0,52r-198,0r0,-52r53,0r0,-250v-3,-110,-12,-166,-106,-166xm555,-777v2,88,-44,159,-129,131v-37,-13,-56,-63,-100,-69v-34,3,-44,36,-46,76r-47,0v-2,-88,44,-159,129,-131v38,12,54,69,100,69v34,0,44,-35,46,-76r47,0"},"\u00f2":{"d":"163,-260v0,127,30,226,138,226v108,0,139,-100,139,-226v-1,-126,-31,-225,-139,-225v-108,0,-138,99,-138,225xm540,-260v0,156,-90,274,-239,274v-149,0,-238,-119,-238,-274v0,-156,89,-273,238,-273v148,0,239,118,239,273xm336,-799r127,184r-57,0r-166,-184r96,0"},"\u00f3":{"d":"163,-260v0,127,30,226,138,226v108,0,139,-100,139,-226v-1,-126,-31,-225,-139,-225v-108,0,-138,99,-138,225xm540,-260v0,156,-90,274,-239,274v-149,0,-238,-119,-238,-274v0,-156,89,-273,238,-273v148,0,239,118,239,273xm366,-800r97,0r-166,184r-57,0"},"\u00f4":{"d":"163,-260v0,127,30,226,138,226v108,0,139,-100,139,-226v-1,-126,-31,-225,-139,-225v-108,0,-138,99,-138,225xm540,-260v0,156,-90,274,-239,274v-149,0,-238,-119,-238,-274v0,-156,89,-273,238,-273v148,0,239,118,239,273xm311,-800r82,0r115,184r-57,0r-99,-127r-99,127r-57,0"},"\u00f5":{"d":"163,-260v0,127,30,226,138,226v108,0,139,-100,139,-226v-1,-126,-31,-225,-139,-225v-108,0,-138,99,-138,225xm540,-260v0,156,-90,274,-239,274v-149,0,-238,-119,-238,-274v0,-156,89,-273,238,-273v148,0,239,118,239,273xm513,-777v2,88,-44,159,-129,131v-37,-13,-56,-63,-100,-69v-34,3,-44,36,-46,76r-47,0v-2,-88,44,-159,129,-131v38,12,54,69,100,69v34,0,44,-35,46,-76r47,0"},"\u00f6":{"d":"163,-260v0,127,30,226,138,226v108,0,139,-100,139,-226v-1,-126,-31,-225,-139,-225v-108,0,-138,99,-138,225xm540,-260v0,156,-90,274,-239,274v-149,0,-238,-119,-238,-274v0,-156,89,-273,238,-273v148,0,239,118,239,273xm200,-709v0,-31,26,-57,57,-57v30,0,57,26,57,57v0,33,-25,57,-57,57v-32,0,-58,-24,-57,-57xm390,-709v0,-31,27,-57,57,-57v31,0,57,26,57,57v1,33,-25,57,-57,57v-32,0,-57,-24,-57,-57"},"\u00f8":{"d":"303,-485v-148,-5,-165,201,-132,342r241,-286v-23,-35,-56,-55,-109,-56xm303,-34v149,5,165,-206,131,-347r-241,288v23,36,56,58,110,59xm303,-533v65,0,117,19,155,49r68,-81r37,31r-71,84v39,45,62,110,62,190v0,158,-97,275,-251,274v-68,0,-116,-20,-157,-52r-70,84r-37,-31r73,-87v-38,-47,-60,-107,-60,-188v-2,-159,97,-274,251,-273"},"\u00f9":{"d":"288,-52v172,0,120,-246,128,-415r-53,0r0,-52r143,0r0,467r60,0r0,52r-150,0r0,-92v-28,61,-76,106,-156,106v-124,0,-167,-72,-168,-203r0,-278r-56,0r0,-52r146,0r0,302v3,110,11,165,106,165xm350,-799r128,184r-58,0r-166,-184r96,0"},"\u00fa":{"d":"288,-52v172,0,120,-246,128,-415r-53,0r0,-52r143,0r0,467r60,0r0,52r-150,0r0,-92v-28,61,-76,106,-156,106v-124,0,-167,-72,-168,-203r0,-278r-56,0r0,-52r146,0r0,302v3,110,11,165,106,165xm380,-800r98,0r-166,184r-58,0"},"\u00fb":{"d":"288,-52v172,0,120,-246,128,-415r-53,0r0,-52r143,0r0,467r60,0r0,52r-150,0r0,-92v-28,61,-76,106,-156,106v-124,0,-167,-72,-168,-203r0,-278r-56,0r0,-52r146,0r0,302v3,110,11,165,106,165xm325,-800r82,0r115,184r-57,0r-99,-127r-99,127r-57,0"},"\u00fc":{"d":"288,-52v172,0,120,-246,128,-415r-53,0r0,-52r143,0r0,467r60,0r0,52r-150,0r0,-92v-28,61,-76,106,-156,106v-124,0,-167,-72,-168,-203r0,-278r-56,0r0,-52r146,0r0,302v3,110,11,165,106,165xm214,-709v0,-31,26,-57,57,-57v30,0,57,26,57,57v0,33,-25,57,-57,57v-32,0,-58,-24,-57,-57xm404,-709v0,-31,27,-57,57,-57v31,0,57,26,57,57v1,33,-25,57,-57,57v-32,0,-57,-24,-57,-57"},"\u00fd":{"d":"100,108v-4,60,64,79,102,47v29,-25,51,-102,70,-146r-194,-476r-50,0r0,-52r220,0r0,52r-74,0r146,357r146,-357r-68,0r0,-52r176,0r0,52r-48,0r-238,584v-30,71,-51,105,-138,105v-35,0,-66,-6,-96,-15r0,-99r46,0xm370,-800r97,0r-166,184r-57,0"},"\u00fe":{"d":"334,-477v-114,0,-131,113,-131,243v0,110,34,192,131,192v103,0,132,-97,132,-218v-1,-122,-29,-217,-132,-217xm361,14v-84,0,-127,-35,-158,-95r0,237r80,0r0,52r-246,0r0,-52r81,0r0,-864r-81,0r0,-52r166,0r0,322v31,-61,74,-95,158,-95v132,0,204,129,204,273v0,146,-73,274,-204,274"},"\u00ff":{"d":"100,108v-4,60,64,79,102,47v29,-25,51,-102,70,-146r-194,-476r-50,0r0,-52r220,0r0,52r-74,0r146,357r146,-357r-68,0r0,-52r176,0r0,52r-48,0r-238,584v-30,71,-51,105,-138,105v-35,0,-66,-6,-96,-15r0,-99r46,0xm204,-709v0,-31,25,-57,56,-57v30,0,58,26,58,57v0,33,-26,57,-58,57v-32,0,-57,-24,-56,-57xm394,-709v0,-31,26,-57,56,-57v31,0,58,26,58,57v1,33,-26,57,-58,57v-32,0,-56,-24,-56,-57"},"\u0106":{"d":"317,-38v84,0,116,-70,132,-155r90,0v-27,120,-91,207,-223,207v-139,0,-208,-108,-240,-220v-67,-233,18,-539,246,-536v80,1,139,29,202,63r0,168r-66,0v-14,-104,-42,-179,-141,-179v-49,0,-84,29,-111,83v-48,97,-48,389,0,486v27,54,62,83,111,83xm775,-927r96,0r-128,129r-57,0"},"\u0107":{"d":"321,-34v84,0,125,-47,140,-122r72,0v-23,105,-91,170,-213,170v-154,1,-251,-116,-251,-274v0,-158,97,-274,251,-273v77,0,138,19,196,46r0,133r-52,0v-13,-86,-51,-131,-143,-131v-112,0,-147,95,-147,225v0,130,33,226,147,226xm380,-800r98,0r-166,184r-58,0"},"\u010c":{"d":"317,-38v84,0,116,-70,132,-155r90,0v-27,120,-91,207,-223,207v-139,0,-208,-108,-240,-220v-67,-233,18,-539,246,-536v80,1,139,29,202,63r0,168r-66,0v-14,-104,-42,-179,-141,-179v-49,0,-84,29,-111,83v-48,97,-48,389,0,486v27,54,62,83,111,83xm736,-798r-113,-129r57,0r99,79r99,-79r57,0r-113,129r-86,0"},"\u010d":{"d":"321,-34v84,0,125,-47,140,-122r72,0v-23,105,-91,170,-213,170v-154,1,-251,-116,-251,-274v0,-158,97,-274,251,-273v77,0,138,19,196,46r0,133r-52,0v-13,-86,-51,-131,-143,-131v-112,0,-147,95,-147,225v0,130,33,226,147,226xm325,-616r-115,-184r57,0r99,127r99,-127r57,0r-115,184r-82,0"},"\u0111":{"d":"241,-533v84,0,127,34,158,95r0,-161r-149,0r0,-52r149,0r0,-57r-80,0r0,-52r165,0r0,109r81,0r0,52r-81,0r0,547r81,0r0,52r-166,0r0,-81v-31,60,-74,95,-158,95v-131,0,-204,-129,-204,-274v0,-145,72,-273,204,-273xm268,-42v114,0,131,-113,131,-243v0,-109,-34,-192,-131,-192v-103,0,-132,95,-132,217v0,122,29,218,132,218"},"\u011e":{"d":"317,-38v55,0,91,-24,123,-55r0,-188r-84,0r0,-52r183,0r0,272v-58,45,-127,75,-221,75v-180,0,-268,-178,-268,-378v0,-204,88,-378,271,-378v79,0,138,25,200,58r0,173r-69,0v-12,-103,-41,-179,-137,-179v-52,0,-88,28,-115,81v-48,96,-50,392,1,488v29,54,65,83,116,83xm695,-928v-13,74,-65,119,-152,118v-87,0,-139,-43,-152,-118r46,0v17,73,195,72,212,0r46,0"},"\u011f":{"d":"263,-533v84,0,124,34,156,95r0,-81r151,0r0,52r-61,0r0,456v0,148,-87,234,-237,233v-74,0,-134,-14,-188,-37r0,-109r47,0v12,69,55,96,135,98v139,3,160,-107,153,-255v-32,60,-72,95,-156,95v-130,0,-202,-129,-202,-274v0,-144,71,-273,202,-273xm289,-42v111,0,130,-114,130,-243v0,-109,-34,-192,-130,-192v-102,0,-130,95,-130,217v0,122,27,218,130,218xm508,-785v-6,90,-57,140,-153,140v-96,0,-147,-50,-153,-140r47,0v9,53,42,73,106,73v64,0,97,-20,106,-73r47,0"},"\u0130":{"d":"351,-52r143,0r0,52r-386,0r0,-52r144,0r0,-625r-144,0r0,-52r386,0r0,52r-143,0r0,625xm296,-864v0,-29,26,-57,56,-57v30,0,58,28,58,57v0,32,-26,57,-58,57v-32,0,-56,-25,-56,-57"},"\u0131":{"d":"346,-52r86,0r0,52r-262,0r0,-52r86,0r0,-415r-86,0r0,-52r176,0r0,467"},"\u0141":{"d":"46,0r0,-52r84,0r0,-234r-70,55r-30,-45r100,-79r0,-322r-84,0r0,-52r255,0r0,52r-83,0r0,252r135,-110r30,45r-165,134r0,296r300,0r0,-122r54,0r0,182r-526,0"},"\u0142":{"d":"344,-52r86,0r0,52r-261,0r0,-52r85,0r0,-280r-67,47r-30,-42r97,-69r0,-312r-85,0r0,-52r175,0r0,301r72,-48r29,42r-101,69r0,344"},"\u0152":{"d":"300,-52r0,-625v-173,-17,-201,132,-201,311v0,101,13,179,40,233v35,70,75,87,161,81xm561,0r-312,0v-65,0,-117,-32,-153,-97v-98,-180,-79,-632,153,-632r307,0r0,162r-31,0r0,-102r-174,0r0,244r125,0r0,-91r31,0r0,242r-31,0r0,-91r-125,0r0,305r179,0r0,-102r31,0r0,162"},"\u0153":{"d":"120,-91v29,75,101,75,130,0v26,-68,26,-269,0,-337v-29,-75,-101,-75,-130,0v-26,68,-27,269,0,337xm304,-438v24,-51,54,-95,116,-95v47,0,84,24,109,72v25,49,38,119,39,211r-233,0v0,70,8,127,24,162v16,36,39,54,70,54v60,0,80,-58,90,-123r43,0v-15,96,-46,171,-138,171v-63,0,-96,-43,-120,-95v-22,52,-56,95,-119,95v-110,0,-151,-140,-151,-274v0,-135,41,-273,151,-273v63,0,96,43,119,95xm504,-302v-3,-94,-13,-183,-84,-183v-25,0,-45,16,-59,47v-14,30,-23,76,-26,136r169,0"},"\u015e":{"d":"300,14v-94,0,-174,-20,-249,-49r0,-166r56,0v5,116,66,163,187,163v105,0,175,-37,178,-135v4,-129,-138,-128,-240,-165v-119,-43,-190,-75,-190,-209v0,-134,107,-196,251,-195v85,1,165,20,240,43r0,155r-55,0v-13,-105,-65,-145,-183,-146v-95,0,-156,36,-158,123v-3,128,143,130,249,168v111,40,184,73,184,200v0,153,-106,213,-270,213xm388,86v0,-33,-23,-57,-43,-86r47,0v32,33,60,62,62,110v4,89,-124,95,-202,71r0,-64v42,22,136,32,136,-31"},"\u015f":{"d":"504,-144v6,183,-275,185,-406,115r0,-121r52,0v2,81,52,116,138,116v71,0,124,-24,124,-89v0,-88,-111,-92,-186,-122v-73,-29,-127,-53,-127,-136v0,-103,84,-154,197,-152v67,1,126,19,180,42r0,113r-52,0v-2,-68,-52,-108,-125,-107v-67,0,-115,21,-115,80v0,86,109,88,181,115v81,30,136,56,139,146xm385,86v0,-33,-23,-57,-43,-86r47,0v32,33,60,62,62,110v4,89,-124,95,-202,71r0,-64v42,22,136,32,136,-31"},"\u0160":{"d":"300,14v-94,0,-174,-20,-249,-49r0,-166r56,0v5,116,66,163,187,163v105,0,175,-37,178,-135v4,-129,-138,-128,-240,-165v-119,-43,-190,-75,-190,-209v0,-134,107,-196,251,-195v85,1,165,20,240,43r0,155r-55,0v-13,-105,-65,-145,-183,-146v-95,0,-156,36,-158,123v-3,128,143,130,249,168v111,40,184,73,184,200v0,153,-106,213,-270,213xm310,-798r-113,-129r57,0r99,79r99,-79r57,0r-113,129r-86,0"},"\u0161":{"d":"504,-144v6,183,-275,185,-406,115r0,-121r52,0v2,81,52,116,138,116v71,0,124,-24,124,-89v0,-88,-111,-92,-186,-122v-73,-29,-127,-53,-127,-136v0,-103,84,-154,197,-152v67,1,126,19,180,42r0,113r-52,0v-2,-68,-52,-108,-125,-107v-67,0,-115,21,-115,80v0,86,109,88,181,115v81,30,136,56,139,146xm309,-616r-115,-184r57,0r99,127r99,-127r57,0r-115,184r-82,0"},"\u0178":{"d":"189,0r0,-52r63,0r0,-262r-195,-363r-38,0r0,-52r211,0r0,52r-55,0r152,295r156,-295r-52,0r0,-52r152,0r0,52r-39,0r-193,354r0,271r63,0r0,52r-225,0xm230,-863v0,-29,26,-57,57,-57v30,0,57,28,57,57v0,32,-25,57,-57,57v-32,0,-57,-26,-57,-57xm420,-863v0,-29,27,-57,57,-57v31,0,57,28,57,57v0,31,-25,57,-57,57v-32,0,-57,-25,-57,-57"},"\u017d":{"d":"45,0r0,-35r379,-634r-302,0r0,109r-60,0r0,-169r491,0r0,35r-379,634r337,0r0,-102r60,0r0,162r-526,0xm358,-798r-113,-129r57,0r99,79r99,-79r57,0r-113,129r-86,0"},"\u017e":{"d":"76,0r0,-42r325,-425r-257,0r0,90r-52,0r0,-142r425,0r0,42r-325,425r282,0r0,-94r52,0r0,146r-450,0xm310,-616r-115,-184r57,0r99,127r99,-127r57,0r-115,184r-82,0"},"\u0192":{"d":"68,81v-7,81,90,111,126,48v14,-23,23,-62,30,-117r43,-361r-116,0r0,-52r121,0v15,-106,17,-232,75,-293v54,-56,155,-57,232,-26r0,108r-45,0v-4,-51,-21,-82,-71,-82v-69,0,-77,67,-86,151r-16,142r140,0r0,52r-147,0r-42,372v-12,109,-69,186,-180,188v-41,0,-74,-10,-109,-22r0,-108r45,0"},"\u02c6":{"d":"260,-800r82,0r115,184r-57,0r-99,-127r-99,127r-57,0"},"\u02c7":{"d":"260,-616r-115,-184r57,0r99,127r99,-127r57,0r-115,184r-82,0"},"\u02d8":{"d":"454,-785v-6,90,-57,140,-153,140v-96,0,-147,-50,-153,-140r47,0v9,53,42,73,106,73v64,0,97,-20,106,-73r47,0"},"\u02d9":{"d":"244,-709v0,-31,27,-57,57,-57v30,0,57,26,57,57v0,33,-24,57,-57,57v-33,0,-57,-24,-57,-57"},"\u02da":{"d":"301,-878v72,0,134,61,134,134v0,72,-62,134,-134,134v-72,0,-134,-62,-134,-134v0,-73,62,-134,134,-134xm301,-670v41,0,74,-33,74,-74v0,-41,-34,-74,-74,-74v-41,0,-74,33,-74,74v0,41,33,74,74,74"},"\u02db":{"d":"210,109v2,-49,30,-74,63,-109v15,1,33,-2,46,1v-29,40,-43,68,-43,83v-2,55,77,59,116,37r0,62v-76,21,-186,8,-182,-74"},"\u02dc":{"d":"462,-777v2,88,-44,159,-129,131v-37,-13,-56,-63,-100,-69v-34,3,-44,36,-46,76r-47,0v-2,-88,44,-159,129,-131v38,12,54,69,100,69v34,0,44,-35,46,-76r47,0"},"\u02dd":{"d":"223,-800r83,0r-119,184r-56,0xm384,-800r87,0r-140,184r-57,0"},"\u2013":{"d":"51,-298r500,0r0,65r-500,0r0,-65"},"\u2014":{"d":"1,-298r600,0r0,65r-600,0r0,-65"},"\u2018":{"d":"384,-703v-55,45,-75,106,-71,208r-95,0v2,-126,46,-192,128,-247"},"\u2019":{"d":"218,-521v56,-44,75,-106,72,-208r95,0v-3,125,-47,192,-129,247"},"\u201a":{"d":"208,97v62,-44,93,-103,90,-208r96,0v-8,125,-59,193,-146,247"},"\u201c":{"d":"480,-703v-55,45,-74,106,-71,208r-95,0v3,-126,46,-192,128,-247xm288,-703v-55,45,-75,106,-71,208r-95,0v2,-126,46,-192,128,-247"},"\u201d":{"d":"121,-521v56,-44,75,-106,72,-208r95,0v-3,125,-47,192,-129,247xm315,-521v55,-45,74,-106,71,-208r95,0v-3,127,-47,191,-128,247"},"\u201e":{"d":"112,97v62,-44,92,-103,89,-208r96,0v-8,125,-59,193,-146,247xm305,97v62,-44,92,-103,89,-208r96,0v-6,125,-60,193,-146,247"},"\u2020":{"d":"257,-729r88,0r-17,216r195,-14r0,81r-195,-14r17,556r-88,0r17,-556r-195,14r0,-81r195,14"},"\u2021":{"d":"257,-729r88,0r-17,216r195,-14r0,81r-195,-14r17,144r-17,143r195,-14r0,81r-195,-14r17,216r-88,0r17,-216r-195,14r0,-81r195,14r-17,-143r17,-144r-195,14r0,-81r195,14"},"\u2022":{"d":"301,-226v-79,0,-145,-66,-145,-146v0,-80,66,-144,146,-144v78,0,144,65,144,144v0,80,-67,146,-145,146"},"\u2026":{"d":"501,14v-52,-4,-52,-126,0,-130v52,4,52,126,0,130xm301,14v-52,-4,-52,-126,0,-130v52,4,52,126,0,130xm101,14v-52,-4,-52,-126,0,-130v52,4,52,126,0,130"},"\u2039":{"d":"416,-517r0,56r-146,168r146,168r0,56r-230,-204r0,-40"},"\u203a":{"d":"186,-517r230,204r0,40r-230,204r0,-56r146,-168r-146,-168r0,-56"},"\u20ac":{"d":"368,-34v85,0,122,-71,135,-159r61,0v-22,117,-83,207,-205,207v-140,0,-211,-135,-233,-277r-88,0r21,-51r62,0r0,-101r-83,0r21,-51r67,0v23,-143,93,-276,233,-276v81,0,131,27,194,64r0,167r-49,0v-10,-99,-46,-183,-136,-183v-105,0,-136,108,-147,228r231,0r-22,51r-212,0v-2,34,-1,64,-1,101r172,0r-22,51r-146,0v7,75,24,132,48,170v25,39,58,59,99,59"},"\u2122":{"d":"345,-729r51,132r53,-132r64,0r0,32r-25,0r0,218r25,0r0,32r-83,0r0,-32r25,0r0,-208r-61,152r-13,0r-58,-152r0,208r25,0r0,32r-71,0r0,-32r25,0r0,-218r-25,0r0,-32r68,0xm89,-729r163,0r0,83r-20,0r0,-51r-45,0r0,218r25,0r0,32r-84,0r0,-32r25,0r0,-218r-45,0r0,51r-19,0r0,-83"}}});
