/*!
 * The following copyright notice may not be removed under any circumstances.
 * 
 * Copyright:
 * Copyright © 2010 NHN Corporation. All rights reserved. Font designed by Sandoll
 * Communications Inc.
 * 
 * Trademark:
 * NanumPen is a registered trademark of NHN Corporation.
 * 
 * Manufacturer:
 * NHN Corporation
 * 
 * Designer:
 * Doo-yul Kwak; Hyunghwan Choi; Nicolas Noh;
 * 
 * Vendor URL:
 * http://www.nhncorp.com
 * 
 * License information:
 * http://www.nhncorp.com
 */
Cufon.registerFont({"w":940,"face":{"font-family":"NanumPen","font-weight":400,"font-stretch":"normal","units-per-em":"1000","panose-1":"3 4 6 0 0 0 0 0 0 0","ascent":"800","descent":"-200","x-height":"40","cap-height":"40","bbox":"-29 -800 1037.93 200","underline-thickness":"58","underline-position":"-231","unicode-range":"U+0001-U+FFE6"},"glyphs":{" ":{"w":280},"\u00a0":{"w":280},"\r":{"w":280},"\n":{"w":280},"\t":{"w":280},"!":{"d":"198,-675v7,42,-12,75,-18,113v-5,29,-12,57,-17,86v-10,54,-21,111,-13,172v4,30,-34,52,-48,23v-34,-140,14,-279,40,-394v8,-35,52,-25,56,0xm118,-137v63,-8,42,90,16,116v-22,22,-48,-17,-47,-41v2,-27,12,-67,31,-75","w":274},"\"":{"d":"84,-762v13,-9,37,-4,34,13v-6,41,-14,82,-6,128v4,25,-32,52,-50,29v-21,-48,-14,-146,22,-170xm178,-762v13,-9,36,-4,33,13v-6,41,-14,82,-6,128v4,25,-32,52,-50,29v-21,-48,-13,-146,23,-170","w":260},"#":{"d":"295,-206r8,72v7,47,-47,42,-59,10v-7,-19,-8,-43,-13,-65v-40,10,-79,26,-123,33v-22,2,-47,-38,-19,-54v38,-22,88,-31,133,-46r-16,-148v-46,7,-87,16,-131,28v-23,6,-46,-3,-52,-16v2,-55,60,-56,105,-68v24,-6,49,-9,74,-12v0,-50,-16,-122,15,-150v63,-22,46,82,53,142r60,-3v0,0,40,0,59,1v1,-23,1,-47,3,-70v4,-46,-2,-110,41,-119v47,6,21,83,21,125v0,22,-2,45,-2,67v41,10,113,-3,99,55v-15,26,-65,4,-99,7v1,36,3,72,6,108r108,-17v26,-6,45,26,30,45v-30,21,-90,23,-132,34v3,44,19,89,12,132v-20,27,-56,-7,-56,-33v-7,-27,-11,-56,-15,-85xm389,-419r-115,5r14,141v37,-9,74,-17,109,-24v-5,-40,-6,-80,-8,-122","w":630},"$":{"d":"175,-560v1,-50,-8,-112,35,-120v43,3,23,63,27,105v69,-8,110,26,135,67v14,21,-12,50,-35,35v-26,-17,-51,-48,-97,-37r8,144r124,55v44,24,24,80,-17,103v-26,14,-53,29,-85,39v2,30,32,102,-20,94v-27,-12,-32,-48,-38,-80v-64,16,-157,20,-154,-53v36,-10,98,0,143,-12r-13,-101v-59,-30,-136,-44,-152,-113v0,-68,83,-104,139,-126xm176,-491v-26,12,-57,28,-65,54v9,22,48,29,70,42xm301,-247v22,-10,30,-16,1,-27v-13,-5,-28,-13,-47,-20r7,61v15,-5,28,-9,39,-14","w":420},"%":{"d":"174,-502v41,-1,26,56,22,88v-8,61,-33,114,-84,130v-95,30,-93,-119,-46,-176v25,-31,50,-63,93,-75v26,-8,36,21,15,33xm422,-568v-62,121,-109,268,-155,406v-6,19,-35,25,-41,0v-4,-17,-6,-43,-1,-61v37,-138,88,-259,150,-377v10,-20,41,-17,49,3v3,8,4,18,-2,29xm444,-321v21,-30,87,-86,120,-27v46,82,-7,152,-67,179v-85,39,-119,-36,-84,-103v8,-18,20,-33,31,-49xm461,-244v-5,14,-9,27,7,24v35,-7,82,-53,45,-91v-29,4,-43,42,-52,67xm146,-470v-21,32,-60,66,-54,113v24,22,38,-25,45,-46v6,-21,6,-44,9,-67","w":620},"&":{"d":"258,-151v-53,24,-95,83,-171,66v-32,-7,-55,-38,-32,-76r78,-129v-65,-68,-109,-237,-21,-320v40,-38,132,-49,161,0v65,109,-16,236,-64,315r57,61v52,-29,96,-84,166,-91v29,16,3,57,-15,64r-104,74v22,22,47,40,65,66v18,27,-26,32,-52,32v-22,-19,-45,-39,-68,-62xm168,-348v32,-60,65,-99,69,-182v2,-43,-42,-63,-75,-39v-62,46,-31,175,6,221xm175,-239r-58,94r94,-54","w":449},"'":{"d":"120,-762v13,-9,36,-4,33,13v-6,41,-14,82,-6,128v4,25,-32,52,-50,29v-21,-48,-13,-146,23,-170","w":247},"(":{"d":"268,-614v-74,84,-136,224,-108,384v11,64,57,115,94,158v25,29,-9,67,-46,43v-124,-81,-158,-331,-82,-491v24,-50,55,-100,96,-129v22,-15,67,11,46,35","w":310},")":{"d":"94,-650v116,29,156,144,136,292v-17,129,-47,243,-96,338v-8,17,-40,31,-52,8v-8,-16,-1,-39,4,-52v35,-92,57,-172,76,-279v22,-123,1,-210,-86,-239v-25,-8,-45,-60,-7,-68v8,-2,16,-2,25,0","w":280},"*":{"d":"260,-486v37,-5,82,-16,117,-7v21,14,-1,38,-22,42r-76,13v29,21,53,42,80,65v15,11,17,39,-9,39v-28,0,-50,-26,-70,-40r-49,-35v11,41,25,79,36,116v9,30,-23,35,-43,18v-26,-22,-28,-65,-42,-100r-59,95v-7,12,-23,18,-33,8v-26,-58,24,-93,47,-136v-34,5,-69,28,-102,17v-28,-51,66,-61,114,-73r-79,-48v-24,-13,-11,-44,18,-40v25,4,34,12,56,25v-5,-34,-22,-106,28,-85v23,22,23,70,34,106r39,-51v21,-21,35,-60,70,-45v22,27,-14,59,-26,76","w":406},"+":{"d":"253,-292v-1,50,18,107,7,150v-23,20,-55,-3,-59,-26v-7,-35,-13,-77,-16,-116v-55,2,-142,42,-163,-15v20,-50,99,-43,161,-55v-1,-56,5,-122,11,-159v7,-45,63,-22,61,5v-4,49,-5,96,-4,148v23,-1,46,-3,68,-3v39,0,93,-8,89,30v-17,47,-101,28,-155,41","w":430},",":{"d":"88,82v-14,7,-35,-5,-28,-22v15,-39,32,-75,39,-122v-1,-23,43,-42,55,-14v4,66,-18,136,-66,158","w":235},"-":{"d":"315,-370v27,11,27,55,-10,55v-44,0,-86,2,-125,5v-39,3,-78,5,-115,10v-30,4,-44,-53,-15,-60v73,-18,167,-27,255,-15v3,1,6,3,10,5","w":370},".":{"d":"103,-178v20,25,27,75,-14,78v-36,3,-52,-37,-41,-74v7,-25,39,-24,55,-4","w":199},"\/":{"d":"273,-521r-175,454v-9,18,-17,40,-43,36v-18,-3,-16,-31,-10,-48r51,-150r131,-336v7,-18,39,-18,45,3v4,14,6,28,1,41","w":316},"0":{"d":"214,-505v81,5,128,54,102,143v-27,93,-78,180,-186,188v-120,9,-104,-173,-56,-246v28,-44,66,-82,115,-104v15,-6,24,5,25,19xm177,-445v-39,45,-90,120,-63,196v26,21,65,-7,82,-22v36,-33,60,-84,66,-146v-9,-25,-51,-28,-85,-28","w":358},"1":{"d":"149,-529v-26,123,-25,252,-17,390v1,16,-20,14,-27,5v-18,-12,-32,-44,-34,-65v-10,-119,-5,-252,24,-353v10,-36,43,-5,51,10v2,5,3,9,3,13","w":190},"2":{"d":"209,-546v49,6,69,65,49,116v-27,67,-72,126,-114,180r205,-26v16,1,52,0,49,18v-3,15,-14,34,-28,36r-292,43v-27,2,-50,-43,-22,-61v52,-59,115,-139,146,-216v14,-36,-31,-31,-61,-24v-35,8,-63,28,-97,34v-23,-1,-31,-23,-20,-44v37,-37,106,-65,185,-56","w":390},"3":{"d":"165,-436v107,-16,141,133,73,200v-46,45,-92,100,-163,120v-35,2,-42,-48,-15,-62v56,-28,114,-68,146,-118v34,-55,-15,-97,-81,-84v-31,6,-82,32,-89,-16v-4,-28,28,-34,43,-46v31,-25,74,-46,72,-98v-9,-30,-71,-25,-92,-9v-26,11,-46,-15,-32,-37v24,-37,137,-45,167,-2v36,51,4,121,-29,152","w":300},"4":{"d":"24,-296v42,-103,96,-189,164,-273v9,-11,50,-26,64,-7v4,-17,15,-40,37,-35v20,5,33,18,29,41v-13,79,-27,155,-34,244v52,-7,120,-36,170,-14v17,47,-64,55,-110,65r-62,15r3,162v2,28,-37,34,-49,9v-19,-41,-17,-99,-21,-154r-118,30v-53,11,-80,-29,-73,-83xm245,-545r-10,14v-61,77,-115,161,-151,259r131,-37v3,-77,13,-156,30,-236","w":464},"5":{"d":"101,-369v87,-8,203,-3,172,99v-23,75,-90,119,-148,163v-18,14,-43,0,-52,-12v-13,-15,-11,-25,6,-29v58,-44,113,-90,143,-152v-32,-34,-140,23,-175,-20v-4,-5,-6,-11,-6,-19v3,-101,16,-212,33,-300v5,-28,44,-4,50,9v17,32,-7,72,-7,111v85,-8,175,-10,243,11v11,1,27,19,15,30v-15,7,-29,12,-42,15v-81,-4,-155,-1,-224,10","w":383},"6":{"d":"231,-689v30,32,-11,66,-27,98v-48,90,-99,197,-98,333v1,28,7,52,17,74v46,-2,94,-88,86,-152v-3,-26,-69,-9,-59,-45v29,-29,99,-17,105,30v14,107,-39,182,-105,225v-87,27,-114,-89,-105,-188v14,-147,76,-270,150,-367v9,-12,23,-17,36,-8","w":295},"7":{"d":"62,-445v-25,3,-69,-54,-31,-62v74,-15,167,-19,250,-19v22,0,37,23,41,45v-44,115,-72,245,-104,367v-5,20,-38,45,-49,20v-29,-66,18,-139,31,-202v12,-56,31,-110,48,-166","w":340},"8":{"d":"183,-320v73,8,116,95,65,156v-36,43,-87,70,-156,82v-59,10,-80,-58,-57,-105v27,-56,62,-111,94,-164v-69,-33,-96,-173,-16,-225v62,-40,180,-22,181,55v0,48,-44,94,-66,129xm218,-490v32,-46,-18,-49,-52,-42v-38,8,-58,72,-30,110v6,9,13,16,23,23xm91,-150v46,-6,90,-27,118,-53v15,-36,-27,-57,-48,-81v-27,42,-48,87,-70,134","w":324},"9":{"d":"249,-436v-35,47,-71,109,-145,115v-93,7,-88,-114,-54,-175v28,-50,77,-93,134,-110v32,-9,72,14,58,52v-7,7,-24,9,-32,2v-59,18,-112,67,-120,136v-3,28,15,32,37,18v55,-36,88,-104,135,-148v23,-8,49,14,50,38v3,76,1,150,0,221v-1,71,-5,145,-12,222v-2,13,-12,25,-26,22v-23,-3,-34,-15,-34,-34v0,-59,6,-117,8,-176v2,-59,3,-120,1,-183","w":360},":":{"d":"115,-487v27,-36,103,-13,96,36v4,64,-93,68,-105,12v-4,-19,-1,-35,9,-48xm202,-216v14,38,-36,62,-61,40v-37,-9,-40,-67,-14,-90v30,-27,102,4,75,50","w":303},";":{"d":"92,-526v61,6,110,38,118,100v3,28,-42,37,-50,16v-12,-34,-46,-45,-81,-56v-31,-9,-15,-64,13,-60xm176,-317v66,-10,59,95,46,155v-12,59,-22,134,-88,138v-27,-14,3,-57,8,-78v11,-45,30,-100,18,-153v-7,-27,-10,-58,16,-62","w":303},"<":{"d":"349,-22r-268,-273v-22,-22,7,-46,23,-54v84,-75,151,-183,235,-258v37,-12,48,30,23,59r-206,239r239,245v22,18,-4,48,-23,49v-9,1,-17,-1,-23,-7","w":450},"=":{"d":"316,-428v27,11,27,56,-10,56v-44,0,-86,2,-125,5v-39,3,-78,5,-115,10v-30,4,-44,-53,-15,-60v73,-18,167,-27,255,-15v3,1,6,2,10,4xm378,-267v-51,70,-196,56,-312,60v-23,2,-42,-42,-22,-55v75,-11,182,-11,263,-26v30,-5,68,-5,71,21","w":400},">":{"d":"119,-22v-24,24,-72,-15,-46,-42r239,-245r-206,-239v-29,-22,-13,-72,23,-59v91,77,156,200,254,271v11,8,16,29,4,41","w":450},"?":{"d":"294,-532v28,123,-68,152,-109,229v-13,25,16,59,-5,73v-48,17,-69,-68,-44,-114v31,-57,104,-79,100,-165v-30,-54,-140,-13,-136,40v12,24,-13,33,-29,23v-51,-50,5,-120,45,-140v67,-33,164,-9,178,54xm178,-37v-41,-1,-34,-87,-6,-98v22,16,69,38,49,76v-7,13,-24,23,-43,22","w":350},"@":{"d":"285,-236v-47,60,-143,24,-135,-61v8,-86,24,-161,111,-163v26,15,62,26,70,60v34,3,38,48,51,73v37,-92,-9,-194,-106,-186v-106,9,-167,84,-168,203v-1,129,133,173,244,122v16,-7,46,-11,44,16v-4,58,-91,66,-140,66v-158,0,-255,-144,-200,-302v31,-90,106,-170,220,-170v140,0,195,128,172,270v-6,40,-54,89,-88,48v-9,-11,-23,-37,-31,-44v-17,20,-28,47,-44,68xm242,-402v-22,27,-46,104,-22,141v36,-20,56,-71,76,-108v-21,-4,-34,-33,-54,-33","w":490},"A":{"d":"208,-624v24,-3,49,-20,62,12v30,72,53,166,84,241v28,-13,73,6,53,38v-5,7,-15,15,-29,22v19,58,62,102,57,178v-9,30,-43,-1,-49,-13v-28,-46,-49,-97,-71,-148v-55,10,-126,20,-189,22v-19,59,-29,125,-54,178v-14,31,-60,16,-54,-18v32,-188,100,-361,179,-502v3,-5,7,-9,11,-10xm227,-544v-31,69,-57,137,-80,206v45,-1,92,-7,143,-17v-24,-61,-45,-124,-63,-189","w":460},"B":{"d":"391,-280v0,114,-89,178,-204,178v-97,0,-91,-137,-103,-226r-23,-162v2,-30,43,-20,48,1r23,91v49,-22,99,-53,94,-122v-15,-46,-107,-40,-152,-22v-31,13,-77,69,-103,22v5,-53,51,-73,91,-87v108,-37,269,-3,230,127v-9,27,-28,54,-45,73v86,-2,144,41,144,127xm147,-325r30,165v79,-5,149,-41,154,-120v-11,-70,-116,-62,-184,-45","w":415},"C":{"d":"128,-503v43,-23,111,-20,124,25v1,35,-36,15,-63,16v-100,5,-132,194,-36,229v49,18,115,0,155,-14v19,-7,27,20,14,35v-42,48,-164,58,-224,16v-62,-43,-86,-158,-42,-236v17,-32,41,-56,72,-71","w":344},"D":{"d":"96,-176v-15,-113,-17,-236,-17,-353v-29,10,-85,23,-80,-24v34,-53,160,-55,223,-23v80,40,130,149,90,258v-30,82,-86,150,-165,183v-41,17,-80,-13,-51,-41xm129,-535v26,38,11,110,15,173v3,47,5,97,10,151v71,-47,150,-172,84,-271v-20,-30,-56,-51,-109,-53","w":362},"E":{"d":"104,-495v1,36,-4,75,-4,113v78,-4,183,-47,233,9v3,21,-21,29,-46,32r-188,26v-1,34,-1,68,0,102v104,-1,186,-47,285,-47v16,0,31,21,15,33v-45,36,-120,52,-182,67v-75,18,-185,42,-185,-55v0,-33,-1,-66,0,-99v-23,-11,-21,-46,1,-54r6,-117v-27,-2,-42,-54,-9,-59r150,-25v51,-8,95,-7,121,23v4,45,-66,35,-109,40","w":410},"F":{"d":"335,-414v24,-1,61,28,33,46v-46,29,-125,19,-193,26v3,56,20,113,13,168v-18,35,-58,-4,-62,-30v-7,-57,-14,-114,-22,-171v-8,-57,-16,-114,-25,-171v-45,5,-99,-4,-73,-55v87,-34,244,-1,326,22v11,7,18,14,19,23v-1,7,-25,23,-34,22r-172,-11r22,140v57,-2,113,-6,168,-9","w":390},"G":{"d":"300,-397v-46,1,-117,26,-132,-19v35,-77,195,-37,295,-38v18,0,26,6,26,20v0,49,-70,35,-122,36v2,84,11,177,21,253v2,12,-7,22,-20,21v-14,0,-24,-9,-31,-26v-13,-33,-22,-70,-27,-112v-91,70,-298,60,-292,-72v6,-144,88,-249,195,-300v52,-10,80,25,97,62v3,14,-22,29,-32,13v-33,-53,-76,-11,-104,25v-40,51,-96,117,-85,202v11,82,179,48,214,4","w":499},"H":{"d":"338,-420v-2,-47,-30,-125,21,-136v15,2,26,15,28,33v17,107,32,224,30,337v-7,18,-30,33,-45,12v-28,-40,-14,-118,-26,-179v-70,19,-144,36,-222,51v4,45,28,94,12,138v-8,20,-37,10,-43,-4v-34,-95,-57,-222,-52,-355v1,-17,15,-27,29,-28v57,17,25,117,44,179v71,-10,159,-28,224,-48","w":452},"I":{"d":"96,-589v48,0,27,72,30,119v6,96,16,189,31,272v-1,17,-8,33,-27,33v-15,-9,-27,-22,-37,-37v-23,-90,-35,-207,-31,-322v1,-28,6,-65,34,-65","w":210},"J":{"d":"238,-436v33,84,48,249,-33,290v-66,34,-176,11,-181,-60v5,-25,29,-43,52,-51v31,-11,30,31,18,52v-5,18,24,18,43,17v79,-2,72,-102,58,-172v-15,-70,-51,-131,-92,-176v-27,-19,-4,-59,23,-53v57,29,88,90,112,153","w":300},"K":{"d":"130,-319r18,186v-3,27,-54,8,-60,-5r-44,-304v-3,-42,-28,-85,-13,-124v13,-32,60,-9,64,16r23,149v59,-35,128,-81,191,-106v24,-3,54,9,40,37v-9,20,-26,22,-43,32r-117,73v73,39,140,69,227,89v40,10,36,79,-15,66v-107,-27,-181,-60,-271,-109","w":444},"L":{"d":"426,-262v25,0,14,41,-2,44v-10,5,-21,8,-28,16r-295,71v-47,11,-64,-23,-60,-73v4,-54,7,-108,12,-162v5,-54,10,-109,17,-163v-2,-32,46,-57,62,-29v5,108,-23,236,-26,351r244,-45v28,-4,53,-10,76,-10","w":438},"M":{"d":"570,-132v6,31,-31,64,-50,27v-25,-46,-21,-112,-32,-169v-10,-51,-17,-112,-30,-183r-117,225v-20,48,-57,43,-81,6v-45,-69,-98,-124,-150,-184v-3,91,1,178,14,257v4,26,-19,42,-40,24v-53,-73,-30,-232,-36,-362v-2,-43,32,-50,53,-29v7,8,11,19,12,33v67,65,122,137,181,209r71,-130v26,-53,63,-98,92,-152v12,-14,27,-24,43,-6v8,9,14,19,16,30v12,67,22,135,30,202","w":610},"N":{"d":"91,-135v-80,-25,-39,-176,-43,-274v-2,-58,8,-129,60,-93v4,6,7,14,8,23v87,62,148,148,210,234v17,-85,25,-194,35,-289v-3,-13,23,-29,36,-28v19,2,28,11,28,28v0,57,-10,115,-17,174v-9,69,-13,141,-36,193v-53,36,-95,-38,-120,-73v-41,-58,-87,-117,-140,-164v-2,44,-4,87,-5,130v-1,43,-1,87,0,130v0,6,-5,9,-16,9","w":461},"O":{"d":"343,-514v61,38,72,165,29,232v-42,66,-108,128,-214,120v-124,-9,-147,-204,-85,-305v22,-36,52,-70,98,-78v11,-2,18,8,18,18v33,-32,125,-15,154,13xm175,-474v-64,24,-91,154,-46,220v99,69,242,-52,198,-177v-15,-43,-83,-60,-133,-32v-8,6,-23,1,-19,-11","w":439},"P":{"d":"141,-127v1,-124,-26,-245,-26,-358v0,-27,32,-40,49,-16v30,26,28,81,34,131v53,-33,119,-66,116,-146v-2,-59,-108,-67,-166,-54v-41,9,-81,37,-118,54v-45,7,-40,-45,-12,-64v73,-78,307,-99,349,19v52,146,-78,209,-163,274r2,164v1,31,-33,37,-52,16v-8,-9,-13,-15,-13,-20","w":406},"Q":{"d":"184,-132v-149,0,-180,-206,-98,-306v34,-42,64,-85,122,-99v9,-2,18,-1,27,2v20,-25,77,-27,109,-6v73,49,87,180,34,269v26,24,62,35,78,71v15,33,-26,55,-54,34r-62,-47v-37,44,-84,82,-156,82xm265,-490v-29,20,-74,18,-95,52v-46,46,-91,163,-30,224v44,44,119,1,148,-38v-32,-30,-90,-38,-90,-96v0,-24,23,-37,46,-21r84,59v36,-59,30,-177,-42,-186v-8,-1,-15,1,-21,6","w":464},"R":{"d":"162,-100v-28,18,-50,-17,-51,-41r-6,-181r3,-184v0,-23,41,-26,50,-8v18,37,2,104,7,158v85,-13,156,-92,117,-186v-25,-60,-134,-40,-178,-5v-17,13,-34,26,-49,43v5,27,-21,57,-43,34v-35,-55,27,-116,68,-140v58,-34,167,-62,227,-12v48,40,72,140,35,207v-21,40,-56,75,-103,104r97,61v34,25,79,44,106,80v9,13,-5,51,-24,50v-35,-2,-51,-29,-78,-46r-174,-111r4,157v0,9,-3,16,-8,20","w":448},"S":{"d":"305,-583v17,22,-14,54,-38,34v-35,-30,-115,-61,-154,-12v-58,73,50,110,99,145v68,50,159,77,159,193v0,95,-102,153,-211,126v-38,-9,-83,-34,-81,-84v5,-10,31,-18,44,-11v31,37,121,50,161,10v37,-37,16,-100,-23,-126v-60,-40,-121,-76,-182,-120v-51,-37,-55,-133,-6,-176v39,-35,113,-56,172,-24v24,13,45,26,60,45","w":399},"T":{"d":"452,-523v-151,-7,-272,28,-386,73v-28,11,-48,-6,-49,-24v5,-13,12,-25,25,-31v136,-68,274,-93,410,-74v18,2,28,35,15,51v-3,4,-8,6,-15,5xm300,-459v10,92,10,185,10,285v0,25,-38,41,-52,23v-16,-42,-8,-110,-10,-163r-7,-160v1,-20,40,-21,49,-8v6,8,10,16,10,23","w":493},"U":{"d":"339,-530v55,-11,49,72,55,124v18,157,-63,235,-190,258v-92,16,-170,-21,-168,-112v2,-89,26,-154,48,-225v17,-31,66,-7,58,30v-15,68,-52,141,-37,218v33,52,134,15,172,-8v64,-39,63,-151,45,-240v-3,-18,3,-38,17,-45","w":433},"V":{"d":"392,-524v-11,81,-52,148,-82,211v-25,53,-59,99,-89,144v-24,35,-63,7,-73,-16v-31,-73,-64,-172,-91,-252v-16,-13,-47,-48,-23,-72v85,-20,94,90,116,155r40,115v57,-79,104,-180,147,-275v5,-25,51,-50,55,-10","w":415},"W":{"d":"33,-511v-1,-27,42,-30,52,-9v33,69,14,199,58,269r65,-90v21,-32,44,-66,59,-101v15,-35,66,-35,80,2r35,89v12,31,24,61,38,89v51,-83,103,-181,138,-278v9,-26,51,-31,58,4v2,11,4,18,1,25v-43,110,-96,220,-159,318v-19,29,-53,28,-68,3v-36,-58,-62,-115,-88,-187v-40,70,-89,141,-142,200v-20,22,-49,14,-63,-12v-45,-86,-61,-198,-64,-322","w":646},"X":{"d":"428,-528v-25,33,-58,45,-94,78r-85,79r93,165v10,25,-9,60,-38,42v-30,-19,-39,-60,-58,-90v-15,-23,-28,-48,-43,-72r-72,75v-32,30,-41,64,-75,75v-37,2,-32,-42,-16,-62v36,-45,82,-97,128,-143v-34,-53,-71,-105,-111,-155v-16,-39,30,-46,54,-25v39,34,73,88,104,135v54,-49,113,-103,176,-140v23,-14,56,13,37,38","w":459},"Y":{"d":"140,-125v1,-63,5,-130,11,-192v-23,-43,-45,-85,-65,-126v-20,-41,-36,-80,-52,-114v-13,-26,-12,-76,32,-61v24,8,26,36,38,61r74,152v59,-77,112,-159,161,-243v16,-28,59,-31,59,4v0,41,-22,59,-42,90r-135,206v-12,60,-17,152,-19,223v0,19,-11,29,-32,29v-17,-1,-30,-9,-30,-29","w":424},"Z":{"d":"147,-342v-34,4,-91,30,-93,-20v-2,-41,57,-40,88,-48v23,-6,47,-8,70,-10r79,-99v-76,1,-157,29,-227,29v-26,0,-51,-27,-22,-46v59,-39,157,-46,247,-52v55,-4,94,58,56,104r-50,61v64,5,135,3,173,35v20,29,-17,49,-52,42v-54,-11,-116,-11,-179,-6r-112,145r350,-23v26,0,40,16,28,41v-15,31,-69,27,-113,30r-200,15v-64,-1,-153,25,-154,-43v11,-39,34,-60,58,-89","w":524},"[":{"d":"270,-652v26,6,28,32,8,44v-34,20,-93,11,-135,28r11,505v51,-1,98,-11,145,-16v20,-2,26,28,15,45v-39,33,-114,32,-178,34v-66,-15,-53,-101,-55,-181r-6,-289v3,-83,-19,-149,60,-162v41,-7,93,-18,135,-8","w":340},"\\":{"d":"58,-534v-1,-13,11,-32,25,-31v45,4,32,48,39,97v4,26,6,53,9,81r81,-14r42,-118v9,-33,66,-33,74,-1r26,102r107,-7r38,-120v4,-24,46,-35,55,-3v9,31,-8,46,-14,72v-4,16,-11,33,-17,50v29,0,68,-3,62,31v-5,27,-47,20,-79,22v-22,63,-42,133,-77,181v-41,58,-75,-21,-87,-64r-29,-100r-53,7v-25,62,-44,135,-83,181v-43,34,-67,-30,-77,-69v-7,-25,-14,-51,-19,-80v-23,7,-64,16,-66,-16v-2,-30,30,-36,56,-41v-8,-51,-14,-109,-13,-160xm401,-264r41,-105r-73,7xm158,-254v11,-21,23,-58,33,-84v-18,3,-35,6,-51,9v5,27,10,55,18,75xm290,-453r-12,43r21,-2","w":609},"]":{"d":"42,-44v28,-41,116,-12,165,-28r-11,-456v-1,-27,-3,-49,-4,-66v-53,-6,-124,55,-150,-5v-3,-57,91,-44,141,-63v92,-10,78,97,81,180r13,406v3,83,-110,72,-189,72v-28,0,-48,-15,-46,-40","w":350},"^":{"d":"343,-536v3,17,6,42,-8,48v-63,12,-67,-69,-87,-114r-33,-76v-50,40,-83,81,-116,135v-17,28,-50,44,-66,13v-4,-8,-3,-17,2,-28v41,-73,105,-156,180,-195v27,-14,45,9,53,30","w":370},"_":{"d":"461,115v0,25,-14,30,-39,31v-63,2,-122,3,-177,5v-64,2,-133,17,-201,15v-25,-1,-33,-47,-6,-54v105,-28,261,-28,393,-23v18,1,30,11,30,26","w":480},"`":{"d":"53,-749v61,-10,72,56,105,88v16,30,56,48,48,93v-8,19,-39,4,-50,-2v-41,-40,-86,-94,-115,-146v-8,-15,-3,-26,12,-33","w":242},"a":{"d":"214,-553v111,-6,89,135,89,243v0,20,0,38,-1,54v30,22,49,33,40,69v-7,27,-34,21,-57,8v-41,28,-90,62,-147,73v-82,16,-116,-87,-80,-158v26,-52,119,-105,180,-52r-8,-150v-2,-19,-15,-24,-35,-17v-39,14,-86,52,-117,80v-27,24,-67,-15,-41,-42v46,-45,95,-104,177,-108xm230,-223v-10,-33,-44,-75,-82,-45v-23,18,-53,43,-44,86v17,24,52,1,78,-10v21,-9,36,-20,48,-31","w":359},"b":{"d":"87,-192v-30,-139,-48,-287,-48,-451v0,-35,35,-30,48,-15v35,41,7,149,26,221v24,-60,126,-73,166,-17v33,46,38,124,5,176v-42,66,-102,115,-167,153v-35,20,-89,-9,-59,-44v7,-9,21,-16,29,-23xm144,-228v44,-33,97,-68,103,-140v4,-51,-43,-71,-79,-48v-50,32,-38,125,-24,188","w":337},"c":{"d":"282,-412v8,31,-31,45,-45,20v-60,-57,-130,20,-137,86v-5,47,18,83,65,83v61,0,109,-40,160,-51v18,-4,33,27,15,44v-51,48,-171,100,-255,51v-77,-44,-50,-201,5,-247v36,-54,170,-66,192,14","w":362},"d":{"d":"210,-632v-10,-37,24,-65,52,-42v8,7,12,15,14,26v13,77,26,152,38,228v12,76,21,151,31,223v6,41,-10,61,-45,55v-9,-4,-14,-12,-15,-24v-97,36,-216,1,-237,-84v-31,-123,72,-203,187,-224xm140,-356v-33,26,-43,90,-9,118v33,27,102,22,143,5r-28,-176v-41,9,-77,30,-106,53","w":357},"e":{"d":"299,-418v25,66,-57,79,-100,94v-29,10,-62,12,-97,12v-4,83,99,98,155,55v16,-12,29,-31,55,-27v9,3,13,13,10,30v-28,55,-92,98,-179,80v-96,-20,-147,-176,-79,-262v34,-44,124,-70,186,-35v23,13,40,30,49,53xm241,-404v-30,-52,-138,-18,-141,34v53,-2,106,-14,141,-34","w":351},"f":{"d":"141,-314v-48,4,-128,28,-124,-40v15,-22,69,-20,101,-28v-31,-86,-98,-256,33,-288v85,-21,154,25,169,98v4,20,-31,31,-44,17v-21,-35,-90,-90,-127,-33v-25,67,19,137,34,198v64,-6,127,-8,160,23v2,53,-83,34,-136,46r51,153v7,39,-10,80,-27,102v-18,23,-46,5,-41,-26v15,-93,-29,-152,-49,-222","w":371},"g":{"d":"184,128v-40,17,-122,40,-135,-12v12,-41,89,-23,120,-53v81,-28,79,-165,47,-251v-26,27,-87,63,-132,32v-58,-40,-63,-160,-20,-224v26,-38,87,-95,155,-66v14,6,14,35,4,45v47,86,64,211,81,321v17,106,-45,174,-120,208xm173,-389v-46,25,-87,75,-74,149v9,49,89,9,93,-20v7,-42,-17,-87,-19,-129","w":339},"h":{"d":"377,-180v8,41,4,115,-41,78v-44,-56,-19,-190,-75,-246v-55,-35,-85,49,-103,94v-20,49,-25,121,-46,164v-35,22,-53,-33,-55,-66r-13,-203r1,-215v-4,-48,43,-62,57,-28v26,65,1,185,11,281v28,-50,62,-103,135,-107v102,18,108,146,129,248","w":413},"i":{"d":"202,-557v11,10,12,34,-7,35v-46,4,-88,5,-127,18v-34,11,-61,-38,-23,-53v39,-15,124,-33,157,0xm125,-415v65,11,32,118,51,181v9,30,32,69,7,94v-88,9,-84,-139,-84,-235v0,-17,11,-38,26,-40","w":242},"j":{"d":"69,-564v51,-9,104,4,143,14v23,19,-7,48,-35,43v-29,-5,-72,1,-102,-4v-15,-6,-27,-49,-6,-53xm17,-40v-16,-17,0,-40,23,-34v91,25,145,-38,134,-133v-8,-69,-18,-149,-63,-182v-24,-18,-19,-57,7,-57v37,0,54,30,68,54v74,128,83,426,-126,377v-17,-4,-33,-14,-43,-25","w":286},"k":{"d":"130,-358v60,-32,124,-79,198,-96v40,-9,45,39,12,53v-47,20,-109,56,-149,81r140,94v17,12,32,24,47,36v23,18,10,38,-12,41v-33,4,-50,-14,-74,-29r-152,-96r14,140v17,40,-31,53,-49,28v-41,-142,-50,-326,-73,-488v-4,-25,24,-30,42,-16v32,26,31,86,40,138v7,36,11,74,16,114","w":406},"l":{"d":"125,-593v6,147,24,311,43,448v6,45,-28,56,-47,29v-23,-33,-25,-87,-30,-137r-22,-227v-3,-52,-9,-102,2,-142v6,-22,37,-18,45,-2v5,8,8,19,9,31","w":209},"m":{"d":"394,-276v-16,42,-9,122,-68,90v-40,-43,-44,-120,-73,-173v-45,57,-71,139,-114,197v-41,27,-68,-32,-77,-70v-13,-58,-13,-131,-24,-195v-8,-47,56,-76,63,-21r22,185v31,-55,57,-121,97,-165v12,-14,23,-21,33,-21v56,13,66,92,83,144v25,-61,40,-140,112,-155v109,22,124,151,133,270v3,49,-53,38,-58,4r-14,-94v-9,-48,-20,-92,-55,-114v-34,17,-45,78,-60,118","w":621},"n":{"d":"62,-499v59,10,49,99,64,155v3,13,4,26,5,38v25,-54,48,-115,91,-149v58,-47,115,20,134,67v16,42,31,98,40,144v13,24,-40,62,-53,32v-18,-43,-29,-117,-51,-157v-18,-33,-43,-24,-59,6v-35,61,-64,133,-94,200v-15,19,-61,9,-61,-16v0,-52,-12,-99,-18,-142v-6,-43,-14,-87,-25,-131v-8,-30,-7,-53,27,-47","w":424},"o":{"d":"120,-478v36,-21,88,-9,119,8v83,-22,149,94,120,189v-28,92,-132,192,-248,131v-99,-52,-76,-279,9,-328xm258,-404v-37,24,-58,-52,-100,-16v-55,46,-77,241,40,216v61,-13,116,-70,98,-154v-5,-21,-19,-37,-38,-46","w":404},"p":{"d":"203,-216v6,62,9,137,8,200v0,27,-40,39,-56,16v-17,-25,-7,-63,-11,-100v-3,-27,-3,-56,-5,-85v-57,3,-47,-55,-7,-72v-5,-51,-17,-103,-18,-154v14,-41,64,-5,68,23r13,97v44,-31,100,-61,96,-134v-4,-63,-104,-44,-153,-28v-41,14,-73,43,-118,47v-22,2,-29,-31,-16,-45v49,-56,146,-89,253,-83v98,6,124,145,67,216v-32,40,-78,75,-121,102","w":382},"q":{"d":"268,-231v-59,32,-198,82,-232,-4v-37,-92,31,-165,82,-211v32,-29,64,-58,117,-48v12,-34,62,-9,67,15v13,65,27,166,34,241r24,249v-1,14,-9,32,-27,30v-31,-3,-37,-24,-40,-51xm258,-308r-18,-128v-77,20,-134,81,-153,158v-4,16,4,28,24,25v57,-10,104,-27,147,-55","w":404},"r":{"d":"34,-469v-3,-27,34,-24,51,-15v26,14,15,61,23,94v6,27,8,50,12,69v19,-103,95,-172,195,-192v23,-5,46,-2,41,23v-17,34,-63,43,-92,66v-62,49,-102,131,-105,236v0,21,-11,55,-32,55v-26,0,-41,-36,-46,-57v-22,-90,-37,-182,-47,-279","w":359},"s":{"d":"82,-486v59,-69,226,-40,194,69v-6,19,-48,13,-48,-7v-3,-13,-2,-31,-14,-34v-48,-11,-94,16,-110,49v3,58,74,72,113,100v53,38,130,71,95,158v-29,71,-142,83,-240,87v-21,-4,-43,-20,-49,-39v9,-54,101,-25,153,-43v35,-12,97,-25,64,-66v-55,-68,-186,-78,-201,-182v-6,-39,23,-69,43,-92","w":339},"t":{"d":"194,-389v51,-3,126,-17,131,36v-12,43,-85,20,-135,30r-6,165v73,-16,134,-52,195,-82v24,-12,37,9,26,33v-28,59,-105,84,-167,111v-36,15,-78,22,-100,-6v-36,-46,-15,-139,-16,-216v-44,5,-131,22,-109,-38v19,-25,71,-19,113,-27r14,-171v0,-30,28,-37,52,-22v31,20,8,59,8,99v0,29,-4,58,-6,88","w":408},"u":{"d":"118,-452v22,26,1,56,-3,90v-5,46,-20,117,4,151v83,-19,126,-118,151,-198v-9,-53,63,-69,69,-12r15,138r24,131v8,31,-45,64,-59,24v-16,-43,-22,-103,-28,-155v-31,54,-73,111,-129,139v-100,51,-136,-84,-116,-194v8,-44,13,-97,31,-128v15,-12,30,1,41,14","w":410},"v":{"d":"362,-530v44,28,0,67,-16,95r-77,137v-24,43,-43,94,-72,131v-18,23,-51,-1,-57,-18v-42,-71,-91,-167,-117,-253v0,-34,42,-24,58,-3v38,50,54,122,90,174r117,-203v23,-25,34,-86,74,-60","w":404},"w":{"d":"397,-148v-19,29,-70,16,-77,-9r-53,-160r-78,144v-17,35,-69,27,-85,-2v-33,-61,-57,-149,-73,-226v-4,-22,-1,-49,18,-49v60,0,55,79,69,127r26,88r100,-168v13,-29,35,-37,55,-14v29,55,45,133,65,194v45,-63,86,-154,110,-235v10,-35,33,-28,53,-14v9,7,12,14,10,21v-30,120,-80,212,-140,303","w":568},"x":{"d":"248,-325v35,46,91,89,109,147v10,32,-39,31,-59,14v-38,-33,-66,-74,-101,-110r-109,111v-16,15,-45,18,-45,-3v0,-56,37,-83,65,-114r42,-46r-107,-106v-22,3,-25,-20,-15,-31v21,-24,47,-24,72,-6v37,26,68,58,99,91r82,-82v19,-11,38,-15,61,-3v14,19,3,39,-11,54","w":382},"y":{"d":"289,-268v-35,47,-132,134,-191,60v-38,-48,-66,-115,-71,-191v8,-22,53,-11,59,7v13,41,27,88,50,119v33,45,79,-13,99,-37v26,-30,45,-75,48,-125v2,-26,32,-49,55,-27v28,27,16,86,20,131v20,220,-36,388,-176,469v-23,14,-79,3,-58,-29v23,-35,70,-62,94,-93v53,-69,84,-157,71,-284","w":406},"z":{"d":"166,-113v-52,3,-120,13,-122,-38v14,-52,59,-88,84,-130v-36,6,-69,-4,-70,-36v7,-42,76,-25,121,-32r77,-92v-67,1,-127,19,-186,28v-30,5,-65,-42,-29,-62v52,-14,125,-34,191,-34v46,0,92,9,92,57v0,32,-21,45,-35,64r-28,37r139,1v26,1,53,40,28,58v-64,9,-148,4,-219,9r-71,100v79,0,169,-12,242,-21v29,-3,68,39,32,54v-66,27,-161,32,-246,37","w":466},"{":{"d":"222,15v-97,29,-69,-91,-66,-177r5,-148v-9,30,-70,54,-90,15v-18,-35,22,-47,45,-60v-27,-80,-63,-220,0,-290v39,-43,135,-4,167,19v16,36,-24,38,-61,29v-34,-9,-76,-17,-76,26v0,66,7,139,17,195v86,-12,64,101,59,180r-9,156r122,-22v14,-2,18,34,6,40v-29,16,-82,26,-119,37","w":360},"|":{"d":"109,-43v-24,-166,-37,-404,-18,-580v4,-29,55,-51,61,-14v14,85,-3,198,4,301r18,307v1,46,-49,28,-59,3v-2,-6,-5,-12,-6,-17","w":242},"}":{"d":"216,-685v45,62,-36,149,-13,236v26,-11,71,-31,105,-15v16,43,-35,74,-84,73v17,93,49,221,13,318v-17,46,-80,54,-143,54v-28,0,-56,-27,-32,-46v30,-24,107,6,126,-38v14,-98,-12,-215,-28,-301v-60,-47,-6,-168,7,-230v-37,5,-78,36,-123,30v-44,-6,-13,-51,9,-55v50,-10,110,-50,163,-26","w":360},"~":{"d":"31,-296v12,-76,68,-132,149,-132v34,0,60,18,73,56v33,98,136,22,180,-10v25,-18,67,-59,85,-10v2,8,1,15,-4,20v-57,55,-126,114,-221,122v-66,5,-68,-55,-97,-94v-46,-31,-91,26,-105,63v-10,27,-64,10,-60,-15","w":550},"\u3001":{"d":"55,-14r201,83r0,96r-201,-149r0,-30"},"\u3002":{"d":"261,63v0,64,-43,107,-107,107v-64,0,-107,-43,-107,-107v0,-64,43,-107,107,-107v64,0,107,43,107,107xm154,145v46,0,81,-36,81,-82v0,-46,-35,-82,-81,-82v-46,0,-81,36,-81,82v0,46,35,82,81,82"},"\u00b7":{"d":"101,-371v27,-36,103,-13,96,36v4,64,-93,68,-105,12v-4,-19,-1,-35,9,-48","w":290},"\u30fb":{"d":"101,-371v27,-36,103,-13,96,36v4,64,-93,68,-105,12v-4,-19,-1,-35,9,-48","w":290},"\u2025":{"d":"201,-371v27,-36,103,-13,96,36v4,64,-93,68,-105,12v-4,-19,-1,-35,9,-48xm650,-371v27,-36,103,-13,96,36v4,64,-94,68,-106,12v-4,-19,0,-35,10,-48"},"\u2026":{"d":"127,-371v27,-36,103,-13,96,36v4,64,-93,68,-105,12v-4,-19,-1,-35,9,-48xm427,-371v27,-36,103,-13,96,36v4,64,-93,68,-105,12v-4,-19,-1,-35,9,-48xm726,-371v27,-36,103,-13,96,36v4,64,-94,68,-106,12v-4,-19,0,-35,10,-48"},"\u22ef":{"d":"127,-371v27,-36,103,-13,96,36v4,64,-93,68,-105,12v-4,-19,-1,-35,9,-48xm427,-371v27,-36,103,-13,96,36v4,64,-93,68,-105,12v-4,-19,-1,-35,9,-48xm726,-371v27,-36,103,-13,96,36v4,64,-94,68,-106,12v-4,-19,0,-35,10,-48"},"\u00a8":{"d":"94,-692v27,-36,103,-13,96,36v4,64,-94,68,-106,12v-4,-19,0,-35,10,-48xm359,-692v27,-36,103,-13,96,36v4,64,-93,68,-105,12v-4,-19,-1,-35,9,-48","w":540},"\u3003":{"d":"276,-137r-25,0r125,-309r93,0xm456,-137r-25,0r125,-309r93,0"},"\u00ad":{"d":"59,-283r0,-58r292,0r0,58r-292,0","w":410},"\u2013":{"d":"59,-283r0,-58r292,0r0,58r-292,0","w":410},"\u2015":{"d":"2,-286r0,-52r860,0r0,52r-860,0","w":864},"\u2014":{"d":"2,-286r0,-52r860,0r0,52r-860,0","w":864},"\uff3c":{"d":"616,-50v-39,-21,-55,-68,-79,-104r-291,-438v-11,-20,-9,-62,14,-62v38,0,47,44,64,70r272,416v24,43,39,55,47,95v3,16,-13,26,-27,23"},"\u223c":{"d":"514,-316v24,21,66,63,82,12v11,-34,3,-66,-4,-110v-3,-18,20,-13,32,-8v64,27,37,161,-4,190v-18,25,-69,25,-93,3r-131,-123v-27,-26,-97,-18,-85,36v-2,46,67,60,45,104v-41,24,-82,-26,-98,-60v-40,-84,32,-173,125,-153v62,13,91,73,131,109"},"\uff5e":{"d":"514,-316v24,21,66,63,82,12v11,-34,3,-66,-4,-110v-3,-18,20,-13,32,-8v64,27,37,161,-4,190v-18,25,-69,25,-93,3r-131,-123v-27,-26,-97,-18,-85,36v-2,46,67,60,45,104v-41,24,-82,-26,-98,-60v-40,-84,32,-173,125,-153v62,13,91,73,131,109"},"\u301c":{"d":"514,-316v24,21,66,63,82,12v11,-34,3,-66,-4,-110v-3,-18,20,-13,32,-8v64,27,37,161,-4,190v-18,25,-69,25,-93,3r-131,-123v-27,-26,-97,-18,-85,36v-2,46,67,60,45,104v-41,24,-82,-26,-98,-60v-40,-84,32,-173,125,-153v62,13,91,73,131,109"},"\u2018":{"d":"211,-721v-33,46,-83,107,-52,175v14,30,11,84,-20,87v-91,8,-61,-133,-31,-187v20,-36,44,-73,72,-101v20,-21,47,3,31,26","w":249},"\u2019":{"d":"62,-493v23,-45,61,-133,19,-182v-24,-29,-24,-112,29,-99v86,21,48,183,18,246v-13,28,-22,69,-59,62v-7,-4,-13,-16,-7,-27","w":250},"\u201c":{"d":"221,-751v-30,50,-88,109,-55,178v24,51,-31,109,-70,67v-44,-102,43,-203,95,-265v16,-19,48,1,30,20xm281,-617v-5,28,20,47,20,78v0,45,-46,69,-73,38v-49,-96,36,-206,85,-266v16,-20,46,-2,31,19v-27,40,-54,81,-63,131","w":371},"\u201d":{"d":"24,-503v28,-53,72,-127,30,-185v-31,-43,16,-114,60,-76v56,86,-17,215,-58,277v-13,20,-45,8,-32,-16xm186,-480v6,-59,61,-124,34,-185v-23,-19,-43,-84,-8,-106v89,-27,82,109,57,181v-16,43,-30,95,-61,119v-11,4,-19,-1,-22,-9","w":350},"\u3014":{"d":"278,116r-233,-130r0,-572r233,-130r21,36r-209,117r0,526r209,117","w":344},"\u3015":{"d":"73,116r-21,-36r209,-117r0,-526r-209,-117r21,-36r233,130r0,572","w":358},"\u3008":{"d":"374,114r-324,-414r323,-412r29,21r-309,391r309,393","w":467},"\u3009":{"d":"71,93r309,-393r-309,-391r29,-21r323,412r-324,414","w":477},"\u300a":{"d":"289,132r-250,-432r249,-431r28,16r-239,415r240,416xm386,132r-250,-432r249,-431r28,16r-239,415r240,416","w":464},"\u300b":{"d":"148,116r240,-416r-239,-415r28,-16r249,431r-250,432xm51,116r240,-416r-239,-415r28,-16r249,431r-250,432","w":464},"\u300c":{"d":"90,-683r0,379r-58,0r0,-426r287,0r0,47r-229,0","w":351},"\u300d":{"d":"32,130r0,-47r229,0r0,-379r58,0r0,426r-287,0","w":351},"\u300e":{"d":"291,-703r-226,0r0,372r52,0r0,-330r174,0r0,-42xm147,-634r0,330r-112,0r0,-426r286,0r0,96r-174,0","w":356},"\u300f":{"d":"291,-269r-52,0r0,330r-174,0r0,42r226,0r0,-372xm35,130r0,-96r174,0r0,-330r112,0r0,426r-286,0","w":356},"\u3010":{"d":"115,-299v0,202,110,298,234,381r-324,0r0,-764r324,0v-124,84,-234,180,-234,383","w":374},"\u3011":{"d":"263,-299v0,-203,-110,-299,-234,-383r324,0r0,764r-324,0v124,-83,234,-179,234,-381","w":382},"\u00b1":{"d":"251,-379v0,49,0,93,8,139v6,34,-36,37,-50,20v-28,-32,-22,-97,-27,-151v-48,2,-102,26,-146,11v-29,-18,-6,-56,19,-61v34,-7,83,-15,127,-20v2,-43,8,-90,12,-120v4,-34,48,-38,60,-14v17,33,-6,84,-3,129r133,-2v34,-1,38,36,14,48v-38,20,-97,11,-147,21xm388,-116r-279,32v-52,14,-61,-48,-21,-58v83,-20,206,-42,304,-24v28,5,32,46,-4,50","w":437},"\u00d7":{"d":"224,-366v51,56,111,114,134,190v10,32,-36,28,-54,12v-25,-23,-42,-54,-66,-80v-20,-22,-39,-44,-60,-65r-89,120v-10,17,-35,27,-45,9v-17,-52,18,-81,42,-114r45,-63v-35,-33,-65,-63,-93,-84v-32,-23,-12,-61,19,-63v32,-1,53,28,75,46v15,12,29,27,44,42r82,-95v14,-15,35,-26,59,-12v19,13,9,39,-5,54","w":375},"\u00f7":{"d":"188,-460v-57,-13,-27,-123,31,-110v36,8,59,53,32,82v-14,15,-35,34,-63,28xm257,-382v71,-6,136,-16,185,4v22,9,21,51,-12,51v-128,0,-238,26,-352,51v-35,8,-66,-21,-46,-55v4,-9,14,-15,30,-18v70,-15,135,-27,195,-33xm258,-217v52,-4,81,56,57,97v-28,31,-95,9,-92,-32v-5,-30,7,-63,35,-65","w":486},"\u2260":{"d":"484,-407v-19,27,-83,11,-126,18r-31,95v57,-4,114,-19,175,-14v26,2,32,29,9,42v-50,29,-132,33,-206,38v-14,41,-25,87,-43,123v-11,21,-43,24,-45,-1v-4,-44,18,-81,27,-120v-44,0,-94,10,-100,-31v-7,-52,69,-21,120,-33r31,-96r-121,9v-30,5,-44,-52,-15,-60v44,-12,104,-16,159,-18r41,-116v15,-29,53,-8,51,22v-3,33,-21,62,-29,93v50,1,108,-4,103,49","w":647},"\u2264":{"d":"30,37r0,-37r612,0r0,37r-612,0xm609,-41r-568,-306r0,-29r569,-289r18,33r-530,271r530,285","w":672},"\u2265":{"d":"30,37r0,-37r612,0r0,37r-612,0xm63,-41r-19,-35r530,-285r-530,-271r18,-33r569,289r0,29","w":672},"\u221e":{"d":"211,-173v100,-2,140,-76,179,-140v-37,-66,-79,-139,-178,-142v-83,-2,-139,58,-139,141v0,85,51,143,138,141xm605,-170v87,0,136,-60,136,-144v0,-83,-51,-143,-135,-143v-101,0,-135,67,-178,144v42,77,76,143,177,143xm604,-495v109,0,178,75,178,181v0,108,-68,182,-177,182v-107,0,-155,-73,-196,-144v-41,70,-93,143,-203,143v-108,0,-175,-69,-175,-181v0,-111,67,-181,174,-181v110,0,162,74,203,145v40,-71,88,-145,196,-145","w":813},"\u2234":{"d":"227,-184v27,0,51,24,51,51v0,27,-24,51,-51,51v-27,0,-51,-24,-51,-51v0,-27,24,-51,51,-51xm713,-184v27,0,51,24,51,51v0,27,-24,51,-51,51v-27,0,-51,-24,-51,-51v0,-27,24,-51,51,-51xm470,-589v27,0,51,24,51,51v0,27,-24,51,-51,51v-27,0,-51,-24,-51,-51v0,-27,24,-51,51,-51"},"\u2032":{"d":"165,-494r-24,0r91,-235r86,0","w":459},"\u2033":{"d":"102,-494r-22,0r91,-235r84,0xm247,-494r-22,0r91,-235r84,0","w":480},"\u2103":{"d":"254,-497v48,-26,120,-23,136,27v2,39,-40,17,-70,19v-112,6,-133,212,-39,259v51,25,125,-1,168,-16v22,-8,28,24,15,40v-44,55,-178,64,-243,18v-68,-49,-91,-178,-45,-266v18,-36,45,-63,78,-81xm136,-611v39,28,30,136,-8,157v-24,26,-94,23,-103,-14v-21,-78,34,-149,97,-172v18,-7,34,18,14,29xm84,-493v36,-2,26,-56,26,-90v-17,23,-40,47,-34,83v2,5,4,7,8,7","w":496},"\u212b":{"d":"308,-474v24,-3,47,-20,60,12v30,72,54,166,85,241v28,-13,73,6,53,38v-5,7,-15,15,-29,22v19,58,62,102,57,178v-9,30,-44,-1,-50,-13v-28,-46,-48,-97,-70,-148v-55,10,-126,20,-189,22v-19,59,-29,125,-54,178v-14,31,-60,16,-54,-18v32,-188,100,-361,179,-502v3,-5,8,-9,12,-10xm373,-710v39,28,30,136,-8,157v-24,26,-94,24,-103,-13v-21,-78,33,-150,96,-173v18,-7,35,18,15,29xm326,-394v-31,69,-57,137,-80,206v45,-1,92,-7,143,-17v-24,-61,-45,-124,-63,-189xm321,-592v36,-2,26,-56,26,-90v-17,23,-41,47,-35,83v2,5,5,7,9,7","w":661},"\uffe0":{"d":"599,-549v34,16,4,59,-7,81v16,10,34,38,12,56v-13,6,-21,-10,-33,-13r-110,241v53,12,110,-11,148,-24v22,-8,29,25,15,40v-35,41,-116,63,-188,45v-10,29,-43,96,-67,56v-16,-27,0,-63,11,-84v-72,-46,-85,-176,-44,-267v31,-69,110,-110,202,-80v16,-20,29,-66,61,-51xm512,-446v-125,-27,-162,137,-104,226"},"\u00a2":{"d":"599,-549v34,16,4,59,-7,81v16,10,34,38,12,56v-13,6,-21,-10,-33,-13r-110,241v53,12,110,-11,148,-24v22,-8,29,25,15,40v-35,41,-116,63,-188,45v-10,29,-43,96,-67,56v-16,-27,0,-63,11,-84v-72,-46,-85,-176,-44,-267v31,-69,110,-110,202,-80v16,-20,29,-66,61,-51xm512,-446v-125,-27,-162,137,-104,226"},"\uffe1":{"d":"426,-411v62,2,161,-21,158,48v-23,29,-94,11,-144,19r28,117v35,35,70,77,109,107v36,28,58,-12,55,-57v-1,-17,-4,-40,-9,-69v-3,-18,20,-13,32,-8v69,27,40,160,-3,190v-19,25,-70,26,-94,3r-89,-82v-2,62,-27,112,-97,101v-46,-8,-84,-40,-107,-71v-24,-68,28,-113,77,-138v15,-8,32,-9,52,-7v-1,-29,-15,-54,-22,-83v-49,-1,-140,34,-126,-39v1,-7,6,-12,13,-13v29,-6,62,-10,100,-14v-18,-117,55,-214,183,-181v36,9,80,30,89,72v-1,22,-32,38,-49,19v-31,-33,-126,-36,-148,4v-18,20,-14,53,-8,82xm406,-118v31,-73,-46,-105,-80,-52v-21,33,34,63,72,61v4,-2,7,-5,8,-9"},"\u00a3":{"d":"426,-411v62,2,161,-21,158,48v-23,29,-94,11,-144,19r28,117v35,35,70,77,109,107v36,28,58,-12,55,-57v-1,-17,-4,-40,-9,-69v-3,-18,20,-13,32,-8v69,27,40,160,-3,190v-19,25,-70,26,-94,3r-89,-82v-2,62,-27,112,-97,101v-46,-8,-84,-40,-107,-71v-24,-68,28,-113,77,-138v15,-8,32,-9,52,-7v-1,-29,-15,-54,-22,-83v-49,-1,-140,34,-126,-39v1,-7,6,-12,13,-13v29,-6,62,-10,100,-14v-18,-117,55,-214,183,-181v36,9,80,30,89,72v-1,22,-32,38,-49,19v-31,-33,-126,-36,-148,4v-18,20,-14,53,-8,82xm406,-118v31,-73,-46,-105,-80,-52v-21,33,34,63,72,61v4,-2,7,-5,8,-9"},"\uffe5":{"d":"598,-467v32,0,54,14,51,47v-11,22,-58,14,-90,16r-66,102v36,-4,76,-14,115,-9v26,3,31,28,8,41v-39,22,-92,29,-147,35v-7,58,-10,131,-12,193v0,19,-11,29,-32,29v-17,-1,-31,-9,-30,-29r4,-188v-56,-2,-132,20,-140,-30v-9,-52,71,-21,124,-33r-57,-101v-38,7,-90,9,-76,-42v4,-17,26,-14,42,-19v-20,-42,-46,-74,-52,-128v-3,-31,49,-32,59,-9r62,130v50,-5,111,-7,165,-7r88,-146v14,-30,57,-31,60,4v3,37,-21,54,-36,79xm433,-327r51,-74r-90,3"},"\u00a5":{"d":"598,-467v32,0,54,14,51,47v-11,22,-58,14,-90,16r-66,102v36,-4,76,-14,115,-9v26,3,31,28,8,41v-39,22,-92,29,-147,35v-7,58,-10,131,-12,193v0,19,-11,29,-32,29v-17,-1,-31,-9,-30,-29r4,-188v-56,-2,-132,20,-140,-30v-9,-52,71,-21,124,-33r-57,-101v-38,7,-90,9,-76,-42v4,-17,26,-14,42,-19v-20,-42,-46,-74,-52,-128v-3,-31,49,-32,59,-9r62,130v50,-5,111,-7,165,-7r88,-146v14,-30,57,-31,60,4v3,37,-21,54,-36,79xm433,-327r51,-74r-90,3"},"\u2642":{"d":"469,86v82,0,136,-56,136,-138v0,-82,-54,-138,-136,-138v-82,0,-136,56,-136,138v0,82,54,138,136,138xm298,-52v0,-98,63,-158,153,-171r0,-426r-192,246r-29,-22r239,-303r240,305r-30,24r-192,-250r0,426v90,13,153,73,153,171v0,102,-69,171,-171,171v-103,0,-171,-69,-171,-171"},"\u2640":{"d":"470,-416v82,0,136,-56,136,-138v0,-82,-54,-138,-136,-138v-82,0,-136,56,-136,138v0,82,54,138,136,138xm641,-554v0,97,-63,157,-153,170r0,132r272,0r0,38r-272,0r0,332r-36,0r0,-332r-272,0r0,-38r272,0r0,-132v-90,-13,-153,-73,-153,-170v0,-102,68,-172,171,-172v102,0,171,70,171,172"},"\u2220":{"d":"167,0r0,-25r480,-559r28,23r-455,528r552,0r0,33r-605,0"},"\u22a5":{"d":"153,0r0,-35r298,0r0,-533r38,0r0,533r298,0r0,35r-634,0"},"\u2312":{"d":"214,-512v48,-87,123,-154,255,-154v134,0,207,66,256,154r-57,0v-38,-65,-97,-115,-198,-115v-101,0,-161,51,-199,115r-57,0"},"\u2202":{"d":"141,-184v-2,52,65,64,101,36v51,-40,85,-93,104,-165v-102,-24,-202,28,-205,129xm269,-511v131,-3,177,140,127,254v-36,84,-106,154,-218,157v-53,2,-101,-32,-98,-87v5,-108,96,-156,203,-162v24,-1,50,6,65,13v4,-72,-14,-143,-89,-142v-60,1,-87,28,-121,61r-22,-15v34,-40,79,-77,153,-79","w":496},"\u2207":{"d":"179,-545r291,467r291,-467r-582,0xm470,22r-390,-618r780,0"},"\u2261":{"d":"50,-131r0,-40r648,0r0,40r-648,0xm50,-292r0,-40r648,0r0,40r-648,0xm50,-453r0,-39r648,0r0,39r-648,0","w":748},"\u2252":{"d":"50,-210r0,-38r648,0r0,38r-648,0xm561,-137v30,0,55,25,55,55v0,30,-25,55,-55,55v-30,0,-55,-25,-55,-55v0,-30,25,-55,55,-55xm187,-595v30,0,55,25,55,55v0,30,-25,55,-55,55v-30,0,-55,-25,-55,-55v0,-30,25,-55,55,-55xm50,-376r0,-38r648,0r0,38r-648,0","w":748},"\u00a7":{"d":"171,-218v37,31,93,24,93,-26v0,-63,-60,-111,-89,-136v-32,-27,-98,-30,-95,24v3,63,59,112,91,138xm170,-683v-77,0,-83,103,-44,157v61,85,177,137,185,272v3,54,-26,86,-78,85v34,37,54,75,55,138v1,79,-46,136,-122,136v-66,0,-122,-40,-121,-105r56,0v-2,44,25,72,64,73v73,2,82,-95,49,-155v-52,-94,-170,-129,-179,-259v-4,-62,29,-98,93,-88v-37,-34,-70,-88,-71,-153v-1,-83,40,-125,117,-127v66,-1,113,40,114,100r-55,0v0,-43,-18,-74,-63,-74","w":346},"\u203b":{"d":"462,-100v30,0,57,26,57,57v0,30,-27,56,-57,56v-30,0,-56,-26,-56,-56v0,-31,26,-57,56,-57xm216,-355v30,0,58,27,58,57v0,30,-28,57,-58,57v-30,0,-57,-27,-57,-57v0,-30,27,-57,57,-57xm727,-3r-264,-267r-264,267r-31,-31r266,-265r-264,-264r28,-31r264,267r266,-267r28,31r-264,264r266,265xm462,-602v30,0,57,27,57,57v0,30,-27,57,-57,57v-30,0,-57,-27,-57,-57v0,-30,27,-57,57,-57xm723,-355v30,0,57,26,57,57v0,30,-27,56,-57,56v-30,0,-57,-26,-57,-56v0,-31,27,-57,57,-57"},"\u2606":{"d":"541,-380r-71,-217r-71,217r-245,0r194,146r-80,223r202,-139r202,139r-80,-223r194,-146r-245,0xm630,-225r103,298r-263,-184r-263,184r103,-298r-249,-186r311,0r98,-283r98,283r311,0"},"\u2605":{"d":"630,-225r103,298r-263,-184r-263,184r103,-298r-249,-186r311,0r98,-283r98,283r311,0"},"\u25cb":{"d":"734,-564v84,77,148,258,80,408v-57,127,-169,228,-344,228v-175,0,-287,-102,-344,-228v-40,-89,-39,-202,0,-290v58,-127,169,-228,344,-228v112,0,201,52,264,110xm601,12v147,-62,259,-246,179,-444v-47,-117,-151,-205,-310,-205v-160,0,-260,89,-311,205v-60,135,-1,299,71,371v78,78,238,130,371,73"},"\u25cf":{"d":"734,-564v84,77,148,258,80,408v-57,127,-169,228,-344,228v-175,0,-287,-102,-344,-228v-40,-89,-39,-202,0,-290v58,-127,169,-228,344,-228v112,0,201,52,264,110"},"\u25ce":{"d":"385,-96v193,73,358,-102,288,-290v-35,-97,-163,-165,-288,-117v-96,37,-169,164,-117,289v22,53,63,97,117,118xm372,-534v222,-84,413,117,332,332v-41,111,-188,192,-332,135v-110,-43,-194,-187,-135,-331v26,-62,73,-112,135,-136xm610,32v158,-65,281,-261,193,-472v-52,-124,-163,-222,-333,-222v-169,0,-277,99,-332,222v-64,144,-1,318,77,395v84,83,253,136,395,77xm748,-578v89,81,157,272,85,431v-60,135,-178,241,-363,241v-185,0,-303,-107,-363,-241v-71,-158,0,-347,85,-431v92,-90,277,-154,431,-85v48,21,88,51,125,85"},"\u25c7":{"d":"470,-683r-385,384r385,385r384,-385xm470,143r-442,-442r442,-442r442,442"},"\u25c6":{"d":"470,143r-442,-442r442,-442r442,442"},"\u25a1":{"d":"772,-603r-604,0r0,604r604,0r0,-604xm130,39r0,-680r680,0r0,680r-680,0"},"\u25a0":{"d":"130,38r0,-680r680,0r0,680r-680,0"},"\u25b3":{"d":"469,-554r-327,523r656,0xm81,0r388,-618r390,618r-778,0"},"\u25b2":{"d":"81,0r388,-618r390,618r-778,0"},"\u25bd":{"d":"142,-565r327,523r329,-523r-656,0xm469,22r-388,-618r778,0"},"\u25bc":{"d":"469,22r-388,-618r778,0"},"\u2192":{"d":"739,-137r73,-151r-792,0r0,-24r792,0r-73,-151r181,163"},"\u2190":{"d":"128,-288r73,151r-181,-163r181,-163r-73,151r792,0r0,24r-792,0"},"\u2191":{"d":"244,-691r0,891r-24,0r0,-891r-151,73r163,-181r163,181","w":464},"\u2193":{"d":"232,199r-163,-181r151,73r0,-891r24,0r0,891r151,-73","w":464},"\u2194":{"d":"739,-137r73,-151r-684,0r73,151r-181,-163r181,-163r-73,151r684,0r-73,-151r181,163"},"\u3013":{"d":"146,-195r0,-38r648,0r0,38r-648,0xm146,-391r0,-38r648,0r0,38r-648,0"},"\u226a":{"d":"592,34r-481,-319r0,-32r474,-329r22,30r-457,316r462,304xm811,30r-483,-315r0,-32r476,-325r21,29r-458,313r462,300"},"\u00ab":{"d":"592,34r-481,-319r0,-32r474,-329r22,30r-457,316r462,304xm811,30r-483,-315r0,-32r476,-325r21,29r-458,313r462,300"},"\u226b":{"d":"129,30r-18,-30r462,-300r-458,-313r21,-29r476,325r0,32xm348,34r-20,-30r462,-304r-457,-316r22,-30r474,329r0,32"},"\u00bb":{"d":"129,30r-18,-30r462,-300r-458,-313r21,-29r476,325r0,32xm348,34r-20,-30r462,-304r-457,-316r22,-30r474,329r0,32"},"\u221a":{"d":"399,-573r-209,636r-110,-201r-48,32r-16,-21r77,-68r86,158r187,-575r422,0r0,39r-389,0","w":804},"\u223d":{"d":"527,-482v127,-45,248,40,245,168v-3,108,-68,182,-177,182v-40,0,-76,-12,-107,-35r18,-30v25,18,54,27,89,27v86,0,136,-58,136,-144v0,-83,-51,-143,-135,-143v-155,0,-166,173,-252,258v-35,34,-80,69,-148,66v-108,-4,-170,-69,-175,-181v-7,-153,163,-225,283,-148r-19,31v-23,-14,-49,-24,-83,-24v-83,-1,-139,58,-139,141v0,112,113,175,210,123v118,-64,121,-244,254,-291","w":793},"\u221d":{"d":"66,-314v0,109,100,172,200,128v55,-24,89,-76,116,-127v-37,-66,-79,-140,-179,-142v-83,-2,-137,58,-137,141xm400,-350v42,-83,122,-172,251,-136v17,5,32,13,47,24r-20,32v-47,-38,-139,-34,-182,10v-25,26,-52,60,-76,107v43,77,76,140,177,143v28,1,51,-8,70,-18r19,32v-24,13,-54,24,-89,24v-107,0,-157,-72,-197,-144v-41,70,-92,143,-202,143v-108,0,-175,-69,-175,-181v0,-110,67,-181,174,-181v111,0,163,73,203,145","w":721},"\u2235":{"d":"470,-171v27,0,51,24,51,51v0,27,-24,51,-51,51v-27,0,-51,-24,-51,-51v0,-27,24,-51,51,-51xm227,-576v27,0,51,24,51,51v0,27,-24,51,-51,51v-27,0,-51,-24,-51,-51v0,-27,24,-51,51,-51xm713,-576v27,0,51,24,51,51v0,27,-24,51,-51,51v-27,0,-51,-24,-51,-51v0,-27,24,-51,51,-51"},"\u222b":{"d":"93,27v12,32,56,64,78,16v87,-191,-3,-575,140,-731v46,-50,121,-21,148,39r-47,21v-11,-33,-57,-62,-77,-15v-85,193,1,575,-140,731v-44,49,-118,22,-146,-35","w":508},"\u222c":{"d":"187,27v12,32,56,64,78,16v87,-191,-3,-575,140,-731v46,-50,121,-21,148,39r-47,21v-11,-33,-57,-62,-77,-15v-85,193,1,575,-140,731v-44,49,-118,22,-146,-35xm431,27v12,32,56,64,78,16v87,-191,-3,-575,140,-731v46,-50,121,-21,148,39r-47,21v-11,-33,-57,-62,-77,-15v-85,193,1,575,-140,731v-44,49,-118,22,-146,-35"},"\u2208":{"d":"163,-292v11,132,80,216,222,216r434,0r0,38r-457,0v-160,-6,-241,-110,-241,-273v0,-171,90,-273,259,-273r439,0r0,38r-434,0v-142,2,-211,83,-222,216r653,0r0,38r-653,0"},"\u220b":{"d":"560,-584v169,5,259,102,259,273v0,164,-81,273,-241,273r-457,0r0,-38r434,0v142,-2,211,-83,222,-216r-653,0r0,-38r653,0v-11,-132,-80,-216,-222,-216r-434,0r0,-38r439,0"},"\u2286":{"d":"121,4r0,-36r701,0r0,36r-701,0xm118,-377v0,-164,96,-237,260,-238r439,0r0,36r-434,0v-150,0,-225,67,-225,202v0,135,75,202,225,202r434,0r0,36r-457,0v-155,-2,-242,-81,-242,-238"},"\u2287":{"d":"118,4r0,-36r701,0r0,36r-701,0xm562,-615v164,1,260,74,260,238v0,157,-87,238,-242,238r-457,0r0,-36r434,0v150,0,225,-67,225,-202v0,-135,-75,-202,-225,-202r-434,0r0,-36r439,0"},"\u2282":{"d":"163,-311v0,146,75,235,222,235r434,0r0,38r-457,0v-160,-6,-241,-110,-241,-273v0,-171,90,-273,259,-273r439,0r0,38r-434,0v-147,2,-222,89,-222,235"},"\u2283":{"d":"560,-584v169,5,259,102,259,273v0,164,-81,273,-241,273r-457,0r0,-38r434,0v147,-2,222,-89,222,-235v0,-146,-75,-235,-222,-235r-434,0r0,-38r439,0"},"\u222a":{"d":"323,13v146,0,235,-75,235,-222r0,-434r38,0r0,457v-7,159,-109,241,-273,241v-171,0,-273,-90,-273,-259r0,-439r38,0r0,434v2,147,89,222,235,222","w":646},"\u2229":{"d":"323,-670v164,0,273,82,273,241r0,457r-38,0r0,-434v-2,-147,-89,-222,-235,-222v-146,0,-235,75,-235,222r0,434r-38,0r0,-439v4,-169,102,-259,273,-259","w":646},"\u2227":{"d":"751,0r-281,-543r-281,543r-34,-17r295,-570r40,0r295,570"},"\u2228":{"d":"490,-3r-40,0r-295,-570r34,-17r281,543r281,-543r34,17"},"\uffe2":{"d":"864,160r0,-264r-825,0r0,-35r862,0r0,299r-37,0"},"\u00ac":{"d":"864,160r0,-264r-825,0r0,-35r862,0r0,299r-37,0"},"\u21d2":{"d":"670,-47r-21,-21r125,-124r-754,0r0,-29r782,0r79,-78r-79,-78r-782,0r0,-29r753,0r-124,-123r21,-21r250,251"},"\u21d4":{"d":"801,-377r-663,0r-79,78r79,78r663,0r79,-78xm669,-47r-21,-21r125,-124r-607,0r125,124r-21,21r-250,-252r250,-251r21,21r-124,123r605,0r-124,-123r21,-21r250,251"},"\u2200":{"d":"336,-394r134,366r134,-366r-268,0xm507,40r-74,0r-270,-714r71,0r81,222r310,0r81,-222r71,0"},"\u2203":{"d":"233,40r0,-58r407,0r0,-284r-376,0r0,-58r376,0r0,-256r-400,0r0,-58r466,0r0,714r-473,0"},"\u00b4":{"d":"103,-516r-25,0r81,-211r87,0","w":324},"\u02c7":{"d":"257,-590r-204,-103r17,-29r187,92r187,-92r17,29","w":514},"\u02d8":{"d":"258,-625v91,0,138,-35,178,-94r30,19v-47,72,-101,110,-208,110v-105,0,-161,-41,-208,-110r30,-19v42,59,87,94,178,94","w":516},"\u02dd":{"d":"89,-514r-24,0r81,-211r86,0xm260,-514r-24,0r81,-211r86,0","w":468},"\u02da":{"d":"160,-541v42,0,76,-35,76,-77v0,-42,-34,-77,-76,-77v-42,0,-76,35,-76,77v0,42,34,77,76,77xm160,-725v64,0,107,43,107,107v0,64,-43,107,-107,107v-64,0,-107,-43,-107,-107v0,-64,43,-107,107,-107","w":320},"\u02d9":{"d":"127,-686v38,0,69,31,69,69v0,38,-31,68,-69,68v-38,0,-69,-30,-69,-68v0,-38,31,-69,69,-69","w":254},"\u00b8":{"d":"206,124v2,-43,-70,-42,-101,-29r-7,-4r40,-103r32,0r-30,77v47,-29,116,-2,116,56v0,89,-140,92,-195,51r12,-25v32,25,131,33,133,-23","w":317},"\u02db":{"d":"144,145v33,0,54,-18,71,-37r18,14v-25,32,-50,67,-99,68v-64,3,-88,-72,-51,-119v13,-17,30,-34,53,-51r16,16v-22,20,-39,44,-41,73v-1,18,15,37,33,36","w":298},"\u00a1":{"d":"193,41v8,37,-30,24,-59,26v-22,3,-25,-4,-25,-26r11,-517v-9,-35,33,-20,58,-20v2,2,2,8,3,19xm151,-683v26,0,48,22,48,48v0,26,-22,49,-48,49v-26,0,-49,-23,-49,-49v0,-26,23,-48,49,-48","w":302},"\u00bf":{"d":"362,68v-152,27,-273,-40,-273,-184v0,-169,190,-203,184,-369v-1,-29,34,-10,54,-15v14,1,12,-1,13,14v5,179,-173,200,-178,370v-4,135,158,146,271,102v26,-10,13,31,17,50v0,9,-4,15,-13,17v-27,7,-51,11,-75,15xm305,-684v26,0,48,22,48,48v0,26,-22,49,-48,49v-26,0,-49,-23,-49,-49v0,-26,23,-48,49,-48","w":540},"\u02d0":{"d":"379,-103r90,-94r91,94r-181,0xm469,-404r-90,-95r181,0"},"\u2236":{"d":"379,-103r90,-94r91,94r-181,0xm469,-404r-90,-95r181,0"},"\u222e":{"d":"445,-410v-87,19,-114,200,-12,224xm492,-185v101,-11,127,-209,13,-229xm305,27v11,21,24,40,51,41v15,0,28,-20,42,-58v14,-38,25,-93,32,-166v-70,-13,-118,-57,-112,-143v6,-78,64,-127,130,-142v14,-99,30,-191,84,-247v47,-49,120,-21,147,39r-47,21v-9,-22,-23,-39,-50,-40v-15,0,-29,19,-42,58v-13,39,-24,94,-32,166v121,-1,160,170,75,245v-24,21,-57,38,-94,44v-14,97,-31,189,-83,243v-46,47,-117,22,-145,-35"},"\u2211":{"d":"70,40r0,-46r276,-321r-267,-291r0,-56r505,0r0,56r-406,0r265,293r-269,309r414,0r0,56r-518,0","w":658},"\u220f":{"d":"557,-616r0,656r-66,0r0,-656r-228,0r0,656r-66,0r0,-656r-142,0r0,-58r644,0r0,58r-142,0","w":754},"\u00a4":{"d":"519,-46v121,-48,208,-198,147,-361v-45,-121,-204,-208,-361,-147v-120,47,-208,204,-147,361v47,120,204,209,361,147xm412,-621v102,0,180,44,233,101r124,-112r33,33r-128,114v34,47,59,109,59,185v0,84,-29,146,-68,197r136,123r-30,35r-138,-124v-51,50,-126,90,-221,90v-92,0,-162,-36,-214,-82r-131,116r-30,-35r128,-114v-43,-51,-74,-118,-74,-206v0,-80,27,-141,63,-192r-118,-107r34,-33r116,104v54,-54,127,-93,226,-93","w":838},"\u2109":{"d":"655,-354v24,-1,61,28,33,46v-46,29,-125,19,-193,26v3,56,20,113,13,168v-18,35,-58,-4,-62,-30v-7,-57,-14,-114,-22,-171v-8,-57,-16,-114,-25,-171v-45,5,-99,-4,-73,-55v87,-34,244,-1,326,22v11,7,18,14,19,23v-1,7,-25,23,-34,22r-172,-11r22,140v57,-2,113,-6,168,-9xm256,-621v39,28,30,136,-8,157v-24,26,-94,23,-103,-14v-21,-78,34,-149,97,-172v18,-7,34,18,14,29xm204,-503v36,-2,26,-56,26,-90v-17,23,-40,47,-34,83v2,5,4,7,8,7"},"\u2030":{"d":"457,-483v-70,125,-127,272,-186,410v-17,38,-52,39,-55,2v-4,-57,22,-91,42,-134r95,-207v24,-45,39,-91,71,-122v32,-19,51,19,33,51xm246,-501v39,28,30,136,-8,157v-24,26,-94,23,-103,-14v-21,-78,34,-149,97,-172v18,-7,34,18,14,29xm686,-241v39,28,30,136,-8,157v-24,26,-94,23,-103,-14v-21,-78,34,-149,97,-172v18,-7,34,18,14,29xm506,-241v39,28,30,136,-8,157v-24,26,-94,23,-103,-14v-21,-78,34,-149,97,-172v18,-7,34,18,14,29xm194,-383v36,-2,26,-56,26,-90v-17,23,-40,47,-34,83v2,5,4,7,8,7xm634,-123v36,-2,26,-56,26,-90v-17,23,-40,47,-34,83v2,5,4,7,8,7xm454,-123v36,-2,26,-56,26,-90v-17,23,-40,47,-34,83v2,5,4,7,8,7"},"\u25c1":{"d":"706,-538r-446,282r446,279r0,-561xm205,-256r529,-334r0,665"},"\u25c0":{"d":"204,-257r531,-334r0,667"},"\u25b7":{"d":"232,-540r0,564r448,-281xm204,76r0,-667r531,334"},"\u25b6":{"d":"204,76r0,-667r531,334"},"\u2664":{"d":"595,-84v101,34,145,-83,93,-172v-62,-107,-142,-212,-218,-307r-80,99v-51,65,-98,140,-139,208v-51,85,-10,209,94,172v28,-10,48,-33,76,-40v48,0,23,66,18,100v-3,21,-12,45,-21,71v0,29,54,17,87,17v13,0,18,-6,16,-17v-14,-52,-39,-105,-27,-161v34,-27,69,19,101,30xm309,-43v-112,0,-147,-120,-95,-217v68,-126,167,-248,256,-358r99,124v58,74,112,155,155,234v52,96,18,217,-93,217v-44,0,-69,-22,-105,-40v4,60,23,117,44,161v8,34,-61,25,-100,23r-88,-4v-13,-2,-18,-8,-13,-19v21,-41,40,-109,45,-161v-38,19,-60,40,-105,40"},"\u2660":{"d":"309,-43v-112,0,-147,-120,-95,-217v68,-126,167,-248,256,-358r99,124v58,74,112,155,155,234v52,96,18,217,-93,217v-44,0,-69,-22,-105,-40v4,60,23,117,44,161v8,34,-61,25,-100,23r-88,-4v-13,-2,-18,-8,-13,-19v21,-41,40,-109,45,-161v-38,19,-60,40,-105,40"},"\u2661":{"d":"406,-478v-64,-81,-197,-6,-185,96v16,135,96,232,165,319v28,36,57,65,84,92v82,-85,170,-194,223,-309v47,-102,23,-239,-100,-233v-70,3,-80,78,-103,131v-6,17,-32,16,-40,0v-14,-30,-23,-70,-44,-96xm610,-547v137,0,172,160,116,282v-60,130,-163,247,-256,342v-94,-94,-197,-212,-257,-342v-56,-121,-23,-282,115,-282v87,0,122,59,142,146v19,-87,52,-146,140,-146"},"\u2665":{"d":"610,-547v137,0,172,160,116,282v-60,130,-163,247,-256,342v-94,-94,-197,-212,-257,-342v-56,-121,-23,-282,115,-282v87,0,122,59,142,146v19,-87,52,-146,140,-146"},"\u2667":{"d":"601,-68v77,38,161,-19,156,-104v-4,-62,-35,-111,-98,-114v-54,-2,-78,38,-123,43v-40,4,-57,-51,-30,-77v34,-33,76,-59,74,-128v-2,-64,-46,-97,-110,-100v-87,-5,-135,83,-98,161v19,40,67,51,73,99v5,36,-35,55,-67,38v-29,-15,-55,-36,-98,-36v-64,0,-96,51,-99,114v-5,85,77,140,156,104v37,-17,54,-55,95,-65v11,0,13,9,13,19v-3,60,-29,99,-26,167v1,18,32,11,51,13v18,-2,48,4,49,-13v3,-68,-23,-107,-26,-167v-2,-26,26,-21,40,-7v21,20,40,39,68,53xm608,-307v102,-33,182,37,186,136v6,135,-156,195,-246,105v-8,-8,-17,-14,-23,-20v16,38,33,108,32,164v-21,31,-105,13,-161,13v-24,0,-14,-36,-12,-59v4,-44,14,-87,30,-118v-32,29,-71,66,-131,66v-88,0,-138,-63,-138,-151v0,-99,83,-169,185,-136v21,6,39,19,62,23v16,-1,12,-21,4,-29v-39,-35,-76,-64,-74,-135v2,-85,63,-126,148,-132v128,-8,191,147,106,235v-10,17,-47,29,-39,56v2,8,15,6,23,2v16,-8,32,-14,48,-20"},"\u2663":{"d":"608,-307v102,-33,182,37,186,136v6,135,-156,195,-246,105v-8,-8,-17,-14,-23,-20v16,38,33,108,32,164v-21,31,-105,13,-161,13v-24,0,-14,-36,-12,-59v4,-44,14,-87,30,-118v-32,29,-71,66,-131,66v-88,0,-138,-63,-138,-151v0,-99,83,-169,185,-136v21,6,39,19,62,23v16,-1,12,-21,4,-29v-39,-35,-76,-64,-74,-135v2,-85,63,-126,148,-132v128,-8,191,147,106,235v-10,17,-47,29,-39,56v2,8,15,6,23,2v16,-8,32,-14,48,-20"},"\u2299":{"d":"470,-454v93,0,155,62,155,155v0,93,-62,155,-155,155v-93,0,-155,-62,-155,-155v0,-93,62,-155,155,-155xm606,24v153,-64,271,-254,187,-459v-50,-121,-158,-215,-323,-215v-164,0,-268,96,-322,215v-63,140,-1,308,75,383v82,81,245,134,383,76xm746,-575v88,81,154,271,84,428v-60,133,-176,238,-360,238v-183,0,-299,-106,-359,-238v-41,-93,-41,-211,0,-304v60,-133,176,-238,359,-238v119,0,210,53,276,114"},"\u25c9":{"d":"470,-454v93,0,155,62,155,155v0,93,-62,155,-155,155v-93,0,-155,-62,-155,-155v0,-93,62,-155,155,-155xm606,24v153,-64,271,-254,187,-459v-50,-121,-158,-215,-323,-215v-164,0,-268,96,-322,215v-63,140,-1,308,75,383v82,81,245,134,383,76xm746,-575v88,81,154,271,84,428v-60,133,-176,238,-360,238v-183,0,-299,-106,-359,-238v-41,-93,-41,-211,0,-304v60,-133,176,-238,359,-238v119,0,210,53,276,114"},"\u25c8":{"d":"470,-29r-269,-268r269,-268r268,268xm470,-681r-385,384r384,384r385,-385xm469,136r-433,-433r434,-435r434,434"},"\u25a3":{"d":"240,-67r0,-460r460,0r0,460r-460,0xm804,-631r-668,0r0,667r668,0r0,-667xm98,74r0,-743r744,0r0,743r-744,0"},"\u25d0":{"d":"606,24v154,-62,271,-254,187,-459v-50,-121,-158,-209,-323,-215r0,701v48,0,93,-10,136,-27xm746,-575v88,81,154,271,84,428v-60,133,-176,238,-360,238v-183,0,-299,-106,-359,-238v-41,-93,-41,-211,0,-304v60,-133,176,-238,359,-238v119,0,210,53,276,114"},"\u25d1":{"d":"470,-650v-164,5,-273,94,-323,215v-84,203,34,399,187,459v43,17,88,27,136,27r0,-701xm745,-575v88,81,156,271,84,428v-60,133,-176,238,-359,238v-183,0,-301,-105,-360,-238v-41,-93,-41,-211,0,-304v60,-133,176,-238,360,-238v118,0,209,53,275,114"},"\u2592":{"d":"164,-19v0,-14,12,-25,26,-25v16,0,24,8,24,25v0,14,-10,26,-24,26v-14,0,-26,-12,-26,-26xm283,-44v13,0,25,11,25,25v0,14,-12,26,-25,26v-14,0,-26,-12,-26,-26v0,-14,12,-25,26,-25xm190,-137v14,0,24,11,24,24v0,14,-10,26,-24,26v-14,0,-26,-12,-26,-26v0,-13,12,-24,26,-24xm283,-137v13,0,25,11,25,24v1,14,-12,26,-25,26v-14,0,-26,-12,-26,-26v0,-13,12,-24,26,-24xm376,-44v14,0,26,11,26,25v0,14,-12,26,-26,26v-14,0,-25,-12,-25,-26v0,-17,8,-25,25,-25xm190,-232v14,0,24,12,24,26v0,14,-10,26,-24,26v-14,0,-26,-12,-26,-26v0,-14,12,-26,26,-26xm376,-137v14,0,26,11,26,24v0,14,-12,26,-26,26v-14,0,-25,-12,-25,-26v0,-13,11,-24,25,-24xm283,-232v13,0,25,12,25,26v0,14,-12,26,-25,26v-14,0,-26,-12,-26,-26v0,-14,12,-26,26,-26xm445,-19v0,-14,12,-25,25,-25v17,0,25,8,25,25v0,14,-11,26,-25,26v-13,0,-25,-12,-25,-26xm164,-300v0,-14,12,-25,26,-25v16,0,24,8,24,25v0,13,-10,25,-24,25v-14,0,-26,-12,-26,-25xm470,-137v14,0,25,11,25,24v0,14,-11,26,-25,26v-13,0,-26,-12,-25,-26v0,-13,12,-24,25,-24xm376,-232v14,0,26,12,26,26v0,14,-12,26,-26,26v-14,0,-25,-12,-25,-26v0,-14,11,-26,25,-26xm283,-325v13,0,26,11,25,25v0,13,-12,25,-25,25v-14,1,-26,-12,-26,-25v0,-14,12,-25,26,-25xm564,-44v14,0,26,11,26,25v0,14,-12,26,-26,26v-14,0,-26,-12,-26,-26v0,-14,12,-25,26,-25xm190,-420v14,0,24,12,24,26v0,14,-10,26,-24,26v-14,0,-26,-12,-26,-26v0,-14,12,-26,26,-26xm564,-137v14,0,26,11,26,24v0,14,-12,26,-26,26v-14,0,-26,-12,-26,-26v0,-13,12,-24,26,-24xm470,-232v14,0,25,12,25,26v0,14,-11,26,-25,26v-13,0,-25,-12,-25,-26v0,-14,12,-26,25,-26xm376,-325v14,0,26,11,26,25v0,13,-12,25,-26,25v-14,0,-25,-12,-25,-25v0,-17,8,-25,25,-25xm283,-420v13,0,25,12,25,26v0,14,-12,26,-25,26v-14,0,-26,-12,-26,-26v0,-14,12,-26,26,-26xm658,7v-14,0,-25,-12,-25,-26v0,-17,8,-25,25,-25v17,0,25,8,25,25v0,14,-11,26,-25,26xm190,-513v14,0,24,12,24,26v0,13,-10,24,-24,24v-14,0,-26,-11,-26,-24v0,-14,12,-26,26,-26xm751,-44v14,0,26,11,26,25v0,14,-12,26,-26,26v-14,0,-25,-12,-25,-26v0,-17,8,-25,25,-25xm658,-137v14,0,25,11,25,24v0,14,-11,26,-25,26v-14,0,-25,-12,-25,-26v0,-13,11,-24,25,-24xm564,-232v14,0,26,12,26,26v0,14,-12,26,-26,26v-14,0,-26,-12,-26,-26v0,-14,12,-26,26,-26xm445,-300v-1,-14,12,-25,25,-25v17,0,25,8,25,25v0,13,-11,26,-25,25v-13,0,-25,-12,-25,-25xm376,-420v14,0,26,12,26,26v0,14,-12,26,-26,26v-14,0,-25,-12,-25,-26v0,-14,11,-26,25,-26xm283,-513v13,0,26,12,25,26v0,13,-12,24,-25,24v-14,0,-26,-11,-26,-24v0,-14,12,-26,26,-26xm190,-607v14,0,24,12,24,26v0,17,-8,25,-24,25v-14,0,-26,-11,-26,-25v0,-14,12,-26,26,-26xm751,-137v14,0,26,11,26,24v0,14,-12,26,-26,26v-14,0,-25,-12,-25,-26v0,-13,11,-24,25,-24xm283,-607v13,0,25,12,25,26v0,14,-12,25,-25,25v-14,0,-26,-11,-26,-25v0,-14,12,-26,26,-26xm658,-232v14,0,25,12,25,26v0,14,-11,26,-25,26v-14,0,-25,-12,-25,-26v0,-14,11,-26,25,-26xm564,-325v14,0,26,11,26,25v0,13,-12,25,-26,25v-14,0,-26,-12,-26,-25v0,-14,12,-25,26,-25xm470,-420v14,0,25,12,25,26v0,14,-11,26,-25,26v-13,0,-25,-12,-25,-26v0,-14,12,-26,25,-26xm376,-513v14,0,26,12,26,26v0,13,-12,24,-26,24v-14,0,-25,-11,-25,-24v0,-14,11,-26,25,-26xm751,-232v14,0,26,12,26,26v0,14,-12,26,-26,26v-14,0,-25,-12,-25,-26v0,-14,11,-26,25,-26xm376,-607v14,0,26,12,26,26v0,14,-12,25,-26,25v-17,0,-25,-8,-25,-25v0,-14,11,-26,25,-26xm658,-275v-14,0,-25,-12,-25,-25v0,-17,8,-25,25,-25v17,0,25,8,25,25v0,13,-11,25,-25,25xm564,-420v14,0,26,12,26,26v0,14,-12,26,-26,26v-14,0,-26,-12,-26,-26v0,-14,12,-26,26,-26xm470,-513v14,0,25,12,25,26v0,13,-11,24,-25,24v-13,0,-25,-11,-25,-24v-1,-14,12,-26,25,-26xm751,-325v14,0,26,11,26,25v0,13,-12,25,-26,25v-14,0,-25,-12,-25,-25v0,-17,8,-25,25,-25xm470,-607v14,0,25,12,25,26v0,17,-8,25,-25,25v-13,0,-25,-11,-25,-25v0,-14,12,-26,25,-26xm658,-420v14,0,25,12,25,26v0,14,-11,26,-25,26v-14,0,-25,-12,-25,-26v0,-14,11,-26,25,-26xm564,-513v14,0,26,12,26,26v0,13,-12,24,-26,24v-14,0,-26,-11,-26,-24v0,-14,12,-26,26,-26xm751,-420v14,0,26,12,26,26v0,14,-12,26,-26,26v-14,0,-25,-12,-25,-26v0,-14,11,-26,25,-26xm564,-607v14,0,26,12,26,26v0,14,-12,25,-26,25v-14,0,-26,-11,-26,-25v0,-14,12,-26,26,-26xm658,-513v14,0,25,12,25,26v0,13,-11,24,-25,24v-14,0,-25,-11,-25,-24v0,-14,11,-26,25,-26xm751,-513v14,0,26,12,26,26v0,13,-12,24,-26,24v-14,0,-25,-11,-25,-24v0,-14,11,-26,25,-26xm658,-607v14,0,25,12,25,26v0,17,-8,25,-25,25v-17,0,-25,-8,-25,-25v0,-14,11,-26,25,-26xm751,-607v14,0,26,12,26,26v0,14,-12,25,-26,25v-17,0,-25,-8,-25,-25v0,-14,11,-26,25,-26xm809,-636r-678,0r0,677r678,0r0,-677xm98,74r0,-743r744,0r0,743r-744,0"},"\u25a4":{"d":"809,-26r-678,0r0,67r678,0r0,-67xm809,-126r-678,0r0,68r678,0r0,-68xm809,-230r-678,0r0,72r678,0r0,-72xm809,-333r-678,0r0,71r678,0r0,-71xm809,-431r-678,0r0,66r678,0r0,-66xm809,-536r-678,0r0,73r678,0r0,-73xm809,-636r-678,0r0,68r678,0r0,-68xm98,74r0,-743r744,0r0,743r-744,0"},"\u25a5":{"d":"199,-636r-68,0r0,677r68,0r0,-677xm304,-636r-73,0r0,677r73,0r0,-677xm402,-636r-66,0r0,677r66,0r0,-677xm505,-636r-71,0r0,677r71,0r0,-677xm609,-636r-72,0r0,677r72,0r0,-677xm709,-636r-68,0r0,677r68,0r0,-677xm809,-636r-68,0r0,677r68,0r0,-677xm98,74r0,-743r744,0r0,743r-744,0"},"\u25a8":{"d":"667,-636r-536,535r0,118r653,-653r-117,0xm501,-636r-370,369r0,118r488,-487r-118,0xm334,-636r-203,202r0,119r322,-321r-119,0xm131,-636r0,154r155,-154r-155,0xm809,-115r-156,156r156,0r0,-156xm809,-281r-322,322r118,0r204,-204r0,-118xm809,-447r-488,488r118,0r370,-370r0,-118xm809,-613r-654,654r118,0r536,-536r0,-118xm98,74r0,-743r744,0r0,743r-744,0"},"\u25a7":{"d":"131,-115r0,156r156,0xm131,-281r0,118r204,204r118,0xm131,-447r0,118r370,370r118,0xm131,-613r0,118r536,536r118,0xm809,-101r-536,-535r-117,0r653,653r0,-118xm809,-267r-370,-369r-118,0r488,487r0,-118xm809,-434r-203,-202r-119,0r322,321r0,-119xm809,-636r-155,0r155,154r0,-154xm98,74r0,-743r744,0r0,743r-744,0"},"\u25a6":{"d":"202,-30r-71,0r0,71r71,0r0,-71xm202,-131r-71,0r0,71r71,0r0,-71xm303,-30r-71,0r0,71r71,0r0,-71xm303,-131r-71,0r0,71r71,0r0,-71xm202,-232r-71,0r0,71r71,0r0,-71xm404,-30r-71,0r0,71r71,0r0,-71xm404,-131r-71,0r0,71r71,0r0,-71xm303,-232r-71,0r0,71r71,0r0,-71xm202,-333r-71,0r0,71r71,0r0,-71xm505,-30r-71,0r0,71r71,0r0,-71xm505,-131r-71,0r0,71r71,0r0,-71xm404,-232r-71,0r0,71r71,0r0,-71xm303,-333r-71,0r0,71r71,0r0,-71xm202,-434r-71,0r0,71r71,0r0,-71xm606,-30r-71,0r0,71r71,0r0,-71xm606,-131r-71,0r0,71r71,0r0,-71xm505,-232r-71,0r0,71r71,0r0,-71xm404,-333r-71,0r0,71r71,0r0,-71xm303,-434r-71,0r0,71r71,0r0,-71xm202,-535r-71,0r0,71r71,0r0,-71xm707,-30r-71,0r0,71r71,0r0,-71xm707,-131r-71,0r0,71r71,0r0,-71xm606,-232r-71,0r0,71r71,0r0,-71xm505,-333r-71,0r0,71r71,0r0,-71xm404,-434r-71,0r0,71r71,0r0,-71xm303,-535r-71,0r0,71r71,0r0,-71xm202,-636r-71,0r0,71r71,0r0,-71xm809,-30r-71,0r0,71r71,0r0,-71xm707,-232r-71,0r0,71r71,0r0,-71xm606,-333r-71,0r0,71r71,0r0,-71xm505,-434r-71,0r0,71r71,0r0,-71xm404,-535r-71,0r0,71r71,0r0,-71xm303,-636r-71,0r0,71r71,0r0,-71xm809,-131r-71,0r0,71r71,0r0,-71xm707,-333r-71,0r0,71r71,0r0,-71xm606,-434r-71,0r0,71r71,0r0,-71xm505,-535r-71,0r0,71r71,0r0,-71xm404,-636r-71,0r0,71r71,0r0,-71xm809,-232r-71,0r0,71r71,0r0,-71xm707,-434r-71,0r0,71r71,0r0,-71xm606,-535r-71,0r0,71r71,0r0,-71xm505,-636r-71,0r0,71r71,0r0,-71xm809,-333r-71,0r0,71r71,0r0,-71xm707,-535r-71,0r0,71r71,0r0,-71xm606,-636r-71,0r0,71r71,0r0,-71xm809,-434r-71,0r0,71r71,0r0,-71xm707,-636r-71,0r0,71r71,0r0,-71xm809,-535r-71,0r0,71r71,0r0,-71xm809,-636r-71,0r0,71r71,0r0,-71xm98,74r0,-743r744,0r0,743r-744,0"},"\u25a9":{"d":"219,-27r-67,68r135,0xm131,-115r0,128r64,-64xm302,-110r-59,59r68,68r58,-60xm214,-198r-59,59r64,64r59,-59xm394,-18r-60,59r119,0xm131,-281r0,117r59,-58xm477,-101r-59,59r59,59r59,-59xm386,-193r-60,59r67,68r60,-59xm297,-281r-59,59r64,64r59,-59xm214,-364r-59,59r59,59r59,-59xm131,-447r0,118r59,-59xm560,-18r-59,59r118,0xm643,-101r-59,59r59,59r59,-59xm560,-184r-59,59r59,59r59,-59xm380,-364r-59,59r65,64r58,-58xm297,-447r-59,59r59,59r59,-59xm214,-530r-59,59r59,59r59,-59xm469,-276r-59,60r66,66r60,-58xm131,-613r0,118r59,-59xm726,-18r-59,59r118,0xm809,-101r-59,59r59,59r0,-118xm156,-636r58,58r59,-58r-117,0xm379,-529r-58,58r60,60r58,-59xm726,-184r-59,59r59,59r59,-59xm642,-267r-58,58r59,60r59,-59xm463,-446r-58,59r64,64r58,-59xm296,-613r-58,59r59,59r59,-58xm551,-358r-58,59r66,66r60,-58xm809,-267r-59,59r59,59r0,-118xm321,-636r59,59r59,-59r-118,0xm725,-350r-59,59r60,59r59,-59xm635,-441r-59,59r66,67r59,-60xm546,-528r-59,58r65,64r59,-59xm463,-612r-59,59r59,59r60,-59xm809,-434r-60,60r60,60r0,-120xm487,-636r60,60r60,-60r-120,0xm630,-612r-60,59r65,65r59,-60xm719,-525r-61,60r67,67r60,-60xm654,-636r64,64r65,-64r-129,0xm809,-615r-67,67r67,66r0,-133xm98,74r0,-743r744,0r0,743r-744,0"},"\u2668":{"d":"846,-160v63,87,-29,176,-96,210v-175,89,-530,68,-646,-50v-41,-41,-43,-100,-8,-144v43,-53,117,-93,192,-106v14,17,-21,23,-33,30v-45,26,-111,60,-111,126v0,46,58,63,106,76v162,43,424,38,528,-46v79,-63,-22,-144,-86,-161v-8,-3,-11,-6,-9,-11v14,-13,32,-1,57,6v41,12,82,37,106,70xm357,-506v-23,118,71,201,27,318v-18,47,-54,101,-65,154v-2,12,-12,10,-17,0v-30,-80,33,-152,20,-252v-9,-65,-42,-112,-32,-190v9,-71,47,-116,63,-179v2,-10,11,-9,14,-1v10,45,1,92,-10,150xm500,-538v-50,133,84,221,20,354v-26,54,-61,102,-72,160v-2,12,-14,10,-17,1v-12,-36,-11,-82,8,-123v29,-60,25,-164,-1,-217v-42,-84,-15,-185,21,-244v17,-28,22,-59,23,-93v0,-16,11,-12,15,-2v19,41,21,116,3,164xm627,-509v-14,116,70,165,40,278v-21,79,-79,123,-95,203v-3,7,-11,12,-14,0v-29,-112,84,-198,30,-320v-31,-72,-35,-168,0,-233v11,-21,9,-60,18,-80v15,6,17,32,23,60v5,23,3,54,-2,92"},"\u260f":{"d":"470,-62v88,0,147,-58,147,-146v0,-88,-59,-147,-147,-147v-88,0,-147,59,-147,147v0,88,59,146,147,146xm470,-378v102,0,170,68,170,170v0,102,-68,170,-170,170v-102,0,-170,-68,-170,-170v0,-102,68,-170,170,-170xm803,0v13,-14,5,-58,-11,-64v-2,-56,-15,-110,-45,-140v-39,-39,-85,-72,-106,-129v-21,-54,-30,-109,-26,-171r-47,0r0,84r-196,0r0,-84r-47,0v7,109,-28,211,-92,262v-49,38,-86,91,-85,178v-17,8,-24,48,-11,64r666,0xm470,-512v81,-8,205,-36,241,32v18,33,-18,72,-6,101v41,23,98,44,162,41v33,-87,-33,-171,-115,-199v-180,-62,-496,-67,-628,33v-41,31,-65,81,-60,148v2,30,25,17,50,17v45,0,89,-22,121,-40v14,-26,-22,-66,-6,-101v29,-65,163,-41,241,-32xm548,-504v-42,13,-114,13,-156,0r0,65r156,0r0,-65xm107,-18v2,-24,5,-49,22,-57v-3,-96,43,-151,99,-194v54,-42,85,-138,74,-232v-30,5,-65,17,-54,55v10,35,29,74,-14,92v-46,20,-104,48,-167,39v-45,-6,-31,-93,-15,-129v69,-155,319,-179,538,-154v159,18,310,59,310,241v0,70,-93,38,-138,26v-45,-12,-107,-36,-78,-94v11,-22,13,-57,-11,-66v-11,-4,-22,-8,-35,-10v-12,92,19,189,74,232v55,44,102,95,99,194v17,8,20,33,22,57v2,28,-7,39,-35,39r-656,0v-28,2,-37,-11,-35,-39"},"\u260e":{"d":"470,-62v88,0,147,-58,147,-146v0,-88,-59,-147,-147,-147v-88,0,-147,59,-147,147v0,88,59,146,147,146xm548,-504v-42,13,-114,13,-156,0r0,65r156,0r0,-65xm107,-18v2,-24,5,-49,22,-57v-3,-96,43,-151,99,-194v54,-42,85,-138,74,-232v-30,5,-65,17,-54,55v10,35,29,74,-14,92v-46,20,-104,48,-167,39v-45,-6,-31,-93,-15,-129v69,-155,319,-179,538,-154v159,18,310,59,310,241v0,70,-93,38,-138,26v-45,-12,-107,-36,-78,-94v11,-22,13,-57,-11,-66v-11,-4,-22,-8,-35,-10v-12,92,19,189,74,232v55,44,102,95,99,194v17,8,20,33,22,57v2,28,-7,39,-35,39r-656,0v-28,2,-37,-11,-35,-39"},"\u261c":{"d":"489,-220v-44,4,-120,-18,-119,23v11,32,79,18,120,20v27,2,37,-29,16,-39v-6,-2,-12,-4,-17,-4xm347,-255v8,33,82,16,127,21v21,2,37,-22,22,-36v-28,-14,-86,-7,-128,-7v-11,0,-21,11,-21,22xm446,-425r-225,4v-30,1,-53,4,-69,5v-31,2,-32,31,-3,34v66,8,169,15,242,15v13,-22,30,-51,55,-58xm341,-330v-25,3,-22,37,1,37v40,1,105,5,134,-7v9,-10,4,-30,-13,-30v-44,0,-81,-6,-122,0xm520,-176v98,2,164,-27,220,-59v4,1,0,7,0,10r18,0r0,-140v-10,1,-32,0,-40,-2v2,7,5,26,-4,12v-43,-63,-194,-97,-281,-48v-14,7,-23,40,-38,47v-1,13,10,10,29,4v19,-6,26,-25,43,-29v3,3,2,8,-3,14v19,8,53,1,64,-9v10,-9,15,-1,9,8v-3,4,-6,8,-11,11v27,34,89,58,150,61v4,1,6,3,6,6v-66,17,-141,-28,-170,-65v-15,7,-51,0,-59,-3r-14,12v35,-1,68,8,59,44v-2,6,-5,12,-10,16v30,3,38,40,15,54v31,6,38,38,17,56xm812,-394r-40,0r0,185r40,0r0,-185xm309,-310v2,-34,32,-35,75,-36r-3,-8r-195,-8v-40,2,-92,-20,-64,-56v100,-36,272,-20,418,-20v71,0,125,16,164,53v18,5,34,6,54,5r0,-29r68,0r0,214r-69,0r0,-19r-26,0v-75,49,-241,74,-360,42v-21,-6,-26,-42,-5,-51v-29,2,-46,-37,-24,-57v-17,-3,-34,-9,-33,-30"},"\u261e":{"d":"167,-394r-40,0r0,185r40,0r0,-185xm486,-358v-8,3,-44,10,-59,3v-30,35,-87,73,-161,69v-11,-1,-11,-9,-2,-10v62,-6,121,-25,149,-61v-6,-5,-15,-12,-13,-21v15,1,46,25,75,11v-5,-6,-6,-11,-3,-14v17,7,44,40,69,33v11,-12,-13,-15,-15,-30v-43,-80,-230,-51,-280,2v-10,10,-18,21,-28,26r3,-17v-9,2,-30,3,-40,2r0,140r18,0v-1,-3,-5,-9,-1,-10v58,33,121,61,221,59v-20,-17,-15,-50,17,-56v-23,-13,-15,-51,15,-54v-16,-11,-18,-48,9,-54v11,-3,24,-6,40,-6xm449,-177v45,0,132,13,117,-35v-24,-17,-95,-9,-134,-4v-21,9,-10,39,17,39xm465,-234v47,0,118,12,127,-21v-6,-37,-65,-23,-108,-23v-27,0,-48,-1,-47,26v0,12,17,18,28,18xm475,-295v47,-1,128,20,140,-15v2,-28,-48,-23,-75,-23v-27,0,-99,-9,-78,33v3,3,8,4,13,5xm790,-382v29,-3,28,-31,-3,-34v-83,-7,-206,-8,-294,-9v26,7,42,36,55,58r170,-8v34,-2,58,-5,72,-7xm568,-172v-117,32,-287,7,-360,-42r-26,0r0,19r-69,0r0,-214r68,0r0,29v19,1,36,-1,54,-5v92,-87,309,-50,484,-50v43,0,100,-5,107,36v-17,59,-122,31,-194,44r-74,1r-3,8v43,1,73,2,75,36v2,21,-16,27,-33,30v23,21,3,60,-24,57v20,8,17,45,-5,51"},"\u00b6":{"d":"81,-523v0,-126,80,-191,209,-191r234,0r0,824r-54,0r0,-784r-124,0r0,784r-54,0r0,-442v-130,-2,-211,-64,-211,-191","w":605},"\u2020":{"d":"294,-382r0,394r-36,0r0,-394r-198,0r0,-34r198,0r0,-224r36,0r0,224r198,0r0,34r-198,0","w":552},"\u2021":{"d":"294,-315r0,328r-36,0r0,-328r-198,0r0,-34r198,0r0,-130r-198,0r0,-34r198,0r0,-126r36,0r0,126r198,0r0,34r-198,0r0,130r198,0r0,34r-198,0","w":552},"\u2195":{"d":"222,20r-163,-181r151,73r0,-422r-151,73r163,-181r163,181r-151,-73r0,422r151,-73","w":444},"\u2197":{"d":"623,-447r-383,428r-17,-17r383,-429r-162,-45r241,-27r0,243"},"\u2199":{"d":"285,-109r383,-428r17,17r-383,429r162,45r-241,27r0,-243"},"\u2196":{"d":"223,-294r0,-243r241,27r-162,45r383,429r-17,17r-383,-428"},"\u2198":{"d":"685,-262r0,243r-241,-27r162,-45r-383,-429r17,-17r383,428"},"\u266d":{"d":"169,-94v-30,-139,-48,-287,-48,-451v0,-35,35,-30,48,-15v35,41,7,149,26,221v24,-60,126,-73,166,-17v33,46,38,124,5,176v-42,66,-102,115,-167,153v-35,20,-89,-9,-59,-44v7,-9,21,-16,29,-23xm226,-130v44,-33,97,-68,103,-140v4,-51,-43,-71,-79,-48v-50,32,-38,125,-24,188","w":517},"\u2669":{"d":"288,-165v5,99,-39,146,-105,175v-56,25,-102,-30,-75,-85v25,-52,76,-82,142,-92r0,-395r38,0r0,397","w":388},"\u266a":{"d":"210,-517v-1,-19,3,-56,22,-35v56,64,138,126,196,190v60,104,-25,226,-102,270v-16,9,-22,-4,-10,-12v62,-40,117,-196,26,-248v-27,-15,-63,-23,-94,-33v-9,140,32,313,-68,375v-29,18,-84,44,-106,7v-50,-83,49,-154,136,-164r0,-350","w":539},"\u266c":{"d":"569,-510r-308,65r0,58r308,-65r0,-58xm609,-232v-6,80,-61,132,-129,151v-70,20,-79,-65,-40,-107v33,-36,73,-56,129,-63r0,-127r-308,66v-6,82,18,179,-19,233v-29,43,-68,95,-142,85v-48,-6,-34,-77,-8,-106v33,-36,73,-56,129,-63r0,-351r388,-77r0,359","w":693},"\u327f":{"d":"133,-208v34,141,167,261,336,261v188,0,348,-154,353,-333r-195,0r0,-72r265,0v34,268,-180,476,-423,476v-202,1,-380,-153,-414,-331xm573,-84r-165,-190r-4,5r0,185r-84,0r0,-453r84,0r0,171r144,-167r104,0r-188,210r220,239r-111,0xm45,-280v-14,-249,190,-445,424,-445v195,0,346,129,399,283r-79,0v-54,-118,-155,-208,-320,-213v-177,-5,-331,141,-351,303r124,0r0,72r-197,0"},"\u321c":{"d":"462,-642v54,19,10,94,-8,121v72,-21,173,7,228,33v20,10,37,17,34,41v-44,27,-95,-6,-146,-11v-25,-2,-75,-9,-116,-8v-8,1,-16,-3,-23,-12v-26,37,-33,80,-37,133v-1,25,-34,37,-50,19v-35,-98,35,-190,72,-261v-51,5,-95,48,-144,59v-22,5,-38,-24,-26,-43v48,-41,131,-100,216,-71xm684,-601v-19,-22,21,-50,46,-35v138,92,192,411,70,564v-24,30,-43,64,-92,64v-41,-31,9,-75,29,-96v81,-85,75,-269,21,-383v-21,-45,-46,-82,-74,-114xm256,-601v-74,84,-136,225,-108,385v11,64,57,114,94,157v25,29,-9,67,-46,43v-124,-81,-158,-331,-82,-491v24,-50,55,-100,96,-129v22,-15,67,11,46,35xm553,-253v25,58,4,184,24,266v8,31,-37,43,-48,19v-29,-63,-26,-180,-28,-269v-42,10,-81,36,-132,33v-47,-15,-9,-53,18,-62v24,-8,47,-18,73,-26v74,-23,154,-43,250,-43v30,0,36,31,3,40"},"\u2116":{"d":"534,-478v36,-21,87,-9,118,8v83,-22,149,94,120,189v-28,92,-132,192,-248,131v-99,-52,-75,-279,10,-328xm96,-135v-80,-25,-39,-176,-43,-274v-2,-58,9,-129,61,-93v4,6,6,14,7,23v87,62,148,148,210,234v17,-85,25,-194,35,-289v-3,-13,23,-29,36,-28v19,2,28,11,28,28v0,57,-9,115,-16,174v-9,69,-14,141,-37,193v-53,36,-94,-38,-119,-73v-41,-58,-88,-117,-141,-164v-2,44,-4,87,-5,130v-1,43,-1,87,0,130v0,6,-5,9,-16,9xm671,-404v-37,24,-57,-52,-99,-16v-55,46,-78,241,39,216v61,-13,117,-70,99,-154v-5,-21,-20,-37,-39,-46xm810,-212v28,-36,89,6,66,48v-11,19,-46,31,-64,10v-16,-19,-11,-38,-2,-58"},"\u33c7":{"d":"534,-478v36,-21,87,-9,118,8v83,-22,149,94,120,189v-28,92,-132,192,-248,131v-99,-52,-75,-279,10,-328xm246,-513v49,-16,131,-11,144,35v-3,63,-86,-4,-129,34v-80,30,-90,209,-4,243v48,19,110,-1,149,-16v15,1,29,28,14,45v-40,48,-164,58,-222,16v-82,-59,-89,-248,-12,-318v18,-16,36,-31,60,-39xm671,-404v-37,24,-57,-52,-99,-16v-55,46,-78,241,39,216v61,-13,117,-70,99,-154v-5,-21,-20,-37,-39,-46xm810,-212v28,-36,89,6,66,48v-11,19,-46,31,-64,10v-16,-19,-11,-38,-2,-58"},"\u2122":{"d":"468,-692v25,0,42,20,39,49v48,59,84,119,128,180v36,-71,55,-140,90,-212v-7,-27,27,-71,53,-42v40,87,41,179,60,289v5,34,-33,64,-50,27v-27,-58,-26,-118,-46,-186v-21,60,-44,117,-73,169v-12,23,-24,35,-37,35v-23,-1,-12,-13,-24,-29r-104,-146v0,57,7,102,15,154v4,26,-19,42,-40,24v-47,-61,-35,-167,-37,-272v0,-27,9,-40,26,-40xm271,-637v5,77,22,180,1,245v-17,21,-50,9,-51,-20r-8,-211v-33,10,-66,22,-97,35v-34,15,-63,-19,-41,-42v81,-50,179,-67,312,-67v19,0,28,36,15,51v-32,13,-90,-2,-131,9"},"\u33c2":{"d":"170,-443v111,-3,89,135,89,243v0,20,0,38,-1,54v30,22,49,33,40,69v-7,27,-34,21,-57,8v-44,30,-107,94,-173,53v-36,-23,-59,-96,-31,-146v25,-45,109,-105,157,-44r-8,-150v-8,-41,-62,-8,-76,10v-17,13,-54,76,-86,44v-29,-29,17,-59,32,-76v28,-32,59,-63,114,-65xm166,-148v-20,-30,-60,-24,-74,9v-9,21,-13,75,21,69v35,-7,49,-22,73,-43v-1,-12,-14,-25,-20,-35xm686,-176v-9,45,-13,127,-64,90v-47,-33,-30,-139,-43,-213v-31,86,-36,178,-84,237v-108,21,-80,-200,-101,-315v-9,-47,58,-76,63,-21r22,235v29,-67,43,-164,81,-223v14,-22,34,-15,44,8v21,42,22,116,28,173v25,-71,22,-168,82,-205v37,-7,55,31,70,57v33,58,38,160,43,243v3,49,-53,38,-58,4r-21,-160v-7,-23,-9,-52,-22,-69v-27,34,-29,108,-40,159xm858,-127v28,-36,89,6,66,48v-11,19,-46,31,-64,10v-16,-19,-11,-38,-2,-58xm329,-127v28,-36,89,6,66,48v-11,19,-46,31,-64,10v-16,-19,-11,-38,-2,-58"},"\u33d8":{"d":"686,-176v-9,45,-13,127,-64,90v-47,-33,-30,-139,-43,-213v-31,86,-36,178,-84,237v-108,21,-80,-200,-101,-315v-9,-47,58,-76,63,-21r22,235v29,-67,43,-164,81,-223v14,-22,34,-15,44,8v21,42,22,116,28,173v25,-71,22,-168,82,-205v37,-7,55,31,70,57v33,58,38,160,43,243v3,49,-53,38,-58,4r-21,-160v-7,-23,-9,-52,-22,-69v-27,34,-29,108,-40,159xm188,-86v6,62,9,137,8,200v0,27,-40,39,-56,16v-17,-25,-7,-63,-11,-100v-3,-27,-3,-56,-5,-85v-57,3,-47,-55,-7,-72v-5,-51,-17,-103,-18,-154v14,-41,64,-5,68,23r13,97v44,-31,103,-62,96,-134v-7,-74,-138,-40,-176,-11v-21,10,-60,43,-84,18v-13,-35,12,-51,34,-66v68,-45,238,-99,279,11v49,132,-59,205,-141,257xm858,-127v28,-36,89,6,66,48v-11,19,-46,31,-64,10v-16,-19,-11,-38,-2,-58xm329,-127v28,-36,89,6,66,48v-11,19,-46,31,-64,10v-16,-19,-11,-38,-2,-58"},"\u2121":{"d":"442,-538v-151,-7,-272,28,-386,73v-28,11,-48,-6,-49,-24v5,-13,12,-25,25,-31v136,-68,274,-93,410,-74v18,2,28,34,15,50v-3,4,-8,7,-15,6xm290,-474v11,101,10,229,10,340v0,25,-38,41,-52,23v-19,-97,-17,-257,-17,-377v0,-20,40,-21,49,-8v6,8,10,15,10,22xm692,-326v25,66,-57,79,-100,94v-29,10,-62,12,-97,12v-4,83,99,98,155,55v16,-12,29,-31,55,-27v9,3,13,13,10,30v-28,55,-92,98,-179,80v-96,-20,-147,-176,-79,-262v34,-44,124,-70,186,-35v23,13,40,30,49,53xm634,-312v-30,-52,-138,-18,-141,34v53,-2,106,-14,141,-34xm825,-593v6,147,24,311,43,448v6,45,-28,56,-47,29v-23,-33,-25,-87,-30,-137r-22,-227v-3,-52,-9,-102,2,-142v6,-22,37,-18,45,-2v5,8,8,19,9,31"},"\uff01":{"d":"537,-675v7,42,-11,75,-17,113v-5,29,-13,57,-18,86v-10,54,-21,111,-13,172v4,30,-34,52,-48,23v-34,-140,14,-279,40,-394v8,-35,52,-25,56,0xm457,-137v63,-8,41,90,15,116v-22,22,-47,-17,-46,-41v2,-27,12,-67,31,-75"},"\uff02":{"d":"424,-762v13,-9,36,-4,33,13v-6,41,-14,82,-6,128v4,25,-32,52,-50,29v-21,-48,-13,-146,23,-170xm516,-762v13,-9,37,-4,34,13v-6,41,-14,82,-6,128v4,25,-32,52,-50,29v-21,-48,-14,-146,22,-170"},"\uff03":{"d":"455,-206r8,72v7,47,-47,42,-59,10v-7,-19,-8,-43,-13,-65v-40,10,-79,26,-123,33v-22,2,-47,-38,-19,-54v38,-22,88,-31,133,-46r-16,-148v-46,7,-87,16,-131,28v-23,6,-46,-3,-52,-16v2,-55,60,-56,105,-68v24,-6,49,-9,74,-12v0,-50,-16,-122,15,-150v63,-22,46,82,53,142r60,-3v0,0,40,0,59,1v1,-23,1,-47,3,-70v4,-46,-2,-110,41,-119v47,6,21,83,21,125v0,22,-2,45,-2,67v41,10,113,-3,99,55v-15,26,-65,4,-99,7v1,36,3,72,6,108r108,-17v26,-6,45,26,30,45v-30,21,-90,23,-132,34v3,44,19,89,12,132v-20,27,-56,-7,-56,-33v-7,-27,-11,-56,-15,-85xm549,-419r-115,5r14,141v37,-9,74,-17,109,-24v-5,-40,-6,-80,-8,-122"},"\uff04":{"d":"411,-560v1,-50,-8,-112,35,-120v43,3,23,63,27,105v69,-8,110,26,135,67v14,21,-12,50,-35,35v-26,-17,-51,-48,-97,-37r8,144r124,55v44,24,24,80,-17,103v-26,14,-53,29,-85,39v2,30,32,102,-20,94v-27,-12,-32,-48,-38,-80v-64,16,-157,20,-154,-53v36,-10,98,0,143,-12r-13,-101v-59,-30,-136,-44,-152,-113v0,-68,83,-104,139,-126xm412,-491v-26,12,-57,28,-65,54v9,22,48,29,70,42xm537,-247v22,-10,30,-16,1,-27v-13,-5,-28,-13,-47,-20r7,61v15,-5,28,-9,39,-14"},"\uff05":{"d":"336,-502v41,-1,26,56,22,88v-8,61,-33,114,-84,130v-95,30,-93,-119,-46,-176v25,-31,50,-63,93,-75v26,-8,36,21,15,33xm584,-568v-62,121,-109,268,-155,406v-6,19,-35,25,-41,0v-4,-17,-6,-43,-1,-61v37,-138,88,-259,150,-377v10,-20,41,-17,49,3v3,8,4,18,-2,29xm606,-321v21,-30,87,-86,120,-27v46,82,-7,152,-67,179v-85,39,-119,-36,-84,-103v8,-18,20,-33,31,-49xm623,-244v-5,14,-9,27,7,24v35,-7,82,-53,45,-91v-29,4,-43,42,-52,67xm308,-470v-21,32,-60,66,-54,113v24,22,38,-25,45,-46v6,-21,6,-44,9,-67"},"\uff06":{"d":"481,-151v-53,24,-95,83,-171,66v-32,-7,-55,-38,-32,-76r78,-129v-65,-68,-108,-237,-20,-320v40,-38,131,-49,160,0v65,109,-16,236,-64,315r57,61v52,-29,96,-84,166,-91v29,16,3,57,-15,64r-104,74v22,22,48,40,66,66v18,27,-27,32,-53,32v-22,-19,-45,-39,-68,-62xm391,-348v32,-60,65,-99,69,-182v2,-43,-43,-63,-76,-39v-62,46,-30,175,7,221xm398,-239r-58,94r94,-54"},"\uff07":{"d":"470,-762v13,-9,37,-4,34,13v-6,41,-14,82,-6,128v4,25,-32,52,-50,29v-21,-48,-14,-146,22,-170"},"\uff08":{"d":"860,-614v-74,84,-136,224,-108,384v11,64,57,115,94,158v25,29,-9,67,-46,43v-124,-81,-158,-331,-82,-491v24,-50,55,-100,96,-129v22,-15,67,11,46,35"},"\uff09":{"d":"74,-650v116,29,156,144,136,292v-17,129,-47,243,-96,338v-8,17,-40,31,-52,8v-8,-16,-1,-39,4,-52v35,-92,57,-172,76,-279v22,-123,1,-210,-86,-239v-25,-8,-45,-60,-7,-68v8,-2,16,-2,25,0"},"\uff0a":{"d":"523,-486v37,-5,82,-16,117,-7v21,14,-1,38,-22,42r-76,13v29,21,53,42,80,65v15,11,17,39,-9,39v-28,0,-49,-26,-69,-40r-50,-35v11,41,25,79,36,116v9,30,-22,35,-42,18v-26,-22,-29,-65,-43,-100r-59,95v-7,12,-23,18,-33,8v-26,-58,24,-93,47,-136v-34,5,-69,28,-102,17v-28,-51,66,-61,114,-73r-79,-48v-24,-13,-10,-44,19,-40v25,4,33,12,55,25v-5,-34,-22,-106,28,-85v23,22,23,70,34,106r39,-51v21,-21,35,-60,70,-45v22,27,-14,59,-26,76"},"\uff0b":{"d":"507,-292v-1,50,18,107,7,150v-23,20,-55,-3,-59,-26v-7,-35,-13,-77,-16,-116v-55,2,-142,42,-163,-15v20,-50,99,-43,161,-55v-1,-56,5,-122,11,-159v7,-45,63,-22,61,5v-4,49,-5,96,-4,148v23,-1,46,-3,68,-3v39,0,93,-8,89,30v-17,47,-101,28,-155,41"},"\uff0c":{"d":"86,82v-14,7,-36,-5,-29,-22v15,-39,32,-75,39,-122v-1,-23,44,-42,56,-14v4,66,-18,136,-66,158"},"\uff0d":{"d":"600,-370v27,11,27,55,-10,55v-44,0,-86,2,-125,5v-39,3,-78,5,-115,10v-30,4,-44,-53,-15,-60v73,-18,167,-27,255,-15v3,1,6,3,10,5"},"\uff0e":{"d":"105,-178v20,25,27,75,-14,78v-36,3,-52,-37,-41,-74v7,-25,39,-24,55,-4"},"\uff0f":{"d":"584,-521r-175,454v-9,18,-17,40,-43,36v-18,-3,-16,-31,-10,-48r52,-150r130,-336v7,-18,39,-18,45,3v4,14,6,28,1,41"},"\uff10":{"d":"503,-505v81,5,129,54,103,143v-27,93,-78,180,-186,188v-120,9,-104,-173,-56,-246v28,-44,65,-82,114,-104v15,-6,24,5,25,19xm466,-445v-39,45,-90,120,-63,196v26,21,65,-7,82,-22v36,-33,60,-84,66,-146v-9,-25,-51,-28,-85,-28"},"\uff11":{"d":"511,-529v-26,123,-25,252,-17,390v1,16,-20,14,-27,5v-18,-12,-32,-44,-34,-65v-10,-119,-5,-252,24,-353v10,-36,43,-5,51,10v2,5,3,9,3,13"},"\uff12":{"d":"470,-546v49,6,69,65,49,116v-27,67,-72,126,-114,180r205,-26v16,1,53,0,50,18v-3,15,-15,34,-29,36r-292,43v-27,2,-50,-43,-22,-61v52,-59,115,-139,146,-216v14,-36,-31,-31,-61,-24v-35,8,-63,28,-97,34v-23,-1,-31,-23,-20,-44v37,-37,106,-65,185,-56"},"\uff13":{"d":"485,-436v107,-16,141,133,73,200v-46,45,-92,100,-163,120v-35,2,-42,-48,-15,-62v56,-28,114,-68,146,-118v34,-55,-15,-97,-81,-84v-31,6,-82,32,-89,-16v-4,-28,28,-34,43,-46v31,-25,74,-46,72,-98v-9,-30,-71,-25,-92,-9v-26,11,-46,-15,-32,-37v24,-37,137,-45,167,-2v36,51,4,121,-29,152"},"\uff14":{"d":"253,-296v42,-103,96,-189,164,-273v9,-11,50,-26,64,-7v4,-17,15,-40,37,-35v20,5,33,18,29,41v-13,79,-27,155,-34,244v52,-7,119,-36,169,-14v17,47,-63,55,-109,65r-62,15r3,162v2,28,-37,34,-49,9v-19,-41,-17,-99,-21,-154r-118,30v-53,11,-80,-29,-73,-83xm474,-545r-10,14v-61,77,-115,161,-151,259r131,-37v3,-77,13,-156,30,-236"},"\uff15":{"d":"361,-369v87,-8,203,-3,172,99v-23,75,-89,120,-148,163v-25,18,-58,-8,-61,-31v0,-5,6,-8,15,-10v58,-44,113,-90,143,-152v-32,-34,-140,23,-175,-20v-4,-5,-6,-11,-6,-19v3,-101,16,-212,33,-300v5,-28,44,-4,50,9v17,32,-7,72,-7,111v85,-8,175,-10,243,11v11,1,27,19,15,30v-15,7,-29,12,-42,15v-81,-4,-155,-1,-224,10"},"\uff16":{"d":"549,-689v30,32,-11,66,-27,98v-48,90,-99,197,-98,333v1,28,7,52,17,74v46,-2,94,-88,86,-152v-3,-26,-69,-9,-59,-45v29,-29,99,-17,105,30v14,107,-39,182,-105,225v-87,27,-114,-89,-105,-188v14,-147,76,-270,150,-367v9,-12,23,-17,36,-8"},"\uff17":{"d":"362,-445v-25,3,-69,-54,-31,-62v74,-15,167,-19,250,-19v22,0,37,23,41,45v-44,115,-72,245,-104,367v-5,20,-38,45,-49,20v-29,-66,18,-139,31,-202v12,-56,31,-110,48,-166"},"\uff18":{"d":"493,-320v73,8,116,95,65,156v-36,43,-87,70,-156,82v-59,10,-80,-58,-57,-105v27,-56,62,-111,94,-164v-69,-33,-96,-173,-16,-225v62,-40,180,-22,181,55v0,48,-44,94,-66,129xm528,-490v32,-46,-18,-49,-52,-42v-38,8,-58,72,-30,110v6,9,13,16,23,23xm401,-150v46,-6,90,-27,118,-53v15,-36,-27,-57,-48,-81v-27,42,-48,87,-70,134"},"\uff19":{"d":"549,-436v-35,47,-71,109,-145,115v-93,7,-88,-114,-54,-175v28,-50,77,-93,134,-110v32,-9,72,14,58,52v-7,7,-24,9,-32,2v-59,18,-112,67,-120,136v-3,28,15,32,37,18v55,-36,88,-104,135,-148v23,-8,49,14,50,38v3,76,1,150,0,221v-1,71,-5,145,-12,222v-2,13,-12,25,-26,22v-23,-3,-34,-15,-34,-34v0,-59,6,-117,8,-176v2,-59,3,-120,1,-183"},"\uff1a":{"d":"427,-487v27,-36,103,-13,96,36v4,64,-93,68,-105,12v-4,-19,-1,-35,9,-48xm514,-216v14,38,-36,62,-61,40v-37,-9,-40,-67,-14,-90v30,-27,102,4,75,50"},"\uff1b":{"d":"416,-526v61,6,110,38,118,100v3,28,-42,37,-50,16v-12,-34,-46,-45,-81,-56v-31,-9,-15,-64,13,-60xm500,-317v66,-10,59,95,46,155v-12,59,-22,134,-88,138v-27,-14,3,-57,8,-78v11,-45,30,-100,18,-153v-7,-27,-10,-58,16,-62"},"\uff1c":{"d":"581,-22r-268,-273v-22,-22,7,-46,23,-54v84,-75,151,-183,235,-258v37,-12,48,30,23,59r-206,239r239,245v22,18,-4,48,-23,49v-9,1,-17,-1,-23,-7"},"\uff1d":{"d":"579,-428v27,11,27,56,-10,56v-44,0,-86,2,-125,5v-39,3,-78,5,-115,10v-30,4,-44,-53,-15,-60v73,-18,167,-27,255,-15v3,1,6,2,10,4xm641,-267v-51,70,-196,56,-312,60v-23,2,-42,-42,-22,-55v75,-11,182,-11,263,-26v30,-5,68,-5,71,21"},"\uff1e":{"d":"359,-22v-24,24,-72,-15,-46,-42r239,-245r-206,-239v-29,-22,-13,-72,23,-59v91,77,156,200,254,271v11,8,16,29,4,41"},"\uff1f":{"d":"589,-532v28,123,-68,152,-109,229v-13,25,16,59,-5,73v-48,17,-68,-68,-43,-114v31,-57,103,-79,99,-165v-30,-54,-140,-13,-136,40v12,24,-13,33,-29,23v-51,-50,4,-120,44,-140v67,-33,165,-9,179,54xm474,-37v-41,-1,-35,-87,-7,-98v22,16,69,38,49,76v-7,13,-23,23,-42,22"},"\uff20":{"d":"507,-236v-47,60,-143,24,-135,-61v8,-80,20,-150,90,-165v39,1,64,26,86,47v3,5,1,16,10,15v27,9,35,48,46,73v37,-92,-9,-194,-106,-186v-106,9,-167,84,-168,203v-1,129,133,173,244,122v16,-7,46,-11,44,16v-4,58,-91,66,-140,66v-158,0,-255,-144,-200,-302v31,-90,106,-170,220,-170v140,0,195,128,172,270v-6,40,-54,89,-88,48v-9,-11,-23,-37,-31,-44v-17,20,-28,47,-44,68xm464,-402v-22,27,-46,104,-22,141v36,-20,56,-71,76,-108v-21,-4,-34,-33,-54,-33"},"\uff21":{"d":"452,-624v24,-3,47,-20,60,12v30,72,54,166,85,241v28,-13,73,6,53,38v-5,7,-15,15,-29,22v19,58,62,102,57,178v-9,30,-44,-1,-50,-13v-28,-46,-48,-97,-70,-148v-55,10,-126,20,-189,22v-19,59,-29,125,-54,178v-14,31,-60,16,-54,-18v32,-188,100,-361,179,-502v3,-5,8,-9,12,-10xm470,-544v-31,69,-57,137,-80,206v45,-1,92,-7,143,-17v-24,-61,-45,-124,-63,-189"},"\uff22":{"d":"680,-280v0,114,-89,178,-204,178v-97,0,-92,-137,-104,-226r-22,-162v2,-30,43,-20,48,1r23,91v49,-22,99,-53,94,-122v-15,-46,-106,-40,-151,-22v-31,13,-78,69,-104,22v5,-53,52,-73,92,-87v108,-37,268,-3,229,127v-9,27,-28,54,-45,73v86,-2,144,41,144,127xm436,-325r30,165v79,-5,149,-41,154,-120v-11,-70,-116,-62,-184,-45"},"\uff23":{"d":"417,-503v43,-23,112,-20,125,25v1,35,-37,15,-64,16v-100,5,-132,194,-36,229v49,18,115,0,155,-14v19,-7,27,20,14,35v-42,48,-165,58,-225,16v-62,-43,-84,-158,-40,-236v17,-32,40,-56,71,-71"},"\uff24":{"d":"403,-176v-15,-113,-17,-236,-17,-353v-29,10,-85,23,-80,-24v34,-53,161,-55,224,-23v80,40,128,149,88,258v-30,82,-85,150,-164,183v-41,17,-80,-13,-51,-41xm436,-535v26,38,12,110,16,173v3,47,4,97,9,151v71,-47,150,-172,84,-271v-20,-30,-56,-51,-109,-53"},"\uff25":{"d":"365,-495v1,36,-4,75,-4,113v78,-4,183,-47,233,9v3,21,-21,29,-46,32r-188,26v-1,34,-1,68,0,102v104,-1,187,-47,286,-47v16,0,30,21,14,33v-45,36,-120,52,-182,67v-75,18,-185,42,-185,-55v0,-33,-1,-66,0,-99v-23,-11,-21,-46,1,-54r6,-117v-27,-2,-42,-54,-9,-59r151,-25v51,-8,94,-7,120,23v4,45,-67,35,-110,40"},"\uff26":{"d":"617,-414v24,-1,61,28,33,46v-46,29,-125,19,-193,26v3,56,20,113,13,168v-18,35,-58,-4,-62,-30v-7,-57,-14,-114,-22,-171v-8,-57,-16,-114,-25,-171v-45,5,-99,-4,-73,-55v87,-34,244,-1,326,22v11,7,18,14,19,23v-1,7,-25,23,-34,22r-172,-11r22,140v57,-2,113,-6,168,-9"},"\uff27":{"d":"516,-397v-46,1,-117,26,-132,-19v35,-77,195,-37,295,-38v18,0,26,6,26,20v0,49,-70,35,-122,36v2,84,11,177,21,253v2,12,-7,22,-20,21v-14,0,-24,-9,-31,-26v-13,-33,-22,-70,-27,-112v-91,70,-298,60,-292,-72v6,-144,88,-249,195,-300v52,-10,80,25,97,62v3,14,-22,29,-32,13v-33,-53,-76,-11,-104,25v-40,51,-96,117,-85,202v11,82,179,48,214,4"},"\uff28":{"d":"578,-420v-2,-47,-30,-125,21,-136v15,2,26,15,28,33v17,107,32,224,30,337v-7,18,-30,33,-45,12v-28,-40,-14,-118,-26,-179v-70,19,-144,36,-222,51v4,45,28,94,12,138v-8,20,-37,10,-43,-4v-34,-95,-57,-222,-52,-355v1,-17,15,-27,29,-28v57,17,25,117,44,179v71,-10,159,-28,224,-48"},"\uff29":{"d":"457,-589v48,0,26,72,29,119v6,96,17,189,32,272v-1,17,-8,33,-27,33v-15,-9,-27,-22,-37,-37v-23,-90,-35,-207,-31,-322v1,-28,6,-65,34,-65"},"\uff2a":{"d":"564,-436v33,84,48,249,-33,290v-66,34,-176,11,-181,-60v5,-25,29,-43,52,-51v31,-11,30,31,18,52v-5,18,24,18,43,17v79,-2,72,-102,58,-172v-15,-70,-51,-131,-92,-176v-27,-19,-4,-59,23,-53v57,29,88,90,112,153"},"\uff2b":{"d":"365,-319r18,186v-3,27,-54,8,-60,-5r-44,-304v-3,-42,-28,-85,-13,-124v13,-32,60,-9,64,16r23,149v59,-35,128,-81,191,-106v24,-3,54,9,40,37v-9,20,-25,22,-42,32r-118,73v73,39,140,69,227,89v40,10,36,79,-15,66v-107,-27,-181,-60,-271,-109"},"\uff2c":{"d":"655,-262v25,0,14,41,-2,44v-10,5,-21,8,-28,16r-295,71v-47,11,-64,-23,-60,-73v4,-54,7,-108,12,-162v5,-54,10,-109,17,-163v-2,-32,47,-57,63,-29v5,108,-24,236,-27,351r245,-45v28,-4,52,-10,75,-10"},"\uff2d":{"d":"731,-132v6,31,-30,64,-49,27v-25,-46,-21,-112,-32,-169v-10,-51,-18,-112,-31,-183r-117,225v-20,48,-57,43,-81,6v-45,-69,-98,-124,-150,-184v-3,91,1,178,14,257v4,26,-19,42,-40,24v-53,-73,-30,-232,-36,-362v-2,-43,32,-50,53,-29v7,8,11,19,12,33v67,65,122,137,181,209r71,-130v26,-53,63,-98,92,-152v12,-14,27,-24,43,-6v8,9,14,19,16,30v12,67,21,135,29,202"},"\uff2e":{"d":"327,-135v-80,-25,-39,-176,-43,-274v-2,-58,8,-129,60,-93v4,6,7,14,8,23v87,62,148,148,210,234v17,-85,25,-194,35,-289v-3,-13,23,-29,36,-28v19,2,28,11,28,28v0,57,-10,115,-17,174v-9,69,-13,141,-36,193v-53,36,-95,-38,-120,-73v-41,-58,-87,-117,-140,-164v-2,44,-4,87,-5,130v-1,43,-1,87,0,130v0,6,-5,9,-16,9"},"\uff2f":{"d":"594,-514v61,38,71,165,28,232v-42,66,-108,128,-214,120v-124,-9,-146,-204,-84,-305v22,-36,52,-70,98,-78v11,-2,18,8,18,18v33,-32,125,-15,154,13xm426,-474v-64,24,-91,154,-46,220v99,69,242,-52,198,-177v-15,-43,-83,-60,-133,-32v-8,6,-23,1,-19,-11"},"\uff30":{"d":"424,-127v1,-124,-26,-245,-26,-358v0,-27,32,-40,49,-16v30,26,28,81,34,131v53,-33,119,-66,116,-146v-2,-59,-108,-67,-166,-54v-41,9,-81,37,-118,54v-45,7,-41,-45,-13,-64v73,-78,308,-99,350,19v52,146,-78,209,-163,274r2,164v1,31,-34,37,-53,16v-8,-9,-12,-15,-12,-20"},"\uff31":{"d":"404,-132v-149,0,-180,-206,-98,-306v34,-42,64,-85,122,-99v9,-2,18,-1,27,2v20,-25,77,-27,109,-6v73,49,87,180,34,269v26,24,62,35,78,71v15,33,-26,55,-54,34r-62,-47v-37,44,-84,82,-156,82xm485,-490v-29,20,-74,18,-95,52v-46,46,-91,163,-30,224v44,44,119,1,148,-38v-32,-30,-90,-38,-90,-96v0,-24,23,-37,46,-21r84,59v36,-59,30,-177,-42,-186v-8,-1,-15,1,-21,6"},"\uff32":{"d":"409,-100v-28,18,-50,-17,-51,-41r-6,-181r3,-184v0,-23,40,-26,49,-8v18,37,3,104,8,158v85,-13,157,-92,118,-186v-25,-60,-134,-40,-178,-5v-17,13,-35,26,-50,43v5,27,-21,57,-43,34v-35,-55,27,-116,68,-140v58,-34,167,-62,227,-12v48,40,71,140,34,207v-21,40,-55,75,-102,104r98,61v34,25,77,44,104,80v9,13,-3,51,-22,50v-35,-2,-51,-29,-78,-46r-175,-111r4,157v0,9,-3,16,-8,20"},"\uff33":{"d":"572,-583v17,22,-14,54,-38,34v-35,-30,-115,-61,-154,-12v-58,73,49,110,98,145v68,50,160,77,160,193v0,95,-101,153,-210,126v-38,-9,-84,-34,-82,-84v5,-10,31,-18,44,-11v31,37,121,50,161,10v37,-37,16,-100,-23,-126v-60,-40,-121,-76,-182,-120v-51,-37,-55,-133,-6,-176v39,-35,113,-56,172,-24v24,13,45,26,60,45"},"\uff34":{"d":"676,-523v-151,-7,-272,28,-386,73v-28,11,-48,-6,-49,-24v5,-13,12,-25,25,-31v136,-68,274,-93,410,-74v18,2,28,35,15,51v-3,4,-8,6,-15,5xm524,-459v10,92,10,185,10,285v0,25,-38,41,-52,23v-16,-42,-8,-110,-10,-163r-7,-160v1,-20,40,-21,49,-8v6,8,10,16,10,23"},"\uff35":{"d":"593,-530v55,-11,49,72,55,124v18,157,-63,235,-190,258v-92,16,-170,-21,-168,-112v2,-89,26,-154,48,-225v17,-31,66,-7,58,30v-15,68,-52,141,-37,218v33,52,134,15,172,-8v64,-39,63,-151,45,-240v-3,-18,3,-38,17,-45"},"\uff36":{"d":"652,-524v-11,81,-52,148,-82,211v-25,53,-58,99,-88,144v-24,35,-63,7,-73,-16v-31,-73,-64,-172,-91,-252v-16,-13,-47,-48,-23,-72v85,-20,95,90,117,155r39,115v57,-79,104,-180,147,-275v5,-25,50,-50,54,-10"},"\uff37":{"d":"177,-511v-1,-27,42,-30,52,-9v33,69,14,199,58,269r65,-90v21,-32,44,-66,59,-101v15,-35,66,-35,80,2r35,89v12,31,24,61,38,89v51,-83,103,-181,138,-278v9,-26,51,-31,58,4v2,11,4,18,1,25v-43,110,-96,220,-159,318v-19,29,-53,28,-68,3v-36,-58,-62,-115,-88,-187v-40,70,-89,141,-142,200v-20,22,-49,14,-63,-12v-45,-86,-61,-198,-64,-322"},"\uff38":{"d":"668,-528v-25,33,-58,45,-94,78r-85,79r93,165v10,25,-9,60,-38,42v-30,-19,-39,-60,-58,-90v-15,-23,-28,-48,-43,-72r-72,75v-32,30,-41,64,-75,75v-37,2,-32,-42,-16,-62v36,-45,82,-97,128,-143v-34,-53,-71,-105,-111,-155v-16,-39,30,-46,54,-25v39,34,73,88,104,135v54,-49,113,-103,176,-140v23,-14,56,13,37,38"},"\uff39":{"d":"398,-125v1,-63,5,-130,11,-192v-23,-43,-45,-85,-65,-126v-20,-41,-36,-80,-52,-114v-13,-26,-12,-76,32,-61v24,8,26,36,38,61r74,152v59,-77,112,-159,161,-243v16,-28,59,-31,59,4v0,41,-22,59,-42,90r-135,206v-12,60,-17,152,-19,223v0,19,-11,29,-32,29v-17,-1,-30,-9,-30,-29"},"\uff3a":{"d":"349,-342v-34,4,-91,30,-93,-20v-2,-41,57,-40,88,-48v23,-6,47,-8,70,-10r79,-99v-76,1,-157,29,-227,29v-26,0,-51,-27,-22,-46v59,-39,157,-46,247,-52v55,-4,94,58,56,104r-50,61v64,5,135,3,173,35v20,29,-17,49,-52,42v-54,-11,-116,-11,-179,-6r-112,145r350,-23v26,0,40,16,28,41v-15,31,-69,27,-113,30r-200,15v-64,-1,-153,25,-154,-43v11,-39,34,-60,58,-89"},"\uff3b":{"d":"844,-652v26,6,26,32,6,44v-34,20,-92,11,-134,28r11,505v51,-1,98,-11,145,-16v20,-2,25,28,14,45v-39,33,-113,32,-177,34v-66,-15,-53,-101,-55,-181r-6,-289v3,-83,-19,-149,60,-162v41,-7,94,-18,136,-8"},"\uffe6":{"d":"228,-534v-1,-13,11,-32,25,-31v45,4,32,48,39,97v4,26,6,53,9,81r81,-14r42,-118v9,-33,66,-33,74,-1r26,102r107,-7r38,-120v4,-24,46,-35,55,-3v9,31,-8,46,-14,72v-4,16,-11,33,-17,50v29,0,68,-3,62,31v-5,27,-47,20,-79,22v-22,63,-42,133,-77,181v-41,58,-75,-21,-87,-64r-29,-100r-53,7v-25,62,-44,135,-83,181v-43,34,-67,-30,-77,-69v-7,-25,-14,-51,-19,-80v-23,7,-64,16,-66,-16v-2,-30,30,-36,56,-41v-8,-51,-14,-109,-13,-160xm571,-264r41,-105r-73,7xm328,-254v11,-21,23,-58,33,-84v-18,3,-35,6,-51,9v5,27,10,55,18,75xm460,-453r-12,43r21,-2"},"\uff3d":{"d":"34,-44v28,-41,115,-12,164,-28r-11,-456v-1,-27,-3,-49,-4,-66v-53,-6,-124,55,-150,-5v-3,-57,91,-44,141,-63v92,-10,78,97,81,180r13,406v3,83,-110,72,-189,72v-28,0,-47,-15,-45,-40"},"\uff3e":{"d":"625,-536v3,17,6,42,-8,48v-63,12,-67,-69,-87,-114r-33,-76v-50,40,-83,81,-116,135v-17,28,-50,44,-66,13v-4,-8,-3,-17,2,-28v41,-73,105,-156,180,-195v27,-14,45,9,53,30"},"\uff3f":{"d":"690,115v0,25,-14,30,-39,31v-63,2,-122,3,-177,5v-64,2,-132,17,-200,15v-25,-1,-35,-47,-8,-54v105,-28,262,-28,394,-23v18,1,30,11,30,26"},"\uff40":{"d":"400,-749v61,-10,71,56,104,88v16,30,58,48,50,93v-8,19,-40,4,-51,-2v-41,-40,-86,-94,-115,-146v-8,-15,-3,-26,12,-33"},"\uff41":{"d":"497,-553v111,-6,89,135,89,243v0,20,0,38,-1,54v30,22,49,33,40,69v-7,27,-34,21,-57,8v-41,28,-90,62,-147,73v-82,16,-116,-87,-80,-158v26,-52,119,-105,180,-52r-8,-150v-2,-19,-15,-24,-35,-17v-39,14,-86,52,-117,80v-27,24,-67,-15,-41,-42v46,-45,95,-104,177,-108xm513,-223v-10,-33,-45,-75,-83,-45v-23,18,-52,43,-43,86v17,24,51,1,77,-10v21,-9,37,-20,49,-31"},"\uff42":{"d":"384,-192v-30,-139,-48,-287,-48,-451v0,-35,35,-30,48,-15v35,41,7,149,26,221v24,-60,126,-73,166,-17v33,46,37,124,4,176v-42,66,-101,115,-166,153v-35,20,-89,-9,-59,-44v7,-9,21,-16,29,-23xm441,-228v44,-33,97,-68,103,-140v4,-51,-43,-71,-79,-48v-50,32,-38,125,-24,188"},"\uff43":{"d":"559,-412v8,31,-31,45,-45,20v-60,-57,-130,20,-137,86v-5,47,18,83,65,83v61,0,109,-40,160,-51v18,-4,33,27,15,44v-51,48,-171,100,-255,51v-77,-44,-51,-201,4,-247v36,-54,171,-66,193,14"},"\uff44":{"d":"486,-632v-10,-37,24,-65,52,-42v8,7,12,15,14,26v13,77,26,152,38,228v12,76,21,151,31,223v6,41,-10,61,-45,55v-9,-4,-14,-12,-15,-24v-97,36,-216,1,-237,-84v-31,-123,72,-203,187,-224xm416,-356v-33,26,-43,90,-9,118v33,27,102,22,143,5r-28,-176v-41,9,-77,30,-106,53"},"\uff45":{"d":"592,-418v25,66,-57,79,-100,94v-29,10,-62,12,-97,12v-4,83,99,98,155,55v16,-12,29,-31,55,-27v9,3,13,13,10,30v-28,55,-92,98,-179,80v-96,-20,-147,-176,-79,-262v34,-44,124,-70,186,-35v23,13,40,30,49,53xm534,-404v-30,-52,-138,-18,-141,34v53,-2,106,-14,141,-34"},"\uff46":{"d":"431,-314v-48,4,-128,28,-124,-40v15,-22,69,-20,101,-28v-31,-86,-98,-256,33,-288v85,-21,154,25,169,98v4,20,-31,31,-44,17v-21,-35,-90,-90,-127,-33v-25,67,19,137,34,198v64,-6,127,-8,160,23v2,53,-83,34,-136,46r51,153v7,39,-10,80,-27,102v-18,23,-46,5,-41,-26v15,-93,-29,-152,-49,-222"},"\uff47":{"d":"484,128v-40,17,-122,40,-135,-12v12,-41,89,-23,120,-53v81,-28,79,-165,47,-251v-26,27,-87,63,-132,32v-58,-40,-63,-160,-20,-224v26,-38,87,-95,155,-66v14,6,14,35,4,45v47,86,64,211,81,321v17,106,-45,174,-120,208xm473,-389v-46,25,-87,75,-74,149v9,49,89,9,93,-20v7,-42,-17,-87,-19,-129"},"\uff48":{"d":"634,-180v8,41,3,115,-42,78v-44,-56,-18,-190,-74,-246v-55,-35,-86,49,-104,94v-20,49,-23,121,-44,164v-35,22,-54,-33,-56,-66r-12,-203r0,-215v-4,-48,43,-62,57,-28v26,65,1,185,11,281v28,-50,62,-103,135,-107v102,18,108,146,129,248"},"\uff49":{"d":"554,-557v11,10,12,34,-7,35v-46,4,-88,5,-127,18v-34,11,-61,-38,-23,-53v39,-15,124,-33,157,0xm477,-415v65,11,32,118,51,181v9,30,32,69,7,94v-88,9,-84,-139,-84,-235v0,-17,11,-38,26,-40"},"\uff4a":{"d":"416,-564v51,-9,104,4,143,14v23,19,-7,48,-35,43v-29,-5,-72,1,-102,-4v-15,-6,-27,-49,-6,-53xm364,-40v-16,-17,0,-40,23,-34v91,25,144,-38,133,-133v-8,-69,-17,-149,-62,-182v-24,-18,-18,-57,8,-57v37,0,53,30,67,54v74,128,84,426,-125,377v-17,-4,-34,-14,-44,-25"},"\uff4b":{"d":"389,-358v60,-32,124,-79,198,-96v40,-9,45,39,12,53v-47,20,-109,56,-149,81r140,94v17,12,32,24,47,36v23,18,9,38,-13,41v-33,4,-49,-14,-73,-29r-152,-96r14,140v17,40,-31,53,-49,28v-41,-142,-49,-326,-72,-488v-4,-25,23,-30,41,-16v32,26,31,86,40,138v7,36,11,74,16,114"},"\uff4c":{"d":"478,-593v6,147,24,311,43,448v6,45,-28,56,-47,29v-23,-33,-25,-87,-30,-137r-22,-227v-3,-52,-9,-102,2,-142v6,-22,38,-18,46,-2v5,8,7,19,8,31"},"\uff4d":{"d":"554,-276v-16,42,-7,122,-66,90v-40,-43,-45,-120,-74,-173v-45,57,-71,139,-114,197v-41,27,-68,-32,-77,-70v-13,-58,-13,-131,-24,-195v-8,-47,56,-76,63,-21r22,185v31,-55,56,-121,96,-165v12,-14,24,-21,34,-21v56,13,66,92,83,144v25,-61,40,-140,112,-155v109,22,124,151,133,270v3,49,-53,38,-58,4r-14,-94v-9,-48,-20,-92,-55,-114v-34,17,-46,78,-61,118"},"\uff4e":{"d":"318,-499v59,10,49,99,64,155v3,13,4,26,5,38v25,-54,48,-115,91,-149v58,-47,115,20,134,67v16,42,31,98,40,144v13,24,-40,62,-53,32v-18,-43,-29,-117,-51,-157v-18,-33,-43,-24,-59,6v-35,61,-64,133,-94,200v-15,19,-61,9,-61,-16v0,-52,-12,-99,-18,-142v-6,-43,-14,-87,-25,-131v-8,-30,-7,-53,27,-47"},"\uff4f":{"d":"386,-478v36,-21,87,-9,118,8v83,-22,149,94,120,189v-28,92,-132,192,-248,131v-99,-52,-75,-279,10,-328xm523,-404v-37,24,-57,-52,-99,-16v-55,46,-78,241,39,216v61,-13,117,-70,99,-154v-5,-21,-20,-37,-39,-46"},"\uff50":{"d":"495,-216v6,62,9,137,8,200v0,27,-40,39,-56,16v-17,-25,-7,-63,-11,-100v-3,-27,-3,-56,-5,-85v-57,3,-47,-55,-7,-72v-5,-51,-17,-103,-18,-154v14,-41,64,-5,68,23r13,97v44,-31,100,-61,96,-134v-4,-63,-104,-44,-153,-28v-41,14,-73,43,-118,47v-22,2,-29,-31,-16,-45v49,-56,146,-89,253,-83v98,6,124,145,67,216v-32,40,-78,75,-121,102"},"\uff51":{"d":"545,-231v-59,32,-197,82,-231,-4v-37,-92,30,-165,81,-211v32,-29,64,-58,117,-48v12,-34,62,-9,67,15v13,65,26,166,33,241r25,249v-1,14,-9,32,-27,30v-31,-3,-37,-24,-40,-51xm535,-308r-18,-128v-77,20,-134,81,-153,158v-4,16,4,28,24,25v57,-10,104,-27,147,-55"},"\uff52":{"d":"308,-469v-3,-27,34,-24,51,-15v26,14,15,61,23,94v6,27,8,50,12,69v19,-103,95,-172,195,-192v23,-5,46,-2,41,23v-17,34,-63,43,-92,66v-62,49,-102,131,-105,236v0,21,-11,55,-32,55v-26,0,-41,-36,-46,-57v-22,-90,-37,-182,-47,-279"},"\uff53":{"d":"380,-486v59,-69,226,-40,194,69v-6,19,-48,13,-48,-7v-3,-13,-2,-31,-14,-34v-48,-11,-94,16,-110,49v3,58,74,72,113,100v53,38,130,71,95,158v-29,71,-142,83,-240,87v-21,-4,-43,-20,-49,-39v9,-54,101,-25,153,-43v35,-12,97,-25,64,-66v-55,-68,-186,-78,-201,-182v-6,-39,23,-69,43,-92"},"\uff54":{"d":"455,-389v51,-3,126,-17,131,36v-12,43,-85,20,-135,30r-6,165v73,-16,134,-52,195,-82v24,-12,37,9,26,33v-28,59,-104,84,-166,111v-36,15,-79,22,-101,-6v-36,-46,-15,-139,-16,-216v-44,5,-131,22,-109,-38v19,-25,71,-19,113,-27r14,-171v0,-30,29,-37,53,-22v31,20,8,59,8,99v0,29,-5,58,-7,88"},"\uff55":{"d":"378,-452v22,26,1,56,-3,90v-5,46,-20,117,4,151v83,-19,126,-118,151,-198v-9,-53,63,-69,69,-12r15,138r24,131v8,31,-45,64,-59,24v-16,-43,-22,-103,-28,-155v-31,54,-73,111,-129,139v-100,51,-136,-84,-116,-194v8,-44,13,-97,31,-128v15,-12,30,1,41,14"},"\uff56":{"d":"630,-530v44,28,0,67,-16,95r-77,137v-24,43,-43,94,-72,131v-18,23,-51,-1,-57,-18v-42,-71,-91,-167,-117,-253v0,-34,42,-24,58,-3v38,50,54,122,90,174r117,-203v23,-25,34,-86,74,-60"},"\uff57":{"d":"583,-148v-19,29,-70,16,-77,-9r-53,-160r-78,144v-17,35,-69,27,-85,-2v-33,-61,-57,-149,-73,-226v-4,-22,-1,-49,18,-49v60,0,55,79,69,127r26,88r100,-168v13,-29,35,-37,55,-14v29,55,45,133,65,194v45,-63,86,-154,110,-235v10,-35,33,-28,53,-14v9,7,12,14,10,21v-30,120,-80,212,-140,303"},"\uff58":{"d":"528,-325v35,46,91,89,109,147v10,32,-39,31,-59,14v-38,-33,-66,-74,-101,-110r-109,111v-16,15,-45,18,-45,-3v0,-56,37,-83,65,-114r42,-46r-107,-106v-22,3,-25,-20,-15,-31v21,-24,47,-24,72,-6v37,26,68,58,99,91r82,-82v19,-11,38,-15,61,-3v14,19,3,39,-11,54"},"\uff59":{"d":"566,-268v-35,47,-132,134,-191,60v-38,-48,-66,-115,-71,-191v8,-22,53,-11,59,7v13,41,26,88,49,119v33,45,80,-13,100,-37v26,-30,45,-75,48,-125v2,-26,33,-49,56,-27v28,27,14,86,18,131v20,220,-35,388,-175,469v-23,14,-79,3,-58,-29v23,-35,70,-62,94,-93v53,-69,84,-157,71,-284"},"\uff5a":{"d":"404,-113v-52,3,-120,13,-122,-38v14,-52,59,-88,84,-130v-36,6,-69,-4,-70,-36v7,-42,76,-25,121,-32r77,-92v-67,1,-127,19,-186,28v-30,5,-65,-42,-29,-62v52,-14,125,-34,191,-34v46,0,92,9,92,57v0,32,-21,45,-35,64r-28,37r139,1v26,1,53,40,28,58v-64,9,-148,4,-219,9r-71,100v79,0,169,-12,242,-21v29,-3,68,39,32,54v-66,27,-161,32,-246,37"},"\uff5b":{"d":"775,15v-97,29,-68,-91,-65,-177r4,-148v-9,30,-70,54,-90,15v-18,-35,22,-47,45,-60v-27,-80,-63,-220,0,-290v39,-43,135,-4,167,19v16,36,-23,38,-60,29v-34,-9,-77,-17,-77,26v0,66,7,139,17,195v86,-12,65,101,60,180r-10,156r122,-22v14,-2,18,34,6,40v-29,16,-82,26,-119,37"},"\uff5c":{"d":"450,-43v-24,-166,-37,-404,-18,-580v4,-29,54,-51,60,-14v14,85,-2,198,5,301r19,307v1,46,-50,28,-60,3v-2,-6,-5,-12,-6,-17"},"\uff5d":{"d":"219,-685v45,62,-36,149,-13,236v26,-11,71,-31,105,-15v16,43,-35,74,-84,73v17,93,49,221,13,318v-17,46,-80,54,-143,54v-28,0,-57,-27,-33,-46v30,-24,108,6,127,-38v14,-98,-12,-215,-28,-301v-60,-47,-6,-168,7,-230v-37,5,-78,36,-123,30v-44,-6,-13,-51,9,-55v50,-10,110,-50,163,-26"},"\uffe3":{"d":"20,-733r0,-29r900,0r0,29r-900,0"},"\u203e":{"d":"20,-733r0,-29r900,0r0,29r-900,0"},"\u3131":{"d":"548,-177v-6,-61,5,-152,-5,-215v-78,6,-164,32,-227,53v-24,8,-57,-12,-44,-43v52,-60,174,-71,271,-83v109,-14,72,129,73,228v1,47,-16,92,-58,71v-4,-3,-8,-6,-10,-11"},"\u3132":{"d":"449,-426v38,-44,114,-70,190,-73v119,-4,92,181,66,269v-7,24,-49,40,-57,8v-13,-55,22,-103,8,-169v-10,-46,-81,-33,-117,-15v-30,6,-45,39,-83,34v-7,64,-2,149,-30,194v-6,10,-16,14,-25,14v-50,-11,-22,-97,-20,-139v1,-28,5,-60,6,-95v-61,-11,-101,20,-147,28v-29,5,-37,-47,-12,-61v47,-50,186,-61,221,5"},"\u3133":{"d":"280,-474v58,-21,152,-20,148,52r-11,198v-1,32,-35,48,-56,28v-23,-47,-4,-143,-10,-221v-46,6,-78,22,-108,43v-28,20,-68,1,-55,-31v13,-32,62,-58,92,-69xm506,-239v-12,30,-65,27,-66,-8v0,-52,27,-89,47,-135v16,-37,41,-76,71,-115v7,-9,33,-25,48,-11v16,15,19,31,4,54v-41,63,-73,142,-104,215xm730,-240v13,23,39,51,11,70v-19,13,-45,-8,-51,-18v-33,-55,-61,-87,-100,-129v-16,-17,-18,-51,10,-54v31,-3,42,19,60,37v26,27,51,61,70,94"},"\u3134":{"d":"624,-217v-70,34,-170,89,-260,60v-67,-42,-52,-201,-33,-286v4,-18,21,-45,43,-41v59,11,15,96,21,158v4,37,1,81,7,108v80,-15,145,-33,210,-64v41,-20,67,8,46,37v-8,10,-19,21,-34,28"},"\u3135":{"d":"436,-276v-31,53,-101,80,-176,91v-115,16,-65,-140,-48,-220v9,-42,26,-111,76,-79v26,30,-2,85,-8,125r-13,91v62,-3,91,-12,132,-44v9,-7,29,-17,39,-2v7,10,6,23,-2,38xm510,-179v-8,24,-50,13,-46,-17v14,-112,61,-181,116,-253v-75,-5,-85,55,-150,55v-20,0,-37,-17,-27,-38v30,-64,126,-89,223,-75v28,4,35,44,19,66v-54,78,-101,166,-135,262xm642,-345v34,27,30,99,50,129v20,54,40,71,60,112v10,21,-10,45,-31,28v-67,-52,-108,-129,-120,-235v-1,-14,2,-25,7,-34v14,-6,25,-6,34,0"},"\u3136":{"d":"594,-409v-52,7,-86,36,-144,40v-21,2,-29,-31,-16,-45v31,-32,91,-44,141,-59v-24,-18,-63,-34,-92,-45v-15,-7,-25,-23,-13,-39v23,