/*!
 * The following copyright notice may not be removed under any circumstances.
 * 
 * Copyright:
 * Copyright © 2010 NHN Corporation. All rights reserved. Font designed by
 * FONTRIX.
 * 
 * Trademark:
 * NanumMyeongjo is a registered trademark of NHN Corporation.
 * 
 * Manufacturer:
 * NHN Corporation
 * 
 * Designer:
 * Yong-rak, Park; Ji-hee, Yoon
 * 
 * Vendor URL:
 * http://www.nhncorp.com
 * 
 * License information:
 * http://www.nhncorp.com
 */
Cufon.registerFont({"w":973,"face":{"font-family":"NanumMyeongjo","font-weight":400,"font-stretch":"normal","units-per-em":"1024","panose-1":"2 2 6 3 2 1 1 2 1 1","ascent":"819","descent":"-205","bbox":"-42.2006 -978 1038 237","underline-thickness":"50","underline-position":"-235","unicode-range":"U+0020-U+FFE6"},"glyphs":{" ":{"w":307},"!":{"d":"173,-172v6,-184,-37,-349,-37,-517v0,-45,10,-90,52,-94v73,12,58,121,48,195v-18,127,-23,275,-26,416r-37,0xm253,-19v0,33,-29,60,-63,60v-33,0,-61,-27,-61,-60v0,-32,28,-61,61,-61v34,0,63,28,63,61","w":379},"\"":{"d":"250,-609r-32,0r-19,-203v-6,-32,42,-55,63,-26v7,9,10,17,9,26xm65,-838v21,-30,67,-5,64,26r-18,203r-33,0r-22,-203v-1,-9,2,-17,9,-26","w":328},"#":{"d":"464,-777r58,0r-47,233r126,0r-7,39r-126,0r-42,211r136,0r-10,38r-134,0r-49,248r-60,0r50,-248r-140,0r-51,248r-62,0r53,-248r-130,0r9,-38r128,0r44,-211r-140,0r8,-39r140,0r49,-233r60,0r-48,233r138,0xm270,-505r-43,211r140,0r43,-211r-140,0","w":632},"$":{"d":"284,-1v-95,0,-144,-24,-206,-59r0,-139r20,0v22,99,71,167,186,173r0,-358v-99,-44,-195,-83,-195,-213v0,-107,90,-159,195,-168r0,-72r52,0r0,72v69,7,132,27,176,60r0,121r-20,0v-17,-86,-61,-150,-156,-158r0,313v104,55,215,81,215,231v0,122,-91,189,-215,198r0,102r-52,0r0,-103xm336,-23v105,-11,192,-98,152,-217v-23,-68,-87,-96,-152,-128r0,345xm284,-741v-91,9,-171,89,-132,187v22,54,76,84,132,108r0,-295","w":632},"%":{"d":"601,-658v-47,29,-140,35,-192,6v27,112,-36,193,-91,253v-41,45,-108,78,-191,56v-71,-19,-101,-104,-70,-190v37,-101,118,-208,261,-199v35,2,60,22,77,44v53,32,149,27,205,-4v23,-13,45,-27,65,-47r40,0r-449,721r-51,0xm301,-706v-119,26,-187,127,-200,250v-6,60,35,101,102,87v95,-21,154,-113,175,-206v7,-34,5,-64,-6,-89v-27,-7,-50,-21,-71,-42xm726,-42v-88,57,-235,15,-234,-86v2,-147,85,-257,214,-282v106,-20,187,50,158,166v-21,86,-73,160,-138,202xm799,-175v32,-53,58,-177,-11,-200v-121,-40,-185,79,-224,170v-26,60,-19,142,39,154v103,21,156,-57,196,-124","w":901},"&":{"d":"684,-35v64,0,113,-36,134,-88r24,5v-18,106,-153,163,-256,97v-33,-21,-66,-45,-97,-75v-74,66,-195,127,-328,93v-99,-26,-149,-164,-91,-265v41,-71,113,-126,195,-162v-41,-80,-57,-217,8,-283v29,-29,67,-55,123,-55v90,0,152,43,152,132v0,132,-119,166,-217,214v47,98,107,182,173,260v56,-68,117,-146,132,-252v6,-44,-31,-45,-73,-44r0,-26r235,0r0,26v-56,2,-90,7,-106,55v-33,99,-92,192,-163,268v44,42,91,100,155,100xm280,-399v-108,43,-224,172,-139,307v41,65,154,68,231,30v31,-16,63,-35,92,-61v-73,-83,-133,-173,-184,-276xm401,-742v-102,0,-136,113,-109,216v6,24,15,48,24,73v87,-41,185,-85,185,-186v0,-64,-38,-103,-100,-103","w":879},"'":{"d":"102,-609r-26,0r-23,-203v-5,-31,44,-56,65,-26v7,9,10,17,9,26","w":180},"(":{"d":"165,-377v0,197,79,343,199,449r-17,22v-145,-116,-245,-252,-245,-471v0,-211,103,-370,240,-469r17,20v-114,98,-194,247,-194,449","w":374},")":{"d":"44,-846v138,100,240,257,240,469v0,217,-100,357,-245,471r-16,-22v119,-108,198,-251,198,-449v0,-202,-80,-351,-194,-449","w":374},"*":{"d":"327,-438v-86,-12,-13,-125,-12,-187v-40,27,-63,67,-102,93v-38,25,-86,-4,-71,-44v18,-50,109,-43,161,-65v-50,-28,-139,-18,-164,-67v-10,-40,33,-72,72,-46v39,27,63,69,104,96v-3,-53,-28,-87,-31,-137v-2,-29,16,-54,43,-50v87,12,14,124,11,185v37,-29,65,-66,102,-94v39,-28,82,4,72,44v-26,51,-118,41,-168,69v43,19,99,19,139,40v31,17,36,36,23,61v-20,38,-73,14,-92,-10v-7,-9,-17,-16,-26,-24v-12,-17,-33,-35,-50,-50v5,52,29,87,33,136v2,29,-17,54,-44,50","w":654},"+":{"d":"356,-365r0,226r-58,0r0,-226r-218,0r0,-47r218,0r0,-217r58,0r0,217r219,0r0,47r-219,0","w":654},",":{"d":"123,-87v87,0,85,127,45,181v-19,26,-45,46,-81,59r-14,-17v53,-25,80,-59,80,-104v-1,-32,-29,-1,-51,-10v-22,-9,-40,-24,-41,-52v-1,-32,29,-57,62,-57","w":280},"-":{"d":"83,-364r0,-48r488,0r0,48r-488,0","w":654},".":{"d":"195,-26v0,34,-28,60,-63,60v-35,0,-62,-26,-61,-60v0,-33,27,-60,61,-60v34,0,63,27,63,60","w":280},"\/":{"d":"83,36r-53,0r330,-840r55,0","w":444},"0":{"d":"174,-22v-172,-121,-165,-592,0,-712v57,-41,147,-42,204,-1v172,124,166,594,-1,713v-57,41,-146,40,-203,0xm208,-51v38,35,101,35,138,1v112,-103,103,-421,48,-584v-25,-75,-115,-139,-186,-74v-113,103,-112,423,-49,584v12,31,29,56,49,73","w":550},"1":{"d":"148,-36v68,0,111,-12,111,-84r0,-491v2,-47,-12,-74,-59,-57v-16,5,-35,12,-60,23r0,-31r184,-98r0,656v-4,72,43,83,111,83r0,28r-287,0r0,-29","w":550},"2":{"d":"373,-59v75,5,94,-24,119,-71r24,0r-46,123r-411,0r0,-25r71,-78r138,-169r48,-62v43,-60,100,-126,100,-221v0,-94,-54,-157,-154,-157v-102,0,-142,86,-171,166r-30,-4v26,-113,85,-210,220,-210v142,0,226,119,187,265v-35,130,-119,216,-196,308r-113,135r214,0","w":550},"3":{"d":"288,-769v96,0,164,57,164,153v0,93,-66,144,-125,186v92,20,161,82,161,190v0,150,-92,214,-216,242v-65,15,-140,1,-178,-26v-29,-21,-16,-65,19,-65v64,0,87,59,155,53v91,-10,153,-69,157,-164v6,-143,-80,-200,-232,-183r1,-28v99,-25,182,-79,188,-191v4,-74,-43,-121,-116,-119v-87,2,-131,59,-157,125r-30,-1v27,-97,90,-172,209,-172","w":550},"4":{"d":"410,-773r0,519r118,0r0,48r-118,0r0,199r-63,0r0,-199r-306,0r0,-45r331,-522r38,0xm90,-254r256,0r0,-400","w":550},"5":{"d":"162,-535v187,-4,313,78,313,257v0,130,-68,215,-159,260v-72,35,-190,26,-246,-12v-31,-20,-13,-63,26,-60v63,4,92,55,158,51v104,-7,153,-95,153,-206v0,-164,-109,-240,-289,-229v-12,2,-27,-5,-23,-15r109,-268r269,0r-12,56r-235,0","w":550},"6":{"d":"484,-342v55,164,-16,356,-192,352v-223,-5,-277,-294,-202,-498v59,-160,187,-274,397,-281r1,26v-197,19,-307,144,-346,323v61,-83,228,-84,293,-2v19,24,38,48,49,80xm293,-23v167,1,165,-266,88,-365v-26,-34,-64,-59,-121,-55v-174,14,-153,329,-39,398v22,13,45,22,72,22","w":550},"7":{"d":"506,-746r-231,738r-57,0r213,-686v-87,3,-190,-10,-267,5v-43,8,-60,50,-84,82r-28,-6r62,-144r388,0","w":550},"8":{"d":"283,-769v111,0,193,63,193,177v0,101,-60,156,-127,193v85,36,152,82,152,191v0,139,-91,217,-230,217v-124,0,-218,-68,-218,-191v0,-114,69,-180,156,-211v-72,-37,-132,-87,-132,-190v0,-121,84,-186,206,-186xm281,-740v-131,-5,-191,166,-95,250v34,29,76,55,130,72v58,-33,106,-79,106,-162v0,-96,-49,-156,-141,-160xm246,-378v-83,37,-136,90,-136,194v0,99,65,156,160,159v123,4,200,-112,154,-231v-28,-71,-104,-91,-178,-122","w":550},"9":{"d":"74,-414v-56,-164,18,-356,193,-352v223,5,277,294,202,498v-58,159,-187,275,-397,281r-1,-26v197,-22,308,-143,347,-324v-48,55,-136,88,-222,54v-58,-23,-101,-70,-122,-131xm266,-736v-167,-1,-165,269,-88,368v26,34,63,61,121,56v173,-16,153,-331,39,-402v-22,-14,-45,-22,-72,-22","w":550},":":{"d":"275,-158v0,33,-28,60,-62,60v-35,0,-61,-27,-61,-60v0,-32,28,-61,61,-61v34,0,62,28,62,61xm275,-602v0,34,-27,60,-62,60v-35,0,-61,-26,-61,-60v0,-32,28,-61,61,-61v34,0,62,28,62,61","w":420},";":{"d":"275,-601v0,33,-28,59,-62,59v-35,0,-61,-26,-61,-59v0,-33,28,-62,61,-62v35,0,62,28,62,62xm211,-233v87,0,85,126,45,180v-19,25,-45,46,-81,59r-14,-16v53,-26,80,-61,80,-105v0,-20,-17,-12,-28,-9v-31,9,-63,-20,-63,-52v0,-33,28,-57,61,-57","w":420},"<":{"d":"510,92r-358,-450r0,-28r358,-450r38,24r-348,439r348,442","w":561},"=":{"d":"83,-467r0,-45r488,0r0,45r-488,0xm83,-264r0,-45r488,0r0,45r-488,0","w":654},">":{"d":"378,-373r-348,-440r37,-23r360,449r0,28r-360,451r-37,-22","w":561},"?":{"d":"120,-646v0,34,36,36,36,72v0,39,-49,63,-75,30v-9,-12,-19,-28,-19,-48v3,-121,88,-184,208,-184v124,0,206,62,206,187v0,137,-138,204,-169,319v-11,38,-18,74,-19,107r-31,0v-10,-89,46,-196,96,-271v28,-41,52,-90,53,-155v1,-96,-53,-162,-139,-162v-77,0,-147,35,-147,105xm331,-19v0,33,-29,60,-63,60v-35,0,-61,-27,-61,-60v0,-32,28,-61,61,-61v34,0,63,28,63,61","w":537},"@":{"d":"458,-37v136,0,237,-57,307,-129r26,24v-82,74,-188,137,-341,138v-191,2,-330,-74,-380,-214v-80,-227,54,-437,226,-509v135,-56,324,-29,411,50v58,53,113,124,113,228v0,136,-74,222,-168,266v-61,28,-149,33,-172,-28v-44,49,-140,75,-210,37v-91,-50,-67,-224,-14,-302v41,-61,92,-118,187,-121v60,-2,106,21,123,59r17,-42r63,0r-119,326v-13,36,7,70,46,63v147,-26,245,-207,170,-366v-47,-100,-147,-170,-289,-170v-163,0,-264,96,-319,214v-37,78,-49,194,-16,280v49,126,169,196,339,196xm463,-260v32,-71,79,-140,79,-228v0,-65,-75,-95,-133,-66v-92,46,-142,154,-139,290v1,62,63,98,124,72v31,-13,55,-38,69,-68","w":874},"A":{"d":"721,-8r-242,0r0,-25v48,0,86,-2,75,-53v-15,-67,-44,-139,-65,-203r-264,0r-52,150v-26,77,-19,106,69,106r0,25r-218,0r0,-27v81,3,93,-47,114,-107r226,-643r20,0r219,645v19,61,44,103,118,107r0,25xm478,-323r-118,-353r-122,353r240,0","w":744,"k":{"y":75,"w":75,"v":75,"Y":122,"W":113,"V":126,"T":75}},"B":{"d":"514,-197v0,-161,-136,-197,-307,-186r0,257v-7,81,37,88,117,87v111,-2,190,-48,190,-158xm451,-580v0,-135,-112,-149,-244,-141r0,305v142,7,244,-23,244,-164xm315,-8r-272,0r0,-24v73,4,97,-22,97,-95r0,-514v-2,-74,-20,-85,-97,-88r0,-25r121,2v177,-10,353,2,353,172v0,108,-80,148,-165,172v131,8,234,67,234,200v0,133,-118,200,-271,200","w":627},"C":{"d":"479,-23v122,2,178,-83,199,-183r23,0r-26,165v-93,49,-263,69,-375,22v-139,-58,-233,-179,-233,-373v0,-183,110,-293,244,-351v122,-53,277,-19,378,24r10,156r-18,0v-20,-118,-83,-177,-219,-177v-157,0,-253,88,-299,206v-56,145,-4,333,75,409v58,56,136,101,241,102","w":745},"D":{"d":"501,-40v-119,48,-304,27,-466,32r0,-27v53,0,91,-5,95,-49v14,-173,-1,-370,4,-552v2,-72,-27,-97,-99,-93r0,-25v162,6,343,-16,465,31v168,64,292,261,211,479v-36,96,-112,164,-210,204xm664,-384v0,-258,-190,-363,-463,-334r0,585v-7,87,46,96,131,94v219,-4,332,-131,332,-345","w":806},"E":{"d":"39,-33v86,-2,101,-19,101,-105r0,-495v4,-75,-27,-99,-101,-95r0,-26v80,2,162,3,247,3v85,0,165,-1,240,-3r0,160r-21,0v-7,-69,-17,-114,-80,-124v-59,-9,-148,-4,-218,-5r0,307r151,0v64,-2,78,-24,79,-92r24,0r0,237r-24,0v2,-68,-11,-103,-80,-103r-150,0r0,236v-14,116,92,96,199,99v114,3,150,-46,175,-132r26,0r-37,123r-9,40v-87,-1,-176,-2,-265,-2v-89,0,-175,1,-257,2r0,-25","w":627},"F":{"d":"444,-276v-6,-71,-16,-98,-89,-98r-148,0r0,234v0,56,2,96,47,104v13,2,30,3,51,3r0,25r-266,0r0,-25v56,0,90,-4,97,-51v2,-14,4,-33,4,-56r0,-493v4,-76,-28,-97,-101,-95r0,-27v80,2,161,3,243,3v82,0,163,-1,243,-3r6,151r-26,-1v-8,-61,-19,-103,-77,-113v-59,-10,-151,-3,-221,-5r0,307r146,0v71,-2,83,-16,88,-89r28,0v-6,70,-2,156,0,229r-25,0","w":568,"k":{"A":56}},"G":{"d":"720,-49v-113,51,-289,84,-419,27v-134,-59,-233,-173,-233,-356v0,-185,100,-303,231,-363v128,-57,292,-22,404,23r19,153r-26,0v-26,-115,-95,-175,-231,-175v-165,0,-261,100,-302,226v-65,201,25,396,169,461v42,19,88,30,141,30v74,0,131,-25,164,-47r0,-157v0,-69,-31,-76,-97,-78r0,-26r122,2r118,-2r0,25v-53,2,-77,17,-77,79r0,136r17,17r0,25","w":806},"H":{"d":"32,-755v78,6,179,2,262,0r0,26v-50,2,-87,6,-93,48v-11,76,-2,177,-4,261r473,0r0,-214v0,-52,-8,-86,-52,-92v-13,-2,-28,-2,-47,-3r0,-26r134,2r129,-2r0,26v-50,1,-90,4,-94,45v-15,170,1,365,-4,543v-2,78,20,113,98,108r0,25r-129,-2r-134,2r0,-25v77,3,99,-30,99,-108r0,-237r-473,0r0,237v-4,78,18,113,97,108r0,25r-262,0r0,-25v84,-2,98,-22,98,-108r0,-490v4,-75,-25,-101,-98,-98r0,-26","w":866},"I":{"d":"32,-33v82,-2,98,-23,98,-108r0,-491v0,-53,-7,-86,-50,-93v-13,-2,-29,-3,-48,-4r0,-26v79,5,179,1,262,0r0,26v-49,2,-89,4,-93,46v-15,170,-4,364,-4,542v0,86,14,106,97,108r0,25r-262,0r0,-25","w":327},"J":{"d":"93,-755v80,5,178,0,262,0r0,26v-50,1,-89,5,-93,47v-15,183,-2,391,-4,583v-2,183,-41,312,-195,320v-59,4,-131,-42,-96,-99v17,-27,65,-10,65,22v0,31,17,47,55,45v102,-6,104,-96,104,-221r0,-599v4,-75,-25,-101,-98,-98r0,-26","w":387},"K":{"d":"472,-755r159,3v18,0,33,-1,44,-2r0,25v-57,2,-80,28,-117,57v-18,14,-39,34,-63,57r-173,168r281,376v22,30,63,40,114,38r0,24r-149,0r-287,-398r-84,81r0,186v2,84,11,104,87,107r0,25r-252,0r0,-25v77,4,98,-30,98,-107r0,-490v4,-75,-25,-102,-98,-99r0,-26r125,2r122,-2r0,26v-67,-2,-82,30,-82,99r0,267r301,-292v12,-14,30,-28,34,-49v-1,-24,-34,-24,-60,-25r0,-26","w":745},"L":{"d":"207,-143v-4,110,82,100,189,104v118,4,162,-40,185,-132r22,0r-40,163r-259,-3r-261,3r0,-24v79,4,97,-32,97,-111r0,-488v0,-53,-6,-87,-50,-94v-13,-2,-28,-3,-47,-4r0,-26v78,6,180,2,262,0r0,26v-51,1,-90,4,-94,47v-15,169,2,362,-4,539","w":627,"k":{"y":56,"Y":113,"W":113,"V":113,"T":94}},"M":{"d":"74,-755v44,5,98,2,144,0r306,654r300,-653v44,5,113,4,156,-1r0,26v-70,0,-96,25,-95,91r11,495v2,58,10,95,59,105v15,3,36,5,61,5r0,25r-296,0r0,-25v82,4,111,-27,110,-110r-7,-524r-306,666r-15,0r-301,-647r-10,508v2,76,11,103,83,107r0,25r-245,0r0,-25v85,1,125,-25,127,-110r13,-494v0,-66,-31,-91,-95,-92r0,-26","w":1044},"N":{"d":"728,-753r117,-2r0,26v-55,0,-89,5,-97,49v-2,13,-4,30,-4,52r0,631r-23,0r-536,-655r0,511v-4,80,20,114,100,108r0,25r-247,0r0,-25v82,4,114,-23,114,-107r0,-487v-1,-84,-46,-100,-132,-102r0,-25v45,5,104,1,152,0r539,644r0,-518v0,-53,-8,-88,-51,-96v-13,-3,-30,-4,-51,-5r0,-26","w":865},"O":{"d":"574,-740v160,74,281,276,198,500v-51,136,-160,249,-341,249v-174,0,-284,-108,-335,-238v-85,-218,31,-435,188,-508v87,-41,200,-44,290,-3xm443,-23v233,3,318,-232,258,-461v-35,-133,-116,-256,-280,-256v-227,0,-318,233,-258,462v35,134,115,253,280,255","w":865},"P":{"d":"530,-543v-4,178,-145,231,-333,216r0,185v-4,79,19,114,98,109r0,25r-263,0r0,-25v78,4,98,-30,98,-109r0,-491v3,-73,-21,-101,-95,-96r0,-25r246,-1v139,-2,252,78,249,212xm458,-536v-2,-142,-114,-206,-261,-181r0,351v86,9,175,10,219,-44v26,-32,42,-73,42,-126","w":567,"k":{"A":56}},"Q":{"d":"498,2v60,91,169,125,324,113r0,23v-179,35,-342,-15,-406,-131v-165,-11,-273,-112,-322,-240v-82,-218,34,-431,190,-504v87,-41,200,-44,290,-3v154,71,276,267,204,485v-42,128,-137,227,-280,257xm443,-23v233,3,318,-232,258,-461v-35,-133,-116,-256,-280,-256v-227,0,-318,233,-258,462v35,134,115,253,280,255","w":865},"R":{"d":"560,-567v0,104,-69,161,-150,188v55,93,127,192,194,274v29,34,62,71,120,72r0,25v-46,-3,-95,-3,-139,0v-41,-52,-86,-118,-125,-176r-119,-178r-134,0r0,221v-4,78,20,112,98,108r0,25r-131,-2r-131,2r0,-24v79,5,97,-31,97,-109r0,-490v4,-74,-25,-101,-97,-98r0,-26r142,2r146,-2v138,1,229,64,229,188xm486,-560v0,-145,-132,-179,-279,-158r0,319v146,20,279,-22,279,-161","w":745,"k":{"y":18,"Y":94,"W":75,"V":75,"T":30}},"S":{"d":"469,-208v7,195,-224,260,-393,186r-24,-161r28,0v19,85,46,160,152,160v117,0,215,-96,162,-207v-69,-146,-313,-127,-320,-334v-6,-181,161,-233,337,-194r17,138r-26,0v-15,-77,-34,-116,-123,-120v-118,-5,-190,104,-139,204v73,143,321,121,329,328","w":520},"T":{"d":"347,-750r316,-5r-9,138r-27,0v3,-78,-29,-99,-109,-99r-142,0r0,574v-3,78,20,113,98,109r0,25r-262,0r0,-25v82,-2,97,-22,97,-109r0,-574r-122,0v-89,-4,-126,26,-138,99r-27,0r11,-138","w":685,"k":{"y":88,"w":88,"u":88,"s":68,"r":68,"o":100,"i":37,"e":88,"c":88,"a":88,"A":75}},"U":{"d":"629,-753r100,-2r0,26v-69,-4,-84,27,-84,97r0,386v-4,164,-96,255,-262,255v-171,0,-268,-89,-268,-267r0,-371v4,-75,-26,-102,-98,-100r0,-26r130,2r133,-2r0,26v-74,-2,-99,24,-99,100r0,343v1,170,65,253,230,253v129,0,202,-83,202,-213r0,-383v-1,-51,-1,-88,-43,-95v-12,-2,-28,-3,-47,-4r0,-27","w":745},"V":{"d":"548,-755r150,3v16,0,29,-1,38,-2r0,25v-71,-1,-79,48,-99,101r-241,637r-16,0r-247,-630v-25,-60,-38,-111,-123,-108r0,-26v75,5,170,1,250,0r0,27v-45,2,-81,2,-70,52v3,13,8,31,17,53r197,528r201,-538v13,-37,30,-82,-13,-91v-11,-2,-26,-3,-44,-4r0,-27","w":746,"k":{"y":68,"u":68,"r":68,"o":88,"i":37,"e":75,"a":88,"A":107}},"W":{"d":"870,-755v50,5,114,0,168,0r0,26v-62,-2,-66,55,-82,99r-236,639r-17,0r-144,-339r-157,339r-17,0r-267,-652v-20,-48,-39,-91,-112,-86r0,-26v69,5,160,1,234,0r0,26v-69,2,-77,19,-50,86r221,555r131,-282r-116,-271v-29,-58,-34,-86,-112,-88r0,-26v66,6,152,2,222,0r0,26v-70,3,-64,24,-37,89r79,191r87,-186v28,-70,31,-92,-52,-94r0,-26v54,5,123,1,181,0r0,26v-59,2,-75,50,-94,91r-105,229r129,313r199,-533v26,-79,26,-96,-53,-100r0,-26","w":1044,"k":{"y":51,"u":51,"r":51,"o":88,"i":18,"e":75,"a":88,"A":100}},"X":{"d":"777,-8r-229,0r0,-25v70,3,73,-15,35,-63r-195,-254r-166,219v-32,42,-46,69,-43,81v3,12,28,17,73,17r0,25r-223,0r0,-25v86,-3,116,-51,158,-105r182,-236r-205,-268v-42,-49,-55,-84,-130,-87r0,-26v77,6,168,2,248,0r0,26v-73,3,-93,16,-49,74r178,227r161,-211v18,-27,35,-41,27,-73v-10,-14,-37,-17,-64,-17r0,-26v68,5,149,1,220,0r0,26v-84,0,-113,48,-151,96r-175,229r219,281v43,53,59,80,129,90r0,25","w":806},"Y":{"d":"30,-754v76,5,162,-1,241,-1r0,26v-57,1,-78,17,-43,65r181,251r187,-254v36,-49,16,-63,-53,-62r0,-26v28,1,57,2,88,2v31,0,59,-1,85,-2r0,26v-52,1,-68,38,-91,69r-204,277r0,253v2,79,18,95,98,97r0,25r-133,-2r-129,2r0,-25v79,-2,97,-16,97,-97r0,-237r-211,-297v-28,-37,-50,-66,-113,-64r0,-26","w":745,"k":{"v":68,"u":68,"q":88,"p":68,"o":88,"i":37,"e":88,"a":94,"A":75}},"Z":{"d":"91,-755r303,5r296,-5r-547,705r298,0v146,5,216,-36,251,-141r26,0r-49,183r-505,-2v-57,1,-103,1,-138,2r549,-705r-333,0v-98,-4,-133,37,-151,113r-29,0","w":745},"[":{"d":"188,-8v1,39,3,45,45,45r126,0r0,39r-233,0r0,-907r233,0r0,37r-130,0v-32,-2,-41,8,-41,40r0,746","w":374},"\\":{"d":"266,-753r0,23v-46,2,-90,4,-90,48v0,87,51,162,72,240r221,0r34,-95r-46,-120v-14,-49,-45,-72,-108,-72r0,-24r260,0r0,23v-48,1,-93,1,-93,46v0,86,54,164,77,242r215,0r66,-224v8,-51,-23,-63,-74,-64r0,-23r219,0r0,23v-54,5,-90,22,-104,68r-68,220r165,0r0,45r-179,0r-126,406r-12,0r-141,-406r-62,0r-144,406r-12,0r-134,-406r-190,0r0,-45r175,0r-63,-192v-16,-59,-45,-94,-117,-95r0,-24r259,0xm263,-397r92,280r99,-280r-191,0xm609,-397r99,286r86,-286r-185,0xm539,-442r-16,-44r-15,44r31,0","w":1024},"]":{"d":"201,-754v-1,-36,-4,-40,-41,-40r-130,0r0,-37r233,0r0,907r-233,0r0,-39r126,0v42,-1,45,-6,45,-45r0,-746","w":374},"^":{"d":"466,-669r-209,-175r-208,173r-32,-28r221,-201r40,0r219,202","w":514},"_":{"d":"0,144r0,-43r514,0r0,43r-514,0","w":514},"`":{"d":"184,-631r-20,11r-122,-163v-20,-29,8,-68,40,-55v11,4,19,11,22,20","w":222},"a":{"d":"197,-39v55,0,101,-36,130,-67r0,-146v-73,22,-129,43,-165,62v-36,19,-54,43,-54,72v-1,61,31,79,89,79xm388,-109v-1,75,36,80,87,46r3,17v-25,22,-55,55,-96,55v-39,0,-53,-40,-55,-86v-43,44,-99,82,-176,86v-86,4,-138,-101,-83,-167v55,-65,167,-88,259,-120v3,-96,1,-170,-100,-170v-51,0,-108,36,-108,84v1,27,-11,45,-33,46v-39,-9,-28,-66,0,-88v37,-30,112,-89,183,-89v65,0,119,43,119,113r0,273","w":515},"b":{"d":"40,-766v45,-9,88,-25,116,-52r18,0v-11,130,-3,277,-5,415v56,-50,149,-125,249,-74v91,47,138,189,92,313v-35,94,-103,169,-225,173v-57,2,-119,-23,-152,-42r-24,28r-18,-8v31,-194,11,-435,17,-655v2,-56,-10,-83,-68,-78r0,-20xm314,-445v-55,0,-115,48,-145,78r0,240v1,69,44,108,121,106v121,-4,175,-88,178,-206v3,-112,-51,-217,-154,-218","w":575},"c":{"d":"287,-52v61,1,113,-32,144,-61r13,11v-55,69,-165,145,-276,92v-95,-46,-158,-186,-107,-316v37,-94,111,-170,236,-170v60,0,127,15,132,73v3,29,-20,55,-45,35v-17,-14,-30,-51,-58,-63v-17,-7,-39,-13,-69,-13v-105,0,-155,95,-155,198v0,126,59,211,185,214","w":475},"d":{"d":"286,-46v52,-3,116,-25,127,-72r0,-246v-2,-71,-58,-100,-126,-100v-116,0,-172,92,-174,216v-2,112,62,207,173,202xm60,-138v-70,-237,140,-427,353,-330r0,-200v3,-56,-10,-83,-68,-78r0,-20v45,-9,88,-25,116,-52r18,0v-4,32,-5,78,-5,112r0,607v0,48,24,46,71,45r0,20v-35,9,-92,40,-129,48v-8,-21,-1,-58,-3,-84v-56,58,-159,105,-251,58v-49,-25,-85,-69,-102,-126","w":575},"e":{"d":"415,-329v0,17,-2,25,-18,25r-295,0v-17,131,36,255,161,255v68,0,116,-31,147,-68r14,9v-39,79,-154,153,-262,99v-73,-36,-121,-112,-121,-219v0,-151,62,-268,205,-268v102,0,169,62,169,167xm350,-362v0,-59,-44,-101,-108,-102v-80,-2,-124,58,-137,128r211,0v23,0,34,-4,34,-26","w":455},"f":{"d":"321,-748v-84,-32,-138,32,-138,113r0,167r136,0r0,44r-136,0r0,323v1,64,33,66,99,68r0,25r-125,-2r-121,2r0,-25v57,-1,85,-16,86,-70r0,-321r-76,0r0,-20v35,-5,76,-20,76,-65v0,-158,78,-286,203,-315v29,0,49,13,49,42v1,25,-29,43,-53,34","w":336},"g":{"d":"239,-496v88,2,151,47,248,30r0,45r-105,-4v12,13,27,60,27,85v0,126,-113,183,-243,159v-18,16,-45,24,-44,57v3,86,130,52,224,57v81,4,149,35,143,117v-10,129,-132,187,-272,187v-101,0,-184,-36,-191,-127v-5,-71,63,-112,117,-129v-60,-11,-93,-55,-78,-120v22,-12,59,-37,74,-52v-48,-26,-91,-67,-90,-141v1,-101,77,-167,190,-164xm270,-8v-100,-1,-185,25,-190,103v-5,74,78,111,153,109v100,-3,201,-29,201,-122v0,-77,-83,-89,-164,-90xm227,-470v-74,0,-107,55,-109,127v-2,73,37,141,112,141v81,0,117,-55,117,-127v0,-79,-38,-141,-120,-141","w":515},"h":{"d":"30,-33v63,-2,71,-14,71,-78r0,-557v2,-56,-9,-84,-67,-78r0,-20v45,-9,88,-25,116,-52r18,0v-11,136,-3,288,-5,432v45,-46,92,-107,177,-110v85,-3,132,74,132,161r2,262v3,36,30,40,71,40r0,25r-207,0r0,-25v59,5,76,-19,73,-78v-10,-137,42,-332,-107,-327v-56,2,-115,52,-141,88r0,239v2,65,7,77,73,78r0,25r-206,0r0,-25","w":575},"i":{"d":"173,-495v-9,125,-4,264,-4,395v0,59,12,65,72,67r0,25r-205,0r0,-25v60,-2,72,-7,72,-67r0,-245v1,-55,-4,-87,-61,-83r0,-21v46,-8,79,-19,108,-46r18,0xm136,-665v-26,0,-49,-23,-49,-49v0,-26,23,-50,49,-50v26,0,50,24,50,50v0,26,-24,49,-50,49","w":276},"j":{"d":"16,213v70,-36,92,-77,92,-178r0,-380v1,-55,-4,-87,-61,-83r0,-21v46,-8,79,-19,108,-46r18,0v-4,32,-4,78,-4,112r0,407v1,119,-56,180,-146,207xm138,-665v-26,0,-49,-23,-49,-49v0,-26,23,-50,49,-50v26,0,50,24,50,50v0,26,-24,49,-50,49","w":276},"k":{"d":"168,-818v-12,183,-2,385,-5,576r166,-139v31,-26,46,-45,45,-57v-1,-12,-16,-17,-47,-16r0,-27v56,6,130,2,189,0r0,27v-61,2,-94,30,-129,59r-143,118r180,197v34,39,63,46,121,49r0,23r-134,0r-208,-235r-40,33r0,100v2,67,9,75,73,77r0,25r-103,-2r-103,2r0,-25v64,-2,71,-10,71,-77r0,-558v2,-56,-9,-84,-67,-78r0,-20v45,-9,88,-25,116,-52r18,0","w":575},"l":{"d":"36,-33v62,-1,72,-15,72,-77r0,-558v3,-56,-10,-83,-68,-78r0,-20v45,-9,88,-25,116,-52r18,0v-4,32,-5,78,-5,112r0,596v1,58,13,76,72,77r0,25r-205,0r0,-25","w":276},"m":{"d":"41,-449v45,-8,79,-19,107,-46r19,0v-3,26,-4,68,-4,93v56,-38,106,-94,192,-94v60,0,92,34,107,92v49,-36,113,-92,190,-92v161,0,107,232,115,389v3,57,12,73,69,74r0,25r-200,0r0,-25v58,-1,70,-17,70,-74r0,-201v1,-79,-18,-137,-99,-134v-60,2,-105,41,-142,68r0,267v1,58,14,73,73,74r0,25r-204,0r0,-25v57,-1,69,-17,69,-74r0,-201v2,-79,-16,-139,-97,-134v-60,4,-106,41,-143,72r0,263v1,57,12,73,70,74r0,25r-205,0r0,-25v60,-1,73,-16,73,-74r0,-238v2,-55,-3,-88,-60,-83r0,-21","w":864},"n":{"d":"41,-449v45,-8,79,-19,107,-46r19,0v-4,27,-4,66,-4,92v51,-35,121,-93,197,-93v159,0,103,232,112,386v3,58,13,76,73,77r0,25r-205,0r0,-25v58,-1,71,-20,71,-77r0,-238v-1,-69,-29,-94,-99,-94v-60,0,-111,39,-149,69r0,263v1,58,13,76,73,77r0,25r-206,0r0,-25v59,-1,71,-19,71,-77r0,-235v2,-55,-3,-88,-60,-83r0,-21","w":575},"o":{"d":"66,-136v-80,-206,84,-421,312,-342v113,40,185,189,132,332v-40,109,-168,191,-311,138v-61,-23,-109,-67,-133,-128xm292,-19v118,0,163,-100,163,-216v0,-123,-47,-234,-171,-234v-119,0,-163,100,-163,217v0,121,48,233,171,233","w":575},"p":{"d":"47,-449v46,-8,79,-19,108,-46r18,0v-3,25,-4,62,-4,84v45,-36,100,-85,175,-85v196,0,227,296,114,422v-59,66,-200,116,-289,50r0,158v-5,67,33,79,99,78r0,25v-73,-6,-169,-2,-246,0r0,-25v69,-2,86,-10,86,-76r0,-481v1,-55,-4,-87,-61,-83r0,-21xm311,-446v-58,0,-106,40,-142,68r0,276v23,42,59,81,127,79v116,-4,172,-95,172,-210v0,-117,-42,-213,-157,-213","w":575},"q":{"d":"335,212v66,-1,82,-12,82,-76r0,-196v-42,37,-100,68,-166,69v-169,3,-247,-181,-183,-336v37,-89,112,-169,228,-169v53,0,90,18,131,41r37,-47r17,0r-3,106r0,533v2,59,10,74,71,75r0,24v-67,-5,-145,-1,-214,1r0,-25xm296,-45v43,0,92,-18,121,-36r0,-286v-12,-58,-63,-97,-132,-97v-112,0,-173,88,-173,214v0,125,58,203,184,205","w":575},"r":{"d":"47,-449v46,-8,79,-19,108,-46r18,0v-4,33,-4,74,-4,109v38,-44,77,-102,147,-109v30,-3,60,17,60,47v0,27,-21,48,-42,49v-33,1,-37,-26,-71,-25v-45,13,-94,49,-94,102r0,212v-6,73,40,78,112,77r0,25r-127,-2r-127,2r0,-25v70,-2,81,-7,81,-77r0,-235v1,-55,-4,-87,-61,-83r0,-21","w":395},"s":{"d":"340,-184v50,131,-81,226,-223,184v-23,-6,-42,-14,-58,-24r-12,-127r23,0v11,70,36,129,119,129v101,0,128,-99,66,-148v-71,-56,-198,-77,-201,-192v-4,-126,162,-165,265,-106r8,110r-21,0v-10,-65,-36,-103,-108,-106v-65,-2,-124,55,-86,114v50,79,193,73,228,166","w":395},"t":{"d":"22,-443v71,-21,96,-67,111,-147r21,0r0,122r160,0r0,44r-160,0r0,285v0,64,13,100,63,100v34,0,69,-16,91,-31r9,14v-34,34,-71,65,-131,65v-60,0,-95,-36,-94,-98r0,-335r-70,0r0,-19","w":336},"u":{"d":"472,-83v1,47,21,44,70,42r0,19v-43,9,-84,25,-129,31v-8,-26,-1,-66,-3,-97v-54,41,-120,97,-202,97v-71,0,-106,-50,-107,-127r0,-276v-1,-49,-15,-55,-64,-59r0,-19r129,-9v-6,98,-3,206,-3,309v0,90,11,128,86,128v62,0,125,-37,162,-73r0,-277v0,-49,-28,-55,-75,-59r0,-19r139,-9v-3,22,-3,65,-3,87r0,311","w":575},"v":{"d":"343,-481v40,4,114,3,151,0r0,27v-57,5,-58,29,-80,83r-154,380r-11,0r-146,-379v-21,-43,-22,-85,-81,-84r0,-27v57,6,133,2,194,0r0,27v-72,2,-73,16,-49,84r103,278r113,-279v22,-64,36,-80,-40,-82r0,-28","w":515},"w":{"d":"638,-481v52,4,110,3,161,0r0,27v-55,1,-66,35,-83,78r-153,383r-14,0r-141,-363r-145,363r-14,0r-152,-377v-19,-54,-27,-80,-82,-84r0,-27v56,5,129,1,190,0r0,27v-47,1,-70,14,-52,61r119,309r113,-290v9,-48,-18,-79,-71,-79r0,-28v55,4,144,3,199,0r0,28v-56,4,-74,16,-52,74r111,295r117,-297v24,-57,9,-71,-51,-73r0,-27","w":814},"x":{"d":"554,-8r-212,0r0,-25v45,-1,74,-7,46,-43r-106,-135r-116,136v-28,36,-20,41,35,42r0,25v-27,-1,-57,-2,-89,-2v-32,0,-63,1,-90,2r0,-25v67,-2,83,-11,121,-56r122,-143r-137,-174v-21,-24,-47,-45,-87,-47r0,-28v30,1,63,2,99,2v36,0,69,-1,102,-2r0,27v-46,0,-70,11,-40,49r101,128r108,-126v25,-35,10,-51,-33,-51r0,-27v59,4,116,2,176,0r0,27v-59,1,-84,20,-114,56r-121,142r140,176v27,34,39,46,95,47r0,25","w":575},"y":{"d":"88,156v21,7,52,30,66,-1r82,-195r-146,-365v-12,-32,-29,-50,-71,-50r0,-26v58,5,135,1,197,0r0,28v-44,3,-73,11,-56,55r108,279r114,-273v17,-44,-2,-62,-43,-62r0,-27v46,6,108,2,157,0r0,27v-56,2,-63,26,-82,70r-243,568v-13,35,-42,50,-82,50v-24,0,-48,-15,-48,-42v0,-27,24,-38,47,-36","w":515},"z":{"d":"63,-482r262,4v31,0,59,-2,86,-3r-300,442r161,0v86,4,109,-40,131,-104r23,0r-32,135v-57,-1,-118,-2,-185,-2v-67,0,-128,1,-184,2r0,-10r294,-430r-122,0v-73,-3,-111,21,-126,80r-22,0","w":455},"{":{"d":"123,-385v54,-11,86,-49,86,-111r0,-222v0,-99,60,-130,160,-131r-1,20v-74,2,-101,27,-101,101r0,224v0,73,-28,104,-78,124v51,22,78,57,78,131r0,218v-2,73,30,104,99,106r0,18v-109,3,-156,-40,-156,-149r0,-203v0,-62,-29,-100,-87,-115r0,-11","w":374},"|":{"d":"229,51r0,-874r59,0r0,874r-59,0","w":514},"}":{"d":"23,75v74,-6,98,-30,98,-106r0,-218v-1,-74,27,-109,78,-131v-49,-21,-79,-52,-78,-124r0,-224v-1,-74,-27,-99,-101,-101r-1,-20v100,1,160,32,160,131r0,222v0,62,33,100,86,111r0,11v-58,15,-87,53,-87,115v0,131,43,316,-82,345v-20,5,-44,7,-73,7r0,-18","w":374},"~":{"d":"454,-356v84,56,171,-19,191,-100r21,11v-23,84,-62,157,-165,157v-92,0,-143,-71,-201,-109v-19,-13,-35,-20,-52,-20v-80,0,-117,61,-156,124r-20,-9v32,-96,129,-206,252,-141v46,24,87,59,130,87","w":737},"\u00a1":{"d":"505,-556v-6,184,37,349,37,517v0,45,-11,90,-53,94v-72,-12,-57,-122,-47,-195v17,-127,23,-276,26,-416r37,0xm487,-782v35,0,62,26,62,60v0,32,-29,60,-62,60v-33,0,-62,-27,-62,-60v0,-34,28,-60,62,-60"},"\u00a4":{"d":"487,-743v109,0,194,46,251,105r135,-118r34,35r-142,118v44,52,76,122,76,213v0,93,-34,167,-80,220r144,130r-32,32r-141,-129v-57,56,-139,98,-245,99v-104,0,-186,-40,-241,-95r-145,128r-32,-35r144,-129v-46,-53,-79,-127,-80,-221v0,-89,30,-160,73,-211r-134,-119r32,-36r132,117v57,-58,142,-104,251,-104xm610,-102v139,-54,237,-224,167,-410v-52,-138,-234,-238,-413,-168v-137,54,-240,235,-166,412v45,108,141,191,289,191v43,0,84,-10,123,-25"},"\u00a7":{"d":"405,-674v55,129,189,183,237,317v16,44,7,96,-25,116v-19,12,-40,21,-65,24v48,50,96,165,48,256v-31,59,-110,92,-184,57v-40,-20,-94,-57,-79,-119v9,-34,72,-20,73,13v4,16,-9,51,8,55v13,18,51,32,84,21v44,-15,71,-78,52,-140v-41,-135,-197,-171,-229,-311v-17,-74,36,-130,112,-132v-45,-53,-101,-131,-81,-235v20,-104,190,-120,245,-39v17,25,32,61,4,80v-41,26,-65,-18,-65,-65v0,-52,-95,-46,-119,-12v-23,20,-31,76,-16,114xm491,-261v51,35,115,12,109,-43v-7,-67,-58,-111,-96,-147v-40,-38,-123,-49,-130,14v-9,82,76,147,117,176"},"\u00a8":{"d":"577,-824v2,-38,27,-63,66,-65v34,-1,69,33,67,67v-3,38,-29,64,-68,66v-35,2,-67,-34,-65,-68xm269,-824v0,-34,35,-65,68,-65v34,0,68,33,66,67v-2,39,-29,64,-67,66v-35,2,-67,-34,-67,-68"},"\u00aa":{"d":"141,-40r691,0r0,29r-691,0r0,-29xm577,-506v-109,30,-221,47,-253,145v-32,98,74,149,165,107v41,-19,88,-41,88,-100r0,-152xm643,-200v-43,-1,-67,-30,-65,-78v-48,64,-146,96,-246,74v-69,-15,-104,-115,-56,-182v62,-87,179,-112,301,-145v6,-102,-16,-171,-118,-165v-44,3,-110,13,-106,64v18,48,-37,95,-71,56v-16,-44,17,-79,45,-102v31,-26,88,-42,145,-42v115,-1,169,60,169,177r0,241v1,71,25,78,75,35r13,18v-19,21,-45,50,-86,49"},"\u00ad":{"d":"327,-253r0,-47r318,0r0,47r-318,0"},"\u00ae":{"d":"160,-222v62,159,258,271,466,189v126,-50,216,-163,216,-335v0,-170,-92,-275,-216,-326v-140,-58,-314,-2,-391,72v-85,81,-130,259,-75,400xm123,-526v71,-172,287,-290,517,-204v140,53,241,174,241,362v0,190,-103,311,-241,371v-158,69,-347,2,-432,-83v-93,-92,-150,-289,-85,-446xm480,-592v-28,2,-73,-16,-73,22r0,170v-3,25,41,8,62,13v73,0,119,-31,119,-100v0,-72,-33,-109,-108,-105xm635,-493v0,61,-45,108,-100,117v46,43,72,116,105,173v20,34,25,46,65,49r0,25r-89,-1v-46,-64,-67,-170,-118,-230v-14,-10,-51,-5,-75,-6v-14,0,-16,5,-16,17r0,140v-1,43,7,57,53,56r0,24r-150,0r0,-24v42,1,52,-12,52,-56r-1,-356v-2,-26,-22,-25,-51,-25r0,-24r201,0v77,0,123,51,124,121"},"\u00b1":{"d":"513,-134r-53,0r0,-264r-280,0r0,-51r280,0r0,-253r53,0r0,253r271,0r0,51r-271,0r0,264xm180,-53r604,0r0,49r-604,0r0,-49"},"\u00b2":{"d":"165,-580v31,2,36,-13,48,-32r30,0r-26,61r-198,0v-3,-30,21,-35,33,-51v36,-46,79,-82,111,-135v27,-44,14,-107,-44,-105v-39,2,-56,37,-70,70r-30,-5v13,-52,44,-93,109,-95v73,-3,120,75,79,140v-37,58,-81,105,-125,152r83,0"},"\u00b3":{"d":"128,-876v43,-1,84,27,83,69v0,25,-18,51,-53,76v38,9,68,36,69,78v4,92,-114,131,-191,91v-19,-10,-6,-36,14,-36v32,0,41,24,71,21v29,-3,59,-27,59,-61v0,-60,-33,-75,-102,-65r1,-23v43,-8,80,-33,82,-76v1,-26,-15,-42,-41,-42v-34,1,-50,25,-63,50r-31,-1v13,-44,49,-81,102,-81"},"\u00b4":{"d":"541,-942v37,-35,98,20,58,51v-54,42,-134,71,-202,101v-10,5,-15,6,-16,2v6,-21,32,-38,48,-53r87,-81v12,-11,20,-17,25,-20"},"\u00b6":{"d":"727,103r0,-922r58,0r0,922r-58,0xm191,-604v-3,-192,187,-230,394,-214r0,921r-58,0r-2,-495v-187,13,-331,-34,-334,-212xm254,-606v0,135,124,170,271,155r0,-316v-147,-9,-271,31,-271,161"},"\u00b7":{"d":"78,-388v0,-36,31,-67,66,-67v35,0,67,31,67,67v0,36,-32,66,-67,66v-35,0,-66,-30,-66,-66","w":296},"\u00b8":{"d":"526,47v27,20,44,35,44,73v0,86,-106,126,-189,87r5,-19v49,15,106,-1,107,-48v0,-38,-29,-54,-69,-55r55,-118r86,0"},"\u00b9":{"d":"61,-575v29,-1,51,0,51,-32r0,-209v-2,-10,-12,-8,-23,-4v-7,3,-18,7,-32,13r0,-27r99,-49r0,274v1,37,12,30,50,35r0,22r-145,0r0,-23"},"\u00ba":{"d":"263,-360v-75,-227,97,-434,315,-348v110,44,176,201,124,346v-32,91,-101,162,-219,162v-118,0,-190,-69,-220,-160xm141,-40r691,0r0,29r-691,0r0,-29xm311,-465v0,128,47,235,172,235v126,0,172,-106,172,-235v0,-127,-46,-234,-172,-234v-127,0,-172,106,-172,234"},"\u00bc":{"d":"765,-316r0,293r74,0r0,37r-74,0r0,115r-56,0r0,-115r-187,0r0,-30r204,-300r39,0xm573,-23r136,0r0,-195xm158,-441v42,1,68,-3,68,-46r-2,-295v-4,-14,-14,-11,-30,-6r-41,17r0,-30r128,-64r0,377v-3,46,25,47,68,48r0,26r-191,0r0,-27xm76,57r791,-872r25,17r-791,870"},"\u00bd":{"d":"76,57r791,-872r25,17r-791,870xm158,-441v42,1,68,-3,68,-46r-2,-295v-4,-14,-14,-11,-30,-6r-41,17r0,-30r128,-64r0,377v-3,46,25,47,68,48r0,26r-191,0r0,-27xm756,88v44,2,52,-18,68,-46r33,0r-33,81r-268,0r0,-22r91,-95r69,-79v25,-33,59,-70,59,-124v0,-53,-29,-85,-84,-85v-55,0,-84,51,-100,97r-35,-6v17,-71,59,-124,146,-127v104,-4,161,105,107,192v-50,81,-116,144,-177,214r124,0"},"\u00be":{"d":"357,-769v0,50,-35,80,-72,106v51,12,96,49,96,107v0,101,-83,146,-185,146v-37,0,-77,-10,-85,-40v0,-13,13,-26,29,-26v50,1,73,49,128,24v30,-14,56,-40,57,-82v3,-84,-49,-106,-143,-96r1,-25v60,-11,113,-48,115,-107v1,-39,-23,-61,-61,-61v-48,0,-76,34,-91,70r-35,-1v15,-58,66,-109,137,-107v62,1,109,31,109,92xm765,-316r0,293r74,0r0,37r-74,0r0,115r-56,0r0,-115r-187,0r0,-30r204,-300r39,0xm573,-23r136,0r0,-195xm92,57r792,-872r24,17r-789,871"},"\u00bf":{"d":"649,-83v0,-35,-36,-36,-36,-73v0,-40,48,-65,75,-30v46,59,-1,152,-42,183v-37,28,-86,51,-147,51v-140,3,-240,-97,-197,-236v41,-134,180,-210,179,-383r31,0v10,90,-46,197,-96,273v-27,42,-53,91,-52,157v2,98,46,164,138,164v77,0,147,-35,147,-106xm501,-794v35,0,61,27,61,61v0,32,-28,60,-61,60v-34,0,-63,-27,-63,-60v0,-34,28,-61,63,-61"},"\u00d7":{"d":"481,-332r-244,244r-36,-35r246,-244r-248,-246r35,-36r249,247r246,-246r34,35r-246,245r246,245r-35,36"},"\u00f7":{"d":"422,-640v0,-33,35,-65,67,-65v35,0,69,32,67,67v-2,38,-29,63,-67,66v-34,2,-67,-34,-67,-68xm181,-406r613,0r0,51r-613,0r0,-51xm422,-124v-2,-33,35,-63,67,-63v35,0,69,30,67,65v-2,38,-29,67,-67,67v-40,0,-64,-30,-67,-69"},"\u02c7":{"d":"498,-764v-7,3,-14,4,-20,0r-200,-149v-11,-9,-15,-17,-10,-21v5,-4,15,-2,30,5r190,96r192,-97v25,-15,42,-2,18,16"},"\u02d0":{"d":"391,-620r190,0r-92,163xm489,-303r92,163r-190,0"},"\u02d8":{"d":"708,-922v-49,75,-99,119,-205,124v-114,6,-176,-43,-225,-120r34,-21v43,64,90,102,187,99v87,-3,129,-35,170,-95"},"\u02d9":{"d":"422,-856v0,-32,32,-63,64,-63v34,0,67,32,65,65v-2,38,-28,62,-67,64v-33,2,-62,-33,-62,-66"},"\u02da":{"d":"385,-881v0,-59,44,-97,103,-97v60,0,102,37,102,97v0,60,-42,98,-102,98v-60,0,-103,-38,-103,-98xm418,-881v-2,35,34,67,70,67v36,0,69,-32,69,-67v0,-34,-34,-68,-69,-66v-40,2,-68,26,-70,66"},"\u02db":{"d":"498,136v31,0,42,-29,62,-40v4,0,6,3,6,10v-3,48,-30,86,-77,89v-45,3,-82,-44,-80,-91v2,-51,32,-96,71,-117v3,0,4,2,4,5v-8,36,-29,50,-29,94v0,28,16,50,43,50"},"\u02dd":{"d":"311,-803v52,-55,108,-108,168,-155v14,-7,41,-7,48,5v29,56,-34,74,-71,94v-43,23,-89,42,-138,58v-5,1,-7,0,-7,-2xm492,-803v52,-55,104,-114,168,-156v37,-24,75,25,47,57v-53,39,-139,78,-208,101v-5,1,-7,0,-7,-2"},"\u0391":{"d":"401,-294r270,-1r-38,-363xm616,-38v56,-2,81,-4,75,-55r-16,-164r-295,0r-101,159v-32,54,-25,58,43,60r-9,28r-187,0r8,-28v75,5,88,-31,117,-78r406,-649r30,0r71,668v8,45,29,59,89,59r-5,28r-234,0"},"\u0392":{"d":"646,-397v86,17,159,74,132,184v-37,150,-179,203,-378,203r-270,0r9,-28v65,2,95,-5,109,-58r154,-600v-2,-34,-44,-25,-85,-28r9,-31r312,0v123,-4,225,44,199,175v-20,100,-99,152,-191,183xm383,-376r-79,312v-2,44,70,24,118,26v154,7,250,-50,285,-167v55,-189,-142,-172,-324,-171xm391,-409v110,0,211,1,276,-42v56,-37,124,-99,103,-193v-21,-94,-143,-78,-266,-78v-33,0,-37,23,-45,52"},"\u0393":{"d":"816,-510r-31,3v13,-93,29,-194,-66,-207v-63,-9,-155,-12,-236,-8v-32,2,-35,23,-43,52r-156,594v-5,44,38,35,84,38r-7,28r-254,0r11,-28v77,4,99,-17,115,-80r142,-550v17,-56,-26,-63,-82,-61r10,-26r563,0"},"\u0394":{"d":"209,-10v-64,-3,-46,-34,-12,-75r556,-675v7,-11,31,-19,47,-12v4,2,6,6,5,11r-73,674v-6,47,-14,77,-65,77r-458,0xm264,-97v-16,19,-43,54,-2,54r356,1v29,-3,38,-19,41,-48r63,-564"},"\u0395":{"d":"374,-668v18,-58,-24,-64,-80,-62r8,-25r563,0r-50,245r-28,0v18,-119,24,-203,-97,-208v-46,-2,-170,-16,-226,2v-16,10,-22,24,-28,46r-68,263v104,-2,182,5,220,-55v9,-16,18,-38,27,-65r29,0r-69,283r-28,1v15,-82,9,-128,-75,-129v-27,0,-65,-2,-113,-2r-79,309v-2,32,28,27,63,27v137,0,259,11,319,-67v32,-41,48,-89,73,-148r31,-1r-83,245r-575,-1r9,-28v63,1,93,-4,107,-57"},"\u0396":{"d":"122,-34r643,-690v-139,10,-319,-32,-383,64v-29,43,-48,91,-72,150r-25,1r76,-246r488,0r1,25r-645,692v132,-8,302,26,393,-28v61,-36,75,-111,106,-188r27,0r-73,245r-536,-1r0,-24"},"\u0397":{"d":"225,-119v-8,36,-22,74,21,78v12,2,31,3,54,3r-7,28r-254,0r8,-28v55,0,90,-1,104,-39v4,-11,9,-25,14,-42r145,-567v4,-45,-37,-39,-85,-41r8,-28r254,0r-8,28v-55,0,-93,1,-104,41r-73,274r387,0r69,-274v6,-46,-37,-39,-85,-41r9,-28r252,0r-8,28v-54,0,-92,2,-102,41r-160,610v-4,44,37,35,84,38r-8,28r-253,0r10,-28v54,0,93,1,103,-38r80,-300r-387,0"},"\u0398":{"d":"312,-655v83,-78,262,-162,407,-85v106,56,154,203,112,359v-44,165,-156,292,-301,356v-86,39,-196,43,-275,0v-105,-57,-157,-199,-115,-356v29,-109,98,-205,172,-274xm288,-54v63,37,162,34,230,0v153,-79,260,-244,260,-465v0,-128,-68,-213,-199,-213v-157,0,-245,107,-310,214v-74,122,-119,383,19,464xm369,-481v39,4,-21,71,42,71r181,0v54,3,36,-62,77,-72v13,5,9,27,3,44v-16,48,-24,105,-50,144v-15,13,-25,-5,-22,-24v4,-23,1,-44,-26,-44r-180,0v-51,-3,-39,63,-78,71v-19,-2,-4,-27,-4,-41r43,-136v4,-8,9,-13,14,-13"},"\u0399":{"d":"270,-38v54,0,90,-2,104,-39v4,-11,8,-25,13,-42r145,-566v4,-44,-38,-37,-85,-39r10,-31r256,0r-9,31v-77,-4,-102,21,-118,81r-148,567v-4,44,39,36,86,38r-7,28r-258,0"},"\u039a":{"d":"717,-671v15,-18,35,-26,25,-47v-19,-12,-55,-10,-95,-11r8,-26r268,0r-9,26v-67,-2,-95,15,-130,45r-291,250r180,352v16,36,47,46,102,44r-11,28r-276,0r7,-28v41,0,72,1,95,-10v16,-8,10,-22,2,-37r-154,-305r-167,145r-34,126v-8,36,-22,74,21,78v13,2,31,3,55,3r-8,28r-255,0r10,-28v54,0,94,0,104,-38r149,-567v10,-40,13,-78,-27,-83v-12,-2,-28,-3,-49,-3r9,-26r254,0r-8,26v-56,0,-95,4,-106,44r-101,382"},"\u039b":{"d":"622,-38v51,0,81,4,75,-55r-59,-565r-354,560v-13,22,-38,53,1,58v10,1,24,2,43,2r-9,28r-188,0r8,-28v74,5,86,-32,115,-78r407,-646r31,0r73,680v1,43,30,45,77,44r-7,28r-219,0"},"\u039c":{"d":"797,-755r181,0r-5,28v-65,-1,-96,5,-110,58r-143,550v-13,43,-9,76,34,79v13,2,31,3,52,3r-8,28r-265,0r10,-28v74,4,100,-23,115,-81r150,-571r-411,679r-30,0r-66,-695r-155,589v-9,37,-17,73,22,77v11,1,26,2,45,2r-8,28r-210,0r8,-28v68,5,87,-23,101,-77r147,-576v7,-41,-29,-35,-72,-36r8,-29r182,0r58,626"},"\u039d":{"d":"645,-134r143,-554v5,-41,-31,-37,-73,-38r8,-29r209,0r-8,29v-49,0,-81,0,-90,36r-180,682r-32,1r-280,-677r-156,610v-5,41,30,35,73,37r-11,28r-208,0r7,-28v48,0,82,-1,91,-36r162,-617v6,-41,-32,-34,-74,-36r7,-29r158,0"},"\u039e":{"d":"618,-403v52,1,39,-62,77,-74v9,0,12,15,3,43r-42,133v-4,8,-8,16,-18,16v-33,0,9,-71,-36,-71r-220,0v-50,-3,-39,60,-76,70v-20,-1,-6,-27,-5,-40v14,-45,24,-100,43,-138v8,-16,25,-13,26,3v-3,26,-10,58,26,58r222,0xm783,-519v13,-80,20,-175,-62,-183v-78,-7,-180,-2,-271,-2v-101,0,-131,100,-164,185r-31,0r72,-218v3,-14,11,-18,26,-18r491,0v11,0,20,3,17,17r-46,218xm190,-246v-10,80,-15,129,17,167v20,25,69,22,114,22r265,-1v99,-13,130,-102,163,-186r29,0r-69,218v-5,11,-14,16,-27,16r-556,0v-13,0,-18,-5,-15,-16r48,-217"},"\u039f":{"d":"312,-655v84,-77,263,-162,408,-85v105,57,154,203,111,359v-45,164,-155,292,-301,356v-87,39,-196,43,-275,0v-105,-57,-155,-199,-114,-356v29,-109,97,-205,171,-274xm288,-54v63,37,160,34,229,0v154,-78,261,-245,261,-465v0,-128,-69,-213,-199,-213v-157,0,-245,106,-309,214v-73,122,-119,382,18,464"},"\u03a0":{"d":"326,-10r-255,0r9,-28v54,0,91,-1,105,-39v4,-11,9,-25,14,-42r143,-567v4,-45,-36,-40,-84,-42r9,-27r634,0r-10,27v-56,0,-93,2,-103,42r-147,567v-8,36,-22,74,21,78v12,2,31,3,54,3r-9,28r-255,0r9,-28v55,0,90,-2,105,-39v4,-11,10,-24,14,-42r132,-523v6,-31,18,-53,-4,-69v-56,-19,-205,-20,-270,-2v-26,14,-33,35,-42,70r-146,566v-5,44,38,36,85,39"},"\u03a1":{"d":"762,-678v-44,-59,-169,-44,-268,-44v-33,0,-37,23,-45,52r-74,293v150,3,296,3,361,-89v31,-44,67,-157,26,-212xm372,-10r-252,0r8,-28v55,-1,94,0,104,-39r155,-591v9,-32,7,-55,-28,-58v-13,-1,-30,-3,-53,-3r10,-26v170,11,386,-32,492,49v60,46,49,173,1,232v-56,70,-136,130,-262,130r-183,0r-68,268v-4,44,37,36,84,38"},"\u03a3":{"d":"752,-250r-70,224v-6,12,-10,16,-25,16r-530,-1v-12,-2,-12,-10,-4,-19r324,-349r-137,-334v-11,-35,-11,-42,24,-42r506,0v13,0,18,2,15,17r-48,223r-29,-1v10,-103,17,-191,-87,-200v-77,-6,-184,-8,-279,-6v-36,0,-26,27,-15,52r113,262v4,20,-6,22,-17,35r-288,299v-22,25,-13,36,25,36v67,0,124,-1,170,-2v146,-1,244,-19,284,-122v10,-24,24,-53,38,-88r30,0"},"\u03a4":{"d":"459,-10r-252,0r8,-28v55,-1,93,0,103,-39r160,-606v6,-23,7,-42,-18,-43v-67,-2,-139,-6,-175,28v-49,45,-71,105,-104,188r-29,1r76,-246r593,0r-49,245r-29,0v10,-81,25,-138,-4,-188v-22,-39,-98,-28,-161,-28v-28,0,-33,18,-39,42r-155,607v-5,44,36,37,83,39"},"\u03a5":{"d":"454,-541v67,-100,139,-203,288,-215v66,-5,78,81,38,118v-25,35,-100,25,-90,-27v3,-17,13,-33,28,-48v-114,22,-192,116,-244,205v-67,113,-77,256,-119,389v-12,37,-18,76,23,79v12,2,28,2,47,2r-7,28r-249,0r9,-28v75,5,99,-23,114,-81r74,-283v26,-101,61,-243,-22,-299v-23,-15,-55,-22,-97,-22r10,-22v136,-7,203,69,197,204"},"\u03a6":{"d":"454,-118v162,-23,264,-119,304,-263v40,-145,-35,-250,-170,-261xm520,-641v-163,21,-266,118,-306,260v-41,147,36,251,173,263xm272,-38v62,2,96,-7,107,-54v-155,-16,-283,-112,-236,-289v43,-164,191,-268,384,-290v21,-51,-24,-55,-76,-53r8,-31r253,0r-8,31v-60,-1,-98,4,-107,52v153,17,278,115,234,291v-41,166,-193,264,-384,288v-11,30,-6,51,28,53v12,1,28,2,49,2r-8,28r-252,0"},"\u03a7":{"d":"640,-115v17,55,36,83,113,77r-8,28r-271,0r9,-28v48,-4,98,11,97,-34v-28,-93,-68,-185,-100,-275r-203,231v-19,27,-42,39,-41,66v16,14,48,11,87,12r-10,28r-242,0r8,-29v85,3,108,-29,149,-76r237,-270r-106,-287v-14,-43,-39,-56,-101,-52r9,-31r261,0r-8,31v-39,1,-65,-2,-86,8v-14,11,-5,27,1,44r84,228r200,-229v15,-19,39,-48,-3,-51v-12,-1,-29,-2,-50,-2r8,-29r227,0r-8,29v-69,-4,-94,13,-126,50r-235,268"},"\u03a8":{"d":"618,-724v-53,0,-88,1,-101,38v-47,132,-74,285,-113,425v103,-14,184,-46,210,-143r50,-188v25,-86,66,-179,186,-156v33,6,46,47,21,68v-43,35,-68,-5,-79,-40v-59,-9,-62,97,-75,153v-27,116,-47,237,-139,286v-50,27,-114,43,-182,48r-38,156v-4,44,37,37,84,39r-10,28r-252,0r9,-28v54,-1,93,2,103,-38r39,-156v-95,-15,-192,-42,-192,-150v0,-115,56,-197,78,-299v8,-37,-17,-54,-40,-30v-17,18,-26,51,-63,45v-28,-5,-36,-47,-10,-61v23,-33,131,-40,150,4v55,129,-70,241,-56,380v18,55,79,73,141,84r101,-383v8,-36,23,-75,-20,-80v-12,-2,-31,-2,-55,-2r9,-31r253,0"},"\u03a9":{"d":"376,-146v-140,-26,-239,-140,-196,-310v36,-141,146,-241,280,-290v84,-32,192,-35,270,0v97,44,166,146,128,288v-44,167,-179,270,-352,311r-27,91v60,-4,128,5,168,-20v45,-28,66,-70,90,-131r24,1r-58,180v-4,13,-9,16,-25,16r-248,0r43,-164v172,-20,273,-135,314,-283v43,-157,-35,-283,-194,-283v-189,0,-299,130,-342,283v-43,151,29,271,170,283r-43,164r-254,0v-10,0,-21,-3,-18,-15r36,-184r24,0v-9,87,1,142,72,151v28,4,78,2,114,1"},"\u03b1":{"d":"619,-333r79,-144v12,-26,54,-11,44,21v-38,111,-128,179,-156,301v-16,69,20,106,85,108v11,0,17,10,9,20v-37,46,-133,9,-146,-33v-3,-11,-8,-22,-10,-31v-40,55,-141,127,-229,75v-96,-56,-67,-233,-14,-317v46,-73,102,-153,201,-165v92,-11,152,61,137,165xm302,-212v-29,91,1,203,96,168v114,-42,172,-165,185,-309v6,-69,-34,-134,-105,-103v-91,40,-143,140,-176,244"},"\u03b2":{"d":"510,-739v136,-61,273,67,231,229v-16,63,-70,98,-128,117v52,50,84,154,52,251v-29,90,-112,171,-231,134v-51,-16,-84,-57,-106,-100r-53,226v-4,21,-38,34,-48,9v-10,-28,5,-59,11,-84r52,-231v14,-58,28,-125,51,-196v39,-122,56,-305,169,-355xm437,-54v171,55,231,-216,143,-328v-50,3,-116,-5,-122,-45v28,-50,96,16,142,-4v68,-30,111,-152,70,-234v-24,-48,-107,-79,-156,-33v-87,81,-108,239,-142,370v-15,57,-31,117,-31,180v11,46,52,80,96,94"},"\u03b3":{"d":"435,-111v19,-32,18,-63,18,-105v0,-101,-11,-208,-89,-233v-62,-20,-81,39,-108,75v-14,18,-25,20,-28,0v5,-55,36,-86,74,-110v46,-29,112,-14,140,24v43,58,54,161,53,259v29,-38,56,-84,84,-124v38,-54,64,-128,119,-163v23,-16,56,11,43,36v-60,109,-172,183,-225,300r-60,128v-26,53,-30,132,-84,154v-41,16,-46,-44,-28,-79v28,-54,59,-109,91,-162"},"\u03b4":{"d":"457,-736v121,-55,215,62,264,147v13,22,26,51,6,70v-53,27,-66,-43,-90,-78v-34,-49,-68,-129,-151,-107v-55,15,-26,94,0,134v64,97,192,144,186,310v-5,137,-73,239,-189,260v-174,32,-286,-121,-240,-302v28,-111,108,-194,250,-191v-42,-46,-107,-121,-73,-203v7,-17,19,-32,37,-40xm315,-284v-40,132,17,289,152,248v91,-28,125,-139,137,-250v12,-107,-46,-190,-157,-164v-73,17,-109,91,-132,166"},"\u03b5":{"d":"272,-136v0,-78,63,-112,132,-127v-58,-18,-115,-47,-115,-119v0,-131,199,-145,319,-105v37,13,67,38,76,79v8,32,-45,54,-65,31v-14,-16,-6,-51,-20,-66v-61,-65,-248,-49,-242,63v4,77,77,103,161,99v20,-1,55,-6,55,17v-7,19,-53,12,-79,13v-87,4,-154,31,-154,112v0,82,71,124,166,121v63,-2,114,-25,112,-93v-1,-41,56,-72,78,-33v13,104,-88,149,-199,149v-117,0,-225,-29,-225,-141"},"\u03b6":{"d":"416,-740v18,-21,76,-20,56,16v-30,30,-90,63,-94,106v-4,36,34,75,78,49v53,-32,132,-107,219,-113v51,-3,28,50,2,70v-60,46,-132,88,-225,100r-38,52v-42,62,-90,139,-102,228v-12,86,46,123,122,134v73,10,147,23,155,98v10,95,-80,141,-172,141v-43,0,-98,-3,-108,-38v23,-79,204,43,230,-64v16,-65,-100,-54,-155,-69v-73,-20,-119,-69,-119,-156v0,-140,90,-249,151,-331v-58,-15,-104,-94,-60,-160v17,-26,35,-47,60,-63"},"\u03b7":{"d":"420,-411v37,-61,135,-117,229,-70v105,52,45,221,14,305r-93,248v-15,27,-28,70,-72,57v-48,-29,8,-88,22,-119v44,-98,101,-215,126,-334v11,-55,5,-126,-38,-136v-217,-52,-209,260,-288,410v-11,22,-49,36,-57,4v14,-128,107,-199,97,-352v-4,-53,-43,-58,-89,-65v-9,-1,-14,-7,-7,-17v24,-37,104,-14,124,10v13,15,25,39,32,59"},"\u03b8":{"d":"490,-748v216,-74,266,223,211,430v-36,135,-100,272,-219,310v-276,89,-264,-377,-156,-567v42,-74,89,-147,164,-173xm639,-404v23,-116,34,-288,-60,-317v-60,-19,-99,26,-130,68v-48,64,-85,151,-105,249r295,0xm336,-373v-21,99,-33,229,10,305v21,37,68,53,112,26v99,-60,137,-202,175,-331r-297,0"},"\u03b9":{"d":"481,-53v51,7,65,-30,105,-35v22,23,-19,51,-34,64v-32,28,-107,33,-141,2v-63,-59,-14,-173,7,-243r50,-167v9,-37,25,-77,65,-64v39,13,12,77,1,106r-84,201v-20,45,-39,127,31,136"},"\u03ba":{"d":"516,0v-113,-24,-7,-226,-100,-241r-56,0r-41,155v-7,37,-7,98,-60,80v-26,-9,-14,-39,-6,-65r74,-228r41,-167v3,-35,66,-47,70,-6v-11,65,-42,121,-57,183v40,0,78,3,98,-19v50,-54,68,-145,135,-182v48,-27,114,2,114,58v0,31,-44,45,-68,30v-18,-21,-51,-32,-74,-4v-32,39,-42,104,-91,126v-15,7,-26,12,-33,15v26,18,54,45,56,87v3,57,-9,115,38,123v51,8,67,-43,90,-73v12,-15,30,-9,26,11v-15,70,-65,136,-156,117"},"\u03bb":{"d":"564,-690v83,96,14,278,46,428v18,87,67,147,88,226v5,22,-26,43,-40,36v-41,-20,-54,-84,-69,-131v-26,-80,-25,-192,-24,-295v-76,100,-167,237,-205,377v-14,27,-28,59,-67,53v-28,-10,-20,-45,-8,-72v72,-157,183,-279,276,-416v13,-43,7,-119,-21,-146v-34,-33,-92,-34,-109,-81v-6,-52,59,-46,91,-19v14,12,29,24,42,40"},"\u03bc":{"d":"546,-29v-56,45,-180,34,-204,-30v-10,37,-30,84,-36,138v-4,43,-19,72,-54,71v-44,-28,-2,-113,18,-143v87,-135,67,-381,178,-495v23,-23,54,2,45,35v-35,126,-119,214,-137,354v13,69,134,84,182,29v82,-93,72,-276,136,-389v12,-20,52,-47,62,-9v-2,146,-100,228,-116,360v-7,59,64,70,99,32v7,-9,12,-11,15,-8v16,63,-90,114,-129,56v-9,-14,-16,-28,-19,-45"},"\u03bd":{"d":"352,-63v165,-63,290,-198,305,-409v1,-17,10,-24,17,-23v24,20,13,81,5,125v-38,196,-170,325,-348,376v-32,9,-56,3,-45,-24v44,-109,115,-253,69,-405v-11,-36,4,-97,43,-70v87,120,-5,322,-46,430"},"\u03be":{"d":"497,-631v69,-1,159,-16,201,20v24,43,-31,54,-77,45v-95,-19,-255,-35,-246,82v9,116,204,21,289,86v18,13,10,47,-14,50v-78,11,-149,-39,-223,-9v-66,26,-121,86,-110,178v16,128,239,43,258,183v10,75,-56,110,-120,126v-39,10,-75,-31,-29,-43v39,-10,94,-9,94,-55v0,-60,-94,-43,-141,-62v-67,-27,-111,-71,-111,-158v0,-104,67,-164,133,-202v-34,-24,-69,-65,-54,-129v11,-46,43,-67,81,-85v-12,-94,48,-150,142,-150v23,0,53,27,30,41v-36,23,-110,6,-135,41v-10,23,-4,42,32,41"},"\u03bf":{"d":"374,-460v71,-52,202,-43,260,12v59,56,101,153,72,262v-32,119,-129,216,-284,182v-120,-26,-193,-152,-156,-301v17,-68,59,-119,108,-155xm416,-426v-123,93,-135,449,82,392v98,-26,141,-138,148,-256v6,-108,-55,-188,-170,-168v-22,4,-41,18,-60,32"},"\u03c0":{"d":"539,-416v-20,-14,-95,-11,-121,-2v-31,117,-45,247,-90,352v-14,31,-38,76,-82,57v-32,-54,27,-104,52,-147v39,-69,74,-160,80,-262v-34,-9,-88,-2,-104,19v-12,10,-17,31,-37,21v-17,-17,4,-47,18,-60v63,-89,264,-22,402,-52v37,-8,88,-28,84,27v-5,72,-82,31,-148,43v-20,3,-16,17,-20,40r-21,122v-2,62,-33,169,16,196v21,12,48,-10,65,1v10,51,-69,79,-111,49v-65,-47,-17,-179,-5,-260"},"\u03c1":{"d":"320,-166v-20,86,-19,202,-21,305v-6,22,-11,49,-38,46v-27,-3,-30,-36,-27,-68v14,-156,42,-323,85,-453v33,-99,124,-187,262,-157v116,25,186,151,150,297v-29,117,-120,216,-274,184v-74,-15,-118,-78,-137,-154xm410,-370v-72,115,-54,358,110,326v99,-19,148,-128,152,-248v3,-103,-52,-184,-160,-164v-46,9,-78,47,-102,86"},"\u03c3":{"d":"393,7v-156,8,-178,-212,-103,-324v68,-102,155,-164,314,-183r99,-25v18,1,23,12,23,35v0,32,-6,51,-33,52v-47,-13,-112,-32,-176,-17v-14,3,-21,12,-21,23v129,1,178,151,125,269v-39,89,-110,164,-228,170xm337,-262v-29,77,-50,240,49,249v134,-15,180,-138,190,-279v5,-83,-57,-144,-135,-108v-54,25,-82,80,-104,138"},"\u03c4":{"d":"520,-54v15,-1,44,-18,46,5v-20,66,-175,79,-202,15v-30,-70,18,-136,33,-198v14,-57,49,-129,54,-186v-49,-17,-151,-8,-169,33v-8,9,-12,13,-25,5v-16,-18,3,-46,18,-60v60,-83,243,-19,371,-50v35,-8,75,-25,75,29v0,43,-26,42,-66,41r-128,-2v-28,-3,-25,12,-30,28v-28,89,-68,179,-83,278v-11,68,50,79,106,62"},"\u03c5":{"d":"639,-364v8,-47,-16,-110,27,-115v71,26,46,144,18,207v-42,93,-97,192,-179,245v-50,32,-119,42,-178,12v-79,-40,-79,-164,-43,-251v25,-61,16,-154,42,-216v18,-42,73,-14,69,32v-12,132,-105,199,-91,348v5,41,44,83,94,74v155,-27,215,-176,241,-336"},"\u03c6":{"d":"450,-7v-13,49,-22,120,-43,157v-13,23,-53,1,-51,-16v10,-52,29,-102,40,-154v-90,-42,-167,-155,-130,-291v29,-108,106,-186,241,-184v17,0,26,15,11,22v-101,13,-156,82,-179,177v-28,115,-6,201,68,242v31,-113,44,-239,89,-340v19,-44,66,-96,121,-60v69,45,120,146,90,260v-30,113,-113,194,-257,187xm456,-38v109,-2,153,-82,179,-170v28,-96,7,-166,-37,-227v-41,-20,-56,18,-69,49v-44,103,-48,230,-73,348"},"\u03c7":{"d":"588,-404v32,-30,43,-85,92,-92v14,-2,42,20,34,40v-18,47,-66,65,-96,100v-36,42,-84,80,-116,124v14,51,27,109,46,152v15,34,57,39,79,14v11,-7,18,-33,35,-25v13,35,-21,67,-42,87v-101,58,-139,-83,-154,-180r-122,148v-18,19,-49,56,-78,32v-27,-46,40,-65,60,-97r88,-88r40,-43v-13,-56,-14,-130,-32,-180v-7,-21,-27,-42,-54,-29v-18,9,-28,22,-43,33v-14,7,-19,-9,-13,-24v14,-42,73,-94,124,-58v54,38,45,134,60,210"},"\u03c8":{"d":"661,-378v0,-51,-35,-125,32,-122v32,1,37,14,37,50v0,141,-57,254,-134,323v-39,35,-101,54,-170,59v-14,59,-20,142,-42,190v-15,17,-79,14,-79,-12v20,-59,60,-120,80,-181v-86,-29,-142,-71,-142,-168v0,-104,59,-192,123,-238v17,-11,31,-17,40,-18v7,9,-7,15,-18,28v-48,54,-83,131,-83,229v0,76,30,115,95,129v27,-78,53,-152,73,-224r87,-314v9,-35,10,-77,26,-105v21,-14,77,1,64,35r-81,203r-135,412v153,-17,227,-105,227,-276"},"\u03c9":{"d":"453,-81v-30,40,-107,102,-167,54v-79,-64,-63,-259,-14,-345v29,-51,76,-113,140,-123v24,-4,37,20,10,36v-91,56,-145,188,-126,341v5,41,25,85,70,72v131,-36,52,-276,156,-360v42,-22,50,32,42,76v-18,92,-80,148,-72,259v2,32,42,53,72,39v118,-57,131,-283,91,-429v-4,-17,7,-38,23,-30v62,54,78,195,53,300v-25,101,-75,198,-178,198v-56,0,-85,-44,-100,-88"},"\u2015":{"d":"803,-356r-630,0r0,-47r630,0r0,47"},"\u2018":{"d":"228,-842v-44,20,-76,51,-77,105v-1,30,29,0,50,9v21,9,38,27,39,55v1,33,-29,58,-62,58v-86,0,-81,-130,-44,-185v18,-26,44,-48,80,-61","w":296},"\u2019":{"d":"63,-623v45,-19,78,-50,78,-104v0,-30,-30,0,-50,-10v-21,-10,-38,-27,-39,-55v-1,-32,29,-57,62,-57v86,0,81,130,44,185v-18,27,-44,48,-80,61","w":296},"\u201c":{"d":"228,-842v-44,20,-76,51,-77,105v-1,30,29,0,50,9v21,9,38,27,39,55v1,33,-29,58,-62,58v-86,0,-81,-130,-44,-185v18,-26,44,-48,80,-61xm388,-842v-44,20,-75,51,-78,105v-1,20,17,12,28,9v31,-9,61,24,61,55v0,33,-28,58,-61,58v-86,0,-82,-130,-44,-185v18,-26,44,-48,80,-61","w":451},"\u201d":{"d":"229,-625v45,-19,78,-50,78,-104v0,-30,-30,0,-50,-10v-21,-10,-38,-27,-39,-55v-1,-32,29,-57,62,-57v86,0,81,130,44,185v-18,27,-44,48,-80,61xm70,-625v44,-19,77,-50,77,-104v0,-30,-30,0,-50,-10v-21,-10,-38,-27,-39,-55v-1,-32,29,-57,62,-57v86,0,81,130,44,185v-18,27,-44,48,-80,61","w":451},"\u2020":{"d":"517,-515r0,604r-60,0r0,-604r-239,0r0,-54r239,0r0,-259r60,0r0,259r238,0r0,54r-238,0"},"\u2021":{"d":"515,-636r0,123r222,0r0,53r-221,0r0,549r-60,0r0,-549r-219,0r0,-53r219,0r0,-123r-240,0r0,-53r239,0r0,-139r60,0r0,139r242,0r0,53r-242,0"},"\u2025":{"d":"658,-389v0,-34,34,-65,67,-65v35,0,70,32,68,67v-2,39,-30,64,-69,66v-34,2,-66,-34,-66,-68xm183,-389v0,-34,34,-65,67,-65v35,0,69,32,67,67v-2,39,-29,64,-67,66v-35,2,-67,-34,-67,-68"},"\u2026":{"d":"753,-389v0,-33,34,-65,66,-65v35,0,67,32,67,67v0,33,-35,66,-68,66v-36,0,-65,-34,-65,-68xm422,-389v0,-34,33,-65,66,-65v34,0,68,33,66,67v-2,39,-29,64,-67,66v-33,2,-65,-35,-65,-68xm87,-389v0,-33,35,-65,67,-65v35,0,68,32,66,67v-2,39,-29,64,-67,66v-34,2,-66,-34,-66,-68"},"\u2030":{"d":"754,-320v72,-52,218,-39,190,76v-25,101,-105,197,-204,228v-75,24,-136,-21,-122,-104v14,-82,76,-156,136,-200xm220,-744v90,-41,215,-4,194,108v-16,83,-94,153,-167,188v-96,46,-202,-12,-171,-127v19,-74,78,-137,144,-169xm49,7r614,-819r54,0r-612,819r-56,0xm432,-318v82,-51,215,-18,186,99v-20,82,-90,158,-158,200v-86,53,-191,-3,-166,-117v17,-78,77,-145,138,-182xm662,-126v-9,58,23,87,80,66v57,-21,144,-112,157,-188v9,-56,-35,-75,-93,-53v-52,19,-135,116,-144,175xm138,-618v-37,60,-20,162,64,141v81,-20,152,-93,170,-171v14,-60,-33,-86,-95,-76v-48,8,-112,63,-139,106xm358,-179v-33,57,-28,156,54,133v61,-17,150,-108,166,-181v19,-86,-84,-92,-136,-49v-29,24,-65,64,-84,97"},"\u2032":{"d":"185,-634v-12,16,-33,6,-25,-14r71,-173v6,-33,75,-45,77,3v1,13,0,26,-8,36"},"\u2033":{"d":"258,-614v-13,16,-35,7,-26,-15r72,-173v7,-18,33,-39,58,-26v21,11,28,44,12,65xm116,-634v-10,15,-32,5,-24,-15r71,-173v6,-33,76,-42,77,4v1,13,-1,25,-9,35"},"\u203b":{"d":"767,-445v39,0,62,28,62,62v0,34,-23,64,-62,64v-37,0,-61,-31,-61,-64v0,-32,24,-62,61,-62xm487,-723v38,0,64,30,64,64v0,33,-26,63,-64,63v-39,0,-65,-30,-65,-63v0,-34,26,-64,65,-64xm488,-353r-345,342r-24,-25r340,-345r-340,-345r26,-24r342,342r343,-342r27,24r-343,345r343,345r-24,25xm487,-170v38,0,64,30,64,64v0,33,-26,63,-64,63v-39,0,-65,-30,-65,-63v0,-34,26,-64,65,-64xm211,-445v37,0,59,29,60,62v0,33,-23,64,-60,64v-38,0,-64,-30,-64,-64v0,-33,26,-62,64,-62"},"\u2074":{"d":"197,-870r0,211r52,0r0,30r-52,0r0,83r-47,0r0,-83r-135,0r0,-24r148,-217r34,0xm60,-659r90,0r0,-133"},"\u207f":{"d":"68,-843v16,1,7,27,9,42v24,-44,111,-68,145,-17v27,42,17,120,20,187v1,13,-8,43,14,39v7,-1,12,-1,15,-1r0,24r-104,0r0,-24v17,0,36,7,33,-19v-7,-63,11,-152,-14,-194v-48,-42,-109,17,-109,74r0,101v1,14,-6,43,15,39v7,0,12,-1,17,-1r0,24r-101,0r0,-24v27,4,30,-7,30,-36r0,-175v0,-15,-9,-11,-25,-12r0,-23"},"\u2081":{"d":"61,-24v35,-3,51,4,51,-31r0,-210v-10,-19,-40,8,-55,10r0,-27r99,-49r0,274v1,36,12,31,50,34r0,23r-145,0r0,-24"},"\u2082":{"d":"165,-25v31,2,36,-13,48,-32r30,0r-26,61r-198,0v-3,-30,21,-34,33,-50v36,-46,79,-83,111,-136v27,-44,14,-107,-44,-105v-39,2,-56,37,-70,70r-30,-5v13,-52,44,-93,109,-95v73,-3,120,75,79,140v-37,58,-81,105,-125,152r83,0"},"\u2083":{"d":"128,-319v43,-1,84,26,83,68v0,25,-18,51,-53,76v38,9,68,36,69,78v4,92,-113,130,-191,91v-19,-9,-6,-36,14,-36v33,0,41,25,71,22v28,-3,59,-28,59,-62v0,-60,-33,-75,-102,-65r1,-23v43,-8,80,-33,82,-76v1,-26,-15,-42,-41,-42v-34,1,-50,25,-63,50r-31,-1v13,-44,49,-80,102,-80"},"\u2084":{"d":"197,-315r0,211r52,0r0,30r-52,0r0,83r-47,0r0,-83r-135,0r0,-24r148,-217r34,0xm60,-104r90,0r0,-133"},"\u20ac":{"d":"224,-466v32,-226,275,-374,530,-274v41,16,49,-1,57,-32r27,0r10,230r-24,0v-27,-117,-93,-202,-234,-202v-180,0,-265,123,-297,278r331,0r0,34r-335,0v-8,52,-4,115,8,161r307,0r0,33r-299,0v38,121,135,206,286,206v105,0,186,-44,241,-112r21,18v-61,73,-146,132,-275,132v-188,0,-290,-103,-340,-244r-118,0r0,-33r109,0v-12,-48,-17,-108,-9,-161r-81,0r0,-34r85,0"},"\u2103":{"d":"833,-126v-46,68,-129,132,-236,132v-215,0,-311,-168,-311,-387v0,-170,72,-294,182,-359v75,-45,211,-39,281,0v32,18,33,-6,39,-32r30,0r10,230r-27,0v-24,-108,-70,-202,-197,-202v-184,0,-252,175,-252,366v0,192,70,346,253,346v93,0,157,-46,205,-112xm82,-757v0,-69,47,-113,116,-113v68,0,114,44,114,113v0,69,-46,115,-114,115v-70,0,-116,-45,-116,-115xm125,-758v0,39,33,73,73,73v40,0,71,-34,71,-73v0,-39,-31,-71,-71,-71v-40,0,-73,32,-73,71"},"\u2109":{"d":"520,-137v-4,82,41,101,117,104r0,23r-299,0r0,-22v74,-7,118,-19,118,-105r0,-473v3,-80,-44,-101,-118,-104r0,-21r578,0r7,143r-26,0v-8,-97,-67,-116,-176,-116r-159,0v-34,0,-41,11,-42,43r0,269r168,0v91,5,122,-30,133,-105r24,0r0,239r-24,0v-13,-73,-42,-104,-133,-104r-168,0r0,229xm63,-757v0,-69,47,-113,116,-113v68,0,115,44,115,113v0,69,-46,115,-115,115v-69,0,-116,-45,-116,-115xm106,-758v0,39,33,73,73,73v40,0,72,-34,72,-73v0,-39,-32,-71,-72,-71v-40,0,-73,32,-73,71"},"\u2113":{"d":"541,18v-64,-3,-84,-49,-109,-100v-18,16,-59,44,-83,51v-19,5,-33,-12,-13,-24v32,-19,57,-41,83,-64v-58,-210,-28,-527,95,-639v14,-13,31,-19,48,-19v120,0,98,238,70,345v-30,115,-83,215,-148,298v13,40,38,118,83,88v23,-15,36,-51,49,-79v5,-12,23,-10,19,9v-10,61,-38,120,-94,134xm607,-596v0,-51,3,-124,-39,-135v-44,11,-60,75,-73,116v-39,127,-55,283,-27,430v75,-98,139,-240,139,-411"},"\u2116":{"d":"550,-732v-61,-5,-65,28,-65,87r0,635r-29,1r-333,-660r1,591v1,35,20,42,58,41r0,28r-163,0r0,-28v60,6,64,-25,64,-83r0,-525v3,-57,-6,-87,-64,-83r0,-28v40,2,88,-4,123,3v3,2,6,7,9,14r292,584r0,-490v2,-58,-10,-90,-68,-87r0,-24r175,0r0,24xm858,-49v0,-30,28,-57,56,-57v31,0,57,26,57,59v0,32,-28,61,-58,61v-29,0,-55,-33,-55,-63xm884,-247v0,136,-53,255,-181,255v-250,0,-232,-519,0,-512v128,4,181,121,181,257xm579,-247v0,109,21,220,124,220v102,0,123,-112,123,-220v0,-108,-21,-219,-123,-219v-102,0,-124,111,-124,219"},"\u2121":{"d":"714,-309v5,-103,-82,-196,-175,-137v-48,31,-69,99,-72,174r217,0v30,-1,29,-5,30,-37xm615,-34v71,0,102,-55,125,-107r27,11v-28,84,-68,136,-171,138v-234,2,-232,-397,-78,-488v45,-27,113,-31,156,-1v63,44,99,135,96,236v-2,6,-6,9,-13,9r-291,0v1,121,35,202,149,202xm895,-119v-1,55,2,88,58,83r0,26r-177,0r0,-26v56,4,63,-25,63,-80r0,-561v-1,-46,-24,-44,-72,-46r0,-22r116,-22v8,0,12,6,12,17r0,631xm392,-718v-39,3,-124,-22,-110,37r0,556v-2,62,8,93,73,87r0,28r-202,0r0,-28v63,5,73,-26,73,-87r0,-556v13,-59,-73,-35,-112,-37v-72,12,-71,78,-83,160r-24,0r9,-198r476,0r8,200r-25,0v-14,-83,-10,-149,-83,-162"},"\u2122":{"d":"570,-475v32,1,46,0,46,-35r0,-218r-96,270r-18,0r-98,-273r0,223v1,33,0,32,35,33r0,20r-97,0r0,-20v28,1,37,-4,37,-33r0,-205v-1,-34,-2,-31,-37,-33r0,-20v28,1,62,-4,86,2r90,244r82,-235v0,-7,3,-11,9,-11r81,0r0,20v-33,2,-42,-4,-42,23r0,213v-4,33,11,36,42,35r0,20r-120,0r0,-20xm217,-510v-4,32,10,36,41,35r0,20r-116,0r0,-20v31,1,42,-2,42,-35r0,-220v-1,-20,-5,-17,-28,-18v-69,-6,-60,45,-71,102r-18,-1r6,-108v1,-7,5,-11,13,-11r230,0v8,0,12,4,13,11r6,108r-20,1v-8,-60,0,-108,-70,-102v-23,1,-27,-2,-28,18r0,220"},"\u2126":{"d":"615,-9v-47,0,-117,18,-110,-41v5,-41,-11,-91,10,-118v70,-89,129,-216,97,-375v-17,-83,-41,-164,-126,-174v-123,19,-141,181,-131,321v7,94,55,166,102,228v20,28,5,76,10,118v7,58,-62,38,-109,41v-48,-7,-38,-64,-51,-112v-4,-16,6,-42,17,-24v14,24,20,59,43,73v30,-2,72,11,69,-26v-3,-29,8,-53,-12,-70v-22,-20,-61,-44,-84,-72v-80,-98,-74,-326,1,-427v46,-62,134,-114,223,-65v151,83,178,440,21,534v-23,14,-42,29,-50,47v2,31,-11,81,23,79v29,0,59,7,66,-22v10,-20,13,-47,33,-57v22,28,-3,92,-11,119v-5,15,-14,23,-31,23"},"\u212b":{"d":"479,-550r-151,317r302,0xm104,-7v77,-1,99,-36,124,-91r252,-540r20,0r261,549v20,51,55,78,122,82r0,23r-255,0r0,-23v44,-4,82,-5,78,-49v-16,-51,-44,-97,-64,-145r-327,0v-21,52,-55,101,-67,159v3,35,43,32,80,35r0,23r-224,0r0,-23xm361,-777v0,-66,48,-107,115,-107v67,0,115,41,115,107v0,66,-48,107,-115,107v-67,0,-115,-41,-115,-107xm404,-778v0,41,32,75,72,75v41,0,73,-34,73,-75v0,-41,-32,-75,-73,-75v-40,0,-72,34,-72,75"},"\u2153":{"d":"816,-227v0,50,-37,79,-73,106v52,11,97,48,97,107v0,104,-81,145,-186,145v-37,0,-77,-10,-85,-39v0,-13,14,-27,30,-26v49,1,74,49,127,24v30,-14,56,-40,57,-82v3,-84,-49,-106,-142,-96r1,-26v60,-11,113,-47,115,-106v1,-39,-23,-62,-62,-62v-48,0,-74,35,-90,71r-36,-1v17,-58,66,-108,138,-107v62,1,109,31,109,92xm158,-441v42,1,68,-3,68,-46r-2,-295v-4,-14,-14,-11,-30,-6r-41,17r0,-30r128,-64r0,377v-3,46,25,47,68,48r0,26r-191,0r0,-27xm76,57r791,-872r25,17r-791,870"},"\u2154":{"d":"816,-227v0,50,-37,79,-73,106v52,11,97,48,97,107v0,104,-81,145,-186,145v-37,0,-77,-10,-85,-39v0,-13,14,-27,30,-26v49,1,74,49,127,24v30,-14,56,-40,57,-82v3,-84,-49,-106,-142,-96r1,-26v60,-11,113,-47,115,-106v1,-39,-23,-62,-62,-62v-48,0,-74,35,-90,71r-36,-1v17,-58,66,-108,138,-107v62,1,109,31,109,92xm291,-458v44,2,52,-18,68,-46r33,0r-33,81r-268,0r0,-21r91,-94v47,-60,128,-110,128,-204v0,-53,-29,-85,-84,-85v-55,0,-84,49,-100,96r-35,-6v17,-71,60,-124,147,-127v104,-3,160,105,106,192v-50,80,-116,144,-177,214r124,0xm76,57r791,-872r25,17r-790,869"},"\u215b":{"d":"76,57r791,-872r25,17r-791,870xm158,-441v42,1,68,-3,68,-46r-2,-295v-4,-14,-14,-11,-30,-6r-41,17r0,-30r128,-64r0,377v-3,46,25,47,68,48r0,26r-191,0r0,-27xm751,-103v46,18,91,46,89,107v-3,84,-63,128,-149,128v-79,0,-144,-37,-144,-114v0,-63,41,-101,89,-118v-36,-19,-78,-51,-75,-107v3,-73,58,-111,134,-111v71,0,129,34,129,105v0,56,-36,89,-73,110xm714,-120v32,-17,58,-41,59,-86v2,-52,-32,-84,-80,-86v-67,-2,-106,90,-50,135v19,16,42,29,71,37xm690,105v78,7,126,-103,64,-153v-21,-17,-49,-25,-79,-36v-51,19,-77,52,-77,101v0,56,38,83,92,88"},"\u215c":{"d":"357,-769v0,50,-35,80,-72,106v51,12,96,49,96,107v0,101,-83,146,-185,146v-37,0,-77,-10,-85,-40v0,-13,13,-26,29,-26v50,1,73,49,128,24v30,-14,56,-40,57,-82v3,-84,-49,-106,-143,-96r1,-25v60,-11,113,-48,115,-107v1,-39,-23,-61,-61,-61v-48,0,-76,34,-91,70r-35,-1v15,-58,66,-109,137,-107v62,1,109,31,109,92xm751,-103v46,18,91,46,89,107v-3,84,-63,128,-149,128v-79,0,-144,-37,-144,-114v0,-63,41,-101,89,-118v-36,-19,-78,-51,-75,-107v3,-73,58,-111,134,-111v71,0,129,34,129,105v0,56,-36,89,-73,110xm690,105v78,7,126,-103,64,-153v-21,-17,-49,-25,-79,-36v-51,19,-77,52,-77,101v0,56,38,83,92,88xm714,-120v32,-17,58,-41,59,-86v2,-52,-32,-84,-80,-86v-67,-2,-106,90,-50,135v19,16,42,29,71,37xm76,57r791,-872r25,17r-790,869"},"\u215d":{"d":"76,57r791,-872r25,17r-791,870xm751,-103v46,18,91,46,89,107v-3,84,-63,128,-149,128v-79,0,-144,-37,-144,-114v0,-63,41,-101,89,-118v-36,-19,-78,-51,-75,-107v3,-73,58,-111,134,-111v71,0,129,34,129,105v0,56,-36,89,-73,110xm714,-120v32,-17,58,-41,59,-86v2,-52,-32,-84,-80,-86v-67,-2,-106,90,-50,135v19,16,42,29,71,37xm690,105v78,7,126,-103,64,-153v-21,-17,-49,-25,-79,-36v-51,19,-77,52,-77,101v0,56,38,83,92,88xm117,-452v24,-57,91,6,132,6v50,0,86,-54,84,-113v-2,-93,-62,-132,-166,-124v-12,1,-27,-6,-25,-15r68,-156r183,0r-11,41r-142,0r-37,87v109,-2,189,45,189,148v0,101,-69,165,-170,165v-42,0,-96,-4,-105,-39"},"\u215e":{"d":"76,57r791,-872r25,17r-791,870xm751,-103v46,18,91,46,89,107v-3,84,-63,128,-149,128v-79,0,-144,-37,-144,-114v0,-63,41,-101,89,-118v-36,-19,-78,-51,-75,-107v3,-73,58,-111,134,-111v71,0,129,34,129,105v0,56,-36,89,-73,110xm714,-120v32,-17,58,-41,59,-86v2,-52,-32,-84,-80,-86v-67,-2,-106,90,-50,135v19,16,42,29,71,37xm690,105v78,7,126,-103,64,-153v-21,-17,-49,-25,-79,-36v-51,19,-77,52,-77,101v0,56,38,83,92,88xm226,-816v-51,-3,-49,30,-74,58r-32,-6r41,-91r253,0r3,11r-143,426r-54,0r133,-398r-127,0"},"\u2160":{"d":"635,-734v-77,1,-118,15,-118,97r0,500v-6,86,37,103,118,104r0,23r-300,0r0,-22v76,-6,117,-19,117,-105r0,-500v5,-82,-40,-96,-117,-97r0,-22r300,0r0,22"},"\u2161":{"d":"732,-734v-77,1,-118,15,-118,97r0,500v-6,86,37,103,118,104r0,23r-488,0r0,-22v75,-6,116,-18,116,-105r0,-500v5,-81,-40,-96,-116,-97r0,-22r488,0r0,22xm426,-137v-2,65,6,106,68,103v51,-2,56,-46,55,-103r0,-500v2,-58,-7,-95,-62,-95v-54,0,-61,37,-61,95r0,500"},"\u2162":{"d":"283,-637v5,-81,-40,-96,-116,-97r0,-22r668,0r0,22v-77,1,-117,15,-117,97r0,500v-6,86,37,103,117,104r0,23r-668,0r0,-22v76,-6,116,-19,116,-105r0,-500xm347,-137v-2,65,5,103,66,103v51,0,56,-46,55,-103r0,-500v1,-57,-7,-95,-60,-95v-54,0,-61,37,-61,95r0,500xm532,-137v-2,64,7,103,67,103v51,0,54,-46,54,-103r0,-500v1,-57,-7,-95,-60,-95v-55,0,-61,37,-61,95r0,500"},"\u2163":{"d":"346,-732v-53,0,-56,38,-56,95r0,500v-1,59,10,90,59,98v15,3,35,5,59,6r0,23r-300,0r0,-22v75,-6,116,-18,116,-105r0,-500v5,-81,-40,-96,-116,-97r0,-22r477,0r0,24v-58,2,-112,-4,-102,51v33,182,97,352,143,527r116,-459v8,-46,31,-102,-14,-115v-11,-3,-26,-4,-47,-4r0,-24r228,0r0,22v-55,3,-87,8,-101,50v-5,14,-11,33,-17,56r-166,635r-15,0r-194,-679v-12,-35,-28,-60,-70,-60"},"\u2164":{"d":"409,-733v-54,2,-98,-3,-91,52v2,15,7,34,15,59r159,496r150,-487v10,-41,26,-67,15,-102v-14,-20,-42,-17,-80,-18r0,-24r228,0r0,22v-87,-6,-97,43,-118,108r-200,633r-12,0r-209,-628v-21,-68,-40,-115,-129,-113r0,-22r272,0r0,24"},"\u2165":{"d":"883,-734v-77,1,-118,15,-118,97r0,500v-1,59,10,90,59,98v15,3,35,5,59,6r0,23r-300,0r0,-22v75,-6,116,-18,116,-105r-1,-545v4,-59,-86,-63,-110,-25v-14,22,-21,47,-30,79r-166,635r-14,0r-178,-627v-20,-68,-29,-120,-119,-114r0,-22r271,0r0,24v-57,2,-112,-5,-102,51v32,183,97,351,143,527r117,-459v7,-40,19,-68,9,-100v-11,-19,-36,-18,-70,-19r0,-24r434,0r0,22"},"\u2166":{"d":"346,-756r615,0r0,22v-76,1,-116,15,-116,97r0,500v-6,86,36,103,116,104r0,23r-480,0r0,-22v75,-6,115,-20,115,-105r-2,-545v3,-58,-86,-63,-110,-25v-13,21,-20,47,-28,79r-156,635r-14,0r-168,-627v-20,-68,-29,-120,-119,-114r0,-22r271,0r0,24v-57,2,-106,-6,-102,51v2,15,6,35,12,60r121,467r107,-459v8,-47,31,-102,-14,-115v-11,-3,-27,-4,-48,-4r0,-24xm660,-137v-1,64,5,103,66,103v51,0,54,-45,54,-103r0,-500v1,-57,-6,-95,-59,-95v-53,0,-61,37,-61,95r0,500"},"\u2167":{"d":"219,-732v-56,1,-103,-4,-98,51v1,15,5,35,11,60r117,467r114,-523v8,-51,-20,-56,-70,-55r0,-24r714,0r0,22v-73,1,-106,19,-106,97r0,500v-1,57,7,90,53,98v14,3,32,5,53,6r0,23r-603,0r0,-22v50,-7,95,-9,100,-54v17,-171,5,-370,5,-551v0,-58,2,-85,-44,-93v-50,12,-53,44,-67,102r-150,635r-15,0r-162,-627v-19,-66,-26,-119,-113,-114r0,-22r261,0r0,24xm676,-637v1,-55,-4,-95,-54,-95v-52,0,-55,39,-55,95r1,549v2,38,20,54,59,54v48,0,49,-49,49,-103r0,-500xm844,-637v1,-56,-4,-95,-56,-95v-52,0,-55,40,-54,95r2,548v3,37,20,52,58,55v47,-6,50,-48,50,-103r0,-500"},"\u2168":{"d":"96,-10r0,-22v75,-6,117,-18,117,-105r0,-500v5,-82,-40,-96,-117,-97r0,-22r484,0r0,22v-54,2,-92,6,-65,64r96,207r100,-202v27,-64,-8,-68,-66,-70r0,-21r226,0r0,21v-57,-1,-83,17,-102,55r-133,268r145,313v20,47,60,68,130,66r0,23r-268,0r0,-21v57,-3,101,1,74,-57r-117,-252r-123,248v-26,61,9,57,69,60r0,22r-450,0xm282,-88v0,53,83,70,120,37v10,-9,19,-22,27,-39r148,-301r-140,-303v-16,-54,-151,-57,-155,8v-1,12,-3,29,-3,49r0,500v0,20,3,36,3,49"},"\u2169":{"d":"606,-625v17,-30,35,-51,36,-83v-6,-22,-32,-24,-64,-26r0,-22r217,0r0,22v-76,3,-106,47,-139,98r-147,232r175,293v25,45,54,73,119,76r0,25r-243,0r-1,-26v41,-4,84,-6,66,-50v-38,-93,-102,-178,-150,-265r-128,200v-19,34,-40,56,-41,91v8,23,35,22,69,26r0,24r-212,0r0,-24v76,-9,102,-56,137,-110r155,-242r-171,-289v-25,-36,-54,-56,-111,-59r0,-22r249,0r0,22v-42,5,-91,4,-73,52v32,84,95,164,139,243"},"\u2170":{"d":"481,-649v-30,0,-52,-23,-52,-52v0,-28,23,-51,52,-51v30,0,56,22,56,51v1,29,-26,52,-56,52xm530,-488v-12,134,-4,266,-4,406v0,43,40,46,88,49r0,24r-242,0r0,-24v47,-4,87,-6,87,-49r2,-283v-1,-47,1,-81,-37,-89v-11,-2,-26,-4,-45,-4r0,-24"},"\u2171":{"d":"341,-649v-30,0,-52,-23,-52,-52v0,-28,23,-51,52,-51v30,0,55,22,55,51v0,29,-25,52,-55,52xm390,-488v-12,134,-4,266,-4,406v0,43,40,46,88,49r0,24r-243,0r0,-24v48,-4,83,-7,87,-49v8,-87,1,-190,3,-283v0,-47,1,-81,-37,-89v-11,-2,-26,-4,-45,-4r0,-24xm621,-649v-30,0,-54,-23,-53,-52v0,-28,24,-51,53,-51v29,0,55,23,55,51v0,29,-26,52,-55,52xm670,-488v-12,134,-4,266,-4,406v0,43,40,46,88,49r0,24r-243,0r0,-24v47,-4,87,-6,87,-49r2,-283v-1,-47,2,-81,-36,-89v-11,-2,-27,-4,-46,-4r0,-24"},"\u2172":{"d":"210,-649v-30,0,-52,-23,-52,-52v0,-28,23,-51,52,-51v30,0,55,22,55,51v0,29,-25,52,-55,52xm259,-488v-12,134,-4,266,-4,406v0,43,40,46,88,49r0,24r-243,0r0,-24v47,-4,87,-6,87,-49r2,-283v-1,-47,1,-81,-37,-89v-11,-2,-25,-4,-44,-4r0,-24xm489,-649v-30,0,-52,-23,-52,-52v0,-28,23,-51,52,-51v30,0,56,22,56,51v1,29,-26,52,-56,52xm539,-488v-9,126,-13,274,-5,406v3,42,40,46,89,49r0,24r-243,0r0,-24v47,-4,87,-6,87,-49r2,-283v-1,-47,1,-81,-37,-89v-11,-2,-26,-4,-45,-4r0,-24xm771,-649v-30,0,-52,-23,-52,-52v0,-28,23,-51,52,-51v30,0,55,22,55,51v0,29,-25,52,-55,52xm820,-488v-12,134,-4,266,-4,406v0,43,40,46,88,49r0,24r-242,0r0,-24v67,0,90,-21,89,-93r-2,-286v-4,-40,-33,-47,-80,-46r0,-24"},"\u2173":{"d":"246,-649v-30,0,-52,-23,-52,-52v0,-28,23,-51,52,-51v30,0,55,22,55,51v0,29,-25,52,-55,52xm295,-488v-12,134,-4,266,-4,406v0,43,40,46,88,49r0,24r-243,0r0,-24v47,-4,87,-6,87,-49r2,-283v-1,-47,1,-81,-37,-89v-11,-2,-26,-4,-45,-4r0,-24xm578,-461v-61,6,-82,10,-59,71r108,287r112,-309v12,-42,-19,-46,-59,-49r0,-23r185,0r0,23v-63,1,-78,35,-96,83r-140,378r-20,0r-149,-385v-17,-47,-40,-73,-100,-76r0,-23r218,0r0,23"},"\u2174":{"d":"425,-461v-36,4,-67,2,-65,38v1,9,4,20,9,33r136,300r116,-281v7,-25,36,-71,-1,-83v-9,-3,-24,-6,-43,-7r0,-23r185,0r0,23v-63,1,-76,36,-96,83r-159,378r-19,0r-198,-421v-16,-28,-41,-37,-82,-40r0,-23r217,0r0,23"},"\u2175":{"d":"310,-461v-61,6,-81,10,-58,71r107,287r112,-309v11,-42,-18,-46,-58,-49r0,-23r185,0r0,23v-63,1,-79,35,-96,83r-141,378r-19,0r-149,-385v-17,-47,-40,-73,-100,-76r0,-23r217,0r0,23xm746,-649v-30,0,-52,-23,-52,-52v0,-28,23,-51,52,-51v30,0,56,22,56,51v1,29,-26,52,-56,52xm796,-488v-12,134,-4,266,-4,406v0,43,40,46,88,49r0,24r-243,0r0,-24v47,-4,87,-6,87,-49r2,-283v-1,-47,2,-81,-36,-89v-11,-2,-27,-4,-46,-4r0,-24"},"\u2176":{"d":"512,-9r0,-24v47,-4,85,-6,85,-49r2,-283v0,-46,1,-81,-36,-89v-11,-2,-26,-4,-45,-4r0,-24r151,-6v-11,133,-7,268,-4,406v2,70,166,66,169,0v4,-87,-1,-191,2,-283v2,-67,-12,-99,-81,-93r0,-24r150,-6v-11,133,-10,268,-4,406v2,42,39,46,87,49r0,24r-476,0xm218,-461v-61,6,-79,10,-58,71r96,287r105,-309v12,-42,-19,-46,-59,-49r0,-23r185,0r0,23v-63,1,-79,35,-96,83r-133,378r-19,0r-139,-385v-17,-46,-39,-74,-99,-76r0,-23r217,0r0,23xm620,-649v-30,0,-52,-23,-52,-52v0,-28,23,-51,52,-51v29,0,55,23,55,51v0,29,-26,52,-55,52xm856,-649v-30,0,-51,-23,-51,-52v0,-28,22,-51,51,-51v30,0,54,22,54,51v0,30,-23,52,-54,52"},"\u2177":{"d":"742,-126v-2,58,8,91,61,91v52,0,60,-34,60,-91r-2,-286v-4,-39,-28,-47,-74,-46r0,-24r145,-6v-12,127,-9,272,-4,406v1,42,36,46,82,49r0,24r-594,0r0,-24v45,-3,80,-8,80,-49r2,-283v2,-60,-2,-98,-64,-93r0,-24r132,-6v-12,113,-3,240,-6,362v-2,58,8,91,61,91v52,0,59,-34,59,-91r-2,-286v-4,-39,-28,-47,-74,-46r0,-24r145,-6v-14,112,-4,240,-7,362xm177,-461v-34,4,-64,3,-63,38v26,111,66,213,97,320r99,-309v12,-41,-17,-46,-55,-49r0,-23r164,0r0,23v-54,3,-63,39,-79,83r-126,378r-19,0r-130,-385v-17,-45,-36,-74,-94,-76r0,-23r206,0r0,23xm517,-752v30,0,54,22,54,51v0,30,-23,52,-54,52v-28,0,-48,-24,-48,-52v0,-27,21,-51,48,-51xm699,-752v30,0,54,22,54,51v0,30,-23,52,-54,52v-28,0,-48,-24,-48,-52v0,-27,21,-51,48,-51xm883,-752v29,0,53,23,53,51v1,29,-23,52,-53,52v-29,0,-48,-23,-48,-52v0,-28,19,-51,48,-51"},"\u2178":{"d":"515,-92v-30,44,-30,53,30,61r0,22r-156,0r0,-21v48,-3,61,-27,85,-57r138,-171r-136,-173v-18,-22,-41,-28,-76,-33r0,-20r209,0r0,21v-54,5,-79,10,-44,54r84,106r80,-98v31,-44,33,-59,-28,-63r0,-20r173,0r0,20v-47,4,-66,17,-90,46r-114,139r166,211v18,23,40,34,79,36r0,23r-206,0r0,-21v57,-6,70,-17,37,-59r-114,-144xm223,-649v-30,0,-52,-23,-52,-52v0,-28,23,-51,52,-51v30,0,56,22,56,51v1,29,-26,52,-56,52xm272,-488v-12,134,-4,266,-4,406v0,43,40,46,88,49r0,24r-242,0r0,-24v47,-4,87,-6,87,-49r2,-283v-1,-47,1,-81,-37,-89v-11,-2,-26,-4,-45,-4r0,-24"},"\u2179":{"d":"364,-90v-29,43,-33,51,27,59r0,22r-155,0r0,-21v44,-7,63,-25,87,-55r136,-171r-137,-175v-17,-22,-40,-28,-75,-33r0,-20r209,0r0,21v-55,6,-79,9,-44,54r84,107r79,-99v32,-40,32,-59,-27,-63r0,-20r173,0r0,20v-46,5,-68,18,-91,46r-115,142r166,210v19,22,42,33,81,34r0,23r-207,0r0,-21v58,-6,69,-16,36,-57r-113,-144"},"\u2190":{"d":"306,-346r33,93r-301,-117r301,-113r-33,93r632,0r0,44r-632,0"},"\u2191":{"d":"510,-577r0,685r-45,0r0,-685r-94,31r116,-300r115,300"},"\u2192":{"d":"635,-253r32,-92r-632,0r0,-44r632,0r-32,-94r300,112"},"\u2193":{"d":"487,110r-116,-300r93,30r0,-685r44,0r0,684r94,-30"},"\u2194":{"d":"688,-216r33,-129r-470,0r33,129r-267,-152r267,-151r-33,129r470,0r-33,-129r267,151"},"\u2195":{"d":"487,133r-152,-266r129,31r0,-530r-129,31r152,-266r151,266r-128,-31r0,530r128,-31"},"\u2196":{"d":"892,66r-674,-673r-28,92r-138,-288r288,137r-92,28r675,673"},"\u2197":{"d":"782,-515r-27,-92r-674,673r-31,-31r676,-673r-93,-28r289,-137"},"\u2198":{"d":"633,-74r93,-28r-676,-672r31,-31r674,672r27,-90r140,286"},"\u2199":{"d":"248,-102r91,28r-287,137r138,-287r28,91r674,-672r31,31"},"\u21d2":{"d":"640,-99r137,-138r-764,0r0,-45r808,0r87,-85r-87,-85r-808,0r0,-45r764,0r-137,-137r34,-33r300,300r-300,300"},"\u21d4":{"d":"634,-99r138,-138r-571,0r139,138r-35,32r-301,-300r301,-300r35,33r-139,137r571,0r-138,-137r34,-33r301,300r-301,300xm158,-452r-87,85r87,85r657,0r87,-85r-87,-85r-657,0"},"\u2200":{"d":"489,-55r156,-379r-300,0xm806,-700r-271,665v-7,31,-53,56,-78,21v-7,-10,-13,-23,-18,-35r-253,-650r48,-17r94,237r337,0r91,-241"},"\u2202":{"d":"477,-461v102,-5,125,69,139,156v15,-59,30,-108,30,-177v3,-180,-75,-257,-204,-204v-28,11,-50,34,-74,57v-11,11,-18,13,-21,7v-6,-32,23,-56,40,-73v35,-36,79,-68,143,-68v187,0,167,300,120,459v-33,112,-83,222,-168,280v-26,18,-55,26,-86,26v-180,4,-142,-272,-69,-363v37,-47,78,-97,150,-100xm347,-280v-31,76,-41,238,53,244v119,-22,163,-159,170,-298v4,-73,-62,-124,-127,-86v-42,25,-76,92,-96,140"},"\u2203":{"d":"257,-56r376,0r0,-312r-265,0r0,-54r265,0r0,-279r-367,0r0,-57r431,0r0,759r-440,0r0,-57"},"\u2207":{"d":"487,23r-457,-791r913,0xm876,-729r-779,0r390,672"},"\u2208":{"d":"111,-362v17,144,109,236,262,236r498,0r0,49r-545,-2v-150,-30,-261,-121,-269,-287v-10,-202,118,-335,305,-335r507,0r0,49r-500,0v-148,14,-241,99,-259,241r760,0r0,49r-759,0"},"\u220b":{"d":"579,-126v150,-9,244,-94,261,-236r-761,0r0,-49r761,0v-18,-144,-109,-241,-258,-241r-500,0r0,-49r506,0v184,23,314,133,304,335v-9,171,-125,289,-285,289r-529,0r0,-49r501,0"},"\u220f":{"d":"693,-27r-54,0r0,-668r-283,0r0,668r-54,0r0,-668r-193,0r0,-40r783,0r0,40r-199,0r0,668"},"\u2211":{"d":"629,-66v101,2,119,-64,148,-139r24,0r-58,223r-660,0r0,-17r423,-401r-225,-356r0,-26r609,0r-46,200r-34,0v16,-67,47,-169,-58,-169r-381,0r215,330r-381,355r424,0"},"\u221a":{"d":"910,-822r-306,0r-274,861r-163,-420r-61,65r-21,-31r112,-117r137,354r233,-751r343,0r0,39"},"\u221d":{"d":"509,-387v-32,-104,-135,-217,-273,-159v-70,30,-121,123,-88,220v26,75,111,132,210,102v78,-24,122,-91,151,-163xm368,-180v-190,48,-328,-123,-261,-294v35,-90,146,-162,269,-121v78,26,126,94,160,166v46,-106,152,-213,310,-159v14,5,23,14,31,20v-13,9,-16,43,-35,26v-50,-30,-148,-20,-188,20v-38,38,-80,89,-96,139v31,97,165,229,295,142r17,38v-36,40,-139,44,-196,15v-63,-32,-106,-87,-138,-148v-39,68,-86,135,-168,156"},"\u221e":{"d":"487,-324v-48,83,-143,179,-275,128v-85,-33,-151,-141,-108,-253v32,-82,130,-149,242,-114v66,20,109,75,142,130v42,-88,141,-176,270,-130v89,32,158,141,113,254v-28,70,-93,124,-187,124v-103,0,-152,-75,-197,-139xm589,-286v84,84,244,29,235,-103v-7,-103,-125,-166,-212,-106v-34,24,-64,62,-81,95v-15,29,-13,15,1,44v10,21,37,50,57,70xm234,-251v98,44,174,-46,208,-106v24,-42,-9,-56,-33,-92v-29,-43,-100,-80,-173,-56v-79,27,-117,163,-47,225v13,12,28,22,45,29"},"\u2220":{"d":"848,-62r-690,0v-43,-5,-9,-41,5,-54r620,-595r34,33r-603,570r634,0r0,46"},"\u2225":{"d":"567,-881r42,0r0,1026r-42,0r0,-1026xm362,-881r42,0r0,1026r-42,0r0,-1026"},"\u2227":{"d":"483,-667r-320,633r-42,-24r345,-679v8,-16,29,-14,36,2r346,674r-45,22"},"\u2228":{"d":"849,-694r-345,673v-7,16,-29,18,-36,2r-347,-678r44,-25r319,633r320,-628"},"\u2229":{"d":"748,26r-2,-516v-23,-142,-111,-239,-269,-239v-152,0,-251,106,-251,261r0,499r-49,0r0,-530v19,-174,154,-311,362,-276v150,25,258,128,258,297r0,504r-49,0"},"\u222a":{"d":"797,-767r-1,523v-20,154,-113,253,-257,278v-191,34,-321,-84,-357,-236v-5,-21,-5,-36,-5,-41r0,-529r49,0r-1,517v10,102,59,167,131,211v70,42,183,44,254,2v74,-43,138,-117,138,-227r0,-498r49,0"},"\u222b":{"d":"632,-731v-2,-23,4,-49,-21,-48v-123,46,-65,267,-65,415v0,220,-15,416,-222,420v-52,1,-90,-24,-92,-71v-2,-44,68,-65,96,-33v23,13,2,68,38,68v114,-28,106,-201,99,-336r-10,-196v0,-173,37,-288,178,-296v55,-3,105,24,107,70v1,30,-23,54,-53,54v-37,0,-53,-18,-55,-47"},"\u222c":{"d":"468,55v-66,0,-74,-92,-13,-95v35,-2,38,33,50,55v39,22,56,-47,69,-84v77,-216,-95,-620,146,-732v46,-21,99,4,101,50v3,54,-76,59,-93,18v-9,-11,-11,-46,-32,-28v-40,60,-42,143,-39,245v6,209,30,456,-104,546v-25,17,-53,25,-85,25xm188,-40v49,-11,42,101,82,50v107,-134,28,-423,57,-640v13,-93,71,-170,165,-178v32,-3,62,26,62,57v0,55,-77,58,-94,18v-9,-13,-11,-45,-30,-28v-41,58,-43,142,-40,245v7,210,27,453,-104,546v-42,30,-139,42,-142,-24v-1,-24,20,-47,44,-46"},"\u222e":{"d":"364,-376v3,-88,58,-143,145,-149v15,-125,5,-272,134,-288v67,-8,112,66,64,106v-25,20,-65,-5,-65,-43v-12,-40,-45,-3,-54,16v-28,57,-34,131,-42,213v63,12,119,71,116,145v-3,89,-58,144,-146,150v-24,134,-38,269,-172,288v-61,9,-98,-56,-66,-102v10,-15,49,-22,61,-4v8,11,17,25,17,44v0,13,13,12,24,13v42,-11,57,-56,72,-107v12,-39,20,-84,27,-134v-63,-12,-118,-73,-115,-148xm508,-490v-93,-1,-146,114,-86,186v17,21,38,34,63,40xm520,-262v90,0,139,-114,82,-184v-17,-20,-37,-33,-60,-39"},"\u2234":{"d":"418,-605v2,-37,28,-62,65,-64v36,-2,68,31,68,66v0,34,-35,66,-69,66v-34,0,-66,-35,-64,-68xm705,-139v2,-39,29,-63,67,-65v34,-2,67,33,66,67v-3,39,-28,63,-67,65v-36,2,-68,-33,-66,-67xm136,-139v2,-38,28,-62,65,-65v37,-3,67,31,67,67v0,34,-34,65,-67,65v-35,0,-67,-33,-65,-67"},"\u2235":{"d":"694,-604v0,-33,30,-66,64,-66v34,0,64,30,64,64v0,33,-29,64,-62,64v-33,0,-66,-29,-66,-62xm146,-604v0,-33,29,-66,63,-66v34,0,65,30,65,64v0,34,-30,64,-64,64v-32,0,-64,-30,-64,-62xm418,-138v-2,-33,29,-67,63,-67v33,0,66,31,66,65v0,34,-32,65,-66,63v-36,-2,-61,-25,-63,-61"},"\u223c":{"d":"838,-434v5,-7,11,-8,16,-4v10,25,-11,43,-25,66v-34,56,-90,114,-180,109v-98,-5,-149,-54,-207,-99v-44,-34,-138,-35,-188,-8v-43,23,-74,56,-109,95v-10,11,-27,2,-18,-14v45,-71,107,-158,222,-158v137,0,174,116,295,129v99,11,149,-61,194,-116"},"\u223d":{"d":"576,-551v66,-60,200,-65,275,-8v74,56,107,197,49,292v-52,85,-214,132,-308,58r19,-38v37,22,93,41,140,31v89,-18,166,-134,119,-244v-35,-82,-169,-138,-255,-70v-130,104,-134,354,-365,354v-128,0,-209,-89,-209,-225v0,-89,62,-151,126,-186v67,-36,171,-15,218,18r-25,38v-49,-48,-177,-39,-218,13v-61,44,-66,177,-12,240v51,59,182,74,244,14v83,-80,116,-209,202,-287"},"\u2252":{"d":"180,-489r614,0r0,45r-614,0r0,-45xm276,-636v0,-33,31,-61,64,-61v34,0,64,29,64,63v0,34,-31,65,-65,65v-34,0,-63,-34,-63,-67xm562,-100v0,-32,34,-63,65,-63v34,0,64,31,64,65v0,32,-33,63,-65,63v-33,0,-64,-34,-64,-65xm180,-291r614,0r0,45r-614,0r0,-45"},"\u2260":{"d":"175,-227r0,-45r206,0r145,-192r-351,0r0,-48r388,0r139,-182r34,31r-114,151r182,0r0,48r-218,0r-148,192r366,0r0,45r-398,0r-163,213r-35,-32r139,-181r-172,0"},"\u2261":{"d":"177,-557r619,0r0,43r-619,0r0,-43xm177,-384r619,0r0,44r-619,0r0,-44xm177,-211r619,0r0,43r-619,0r0,-43"},"\u2264":{"d":"150,-95r653,0r0,50r-653,0r0,-50xm724,-165r-544,-254v-38,-17,-37,-45,0,-63r543,-252r19,50r-505,233r513,240"},"\u2265":{"d":"156,-96r653,0r0,50r-653,0r0,-50xm206,-209r516,-243r-511,-236r26,-47r541,252v37,18,38,46,0,63r-542,254"},"\u226a":{"d":"101,-341v-29,-19,-29,-31,-1,-50r522,-345r22,40r-496,330r502,320r-21,40xm354,-341v-29,-21,-30,-31,-1,-50r523,-345r23,40r-497,330r502,320r-22,40"},"\u226b":{"d":"340,-6r-22,-40r502,-320r-496,-330r23,-40r522,345v30,19,29,31,-1,50xm87,-6r-22,-40r500,-320r-494,-330r22,-40r523,345v29,21,29,31,-2,50"},"\u2282":{"d":"355,-66v-161,-17,-265,-115,-279,-270v-19,-206,104,-349,300,-349r506,0r0,50r-516,1v-142,21,-240,111,-240,268v0,125,81,203,172,238v21,8,47,12,78,12r511,0r0,50r-532,0"},"\u2283":{"d":"592,-687v166,14,272,107,297,257v31,184,-71,305,-213,352v-21,7,-43,10,-64,10r-529,0r0,-50r499,0v118,-3,181,-52,229,-129v43,-70,45,-181,2,-253v-45,-74,-115,-137,-227,-137r-499,0r0,-50r505,0"},"\u2286":{"d":"369,-197v-135,-7,-215,-78,-262,-174v-50,-103,1,-238,63,-293v54,-48,127,-91,219,-91r505,0r0,46r-517,1v-135,20,-240,94,-240,242v0,142,113,223,263,224r500,0r0,45r-531,0xm82,-54r830,0r0,45r-830,0r0,-45"},"\u2287":{"d":"605,-755v157,15,273,91,298,233v31,172,-77,275,-213,316v-21,6,-43,9,-64,9r-532,0r0,-45r519,0v136,-11,244,-83,244,-224v0,-153,-110,-243,-258,-243r-498,0r0,-46r504,0xm83,-54r830,0r0,45r-830,0r0,-45"},"\u2299":{"d":"566,-178v-169,67,-334,-88,-266,-266v33,-89,150,-155,266,-109v88,35,156,150,109,266v-21,49,-60,90,-109,109xm776,-80v91,-85,163,-281,88,-444v-63,-138,-184,-249,-376,-249v-191,0,-312,111,-374,249v-43,97,-43,218,0,315v62,139,183,249,374,249v124,0,219,-56,288,-120xm176,-54v-99,-92,-176,-306,-95,-484v68,-151,199,-271,407,-271v207,0,341,121,408,271v47,105,47,239,0,344v-68,151,-200,270,-408,270v-134,0,-238,-61,-312,-130"},"\u22a5":{"d":"125,-102r338,0r0,-613r48,0r0,613r337,0r0,45r-723,0r0,-45"},"\u2312":{"d":"792,-652v-41,-142,-249,-213,-427,-158v-86,26,-161,76,-185,158r-54,0v51,-165,276,-248,490,-195v111,27,201,89,231,195r-55,0"},"\u2460":{"d":"171,-688v93,-101,309,-177,489,-96v152,68,274,202,274,411v0,209,-122,345,-274,412v-107,47,-239,47,-346,0v-153,-68,-275,-202,-275,-412v0,-135,62,-240,132,-315xm198,-81v85,93,283,164,448,89v140,-64,250,-187,250,-381v0,-193,-110,-317,-250,-379v-97,-43,-221,-43,-318,0v-140,63,-250,185,-250,379v0,126,56,222,120,292xm371,-120v54,0,91,-6,91,-63r0,-370v6,-71,-55,-40,-98,-22r0,-28r155,-78r0,498v-4,60,37,63,92,64r0,25r-240,0r0,-26"},"\u2461":{"d":"171,-688v93,-101,309,-177,489,-96v152,68,274,202,274,411v0,209,-122,345,-274,412v-107,47,-239,47,-346,0v-153,-68,-275,-202,-275,-412v0,-135,62,-240,132,-315xm198,-81v85,93,283,164,448,89v140,-64,250,-187,250,-381v0,-193,-110,-317,-250,-379v-97,-43,-221,-43,-318,0v-140,63,-250,185,-250,379v0,126,56,222,120,292xm563,-133v61,4,74,-23,95,-62r28,0r-39,98r-344,0r0,-22v94,-95,194,-193,267,-311v50,-82,22,-216,-95,-208v-81,6,-115,65,-139,128r-32,-6v23,-89,76,-160,186,-160v112,0,191,88,156,202v-31,101,-102,164,-168,236r-97,105r182,0"},"\u2462":{"d":"171,-688v93,-101,309,-177,489,-96v152,68,274,202,274,411v0,209,-122,345,-274,412v-107,47,-239,47,-346,0v-153,-68,-275,-202,-275,-412v0,-135,62,-240,132,-315xm198,-81v85,93,283,164,448,89v140,-64,250,-187,250,-381v0,-193,-110,-317,-250,-379v-97,-43,-221,-43,-318,0v-140,63,-250,185,-250,379v0,126,56,222,120,292xm635,-552v0,67,-52,111,-103,142v70,12,136,65,134,143v-3,135,-104,189,-239,189v-46,0,-95,-12,-105,-47v15,-65,101,-2,130,9v85,11,151,-38,155,-121v6,-105,-60,-150,-190,-136r1,-23v79,-19,148,-58,153,-146v3,-56,-35,-88,-90,-88v-65,0,-108,47,-127,94r-31,-1v24,-75,78,-132,174,-132v78,0,138,39,138,117"},"\u2463":{"d":"171,-688v93,-101,309,-177,489,-96v152,68,274,202,274,411v0,209,-122,345,-274,412v-107,47,-239,47,-346,0v-153,-68,-275,-202,-275,-412v0,-135,62,-240,132,-315xm198,-81v85,93,283,164,448,89v140,-64,250,-187,250,-381v0,-193,-110,-317,-250,-379v-97,-43,-221,-43,-318,0v-140,63,-250,185,-250,379v0,126,56,222,120,292xm558,-675r0,393r98,0r0,38r-98,0r0,153r-58,0r0,-153r-250,0r0,-35r270,-396r38,0xm297,-282r202,0r0,-291"},"\u2464":{"d":"171,-688v93,-101,309,-177,489,-96v152,68,274,202,274,411v0,209,-122,345,-274,412v-107,47,-239,47,-346,0v-153,-68,-275,-202,-275,-412v0,-135,62,-240,132,-315xm198,-81v85,93,283,164,448,89v140,-64,250,-187,250,-381v0,-193,-110,-317,-250,-379v-97,-43,-221,-43,-318,0v-140,63,-250,185,-250,379v0,126,56,222,120,292xm301,-116v0,-19,18,-27,38,-27v52,2,76,40,130,40v80,0,121,-70,121,-156v0,-129,-89,-180,-233,-171v-12,2,-26,-4,-22,-13r89,-204r228,0r-12,44r-190,0r-54,126v148,-2,256,53,256,193v0,130,-88,215,-219,215v-53,0,-120,-5,-132,-47"},"\u2465":{"d":"171,-688v93,-101,309,-177,489,-96v152,68,274,202,274,411v0,209,-122,345,-274,412v-107,47,-239,47,-346,0v-153,-68,-275,-202,-275,-412v0,-135,62,-240,132,-315xm198,-81v85,93,283,164,448,89v140,-64,250,-187,250,-381v0,-193,-110,-317,-250,-379v-97,-43,-221,-43,-318,0v-140,63,-250,185,-250,379v0,126,56,222,120,292xm469,-77v-178,0,-233,-218,-168,-378v51,-125,163,-208,333,-214r1,23v-154,13,-243,102,-279,234v55,-59,183,-51,234,6v30,33,58,81,57,142v-3,113,-65,187,-178,187xm470,-102v154,4,134,-270,30,-308v-108,-40,-183,64,-151,184v17,64,47,122,121,124"},"\u2466":{"d":"171,-688v93,-101,309,-177,489,-96v152,68,274,202,274,411v0,209,-122,345,-274,412v-107,47,-239,47,-346,0v-153,-68,-275,-202,-275,-412v0,-135,62,-240,132,-315xm198,-81v85,93,283,164,448,89v140,-64,250,-187,250,-381v0,-193,-110,-317,-250,-379v-97,-43,-221,-43,-318,0v-140,63,-250,185,-250,379v0,126,56,222,120,292xm666,-625r-190,564r-56,0r178,-532r-180,0v-68,-7,-76,41,-104,76r-28,-5r51,-112r326,0"},"\u2467":{"d":"171,-688v93,-101,309,-177,489,-96v152,68,274,202,274,411v0,209,-122,345,-274,412v-107,47,-239,47,-346,0v-153,-68,-275,-202,-275,-412v0,-135,62,-240,132,-315xm198,-81v85,93,283,164,448,89v140,-64,250,-187,250,-381v0,-193,-110,-317,-250,-379v-97,-43,-221,-43,-318,0v-140,63,-250,185,-250,379v0,126,56,222,120,292xm549,-390v65,28,125,60,125,144v0,109,-80,166,-191,166v-100,0,-184,-48,-184,-146v0,-87,58,-136,127,-159v-57,-27,-108,-64,-108,-143v0,-96,73,-143,171,-143v91,0,164,44,164,135v0,78,-50,119,-104,146xm516,-404v46,-25,85,-59,86,-122v2,-72,-48,-119,-115,-121v-101,-3,-150,124,-73,189v27,22,59,41,102,54xm482,-105v116,9,176,-143,92,-214v-30,-24,-70,-36,-113,-52v-67,27,-110,64,-110,144v0,76,56,116,131,122"},"\u2468":{"d":"171,-688v93,-101,309,-177,489,-96v152,68,274,202,274,411v0,209,-122,345,-274,412v-107,47,-239,47,-346,0v-153,-68,-275,-202,-275,-412v0,-135,62,-240,132,-315xm198,-81v85,93,283,164,448,89v140,-64,250,-187,250,-381v0,-193,-110,-317,-250,-379v-97,-43,-221,-43,-318,0v-140,63,-250,185,-250,379v0,126,56,222,120,292xm483,-669v178,0,233,219,168,379v-51,124,-162,210,-333,213r-1,-21v148,-10,247,-104,278,-233v-59,59,-181,47,-233,-9v-30,-33,-58,-79,-57,-140v2,-114,64,-189,178,-189xm482,-643v-153,-4,-132,273,-28,309v109,37,182,-65,150,-185v-17,-64,-48,-122,-122,-124"},"\u2469":{"d":"224,-125v48,1,67,-12,67,-63r-1,-402v-1,-17,-10,-17,-27,-10v-10,4,-25,10,-44,19r0,-27r127,-78r0,498v-4,53,18,65,68,64r0,25r-190,0r0,-26xm669,-654v112,100,107,444,-2,542v-36,32,-96,32,-131,0v-110,-102,-105,-442,0,-541v35,-33,98,-34,133,-1xm665,-577v-10,-44,-57,-112,-99,-57v-68,89,-57,318,-26,444v12,50,59,107,98,56v67,-89,57,-318,27,-443xm171,-688v93,-101,309,-177,489,-96v152,68,274,202,274,411v0,209,-122,345,-274,412v-107,47,-239,47,-346,0v-153,-68,-275,-202,-275,-412v0,-135,62,-240,132,-315xm198,-81v85,93,283,164,448,89v140,-64,250,-187,250,-381v0,-193,-110,-317,-250,-379v-97,-43,-221,-43,-318,0v-140,63,-250,185,-250,379v0,126,56,222,120,292"},"\u246a":{"d":"171,-688v93,-101,309,-177,489,-96v152,68,274,202,274,411v0,209,-122,345,-274,412v-107,47,-239,47,-346,0v-153,-68,-275,-202,-275,-412v0,-135,62,-240,132,-315xm198,-81v85,93,283,164,448,89v140,-64,250,-187,250,-381v0,-193,-110,-317,-250,-379v-97,-43,-221,-43,-318,0v-140,63,-250,185,-250,379v0,126,56,222,120,292xm224,-128v54,0,91,-5,91,-63r0,-370v2,-38,-11,-56,-47,-42v-13,4,-30,10,-51,19r0,-27r156,-78r0,498v-4,60,36,63,92,64r0,25r-241,0r0,-26xm521,-128v54,0,91,-5,91,-63r0,-370v2,-38,-11,-56,-47,-42v-13,4,-30,10,-51,19r0,-27r156,-78r0,498v-4,60,36,63,92,64r0,25r-241,0r0,-26"},"\u246b":{"d":"171,-688v93,-101,309,-177,489,-96v152,68,274,202,274,411v0,209,-122,345,-274,412v-107,47,-239,47,-346,0v-153,-68,-275,-202,-275,-412v0,-135,62,-240,132,-315xm198,-81v85,93,283,164,448,89v140,-64,250,-187,250,-381v0,-193,-110,-317,-250,-379v-97,-43,-221,-43,-318,0v-140,63,-250,185,-250,379v0,126,56,222,120,292xm238,-125v48,2,66,-13,66,-63r0,-402v-1,-17,-11,-17,-28,-10v-10,4,-25,10,-44,19r0,-27r127,-78r0,498v-3,52,18,65,68,64r0,25r-189,0r0,-26xm660,-138v48,2,50,-29,66,-62r37,0r-29,98r-265,0r0,-22v75,-110,168,-213,207,-356v19,-70,-2,-159,-73,-163v-62,9,-78,73,-96,128r-39,-6v16,-82,50,-158,145,-160v142,-3,144,195,85,293r-86,144r-69,106r117,0"},"\u246c":{"d":"171,-688v93,-101,309,-177,489,-96v152,68,274,202,274,411v0,209,-122,345,-274,412v-107,47,-239,47,-346,0v-153,-68,-275,-202,-275,-412v0,-135,62,-240,132,-315xm198,-81v85,93,283,164,448,89v140,-64,250,-187,250,-381v0,-193,-110,-317,-250,-379v-97,-43,-221,-43,-318,0v-140,63,-250,185,-250,379v0,126,56,222,120,292xm726,-566v-2,67,-44,111,-94,143v67,11,119,66,118,141v-1,125,-74,190,-198,190v-41,0,-83,-13,-91,-47v1,-46,73,-30,91,-7v68,50,136,-25,136,-105v0,-103,-44,-151,-151,-136r1,-24v67,-20,118,-64,122,-145v2,-49,-24,-88,-65,-88v-49,0,-81,53,-95,94r-39,-1v15,-69,64,-132,145,-132v69,-1,122,47,120,117xm238,-125v48,2,66,-13,66,-63r0,-402v-1,-17,-11,-17,-28,-10v-10,4,-25,10,-44,19r0,-27r127,-78r0,498v-3,52,18,65,68,64r0,25r-189,0r0,-26"},"\u246d":{"d":"171,-688v93,-101,309,-177,489,-96v152,68,274,202,274,411v0,209,-122,345,-274,412v-107,47,-239,47,-346,0v-153,-68,-275,-202,-275,-412v0,-135,62,-240,132,-315xm198,-81v85,93,283,164,448,89v140,-64,250,-187,250,-381v0,-193,-110,-317,-250,-379v-97,-43,-221,-43,-318,0v-140,63,-250,185,-250,379v0,126,56,222,120,292xm238,-125v48,2,66,-13,66,-63r0,-402v-1,-17,-11,-17,-28,-10v-10,4,-25,10,-44,19r0,-27r127,-78r0,498v-3,52,18,65,68,64r0,25r-189,0r0,-26xm675,-686r0,393r77,0r0,38r-77,0r0,153r-58,0r0,-153r-193,0r0,-35r209,-396r42,0xm471,-293r145,0r0,-270"},"\u246e":{"d":"562,-87v-46,0,-97,-8,-105,-47v0,-19,12,-28,35,-28v45,-1,58,36,100,40v104,-17,111,-222,44,-288v-30,-29,-70,-44,-125,-39v-18,2,-30,-2,-29,-13r70,-204r187,0r-10,44r-145,0r-41,126v127,-2,197,71,197,194v0,121,-61,215,-178,215xm171,-688v93,-101,309,-177,489,-96v152,68,274,202,274,411v0,209,-122,345,-274,412v-107,47,-239,47,-346,0v-153,-68,-275,-202,-275,-412v0,-135,62,-240,132,-315xm198,-81v85,93,283,164,448,89v140,-64,250,-187,250,-381v0,-193,-110,-317,-250,-379v-97,-43,-221,-43,-318,0v-140,63,-250,185,-250,379v0,126,56,222,120,292xm234,-125v49,2,67,-12,67,-63r-1,-402v-1,-17,-10,-17,-27,-10v-10,4,-25,10,-44,19r0,-27r127,-78r0,498v-3,52,18,65,68,64r0,25r-190,0r0,-26"},"\u2474":{"d":"59,-377v0,188,61,344,157,455r-19,15v-141,-137,-221,-345,-177,-603v24,-140,87,-255,175,-335r17,14v-95,104,-153,263,-153,454xm779,-845v112,105,187,257,187,468v0,207,-71,352,-189,470r-19,-15v97,-112,156,-266,156,-455v0,-192,-59,-349,-152,-454xm371,-120v54,0,91,-6,91,-63r0,-370v6,-71,-55,-40,-98,-22r0,-28r155,-78r0,498v-4,60,37,63,92,64r0,25r-240,0r0,-26"},"\u2475":{"d":"59,-377v0,188,61,344,157,455r-19,15v-141,-137,-221,-345,-177,-603v24,-140,87,-255,175,-335r17,14v-95,104,-153,263,-153,454xm779,-845v112,105,187,257,187,468v0,207,-71,352,-189,470r-19,-15v97,-112,156,-266,156,-455v0,-192,-59,-349,-152,-454xm563,-133v61,4,74,-23,95,-62r28,0r-39,98r-344,0r0,-22v94,-95,194,-193,267,-311v50,-82,22,-216,-95,-208v-81,6,-115,65,-139,128r-32,-6v23,-89,76,-160,186,-160v112,0,191,88,156,202v-31,101,-102,164,-168,236r-97,105r182,0"},"\u2476":{"d":"625,-552v0,67,-52,111,-103,142v70,12,133,65,133,143v0,132,-105,189,-239,189v-45,0,-95,-11,-105,-47v16,-64,102,-2,131,9v85,11,150,-39,155,-121v6,-104,-60,-150,-190,-136r1,-23v79,-19,148,-58,153,-146v3,-56,-35,-88,-90,-88v-65,0,-108,47,-127,94r-32,-1v24,-75,78,-132,174,-132v78,0,139,39,139,117xm779,-845v112,105,187,257,187,468v0,207,-71,352,-189,470r-19,-15v97,-112,156,-266,156,-455v0,-192,-59,-349,-152,-454xm59,-377v0,188,61,344,157,455r-19,15v-141,-137,-221,-345,-177,-603v24,-140,87,-255,175,-335r17,14v-95,104,-153,263,-153,454"},"\u2477":{"d":"558,-675r0,393r98,0r0,38r-98,0r0,153r-58,0r0,-153r-250,0r0,-35r270,-396r38,0xm297,-282r202,0r0,-291xm779,-845v112,105,187,257,187,468v0,207,-71,352,-189,470r-19,-15v97,-112,156,-266,156,-455v0,-192,-59,-349,-152,-454xm59,-377v0,188,61,344,157,455r-19,15v-141,-137,-221,-345,-177,-603v24,-140,87,-255,175,-335r17,14v-95,104,-153,263,-153,454"},"\u2478":{"d":"59,-377v0,188,61,344,157,455r-19,15v-141,-137,-221,-345,-177,-603v24,-140,87,-255,175,-335r17,14v-95,104,-153,263,-153,454xm779,-845v112,105,187,257,187,468v0,207,-71,352,-189,470r-19,-15v97,-112,156,-266,156,-455v0,-192,-59,-349,-152,-454xm301,-116v0,-19,18,-27,38,-27v52,2,76,40,130,40v80,0,121,-70,121,-156v0,-129,-89,-180,-233,-171v-12,2,-26,-4,-22,-13r89,-204r228,0r-12,44r-190,0r-54,126v148,-2,256,53,256,193v0,130,-88,215,-219,215v-53,0,-120,-5,-132,-47"},"\u2479":{"d":"469,-77v-178,0,-233,-218,-168,-378v51,-125,163,-208,333,-214r1,23v-154,13,-243,102,-279,234v55,-59,183,-51,234,6v30,33,58,81,57,142v-3,113,-65,187,-178,187xm470,-102v154,4,134,-270,30,-308v-108,-40,-183,64,-151,184v17,64,47,122,121,124xm59,-377v0,188,61,344,157,455r-19,15v-141,-137,-221,-345,-177,-603v24,-140,87,-255,175,-335r17,14v-95,104,-153,263,-153,454xm779,-845v112,105,187,257,187,468v0,207,-71,352,-189,470r-19,-15v97,-112,156,-266,156,-455v0,-192,-59,-349,-152,-454"},"\u247a":{"d":"59,-377v0,188,61,344,157,455r-19,15v-141,-137,-221,-345,-177,-603v24,-140,87,-255,175,-335r17,14v-95,104,-153,263,-153,454xm779,-845v112,105,187,257,187,468v0,207,-71,352,-189,470r-19,-15v97,-112,156,-266,156,-455v0,-192,-59,-349,-152,-454xm666,-625r-190,564r-56,0r178,-532r-180,0v-68,-7,-76,41,-104,76r-28,-5r51,-112r326,0"},"\u247b":{"d":"59,-377v0,188,61,344,157,455r-19,15v-141,-137,-221,-345,-177,-603v24,-140,87,-255,175,-335r17,14v-95,104,-153,263,-153,454xm779,-845v112,105,187,257,187,468v0,207,-71,352,-189,470r-19,-15v97,-112,156,-266,156,-455v0,-192,-59,-349,-152,-454xm549,-390v65,28,125,60,125,144v0,109,-80,166,-191,166v-100,0,-184,-48,-184,-146v0,-87,58,-136,127,-159v-57,-27,-108,-64,-108,-143v0,-96,73,-143,171,-143v91,0,164,44,164,135v0,78,-50,119,-104,146xm516,-404v46,-25,85,-59,86,-122v2,-72,-48,-119,-115,-121v-101,-3,-150,124,-73,189v27,22,59,41,102,54xm482,-105v116,9,176,-143,92,-214v-30,-24,-70,-36,-113,-52v-67,27,-110,64,-110,144v0,76,56,116,131,122"},"\u247c":{"d":"483,-669v178,0,233,219,168,379v-51,124,-162,210,-333,213r-1,-21v148,-10,247,-104,278,-233v-59,59,-181,47,-233,-9v-30,-33,-58,-79,-57,-140v2,-114,64,-189,178,-189xm482,-643v-153,-4,-132,273,-28,309v109,37,182,-65,150,-185v-17,-64,-48,-122,-122,-124xm59,-377v0,188,61,344,157,455r-19,15v-141,-137,-221,-345,-177,-603v24,-140,87,-255,175,-335r17,14v-95,104,-153,263,-153,454xm779,-845v112,105,187,257,187,468v0,207,-71,352,-189,470r-19,-15v97,-112,156,-266,156,-455v0,-192,-59,-349,-152,-454"},"\u247d":{"d":"59,-377v0,188,61,344,157,455r-19,15v-141,-137,-221,-345,-177,-603v24,-140,87,-255,175,-335r17,14v-95,104,-153,263,-153,454xm779,-845v112,105,187,257,187,468v0,207,-71,352,-189,470r-19,-15v97,-112,156,-266,156,-455v0,-192,-59,-349,-152,-454xm224,-125v48,1,67,-12,67,-63r-1,-402v-1,-17,-10,-17,-27,-10v-10,4,-25,10,-44,19r0,-27r127,-78r0,498v-4,53,18,65,68,64r0,25r-190,0r0,-26xm669,-654v112,100,107,444,-2,542v-36,32,-96,32,-131,0v-110,-102,-105,-442,0,-541v35,-33,98,-34,133,-1xm665,-577v-10,-44,-57,-112,-99,-57v-68,89,-57,318,-26,444v12,50,59,107,98,56v67,-89,57,-318,27,-443"},"\u247e":{"d":"59,-377v0,188,61,344,157,455r-19,15v-141,-137,-221,-345,-177,-603v24,-140,87,-255,175,-335r17,14v-95,104,-153,263,-153,454xm779,-845v112,105,187,257,187,468v0,207,-71,352,-189,470r-19,-15v97,-112,156,-266,156,-455v0,-192,-59,-349,-152,-454xm224,-128v54,0,91,-5,91,-63r0,-370v2,-38,-11,-56,-47,-42v-13,4,-30,10,-51,19r0,-27r156,-78r0,498v-4,60,36,63,92,64r0,25r-241,0r0,-26xm521,-128v54,0,91,-5,91,-63r0,-370v2,-38,-11,-56,-47,-42v-13,4,-30,10,-51,19r0,-27r156,-78r0,498v-4,60,36,63,92,64r0,25r-241,0r0,-26"},"\u247f":{"d":"59,-377v0,188,61,344,157,455r-19,15v-141,-137,-221,-345,-177,-603v24,-140,87,-255,175,-335r17,14v-95,104,-153,263,-153,454xm779,-845v112,105,187,257,187,468v0,207,-71,352,-189,470r-19,-15v97,-112,156,-266,156,-455v0,-192,-59,-349,-152,-454xm238,-125v48,2,66,-13,66,-63r0,-402v-1,-17,-11,-17,-28,-10v-10,4,-25,10,-44,19r0,-27r127,-78r0,498v-3,52,18,65,68,64r0,25r-189,0r0,-26xm660,-138v48,2,50,-29,66,-62r37,0r-29,98r-265,0r0,-22v75,-110,168,-213,207,-356v19,-70,-2,-159,-73,-163v-62,9,-78,73,-96,128r-39,-6v16,-82,50,-158,145,-160v142,-3,144,195,85,293r-86,144r-69,106r117,0"},"\u2480":{"d":"726,-566v-2,67,-44,111,-94,143v67,11,119,66,118,141v-1,125,-74,190,-198,190v-41,0,-83,-13,-91,-47v1,-46,73,-30,91,-7v68,50,136,-25,136,-105v0,-103,-44,-151,-151,-136r1,-24v67,-20,118,-64,122,-145v2,-49,-24,-88,-65,-88v-49,0,-81,53,-95,94r-39,-1v15,-69,64,-132,145,-132v69,-1,122,47,120,117xm238,-125v48,2,66,-13,66,-63r0,-402v-1,-17,-11,-17,-28,-10v-10,4,-25,10,-44,19r0,-27r127,-78r0,498v-3,52,18,65,68,64r0,25r-189,0r0,-26xm779,-845v112,105,187,257,187,468v0,207,-71,352,-189,470r-19,-15v97,-112,156,-266,156,-455v0,-192,-59,-349,-152,-454xm59,-377v0,188,61,344,157,455r-19,15v-141,-137,-221,-345,-177,-603v24,-140,87,-255,175,-335r17,14v-95,104,-153,263,-153,454"},"\u2481":{"d":"238,-125v48,2,66,-13,66,-63r0,-402v-1,-17,-11,-17,-28,-10v-10,4,-25,10,-44,19r0,-27r127,-78r0,498v-3,52,18,65,68,64r0,25r-189,0r0,-26xm675,-686r0,393r77,0r0,38r-77,0r0,153r-58,0r0,-153r-193,0r0,-35r209,-396r42,0xm471,-293r145,0r0,-270xm779,-845v112,105,187,257,187,468v0,207,-71,352,-189,470r-19,-15v97,-112,156,-266,156,-455v0,-192,-59,-349,-152,-454xm59,-377v0,188,61,344,157,455r-19,15v-141,-137,-221,-345,-177,-603v24,-140,87,-255,175,-335r17,14v-95,104,-153,263,-153,454"},"\u2482":{"d":"59,-377v0,188,61,344,157,455r-19,15v-141,-137,-221,-345,-177,-603v24,-140,87,-255,175,-335r17,14v-95,104,-153,263,-153,454xm779,-845v112,105,187,257,187,468v0,207,-71,352,-189,470r-19,-15v97,-112,156,-266,156,-455v0,-192,-59,-349,-152,-454xm562,-87v-46,0,-97,-8,-105,-47v0,-19,12,-28,35,-28v45,-1,58,36,100,40v104,-17,111,-222,44,-288v-30,-29,-70,-44,-125,-39v-18,2,-30,-2,-29,-13r70,-204r187,0r-10,44r-145,0r-41,126v127,-2,197,71,197,194v0,121,-61,215,-178,215xm234,-125v49,2,67,-12,67,-63r-1,-402v-1,-17,-10,-17,-27,-10v-10,4,-25,10,-44,19r0,-27r127,-78r0,498v-3,52,18,65,68,64r0,25r-190,0r0,-26"},"\u249c":{"d":"59,-377v0,188,61,344,157,455r-19,15v-141,-137,-221,-345,-177,-603v24,-140,87,-255,175,-335r17,14v-95,104,-153,263,-153,454xm779,-845v112,105,187,257,187,468v0,207,-71,352,-189,470r-19,-15v97,-112,156,-266,156,-455v0,-192,-59,-349,-152,-454xm560,-411v-69,19,-134,36,-174,81v-46,52,-8,144,68,126v38,-9,106,-30,106,-89r0,-118xm561,-218v-42,60,-207,82,-247,4v-34,-67,16,-133,60,-156v51,-27,118,-50,186,-67v4,-77,-11,-131,-89,-126v-33,2,-83,9,-79,49v16,42,-37,77,-66,45v-17,-78,70,-118,155,-119v95,0,141,48,141,144r0,191v1,58,15,58,55,24r14,20v-16,20,-38,42,-74,42v-32,0,-58,-20,-56,-51"},"\u249d":{"d":"414,-686r-4,97r0,173v28,-33,72,-57,129,-58v172,-4,200,252,107,360v-56,64,-206,82,-282,26v-11,-8,-16,-16,-16,-25r0,-457v0,-33,-2,-52,-36,-48v-10,1,-24,2,-43,5r0,-26xm638,-260v-1,-97,-29,-183,-125,-176v-54,4,-103,40,-103,94r0,213v4,40,51,47,93,48v94,2,136,-80,135,-179xm59,-377v0,188,61,344,157,455r-19,15v-141,-137,-221,-345,-177,-603v24,-140,87,-255,175,-335r17,14v-95,104,-153,263,-153,454xm779,-845v112,105,187,257,187,468v0,207,-71,352,-189,470r-19,-15v97,-112,156,-266,156,-455v0,-192,-59,-349,-152,-454"},"\u249e":{"d":"59,-377v0,188,61,344,157,455r-19,15v-141,-137,-221,-345,-177,-603v24,-140,87,-255,175,-335r17,14v-95,104,-153,263,-153,454xm779,-845v112,105,187,257,187,468v0,207,-71,352,-189,470r-19,-15v97,-112,156,-266,156,-455v0,-192,-59,-349,-152,-454xm287,-366v0,-132,82,-216,211,-216v69,0,132,29,140,89v5,34,-45,52,-65,25v-17,-23,-12,-70,-43,-80v-156,-50,-228,181,-146,296v34,48,122,69,180,26v23,-17,44,-43,61,-82r25,13v-27,73,-77,136,-173,136v-120,0,-190,-82,-190,-207"},"\u249f":{"d":"59,-377v0,188,61,344,157,455r-19,15v-141,-137,-221,-345,-177,-603v24,-140,87,-255,175,-335r17,14v-95,104,-153,263,-153,454xm779,-845v112,105,187,257,187,468v0,207,-71,352,-189,470r-19,-15v97,-112,156,-266,156,-455v0,-192,-59,-349,-152,-454xm614,-706v-9,163,-4,341,-4,510v0,35,-1,61,34,58v9,-1,22,-4,37,-7r0,22r-132,46r0,-48v-35,44,-138,64,-201,31v-63,-32,-105,-98,-105,-189v0,-127,73,-218,202,-218v37,0,85,16,104,37r0,-136v7,-54,-33,-49,-80,-41r0,-26r69,-17v23,-6,49,-13,76,-22xm444,-474v-138,0,-168,203,-104,306v44,71,191,64,209,-19r0,-187v-5,-60,-43,-100,-105,-100"},"\u24a0":{"d":"59,-377v0,188,61,344,157,455r-19,15v-141,-137,-221,-345,-177,-603v24,-140,87,-255,175,-335r17,14v-95,104,-153,263,-153,454xm779,-845v112,105,187,257,187,468v0,207,-71,352,-189,470r-19,-15v97,-112,156,-266,156,-455v0,-192,-59,-349,-152,-454xm295,-358v-4,-150,115,-253,262,-199v59,22,98,79,100,159r-299,0v-7,117,31,208,139,208v71,0,119,-55,143,-112r37,4v-31,80,-93,147,-199,147v-118,0,-179,-86,-183,-207xm588,-427v6,-101,-125,-156,-190,-79v-18,20,-31,48,-34,79r224,0"},"\u24a1":{"d":"59,-377v0,188,61,344,157,455r-19,15v-141,-137,-221,-345,-177,-603v24,-140,87,-255,175,-335r17,14v-95,104,-153,263,-153,454xm779,-845v112,105,187,257,187,468v0,207,-71,352,-189,470r-19,-15v97,-112,156,-266,156,-455v0,-192,-59,-349,-152,-454xm427,-466v-8,-142,40,-256,185,-222v38,9,83,37,56,75v-30,18,-63,-6,-70,-31v-5,-18,-38,-37,-64,-20v-49,31,-40,111,-44,198r117,0r0,34r-118,0r1,293v3,35,31,38,70,40r0,23r-205,0r0,-23v40,-2,71,-3,71,-39r1,-294r-73,0r0,-34r73,0"},"\u24a2":{"d":"59,-377v0,188,61,344,157,455r-19,15v-141,-137,-221,-345,-177,-603v24,-140,87,-255,175,-335r17,14v-95,104,-153,263,-153,454xm779,-845v112,105,187,257,187,468v0,207,-71,352,-189,470r-19,-15v97,-112,156,-266,156,-455v0,-192,-59,-349,-152,-454xm399,-264v-35,18,-54,39,-57,81v13,51,74,57,140,57v73,0,145,-16,154,-84v-11,-84,-146,-37,-237,-54xm445,-302v106,0,247,-12,247,87v0,99,-121,116,-228,119v-92,2,-197,-21,-175,-110v8,-32,37,-52,64,-67v-28,-4,-51,-43,-27,-71v15,-17,39,-31,61,-40v-39,-19,-72,-56,-72,-112v0,-85,72,-137,164,-135v52,0,88,30,144,29r73,-1r0,34r-78,0v58,117,-41,230,-182,199v-22,7,-52,18,-57,42v1,29,37,26,66,26xm440,-404v46,15,108,-4,122,-40v33,-85,-14,-177,-118,-158v-58,10,-84,89,-57,145v14,29,33,46,53,53"},"\u24a3":{"d":"342,-587v6,-55,-33,-52,-81,-43r0,-26r145,-39r-2,267v30,-32,76,-62,135,-62v85,2,125,56,126,139r1,215v4,32,30,32,67,34r0,24r-201,0r0,-23v54,1,72,-15,72,-72r0,-177v0,-53,-33,-105,-89,-100v-57,5,-112,43,-112,101r1,211v3,34,32,34,70,36r0,24r-203,0r0,-24v54,1,71,-13,71,-71r0,-414xm59,-377v0,188,61,344,157,455r-19,15v-141,-137,-221,-345,-177,-603v24,-140,87,-255,175,-335r17,14v-95,104,-153,263,-153,454xm779,-845v112,105,187,257,187,468v0,207,-71,352,-189,470r-19,-15v97,-112,156,-266,156,-455v0,-192,-59,-349,-152,-454"},"\u24a4":{"d":"59,-377v0,188,61,344,157,455r-19,15v-141,-137,-221,-345,-177,-603v24,-140,87,-255,175,-335r17,14v-95,104,-153,263,-153,454xm779,-845v112,105,187,257,187,468v0,207,-71,352,